1352 50
， 0.16664332 -0.05408741 0.0034867665 -0.07429359 0.08057361 -0.03962687 0.117514625 -0.1384245 0.05523544 0.25476313 0.08165516 -0.25198245 -0.1322793 0.095801994 -0.15621696 0.9767654 0.100965895 0.019703716 -0.08966172 -0.10778898 0.17525803 -0.07119499 -0.036826387 0.27326572 0.15317857 0.080509126 0.33133388 0.056735404 -0.02372592 0.14532979 -0.027607113 0.052398384 -0.07726577 0.08267175 -0.2209951 -0.12913938 0.21169978 -0.10810002 0.07817446 0.043401666 -0.031611715 0.012143006 -0.077324145 0.117441 -0.08240742 0.011756939 0.12344923 0.63253325 -0.202396 -0.016505605
子 -0.22492123 0.41091722 -0.18028603 0.793619 0.2792633 0.20631608 -0.18883987 0.0939977 -0.13733561 0.17715994 0.16477466 0.12693249 -0.03449574 -0.12452909 0.2176274 0.42501473 0.59858894 0.13760714 0.20327048 -0.08459025 -0.21600962 0.07207843 0.084999494 0.05910215 0.2127554 0.03185074 0.22337018 0.5670488 -0.008771711 0.64681035 -0.19880572 -0.12660329 0.06644886 0.0019077669 0.092767976 0.21366261 0.14335711 0.05566726 -0.14267388 0.07977645 -0.052357737 -0.0042220936 0.08341085 -0.11719164 0.00496695 0.25864583 0.14924048 -0.3846899 -1.1283911 -0.08368465
。 0.02834398 -0.09357736 0.7691971 -0.073229216 0.7246349 -0.34869593 -0.07271144 0.077910036 0.07061471 -0.19623306 0.07460577 -0.18668659 -0.04250892 0.04375338 -0.17299916 0.4661675 -0.3757667 0.20259589 -0.0854608 0.20437582 -0.19274087 -0.2411152 0.19323814 0.09838778 0.025092216 -0.13015516 0.05100942 -0.111944824 0.23877652 0.16176184 0.09309959 -0.12503673 0.16568121 0.033505727 -0.019681178 -0.19231348 -0.1251174 0.22401516 0.008740693 0.0186611 0.10922005 -0.20310362 -0.02966943 -0.02332803 -0.00037318288 0.0136625385 -0.25222397 0.20435902 -1.4032646 0.052976083
： 0.12866025 -0.48328495 0.27003363 0.031624738 -0.108819805 0.054895006 0.4155385 0.14042972 0.14472945 0.026020888 0.043444008 0.00018942289 -0.09354293 0.11380737 0.1026988 1.5667899 0.07686298 0.0056318073 -0.092905566 -0.738834 0.3976892 -0.008351122 -0.10553689 -0.084304534 -0.13787271 -0.19860753 -0.09852441 -0.25123882 -0.23613408 -0.06851344 0.16678451 0.24338648 0.058793653 0.0826527 0.13917093 0.043965533 0.27146626 0.14982846 0.056655977 0.018976917 -0.032313336 -0.014966768 0.044563293 -0.12539127 -0.093778275 -0.07155204 0.015068584 -0.782225 -1.0809653 -0.023497647
曰 -0.013415622 0.028140282 0.060576167 0.3488303 -0.45356613 0.47180837 0.12721598 0.23917593 -0.17152835 0.14026698 -0.08390446 0.3563135 -0.51578647 -0.25486553 -0.042399537 -0.32243282 0.25272602 -0.02468417 -0.45746413 0.009717538 -0.12359798 0.16666238 0.22998935 0.23040642 -0.24880454 -0.12384532 0.06210082 0.8167015 -0.054314934 0.24883407 -0.16905113 -0.44262117 0.0816746 -0.058345474 -0.4400175 0.103517845 0.36935097 0.15239677 0.1258616 0.17428403 0.15537229 -0.38253826 0.1283084 -0.028629372 0.00015498165 0.09180672 0.5427214 0.09014917 -2.335953 0.19277447
之 -0.08529163 0.0528862 -0.348036 0.19237658 -0.067415945 0.031404257 -0.12832487 0.45951426 0.22027364 -0.34445125 -0.31900704 -0.0002628166 0.15953806 0.17208667 -0.1495664 0.8957239 -0.07976808 -0.06294989 -0.34461206 0.09732587 0.18889368 0.06918811 0.15061001 0.13472916 -0.23429655 -0.12212883 -0.23779133 0.12730461 -0.04870888 0.26258695 -0.1857199 -0.14736368 -0.07734894 -0.110669695 0.024165923 0.16305481 -0.41057813 0.026177099 -0.035248056 -0.07999179 -0.21430281 -0.32597464 0.5358064 0.29344848 0.375825 -0.351141 -0.10068516 0.21921745 -0.22864005 -0.013818433
不 -0.178668 0.2076387 -0.6723037 -0.27203763 -0.37654406 0.294122 0.065206386 -0.11554147 0.097486906 0.07350255 -0.021263732 -0.1222021 0.33512208 -0.3323943 0.10485022 0.6509558 -0.07139191 0.118880495 -0.41826332 0.33015707 -0.2647866 0.39108816 0.10989081 -0.32520244 0.11204769 -0.11312053 0.08187642 -0.019361496 -0.045557916 -0.28412184 0.15866219 -0.107389025 -0.2694187 0.12171103 -0.010793986 0.21526559 0.040719464 0.0055121975 -0.00945789 -0.18043327 -0.096653186 0.28870827 -0.06076029 -0.00988004 -0.18413377 0.07444164 -0.19138047 0.63829887 -0.9113374 0.11388449
也 -0.15027523 0.211155 -0.14664674 0.32455704 -0.8088391 -0.14657071 -0.2372051 0.1400753 0.12669379 -0.2468044 0.059923016 -0.25581798 0.05366483 0.25925833 -0.1572498 0.6152566 0.35299113 -0.11103793 0.16962135 0.20674394 -0.13800819 -0.14885376 -0.45315292 0.07616462 0.17653926 -0.48249117 0.022916367 -0.13470641 0.21280806 0.0511694 -0.01606891 -0.16790356 -0.2730005 0.05099574 0.006268206 0.061842952 -0.790759 -0.22247119 -0.13988444 0.028350644 0.2833117 -0.0031767106 -0.05038683 0.29806766 0.47625068 0.03839586 -0.11297148 0.30079672 -0.8110268 0.16403146
而 -0.20761621 -0.017937128 0.7665627 -0.52318054 -0.04385877 0.08394557 -0.3328297 -0.3922533 -0.2648858 0.06257612 0.006870838 0.0029479458 0.23427196 -0.085088916 0.009821929 1.4502772 0.47441718 -0.032296427 -0.021653913 0.37021846 -0.1295302 0.59258497 0.25352657 -0.081228055 -0.08098377 -0.11244451 -0.1277174 0.20098661 -0.15496276 -0.5517566 -0.33135286 -0.023899714 0.08041657 0.038662277 -0.028618118 0.2147158 -0.71041757 -0.3261257 -0.29043552 0.0457551 -0.03765764 -0.42635694 0.038572818 0.07366072 0.08158148 0.046363223 0.06791074 0.09907678 -0.29259533 0.18299885
？ 0.10477737 0.017414909 0.92570364 0.59188986 0.5970278 0.26327416 -0.1501072 0.46864685 0.19213891 0.33015308 0.50727075 0.15293536 -0.037117332 -0.2282237 0.21845463 0.7209914 -0.17971264 -0.024657654 0.20553117 0.16386311 0.976192 0.31501853 0.18416804 0.034068078 0.30184388 -0.20863634 0.17890032 -0.5729936 -0.36187142 -0.1871941 -0.24415171 -0.16838291 -0.21130402 0.24465013 0.13497971 -0.35356 0.30728585 -0.09231631 0.24133152 -0.1371568 -0.006119761 -0.017787002 0.15182665 -0.35846394 -0.3470224 0.05863572 0.20034178 0.41709083 -0.75267947 -0.119724944
其 -0.050408963 -0.062482223 0.10368521 0.71333957 -0.3216168 -0.49605846 0.36132208 0.3035457 -0.05189815 -0.13607524 -0.43595695 0.077789195 0.040476628 -0.37780613 0.54477733 0.7205313 0.35953847 -0.2251021 -0.15378013 0.24339123 0.26952085 0.46824867 -0.14093064 0.115024015 -0.061859485 0.29807603 -0.27914423 0.14277366 -0.3660716 -0.4542805 -0.03486069 0.10647733 0.18243487 0.061823364 -0.07971624 -0.078762636 -0.29771987 0.54554087 0.01395271 0.28478768 0.48690632 0.17704229 -0.30712008 0.27281734 0.47548804 0.11672267 -0.1357387 0.69959664 -0.27833647 -0.14569482
人 -0.2976784 0.09554132 -0.3507492 0.6713254 -0.3363741 0.27906755 -0.034476247 -0.0005782314 0.22427374 -0.7179864 -0.05516607 0.20364948 0.005926467 -0.3154361 -0.1315596 0.6344954 -0.23000048 -0.085825615 0.08188266 -0.2757661 -0.23885293 -0.17850283 0.4800654 0.059950918 0.12589248 -0.2393593 -0.0315625 0.25375375 0.10183235 0.16280697 -0.5004112 0.1745383 0.42432222 0.18255599 0.47522292 -0.22427008 0.029301416 -0.1838693 -0.18471043 0.14974964 -0.2625621 -0.5836325 -0.76769465 -0.40063962 -0.011804118 0.012796989 -0.19247791 0.23225868 -0.20773275 -0.22628121
者 -0.41320175 0.0046626446 0.44920516 0.2679756 -0.3371737 0.141601 -0.27408543 0.6151295 0.12933888 0.24323507 0.1126363 0.040830605 -0.07049145 -0.12824008 -0.43140724 0.5465429 0.09809766 -0.3106696 0.40066314 0.033906613 -0.37673217 -0.09104752 0.04681675 -0.34306753 -0.10704232 -0.12952693 -0.18257986 -0.1873209 -0.28498328 -0.00818653 0.20234403 0.38661885 -0.17547679 0.39667296 -0.0071664825 -0.18296364 0.2657105 -0.5573513 -0.19744954 0.23599648 0.26776236 -0.30783248 0.47955662 0.34559467 0.32706004 0.22257297 -0.3847285 0.8571303 -0.16699621 -0.2646491
以 -0.05712445 0.40576154 0.4278561 -0.08468689 -0.90049356 -0.3030853 -0.19766906 -0.42352232 -0.56977445 0.040924292 0.4918893 -0.3651911 -0.15456636 0.3464775 -0.052974842 0.5941118 -0.026287135 -0.3786806 -0.01003658 -0.09343748 0.08659649 0.3041696 0.12350596 -0.46394464 -0.79886234 0.56362045 0.040355206 -0.0008963083 -0.31179073 0.2800307 -0.035586495 -0.14756428 -0.45306394 -0.29889178 0.3301231 0.5472562 0.121567056 0.4553671 0.2231769 -0.21132976 0.001969273 0.3470489 -0.016458651 0.027560726 -0.19044204 -0.040535636 -0.057523005 0.29386196 -0.82285017 -0.18872276
有 0.11732851 0.16760696 0.5743521 0.51933837 -0.5921496 0.3406945 -0.39073306 0.05964278 -0.47336775 -0.7505297 -0.1634814 -0.2098088 -0.13853101 -0.6035156 0.020045718 0.42768314 -0.12341986 0.29877138 0.08938274 -0.55291504 -0.0100418115 -0.004406883 -0.1647858 0.07203649 0.11490276 0.26749253 0.2323487 0.42478484 0.44940948 -0.028776027 0.21820287 0.29998517 -0.3336719 0.0862082 -0.014990121 -0.08353195 0.5189855 0.11102368 0.3754684 -0.3078773 0.30610675 -0.09620286 0.16755594 0.4483294 -0.09316388 -0.2509845 -0.008684144 -0.011031633 -0.3188645 0.12643683
于 0.09780116 -0.35162678 0.31946403 0.39853776 0.51938856 0.050446216 0.20290017 -0.4828874 0.6532541 -0.21508427 0.26021045 -0.2103785 -0.34479746 -0.047898922 -0.037577182 0.7165648 0.93033016 -0.3904935 -0.023618413 -0.2586981 0.1167341 -0.18139672 0.04660548 -0.63629496 -0.012803805 0.35184637 -0.8066819 0.2713142 0.28696397 -0.17357843 0.41396892 -0.38178834 0.1910358 0.17982785 -0.4284272 0.097476795 -0.13492607 0.20746152 0.009095332 -0.42945746 -0.32932693 0.03735054 -0.06000358 0.4499054 -0.18171611 -0.3869868 0.041001536 0.6381459 -0.9111768 -0.2742255
矣 -1.2557509 0.7503012 0.3022285 0.17267329 -0.2859893 -0.264014 -0.23080717 0.40205446 0.054748025 -0.45153996 -0.36807436 0.09690328 0.49072826 0.6825907 0.00048643316 0.7615442 -0.3619717 -0.34118956 0.4581538 -0.89317906 -0.2123122 0.002985607 -0.17634092 0.05549519 0.21069087 0.34118387 -0.22969434 -0.29606473 -0.37310952 0.66561955 0.23021175 -0.45987093 -0.2306119 -0.18758775 -0.072752655 0.02884517 -0.6523699 -0.05087679 0.16329905 0.16588359 -0.04746859 0.30702877 -0.6436454 0.2709818 0.41539037 0.011524699 0.15394293 0.75671273 -0.48884565 0.2961742
为 0.36441997 -0.3073265 0.4689843 0.49795318 -0.06921148 0.89716333 -0.4042241 -0.3570057 -0.84952974 -0.02681981 -0.0153455455 0.16204019 0.016508212 0.37501252 0.022933712 0.5838899 -0.36388144 -0.33894002 -0.14632684 -0.1878271 -0.057122305 -0.5864852 -0.24204034 0.324646 0.24402453 -0.3030585 -0.28336278 0.087957814 -0.113011666 0.23645003 -0.35018498 -0.51192456 -0.45270702 0.16408171 -0.016204577 0.8092803 0.23425928 0.070731245 -0.20983203 -0.46625727 -0.18667862 -0.10547156 -0.35347584 -0.074516885 -0.31464416 0.17988051 0.059514 0.64404315 -0.17516634 0.02766573
君 -0.029954301 -0.16908292 -0.206835 0.8982703 -0.17820784 0.10971406 0.09811889 -0.47285673 -0.005367769 -0.37438592 -0.22758175 0.14037977 0.27226228 0.37874204 0.6657067 0.038573485 0.2014275 -0.07783667 -0.16353297 0.33415544 -0.66500396 0.45481554 -0.4405558 0.10461714 0.28983602 0.16147442 0.73653007 0.4865701 -0.87092173 0.14991182 -0.29793474 -0.23406002 -0.012159286 0.14566854 0.02834228 -0.114708565 0.434886 0.21065684 -0.25933105 -0.6189556 -0.044613406 -0.51036406 -0.08510986 -0.22548105 0.4821487 0.07809965 -0.12344946 0.19074619 -1.361574 0.13500345
乎 -0.3644765 0.29512376 0.6782712 0.31224895 -0.2611243 0.025778249 -0.17810822 -0.57630974 -0.2906337 0.58001536 -0.024661709 0.22475871 -0.19044645 -0.4504212 0.07229259 0.46268895 -0.51462245 -0.02931513 0.333237 -0.68779975 0.64233065 0.2823933 0.029642953 -0.23550102 0.074623674 -0.36536923 -0.9111717 0.42017186 -0.12611078 0.9479788 0.31817472 -0.061813213 0.46542436 0.292116 -0.00097230135 -0.3576431 -0.13345036 -0.26956415 0.25561163 -0.124110356 -0.07392889 0.15462302 0.0017033041 -0.024907006 0.556784 0.10890351 -0.22084893 0.8497718 -0.55367535 0.30337074
可 0.16559964 -0.47059444 0.20617612 -0.52803457 -0.8794206 0.3561195 -0.29556105 0.5651977 0.6328523 -0.58681184 0.07837925 -0.09046519 0.22781496 -0.09547215 0.15909207 0.45598406 0.34770906 -0.21971716 0.24161898 0.33776787 -0.089864284 -0.25231877 0.257994 -0.15208054 0.18921603 -0.07142111 -0.14988261 0.16760059 0.0016622058 0.42960808 -0.19332881 0.34793487 0.3792573 -0.06184427 0.14709574 0.6356157 -0.22885025 0.47283322 -0.13923621 -0.41030186 -0.029322583 -0.0072584054 -0.40095854 -0.71752274 0.44434544 0.42813253 0.7446148 0.84971356 -0.5859917 -0.75139135
如 -0.30200136 -0.030633185 0.9683054 0.18604924 -0.6096935 0.808202 0.11090617 0.008898583 0.3732982 0.19436088 0.1431647 0.5242753 0.411764 0.066684924 0.21326448 0.41283596 0.30794838 -0.46636876 -0.30599797 0.21954405 -0.50309336 -0.60714793 -0.42190439 0.20293544 -0.36833587 0.2497216 -0.04747805 0.30167776 0.4655233 0.45007342 -0.35014057 -0.2318129 -0.10645416 0.25829098 0.35609525 -0.6766588 0.30317816 -0.29903153 0.037406724 0.6024447 -0.22858088 0.14916138 0.34461144 0.2588096 0.046834957 -0.3821504 -0.3093682 0.100602314 -0.33547887 -0.7152411
与 0.016326865 -0.058912057 0.38068134 0.73596746 -0.63738596 0.636333 -0.40117675 -0.1933813 0.009316726 0.05050782 -0.3407335 -0.6762765 0.1326448 0.42832735 0.25195915 0.53749776 -0.039565764 -0.16404776 -0.66327137 -0.13372803 -0.48446092 -0.19708163 -0.09582312 -0.35510153 -0.020201767 -0.78233427 -0.027293775 -0.33874723 -0.009309254 0.0075377314 -0.3153724 0.087215096 0.4120919 -0.040691856 0.7201127 -0.38033348 0.32559988 0.0065894728 -0.22712855 0.08853967 -0.037402544 0.13782066 0.19735378 0.100701295 0.0005847451 0.686454 0.09982867 0.45645985 -0.3312366 0.32775325
； -0.22355238 -0.10693473 0.528303 -0.2547904 -0.0963696 -0.22583182 -0.0764481 0.29668465 -0.025448862 -0.50191575 0.08729269 0.40975177 -0.38884202 0.16601492 -0.060066305 1.6330005 -0.4625153 -0.23850235 0.029441707 0.40433294 0.24726467 -0.21062014 -0.42026907 0.39679262 -0.041655693 0.29228035 0.40161216 0.9992073 0.37320063 -0.30392808 0.8318736 -0.2912384 0.52625406 -0.029946018 0.014465991 0.1478761 0.30262563 -0.33546403 -0.11579864 0.3092567 -0.4779945 -0.25755697 -0.119977556 0.026644811 -0.2416773 0.45032254 -0.3293115 0.31340453 -0.013937437 -0.036151487
言 -0.12971793 -0.02162748 0.46491483 0.11903935 -0.1800759 0.3636697 -0.028070597 0.17085445 0.22192833 0.20243034 0.60740906 0.2251504 -0.25027004 0.56585455 0.3733723 0.5374586 0.054850157 -0.23575516 -0.3379431 -0.33632776 -0.35664302 0.79883206 -0.47289264 -0.24827899 0.54906225 -0.47217363 0.14205393 -0.135363 -0.03436705 0.373748 -0.4472934 0.037807763 -0.017041303 -0.3106688 -0.15798563 0.49449533 -0.56330645 0.38219315 -0.013341379 0.20804003 -0.039104763 -0.33911926 -0.29058897 -0.26392862 -0.13064705 0.36646414 0.14822966 -0.12070913 0.102922395 -0.25860667
无 -0.42227456 -0.1915827 -0.5286465 0.05714554 -0.37335974 0.9134118 0.1051446 -0.34312865 -0.37364948 -0.2408024 0.4934292 0.006207376 -0.36697736 0.19061743 0.5069391 0.5434948 -0.002384935 0.32355323 -0.08606948 -0.45695287 0.32605508 0.82971203 0.29919294 0.43500042 -0.4038789 -0.036200598 -0.49709633 0.2941486 0.5061115 -0.06571628 0.27210176 0.13090332 -0.30527785 -0.12301382 0.5602442 0.04106986 0.15409075 0.37061462 0.6019138 0.19925721 0.32945627 -0.17295268 0.28020096 -0.11009088 0.15926105 -0.5473306 0.021162024 1.2281624 -0.499949 0.5349554
则 0.055807203 -0.044105865 -0.1513483 0.22137642 -0.1004583 -0.054471575 0.20636655 -0.67802507 -0.022097977 0.31009054 0.24759112 0.41070127 -0.44087967 0.38228306 -0.03861735 1.0449195 0.23855762 0.2116031 0.52869153 -0.30974603 0.056674406 0.1742827 -0.012088923 0.00051344687 -0.92520064 -0.32025984 0.07945824 0.32456124 0.08166595 0.099559434 0.08074697 -0.28901 0.26434025 -0.030350829 0.035757545 -0.48619288 -1.0638887 0.22057454 -0.1277804 0.09332646 0.44262397 -0.023564247 -0.007843337 -0.20216182 -0.27173206 -0.38956764 0.18932615 0.81207025 -0.39004862 -0.7377403
！ -0.31844318 -0.8460034 0.6850537 0.64548296 0.5386178 0.23933469 0.016879734 0.09175508 -0.491389 -0.36847505 0.3981524 -0.019110216 0.016399007 0.019906672 -0.51756793 0.4154118 -0.09354723 -0.13651231 0.14974828 0.01981544 0.8170513 -0.4272152 -0.51801366 -0.34663498 -0.14636949 0.0577198 0.31229675 -0.41659912 -0.28083682 0.29508394 -0.33022624 -0.055240296 0.9128445 0.14484473 0.29787627 0.31997296 0.085771054 -0.13351348 0.3760925 0.1411461 -0.31923005 0.49011678 0.19846387 -0.54678845 -0.05968235 0.34421325 0.31302142 0.8066052 -1.0628241 -0.029179294
问 -0.75220704 -0.4179736 0.20287395 1.218319 0.11801128 0.2905726 0.015304107 0.31367472 -0.21870734 0.6957405 -0.021189118 -0.002091593 -0.6007656 0.08298342 -0.45593965 0.16457789 -0.017733201 0.07276959 0.12596604 -0.5263259 -0.08726514 0.2688745 0.103896506 0.042843807 -0.22589469 -0.12218901 0.14622472 0.9265403 0.3305942 -0.23922531 0.22203153 -0.68734145 0.082896516 0.38316873 -0.44465116 0.14833267 -0.13009505 0.2384777 -0.050859354 -0.34744424 -0.4227561 0.06919386 -0.3327771 -0.26271105 -0.41349408 -0.032460775 -0.22922641 0.15378864 -0.5904792 0.37178126
知 -0.10990004 -0.37176478 0.5095121 -0.16082971 -0.2801544 0.22021002 -0.6083373 0.1180908 -0.20372775 -0.24413587 -0.05749231 -0.7506505 0.2504638 0.59280145 -0.117393315 0.00090737623 0.17401575 0.14297293 -0.38267443 -0.9859171 -0.6177198 0.12054514 -0.1038108 0.108282335 -0.3714094 0.2579866 -0.3640516 -0.05984181 -0.25870794 -0.20678368 -0.22542118 -0.36230108 0.56367815 0.24520168 -0.072995886 0.35392553 -0.037420083 0.045470487 -0.1165335 0.012274821 0.212828 -0.36493102 0.23316951 -0.3137584 0.020002367 0.53112 0.37188303 0.65586114 -0.45988563 -0.4037896
何 -0.07938592 -0.2297709 0.3686631 0.6404222 -0.9712726 0.35292262 -0.6257963 -0.2683297 0.17654745 -0.07439053 -0.06475428 0.29329866 -0.12979265 -0.078467555 0.4353671 -0.05483954 0.24989566 0.54260904 -0.83727664 -0.34190503 0.34517965 -0.1160614 -0.27420717 0.18505545 0.49827492 -0.0026910424 -0.044235837 -0.5902468 -0.58864117 0.4465977 -0.22714874 -0.2774388 -0.061953437 -0.034319736 -0.44608542 -0.17753911 0.17217118 0.3470682 0.23831214 0.0766109 -0.38784203 0.0447583 0.92373383 0.10442365 -0.22236422 -0.12565522 -0.6951369 0.33765337 -0.6270648 -0.17149805
吾 -0.10230549 0.08231576 0.49301144 -0.12727246 -1.2280852 -0.17089492 0.008679346 -0.0070346915 0.08555018 -0.1368114 0.09472906 -0.027991623 0.28683665 0.060975462 -0.105984874 -0.031693652 -0.11363179 0.16290925 0.11614448 -0.46974584 0.2376417 -0.091307215 0.28560096 0.16906333 -0.19327842 -0.085331045 0.3160292 1.0901573 -0.45243457 -0.51211447 -0.29435036 0.65022135 0.28347665 0.32229474 0.19136009 0.020287871 -0.24833646 0.2981318 0.060126252 -0.1670468 0.6167288 0.171273 0.3325113 -0.18717377 0.6075465 -0.11756097 0.154433 0.5853068 -0.7002675 -0.6612036
仁 -0.3091632 0.04266419 0.034513365 -0.008625658 -0.43999368 0.37949267 -0.6327878 0.9701867 0.3815187 -0.40636897 -0.18869796 -0.46995905 0.26447356 -0.056620795 0.43524063 0.48916793 -0.04355964 -0.09500058 -0.21221185 -0.12185293 0.055150554 0.0029217303 0.42886272 -0.32513326 0.27070132 -0.022570312 0.02493238 0.44533727 -0.33230305 0.24627334 0.19094665 -0.47036412 0.87430453 -0.06987656 -0.2546833 0.59781146 -0.30032113 0.1966197 -0.29429132 -0.08241854 0.6645302 -0.5133787 -0.6478781 -0.699648 -0.1630594 0.26737285 -0.1822245 0.08326339 -0.17487948 -0.07144351
夫 0.49606374 0.1268139 0.62595445 0.6720474 -0.078977205 -0.19203639 -0.014906542 0.72310406 0.60895413 0.0005954727 -0.12422626 0.44083956 0.026313286 -0.06611043 -0.12579598 -0.22767827 0.2655618 -0.6416186 0.09996641 -0.9956663 0.26239133 0.46583143 0.3120496 0.06825624 -0.43826693 0.07369392 0.55908674 0.25301617 -0.059907515 0.6364724 0.41991216 0.14827417 -0.34963265 -0.061463136 0.22442159 0.13342054 -0.12924361 -0.042642128 -0.081445806 0.060373504 -0.16955522 -0.5393202 -0.2011681 0.26651114 0.035385843 0.57427603 -0.70195454 0.39883783 -0.9028804 0.31073767
、 0.06927897 -0.16586763 0.825163 -0.11282638 0.5711767 0.075266674 -0.031181335 0.38145697 -0.15152703 0.09142995 -0.5776865 1.1844847 -0.24864244 -0.16737312 0.1280384 1.0946485 -0.105308175 -0.2790751 0.26029962 -0.15190597 0.05994823 -0.012337965 -0.33022276 -0.35557482 0.5715722 -0.6256941 -0.08532656 0.45606473 0.045881394 -0.51673084 -0.14724715 0.14220339 -0.48356175 -0.6682206 -0.3978213 0.57498544 -0.28473288 -0.5040303 0.82693213 0.115065 0.19372962 1.0797144 0.0027142186 0.042915206 -0.20500666 -0.73796743 -0.09928966 0.3595879 -1.1080661 0.043708973
道 0.46787426 -0.048600312 0.04649425 0.28720832 -0.7218596 0.045761153 0.2989977 0.15158951 0.53452665 0.21546715 0.7825261 0.20363238 0.35451445 0.015442256 -0.052767165 0.2793591 0.36914706 -0.12868133 -0.46355405 -0.3211683 -0.20579731 0.47377688 0.3574374 0.07312842 0.44702697 0.08303116 0.28759378 0.13111182 0.03393777 -0.051824488 -0.43616262 -0.2090954 -0.120131515 0.004195379 -0.3173726 -0.2111219 0.05342762 -0.2547128 -0.1636765 0.66949624 -0.015522309 -0.26938325 -0.38134265 -0.5383785 0.028405441 -0.20330177 0.2306842 0.66904175 -0.19305812 -0.16545434
焉 0.072545886 0.077764764 -0.15119664 0.7129431 -0.78121257 0.15410241 0.20771948 -0.0043532364 -0.6452991 0.33517894 -0.2790173 -0.08112921 0.8768732 -0.02777628 -0.42408034 0.4434111 0.36123967 -0.114144675 -0.6050548 0.2598286 0.09448218 0.20217235 0.39974883 -0.46541712 -0.14591008 -0.56969965 -0.13796173 -0.024300572 0.586153 0.5564564 0.3451621 -0.9006218 -0.1302512 -0.11822024 -0.38430244 -0.16366118 -0.5314056 0.33420599 0.54225177 0.2466796 0.8250212 0.15971063 -0.49337074 -0.33589375 0.25268087 0.03360689 -0.4205085 0.17494732 -0.7210663 0.314411
行 -0.047356732 0.013368922 0.21418673 -0.096734844 0.06755605 0.52054864 0.17881642 0.23512633 -0.13529137 -1.2652777 0.04164535 0.01434663 0.07812486 0.012363826 -0.04815032 0.5806584 -0.4273243 -0.5084721 -0.04672677 -0.023143504 -0.6225138 0.43527395 0.6234538 -0.22510393 0.53964335 0.3639533 0.019752178 0.18425474 -0.02044612 0.07573038 -0.045261137 -0.71079826 -0.21258892 0.41502976 -0.023594609 0.051301017 0.051925622 0.27779585 -0.25939256 0.3534798 0.025042165 -0.31764346 -0.14717904 -0.22843301 0.15032938 0.45441535 0.20529045 0.214111 -0.043434635 -0.25742474
谓 -0.010226922 0.38097888 0.56317896 0.78867435 0.76225394 0.27919227 -0.6599687 0.4926394 0.18708408 -0.16275504 -0.45111114 0.339563 -0.00892572 0.8665762 -0.08625001 0.48228946 -0.10891524 0.32158113 0.051120732 -0.287063 -0.45968303 0.11740022 -0.11598536 -0.48712686 -0.4323971 -0.04161027 0.0097281765 -0.13593984 0.47782892 -0.4155707 -0.22156443 0.8072504 -0.73942995 -0.27397648 0.10768784 0.3349281 0.39080778 -0.11237063 0.2079724 -0.07153204 -0.4210322 -0.20679303 -0.41787428 -0.038332187 -0.4033095 0.34910208 -0.5800323 0.7624623 -1.0370575 -0.59299827
必 -0.02351947 -0.30223748 0.7916035 0.6160404 -0.6671774 0.11269536 0.24300992 0.11075057 -0.021277906 0.33489466 -0.011990832 -0.005752064 0.102767505 0.19550453 0.98757756 0.5413053 -0.14726256 0.79273516 -0.20860733 0.47938904 -0.8027446 -0.2077708 0.10684008 0.3138396 -0.28236216 -0.061613556 0.5503365 -0.07136879 -0.1381422 -0.36954698 0.91088885 -0.20338838 -0.2745399 -0.2990139 0.04193441 0.21223302 0.0050896145 0.2239195 0.5383449 -0.06639109 0.16025221 -0.5290675 -0.051769935 0.1506443 0.18171893 -0.14134538 -0.09456074 0.56020254 -0.08099278 -0.7443137
礼 0.40410757 0.067897715 0.45966312 0.022711307 -1.132157 -0.08408796 -0.17091665 1.137524 -0.1715985 0.13696793 -0.1027201 0.32224613 -0.6803631 -0.11427751 0.1898667 0.54107636 0.14734927 0.55848014 0.107136466 -0.15190056 -0.2033573 0.1382088 0.15323782 -0.5197222 0.07354371 -0.27116182 -0.017035075 0.56291145 0.117111616 -0.1845295 -0.7031117 -0.98113185 -0.115440644 0.22577395 -0.14888456 -0.16144653 0.079387546 0.38869676 -0.30182737 -0.3852047 0.230765 0.2066429 0.28585246 -0.71777016 0.46745232 -0.36194283 -0.3622828 0.43656498 0.042108834 -0.8003459
孔 -0.6186449 0.42456424 0.30575782 1.9548403 0.0042437506 0.3227388 -0.08964481 0.12053363 0.14329235 -0.5645835 -0.7113908 -0.5200669 0.45440447 0.13905367 -0.2819842 0.37428734 0.7656622 1.170421 0.14336464 0.14846964 0.2836818 0.11793773 0.18859333 -0.006640516 0.3667085 -0.2177275 0.10598787 0.8459515 -1.0247624 0.8092639 0.3293204 -0.23323843 -0.72409886 0.38831085 -0.17849694 -0.026972827 0.35984296 -0.045516875 -0.39288995 0.32269308 -0.22795857 -0.4021998 0.08062356 0.053800307 0.31820524 0.61799634 0.39490566 0.16695438 -0.96793425 -0.21323416
斯 -0.079267 0.40365925 0.3884104 0.35357314 -0.124798305 0.47420353 -0.18319887 0.081224486 0.66304344 -0.22022973 0.032643616 -0.40257934 0.3676118 -0.4924144 0.3045372 1.0988296 0.79694134 0.34246203 0.4045195 -0.93719244 -0.0986439 0.051512603 0.05208037 -0.16949442 -0.23575322 -0.08773373 0.8676482 -0.1258175 -0.45364448 -0.054787964 0.6092925 0.29128996 0.33671328 -0.067059055 0.24553876 0.13819866 -0.42105222 0.46791166 -0.110176414 0.170913 -0.3858221 -0.19410251 -0.5935789 -0.1912861 0.109902896 -0.033993468 -0.3824306 0.48804188 0.4287393 0.13557345
三 -0.2658274 -0.20862758 0.3669026 -0.32380667 0.052339673 0.6461755 0.28725526 0.890238 -0.646 0.3304868 -0.03484472 0.1509075 0.74425673 0.25504443 0.5844627 0.28895447 0.2339679 0.24199234 -0.021994786 -0.669297 0.17626457 -0.029096335 -0.049968634 -0.58786315 0.64414424 0.52935165 0.5229226 0.5582283 -0.19143672 0.095691495 0.8482494 -0.28299037 -0.17306325 0.058008797 -0.578716 0.40610936 -0.041411303 0.7126684 -0.63303834 0.35660192 0.09478065 0.018726626 0.04842585 -0.19652796 1.1010177 -0.5624713 0.27090004 0.8752176 -0.73443264 0.050955098
能 0.09329318 0.0802447 0.20925768 0.5803306 -0.67051905 -0.34145105 0.17521997 -0.18087563 -0.08972577 -0.22369368 0.038971707 -0.02265203 0.38671523 0.14076571 0.6399689 0.84153 -0.09534901 0.3178126 -0.33790597 0.02790088 -0.71364516 0.2785834 0.45974207 0.4146367 -0.49763736 0.5056161 0.43145415 -0.1452275 0.031005269 -0.39564076 -0.41512403 0.28681603 0.025710976 0.5341042 -0.7070318 0.56549364 -0.31606293 -0.9099767 0.1510657 -0.07020467 0.12744002 0.4187476 -0.031225117 -0.69602436 0.017861826 0.20803453 -0.07721038 -0.09794181 -0.5545779 -0.75028324
见 0.19948573 0.42688876 -0.24451596 0.36978725 -0.054702863 0.93333167 0.25651595 0.110671625 0.5680805 -0.6440112 -0.011715008 -0.091532916 -0.20448568 -0.10037974 0.1772939 0.4828674 -0.60855055 -0.532922 -0.5540192 -0.49268773 -0.4812431 0.06527831 -0.2605985 -0.06318742 0.12867264 -0.2267136 -0.764536 0.572252 0.012735458 0.42652258 -0.13605814 0.21988119 0.03270316 -0.24256638 -1.0047297 -0.253298 0.02872047 -0.23057105 -0.7680142 0.18426514 0.66039544 0.119352914 0.51684904 -0.9543735 -0.6099042 0.14524256 0.4660847 0.242257 -0.54044735 0.042410184
学 0.03925758 0.23094556 0.3366148 0.40426812 -0.55226815 0.74059105 0.29501063 0.980622 -0.11025341 0.42547673 0.22184385 -0.13737237 -0.16065727 -0.1414838 0.5371563 0.26490575 -0.24922554 0.50202847 -0.00810745 -0.4677854 -0.27884832 -0.26289216 0.41988096 0.50877017 -0.06362147 -0.20709084 0.32068002 0.40762982 0.77182764 0.41151163 -0.026289927 -0.5748616 0.402946 0.12845327 0.22189426 0.51770455 0.07185029 -0.1407702 -0.26639432 -0.07137458 0.35354888 -0.26187998 0.7046459 -0.98422456 -0.24816488 -0.13365935 -0.30956918 0.5587876 -0.32123217 0.17666794
事 -0.19492187 -0.079593204 0.50486827 0.59409136 -0.5984194 0.5605938 0.5481859 0.10340401 0.1477549 0.047520787 0.19331157 0.66196674 -0.15652224 -0.012553957 -0.26123044 0.4906051 -0.4813661 -0.14978671 -0.3730103 0.18015821 0.21531694 0.39520854 0.50036794 -0.2513962 0.0114521785 0.30075932 -0.3052968 0.92100954 0.1868641 0.5206374 -0.61630064 -0.14129835 0.65806454 -0.13030227 -0.4129357 0.55013156 -0.22498956 -0.13367468 -0.22564791 -0.9961402 -0.11987176 0.31740323 0.15529847 0.6870073 -0.29257843 0.19677049 0.23797344 0.12063713 -0.029071363 0.14526989
是 -0.7532265 0.1351251 0.41525376 1.0970032 -0.69142824 0.13260503 -0.032526396 -0.5749342 0.3613437 -0.7293678 0.121343814 -0.14735465 0.38018757 -0.11763473 0.37514308 0.10067303 0.26601046 0.49960226 -0.28608584 0.3415535 0.6194734 0.07728063 0.4263089 -0.27388465 -0.19848423 -0.18590239 0.31215176 -0.060369905 0.760754 0.29809725 0.3800709 0.05948826 -0.5718467 0.03154604 -0.047862932 0.07356568 -0.5100747 -0.15008177 0.5138026 -0.34738794 -0.4512782 -0.08312374 0.22446194 -0.691024 -0.38772863 0.19297616 0.18844485 0.41173455 -0.3989499 -1.0013014
哉 -0.048897706 -0.09592144 0.38506606 0.5566616 -0.5644711 0.4404503 -0.23750317 0.5768188 -0.002791926 -0.17326704 -0.27096388 -0.042848658 -0.93678707 -0.17659427 0.22926936 0.3542527 -0.012944842 -0.7426813 -0.08534684 -0.6329272 0.1984411 -0.5958714 0.85279673 -0.31258923 -0.49042028 -0.5705156 -0.22973423 0.097745076 -0.4541263 0.48243603 -0.29986513 -0.23043 -0.12475486 -0.37479714 0.35768977 -0.84526104 0.06791738 -0.43930322 -0.0049898243 0.14948359 -0.10036704 -0.16396822 -0.3530688 0.13518274 0.0771507 0.4969546 0.17917746 0.5226138 -0.7417745 0.61691105
闻 0.33442837 -0.32041097 0.38005912 1.4159756 0.3021035 0.79838073 -0.22237004 0.43242902 -0.36016282 -0.22664942 0.67277175 0.21280102 -0.20861231 0.30186218 -0.2569384 0.1289892 -0.4290211 -0.3686934 -0.5032023 -0.32903466 -0.83551323 0.074523576 -0.1118249 -0.3289163 0.30409586 0.072332464 0.1857702 -0.1763565 0.52244925 -0.04293525 -0.04189483 -0.43313622 0.43527 0.5091093 -0.449883 0.00576932 0.16767861 -0.09027651 -0.11759532 -0.27686676 0.12231491 0.44250894 0.37741587 0.026371537 -0.21567689 -0.47009245 0.18749556 0.38999355 -0.41468713 -0.7683583
未 -0.6337689 0.18835749 0.013679185 0.2473115 -0.32255572 0.1141053 0.36733937 -0.06545287 0.20081557 0.045920074 0.056236573 -0.37988025 -0.19763696 0.66648835 0.24727763 0.06797869 0.12396747 0.21423784 -0.18793757 -0.28416947 -0.87608683 0.73287946 0.3305647 0.032823343 -0.19383423 -0.053884774 0.15937424 0.28881332 0.20828916 -0.751187 0.43496642 -0.10197039 0.036450822 -0.24417892 -0.16021647 -0.29513258 0.1109249 -0.4927445 -0.23407823 -0.17429276 0.12711023 0.6278369 0.026056958 -0.15026066 -0.1510778 -0.012980758 -0.95699626 0.6413864 -1.4236351 -0.3198448
公 -0.04962155 -0.35449216 0.3627544 0.5617925 0.23758666 0.47313333 -0.016715022 0.9354728 -0.00088501396 -0.18297954 -0.26953977 -0.51930994 -0.18964581 -0.018650347 0.44233325 0.6921349 0.17252705 0.9072102 1.0050764 0.08309853 -0.51265776 0.019665863 -0.37225202 -0.17341432 -0.65107936 -0.64004344 0.17227937 1.0540421 -0.82339686 0.6838873 0.2710418 -0.8123721 -0.8322302 -0.24898317 -0.23833862 -0.10286059 -0.44226533 -0.13528216 0.03557651 0.2910788 -0.257642 0.18961056 -0.94738287 0.13908538 -0.3836481 -0.17065221 0.49967146 -0.052885436 -0.56717515 -0.50179476
好 -0.60975134 0.0072646365 0.3378926 -0.1544314 -0.95581144 0.065319 0.05078907 -0.07008247 -0.25776023 0.31344384 0.5811555 -0.32798755 0.63403594 -0.40755576 -0.07009519 0.9859312 0.31747857 0.14406875 -0.91477495 -0.53785414 -1.0599113 0.32241762 -0.27150682 0.72958726 -0.6702973 0.26918536 -0.18628807 -0.4062761 0.09940468 -0.1600147 0.21238707 -0.25431985 -0.26575142 0.0966629 0.009312584 0.15586017 -0.69253576 -0.059718426 -0.5955411 0.0161097 -0.22698465 -0.40478688 0.5109745 -0.08196726 -0.48916602 0.50860137 -0.3464662 0.2806346 -0.500659 -0.11098378
我 0.09256926 -0.16383444 -0.06533474 0.74215657 -0.70303607 -0.66480154 -0.39877862 0.9342754 -0.08276858 0.03998365 -0.4651528 0.1277362 0.56499904 -0.4946155 -0.28234392 0.48835537 0.10543756 0.40230775 0.27480257 -0.43140593 0.15395737 0.066558264 -0.54636824 0.3871384 0.68985325 -0.67430073 -0.16170487 0.5216388 -1.009038 0.016180146 -0.9594141 -1.0055531 0.8951399 -0.6453687 0.27689144 -0.011727846 -0.006487985 0.11793401 0.03856295 1.163156 0.2790499 0.23309556 0.1691666 -0.524967 -0.062586926 -0.6812353 0.08032723 0.5204289 -0.35737133 -0.3716589
路 0.06977532 -0.1390724 0.5245665 0.7344088 0.8931724 0.5038673 0.58146405 -0.04369261 -0.22289042 0.043278754 -0.17102844 0.23755737 0.4811445 -0.4374319 -0.0740495 0.6341262 0.50917655 0.3956503 -0.18855993 -0.22131191 -0.18186112 0.6354413 -0.36780083 -0.019240167 -0.90606385 0.31546432 0.065626025 1.0050267 -0.6755294 -0.027786374 -0.15134595 -0.28719202 0.42466566 0.3410589 -0.103177175 -0.5082348 0.52155346 -0.7402943 -0.12664552 -0.31222156 0.73205584 -0.0506753 0.36892483 -0.71215093 0.12050554 -0.034135062 0.6649297 0.6326828 -0.70010656 0.7328187
在 -0.24207231 -0.74509966 0.7448684 -0.0018892321 -0.15364197 -0.2681349 0.3196667 0.22417313 0.652543 -0.057465598 0.37806687 0.5977891 0.0766424 -0.27989727 -0.51999277 0.48248628 0.14933872 -0.7220191 -0.7919296 -0.09343747 -0.6184164 0.039858755 0.039340075 -0.16304857 0.42033976 0.4605828 -0.41147807 0.6237939 -0.27613452 0.4554479 -0.07720012 -0.4688508 -0.7240619 0.31063938 -0.24174504 -0.056514513 0.18200259 0.62840825 0.33762118 -0.53735036 0.5409083 -0.5518494 -0.21960229 0.25408205 0.21091644 0.09883617 0.44464412 0.32155657 0.17369077 0.21941052
已 -0.4344231 0.05315219 0.7474004 -0.15926445 -0.21248125 0.16128993 -0.3254802 0.52558786 -0.02537867 -0.900308 0.8133569 0.38405818 0.5845005 0.22470233 -0.19705988 0.35104206 -0.26325023 0.028475404 0.6213657 -0.29768032 -0.1340128 0.6754054 0.6649894 -0.43715057 0.5814452 -0.23368728 -0.26176926 -0.34605262 0.61736256 0.3321655 0.08758088 -0.08074378 0.18668556 -0.44534877 0.2852094 -0.29315737 -0.0012409195 0.38855374 -0.005780696 -0.08070472 -0.015500529 0.29993114 -0.22855869 -0.8846955 0.29748747 0.8242759 -0.19121364 0.71091294 -0.7988338 0.46530235
得 -0.34503654 0.29642624 0.52033305 -0.28988546 -0.45732564 0.16877642 0.29323325 -0.28128 0.44268057 -0.31080386 1.0392425 -0.0044780653 0.40250462 -0.16141286 -0.65095174 0.79596096 0.078349076 0.036380902 -0.19421034 -0.42168438 -0.058431953 0.77665013 -0.17728525 0.26100972 0.3148859 0.21700574 0.3310911 -0.37519246 0.2256243 -0.07927241 -0.579581 -0.2689749 0.32279322 0.8128424 0.110216446 0.64218 -0.14397731 0.3566759 0.19425516 0.1437362 0.033741564 0.37601465 0.3809933 0.30811548 0.16353305 0.23164617 0.03646814 -0.02804565 -0.23700233 -0.5778104
所 -0.28807938 -0.06545585 0.23878075 0.0517976 -0.95732284 0.48441863 -0.2087343 -0.08917431 -0.32114613 -0.28979045 0.4531605 -0.15847135 -0.42123118 0.004569303 -0.065597005 1.0325291 0.13230115 0.103899784 -0.34096947 0.58074784 -0.3359622 -0.015972286 -0.40773717 -0.813909 -0.35910535 0.07081047 -1.0097235 -0.36297506 -0.8378035 -0.0043626674 -0.3967094 -0.3482301 -0.23577784 0.26569232 0.07592021 0.07350676 0.31419435 0.08472446 -0.08321972 0.7645189 -0.28279597 -0.6034857 -0.31635553 -1.5957004 0.079312965 0.091556646 -0.32701498 0.004034748 -0.39055064 0.045941282
民 -0.18194512 0.49031818 0.4252787 0.25886002 -0.7377353 0.48680487 0.49892756 0.016066644 0.86918837 0.24520949 -0.3036678 0.3732169 0.6437584 0.0074191345 0.13805285 0.6213526 0.31145602 -0.098222665 0.20551775 -0.17245173 -0.14286828 0.035228163 0.28193521 0.7287735 -0.21085152 -0.39542124 -0.3081234 0.4545622 0.2473454 -0.20778778 -0.28481546 -0.36237046 0.20406958 -0.58680826 -0.25149563 0.3606863 0.6812023 -0.29729 -0.5880393 -0.008342746 -0.23592743 1.4939032 -0.15469423 -0.1768054 -0.036469012 0.42912126 -0.13586596 0.79578716 -0.20496762 -0.5005565
小 -0.84348977 1.1784267 0.24976923 0.9454188 -0.3093071 -0.15268697 0.6694275 0.24916604 -0.12796213 -0.16911113 0.52952456 -0.37017158 -0.62112814 -0.08925219 -0.49189252 0.2720544 0.18318689 -0.7093786 -0.9150925 -0.19981231 0.3558536 1.2876003 -0.5132427 0.25605324 -0.012049033 0.30176926 0.31421456 0.32872692 -0.056865674 -0.01630142 0.4380685 -0.06380963 -0.08674774 -0.31765544 0.38236013 0.3044667 0.24927785 0.3459349 -0.5407799 0.2599121 0.63813055 -0.25924668 -0.109562986 -0.018118806 -0.046717938 0.2372777 0.60055274 0.59734476 -0.26395208 -0.29263428
天 -0.8523063 -0.15025781 0.64333975 0.8788088 -0.44623092 0.34270576 -0.37686527 0.54966754 -0.23332076 -0.08324032 0.2901479 0.5765947 -0.45511758 -0.043683805 0.23899774 0.2686288 0.14097059 1.1637961 -0.69760513 0.23737378 0.08775933 0.15441442 0.34864858 -0.49551025 0.61597544 -0.03591419 -0.13974966 0.49098018 0.072244175 0.046766605 -0.24905607 0.17547968 -0.20649138 0.72853726 0.3539964 -0.2504459 -0.018436646 0.796213 -0.33090264 -0.025608387 0.63403875 0.25726762 -0.18416847 0.5022214 0.58572626 -0.2542993 -0.54106694 0.42861557 -0.051787246 0.2653336
乐 -0.596807 0.025177402 -0.07429532 0.65094846 -0.4579696 -0.04044537 -0.06927469 -0.5236826 0.4871128 0.27745676 0.018863281 -0.30290163 0.9726901 0.12153788 0.0634495 0.60584986 0.15867859 0.70424604 0.1712478 -0.41376752 -0.12716025 0.27818075 -0.19645222 0.07266051 0.0071907965 -0.37947047 0.10089198 -0.3170049 -0.55553263 0.6418029 0.15780413 -0.44666782 0.15320581 0.3763226 -0.28632414 0.3677383 0.20102105 1.1152282 0.39452136 -0.3555602 0.59105855 -0.10894362 0.5315673 -0.5613433 -0.09258003 0.39796215 -0.60997325 0.34070793 0.11395289 -0.23519622
邦 0.42058647 0.2482975 1.0921677 0.8318749 -0.4073034 -0.093323804 -0.18576007 -0.33057874 0.7551225 0.25249782 0.18058008 0.5084079 0.0523698 0.46796167 0.43818355 0.4253214 0.23938149 -0.35258022 0.17425002 -0.56829166 -0.7808266 0.012691188 0.35956237 0.14893179 -0.09312275 0.0926543 0.67690754 0.25209716 -0.38573703 -0.31146318 -0.4635954 -0.011616284 0.2708496 0.10337283 -0.23276669 -0.30781972 0.050091844 0.32008034 -0.71250117 -1.0019916 0.27526948 0.15083729 -0.46438712 -0.116005525 0.87857825 -0.548904 0.4926951 0.18150452 -0.29241922 0.16031379
亦 -0.03248443 0.26987392 0.1536875 0.49604005 -0.13061422 1.12761 -0.7218411 -0.68649226 -0.31814647 0.32984304 -0.56770563 1.0309975 0.10079889 -0.036559835 -0.04384247 0.60029685 -0.045711424 0.50881374 -0.6813658 0.45897222 -0.11640386 0.30402943 0.109721355 -0.6714146 0.047187414 0.43925035 0.61167973 -0.32734057 -0.67304796 0.18886827 -0.24568869 0.2603638 0.13476275 -0.28703782 0.016040942 -0.5668352 -0.011796122 -0.1758816 0.22802912 -0.309975 0.7284866 -0.15457934 -0.048643187 -0.050386466 -0.65963817 0.19284426 0.017531537 0.27649036 -0.6813939 -0.4749692
使 0.13650301 0.4155525 0.42299744 0.27941498 -0.10999386 0.11678745 -0.24774672 -0.21766074 -0.45492887 -0.6211193 -0.1513991 0.83299404 -0.2847418 0.5623158 0.055179514 0.20706655 0.53834057 0.2802746 -0.21744835 0.012342287 -0.29478782 0.38154987 0.044413608 -0.95107377 -0.10453937 -1.0894436 0.4696382 0.1135479 -0.2963347 0.15436237 -0.12889995 0.4999589 0.99044675 0.21568859 0.27276313 -0.05023262 0.80843335 -0.26973137 -0.5435427 -0.30963358 -0.06809692 0.40504968 0.38042796 0.17819108 0.33860928 0.075491026 0.22826624 0.593379 -0.4219315 -0.42325222
大 -0.70458597 0.76856035 0.37156385 0.15267025 -0.36258963 -0.5407137 -0.4262037 -1.1153218 0.23999147 -1.2389772 0.27521902 -0.12224405 -0.051753633 0.22745697 0.59331983 0.8280248 0.09138059 -0.2050031 -0.5229235 -0.18927069 0.2183503 -0.14837514 -0.46438348 0.15604697 0.9501922 -0.32127786 0.15254639 0.44670346 -0.29043347 -0.17489395 0.115682565 -0.7733983 0.31587794 -0.058688305 0.6005511 0.26602495 0.36133268 0.21905114 0.37261024 0.2806593 -0.6655417 0.5578286 -0.30373126 -0.40721694 0.43594262 -0.21566837 0.56940943 0.32961443 -0.20285752 0.14055
下 0.27637002 0.6597457 0.15568192 0.6029171 -0.4956437 -0.08811228 -0.56575274 0.9190774 -0.44483098 -0.2825414 -0.023003021 0.27671784 0.6385273 0.019885823 -0.074892685 0.54018074 0.53855276 -0.124872886 -0.47502092 -0.47211182 0.0072497264 -0.36112028 0.2862067 -0.69158536 -0.043675818 0.32817125 -0.7452961 0.35435578 0.18733129 -0.46926463 -0.3606725 -0.15923947 0.70321906 -0.054988585 -0.34157753 -0.7947837 -0.18402895 -0.7271091 0.4199917 -1.7184066e-06 -0.20180705 -0.6665715 -0.056545705 -0.32414848 -0.5800325 0.28476584 -0.4810585 1.0827485 -0.45650145 -0.6868546
贡 -0.14061642 -0.09300954 -0.0155672375 1.1782025 0.654624 0.9129928 -0.0016653766 0.27898404 -0.23728159 -0.19316423 -0.26632383 -0.67196894 0.47155336 -0.5713205 0.11712148 0.87820584 0.17900802 -0.65308005 -0.0065393434 -0.46675208 0.3681602 1.2166255 -0.12201403 -0.3863849 -0.14584552 -0.4081724 0.1601517 0.57061154 -1.1960315 0.46119547 0.22513795 -1.1975721 0.17412592 -0.6148724 -0.6001642 -0.47182667 0.16067433 -0.45462632 -0.11775451 -0.055888712 0.057469793 -0.49748787 0.45285183 0.30456233 0.513057 0.16802107 0.29901347 -0.4254095 -2.1874804 -0.44948193
欲 -0.2003633 0.1907351 0.22637753 0.076506995 -0.16440803 0.2162069 0.21223114 0.15990947 -0.3463768 -0.036340725 0.20450373 -0.5184159 -0.3940578 -0.18756282 -0.8536347 0.43029374 1.0133566 0.29989547 -0.49957612 -0.12921381 -0.38541335 -0.006765693 -0.16481459 -0.15862502 -0.26948667 0.45862126 0.2168815 0.2342198 0.25440878 -0.5390965 -0.6667102 -1.1130389 0.25089553 0.330219 0.14579968 -0.43812865 0.6072157 0.09539573 0.43237284 0.5754285 0.4774691 0.089131586 0.2045964 -0.2417753 0.37750494 0.5707535 0.047165792 0.22245263 -0.4519662 0.06726916
诸 0.7209552 0.12659793 0.8350261 -0.286926 -0.24092844 0.75515383 -0.38123554 -0.3418412 0.5247299 0.51482624 -0.013607113 0.54675907 -0.29012918 -0.21480621 -0.3458687 0.5527863 1.0412343 0.40985927 -0.92930466 -0.5154459 0.5091413 -0.50710785 0.14552727 -0.36423096 -0.16100399 -0.19101205 0.5091974 0.4357742 -0.017102279 0.31313968 0.71380526 -0.8346601 -0.25817063 0.62037665 0.9059576 -0.2764551 -0.095815815 0.15164962 0.18994085 1.1901553 -0.23288329 0.71425825 -0.23642655 -0.3075437 1.3366687 0.09007619 -0.11777645 0.26909316 -0.81271917 0.15101883
从 -1.0525976 -0.13447571 -0.18510325 0.57945746 -0.34763488 -0.06881748 0.09601167 1.025188 -0.14540587 -0.2145577 0.5495787 -0.2948256 -0.8352465 0.29707614 0.9068076 0.80306906 -0.93088496 -0.05326686 -0.24171841 -0.27859145 -0.3843574 0.22897181 0.3485226 -0.26465553 -0.020389058 -0.37883338 -0.57345366 0.49666128 -0.1248672 -0.051750526 -0.32620296 -0.18406321 0.0975344 0.5204714 -0.7206393 0.33203682 0.68795353 0.06268896 0.093514934 -0.34338987 -0.24168806 0.07030348 -0.16036308 -0.07703692 -0.42474067 0.12157431 0.10327977 0.41722286 0.20123123 -0.7539695
文 0.5724386 0.27183723 0.18983388 0.57385784 0.02103542 0.34646803 0.022835167 0.9873226 0.27259985 -0.7846668 0.80825764 0.27026787 0.93567264 0.4965143 -0.15360354 -0.08879836 0.3555357 -0.21891658 0.30372518 -0.10405657 0.32297 -0.9348478 0.6974342 0.14340912 -0.111387305 0.043920696 0.11918784 0.90671355 -0.48566297 0.12545083 0.072391525 -0.1930285 -0.4371446 0.7323345 0.34847844 0.29428625 0.59122425 0.09971213 0.21662153 -0.34975517 0.1353202 0.44168636 -0.16519195 -0.60451025 -0.5144691 0.24981405 0.12587503 0.97982615 -0.48097065 -0.030322712
政 0.46988305 0.4739013 0.05137994 0.35608214 -1.1880215 -0.19977522 -0.65498596 0.72411513 0.11750686 -0.4847618 0.37759218 0.33705083 0.24439749 -0.37843764 0.6941077 0.50873774 -0.0036155588 0.24772207 -0.56532985 -0.33694288 -0.4395324 0.2480936 0.21466476 -0.34112036 -0.08438979 -0.11319383 0.32333848 0.4901332 -1.1474888 0.47719213 -0.12601003 -0.7154037 1.5169003 0.49626696 -0.4097503 -0.4644863 -0.52153677 -0.23336609 0.9301413 -0.25102788 -0.24678783 0.38780347 -0.33882654 -0.2664117 0.26124355 -0.68052286 -0.63620526 0.38082713 -0.007072 -0.23011856
食 -0.35249472 -0.4645991 0.43694887 0.18822558 -0.28500527 -0.41794786 0.23240124 -0.00773877 0.22790389 0.11578249 0.08234823 0.28968456 0.999317 -0.31282133 -0.09499144 0.2080095 0.33224693 0.5707403 -0.24643663 -0.6235561 -0.8721291 0.680917 -0.16520001 -0.28561693 -0.36427468 -0.3059991 0.07039164 0.5625764 -0.6009593 0.3997021 -0.19391647 -0.8829056 -0.6210104 0.42361978 -0.5574036 0.7217445 0.8998348 -0.15192676 0.22691283 0.7724345 0.096753605 0.008581352 -0.94214636 -0.67836857 -0.1043535 0.055279516 0.13622549 0.573034 -0.030939551 0.48207283
善 -0.32230854 0.5502069 0.5136785 -0.2767146 0.0951954 0.3644585 -0.19522904 0.22864069 -0.008828487 -0.5261563 -0.0874754 -0.42939508 -0.5661884 -0.13045077 0.31520215 0.14385074 0.9134046 -0.24794397 -0.25372702 -0.6484034 0.058848817 0.30214322 0.19157097 0.26009136 -0.21708858 -0.53636533 0.780058 -0.19487154 -0.096288934 -0.18585677 -0.9639647 -0.5115821 0.6350912 -0.27948537 0.1667427 0.23104562 0.113576114 0.5989029 0.47340637 0.10692253 0.43913743 0.09958349 -0.014448925 -0.100588486 -0.4181976 -0.075098164 -0.11241222 0.32679483 -0.11392548 -0.04946314
后 0.0390942 -0.65782994 0.67801887 0.42184487 -0.8550464 -0.3032072 -0.66126657 0.40800115 0.041162536 0.5981394 0.39906093 0.16003636 -0.43484116 -0.1127761 -0.5019045 0.62290555 0.15493292 -0.5907238 0.10113068 0.5554329 -0.8019051 1.1206174 -0.050943594 -0.41388267 -0.30077517 0.11665245 0.11176944 0.14130472 0.0006719037 0.5219177 0.8349637 -0.1565698 0.6492934 -0.19568002 -0.5605474 0.48412782 0.042061664 0.3749673 0.451137 -0.21584505 -0.8432043 -0.20286016 -0.27382836 0.090946294 0.4851132 0.05433659 0.18186982 0.8941273 -0.0064780144 0.79468775
德 1.0364584 1.0803016 0.5951447 0.42353258 -0.18039253 0.6946646 0.60058296 0.8377074 0.23768084 -0.22917025 -0.026867956 0.5340906 0.03680054 0.32379553 0.4359762 0.41352856 0.3566072 0.3585032 -0.28990167 -0.04656562 0.16584605 -0.1620126 -1.0430864 0.26251227 0.11804481 0.4033188 -0.48545057 0.83711326 0.80185395 0.7517236 -0.88352406 -0.5061223 0.7173353 -0.12564261 0.36528754 0.4684506 -0.4428959 -0.15012555 0.24503306 0.27826193 0.21950248 0.0684265 -0.17302181 -0.55726194 -0.07859947 0.534288 0.016393837 0.9208779 0.26985738 -0.50734913
求 0.22315769 0.3667121 0.29409105 0.2783524 -0.3954843 0.96062684 -0.40445384 0.80122197 -0.14007813 -0.053953025 0.24813293 0.13997987 -0.08067309 0.38721955 -0.11760636 0.22134684 0.42970657 -0.36540493 0.20312352 -0.07344603 -1.0709965 0.89535064 -0.034151394 0.28102407 -0.6095943 0.30748576 -0.37061638 0.069787934 0.004960093 -0.29539496 -0.8130865 0.123945855 0.7416631 0.11926589 0.9206972 -0.4882214 0.456057 0.40833992 -0.03466313 0.2936495 0.16825025 0.55720305 -0.46764785 -0.5526538 -0.88345 0.2814802 0.44564724 0.75363374 -0.69558376 0.2719507
对 -0.43469745 -0.26789317 -0.043908138 0.31744415 0.16624515 0.7154419 1.0220166 0.24758956 0.32835165 0.3579151 0.42252362 -0.082557365 -0.67063457 -0.590357 0.39191625 0.4748334 0.6795031 0.17242654 0.005005089 -0.1845508 -0.53286344 0.76809067 0.18047749 -0.16781451 -0.5974574 -0.76508904 -0.19044021 -0.4061101 -0.061859187 1.107438 0.0008915722 -0.28355616 -0.328014 0.9908705 0.0970718 0.15882067 0.069684654 0.09121438 0.24805233 0.27259207 -0.10780664 0.08583627 0.51195776 0.43733838 0.57134855 0.68862486 0.72310734 0.0065447195 -1.6568435 0.2997461
恶 -0.69212973 0.76756084 0.3740481 -0.024363905 -0.047524404 0.2841008 0.012552663 0.011772084 0.14986058 0.15926793 0.702391 0.5156722 0.13646887 -0.45267433 0.2848804 0.27439597 0.27118245 -0.02352652 -0.61702996 -0.69358397 -0.8360668 -0.5362835 -0.118929625 -0.09771497 -0.30921987 0.16785267 0.45880485 -0.011282713 -0.14021003 -0.23212913 0.4572586 -0.38307294 0.09162365 0.32349324 -0.6146937 -0.3687064 0.5969204 0.29983148 0.6139877 0.7097974 0.5429342 -0.4753635 -0.40679324 -0.019357104 0.47181773 0.37403834 -0.49928913 0.8260043 0.055213064 0.32025263
信 -0.06475756 0.62260723 0.48048773 -0.34816718 -0.64555526 0.7121239 0.40480876 0.42407584 0.83354926 -0.5307977 -0.15594718 0.08141551 0.17791516 -0.17457901 -0.059731204 0.06863051 -0.39349586 0.22058009 0.60621375 -0.6377429 -0.17502433 0.18242624 0.13581072 -0.38413277 -0.042670995 0.169628 1.0891762 -0.08186612 0.7360853 -0.081338316 -0.4161809 -0.76859385 0.10343822 0.2723373 -0.11669323 0.028935065 -0.3299183 0.3490481 -0.39311787 -0.6372939 0.62210995 -0.41352606 0.7670952 -0.693643 0.21897477 -0.09574423 -0.08398365 0.72362894 -0.4931825 -0.18479997
死 -0.33510917 0.35811138 0.3234672 0.03516606 -0.9466997 0.60758495 -0.64719903 0.41073605 -0.14425476 0.26488426 -0.3332223 0.33363152 -0.8257939 0.20698045 -0.43102384 0.34099758 0.23093419 0.23551108 -0.084031604 0.11817852 -0.60681933 0.49693787 0.08914633 0.009937752 0.12909704 -0.44498524 0.5372069 0.51933116 -1.0179964 0.41085058 0.4938583 -0.121629946 0.9587266 0.08286088 -0.09316078 0.8177717 -0.12295542 0.08934305 0.35684493 0.42395362 0.69798684 -0.020920925 -0.5918538 0.27490795 0.3267058 -0.26868126 -0.60479134 -0.009188751 -0.15055665 0.14954391
然 0.31151924 0.34620965 0.59259623 0.17684805 -0.60541534 0.11379706 0.20083922 0.13126697 -0.1076993 -1.6688741 -0.42643338 0.16068766 -0.5102153 -0.87719387 0.14553612 0.18435505 0.65159655 -0.5554622 0.08680742 -0.4516812 -0.49573264 0.21255672 0.7953997 0.39780906 0.47866675 0.5428816 0.29242644 0.2749719 0.016780121 0.6340627 -0.53169143 -0.73422337 -0.029667746 -0.34677723 -0.5361171 -0.18544394 0.2017559 0.5420079 0.034509532 -0.043837048 -0.13130447 -0.06978817 0.15418011 -0.024140768 0.11995873 -0.2176267 0.16583063 0.1673762 -0.46415558 0.86607563
《 0.6224914 -0.15053463 0.3065728 0.32562703 -0.7238796 -0.47326085 -0.11739305 -0.33570954 0.37654138 4.9790266e-05 -0.26706126 0.45929968 0.8509913 -0.1476316 0.3189919 0.50409776 0.31637287 -0.06591181 0.10937037 -0.48389217 0.26488733 0.2740819 -0.1963747 0.2662134 -0.4201595 -0.5366781 -0.35422844 0.85985196 0.30123112 0.25637397 0.16358274 -0.9413934 -0.4366033 -0.08765096 -0.43009222 0.5474718 0.03979847 0.1826373 0.34652418 -0.1482815 0.069968484 -0.54617256 0.441326 -0.13526128 0.84580266 0.7120675 -0.43595827 -0.10226651 -0.8632049 -0.79067147
》 0.13434209 -0.10560134 0.91773754 0.63694906 -0.21376188 0.060770288 -0.10221227 -0.395041 1.1558092 -0.19762331 0.024755996 0.72647077 0.54598504 1.2331731 0.012830142 0.21260558 -0.041913845 0.27966687 0.86733717 -1.4863423 -0.06710812 0.7193688 -0.22022748 -0.18347573 -0.24804984 -0.56283885 0.10864843 -0.11536612 -0.4379662 0.26650852 0.2935662 -0.7616208 0.73005676 -0.8346666 -0.61012894 0.555106 0.110395305 0.9720232 0.16239826 0.22349378 0.8787125 0.37463778 0.52397406 0.28752244 0.4933159 0.7318123 -0.47651365 -0.005396482 -0.6559308 0.18844326
由 -0.9070203 -0.12697482 0.70131016 -0.07040365 -0.02923843 0.25083297 -0.04671704 0.019769762 0.78339636 -0.33289552 -0.0892668 -0.16029522 0.21384835 0.46334976 0.5021652 -0.16981132 0.6688093 -0.66476977 -0.67140454 -0.17357942 -0.29120445 0.5424119 -0.18220375 0.15266873 -0.11494225 -0.154449 -0.30818143 0.0923017 -0.06018466 -0.17405625 -0.2715184 -0.055563163 0.3301651 0.22718333 0.59885406 0.47187206 0.14618644 -0.17354321 0.60542446 0.6346277 0.045671325 0.748035 0.25198945 -0.3566439 -0.43418014 0.7192005 -0.21385989 0.94502515 -0.60187185 -0.4110417
仲 -0.3002077 0.2155455 0.09304312 0.6547175 -1.1777058 0.35310632 0.17893566 0.18338148 0.5587814 -0.051762108 -0.5731905 0.19233352 0.39024878 0.85430044 -0.25970095 0.69629824 0.019333396 -0.48362935 0.16549848 -0.079017594 0.03738589 -0.34668398 -0.043981392 -0.64575547 -0.38435325 -0.9571824 -0.019898871 0.55499506 -0.20511557 0.30986506 -0.106840625 -1.6171093 -0.17003042 -0.11850883 -0.096818246 0.2593488 -0.014512744 0.40203226 0.8728523 0.13020016 -0.513373 0.06952903 -0.1992036 -0.42577326 -0.85264415 -0.19788176 -0.16616887 -0.22026749 -0.33245003 -0.94944304
非 -0.33220795 -0.9774526 -0.012255654 0.3860811 -0.39142042 0.8722516 -0.4780632 -0.064291425 0.42573255 0.1291581 0.47982523 -0.06617664 -0.0042251837 0.5429044 0.21673758 0.024728471 0.05704408 -0.062485013 -0.5342953 -0.32944056 -0.47798643 0.17364281 0.30334798 1.0851772 -0.076086506 0.4284316 -0.0010906107 0.5126212 0.54804254 0.40578997 0.4344361 -0.6951792 0.18460862 0.20426333 1.1998127 -0.11944615 -0.04005169 0.23146796 0.848774 0.41952005 -0.1726646 0.6905518 -0.2907067 0.08928908 -0.012326194 0.047079787 0.31211227 0.8935719 -0.26322642 -0.36523384
出 0.19532128 0.03286931 -0.08708576 -0.07941716 -0.09625505 0.5444163 -0.021220198 0.9921026 0.107348755 0.33813462 -0.05458865 -0.39794323 1.0338 -0.08047521 0.101203494 0.14960831 -0.49314505 -0.84592223 -0.18598588 -0.4833072 -0.73316073 0.47282946 -0.016425874 -0.4748543 0.4634561 -0.48937473 1.3529497 0.83818966 -0.6296498 1.1155714 0.064779975 0.19276047 0.1972451 -0.005555769 -0.8355349 0.10616646 0.68708754 -0.0838651 0.6122936 0.17120631 0.076302 0.59961027 0.25358725 0.7805098 0.26018864 -0.23847438 0.11402435 0.46332005 -0.3477383 -0.9232157
过 -0.09388043 0.21322049 0.6556239 0.47069165 -0.14293455 1.2892166 -0.2986502 0.33652067 0.54631305 -0.67340475 0.8508434 -0.5798998 -1.0995152 0.34215593 0.10323837 0.2749253 0.82961214 -0.54114395 -0.11470979 0.12668864 -0.6930048 -0.5784489 0.6867656 0.20523894 0.3427824 -0.14420435 -0.30378535 0.059147887 0.026960067 -0.27042866 0.15287866 0.42515805 -0.7102883 -0.11249445 -0.01855613 0.013144965 -0.0059349 -0.26094028 0.9119567 0.5906945 0.40170187 -0.9468349 -0.45577735 -0.39184117 -0.030002182 0.6993158 -0.009416269 -0.025470149 -0.6495859 -0.3604476
一 -0.32665855 -0.11027842 -0.2459868 0.56003386 -0.6035369 0.17236158 -0.45188966 -0.064387836 0.04561499 -0.7395766 0.6264888 -0.5224007 0.49905804 -0.29089564 0.8595305 0.40872964 -1.38193 0.64616007 -0.6446323 -0.96489143 0.34432328 0.06388218 0.38142917 -0.22757047 -0.92346686 -0.15828061 0.11989899 0.5278482 0.06974927 -0.4482969 -0.2566536 -0.25370002 -0.2525381 0.050671633 -0.4039225 -0.37976888 0.10404204 0.2248545 0.04718904 0.06498981 0.04710944 -0.4836394 0.6316009 -0.34254843 1.3963959 -0.43038067 0.03031162 0.4004814 -0.5635822 0.06999388
虽 -0.74311733 0.5374766 -0.5519546 -0.3225727 -0.6028151 0.20176548 0.41539913 -0.21589732 0.5898053 -0.004877521 0.4241112 0.922811 0.051743336 0.3698288 0.25260773 0.85790503 -0.57726884 -0.2946008 -0.1317014 -0.70737183 -0.61268187 0.39684662 0.28296155 0.19064477 0.48300242 0.24929488 -0.04610636 0.3181308 -0.10914479 0.3460958 -0.5863368 -0.32351267 0.05002696 -0.35174915 -0.84575826 -0.30555743 0.72135997 0.59900296 -0.19006337 0.37817207 0.37515014 -0.40090826 -0.34771523 0.6664831 0.8605021 0.015346473 1.2862698 -0.1709499 -0.888955 -0.3597085
足 -0.20220494 0.058785737 0.35548672 -0.7887345 -0.9794493 0.5817416 -0.32418114 0.41244662 0.50175196 0.039607186 0.27157146 -0.22285265 -0.16404164 -0.31568497 0.4533725 0.81763107 0.814242 -0.3343904 0.24988532 0.2888848 -0.22953919 -0.5477057 -0.58907676 0.52336776 0.17670183 -1.057915 0.34493116 0.73363155 0.024689535 0.35138255 -0.032018945 0.3316637 -0.24284527 -0.30815807 0.47957018 0.32715848 -0.015129324 0.6597967 0.5995896 -0.37946337 0.23864688 0.19948828 0.86197 -0.19071397 0.39388004 0.39575717 0.56873447 0.2190374 -0.43653062 -0.93219066
居 0.14456487 0.30415344 -0.13346627 0.66330504 -0.3261782 0.2780708 0.16615787 0.34109035 0.25455257 -0.035009686 -0.6998201 -0.14800858 -0.20935982 0.64015067 -0.081866145 0.40278652 -0.13992362 -0.37107235 -0.08468611 -0.7511416 -0.2928025 -0.2854427 -0.65670866 0.83113235 0.4470148 0.05272859 0.052430157 1.4905941 -1.0482577 0.15261486 -1.5803294 0.14000686 -1.5245024 0.1146829 -0.39120212 0.8700551 -0.25507754 0.0063763303 0.4503972 -0.1820179 -0.029343033 0.14043589 -0.1785111 -0.6342297 -0.14305829 0.13017838 -0.61496246 0.5006279 -0.27103883 0.89334
尔 -0.73343587 -0.04198927 0.17882706 0.5657013 -0.7445524 0.011313254 -0.91768724 0.5116913 0.7279229 0.28524303 -0.011074181 0.88838655 0.005247447 -1.1405106 0.11607391 1.1126986 0.54267144 0.41636506 0.17213869 -0.31644297 -0.09868579 0.37508437 0.03130906 -0.1717673 -0.36398444 0.40527403 -0.27280167 -0.336463 0.48701784 -0.009760783 -0.42526865 0.59848183 0.59013534 -0.17379512 0.08617553 0.05343239 -0.34200752 0.6723083 0.31851003 -1.2867223 -0.040584188 -0.22340013 -0.26988977 -0.5541679 0.5331088 0.48490122 -0.022121565 -0.07232611 -0.14759347 -0.32315043
夏 0.5113642 -0.0385541 0.7298362 1.6109406 0.4939246 0.43246025 0.4477551 -0.08098193 -0.1291408 0.3611882 -0.040117662 -0.21164899 0.52593327 0.0415942 -0.65244436 -0.011243398 0.072206266 0.19494176 -0.0965318 -0.8834328 -0.33682168 1.8105265 0.19339487 0.56289446 -0.38890457 0.08694163 0.18108134 0.7973976 -0.057721186 0.28323755 -0.03322931 -1.2113345 0.5612478 0.11531438 -0.040592927 0.026414905 0.5468218 1.2693816 0.6255207 -0.059331886 -1.0756526 -0.5853541 0.98513687 -0.17620133 0.07965977 0.1475873 -0.13780512 -0.082644045 -1.0083799 -0.10918989
父 0.34907278 -0.5389728 0.8211225 1.2507203 -0.6144694 0.49483386 0.60011345 -0.3185682 0.85150295 -0.2862665 -0.1895029 -0.23606767 0.34383866 0.10690748 0.05280825 0.43519515 0.64445865 -0.07614324 -1.0384713 0.23105183 -0.3468451 0.31748155 -0.84751475 -0.6749294 -0.09480944 -0.07954086 -0.77612007 1.3489497 -0.8046613 -0.63337076 -0.70284146 -0.44802818 0.37821773 0.32743627 0.074596204 -1.0829732 -0.09306993 0.15991442 0.27741936 0.19763242 0.28450298 -0.25317818 -1.019811 0.34138852 -0.25207227 0.47688848 -0.5081885 -0.21203941 0.12008598 0.20345603
及 0.67270344 -0.05474575 -0.21905228 0.023234632 -0.7344548 0.46716666 -0.63911813 0.2615942 0.18618935 -0.9268441 -0.41213462 0.21056035 -0.19507733 0.20441212 -0.49912348 0.5736558 -0.15993823 -0.18958935 0.27740467 -0.18628274 -1.1992704 0.5595076 -0.9667551 -0.32599372 -0.2564664 -0.2531423 0.4575751 0.13830802 0.860682 0.71465844 -0.2136079 0.5019907 0.71986675 0.78116494 0.48618656 0.044056706 -0.20502222 0.6647113 0.33094448 0.2389138 0.06804005 -0.474126 -0.5056906 0.70511 -0.41758972 0.5398329 -0.48114124 0.66276073 -0.8138951 -0.74763
己 -0.44023833 0.032339156 0.3611731 0.10375416 -0.7057851 0.06254219 -1.0224414 0.5800951 -0.3658701 -0.63901865 0.18867838 0.547255 0.8158411 -1.3581202 0.19795007 0.82840705 0.17439894 0.7728358 0.28232744 -0.066804744 -0.42181444 -0.23662342 0.09956278 1.1043966 -0.22546752 -0.82956856 0.25682986 -0.26075566 -0.5925357 -0.31458956 -0.7104816 -0.046502117 -0.1527219 -0.10105148 0.3206455 0.024639297 -0.7496599 0.66207206 -0.3959993 0.5860062 0.6531771 0.19556925 -1.2412721 -0.45836958 -0.05738677 0.045449592 -0.41072854 0.83198303 -0.43717813 -1.3493011
予 -0.16814141 0.31172094 0.29146048 1.0223047 -0.2957422 -0.029977398 -0.4653049 -0.43347996 0.99847305 -0.056121375 -0.20795846 0.40450063 -0.033006974 -0.89702505 -0.0607684 0.40027246 -0.4800052 0.6226927 -0.34502733 0.019950727 0.41668418 -0.66279197 0.10303366 0.24009603 0.72140026 -0.6515558 0.33987108 0.52423245 -0.5875275 -0.8670724 -1.2434293 0.59981084 0.026861656 -0.5614922 -0.015418743 0.08644738 -0.8131777 0.8076619 -0.15660259 -0.96289515 0.42634425 0.36554402 0.03793829 0.351043 -0.3432585 0.73671895 0.39588493 0.52885514 -0.5667262 -0.58684236
色 -0.44736475 0.52858484 0.7934271 0.11768052 0.35145026 0.3189072 0.44291508 -0.19026855 -0.7872673 -0.1645059 -0.50886685 -0.28100795 0.88179296 -0.77276945 0.50171566 0.5575399 -0.3645063 -0.6849595 -0.3805452 0.3023483 -1.4813333 0.94637537 0.75383496 -0.013161847 -0.30328155 -1.7305617 -0.5761742 0.19711007 0.6856602 0.5071991 -0.7313599 -0.56410956 -0.19717702 0.28626296 -0.52937347 0.17776985 0.57206315 0.60330105 0.26553184 -0.401838 0.45118776 -0.40990445 -0.20051683 0.46138242 0.5895011 -0.4989856 -0.1113077 0.40617588 -0.31622103 -0.33212715
友 -0.040637057 -0.3433347 0.5959794 0.71415496 -1.0929912 0.4905181 1.0734198 0.4724604 0.32724315 -0.33294493 0.5614435 0.45239225 -0.74667174 0.108552374 0.77997696 0.87477213 -0.5818428 -1.3060833 1.1864176 -0.30157328 -0.9902418 0.26010573 -0.11767727 -0.8843119 -0.15847647 0.23400687 0.3104194 0.80740887 -0.11777903 -0.5293623 -0.51950514 -0.43398228 -0.31050968 0.23761925 -0.39451993 0.267893 -0.016092887 -0.634572 0.039110225 -0.11972804 0.014281515 0.12088153 0.44474626 -0.28177017 -0.19747815 0.33452344 0.3338622 -0.23158166 -0.17625128 0.17208774
成 0.11191817 0.093960434 -0.00446982 0.8824666 0.14351735 0.08167297 0.18778326 0.3864839 -0.84628546 0.03759263 0.16252363 0.77491564 0.18189149 0.0548142 0.026775874 0.4314284 0.7938614 -0.10270443 -0.8689703 -0.6223673 0.066959664 -0.068668075 0.012707211 0.9084316 -0.048756283 -0.3704262 0.9126838 -0.044179827 -0.34498903 0.12179284 0.22183001 0.16233239 0.9894299 0.82473725 -0.9702932 0.715402 -0.3714891 0.65030533 0.19264777 -0.64960694 0.3262526 0.1277232 -0.09711803 -0.78951156 -0.35242662 0.53510433 -0.5263439 -0.26931578 -0.4727626 -0.03835624
远 -0.12682444 0.23823982 0.68765545 0.6753037 -0.3867937 1.2632029 -1.2657846 -0.3298069 0.15888922 0.052680634 1.1153923 -0.47363433 0.011704375 -0.3248627 -0.776236 0.57543266 -0.2850128 -0.7737006 -0.26105705 -0.002697137 0.26636016 -0.21039669 -0.092911415 0.65743154 0.83997333 0.5255457 0.5539879 0.023248889 0.24495712 0.5466908 0.10914293 -0.1210947 0.065156095 0.34737095 -1.0995321 0.12579593 -0.89074045 -0.4133414 0.6473645 -0.44164306 0.85964394 -0.7777228 -0.07018759 0.06901188 -0.02150189 -0.27084833 0.36976486 0.3174888 -0.12401548 -0.07145147
上 -0.5754422 0.41632518 0.070502326 -0.41418722 0.45291966 -0.38207874 -0.20743543 1.298853 0.49677435 0.11707951 0.28050438 0.23284194 -0.50011873 0.060384616 1.338503 0.33492616 0.26226193 0.6027126 -0.40387097 -0.3204212 0.0005149858 0.51481324 -0.16935422 0.43737295 -0.10584545 -0.24599546 0.095266595 0.47514072 -0.088881075 -0.28257802 -0.83751035 -0.62349886 -0.04701938 0.517289 0.30540946 0.33875826 -0.4708579 0.3204949 0.22793077 -0.38088536 -0.15447667 -0.49820527 -0.014416081 -0.04191597 -0.18759479 1.0432014 -0.02461421 0.5150256 -0.15497747 -0.062289376
立 -0.54427856 0.54572994 0.2760138 0.4390169 -0.092292994 0.87954605 0.048642572 0.5818144 -0.13579333 -0.19085035 0.14163716 0.17150494 0.9525782 -0.015774261 -0.31483725 0.5021404 -0.0995739 0.28462976 -0.41048548 0.30655232 -0.12043848 0.7132488 0.5941045 0.5780368 0.44920304 -0.70044035 -0.23168953 0.060625255 -0.23552941 0.53379166 -0.6710838 -0.1870301 -0.039042857 0.3236043 0.2581628 0.8392102 -0.3883536 0.4925253 0.010972379 0.44038486 0.27054992 0.8717175 0.33103454 -0.72829354 -0.005707671 0.732755 0.08419181 0.8780118 0.15462959 -0.43360895
今 -0.3116783 0.070768766 -0.022520505 0.46109372 -0.48588696 0.34456715 -0.002344322 0.6385985 0.11087028 -0.98848003 0.56477827 0.11981756 0.22418617 0.26557246 1.6290373 0.6468744 0.1843358 0.2830309 -0.2758207 -0.2800068 -0.76950043 0.18734694 -0.04867053 -0.1998517 0.429618 -0.7232284 0.81128585 0.33273405 0.13687572 0.13864325 -0.70321614 -1.2958224 0.52976286 -0.44630486 -0.38787457 0.0037274773 -0.5037628 -0.0026425228 -0.46330112 0.13425069 0.23240955 0.26177824 -0.5663215 -0.22540304 -0.6199757 -0.39471108 -0.7910536 -0.022137279 0.07577417 0.061456047
张 -0.2464778 -1.2316086 0.812244 0.58334225 0.6164814 1.0733129 -0.6398721 0.5850789 0.0768772 -0.38115257 0.16789202 0.35185602 0.44927832 -0.21152002 0.08233752 0.24562058 0.52062577 0.06359428 -0.00782205 -0.48231024 0.5926733 0.7238392 0.38734287 0.70003873 -0.60831624 0.19416654 1.295542 0.030764377 -0.49471593 -0.21776824 -0.3987755 -1.5772916 -0.06805006 -0.3801236 -0.46236584 -0.42663822 0.18871997 -0.25765255 -0.47609904 0.23332395 0.43492875 -0.095132776 0.3810709 0.36825934 -0.2793681 0.2726113 -0.06486694 -0.1599622 -1.6629654 -0.018333113
中 -0.0761137 0.54141223 0.681645 0.35215423 -0.5362422 0.5593902 0.70159507 0.094422504 0.1499705 -1.3258839 -0.25261134 0.21525703 -0.08603996 0.51165885 0.57560664 0.7349962 -0.014214492 -0.7691423 -0.84062386 0.30986267 0.123491615 0.85495543 0.5591782 0.08125022 -0.31683448 0.8797522 0.40678388 0.34395584 0.16646685 0.62330973 -0.4897043 -0.11655494 1.1742321 0.30572075 -0.24051534 -0.39462805 -0.82963324 0.9252045 0.70623606 0.48522854 -0.2617532 0.331715 -0.6450878 -0.3429933 0.26464906 0.13327834 -0.07093183 0.2822402 0.03823304 0.21345885
季 -0.41796356 0.16045311 0.37034228 0.7396025 0.35635218 0.70546216 -0.7313327 0.68906826 -0.34328207 -0.8424165 -0.16735128 0.14257483 0.6343029 -0.11302909 1.1901609 0.3551075 0.9142715 0.146017 -0.24139714 0.012887523 0.4016738 0.6264238 0.2558336 -1.372455 -0.86143047 -0.38258582 0.6799705 0.96523273 0.26497892 1.2800506 0.569412 -1.2853947 -0.17069283 0.06786451 1.3144656 -0.066521056 -0.46717077 -0.30469447 0.45193958 -0.07723242 -0.085077055 -0.2026847 0.021916024 0.3252677 -0.6334482 0.31246728 0.06981025 0.08052243 -0.66644037 0.044584524
臣 -0.62927574 -0.12790973 0.7310617 0.13933772 0.10288852 0.44762552 -0.48794374 0.52473325 0.54758304 -0.48736408 0.7134949 0.17893176 -0.25737092 0.70053893 0.71109325 1.1271856 0.58706325 -0.018486375 -0.13348083 -0.046467554 -0.35130855 0.050160732 -0.2475369 -0.22839324 0.1564449 0.19752342 -0.42395532 0.6793003 -0.44025353 0.5876183 -0.24417746 0.8401101 0.19211169 -0.5836233 0.18177953 0.0817706 0.017219258 -0.49447966 0.3829768 -0.92851144 -0.026405841 -0.58124506 0.07184354 -0.34378552 0.3713358 -0.5149347 0.11966774 0.19769642 0.6682851 -0.5718605
贤 -0.8625595 -0.17865579 0.9334533 0.54277295 -0.32925096 -0.2723236 0.61298823 0.4678108 0.22651085 0.6888487 0.20881966 -0.41621646 0.19856928 -0.3344024 -0.08964008 -0.4557479 0.3141613 0.15280655 -0.28429672 -1.0128111 0.1784028 0.39024195 -0.21339189 -0.7245627 -0.44524598 -0.7163529 0.5410639 -0.014047503 0.1358218 -0.3279409 -0.46983454 0.38700438 1.0133802 0.23111403 0.8584821 1.4610093 0.33272773 -0.67624545 0.5151268 0.077319495 -0.37114608 -0.34796256 0.3260232 -0.37444425 0.13002257 0.02487405 0.1522487 0.56684065 -1.088393 -0.18098287
思 0.7527014 0.15810958 0.46381465 0.12720025 -0.20934461 0.0846101 0.5292228 -0.9027311 0.78528136 -0.046484232 0.4760706 0.2060903 -0.12981331 -0.8633871 1.1626852 0.60706866 -0.9002478 -0.061525993 0.47992256 0.16220689 -0.94947696 0.32022035 -0.5093667 -0.07760865 0.022877295 0.1877275 0.09343376 0.33135718 0.073767535 0.16590384 -0.83590573 -0.6044948 -0.12650697 -0.00047007966 0.4192281 0.27996135 -0.8590096 -0.20249613 -0.35838553 -0.35791558 0.5868194 -0.46626464 -0.28058174 -0.28850806 -0.0986765 0.41657406 -0.83350945 0.61727065 -0.7028963 0.60316235
齐 0.55593115 -0.050230402 0.8673919 1.8599656 -0.11135546 0.76703906 0.4221264 0.4462254 0.41527948 0.010625534 0.69833195 -0.2470317 1.1988194 -0.46556747 -0.70820427 0.39094728 0.7344387 0.4228186 0.1610002 -0.033049416 -0.11017479 -0.4012777 0.66707516 -0.32690582 -0.42216882 -0.6591556 0.60741097 -0.07760081 0.25824565 -0.104921006 -0.256232 0.17258589 0.2903071 0.034999494 -0.28779754 0.8202832 -0.34322336 0.16840905 -0.008818129 -0.0447085 0.3355856 0.64603716 -0.034515936 0.81079936 0.6366272 0.020336056 0.2568119 0.071028166 -0.26233453 -0.6007786
义 -0.083627366 0.46961525 0.09659305 0.5486254 -0.12065474 0.20991325 0.69862795 0.76854 0.22825925 0.09204977 0.054790165 -0.085334964 0.06430211 -0.40131617 -0.5588669 0.5015185 0.6679664 0.14709538 0.09872268 -0.3610693 -0.49476084 0.19747521 -0.20027742 0.24069683 -0.90246534 -0.19268523 0.2348194 0.060683087 -0.51765 -0.22419514 -1.0697545 -0.3688185 -0.15611768 0.17507415 -0.41189343 0.08713189 -0.14188062 0.6852304 -1.3342324 -0.21945389 -0.18472806 -0.38869184 0.12553644 -1.3482723 -0.34105167 0.19665805 -0.021978516 0.9594561 -0.11360768 0.021040274
正 0.40336895 -0.044160683 0.32122502 0.07746366 0.21963878 0.5207717 -0.78028506 -0.396383 -0.36930907 -0.2813353 -0.4215412 -0.21770236 -0.6324126 -0.13055794 -0.021752127 0.38849422 -0.30599734 0.64575344 -0.7285242 0.08677724 -0.8216769 0.36341983 0.408868 -1.0213184 0.10498012 -0.62989837 0.69484323 0.93156254 0.4469118 -0.13937171 -0.9501783 -0.25794017 -0.47295454 1.0437497 0.27203274 0.15153779 -0.7977933 1.0208393 -0.08863351 0.72433025 0.7455935 -0.093370505 0.16719876 -0.7318408 -0.51973486 0.63491225 -0.20155416 0.40540212 -0.2792559 -0.28200024
命 -0.4654142 -0.43037388 0.4020534 0.6721729 -0.7854627 -0.17018841 0.4343952 1.0033933 -0.7595491 -0.22823969 0.024168909 -0.47325307 0.03390059 -0.099656224 0.61835164 1.0078914 0.76490057 0.7232544 0.33071753 -0.082787395 -0.30011865 0.49806476 0.79104275 0.5260853 0.8432423 -0.26608077 -0.3552268 -0.31607267 -0.2281404 0.1384921 0.5674049 0.79926914 0.30507112 -0.55499774 -0.6811884 -0.6963874 -0.6360349 -0.2768165 0.4760615 -0.92381763 -0.5047653 0.29736474 0.37105516 0.2668098 -0.58585554 0.6495152 0.3153554 0.23863994 9.435923e-05 -0.64543015
曾 -0.70786434 -0.14184031 1.0441511 1.5973506 0.3347237 -0.1983032 -0.97323054 1.3333377 0.20024014 -1.4612763 -0.30589107 0.49027023 0.5159389 0.49508673 0.49082613 0.3055087 1.3361143 0.89273846 -0.06952654 -1.105075 0.5086035 0.27940747 -0.6485625 -1.0111803 0.10226173 -0.83060116 0.28135297 0.32839355 -1.0947989 0.87906575 0.2626745 -0.75906605 -0.6815563 -0.5333171 0.9015783 0.06294281 0.32774237 -0.397142 0.057700597 -1.0018821 0.3376985 -0.39582327 0.25884953 -0.12499698 0.49150383 0.5256427 0.19272071 0.6157803 -0.21266434 0.53249586
伯 -0.0654476 -0.8716635 -0.055302314 0.6562963 0.053533312 0.24449302 -0.03939605 0.03473776 0.005039896 -0.3918082 -0.3680771 -0.35693684 -0.015960697 0.04102176 -0.026871992 0.43163174 0.2718977 -0.3986403 -0.16543126 0.21378207 0.013402549 0.3070492 -0.12326575 -0.34044608 0.12582542 -0.3968038 0.8008731 1.9855894 -0.32589066 0.3549757 -0.4543753 -0.6936917 -0.19384639 0.1147884 0.7408995 0.54901814 -1.0742348 0.4736715 0.67203295 -0.7534931 -0.6432926 0.80278546 -0.276998 -0.12073851 -0.027285416 0.25451228 -0.022631621 0.36299565 -0.5962822 0.23011154
门 -0.541253 0.54506993 0.03832617 -0.15390068 -0.04253279 0.50785077 0.13444261 -0.22664806 0.93203616 -0.07704711 0.33666375 -0.4398692 -0.8011166 -0.2496599 -0.15259899 0.18433103 0.53496206 0.67963386 -0.61704266 -0.4655962 -0.39961803 0.54632145 0.49582922 0.45074594 0.23871742 -0.73171884 0.21370143 -0.08292377 -0.53660154 0.3204613 0.24558823 -0.52856714 -0.16914764 -0.39298964 -0.4545869 0.59661424 -0.6226067 -0.8123132 -0.5658388 0.5937152 -0.7991448 0.29197586 -0.2371987 -0.23344591 0.6508545 0.61035264 0.31331077 0.37027565 -0.79023796 -0.30087188
敢 -0.30598906 -1.3167994 0.5430778 0.7066052 -0.9015799 0.4704182 -0.004157309 0.82873654 -0.36563218 0.7240742 -0.5350002 0.5659859 -0.15619735 -0.89739835 -0.12175767 0.42241412 0.42051575 -0.23599304 0.35332334 0.027537769 -0.4809475 0.1859138 0.44921488 0.5149119 -0.5541506 -0.8211189 0.6176307 0.46479937 -1.0791014 -1.0201734 -0.6303729 -0.4973827 -0.2465407 0.2502613 -0.09089915 1.5581377 -0.2792496 0.3756618 0.6349293 0.16066681 0.45462194 -0.07808587 0.03580212 -0.3718515 0.08062999 -0.60300463 -0.50078034 0.32284263 -0.58191556 -0.3108734
犹 -0.3880986 0.8254907 0.75843936 0.49641362 -0.6791123 0.26169544 0.9614596 -0.15798685 -0.61498123 -0.6966258 0.55427223 -0.6396097 0.5974308 -0.30840814 0.43067068 0.4935461 0.63909376 -0.68888885 -0.5299889 -0.53757334 0.32610822 -0.22962432 -0.7945879 -1.1002085 -0.003840903 -0.035233352 -0.08882398 0.28358948 -0.38430744 -0.4496729 0.2678562 -0.68914825 0.34829697 0.17678754 0.21335281 0.6031149 0.08966705 0.18796392 -0.86269724 0.17723449 0.6937172 0.09813223 0.31879836 0.7723265 -1.3070836 0.46977496 0.08417831 0.4660554 -0.46595746 0.100691356
生 -0.3323712 -0.50693023 0.69583046 0.45882767 -0.77994823 -0.18683359 0.46520445 1.1739852 -0.038022943 0.11391537 -0.34108192 -0.31188518 -0.12171088 0.15861279 -0.20642066 0.45061877 1.0231792 -0.050451275 -0.35517165 -0.3425884 -0.5346688 0.5026552 -0.024456944 0.1473333 1.1341592 0.7577306 0.48334605 -0.40193266 -0.14224204 -0.028646098 -0.25365296 0.09836177 -0.38875067 0.040453598 1.0837338 0.44992262 0.40593052 -0.0015668996 -0.22846574 -0.73173434 0.40387732 0.61244047 -0.08011668 -0.2654718 -0.74319816 -0.3451083 -1.0431352 0.56818295 -0.2097785 0.09803494
日 0.10265216 -0.4993314 -0.45490685 0.21459936 -0.8599593 0.15264437 0.21915999 0.00998086 0.07448434 0.23283681 -0.11920054 0.30257216 0.2925442 -0.9040421 0.2178304 0.35930648 -0.83535564 1.1317106 1.1289523 -1.1989831 0.16799189 -0.10795932 -0.043036114 -0.9943364 -0.029553663 -0.6106234 0.91545725 1.1446226 0.18575579 1.0996953 -1.5351497 0.546667 -0.10043964 -0.31494078 -0.29096445 -0.29938713 -0.18187048 -0.1298513 0.80958545 0.14192876 0.0028989753 0.13680786 -0.6460636 0.2604551 -0.59826636 0.18534195 -0.2629429 0.85818136 -0.8920593 -0.3616896
敬 -0.0633728 -0.09876657 -0.27634364 -0.18227932 -0.12105282 0.868842 0.8518975 0.18049231 -0.108946614 -1.1743716 0.20269898 0.6009887 -0.07035514 0.40622556 0.803728 0.53785217 0.28945848 0.18032034 0.07643468 0.08218916 -0.42176825 0.36135012 0.35435548 -0.9310662 -0.5930011 0.062214542 0.6160865 0.50685424 -0.2155956 0.17471947 -1.0416031 -1.0945392 0.061375342 0.5065572 -0.71624416 -0.31210095 -0.033147573 1.4738497 -0.45141485 -0.8903658 0.06956671 0.24625662 -0.117224865 0.0427845 -1.2070438 0.10600192 0.75716966 0.6501251 -0.22269417 -0.23286441
难 -0.6435951 0.1436293 -0.15767148 0.3858316 -0.8807687 -0.16655119 0.25959668 1.0811328 -0.14529227 0.6084758 1.0015773 0.88293886 -0.49236733 1.447749 0.43639672 1.0156254 -0.05402665 0.81219316 0.46419257 0.16549934 -0.13854729 0.47954088 0.93494356 -0.264401 -0.3959706 -0.23659745 0.59336257 -0.63725996 -0.059837185 0.6890748 -0.07234988 0.23283271 0.5819774 -0.27566093 0.0879586 -0.59533936 -0.54781574 -0.6198081 0.33925188 -0.91180396 -0.032166034 -0.9695119 -0.13898812 -0.44416648 0.2964241 0.038896866 0.028083125 0.6025389 -0.30447635 0.41014293
直 -0.39798075 0.5737022 0.52066326 0.08811416 -0.2927169 0.8624504 0.34273702 0.9136018 0.1315634 0.11579017 0.6862925 0.2460886 0.4398367 -0.012529345 0.7890877 0.40637156 -0.2968878 0.22273032 -0.4447627 -0.28754795 -0.28993532 0.11749865 -0.4262044 0.24834089 -0.145295 0.0049598482 0.5453693 0.64019513 -0.18661708 -0.112925544 -0.08312769 -1.0058174 0.45045757 0.06493475 1.0242989 0.2097878 -0.4117914 1.0054938 0.30605388 0.13652503 -0.2571934 0.32930544 0.22083043 0.10571202 0.28059214 -0.7388406 -0.85773987 0.6679633 0.3646525 -0.31796798
丧 -0.34700817 -0.8920565 0.08316049 0.15048118 -0.9414286 0.08698338 0.30600345 0.04698871 -0.3131727 -1.1208236 0.53082246 -0.28393105 0.5086468 -0.064152956 0.17130929 0.18457878 1.085736 0.33945936 0.36411002 -0.0065447045 -0.31955582 0.17119986 0.06593127 -0.06233977 0.6378807 -0.22608057 -0.18187672 -0.23387422 -0.9995637 0.07307184 -0.28862712 -0.833322 0.35391557 0.6684556 -0.39879027 0.33875352 0.13271704 -0.24687205 1.0215964 0.059055764 0.25393972 0.13710047 0.07405665 0.61748856 -0.38218114 -0.3517088 0.6606049 0.4091061 -0.22552937 -0.12299488
说 -1.308782 0.035246227 0.59304523 0.22712925 -0.0534507 -0.17113118 -0.2350891 0.09653976 0.5005265 -0.06863925 0.68242353 -1.0454159 0.038529336 0.27141485 -0.09266759 1.030939 0.11672748 -0.021375835 -0.27972862 -0.013401934 -0.48407814 -0.0057242587 0.3448471 -0.78104126 0.76223046 0.1084537 1.0885311 -0.3954543 0.37358105 1.9043906 -1.2789253 0.5710573 1.0019826 0.43316123 -0.6124725 -0.15945938 1.1768984 0.7078803 -0.90341765 -0.8789965 0.58569133 0.47656313 0.621154 -0.49917313 0.6051689 0.23642938 0.7978371 0.71818167 0.14255199 0.24978887
自 -0.76517326 0.66098654 0.5779673 0.42015272 0.099432535 1.1497363 -0.37755308 0.6927829 -0.4004215 -0.24029942 0.681819 0.53818595 0.10633745 -0.052183002 0.4910582 0.6956317 0.012936461 -0.49694443 0.19888914 -0.1839713 0.48687455 0.766484 -0.7819275 0.23644102 -0.37176073 0.45732734 -1.0319506 0.68985444 -0.06698703 -0.4041935 0.53915435 0.6571778 0.14669773 -0.8149343 -0.88634914 -1.203235 0.49119624 1.1063542 -0.93957514 -0.46732497 0.61764526 0.16757073 -0.33033574 -0.0875634 0.6183343 0.17412554 -0.45680147 0.08245763 -0.45744082 -0.03924819
用 -0.4496407 -0.34760723 0.812409 0.47298604 -0.95121765 1.7583811 -0.25974113 0.069546655 0.25940993 0.39236045 0.08761349 -0.6665667 -0.08039325 0.32616594 -0.026678339 0.50713915 0.27876592 1.0474454 -1.3051951 0.11236952 -0.2720561 -0.55779964 0.92800695 -0.39939332 0.16473474 1.1828607 0.6647932 -0.07157692 0.019521456 0.3761859 -0.89518476 -0.2305345 -0.2672924 -0.0744536 -0.17348999 -0.82905924 0.3643905 0.2441753 -0.07402837 -0.507222 -0.5951274 -0.1685868 -1.064675 -0.2423775 -0.021731973 -0.7777185 -1.2503833 0.39166382 -0.2823975 -0.54470813
周 -0.31468865 -0.39918908 0.57510084 0.8687579 -0.121584415 -0.5262976 0.16403864 0.60263354 -0.19428518 0.16665317 0.40398827 0.38162437 0.3064738 0.46389255 -0.5403677 0.13340029 0.47502828 1.0728555 -0.85394967 -0.6317739 -0.55998963 -0.5730569 0.03972984 -0.37437102 -0.29418665 0.0845007 0.2195877 0.29271945 -0.25718895 -0.23959488 -0.082311526 -0.84740376 0.4533663 -0.7121614 -0.82376647 1.347198 0.14138515 0.32418486 -1.0562919 -0.6439267 -0.27295986 0.61027926 0.28527513 0.055200864 0.41092122 0.7076113 0.71864384 0.8207461 -0.47232577 0.5172937
颜 -0.30088052 0.042750616 0.33288506 0.48792666 -1.1433134 -0.008256294 -0.58265543 0.45292348 0.012997019 0.09807875 -0.1125492 1.0980093 -0.88399535 0.47945473 0.5203539 0.21249005 1.1708764 0.33091325 -0.4214033 0.20407836 0.13758792 -0.02730446 -0.94876915 -0.12730213 0.09292915 0.33171675 0.61386156 -0.16450207 -0.26775816 0.26703963 0.3256533 -0.6151376 -0.66300094 0.26242873 0.38480538 0.7030391 -0.26734406 -0.3755426 -0.341098 1.2322478 0.22798741 -0.8300759 -0.7607489 -0.010715169 0.76186144 0.3212147 0.5711674 0.04328119 -1.3334585 -0.36734155
年 -0.7178136 0.48751375 0.7594758 0.17756386 -1.4593185 0.4313218 0.6473844 0.09380373 0.93335146 0.49011058 0.86218685 0.658968 1.6611599 0.039030567 0.1369025 0.32890764 0.5500024 -0.48027506 0.5108892 -0.90755326 -0.5771876 -0.5565242 0.62558806 0.026339928 0.7641268 0.043958347 -0.26005957 1.2573118 -0.32907256 -0.32368416 -0.3614513 -0.601408 -0.6526061 -0.19394048 -0.41764274 0.07027081 1.1200339 0.49008065 -0.9615227 0.20256692 0.550331 -1.6378968 -0.16497464 0.01966975 -0.9996165 -0.30231878 0.13435693 -0.28798908 -1.3901935 -1.0882276
告 -0.54888415 -0.618955 0.3683737 0.6846555 0.18884785 0.36378646 0.5392252 0.57107276 -0.36124846 -0.49473608 -0.6216168 -0.46439874 0.117667034 0.27406424 -0.06737022 0.061338704 0.5583501 0.26379314 0.6479892 -1.0476335 -0.291876 0.77599055 -0.3638433 0.2668629 0.28412417 -0.64724135 1.747606 0.34231716 0.05008833 0.08316528 -0.6455098 -0.58022285 0.71203625 -0.5938288 0.15107699 0.11426053 1.4462273 0.073724575 0.35351202 0.5991967 -0.57851017 -0.51312757 0.6840303 -0.9721035 0.116063826 -0.41638646 -0.5571771 0.6516255 -0.26607528 -0.8458712
十 0.30427346 0.33659428 0.16110104 0.0115854265 -0.8593649 1.5804567 1.1725376 0.033134516 -0.08263946 -0.46319294 0.001391708 0.7188292 0.25222528 -0.31970736 0.072649606 0.82075953 -0.36397344 0.37684992 0.33774167 -0.49958605 -0.49455875 0.3240257 -0.4199847 -0.71672434 0.44511363 0.43474948 -0.7314679 0.68495953 -0.84065396 -0.9410938 1.3951309 0.1436688 -0.84567654 -0.7064545 0.26600954 0.47576335 0.0998143 -0.22067036 1.4751518 -0.57917845 -0.06411872 -0.980591 0.36655855 0.15193494 0.45218232 0.6622029 0.27713162 0.25357684 -0.88383025 -1.1996889
怨 -0.3934609 0.65352976 0.5421425 0.539565 -1.6586846 0.35736763 -0.43946362 0.09899392 -0.23128249 0.3019729 0.14228387 0.5622066 0.6309912 -0.07201727 -0.1742432 0.78288877 -1.0412331 -0.6719224 0.4383366 -0.76797944 0.0016968594 -0.071809895 -0.11396454 -0.9691794 0.035012178 0.49007398 -0.38280612 0.8494466 -0.4355724 0.24956487 -1.1743002 0.57103103 0.07536704 -0.24510574 -0.58213073 -0.26087204 -0.27438876 -0.84832394 0.8849832 -0.9605754 0.38499972 0.060956597 0.80228984 -0.62918353 0.20478612 1.0429736 -0.36570865 -0.12717332 -0.2411428 -0.013993625
达 -0.08674403 0.24936548 0.23688313 -0.048240956 -0.16130595 -0.0041629327 -0.5217332 0.23028812 0.13538693 -0.5938887 0.008102592 -0.1556735 0.54267657 0.60967565 -0.2364373 0.75371563 0.11263895 -0.18598516 9.581994e-05 -0.9230119 -1.460291 -0.5163964 0.067187354 0.4220953 0.4422383 -0.7420784 0.60187817 -0.038354464 0.0045137233 0.31645226 0.0040960126 -0.0870794 0.27432418 -0.38341588 -0.30195218 0.31628543 -0.54352283 1.6365861 0.07991415 -0.6942369 0.5125352 0.5131809 0.22709247 -0.73886937 -0.7825264 -0.10418447 0.34819776 0.32253858 -0.15095113 0.018230848
孝 -0.7116243 -0.3071233 0.6992719 0.5668585 -0.730541 -0.2756944 -0.994618 0.9924279 0.9585569 -0.3978274 0.35607404 -0.71780026 0.67093986 -0.59642226 0.28027967 -0.2027336 0.287221 0.19407883 -0.20818433 -0.6713685 0.4980765 0.5718085 0.3115094 0.57590854 0.36721075 -0.002223958 0.4665633 0.6466909 -0.29378155 0.048568655 -0.1730827 -0.91262496 1.1030778 0.31796527 -0.87423897 0.009397668 -0.68138635 -0.2578312 0.73745733 -0.06873144 -0.47893152 -0.09513803 -0.24316041 -0.6258823 0.37445396 -0.10962707 0.1669281 -0.28492334 -0.7485391 -0.056982886
弟 -0.3244583 -1.2733531 -0.0005027574 0.33079326 -0.57623607 0.48830652 0.67723495 1.6742666 0.15311347 -0.25736874 -0.13073422 -0.5709984 0.10878416 0.48691717 0.20382924 -0.017496904 -0.19915202 0.39031985 -0.19670321 0.006142715 -0.05833256 0.23971425 0.53039765 0.27006072 -0.05286078 0.3302033 0.7395519 0.9328351 -0.28142056 -0.21479374 -0.28414577 -0.057758898 -0.79871047 0.39660046 0.25808936 -1.5678246 0.19361925 0.84794635 -1.0124325 0.82946956 -0.64558595 0.1774132 -0.6572922 -1.1898751 -0.0050884876 0.26975483 -0.079874724 1.0537779 -1.146441 -0.10582126
至 -0.6190264 -0.44163454 0.19866656 0.18737619 -0.46156177 -0.12735401 -0.5150519 0.78852785 0.5764374 -0.036574498 0.35379875 0.13180092 -0.27982587 0.0063973754 -0.7696739 0.60949963 -0.5426797 0.1415692 0.44468802 -0.7537902 -0.2126139 0.067510284 -0.01949325 -0.082555085 -0.58240896 -0.75863665 0.8153461 0.6392084 -0.61983657 0.58946604 0.3266006 -0.2618947 0.16792193 1.0507288 -0.45323795 0.8090748 0.2687589 0.7336818 0.89214635 0.19511123 -0.017081369 -0.40919077 0.857165 0.9358249 -0.12025688 0.7334161 -0.1987884 -0.15324499 0.39771438 -0.41848177
先 -0.037639596 0.21738586 0.82275486 0.46487167 -1.3194486 -0.051563356 -0.272571 -0.11392334 -0.2852236 0.28394824 0.91808903 0.45402 -0.069588505 0.014361105 1.1015891 -0.03713478 0.4275765 -0.7752621 -0.3107351 0.74737215 -0.04930589 -0.8671539 -0.8133277 -0.179603 -0.27288744 -0.06441299 -0.07706884 0.6048441 -0.5252431 -0.027454896 -0.5959566 0.8814351 0.1126757 -0.0082556205 0.021699764 0.7969739 -0.41268402 -0.47030893 -0.16917956 -0.22472194 0.13249752 0.49137482 -0.3553964 -0.32150367 0.6275515 -0.4252949 -0.1432846 0.9044582 -1.1751562 0.100247
师 0.7382446 -0.023845868 0.40228167 0.6675682 -0.46085823 -0.40138704 -1.2778378 1.847142 0.36199695 -0.51458853 0.19183502 -0.18334484 -0.39617223 0.50050277 0.5222935 0.2376082 -0.43884966 -0.8498865 -0.12341322 -0.49687442 -0.37624875 0.30398792 1.1177294 -0.461922 0.41220695 -0.13003658 0.35771316 1.1960677 -0.84452397 0.056776673 -0.6637104 0.49996743 -0.90562075 0.25885123 -0.071156606 -0.24778447 -0.35498652 -0.111610524 -0.18311067 0.03468694 -0.2776848 0.3069102 0.09518386 -0.65641564 -0.32838586 -0.3489836 -0.57041156 0.12641564 -0.70119774 -0.23746574
女 1.0803589 -0.39944196 0.5116876 1.4403962 -0.21858533 0.57473415 -1.0255102 0.7420962 0.3215866 0.10423459 0.15913203 0.052456703 0.65019715 0.5828329 0.1643427 -0.0012541703 -0.01589201 1.097214 -0.4324724 0.21097565 0.83875614 1.8502172 0.01582789 0.18862139 0.34791481 0.36303034 -0.9164042 2.063415 -0.7355751 -1.1458652 -0.26127154 0.8299488 -0.8512462 -0.27878422 0.8679938 0.30496538 -1.0396906 0.49100578 -0.8660365 0.3270193 0.4904871 1.319996 -0.076672226 -0.6444974 0.31652436 0.62285876 -0.41624764 1.1417406 -0.9596654 0.43333197
多 -0.25318867 -0.14873521 0.31399387 -1.111809 -0.3479829 0.441241 -0.21104743 -0.45093513 0.22366598 -0.91318834 0.272655 0.0945283 -0.008039954 -1.324252 -0.34882176 -0.048209615 0.22941834 -0.27450395 0.22794153 -0.20629068 0.13232894 0.90241563 -0.3661988 0.05597578 -0.7975539 0.17240998 0.5807576 0.643883 -0.3528962 0.52497303 -0.086386025 -1.0997871 -0.06040016 1.1899807 -0.8009813 -0.78679085 -0.22601251 -0.6227051 0.62710494 -0.6643562 -0.23137653 -0.23005599 0.9946859 -0.80316985 0.6689082 -0.39564124 -0.7594929 0.6925851 -0.6753015 0.5722028
忠 -0.5999953 -0.2440431 0.788422 -1.042684 -0.7812162 0.26139045 0.33823574 0.64496696 0.07672792 0.03408078 0.008486362 0.39907598 0.8206516 0.25676733 0.90505046 -0.059118997 -0.7561513 0.29922944 -0.35310674 -0.6170809 0.13141558 0.26357567 1.0159698 -0.36572063 -0.24310207 -0.3822481 0.592931 0.2508398 -0.61894244 0.7626511 0.2323617 -0.6354448 -0.4347677 0.09044281 -0.29927644 -0.06954371 -0.67314154 -0.54276955 0.7913629 -0.20680308 -0.3152294 0.09680527 0.083348624 -0.04475983 0.8744349 0.43279824 0.41895118 0.11108821 -0.842627 -0.26725698
四 -0.35365573 -0.031034678 0.31246957 -0.28130972 -1.6714151 0.83065826 0.63519144 0.6463236 0.06447292 -0.5005187 -0.5958261 -0.92909044 0.7223295 -0.5413982 0.014581019 1.2096229 0.29094213 0.3095304 0.45158175 -0.5696406 0.13205414 0.12924398 -0.9369172 0.25917813 1.6895884 -0.17501031 0.12853211 1.8641043 0.5213164 0.6879223 0.0124347 -0.5168719 -1.3019574 -0.43945932 0.26841453 -0.15132122 0.31022638 -0.18886991 0.077740975 0.5127569 -0.5086106 -0.165612 -0.13032185 -2.0023417 0.913603 -0.8594843 0.5355906 0.050822698 -0.1900115 0.34967673
疾 0.044404242 -0.5183688 0.5442769 0.7466622 -0.08918563 0.47486168 -0.7559261 -0.24894096 -0.5248473 -0.10740063 0.60968196 1.0431565 -0.006370533 -0.033629443 -0.020540375 -0.12828043 0.9069744 -0.53854 -0.5959728 -0.5745909 -0.27313673 -0.26845244 0.34185395 -0.89069146 0.12008673 0.5280912 0.46600193 0.34857282 -0.013678936 0.9597763 -0.2516926 1.0581614 -0.49545375 0.5104095 -0.23453508 -0.07424511 -0.3960847 0.0799923 -0.041804355 0.9255446 0.21906917 -0.4165818 0.5050679 -0.6045323 -0.11457045 0.40896884 -0.7323977 1.0220951 -0.7032407 -0.48675472
服 -0.025564443 0.11655214 -0.28636774 -0.1469945 -0.14976539 1.2554709 0.86286765 0.4586952 -0.31852186 -0.37025455 0.14765248 -0.40366417 0.77058136 -0.688656 -0.35899055 0.68738925 -0.004708511 0.35293207 -0.27266514 -0.39692825 -0.20663786 0.07819089 -0.9099866 -0.43743506 0.00507123 -0.21404119 0.25935903 0.6884345 -0.3934191 0.76605046 -0.7062429 -0.5559063 0.14988771 0.602125 -0.6534701 -0.947679 -0.06620432 1.0861022 0.5826828 -1.0712 0.019084089 -1.117881 -0.2736962 0.4845475 0.92058516 0.91986066 0.045631 -0.08461123 -0.07038042 -0.30944526
氏 -0.7070525 0.6259399 0.00961666 0.21895653 0.3300957 0.6639952 0.16892722 0.35615772 -0.0025135484 -0.6896248 0.24491064 0.3077531 -0.28948358 0.36628076 -0.16413732 0.8005543 0.8689106 0.57369286 0.4318234 -0.036798846 -0.1405445 -0.46462134 0.59060794 -0.059697255 0.8852261 -0.3968361 -0.91125584 0.35106555 -0.8623248 -0.7398945 -0.011967787 -0.97803074 0.10272594 -0.35335642 -0.29727423 0.5034125 0.53431225 -0.29366454 0.421542 -0.6808808 0.33379698 0.14073513 0.4196701 -0.35356736 -0.87909776 -0.24284165 0.05172795 -0.03421292 -0.56399924 -0.98689973
冉 -0.024514362 -0.095782906 0.43394056 1.0841684 -0.26281762 1.5314459 -0.01071625 0.32992855 0.5297906 0.106766276 0.27602357 0.3478126 0.44440675 1.4422433 0.92191243 0.3517324 1.10015 1.2063799 -0.7984237 -0.5775608 -0.28367484 -0.6910466 -0.92021847 -0.65409786 -0.6331616 0.68553203 0.749157 0.325799 -0.9388228 0.29840484 0.6093405 -1.9532865 -0.59376556 0.88358134 0.29562625 -0.56456035 -0.6123615 1.778538 -0.91027004 -1.4869113 0.5403331 0.77728444 0.5932619 -0.57465833 1.2604307 0.27980822 1.0478827 0.068270676 -1.009331 0.29622015
将 0.43038732 -0.28298333 0.643324 0.2106044 0.032006767 -0.06527967 -0.030182667 0.41316512 -0.22472008 -0.5409498 0.44927704 -0.57173663 -0.17418805 0.6875422 0.34371144 0.5015156 -0.25497815 0.24341826 -0.030378796 -0.09961614 0.09858063 0.3733124 -1.1068801 -1.1825942 -0.24133688 0.896005 0.41456896 0.46874395 -0.32869285 0.11883834 -0.5349471 -0.5716918 0.070952505 0.033188246 -1.7051098 -0.41245672 -0.4298041 0.10643446 -0.753342 -0.16885047 -1.0334243 0.1691158 -1.1060544 0.39527923 0.50707906 0.1592769 -0.7458648 0.7571073 -0.36482912 0.26937717
士 -0.52359 1.0100758 1.2831638 0.15697755 -0.32916266 0.8978265 -0.67365044 0.3175521 0.46579936 -0.19117397 -0.18569964 -0.15579645 -0.52848184 -0.1505465 -0.120123476 -0.06838187 0.628018 -0.50873 -0.32397422 -0.24227753 -0.63373685 -0.6799433 0.4611032 1.1021272 -0.0700129 1.0242109 -0.3992041 0.06623075 -0.5696269 0.4413315 -0.32769266 -0.47118273 0.82756764 0.24501547 0.06840146 0.80225086 -0.1188549 0.6298567 0.2822894 -0.9724951 -0.46963716 0.25830832 0.27832797 0.13632843 -0.49058032 0.6099282 -1.2184982 0.1305423 -0.97100365 -0.27670807
丘 0.35539076 0.12263975 0.6516806 1.3310149 -0.508617 1.0773662 -0.052105065 0.5078614 -0.18492433 -0.10173002 0.28135875 -0.677444 0.16767918 0.19155434 0.18971793 0.28098807 0.49540174 0.1450874 -0.22995143 -0.45328006 0.39218336 -1.3393098 0.03247488 0.2251417 0.8808676 -1.1299562 0.88771284 1.0143915 0.2743646 -0.7724277 -1.8360753 0.6340664 0.089928 -0.6680018 -0.67168796 0.5864901 -0.436195 0.3134479 -0.24318488 0.43718702 0.5559597 -0.23641571 0.48017082 -0.5628913 -0.24035658 -0.07762246 -0.10062938 0.09792019 -0.6200455 -0.94052327
身 -0.9433491 0.4088707 0.48695782 0.094997 -1.0690043 0.8243888 0.40524343 -0.3586607 -0.36588818 0.15917379 -0.31809664 0.26914155 -0.34438425 -0.5867512 0.4335698 0.40736556 -0.600146 0.5340414 0.30248043 -0.4097367 -0.5882455 -0.082660764 0.24333754 0.4510788 0.11038366 0.56929266 0.16889717 0.32016724 -1.2015963 1.1242601 0.7605606 -0.13412048 0.173048 0.21272463 0.10692147 0.030587401 -0.8359436 0.0007193129 0.5097622 0.081221715 -0.13385259 0.29384655 -1.0352533 -1.6881186 -0.64609945 0.59888697 -0.9223179 0.29383782 -0.33979285 0.09117843
入 -0.03310151 -0.24212316 -0.4183352 0.41076598 0.1350522 0.41063538 -0.2074178 0.45635563 -0.0019658848 -0.036369983 -0.27337155 0.69314384 0.15408483 0.6089562 -0.35632497 0.57693875 -0.05301903 0.33950958 0.57176167 0.27044594 -0.21257575 -0.049734693 0.6679082 -0.32106477 -0.0066818288 -1.631444 1.3161864 0.8254108 -0.9132946 0.15920486 -0.014818211 -0.15917158 -0.2697536 0.5803893 -0.45461935 0.11668819 0.056720026 0.20302069 0.8636284 0.47407544 0.7276279 0.11225599 0.25320584 -0.09906634 -0.047619656 0.6124414 0.40774316 0.34561092 -0.21468098 -0.042051613
志 0.10615726 -0.07402935 1.7462019 0.5038786 -0.14637588 0.86051446 0.56595844 -0.24322759 0.83576757 -0.31702593 -0.412052 -0.23159902 0.05750865 -0.49595675 0.14625025 0.07542036 -0.6623227 0.30667657 -0.40017483 0.12582408 -0.5298996 0.54393417 -0.5044423 -0.23562546 0.6145435 -0.043599285 0.9975923 0.5466027 -0.53133893 0.50987196 0.04987503 0.15560491 -0.31248143 0.3555187 -0.5515574 0.04143726 -0.5655238 0.070158646 -1.01517 0.09808637 -0.49324766 0.3372795 0.40305907 -0.039210703 -0.41554928 0.9940574 -0.29816118 -0.10029899 -0.27257618 0.43684244
耻 -0.2149525 0.46665892 0.13821585 0.5825418 -0.4019227 0.4151312 -1.0798694 -0.02368514 -0.74699223 -0.07675494 0.3926299 0.05479364 -0.10142439 -0.48217154 0.49271592 0.8466021 0.09630246 -0.18331052 -0.34993467 -0.19858354 -0.634971 -0.47500232 -0.8782293 -0.3546492 0.43268028 0.58364767 -0.24052936 0.25505072 -0.6520856 0.4217301 -0.9423814 -0.63656706 0.2275385 0.1126556 -1.9387957 -0.14914417 -0.059357315 -0.27651554 -0.6206363 0.05649786 0.5451996 -1.0455645 0.5178593 -1.061999 -1.1126112 0.29610017 -0.8338029 0.69111276 -0.16501814 -0.32187793
失 0.14066362 1.5775943 0.13730355 -0.4372043 -0.75316244 0.104198374 -0.38635978 -0.46862066 -0.20376045 -0.32379165 -0.103390835 0.16993995 -0.119087465 -0.556768 -0.24401951 1.1712067 0.040404048 -0.21160251 -0.6345722 -0.19801016 -0.25378123 -0.012340592 0.9532373 -0.47827545 -0.13336267 0.25294018 0.30122855 0.5286892 -0.26062497 0.68766224 -1.4252341 -0.1132941 -0.19765082 0.5840727 -0.54534197 -0.116456434 -0.77718705 0.5036146 0.45292407 0.1207101 -0.5614304 -0.121333316 0.399145 -0.052030433 -0.7399339 0.48937774 -0.07931992 0.7786188 0.031758018 0.31633797
安 -0.21352725 -0.0038596238 0.1304292 0.3373518 -0.23461549 0.8544879 -0.13669941 0.021052428 0.31733304 -0.35882014 0.70001453 0.3002764 0.4604445 0.41143548 0.25804403 0.16314201 0.34645632 -0.3436733 -1.0804262 -1.6859179 -0.25231847 -0.4170148 -0.31760588 0.27187827 0.35619897 1.0772779 1.076256 -0.0022519063 -0.45610067 -0.1342331 -0.09251439 -0.57913786 -0.2198861 0.80529606 0.7312076 0.3924973 -0.33029103 0.22092968 -0.8089112 -0.20971823 0.8211393 0.9983012 -0.3120597 -0.77735543 0.80997556 0.56747836 0.059955146 0.4967445 0.15346894 -1.1099721
富 -0.20622678 0.37806195 0.3881855 0.3990298 -0.7327727 0.6689859 -0.38178506 1.1624004 0.050190456 -0.64732224 0.5018402 0.72904855 0.3106533 -0.052445758 -0.83091265 -0.017140554 0.115836404 0.58857524 -0.46998662 -0.60361695 -0.5482312 0.49762377 -0.15497495 -0.20666154 0.4399569 0.22365819 0.30121976 0.20859852 -0.7014382 0.30410117 -0.23285218 -0.30677852 -0.17546485 -1.1947286 0.21995626 0.12024132 -1.0644332 -0.8009319 1.6265053 -1.1874293 -0.6870102 -0.101041384 -0.40381584 -0.8923235 -0.7916821 0.82924616 0.62502843 0.27378908 -0.064859815 -0.20387529
赐 0.2027081 -0.5266715 1.6082388 0.0074845613 -0.56009173 0.6248103 0.46975973 0.7646706 -0.11893139 -0.6308655 0.8330941 0.4592814 0.6229226 1.0053772 1.0165042 0.101192914 1.156441 -1.1801875 -0.4706241 0.5763159 -1.269804 0.4952833 0.32045028 0.5061651 0.59438807 0.1672676 0.10840546 1.2665819 0.7353585 1.1869578 -0.3501026 0.18673636 1.263974 0.17835058 -0.19163135 -0.22004834 0.40769556 0.89166796 0.0653268 0.013548622 0.27433398 -0.35907662 0.16880494 -0.18398508 -0.59763044 0.6182221 -0.84584206 -0.1431231 -1.2160645 0.5216691
患 -0.47259608 -0.14924113 0.5242279 1.3767351 0.24450247 1.0170887 0.6267347 0.31246653 -0.65730107 0.10976642 -0.4251682 0.6442101 -0.12411291 -0.43013847 0.7007613 1.048387 -0.24878459 -0.6330989 -1.197938 -0.4041426 0.17925331 0.76716906 0.27995917 0.39091635 -0.44719756 -0.09092416 -0.3922729 -0.20610893 0.29164377 -0.10474851 -0.3935384 0.6673858 0.09138555 0.18948218 -0.896095 0.5152007 -0.03638023 0.6859321 -0.08326803 0.6253848 0.7570165 -0.727274 0.54081124 -0.982001 -0.23235942 0.47718164 0.45389768 0.76012397 0.5569744 0.2594924
百 0.084807836 -0.2507689 0.7938078 0.19265525 -0.84635633 1.0172247 0.5894971 1.432508 0.12426837 -0.7350055 -0.30133697 -0.4072814 -0.41856542 0.6376377 -1.3566877 0.20491922 0.4131443 0.036656354 0.72155666 -0.64865446 0.1112384 0.45658448 -0.004659711 -0.17627367 0.61392444 0.40952638 -0.312373 1.3313081 0.18865 0.54828346 1.0240571 0.06344223 -0.6196204 -0.87003195 0.39859936 0.36979154 -0.40208584 0.478862 0.55991817 -0.18135107 1.1133724 0.34768364 1.4142469 0.5847636 0.16461542 -0.18777719 0.9520033 0.06303424 -1.1414833 -0.18914479
回 -0.7400921 0.008286229 1.3507239 0.21803229 -0.46447498 1.0698601 -0.4744333 0.6645682 0.2715343 -0.21313316 -0.20426951 -0.391128 -0.772632 -0.4517303 -0.34663904 -0.5262014 -0.108536206 0.14082476 -0.54413766 0.061877787 0.060739256 -0.22849663 0.4413541 0.02259101 1.0033536 -0.67371273 0.675356 0.6835319 -0.30863598 0.6221897 -1.1226765 1.1919808 0.40011168 0.07592776 1.2558389 -0.9225113 -0.6578074 0.10011727 1.4363266 0.4748027 0.6926126 -0.7004461 0.30519372 0.4123341 0.38465858 0.23508917 0.057574164 0.07820885 -0.92419547 -0.3283945
宰 0.41305986 -0.46472138 0.39008105 1.2255769 -0.19394782 0.4834302 -0.42823368 0.002892087 0.3643198 -0.23562312 0.557619 -0.47850135 0.21866761 0.21658087 -0.62219083 0.116639346 -0.4754067 0.14588219 0.7704021 -0.37337327 -0.86171097 0.09972931 -0.31536874 -1.736695 0.5754397 -0.4578353 0.13432854 1.339245 -0.266833 -0.14577368 -0.091946304 -0.1982262 -0.40714085 0.36383542 0.2148275 -0.27113318 0.44685927 0.34787127 0.23800632 -0.43953094 -0.06943469 -0.24850707 -0.6284443 0.45461798 0.037760474 -1.1992722 -0.5584932 0.45022509 -0.8666318 -0.6513718
朝 0.5446701 0.35698086 -0.03172032 0.9441129 0.3311715 0.4930331 0.56088936 -0.14202529 0.33429605 0.09870716 0.80997133 -0.19700347 0.59626484 -0.30507597 0.027063599 0.3201635 0.312296 -0.91780895 -0.5666681 -0.2421474 -0.3811072 0.7506433 0.31547162 -0.59892076 -0.056022596 -0.8371072 0.48920354 0.9902414 0.4432394 0.14760241 -0.3623628 -0.9761466 0.6717002 0.038633928 -0.10389969 0.50970197 -0.7100638 0.004865342 0.08676947 0.20692722 -0.47643164 -0.36558765 0.39953867 0.3318728 0.3078589 -0.7123268 0.40150717 0.12229264 -0.43431544 0.56803936
莫 -1.0259081 -1.0019649 -0.32717985 -0.08784629 -1.0205467 1.5715481 -0.82591885 -0.13736896 0.9164791 0.41113675 0.89772636 0.95396477 -0.39087015 -0.03485503 -0.12265804 0.7003359 1.0671494 -0.38052863 -0.0737152 -0.2257079 0.21342205 -0.72458893 0.026097605 -0.652719 -0.65729344 0.08112745 -0.15848213 -0.5622579 0.013671426 -0.60496587 -0.91147685 -0.44965884 -0.39230114 -0.023881136 0.5006653 -0.34820852 0.97338355 -0.04311682 0.07922815 0.36349264 -0.009252418 -0.044266865 -1.0726157 0.09111096 -0.36389747 -0.61265653 -1.0560186 0.9268563 -0.77224004 -0.5586794
若 -0.4463043 -0.560461 0.028465413 0.83512604 -0.6597552 -0.7375259 -0.45161733 0.909915 -0.6420991 -0.6552207 0.6561493 0.18543881 -0.07130211 0.24013065 0.057777457 0.08053567 0.45391044 -1.54318 -0.98869413 -1.5301518 1.108414 0.4055746 0.09045859 0.2533737 0.24988614 -1.469513 0.3230494 0.38083205 -1.1820083 -1.0673919 -0.7056804 -0.27919996 0.22830617 0.6811805 0.7485337 -0.4471978 -0.11662348 -1.2165073 0.11447541 -0.27078387 -0.11316662 0.012964147 0.42497635 -1.8375942 -0.6284095 -0.69328415 0.95924586 -0.21423942 -1.4042768 -0.30848393
云 0.3085125 0.23658201 0.4948889 0.2828939 -0.5392989 0.1438439 -1.4613285 -0.15795232 0.0022000314 0.4773798 0.24508701 0.20175761 -0.011409175 -0.25966808 0.48179558 0.062866956 -0.3013791 -0.27449524 0.045527633 -0.11142562 0.29756165 0.3579192 -0.058152035 -0.21075204 0.66634953 0.28739572 0.08310719 0.35196468 0.6637894 0.64042073 -0.27953097 -1.3230166 0.15627472 -0.38306177 -0.9828062 0.1919878 0.0357419 0.90878665 0.64243287 0.31491745 -0.2571889 -0.82095987 0.36949366 -0.36988452 -0.10497038 0.67498195 0.28421003 0.5379876 -0.6114772 -0.41100484
孙 0.24159582 -0.38770282 0.755257 -0.24182852 0.6041503 0.55898577 0.48905897 0.516971 0.67038107 -0.5546221 -0.16333579 0.6044187 0.02180506 0.59112996 0.25566307 0.4403758 0.9354024 0.10258822 -0.6546142 0.31900743 -0.49103832 -0.77120554 0.9653104 -0.88180286 -1.530236 -0.70500195 0.40927184 0.49039233 -0.23677516 0.6492519 -1.1945021 -0.1440679 -0.46268356 -0.29890028 -0.5177117 1.1096498 0.31852368 -0.665619 0.526799 0.6771524 0.56271803 0.11507116 0.49708706 0.3640789 -0.54871196 0.30345553 -0.028757855 -0.056143813 -0.9739536 -0.82515234
或 -0.6122832 0.13569757 0.35049668 0.3346092 -0.14941178 0.058518276 -0.2825481 1.4766438 -0.47097078 -0.24970984 -0.23181976 -0.43906778 -0.0800031 -0.61235064 -0.34755573 0.3512199 0.7162368 0.7226109 -0.5928647 -1.0247176 -0.5133224 0.44926775 -0.80001384 -0.25961342 0.36935315 -1.0341443 0.27788153 0.6609939 -0.24904665 0.29953334 -0.28666246 -0.6967459 0.09272063 -0.0900308 0.16283838 -1.4848968 -0.85890394 0.0085204225 0.13923945 -0.5376487 -0.062511586 0.41276628 -0.42305756 0.09655857 -0.5505426 0.27028754 0.79134905 -0.7438407 -0.37853715 -0.7360816
勇 0.15707213 1.2274282 0.884509 0.2695375 -0.22999689 0.2565313 -0.5177768 0.62249297 0.30627912 0.7983247 -0.19974485 0.4322121 0.8496208 -0.22132187 0.34008425 1.0993187 0.108779155 0.40653017 -0.14232753 -0.29355183 -0.651062 1.000056 -0.56348765 -0.47555265 -0.09311844 -0.26369205 0.21591231 0.057139255 0.55265284 -0.08418483 0.7958792 -0.4078374 0.8517821 -0.41155738 -0.23611136 0.31973252 0.7827801 -0.21099536 -0.4201998 -0.41749862 -0.6155001 -0.6297064 -0.05026604 -1.1863215 0.6580884 0.15071122 0.26454595 0.5784508 0.45045364 -0.37880027
孰 0.00072522584 -0.7875041 0.5459773 0.7566191 -0.66216165 1.123526 -0.54263365 -0.23832881 -0.38007 0.01936385 -0.5703454 0.024424225 0.3738501 1.1247989 0.7660118 0.2570015 0.685028 -0.10431975 -0.21761172 0.9968337 -0.11506825 0.6085879 0.6201234 0.5044292 0.4694622 0.16413419 0.30526465 1.2940896 -1.1371818 1.3141574 -0.10457475 -0.16282548 0.57370245 0.33775795 0.4639373 -0.14155853 0.42552292 -1.2111294 -0.19747551 -0.9944601 0.42010632 0.3161643 1.7139912 -0.9071177 -0.109962344 0.56541866 -0.15264735 0.11353595 -0.3660938 0.24872313
叔 -0.3627433 -0.124650545 1.1981884 0.64080197 0.6607399 0.94512874 -0.9998284 0.6832632 1.1686615 -0.9379639 -0.5273521 -1.0663296 0.009081069 1.1719146 0.8765247 0.53210855 -1.2258737 0.1367434 0.40055385 -0.45775312 -0.106104 -0.36674836 -0.37746024 -1.0873225 -0.6186983 -0.15482272 -0.15216115 1.2281151 -0.18705519 0.6618606 0.9820473 -2.110246 -1.0235635 0.007333584 0.019796362 -0.47715157 -0.99600834 0.5808588 0.7471392 -1.0224247 -0.058357626 1.0667827 0.15449949 0.28631392 0.6061619 -0.4091418 0.46613964 0.17462273 -1.1468872 0.37901083
