1352 100
， 0.04066623 -0.0024255987 0.09138981 0.07345163 -0.055243116 -0.14985713 0.035125826 -0.095721796 0.02852669 -0.1789577 -0.21185187 0.056563016 0.09402811 0.053751037 0.014491357 -0.23096369 0.2136397 -0.14008477 0.27826983 0.08806456 0.14901082 1.0351962 0.080013424 0.17883605 -0.12363214 0.0145380655 -0.039653175 -0.13347559 -0.057199117 0.0007985615 0.072636835 0.035049718 -0.021717643 0.017558305 -0.041441493 0.03340063 0.002996119 0.023681708 -0.022880225 0.019914053 -0.09875956 -0.042158894 0.0110021 0.10658798 0.14156355 -0.10172144 -0.038743827 0.13009633 -0.08044655 -0.01361377 -0.08812035 0.11757368 0.38933313 0.0733323 -0.20896815 0.047725894 -0.057644982 -0.004781926 0.061598126 -0.13341968 -0.06242288 -0.05955021 0.09905133 -0.21793929 0.050835144 0.030787054 -0.016982185 0.08215691 0.090282016 -0.033245437 0.103843674 0.046988543 -0.014720276 -0.06731976 0.013631217 -0.03518944 0.09054402 0.14011872 -0.045890313 0.011081136 -0.1262421 -0.041084666 0.15575953 0.0850747 -0.15017411 0.0035920276 0.14534134 -0.04778705 -0.0028125725 0.45445457 -0.11818929 0.13848273 0.0063203345 0.019957924 0.168066 -0.008628674 -0.03602242 0.12288149 0.05032365 0.039817784
子 -0.09294634 0.07085561 0.32624838 -0.09483489 0.017287303 -0.09024226 -0.17601833 0.009835621 0.048950654 0.0066806525 0.16359241 -0.39672408 0.066515505 0.12246443 0.22742704 0.042331506 0.021486886 -0.041495312 -0.6853762 0.013540796 0.4803905 -0.2966392 -0.108011246 0.056771565 0.07420627 0.15470524 0.08760229 -0.03904065 0.11877592 0.2740536 0.22513887 0.06771837 -0.007909776 0.20098759 -0.12335076 0.08073731 0.10510589 0.15376036 -0.03371231 -0.19165981 -0.112242 0.12143737 0.02465705 -0.043771666 -0.021343315 -0.008216511 -0.08657967 0.066739425 -0.046965618 0.13694502 -0.18382025 -0.2704213 -0.27877593 -0.09475423 -0.22279616 0.04271532 0.016835153 0.036624443 -0.05084995 -0.19075069 -0.07429294 0.0009029243 -0.0227278 0.10389035 0.03188153 0.054731525 -0.05249585 0.021233985 0.15854782 -0.16314358 0.066584006 0.12738353 0.039369732 -0.095684744 0.0757746 -0.033484843 -0.055908374 0.102806285 -0.1493885 0.18354028 -0.10781399 -0.1521406 -0.039449356 0.044450298 -0.20141645 -0.16586238 -0.028547019 0.015199449 0.13514028 1.7698472 0.0016269664 -0.06599162 -0.1289064 -0.073819496 -0.04063649 -0.017679583 -0.24596658 0.011351355 -0.23981467 -0.25187248
。 0.13530451 0.035351813 -0.016181733 -0.0055950806 -0.018678388 0.10783718 -0.054299984 0.08009612 0.25649282 0.08270166 -0.15146257 -0.06787452 -0.015709644 -0.031960174 -0.14125918 0.24826285 -0.15790378 -0.036777742 0.51047456 0.11950393 -0.01777812 0.9669798 -0.8515336 -0.07078671 -0.018039642 -0.10803923 0.016186966 0.028937664 0.090453856 0.014209566 -0.08201302 0.15346284 -0.0042851428 -0.021794865 0.016625494 -0.14162153 -0.48996478 -0.096083924 0.08849047 0.08652576 0.09702097 0.2022949 0.047224887 -0.020799499 -0.0007785093 0.16704795 0.038982958 0.042266715 -0.008540626 -0.08256978 -0.09231765 0.08289889 -0.04856333 -0.00012406423 0.08332907 -0.18895769 0.0879707 0.053025465 -0.036018398 0.17254107 0.14195867 0.024427155 -0.036157005 0.21708366 0.035828564 0.043737054 0.10167191 -0.12184774 -0.060188755 0.024777912 -0.020250037 -0.2039068 -0.0015798397 0.22350065 0.111148514 -0.010565932 0.17341243 -0.018594755 0.08340887 -0.012462918 0.023555094 -0.073471315 0.058527675 0.15610926 0.12026468 -0.081476405 -0.20139813 0.09806964 -0.05442692 1.3130842 0.140298 -0.0501423 0.04911341 0.03522888 0.03339929 0.052231498 -0.010047807 -0.092127666 -0.010866187 0.08536337
： 0.29294336 0.16126579 0.08628033 0.13346618 0.10153207 -0.14734203 -0.099003345 -0.1762634 0.061697688 -0.15453547 0.11307187 -0.025927724 -0.053280447 -0.06427754 -0.0023293272 0.21498658 -0.17115952 -0.08448945 0.36622244 -0.1648633 -0.24087332 0.083038576 0.81648505 -0.02468455 -0.1174096 0.088467896 0.1387453 0.036243897 -0.031186607 -0.1537675 -0.058185488 -0.05725722 -0.3770915 0.039586194 0.00548683 0.063232474 -0.54387647 0.101154245 -0.09687648 0.06502453 0.53602743 -0.015620731 -0.23566295 -0.06880896 -0.018093599 -0.0955631 0.07774142 -0.13191485 0.10884868 0.0007327241 -0.10384694 0.0076862397 0.30281892 0.3722977 -0.27929547 0.09144896 -0.106330864 0.09132814 0.046163756 -0.24146874 -0.10419301 -0.10742284 -0.039840445 -0.20643803 -0.041526165 -0.037804306 -0.11359028 -0.14931047 -0.031455018 0.06375087 0.15311477 0.013080344 0.013877869 0.13107722 -0.06445005 0.10060945 0.21223722 -0.19238147 0.17178987 0.2176673 0.17017138 0.2563033 0.14207783 0.24650085 -0.12604037 0.12646843 0.13835531 0.010574347 0.103726596 1.548102 -0.04910828 0.064562894 0.17888094 0.1345915 0.03355077 -0.058052126 0.076799296 0.10562325 0.2879442 0.2042672
曰 0.06575347 0.14009658 0.34790307 -0.4679063 -0.1611153 0.02786019 -0.119211584 -0.052776523 -0.04182219 0.0032009217 0.13637657 -0.032865927 -0.08187493 -0.24612907 -0.03682254 0.3643811 0.053466927 0.15754028 -1.5454372 0.052651845 0.3382585 1.1127161 -0.30591977 -0.069704436 0.037608095 -0.06610204 -0.11438106 -0.3456447 -0.22413395 0.47199664 -0.35589308 -0.006846027 -0.1349935 0.12486173 0.0014694261 -0.091227494 -0.2551095 0.12587653 -0.12977302 -0.062207185 -0.11920367 0.009676893 0.06858289 -0.099096954 0.07702225 0.062845945 -0.07726681 0.44169316 0.13595471 0.08626553 -0.39078808 -0.6824342 -0.2869588 0.040166035 -0.14307684 0.1346812 -0.13921873 -0.11240788 0.080154605 -0.1633865 -0.34533542 -0.37166327 -0.063509785 0.04173616 -0.3249338 0.024758443 0.13293554 0.27954566 0.05220559 -0.042217314 -0.046960086 0.059931085 -0.04294139 -0.016175084 0.013991897 0.34232774 0.028463893 -0.17927739 -0.0377021 0.0049530603 0.079892784 -0.0887356 0.07298968 -0.0825462 0.18995553 0.19997919 0.12981805 -0.052942306 -0.035571966 0.9776788 0.29131287 -0.12635672 -0.091831796 0.14443135 0.25731534 -0.0819208 -0.04575417 -0.094979 0.111750886 -0.023606637
之 0.006310581 -0.14843696 -0.116023965 -0.33475432 -0.089146554 0.07391947 0.12257261 0.0039922795 -0.04881834 -0.07787297 0.07594618 -0.048168894 -0.09418574 -0.40429965 -0.004979502 0.11418469 -0.15337938 0.15066642 -0.009138094 0.12719925 -0.12282525 0.44540635 0.35039014 -0.09792417 -0.15980445 -0.24365075 0.02777083 0.11616782 0.12223454 -0.39690563 0.10095871 0.120215155 -0.22851625 -0.031823944 -0.012700605 0.13628992 0.16436026 0.19825542 0.05351031 -0.17521049 -0.26419532 -0.113107756 0.16638865 0.251827 0.016497783 -0.23232637 -0.021009345 -0.035480205 -0.2650346 -0.28616387 -0.013593017 0.2056546 0.12282101 -0.13505487 0.14726673 0.026115559 -0.29723042 -0.056053266 0.038191788 0.20929582 0.114827275 -0.2911823 0.23168151 -0.10984068 -0.06948086 0.1405901 0.08598927 -0.0721189 -0.11071044 0.08291711 -0.12200991 0.102041066 -0.13394876 0.09136487 0.09539549 -0.00086675066 -0.3054958 0.094278984 -0.32463965 0.038149446 -0.09731713 0.33183113 -0.12719868 0.08266664 0.3178862 0.027092028 -0.27725655 -0.22003093 0.08079099 0.8358861 0.23729962 -0.072506085 -0.014507535 -0.07319268 0.058615975 -0.032252874 -0.17332086 -0.17404129 0.047941945 -0.16689117
不 0.16059886 0.05845819 0.009837121 -0.13610424 0.047800247 0.10447487 0.041658163 -0.009730167 0.045475885 0.0367188 0.153507 0.3013602 -0.13423426 0.051249035 -0.11585102 0.29639593 -0.03270947 0.019036891 -0.19702616 0.12752666 0.32766783 1.0865811 0.79957014 -0.11930992 -0.03481544 0.110146046 0.22085245 0.0073308423 0.3064537 -0.06955258 0.013795536 -0.028161557 0.28208992 -0.07279236 0.19378085 0.016458798 0.48141962 0.22911371 -0.049680863 0.112728216 0.35571384 0.22753744 -0.09180703 -0.09308403 0.11983052 0.07616705 0.09582229 0.14127739 -0.09004338 0.106498726 -0.14718713 -0.08191358 -0.39919698 0.18113862 0.020836473 0.013733226 0.022885522 -0.026629321 -0.049207024 -0.19298986 0.022328535 0.05595683 0.104420386 -0.07461818 0.23921013 0.11452517 0.05555173 -0.036392126 0.02707171 -0.1180579 0.1555663 -0.18282226 0.16861618 0.09943036 0.12629391 -0.18328708 0.08602166 0.056540743 -0.00772368 -0.061926402 -0.06925419 0.010615469 -0.20223676 0.029080627 0.44202667 -0.27209815 0.2214126 0.06703999 -0.0115228705 0.16387755 0.096218534 0.117310055 -0.030990817 0.10259352 -0.37219363 0.12214945 -0.05050263 0.11721848 0.020958243 -0.126698
也 -0.13435096 -0.1067086 -0.39190182 -0.2673884 0.06560466 0.05822467 -0.07204698 0.06606167 -0.20123993 -0.21026582 -0.05592283 0.27893952 -0.28429803 -0.05454374 -0.106732294 0.06287989 0.36452815 0.3085456 -0.39748794 0.01463551 -0.35828853 0.27075484 0.40691665 0.05057918 -0.0029838134 0.24535014 -0.21018751 0.28474948 0.1059728 -0.06980651 -0.124700196 -0.15160193 0.21475665 0.175896 -0.07828638 -0.25315636 0.4525823 -0.38796195 0.07577133 0.15415852 -0.23079216 0.10112132 0.0052888184 0.15473571 -0.020922527 0.089282855 -0.098602965 0.0639838 0.042903624 -0.10692469 -0.18171273 0.30231503 0.05868788 -0.083998695 0.17976509 -0.21792099 0.25793362 -0.1469334 -0.009701449 0.43205044 0.19022496 -0.107371755 -0.018717881 -0.0049643484 0.104801 0.26936668 0.009327081 -0.086791426 0.07647008 0.17370263 -0.3364308 0.14566427 -0.059631854 0.15177278 0.022868298 0.36195323 -0.098766185 0.25489894 0.014949916 -0.19938324 0.0439896 -0.060780592 -0.039437328 -0.3540182 0.045923 0.083881386 0.13112718 -0.07465659 -0.09345824 1.2093707 0.1748969 0.43372387 -0.108872265 -0.14333525 -0.04391588 0.14557669 0.10382982 0.15353906 0.09491281 0.08830323
而 -0.32421407 0.16750924 -0.121649526 -0.052022792 0.15539338 0.17738515 -0.15698808 0.06369378 0.22632824 -0.08745737 -0.06471605 -0.11590775 -0.1505297 0.045894276 0.17163841 -0.14600337 -0.16119508 0.2589085 -0.23369542 0.33295035 -0.2473119 1.238635 0.46795315 -0.16159703 0.20046866 0.12842055 0.10368196 -0.27076334 0.03830617 -0.023856342 -0.041818712 -0.051460005 0.13197386 0.09589424 0.025315128 0.12190999 0.19713564 0.09016031 -0.11488889 0.12633993 0.34426346 0.028662547 0.15270734 -0.00082392106 0.08007054 -0.077213556 -0.45030853 -0.19504118 0.0106059965 0.23710814 -0.12062683 -0.14541215 0.2704379 0.26750112 -0.031154323 0.08257872 0.19805066 0.24085604 -0.057048947 0.159811 0.02421976 0.2527981 0.10500106 0.12451545 0.13987075 0.22621243 -0.18070656 -0.064366385 0.1299738 -0.07799944 -0.27187338 -0.4056971 -0.0017877282 0.083512805 -0.2070192 -0.24240185 -0.32763967 -0.20764664 -0.043241512 0.14978331 0.31832868 -0.14350855 0.13992064 -0.20874268 0.027743718 0.09690853 -0.2714669 0.3272014 0.055702563 0.5710452 -0.23380862 0.11050049 0.04847871 -0.1256535 0.37173167 0.29055434 -0.2658241 0.075928085 0.0667877 0.13579743
？ -0.047025114 0.06284211 0.24814911 -0.267999 0.36103714 -0.14527951 -0.02777543 -0.39498925 -0.04999262 -0.097717054 -0.36015707 -0.3409585 0.25940117 0.329329 0.009408507 -0.6091566 0.19781533 -0.19682367 -0.16170046 0.21562062 -0.45814562 0.98978776 -0.03404583 -0.17171443 -0.034531735 -0.19757093 -0.05977848 0.34938455 0.25562087 0.12763815 -0.010188967 0.005475827 -0.46424487 0.19053248 -0.006320445 -0.03294335 -0.20227449 0.00040577224 -0.04025575 0.07120646 0.39389658 0.47581568 -0.13146909 -0.2422253 -0.030520326 -0.51181835 0.2422333 -0.26949254 -0.10923861 0.24393877 -0.0016029584 0.15188101 -0.40161124 0.3120453 -0.3405673 -0.09983528 0.048556443 -0.033908315 0.13047771 -0.16482912 -0.33912298 -0.45051017 0.05179497 0.40440154 0.025602704 -0.1614888 0.08425755 0.17378438 0.09083344 0.12392268 0.3179441 0.038275223 0.20233794 0.057671607 -0.3042329 0.09808478 0.324553 0.23062646 0.1343744 -0.07614433 -0.08386028 -0.047386058 0.23092625 0.18244565 -0.013955008 0.3024027 -0.41411376 0.24934232 0.48166654 0.768785 -0.0007541142 -0.018177828 0.02695207 -0.14364803 -0.18065563 -0.07090349 0.23064557 -0.1499678 -0.10409252 0.08400764
其 0.004371144 0.20494542 -0.05931604 0.07325814 -0.103180744 -0.15706784 0.011018451 0.11430449 -0.027778093 -0.009560743 0.33082384 0.1210768 -0.03715241 -0.106461145 -0.019899512 -0.34934458 -0.25406536 -0.15414308 -0.7434988 -0.4477677 -0.14529505 0.94285506 0.39872423 0.21047866 -0.021088062 -0.031176474 -0.15270156 -0.18043646 -0.061211944 -0.036574673 0.26807547 -0.2732874 -0.12160099 0.35136294 0.06301763 -0.06535476 0.3446158 0.124686904 0.10518436 -0.1407619 0.16955335 0.19290742 0.2110439 -0.108334705 0.24261877 -0.01257744 0.12074122 -0.14023028 -0.06561049 0.036218397 0.08051265 0.18343496 -0.15834995 -0.18718381 0.12243212 0.07461503 0.0074778893 -0.10366555 -0.11474777 0.24451214 -0.05079737 0.21033771 -0.021033796 0.15966548 -0.4487503 -0.07347025 -0.3364244 -0.21610382 -0.17532173 0.08150053 -0.024041262 0.007838494 -0.21574292 0.5476438 0.16656251 0.030235535 -0.1464192 0.07630884 0.14246596 -0.04973107 -0.09456022 0.18509689 -0.13791989 0.32157817 0.058937527 -0.17642973 0.16175674 -0.11928574 0.04071908 0.50652957 -0.12423269 0.064241305 -0.16598348 0.31298536 0.31311303 0.3126099 0.40988016 0.03618446 0.15604617 -0.021598283
人 -0.024629064 -0.059359416 0.2216849 0.016553713 -0.15734653 -0.02593377 0.15460458 0.38879883 -0.2842799 0.20821735 0.037879482 0.02868521 0.08361407 -0.4135083 -0.197491 -0.10273412 -0.17890133 -0.0282317 -0.41101488 0.36285818 0.28550965 0.59390575 0.16334963 0.023237042 0.24109876 0.33603615 0.08416345 -0.098521955 -0.15627262 -0.030591013 -0.15321085 0.25629744 -0.11011222 -0.01556806 -0.016226504 0.29586723 -0.24852414 0.0822566 0.11274008 -0.15470813 0.03048385 0.18306477 0.2214915 -0.05586398 -0.10212839 0.1224883 -0.3808001 -0.44466093 0.1360758 0.02548781 -0.049769297 0.15872781 -0.11921279 -0.05679927 0.21577442 -0.24278714 -0.13193545 0.23798513 -0.006653228 0.021881236 0.08535481 -0.070382856 -0.17221004 -0.26097184 -0.21938108 -0.05335426 -0.051255748 -0.22936215 0.26293 -0.22214183 0.0365164 0.09090313 0.03880697 0.086746484 0.20794135 -0.116328634 -0.03232162 0.0031426642 -0.049721308 0.089052156 -0.09169186 0.10005094 -0.14156897 0.12522708 -1.0227984 -0.26900303 -0.24414466 -0.23632076 0.15679489 0.348977 -0.13711655 0.24340256 -0.32214186 0.062172443 -0.41996244 0.18392992 0.5447622 0.11534462 -0.40291277 0.14763027
者 -0.16729553 -0.25332248 -0.41070357 -0.05041335 -0.013464303 0.082407765 -0.014253027 0.0069349115 0.0219542 0.21143395 0.1554495 -0.11764676 0.28407973 -0.16221721 0.010553873 0.062438935 0.13691838 0.4068724 -0.18939526 -0.21120909 -0.22633694 0.93079424 0.6455004 -0.2216612 0.1072531 0.33367172 -0.31493238 0.104221456 -0.05146068 0.2076239 0.11479614 0.33233777 0.31266385 0.28390664 -0.058484957 0.11964267 -0.087991595 0.057234872 -0.07208202 -0.11878442 -0.12946293 0.23658015 0.00759146 -0.22354338 0.08253775 0.116679795 0.38625437 -0.12275784 -0.03987271 -0.030719152 0.18452649 0.1768873 0.34915972 -0.42545983 0.50376683 0.019370215 -0.0024515109 0.09679595 -0.12313425 -0.3080507 -0.28165728 -0.40970373 -0.12369323 0.15571098 0.08696046 0.028109238 0.13117869 0.2649853 -0.13316745 0.37170124 -0.14721762 0.12564032 -0.03616673 0.11468833 -0.22092041 -0.04039584 -0.43327036 0.2443822 -0.056338012 -0.042059597 0.23771451 0.24669798 0.051093444 0.11168578 -0.23831078 0.13488854 -0.11405909 0.64170444 -0.028879702 0.38751435 -0.008123944 -0.4034121 0.023384327 -0.46120566 -0.09132123 -0.21242918 0.2488 0.029373338 -0.20359421 0.052389283
以 0.00694206 -0.124050714 -0.16402969 0.27313408 -0.14200808 0.27489638 -0.08220647 0.06043047 -0.106734924 0.094862275 0.3140746 -0.10656489 -0.37086967 0.2068858 -0.18899803 0.1872161 0.017617121 0.059382915 -0.086384684 -0.24698696 0.17113453 0.9780579 0.44851798 0.02866939 -0.06574613 0.306604 0.05541279 0.24786648 0.3807956 0.0048912815 0.36057305 -0.06990841 0.089862205 -0.034129925 -0.047662318 -0.062213134 -0.2082028 -0.40694356 0.21697381 0.24572219 -0.11437125 -0.14450696 -0.53126967 0.1492593 -0.050521795 -0.011362909 0.18168251 -0.35642302 0.09917454 0.100820936 0.33241946 -0.25124654 -0.034139812 0.07453516 -0.34409586 -0.13675119 -0.17053747 0.020521859 0.11587392 -0.3245022 -0.4218353 -0.10973104 -0.09277355 0.13200578 0.21618763 0.105553396 -0.27014378 -0.360119 0.440247 -0.03727951 -0.08870056 0.13989738 -0.32634944 -0.23983918 -0.07994503 0.49340552 -0.15530495 -0.134982 -0.1893985 -0.10600779 0.25398302 -0.028383393 -0.18740962 0.37746748 0.13347766 0.13269095 -0.23461029 -0.030120613 0.024989378 0.3690435 0.31231105 0.45396954 -0.16914181 0.57708776 -0.1668752 -0.0070572323 -0.19378339 -0.33236673 -0.06946759 -0.41841444
有 -0.054141372 0.13682123 -0.025918368 0.17885727 0.0052255723 0.29078555 -0.2672241 0.014537459 -0.2064395 -0.28852493 -0.2596149 0.0028588087 -0.17503515 -0.098791815 0.09244167 0.19556919 -0.030291848 -0.5239787 -0.57696056 -0.061357945 0.10648836 0.54209363 0.032113828 -0.28515157 -0.08161495 0.09774644 -0.26005647 -0.2414803 0.11362316 -0.16729943 0.2613641 0.030560149 0.22205293 0.32635593 -0.16193993 -0.09719932 -0.46547297 0.25520417 0.018307053 -0.054818403 0.14188854 -0.2690337 0.09077784 0.2661814 0.36388755 0.1639912 -0.07359091 -0.08676776 0.028969722 0.0069121 -0.1487173 -0.011810913 0.22260848 0.06327864 0.23424807 -0.20250444 -0.23283531 -0.40788373 -0.111978635 -0.0073697376 0.30309018 0.30032519 0.105472684 0.100213476 0.0049477424 -0.3332822 0.048421696 -0.07631257 0.1152586 0.07446263 -0.0136736445 0.24294582 -0.0832699 -0.17963597 -0.15433374 0.23577486 -0.030440567 0.018125232 -0.15264337 -0.17682122 0.07829282 0.44887766 0.3927024 0.24512039 -0.0839564 0.25760603 0.18205106 -0.0647927 -0.2840845 0.30407414 0.30689707 -0.39503697 -0.027941342 -0.15060094 -0.73774123 0.15789495 -0.19955711 -0.14129888 0.057067167 0.116623506
于 -0.056025777 0.07120457 -0.5878314 0.094900765 0.13867123 0.1579275 -0.15296558 0.19627538 -0.43906143 0.15683256 -0.16404392 0.12400696 0.13810937 0.1927088 0.1415069 0.057494905 -0.17736723 -0.13732284 0.029103765 0.032942995 0.31690648 0.81034094 0.41483012 -0.32508582 -0.36541915 -0.16169617 0.14933303 -0.34125096 -0.15015693 0.009411076 0.56775874 0.04096838 -0.4092897 -0.54100525 -0.14418426 0.025501283 -0.49332833 -0.4250413 -0.111728586 -0.40437892 -0.05949386 -0.10680714 0.19330287 0.1044893 0.12760757 0.09688227 0.34349936 0.12608957 0.06649044 0.021953354 0.24103554 -0.065628305 -0.29851758 0.009807332 -0.077331774 -0.04264644 0.24283428 0.041230787 0.12676482 -0.48527354 -0.05597072 0.012984538 0.214961 -0.030117877 0.11975615 -0.33396852 -0.2212053 -0.0471027 0.23415205 -0.0024414961 0.10226154 -0.01824079 0.4728651 0.29903835 -0.20301677 0.12284883 -0.14905219 0.06557276 -0.2540862 0.14477912 0.01919049 -0.27615938 -0.12112611 -0.14279602 0.44804698 0.28573617 0.27577943 -0.36563402 -0.25898984 0.9617023 -0.1552423 -0.08029968 0.29505727 0.0571851 0.457449 0.23248355 0.39581236 0.4304996 -0.297249 0.14620784
矣 -0.25469083 -0.35493997 -0.4189823 -0.81745267 0.054111127 0.02880905 0.14877425 -0.31800595 -0.079536915 -0.027606457 0.0936781 0.55893254 -0.25587538 0.07344305 -0.13295238 -0.22761838 0.35382697 -0.12153508 -0.11485046 0.13375345 0.24702032 0.23930109 0.7945915 -0.09915861 0.5085588 0.0064922026 -0.16488226 -0.14371207 0.11304403 -0.21030708 0.14972667 -0.19906205 0.20584692 -0.46692586 0.32082325 -0.38935554 -0.040692452 -0.025370728 0.10259814 0.04632966 -0.5189379 -0.25776985 -0.026842013 -0.07820569 -2.4616042e-05 -0.20023301 -0.3044423 -0.12794049 0.043807488 0.36480045 0.42428163 -0.017218042 -0.46122646 0.34749353 0.29358187 0.16536443 -0.012792704 0.17678134 -0.24363016 0.13431689 -0.3536482 0.17817433 0.022816528 0.4235563 -0.22214273 -0.012928421 0.11607698 -0.6613725 -0.1828299 -0.44738263 -0.19979364 -0.041851297 -0.100133665 -0.07597551 0.26412633 0.45963073 -0.30438587 0.041660156 0.17629187 -0.031108877 -0.23862186 0.18539529 0.16418138 0.023249319 -0.5068242 -0.2004344 0.05024024 0.20770119 0.1841904 1.2759498 0.07945532 -0.23648241 -0.41472888 -0.13078466 0.16834691 -0.13453631 0.06494605 -0.051173747 -0.18558748 -0.024374763
为 -0.10670064 -0.2851476 -0.21414948 0.103117436 0.090784535 -0.34559137 -0.003528595 0.02603809 0.15439993 -0.03243247 -0.14466839 0.015637966 0.0007306056 -0.010503835 -0.17754509 0.49114525 -0.13570513 0.25886163 -0.07204329 0.013220115 0.2584282 0.9082902 0.29236236 -0.065295644 -0.120479815 0.00097439234 0.24034032 0.027658539 -0.19724809 -0.26852152 -0.02139924 -0.15975551 -0.4168469 -0.05432875 -0.14810729 0.034590665 0.25340524 -0.42808905 0.3940618 0.1185233 -0.022742685 -0.012329038 -0.16943312 0.14043409 0.23779564 -0.15332828 0.13351436 0.2133015 0.17069201 -0.21633306 -0.15705222 -0.10057298 -0.64959615 0.33092707 -0.14626679 -0.11159988 -0.01395382 0.1252634 0.32918668 -0.048331883 -0.0057485867 0.16455124 -0.16739397 0.0025329806 -0.081448756 -0.36548054 -0.054188397 -0.09133498 -0.12313868 0.061714735 0.34380457 -0.26418465 -0.09464094 -0.030120246 -0.28871056 0.34531063 0.4936713 0.344263 -0.09922276 0.12456947 0.554367 -0.13266264 -0.30474362 -0.53263116 -0.6694863 0.24294169 -0.06247743 -0.03543745 -0.10925432 0.37014198 0.0940756 -0.1659951 -0.42379215 -0.49586847 -0.1789219 -0.24237593 -0.35005853 -0.03047325 0.2854172 -0.3333044
君 0.00031113747 0.01039391 0.31188104 -0.10557698 -0.12754272 -0.1821665 0.49937752 -0.41070667 -0.039623193 -0.2717192 0.068313636 0.12330829 -0.24519654 -0.10090605 0.15598932 0.6561335 -0.08972398 0.2124023 -1.1130397 0.37663692 -0.011977887 0.38703597 0.06827415 -0.49845117 0.2563035 0.2678362 0.048344884 -0.22333266 0.017775023 0.4903999 0.07457492 0.059741005 -0.22110455 0.22493981 0.22642334 -0.11295241 -0.27847263 -0.044971175 -0.11197666 -0.109634146 -0.33378196 0.05871445 0.038704116 -0.022807553 0.028298358 0.15330802 -0.21325673 0.65992427 -0.1915583 -0.34720436 -0.04303319 0.25565994 -0.117125414 0.05124226 0.030268 0.17745246 0.10909059 0.21193524 0.096942216 0.16569756 -0.108943895 -0.026170686 -0.43742317 -0.06294433 0.42715847 -0.044362053 -0.48171794 -0.20169501 0.10847394 0.17780095 0.048600662 0.0397354 -0.12527329 -0.083992764 -0.15187076 -0.42528668 0.6021286 -0.047144454 -0.28259102 -0.08283431 -0.07575227 0.19303945 -0.3244386 0.4009732 -0.23542812 0.1370982 0.13308612 0.04763137 -0.052091338 0.72112375 -0.17879571 0.40293542 -0.22771652 -0.0019151841 0.14478894 -0.05008216 -0.07893096 0.075610764 0.054485172 -0.07176142
乎 -0.47403035 -0.2891929 0.019515608 0.010678842 0.0031540766 0.35063204 -0.022160972 0.20456855 0.13976511 0.189292 -0.4040697 0.29416776 0.1462015 0.027511472 0.04882289 -0.21492845 0.12388468 -0.39781994 0.07399267 -0.026386118 0.19873968 0.673832 0.73299235 -0.044239208 0.39613706 -0.24558522 -0.38886783 -0.10708347 0.33539084 0.5010809 0.110602744 -0.19768779 -0.041338388 0.01417773 0.024255443 -0.0561207 0.103890434 -0.44953036 -0.36265564 -0.026848428 0.41471133 -0.53464586 0.31131023 0.41182274 -0.13808727 -0.16451669 -0.17748584 0.1531715 0.2345968 -0.39271793 0.21281752 0.0076572453 -0.23465736 0.05697534 0.085670054 0.24591742 0.30435792 0.12528618 -0.27129793 0.013048519 -0.26716003 -0.26344457 -0.1448519 0.13328633 -0.04026598 -0.50709844 -0.1282896 0.4696579 0.068209834 0.22481437 -0.03436577 -0.03496597 -0.042025484 0.10034465 0.5651975 0.22782971 0.09250609 0.19843145 0.13447402 -0.036904518 -0.0458846 -0.055143807 0.238718 -0.021599574 -0.38979822 0.10833107 -0.31006357 -0.047358096 0.22288091 0.80996984 0.3183023 -0.18280725 -0.04662848 0.07412661 -0.11541543 0.14317282 0.2811706 -0.2832457 -0.24877007 -0.098827295
可 0.86391115 -0.11536922 -0.046778917 -0.29270956 0.27344894 -0.21941036 -0.22909066 0.24753428 0.19638216 -0.2458328 0.1906004 -0.062144786 -0.04658655 -0.19403522 -0.068682775 0.49993315 0.097329505 0.13847888 -0.5278485 0.37513646 0.11705459 0.7985731 0.29587254 0.41377103 -0.0335281 0.5038314 -0.116456844 0.333624 -0.23604162 0.022350302 0.11708415 -0.075032994 -0.07037843 0.26957464 -0.29845178 -0.18343742 0.075772814 0.07098646 -0.18002468 -0.1433872 -0.05849451 0.05314924 -0.18419282 -0.1525356 -0.20557348 -0.20402637 -0.034650605 -0.74775547 0.3321277 -0.39691785 0.13288455 -0.17088158 -0.1570432 -0.25074777 -0.3312821 0.18876174 0.28095564 0.111360125 -0.18355711 0.28698695 -0.20649321 0.085293345 0.11891632 -0.07094409 0.32381442 0.25968274 -0.41790703 -0.2949836 -0.75783056 0.16383877 -0.27961317 0.38181558 0.1875392 -0.25338605 0.23238857 0.10110484 -0.093444936 -0.13450247 -0.044599958 -0.15046631 -0.24429533 -0.2362473 -0.083918445 -0.0060553364 -0.33444545 -0.10551633 0.2324164 -0.15282248 -0.013494934 0.42062673 0.07810363 0.28746942 0.09093866 0.26861382 0.0070411866 0.3701416 -0.21576467 -0.04329208 -0.44593793 -0.070658185
如 -0.12493018 -0.06796731 -0.0808998 0.23198876 0.34806696 -0.36148983 0.23946258 0.049613044 0.009508457 0.13931371 -0.16740406 -0.37532812 -0.21837474 0.036384024 -0.0035230848 -0.06627051 0.14719605 0.21244298 -0.6140748 -0.3529303 0.8682692 0.7014016 0.23392822 -0.40500912 -0.1308018 -0.073070295 0.08471613 -0.04180638 -0.46195254 0.07952809 -0.4462871 0.02869756 0.27224046 0.24571505 -0.07763817 -0.31281328 -0.23295197 -0.15610325 0.018460475 0.43125257 -0.07401907 0.028842017 0.4664382 0.37155324 -0.18713486 -0.34614718 -0.12741593 -0.35989678 -0.13095042 0.06292106 0.36113235 0.32321894 0.1441648 0.1017599 0.3685947 -0.025117373 0.121967636 -0.004496098 0.07585592 0.14269438 -0.29371226 -0.082490414 -0.026371766 0.30909753 0.036652625 0.040602516 0.4050149 -0.2521974 0.064909056 -0.0456185 0.185457 0.45719442 0.0822463 -0.012857312 -0.2046501 0.37333742 0.2032533 -0.2633447 0.024316715 -0.17099643 0.09219969 0.12979114 -0.06994097 0.20266318 -0.50233436 0.15798503 -0.02900743 0.07550822 0.023187889 0.56404495 -0.22592922 0.2618753 0.48714158 0.27159005 -0.1343237 -0.6806464 -0.5408425 0.3228471 0.37404767 -0.15545493
与 -0.21743897 0.3311201 0.21162926 -0.19168158 0.295085 0.22196274 0.012038973 0.09100414 0.08799791 -0.56987953 -0.05698357 -0.16229686 0.14769655 -0.052932873 -0.018090414 0.25330284 0.36864105 0.3455651 -0.06598239 -0.64169747 0.0861864 0.5917989 0.6914369 -0.27138457 0.03112042 0.14931889 0.19267946 0.022331633 -0.056035575 -0.096078195 -0.099007316 0.17790246 0.12187017 0.13741595 0.27414355 -0.25661165 0.007111138 -0.15129845 -0.0763111 0.10084298 -0.29283184 -0.2683456 -0.20765512 0.4265835 -0.43174168 0.025586963 -0.079429135 -0.04180202 0.505701 -0.49935967 -0.28732476 0.23669757 -0.32588863 -0.45090625 -0.29564995 0.043532223 0.29414132 -0.0074384185 -0.17753771 0.56669784 -0.024173018 0.5187653 -0.1349041 0.10853787 -0.23962711 0.48492107 0.12812024 -0.14364971 0.093034595 0.22597368 0.17719284 -0.30792022 -0.097428955 -0.19544229 -0.19304202 -0.210579 0.09641682 0.11544861 0.10947363 0.21429427 0.065186486 0.27063274 0.07277135 0.1860082 -0.1677803 0.06677147 -0.19491765 -0.11738398 0.23469828 0.46347526 -0.10299138 -0.20524098 -0.21815641 0.226077 -0.4075853 -0.19148888 0.29519546 -0.117124856 -0.46071485 -0.16083972
； -0.23327498 0.031216001 0.116456956 0.38626486 0.3647776 -0.16609874 0.256304 0.2146751 -0.32851258 -0.03682284 -0.03317139 -0.11639885 -0.4386308 -0.35553753 0.008779246 0.061735827 0.05671639 -0.55145544 0.22983576 0.47519943 -0.24855411 1.1743938 0.12320614 0.009014017 0.027229292 -0.44121245 0.07314273 -0.027395932 0.04815139 -0.15382381 -0.02709199 0.025350783 0.24552809 0.5432369 -0.23744869 -0.1676964 -0.34915948 -0.044822413 0.23206943 -0.11442679 0.19102362 0.10194941 0.0333018 0.18042384 -0.010033776 -0.13710599 0.3516701 -0.24982552 0.33804858 0.005846046 0.6369988 0.010532936 -0.062289227 -0.2595482 -0.46663654 -0.27962646 0.18267757 0.50073195 0.2479264 -0.25594 -0.021539034 0.15366603 0.0149993505 0.14652304 -0.36830136 0.004329107 -0.041879952 0.112758435 -0.36112633 -0.3390772 0.061146367 -0.039888725 0.050724287 -0.18058798 0.20363411 -0.42964622 0.029380754 0.08018992 0.17386782 -0.42772332 -0.10080991 -0.016277192 -0.46743533 -0.020154303 -0.085639276 -0.36637476 0.07311256 0.07089317 0.13117982 0.8698487 0.20280254 -0.08802499 0.037065353 0.07936662 0.00013635153 -0.1970639 -0.2557833 0.092507556 0.28977787 0.15193495
言 -0.082562596 -0.1130588 -0.06780195 0.092795365 0.0029242053 -0.19454734 0.02701023 0.12651248 -0.14384422 -0.0077971993 -0.13885617 0.10100605 -0.2529379 0.1989236 0.18388024 -0.17017248 0.39799362 -0.065373935 0.041805573 0.4047321 -0.08223666 0.22428684 0.49906424 -0.16905096 0.13688289 0.09598731 0.38036954 0.32455888 -0.0429127 0.24978437 0.38749158 -0.049285352 -0.7720253 -0.053297725 -0.11351457 0.13635607 -0.15443769 0.0841303 0.197813 0.16407445 -0.12604372 0.1356942 0.0037169543 -0.45000795 -0.044701345 -0.01799754 -0.2365422 -0.5561611 0.2286514 0.026113398 -0.8256689 0.23648073 -0.6052949 -0.47647256 -0.19553447 -0.05155025 -0.078274116 0.14137478 -0.15217571 0.0855568 -0.21464005 -0.026261393 -0.14377123 -0.2755089 0.24164662 0.057032842 0.28471026 -0.18767409 -0.2502831 -0.34643528 -0.5628176 -0.022600349 -0.30559453 -0.38950196 0.113255374 -0.26711634 -0.1294146 -0.10483749 0.06099797 -0.14273606 0.42078972 0.3073272 -0.14995877 -0.08684715 -0.2213843 0.068467595 0.4581847 0.0888716 -0.16710751 0.57201505 -0.05667048 -0.23408122 0.13252045 0.31996092 0.12393887 -0.23863456 -0.1316984 0.043698184 -0.45751104 -0.19700326
无 0.36767632 0.21289326 0.4379825 0.3612239 -0.1273293 -0.015494914 -0.572977 -0.36187327 -0.041640423 0.2572614 -0.23519509 0.047552384 -0.33136994 -0.6465867 -0.3853503 0.14391749 -0.15245077 0.16519105 0.25535777 -0.086954884 -0.06945633 0.95886415 0.82484126 -0.12244703 -0.052008614 0.044478185 -0.016246209 -0.33171964 0.080455795 0.2423941 -0.28298405 0.16331577 0.22190468 0.19234242 0.3852835 -0.47624013 0.2459335 -0.07041206 0.026081309 0.083572246 -0.055209648 -0.16983876 -0.23937774 0.287053 0.078684434 0.15423557 0.047324985 0.08233399 -0.6133481 0.119196706 -0.2930396 -0.2528986 -0.7480484 -0.08886008 -0.15874094 -0.3011973 -0.3834893 0.048959665 -0.2100276 -0.31558415 0.037917443 0.22225131 0.1183617 0.1373602 -0.19683494 -0.5674595 -0.12030179 0.55568504 -0.07475262 0.336168 -0.50352967 0.5256243 -0.13702233 -0.04811798 -0.09976151 0.06707876 -0.24724688 0.22129409 -0.028468348 0.06732749 0.066841595 -0.063423984 -0.07521019 0.07916863 0.08684283 0.050907757 -0.13210113 -0.259206 -0.21243711 0.39875236 -0.08418687 -0.097743824 -0.29600927 0.087203376 0.14649992 -0.17247194 0.29728913 -0.1997926 -0.123308346 -0.2161178
则 -0.07154028 0.10747482 -0.19982499 0.36296332 -0.17169036 0.10122423 -0.072517715 -0.2842707 -0.12930383 0.10453568 0.0104974285 -0.18769333 -0.5446242 -0.09561363 -0.046670068 0.111994 0.10216846 -0.49949571 0.3181183 -0.1714438 -0.14949572 1.0409331 0.86209124 0.4433565 -0.16977637 0.13316381 -0.03643777 -0.086447306 0.005339872 0.2984056 0.0049827774 0.48089883 -0.24246831 -0.10119502 -0.0032372274 0.200991 0.37162414 -0.09306687 -0.08147909 -0.14370419 -0.32796928 0.37482 0.12164351 0.0062135924 -0.09084032 0.05239368 -0.07726546 -0.046995305 0.045631774 0.4703421 0.3670844 -0.18355043 -0.07440006 0.09293733 -0.026691195 -0.27045125 0.19181131 -0.067285456 0.37566254 0.051770512 -0.28854892 -0.33554447 -0.42159244 -0.073102646 -0.34150288 -0.110233404 -0.10192717 -0.5772342 0.1196115 0.28425545 -0.12019899 0.010288505 -0.075157955 0.59717923 -0.17197318 -0.073011056 0.18493259 0.17552 0.36705345 0.0130698355 0.32983565 0.042067364 0.22142212 -0.16004461 0.08962749 -0.39131156 0.017735733 0.31335405 -0.124507345 0.5190433 -0.28565726 0.29430586 0.054247767 -0.070938386 0.4156004 -0.09402437 -0.22740693 -0.11772356 -0.6417042 -0.060105544
！ 0.14073516 0.37171447 0.20366699 0.10821609 0.005576578 -0.0339355 0.36117157 -0.2131181 0.008667236 0.2689259 0.12790896 -0.58952117 0.16862753 0.18818834 0.10663709 0.4482473 0.2648534 -0.18088764 0.47623333 -0.102582976 0.19802094 0.89638126 0.07791165 0.1722898 0.20143987 -0.5383194 -0.099456646 0.36134246 0.49483407 -0.12031647 -0.2259247 -0.082602024 -0.70086575 0.14224951 -0.2812633 -0.07537756 -0.8900242 -0.0051985597 0.23210661 -0.12661426 -0.027030766 -0.09925948 -0.46408153 0.13945359 -0.057291538 -0.12701364 0.108925715 0.15218246 -0.001754439 -0.11753116 -0.14290075 0.07864133 -0.31279385 0.4848289 -0.2206572 0.32583454 0.19382954 0.121365994 -0.55480963 0.032168154 -0.4888566 -0.16865443 0.2825473 0.43688476 0.00511198 -0.21025811 0.1785737 -0.120999075 0.3938182 0.19891441 0.09027792 0.28666413 -0.054708805 0.17490445 -0.031177897 0.049621988 -0.28522092 -0.27413228 -0.05027312 0.23274009 -0.13683003 -0.35286552 0.047024712 -0.13411292 -0.5096225 0.221941 -0.10362492 0.49817026 0.066544995 0.76321936 0.11416695 0.12554719 -0.1609546 -0.6481394 -0.11186006 0.20284127 -0.05509296 0.48219022 0.09645381 -0.05525519
问 0.053169824 -0.35758975 -0.051588826 0.09071268 -0.21306252 0.047921356 -0.2808184 -0.33461326 -0.0017852918 0.27071276 0.037814435 -0.4849881 -0.09960422 0.062063105 -0.36636508 0.108101726 0.04989436 -0.120496616 -0.5191345 0.102015406 -0.0016166288 0.39908218 -0.27761808 -0.1453943 -0.07254143 0.06269691 -0.27535015 -0.07079757 -0.35467467 0.21659076 0.4209385 0.17371689 0.044438455 -0.2707952 -0.26516673 -0.21637331 0.15197156 -0.36347747 -0.27244273 -0.15687865 0.30853477 -0.1629853 0.041355763 -0.11886374 -0.010999587 0.1470744 0.0006862709 0.2704975 -0.17191017 0.15128985 -0.46619612 0.1369818 -0.62115294 -0.111438416 0.016380992 -0.16274542 0.30283493 0.63431084 -0.42736202 -0.6332863 0.11704407 -0.057176556 -0.14904535 -0.23923734 -0.48833504 0.14254504 0.29834622 -0.028935729 0.1899298 0.14826505 0.055447873 0.050133444 -0.17909299 -0.04810202 -0.19336691 0.09069279 0.4893988 0.27796587 -0.12526757 0.16301836 0.1039446 0.08180643 0.59327316 0.062475484 -0.30030164 -0.19012043 0.3205234 -0.0070382226 -0.038048644 0.90481627 -0.025337677 0.08488335 -0.33000442 -0.06417716 0.074172236 0.03158088 -0.02280773 -0.26173133 0.18597233 0.08523603
知 -0.08486377 -0.4867895 0.2739842 -0.2108098 0.03221397 -0.19968407 0.12133943 -0.08498168 0.012949233 -0.35846114 0.106592186 -0.3922434 0.31117007 -0.24284527 -0.08081529 0.11073409 0.07911799 0.1913054 0.11007161 0.18758625 0.14616953 0.7739514 0.38404658 -0.27276617 0.13316496 -0.037667505 -0.067249894 -0.0026255501 0.17898294 -0.25937173 -0.13708079 0.09463064 0.024892945 0.033225697 -0.20898002 -0.2292111 -0.3029498 -0.08605511 0.3737713 0.08482344 -0.25322378 -0.3191663 -0.37454724 -0.19609264 -0.111196816 0.09694934 -0.006960218 -0.15621504 0.15965901 -0.16663207 -0.015221845 -0.26971713 -0.35961145 -0.33731094 -0.001522771 -0.21248548 0.32157624 0.21525256 -0.48404282 0.29423016 -0.36642337 0.17979273 0.26426867 0.374216 -0.17281704 0.3645001 -0.2630507 -0.5922927 -0.02488143 0.21601287 -0.68675244 0.09338582 0.16010816 0.2993615 -0.30976543 0.33339608 -0.09226752 0.10544377 0.19615014 -0.050826486 0.33544794 -0.03369892 0.12939227 -0.12689131 -0.23213328 0.13445027 0.52758324 -0.09525838 -0.50526977 0.06482519 0.21008493 0.062649116 0.09603392 0.110681094 -0.19728509 0.17465994 0.0009128785 -0.13373671 -0.039314814 -0.2208307
何 0.0015756784 0.117551506 -0.1697325 -0.5559477 0.008560755 -0.08894848 0.24180362 -0.15554361 0.049020857 -0.15749519 -0.104894325 0.18384895 -0.22922042 -0.17212619 0.21525997 -0.13702932 -0.39811867 0.20185857 0.16513953 -0.15513201 0.099425755 0.430346 0.4809222 -0.1893712 -0.07875105 0.3813327 0.23582475 -0.00977852 -0.24685422 0.38483524 -0.26184464 0.3842886 -0.29307973 0.100018606 -0.1900669 -0.2922979 -0.024071548 -0.118860215 -0.45163888 0.24137405 -0.19878505 -0.24052034 -0.31963608 -0.36255908 0.24332589 -0.27035943 -0.23242329 0.30725956 0.2760554 -0.046401497 -0.76973855 0.21533892 -0.73425215 0.037453607 -0.34418797 -0.014637075 -0.023354681 -0.29457632 -0.10467239 0.1676803 -0.10347842 0.64034843 0.11029028 0.2602833 0.043640677 -0.4478355 0.02444794 -0.046832457 0.19958526 0.33972213 0.3273348 0.33718342 -0.14004658 -0.1445522 0.06060798 0.74550414 0.3343556 0.047591396 -0.5978721 -0.28640333 -0.1504106 0.4157067 0.24913453 0.3293907 -0.117736526 0.24112369 -0.1962502 0.075652026 0.034665287 0.30163774 0.11161548 0.072753586 0.41806385 0.10750104 -0.16948922 -0.26074535 0.074626476 0.3518317 -0.04433247 0.044323895
吾 0.070348516 0.13434045 -0.39450344 0.077223815 -0.29583445 -0.09469783 0.23037586 0.32033825 0.5737239 -0.17340976 0.100785956 -0.29710945 -0.21651113 -0.24610534 0.101711154 0.1583365 0.4514028 -0.45569745 -0.85808915 0.15918013 -0.1190623 0.62976366 0.6169686 0.48194885 -0.035049397 -0.1413943 0.25364783 -0.10406031 -0.1936964 0.00870385 0.013924793 0.16107158 0.08316716 0.49798527 -0.12035329 -0.28199428 -0.35074154 0.13548468 -0.3681544 -0.013334487 0.12892897 0.08946176 0.24059938 -0.3377 0.15137546 -0.07671998 0.26761043 -0.31882867 -0.27377054 -0.5076114 -0.09645018 -0.16864385 -0.0087324465 -0.082187735 0.10011971 -0.17924078 -0.12774962 0.32119852 -0.13521291 0.36133978 -0.1683216 0.06483192 -0.40377635 -0.074004866 0.2800779 -0.10021971 -0.49185264 0.12137329 -0.2792137 0.42897722 -0.16839567 0.050156165 -0.013074429 0.08212187 0.5927245 0.60903585 -0.008469518 -0.13149348 0.08256435 0.11363806 0.35551476 0.12350069 0.08999095 -0.115504295 0.06150703 0.20700504 0.07993032 -0.026437443 -0.06938515 0.16484512 0.076097295 -0.18306111 -0.016507948 0.30112553 -0.00923032 0.35303837 -0.2643583 -0.34362903 0.2709969 -0.054586973
仁 0.3699198 0.028493276 -0.3596713 -0.1883588 0.31877902 0.22805041 0.2994298 0.12306463 -0.10376208 -0.41711488 0.46736652 -0.043405168 -0.32175544 0.0658342 -0.030730776 0.0509588 -0.002106946 -0.02943252 -0.13999224 0.1360412 -0.049133487 0.2864926 0.26485032 -0.23041528 -0.3225036 -0.14552873 -0.03699127 0.1126102 0.2391158 -0.011027212 -0.25312948 0.116461776 -0.2898447 -0.29114404 -0.305752 0.14812152 -0.038189564 0.30715895 -0.19276838 0.1148407 -0.1669291 0.123151064 0.48177037 0.051577277 -0.17108837 0.27976394 0.022787321 -0.31029627 0.08728179 -0.28775918 -0.5270929 -0.56579715 -0.5324642 0.04079877 0.3261211 0.24036019 0.33531544 -0.019517476 -0.3740901 0.33518675 -0.29559672 0.28236246 -0.22191389 0.22302753 -0.2331139 0.09605348 -0.29148877 0.19737531 -0.11319588 -0.49588183 0.06399882 0.14229876 0.253341 -0.33575305 0.098110534 -0.25860944 -0.05270426 0.2726936 -0.25009257 -0.07197167 -0.12993059 0.1503512 -0.03270118 -0.015807355 -0.25918135 0.3063776 0.3035729 0.022964679 0.47783855 0.484876 -0.12451263 0.4069265 0.19966757 -0.36090913 -0.11204761 0.12304196 0.16172881 -0.24087003 -0.23566698 -0.12140494
夫 0.28093073 -0.01892522 -0.24470419 -0.19764045 0.18131793 0.4770928 0.2574423 0.012351558 0.12669791 0.015798368 0.15195645 0.20080824 0.20779765 0.19232872 -0.0850462 0.1671799 0.12576996 -0.1761016 -0.67883664 -0.38408825 -0.035522625 0.27012557 0.18405199 0.20235004 -0.06701145 -0.12110104 0.2104048 -0.1298282 -0.17173818 0.11767062 -0.06757825 -0.31353793 0.18211329 0.2699285 0.18022506 0.1539406 -0.83849454 -0.36807588 -0.023417512 -0.1364479 -0.18604122 0.052875455 0.52847534 0.0020225777 -0.0026140267 -0.38678828 0.37232146 0.5110855 -0.18778326 0.10671557 0.20348014 -0.41268617 -0.28296605 0.018150287 -0.10184256 0.10255457 -0.62466896 0.15525588 0.043564986 0.15073219 -0.082730435 -0.26131424 -0.22720955 -0.04201583 0.07075325 0.17767212 0.14333776 0.03263743 0.30959213 0.17926694 0.03637634 -0.16115674 0.03024412 0.38967818 0.09346437 0.010639723 0.077396646 0.08073632 0.12061935 0.13012435 0.25588688 0.2839744 -0.3010907 0.7969997 -0.022098841 0.22813208 0.13350789 -0.30131245 0.39086795 0.7079239 0.14211497 0.53366065 0.191182 -0.29523566 -0.058367196 -0.20760718 0.72849643 -0.14808923 -0.30425665 0.17357588
、 0.108739115 -0.016806066 -0.04426592 -0.5270427 -0.5411444 -0.24305297 -0.4928176 -0.099271245 -0.6445847 0.08537541 0.42492783 -0.04040608 -0.12951069 0.23856594 -0.30601147 -0.07138004 0.350919 -0.17254776 0.18867934 -0.54100543 -0.7308272 1.3291771 0.26582122 0.3295149 0.5304696 -0.39993224 0.05285574 -0.13754393 0.0893974 0.17421776 -0.17567822 0.013699303 0.10177597 -0.108055435 -0.070807666 0.16245784 -0.28977144 -0.029483387 -0.41102087 0.20558363 0.4099608 0.6996208 -0.079583324 -0.18085802 0.24400966 -0.020502836 0.19385114 0.10658957 0.24237286 -0.14491084 -0.064652726 -0.15161955 0.3428334 -0.20425405 -0.07177857 0.32318008 0.032178737 -0.251078 0.1031486 0.14958106 -0.093030386 0.2603272 0.36144638 -0.059967853 0.22055595 -0.72386515 0.57807463 0.19618681 0.25186744 -0.011108518 -0.14925845 -0.1229492 0.26091132 -0.2097712 -0.13162838 0.20884097 0.34538308 -0.2676534 -0.43563354 -0.34658694 -0.1695294 -0.21245022 -0.0864958 -0.6239075 -0.2074394 0.13918479 0.22265258 0.031103272 -0.28413785 1.1673154 0.18095747 -0.28325385 -0.13203572 0.0367972 0.012317019 -0.30849874 -0.08467868 -0.17142141 0.3649657 0.10184176
道 0.08393178 -0.06401354 -0.10465808 -0.36769345 0.12961444 0.24589868 0.20806782 -0.42204314 0.21446356 -0.18469033 0.15169524 -0.20549199 0.19704981 0.053550776 0.06175518 0.16463208 0.5184865 0.047181617 -0.19122311 0.11759894 -0.24693497 0.83558345 0.27350023 0.256034 0.27926207 0.16590911 -0.055341456 -0.079550944 -0.30932254 -0.0077809426 -0.3988118 -0.018751685 -0.3203043 -0.3192726 -0.30251935 0.63293916 0.23320994 0.012034187 -0.1994633 -0.05931273 -0.39926243 -0.14205949 0.7087117 -0.21005628 0.08110545 -0.24733065 0.19103202 -0.52001 0.003963953 0.006474299 -0.5232524 -0.10109334 -0.32256067 -0.40166992 -0.40005082 -0.0013564267 0.0033624398 -0.16985244 -0.2975945 0.17631246 0.32554245 -0.016574303 -0.43656644 0.119378515 0.074279375 0.13504376 -0.31004554 -0.01241202 -0.056850452 0.01973544 0.09518993 0.3572 0.49594516 0.0585894 0.13583939 -0.068313904 0.0619561 -0.43516234 -0.28654283 -0.0905536 0.015465085 0.11314924 -0.21891975 0.68679875 -0.06761897 -0.10883841 0.2480472 -0.27234638 0.059963085 0.07455803 -0.34623885 -0.17326994 -0.36473855 0.31854346 -0.060260575 -0.50938624 -0.54470134 -0.25599304 -0.071162894 0.51145214
焉 -0.055099685 -0.25182652 -0.007760794 -0.61520946 0.15800159 0.13847855 0.04837323 0.24847761 -0.16521564 0.22195986 0.2459685 0.094940275 0.03440539 -0.1652721 -0.039238222 0.14800964 0.1350127 0.06248647 -0.36182344 0.23462339 0.1404791 0.67064714 0.3599543 -0.17008379 -0.19944122 0.38785094 0.1199373 0.20962335 -0.51223826 0.108026735 0.4297172 -0.302849 0.43812078 -0.04653772 0.13435595 -0.25906357 -0.21923289 -0.27028042 -0.4269824 -0.05447273 0.16549689 -0.10515386 0.21732047 0.59960526 -0.4158639 0.54471314 -0.6336355 -0.11824335 -0.2628443 0.18523389 -0.2645082 0.021990566 -0.43691063 -0.14792663 0.13594128 -0.05344659 -0.001222393 -0.23169856 0.18633217 0.3624499 -0.29543838 0.3697043 -0.14449179 0.58965325 -0.19205381 0.20773019 -0.061501365 -0.14862263 0.50179553 -0.2279207 -0.14367758 0.018771607 -0.2128128 0.038991738 0.09777219 -0.15674238 0.041941233 -0.37582442 -0.29318193 -0.17655738 -0.21289189 -0.06379112 0.139317 -0.114416994 0.37722635 0.07524009 0.6791279 0.1729731 0.20147002 0.76665205 -0.40405196 -0.18592691 0.51756364 -0.51632 0.22393723 -0.36394972 0.21060552 -0.38323295 0.055619385 -0.08612504
行 0.20393406 -0.4461226 0.15901853 -0.1608707 0.13333489 0.31283054 -0.13334301 -0.00076621945 0.297779 -0.17032637 0.3338829 -0.059328396 0.09357167 0.28279096 0.0055707297 -0.010075305 0.24687694 -0.020605842 -0.14325428 0.61979866 -0.24368453 0.60924035 0.21786979 0.21198766 -0.34295577 -0.046342157 0.4508213 -0.24135421 -0.26887554 -0.19228472 0.3424844 -0.25362685 -0.19720902 -0.10273465 -0.031844508 -0.10375881 -0.5644723 -0.022270793 -0.23347299 0.31710976 -0.2338535 0.011752078 0.27568173 -0.19134168 0.1549111 -0.104868926 -0.0008101874 0.12288173 -0.22031896 -0.08825163 -0.1423051 -0.201325 -0.6407786 0.090636835 0.15347771 -0.56159586 0.40763906 0.18591933 0.07901767 0.35638383 -0.32966432 0.02178258 0.17793386 0.1309278 -0.30352372 0.56478554 0.17492369 0.1336133 -0.008941591 -0.842772 0.07917292 0.56480026 0.068563476 -0.086439855 -0.065554395 -0.012605153 -0.19624586 0.017780742 -0.060036037 0.060739096 -0.027396714 0.14816935 -0.22201286 0.23983897 -0.8116276 -0.07564902 0.009615062 -0.17069747 -0.6673616 0.13724227 0.29178545 -0.07027243 -0.29893786 -0.09225713 0.029530391 0.49643224 -0.47069326 -0.21187232 0.24465883 0.15524043
谓 -0.22007026 0.48842108 0.090777606 -0.3794181 0.28141382 0.34177133 0.09905527 0.17898396 0.31279927 -0.19629788 -0.059833728 0.4248787 -0.5984092 0.25190547 0.06549819 -0.092732735 -0.006666941 0.3516235 -0.16058384 -0.23937376 0.39475802 0.9238883 0.016568672 0.20911899 0.14525472 -0.033553515 0.5305171 0.09701583 -0.16790695 0.020357285 -0.090537764 0.3075533 0.20223565 0.12492606 0.32574216 -0.12082512 -0.750537 -0.5042491 0.29978094 -0.0069397013 0.31316796 0.743427 0.07352856 -0.46941924 0.1330979 -0.122601524 0.5843221 0.4018379 -0.041139595 0.2573647 0.29863358 0.52109903 -0.35375565 0.10546633 -0.20765145 -0.42208162 0.26770803 -0.09689485 -0.09486979 0.055779062 -0.07551201 -0.086375035 0.21617784 0.1269594 0.25771794 -0.6612176 -0.010283661 -0.15793577 0.13300888 0.45175502 -0.0002436085 0.17433183 0.17193656 -0.5839278 0.22633351 0.21108624 -0.47642967 0.23373087 -0.0816105 0.31067666 0.072332144 0.32147697 -0.22439967 0.033109453 -0.32248035 0.20193514 0.059419945 0.08100842 -0.16889149 0.8118533 -0.19936481 -0.3224356 -0.3633588 -0.30519122 -0.1324898 -0.21913451 0.056254882 -0.70563924 -0.2357155 -0.13225058
必 -0.26811978 0.45635146 -0.15261994 0.42651656 0.17955191 0.3020339 0.10423978 -0.12162556 -0.38317448 -0.32446164 -0.18144204 -0.21115519 0.05295752 0.117504664 -0.30115247 -0.06837658 0.16337669 0.6032762 -0.6082964 0.19419281 0.12452489 0.7774781 0.48739198 0.3786085 -0.09111845 0.33162227 -0.34497738 0.32659385 -0.11267718 0.21093664 0.14809513 -0.013870118 -0.014232749 -0.0143166715 -0.14423375 0.008906698 0.066330455 -0.31796387 0.07441705 0.059669156 -0.4750001 0.1361714 -0.005192274 0.13459687 -0.024164839 0.15116198 0.26831904 0.054336395 -0.05499032 -0.16133247 -0.4846628 0.008939535 -0.1309466 0.22952408 -0.2077846 0.29825315 0.009985146 0.3798619 0.16238227 -0.23925501 0.3215112 0.37921995 0.45743504 0.35824427 -0.016321614 -0.8299075 0.39185044 -0.25132695 -0.18871516 -0.15315779 -0.33423975 0.5263982 -0.19593218 -0.18858509 0.15066555 -0.34632 0.005415363 -0.006486217 0.24479783 -0.2393261 0.3546405 0.27512908 -0.10371503 0.37493652 0.24539158 -0.614221 0.24077803 0.28226995 -0.12195834 0.41162515 0.37934852 -0.44242597 -0.09048269 0.45631593 0.28677332 -0.31137833 -0.24528816 -0.09806061 0.42078117 0.1569426
礼 -0.015079569 -0.3111362 -0.37820494 0.29878008 -0.080179706 0.18014415 0.030577017 0.16172874 0.19211571 0.176442 0.4308533 0.29157853 0.0037692694 0.060439993 0.18741412 0.051808663 0.23770922 0.25167084 -0.50505114 0.44385338 -0.24344547 0.29470098 0.364676 0.23906451 -0.080020785 -0.3963791 0.23396376 0.17251156 0.08278346 0.6260504 0.01650869 -0.33575758 -0.27507904 -0.04309867 0.074676916 0.0041586114 0.023483727 -0.079968005 -0.37044314 0.45526242 -0.14215577 -0.21933208 0.4842268 -0.12652843 0.44274914 -0.013958771 0.15252912 -0.5406674 -0.12887242 -0.43006122 -0.22422151 -0.26408088 -0.039498974 0.21028663 -0.44926104 -0.15814495 -0.025032602 -0.23298635 -0.092069276 0.45783737 -0.25019616 0.126622 -0.14971413 -0.2685157 0.10732145 -0.4478012 -0.24858306 -0.116862044 -0.028609004 0.18683004 -0.11418716 0.17876862 0.37272388 0.24138808 0.21319816 0.122427754 0.21511349 0.4899861 -0.3092238 -0.13638914 -0.12257076 0.21757996 -0.48743516 0.23797673 -0.25941548 -0.054704122 -0.08185112 0.47788966 0.13506654 0.6901438 0.016635725 -0.1104589 0.04406434 0.0424002 -0.15083537 -0.5307705 -0.38056552 -0.04457985 0.11179299 -0.15559778
孔 0.28850558 0.3305644 -0.040346887 -0.33357865 -0.29682696 0.40393627 0.41882002 0.21667801 -0.2307706 -0.12095699 0.40193036 -0.00458957 -0.56803536 0.5476909 0.22689715 0.18291968 0.3071468 -0.005157191 -1.4749665 0.47551516 0.1904017 0.21053003 0.3596837 -0.13254508 -0.0035047475 -0.552092 -0.26759815 0.10452519 -0.2606694 -0.018425371 0.043856934 -0.040913694 -0.25941634 0.06187794 0.47800857 -0.44693083 0.46432352 0.04289643 0.0013733275 0.049978465 -0.42284533 -0.27521715 0.030659635 0.12251015 -0.49955413 0.33440742 0.2551886 0.4944086 0.28853413 -0.2542744 -0.8252212 0.47978136 -0.7714101 -0.49135008 -0.14808181 -0.27636385 -0.20090324 0.24005818 -0.092363976 0.03656239 -0.31827638 -0.03636633 -0.2162291 0.40998656 0.39529473 0.42540053 -0.0646842 0.33136752 0.4190137 0.45502388 0.16006975 -0.30657542 0.3049312 0.31641877 -0.068853766 0.5534105 -0.020993602 0.28393808 -0.25766826 0.19169861 0.14349826 0.08929082 -0.2973466 0.57552725 -0.09093559 0.45438668 -0.40770733 0.055233717 0.056696165 1.6140039 -0.18355046 -0.412434 0.36793888 -0.1149263 0.16812561 -0.034140944 0.110418856 -0.14377393 -0.18367709 0.17523704
斯 0.23204604 0.4115633 -0.39145342 0.27969375 0.1449402 0.3881291 -0.007209659 -0.13334385 0.5142098 -0.59413123 -0.06767351 0.2709854 0.16835676 -0.34702966 0.03294388 -0.27932915 -0.07178641 0.07464272 0.07245396 0.3481536 -0.33666545 0.1486663 0.5773699 0.16579509 0.015790362 -0.109029904 0.12772982 -0.18780681 0.019537387 -0.17402117 0.09787223 -0.08509398 0.43995783 -0.16854082 -0.015954075 0.02518698 0.1947265 0.051705923 -0.2547911 -0.16926113 -0.4701167 -0.3541822 0.049466494 -0.2605506 -0.19805267 0.06486383 -0.12561308 -0.27867082 -0.408229 -0.31524143 0.08370054 -0.0720073 -0.40525684 -0.59756136 -0.18784983 -0.11847248 0.12778318 0.1834082 -0.5004001 -0.2065184 0.06801562 0.28570318 0.34251922 0.30501577 -0.1331422 -0.08860034 -0.100716904 -0.4059525 0.25305024 0.2829173 0.62817293 -0.18384948 -0.08511536 -0.16438447 -0.038713492 -0.14818001 0.16080678 -0.028625231 -0.27756786 -0.13596532 -0.10673669 -0.118997045 0.22494136 0.65913606 -0.51082194 0.15128654 0.2778407 0.47413677 0.31380022 0.9781144 0.3106962 0.09548885 -0.016770974 -0.06351109 -0.14541855 0.5508099 0.08451724 0.14947508 -0.2643651 -0.08614963
三 0.77626157 -0.13767834 0.071412556 0.113519974 0.007714132 0.11843768 0.46135387 -0.13534264 -0.33286303 0.029487785 0.39006284 -0.17946663 0.37256792 0.5569611 0.26254115 0.49658546 -0.08599954 -0.29409945 -0.5283468 0.22606313 0.31790572 0.87507427 0.26285484 -0.15506434 0.23415798 -0.6975551 -0.14721477 -0.18646975 0.09521382 0.050493143 -0.09970012 -0.19827677 -0.21054429 -0.34067705 0.3698137 -0.7571781 0.30968484 0.125216 -0.037977062 -0.12631859 -0.25312656 0.115850344 0.031966843 -0.18294908 -0.30996913 -0.11686559 0.1571035 -0.016744288 -0.040479932 -0.11481078 0.24140929 0.00015765551 -0.6200382 -0.35353723 0.15815786 0.22483236 -0.16088584 0.13844128 0.13929428 0.25993213 -0.0065913545 0.122576945 0.20285963 -0.26144668 0.27140808 -0.19854428 0.12511268 -0.06416115 0.1106746 -0.18018234 -0.17175835 0.34519714 0.11242177 0.007466947 0.7523274 -0.07970039 0.021725025 -0.19187711 -0.0039050032 0.23791371 -0.37780347 0.41435888 0.8722192 -0.22450203 -0.18234593 0.21041274 0.3941136 0.48711333 0.11415737 0.65795046 0.2456982 0.3281718 0.2634958 0.5661809 0.33946782 0.050424114 -0.11436897 -0.01685978 0.39549777 -0.002396514
能 -0.38494024 -0.18467124 -0.29457235 0.03625539 -0.19364966 -0.097574405 -0.08835033 0.19983418 -0.11334744 -0.6953736 0.41434553 -0.44579166 -0.5247158 -0.24099278 0.49718222 0.29257667 -0.050410546 -0.021428486 0.13244344 0.113066 0.059850883 0.6967125 0.21452992 0.37160075 0.02740054 0.27511382 0.17772679 -0.13810442 0.1875317 0.31107122 0.41350845 -0.2892275 0.345282 -0.38827568 0.28770792 0.54177284 -0.13438168 0.112272486 0.116708055 -0.9491526 -0.3204247 -0.10848024 0.13489515 -0.455271 0.021005444 0.15424922 0.18240584 -0.49365112 -0.45160598 0.21943536 -0.4190649 -0.18201843 0.16696694 0.16975431 -0.20690367 0.06619256 0.3610544 0.045797516 0.18411106 0.03586096 -0.19635071 0.115434565 -0.16035876 -0.11664338 0.07072603 0.2803254 -0.14944103 -0.26802728 -0.20543256 0.028709492 -0.57520086 -0.030814154 -0.05380065 0.16795868 -0.38119903 0.17733389 0.09164379 -0.04614308 -0.015631402 -0.06534791 0.08824827 0.18867505 0.08826778 0.58358324 -0.25115848 -0.33744863 0.18287379 0.41514954 0.13423538 0.4858357 -0.23010194 0.036757767 0.2832686 -0.12215788 -0.25662777 -0.015420726 0.1574031 -0.26033086 0.29939708 -0.377775
见 -0.11353615 -0.3710396 1.2307005 -0.19565894 -0.27687004 -0.0688467 -0.343462 0.22879036 -0.26151884 -0.1255152 -0.026077237 0.22258468 -0.21852563 0.32917827 0.14135075 0.37012175 -0.0067557455 -0.10572046 -0.11977115 0.57667667 -0.15152916 0.52946883 0.4440491 -0.18540667 0.19367306 -0.25176436 -0.30144987 -0.5633519 -0.2809989 0.038708672 -0.20239578 0.28975454 -0.7891904 -0.3849175 -0.49672398 0.58821744 -0.056398414 0.9082932 -0.68539053 -0.102231845 -0.5110629 -0.010538005 0.4261341 0.13850342 0.055052746 -0.0429714 0.204158 0.06274937 -0.14306995 0.08290645 -0.18285006 0.4292321 -0.5801488 -0.07591574 0.10669493 -0.42858294 0.3275235 -0.14610128 0.11925712 -0.07360845 -0.42470366 -0.16542457 -0.5402557 0.12456353 -0.08392411 0.16613357 -0.35017443 0.15769216 -0.1865512 -0.074957736 -0.14359686 -0.1516783 0.124947235 -0.27922073 0.08159231 -0.06430726 -0.04772411 -0.2484336 -0.35959125 -0.2719826 -0.07346429 -0.36056274 0.13612185 -0.01796993 -0.28415745 0.049463518 0.08324957 -0.25084868 0.13813876 0.4486095 -0.3245917 -0.21190359 0.0622825 0.18738882 -0.29152438 -0.34086296 0.13826972 -0.17524353 0.23962903 -0.3770629
学 0.32565263 0.04602993 0.2841151 0.23762056 -0.112719625 0.072611004 -0.28824666 -0.039331928 0.46032536 -0.5793124 -0.04904401 -0.23083866 -0.42287126 0.046154648 -0.068987906 0.40108874 -0.0038361659 -0.15510474 -0.20828058 0.2556618 0.28095835 0.70944923 0.13085206 0.09153831 -0.23218557 0.010745922 -0.50555176 0.32637045 -0.27429733 -0.040352162 -0.1081446 -0.0003294851 0.40384075 0.36970937 0.1659706 0.50492054 0.022538189 0.26326916 0.01549008 0.1943396 -0.2372581 0.3943395 0.13704336 -0.01604629 -0.26515615 0.15243338 -0.42041814 0.20837311 -0.057378296 -0.16792086 -0.46979323 -0.59964263 -0.22972363 0.15956694 0.21316579 -0.3402246 0.117243424 -0.11633338 -0.23116156 -0.09233194 -0.12292503 0.33530834 0.08610934 -0.31104505 -0.4194792 -0.10451049 -0.38259095 0.34971777 -0.30690584 -0.18767525 -0.60421264 0.19387047 0.1004544 -0.23711908 -0.09382809 0.34775347 0.58098274 -0.064630516 -0.26844242 0.14321467 0.33827603 0.17561944 0.034204695 0.1178581 -0.7090778 -0.16198285 -0.0020513716 0.051394314 0.34370315 0.38665113 0.37007228 0.19315733 0.17342646 -0.3420247 -0.50964797 -0.7289155 0.0038380313 -0.08462219 -0.012478894 -0.21069932
事 -0.28267452 -0.033223405 -0.10358933 0.3100696 0.15892743 0.11987099 0.07822724 -0.5312548 -0.37099865 0.24273649 -0.08989035 -0.55900294 -0.31863245 0.20616296 0.32750183 1.0134652 0.036509488 0.16294761 -0.44315958 0.1767929 -0.20582227 0.44488153 0.9198349 -0.18375216 -0.35411876 -0.112176746 -0.021587001 0.08356336 -0.20724468 -0.7040454 0.47149658 0.3768799 -0.10477039 -0.62792647 -0.11285673 0.24788538 -0.31505647 -0.07226568 -0.2494194 -0.021463048 -0.14466143 0.25906634 0.9228004 -0.17839353 0.68548787 -0.05832106 -0.215511 -0.0323949 0.3710348 -0.045957122 0.1929602 -0.040984463 -0.13111688 -0.16252173 -0.17271845 0.09951209 0.091992535 0.14910929 0.041484114 0.32112533 0.007287425 0.5590159 -0.040371295 -0.40574768 -0.49331003 -0.08883723 0.16921006 0.76876986 0.21392581 0.26030087 0.30350775 0.2681195 -0.32373717 0.19750507 -0.38768977 0.39327836 0.2909754 -0.12261673 0.071245186 0.37940976 0.3745412 0.20562205 -0.150056 -0.0011439751 -0.46768385 0.20849454 0.3621233 -0.20223676 0.40352485 0.2124379 0.06290908 0.07075983 -0.38071513 0.2258253 0.06841909 0.097277716 -0.44551057 -0.024981976 0.028522115 0.056566115
是 -0.36400962 -0.32501867 0.022496844 -0.3688864 0.0659256 0.48733082 0.15833235 -0.47228488 -0.39607626 -0.5530261 -0.17738038 -0.5391464 -0.3566305 -0.19717155 -0.16686144 0.2413364 -0.09123523 -0.18094873 -0.27659237 -0.00037980385 -0.2311678 0.6288292 0.2839193 0.078290194 0.21003336 0.06810131 0.32651213 0.357443 -0.69130445 0.1525947 -0.01599943 0.059752494 -0.3100227 0.20977627 0.21443482 -0.10867926 -0.015254276 0.18353109 -0.12712114 -0.1901954 -0.32244846 -0.29970467 0.13183127 0.2741472 -0.28952426 0.47425392 0.04228257 -0.28073213 -0.66555864 -0.056102943 -0.5528056 -0.31131232 0.13492845 0.47212082 -0.34063023 -0.22702825 0.27918467 0.07011992 -0.4309532 -0.24874307 -0.23470862 0.043565515 0.028971089 0.2450957 0.021046497 -0.20209335 0.14676991 -0.37848943 -0.10124534 0.4149855 0.16427171 0.27204815 -0.21731052 -0.08489948 0.13447747 0.23702063 -0.019002745 -0.0064150365 -0.5071381 0.113084495 -0.08751092 0.25353557 -0.3018317 -0.2493162 -0.31715196 0.11242762 0.17604257 0.13413173 -0.32005703 0.35531062 -0.12440573 0.2020224 0.04226844 0.013793149 0.011066298 0.015950184 0.8047774 0.17919648 -0.47658548 -0.15256715
哉 0.34282157 -0.16274036 0.1712473 -0.9720616 0.20690328 0.24652837 -0.8784959 0.45476508 -0.42980355 -0.5682694 -0.21096615 -0.36534455 0.54229724 -0.5077979 0.038607437 -0.018789236 -0.2797338 -0.0027174442 -0.11631956 -0.56886387 0.27502352 0.56103915 0.9590496 0.15829542 0.50013363 0.028174682 -0.6106105 0.18110834 -0.05747815 0.40304804 0.07111219 0.69850814 -0.06731816 -0.21679941 -0.21074042 0.18479003 -0.5233299 -0.2646763 0.08574937 0.018561795 -0.27737132 0.08048879 0.067602664 0.28369847 0.216034 -0.03691038 -0.24197865 0.6276218 0.18455221 -0.40823334 -0.22857566 0.27124974 -0.7059578 0.23381877 0.0613291 0.12779872 0.38009194 -0.101243086 0.2709985 0.08230491 -0.26750606 0.35335773 0.25296006 0.13861504 -0.120757364 0.14850895 0.100479804 -0.20809613 0.14135505 0.6056819 0.012086951 -0.08794485 0.09965959 0.7658908 0.08263618 -0.14594586 0.024809364 0.020406488 0.09205524 0.008227858 0.16323757 0.17361072 -0.026382776 0.47482902 -0.09265601 0.04323471 -0.3136861 -0.36085477 0.38443 0.6970362 0.32176036 -0.030943258 0.13026612 -0.53115726 -0.17005122 0.29709047 0.25982818 -0.6221314 -0.49036732 0.068960264
闻 -0.026657062 0.2712847 0.30325416 0.16757724 0.28756702 -0.21373111 -0.056970358 0.057097618 -0.17594248 0.5622697 0.5240479 0.16961348 0.04709977 0.78340286 0.42937535 0.49597666 -0.13489588 0.2299839 0.22921987 0.31408456 0.116845354 0.3600543 0.047953684 0.093078114 0.15546957 0.3402346 0.13531636 0.07836065 0.108569436 0.16037883 0.3111665 -0.37371323 -0.051940005 0.07917856 -0.15323512 0.0615545 -0.58731 0.14989759 -0.39127275 0.25283256 -0.65878785 -0.052544665 0.49611953 -0.27434352 0.5570377 0.032277025 -0.28398907 0.17474376 -0.28020352 0.07349668 0.17116545 0.21555573 -0.49516392 -0.13844347 0.21630552 -0.2054881 0.4456625 0.04605555 -0.43250155 -0.45435032 0.05515682 -0.12687674 0.36894503 -0.12464178 -0.16868085 0.099847645 -0.16620211 0.029388633 0.023047669 -0.25617874 0.12910809 0.1018188 0.63128453 0.14673087 0.25768447 0.72707653 0.8732633 0.3308567 -0.10637356 0.12589876 0.28826937 -0.038888574 0.22277923 0.4998146 -0.32649308 0.46153456 -0.05578808 -0.32235226 -0.14199485 0.7038117 -0.30119115 -0.15735796 -0.1615729 0.035835225 -0.15799642 -0.29189 -0.06851999 -0.03689686 0.03847926 -0.49693218
未 -0.29063585 -0.2502935 -0.40970734 0.2230233 -0.09900573 0.1596765 -0.37620184 -0.44722447 0.38361418 -0.14916536 0.3825489 -0.04362112 -1.0052499 0.36505756 -0.06032477 0.23046677 -0.08322172 0.013969112 -0.50463593 -0.25296506 0.32950288 1.0468609 0.36201572 0.29975644 0.51444507 0.15320346 -0.14428894 0.054037437 0.2073126 -0.01497987 -0.19423169 0.15405087 0.22871576 0.53667265 -0.3108786 -0.61881715 0.036784012 -0.14346656 -0.1511852 -0.14829202 -0.34925148 0.19021505 0.096199885 -0.10496473 -0.0045468425 0.29154488 0.047047216 -0.11837643 -0.30658677 0.3974251 -0.4035283 0.10715655 -0.19006436 0.030862419 0.16049951 0.054819856 0.17433628 0.27595958 -0.36794975 -0.41880596 -0.08065675 -0.39513662 0.10301985 0.027396504 -0.07173122 0.048185155 0.5735432 -0.018074572 0.2762438 0.53710854 -0.025578165 0.1073744 0.12625667 0.11258082 -0.02654641 -0.07819565 0.14360733 -0.49614942 0.7053637 0.26704404 0.22843422 0.102241226 -0.19553371 0.6132697 0.0987382 -0.09320872 0.42346054 0.16795203 -0.09515149 0.11129807 -0.09618361 -0.14493324 0.29043853 0.097570136 -0.3387278 -0.67201436 0.25401056 -0.7719215 -0.20458862 0.59764254
公 -0.048144583 -0.035658967 -0.22088574 -0.40254164 -0.49056527 0.10832282 -0.08467284 0.16154097 0.20944355 0.2713617 -0.3278789 0.07232118 -0.6964646 0.29037187 -0.23727132 -0.26116508 0.19139837 -0.29333106 -1.0401276 0.48145473 0.10011923 0.3013151 0.22361666 0.24255069 -0.018577741 -0.05846555 0.2263503 0.48702517 -0.27697775 0.32588744 -0.26499858 -0.04713642 -0.39769208 0.18179294 -0.0563713 0.8625032 -0.21509351 0.27407393 -0.29322398 -0.9292034 -0.381862 -0.3575644 0.36392865 0.04134382 -0.20811298 0.22659266 -0.76486945 -0.06954499 0.23677942 0.046494883 0.13252687 0.08594465 -0.068309695 -0.0040613227 0.09934095 0.5878047 0.17054626 0.47153595 -0.51852685 -0.2616002 -0.4026527 0.08494639 0.22655484 0.17204966 0.077118285 0.048519164 0.6756828 -0.5095519 0.004836909 0.4857872 0.14968994 -0.24342564 0.2962767 0.039931893 -0.49279806 0.031029157 -0.08149036 0.15832978 -0.21879314 0.13977805 0.115690865 0.114515044 0.21267234 0.3589963 0.09708064 -0.012991148 0.1842716 -0.6813031 -0.38278088 1.1711612 0.071785405 0.25251156 -0.25716433 -0.23243205 -0.0936303 0.06868854 -0.11923896 0.11087316 0.4416476 0.5193935
好 -0.20888163 -0.21748328 -0.4471416 -0.2905505 -0.52653307 -0.024335587 0.18290469 0.15555747 0.67263204 -0.123628885 -0.042560425 0.18595447 -0.061047047 -0.119945124 0.39698875 0.56034935 -0.22660589 0.078087345 -0.027540196 0.1467114 -0.36779904 0.9697027 0.64084727 -0.31504834 0.12526514 0.76122046 0.24732625 -0.48502016 -0.3745661 -0.7846919 -0.3376628 0.14043671 0.39096138 0.1839101 -0.39548495 -0.058019135 0.36861023 -0.4131095 -0.4331213 -0.18593699 -0.04911767 0.034229733 0.074982196 0.03708449 -0.13769339 0.04128711 0.59059924 -0.26228917 -0.6495009 -0.014461965 -0.16160747 -0.34897822 -0.17005901 0.57849395 -0.1597767 0.11971489 -0.58054036 -0.53073364 -0.33869305 -0.017035633 -0.21998268 0.36536634 0.1270012 0.24403568 -0.08390493 0.52653855 -0.04976975 -0.05844402 0.30043033 -0.31585303 -0.44451782 0.11058481 0.52113986 -0.041047342 -0.7997174 -0.20249367 -0.03004552 -0.08157121 -0.08578251 -0.13364853 0.28466392 0.3067119 0.07375566 0.12828441 -0.21430828 -0.025995811 0.15911403 -0.03050195 -0.29290223 0.5214002 0.77403224 -0.16137184 0.11836439 0.10867629 -0.18722542 -0.21764737 0.27107716 0.092078835 -0.07774316 0.016556686
我 0.07680608 -0.019632591 0.54707766 0.43101162 -0.013174409 -0.18340711 0.6886377 0.8031506 0.1506417 -0.26220477 0.034067087 0.054557536 -0.21608809 0.09859745 -0.13710487 -0.5017005 0.38623068 -0.31768823 -0.6037667 0.44715196 -0.2302941 0.6871987 0.5315843 0.1606642 0.34589025 -0.18540859 0.37269342 0.1017828 0.18444884 0.64449614 -0.11263753 -0.029795261 -0.451625 0.247831 0.3544378 0.314223 -0.39416543 0.03257273 0.1473633 -0.4574413 -0.27680793 -0.2855736 -0.021883184 -0.08593049 -0.36944413 -0.0233791 -0.13735689 -0.62418884 0.061458185 -0.33824596 -0.86321914 -0.17108776 -0.40495375 0.40601924 0.30046648 0.002803176 -0.52384883 -0.24622224 -0.52835846 0.28264275 0.06808226 0.18088776 0.30191776 0.47729436 0.045077525 -0.023886517 0.11840624 -0.28978392 -0.1479176 0.74751335 -0.018237399 0.40015313 0.17095856 0.7611998 0.29514712 0.12777922 -0.56764895 -0.032210127 -0.42756945 -0.09280252 -0.29576284 -0.09253386 0.297396 -0.0003880934 -0.07469202 0.15093331 0.16439083 -0.46798667 0.34287116 0.29854983 -0.38131484 0.046377465 -0.052668482 -0.5717855 0.34380168 -0.12561852 -0.31479743 0.3585396 0.3475445 -0.08973784
路 0.48369604 0.9027346 0.69858277 -0.023713818 -0.20340359 0.0155200325 -0.1975226 0.3821575 0.5481607 0.33869624 -0.5783937 -0.45341194 -0.37447205 -0.090547286 0.45186448 0.42951778 0.45744178 -0.08054517 -1.101779 0.3016427 0.007518337 0.6690495 0.46909913 0.5210083 0.5758024 0.50614506 -0.26366127 -0.47156817 0.23630781 0.0497298 0.24158137 -0.20024969 -0.24378225 -0.254607 -0.38225603 0.47883266 -0.42674118 -0.1682968 0.32176375 -0.2572133 -0.06729026 0.08235095 -0.20282663 -0.20224197 0.3060036 0.22635198 0.45963064 0.37001136 -0.12184596 -0.26885724 -0.561771 0.110020466 -0.42882177 -0.5066482 0.20216443 0.17522693 0.19765066 -0.16359326 0.18377224 0.15833205 -0.14886613 -0.97494173 -0.09259084 0.06642038 0.23547313 -0.46889412 -0.2655836 -0.271747 0.096042335 0.46549332 0.06331043 -0.020685572 -0.050870817 0.72442347 -0.963709 0.25414953 0.38217747 -0.18303463 0.15420824 0.08684474 0.07743233 0.05469241 0.5656997 -0.4504938 -0.023210261 -0.4115163 -0.14468719 0.12804109 -0.13668813 1.0769835 0.09871805 0.08174834 0.8539041 0.02779793 0.20943655 0.1344274 0.15412304 0.2628258 0.71109265 0.2708387
在 -0.053464666 -0.14326708 0.17502 -0.60650533 0.46851736 0.03865665 0.02668216 0.19150683 0.0033749691 0.18746561 -0.4365221 -0.18930355 -0.16505411 -0.3598162 0.11996213 0.83690506 0.4556123 0.25479156 0.19761121 -0.7037033 -0.48080885 0.8909683 0.34976944 -0.55227876 -0.26748633 0.3305304 -0.043198384 -0.8343476 -0.4843544 -0.12852588 0.20342629 -0.491244 -0.37903506 0.3687657 -0.39932516 0.05783862 -0.27643272 0.6600123 -0.4094834 -0.095918305 -0.36827397 -0.09125314 -0.14696598 -0.08229009 -0.43992773 0.1403756 -0.066880725 0.2929139 0.1506022 -0.24172321 -0.039740793 0.35827485 -0.12741725 -0.5473448 0.21514444 0.42012376 0.8447351 -0.22516963 0.36719048 0.15987663 0.26183957 -0.32652536 -0.3006274 -0.027408328 -0.4318242 -0.21676265 0.23076594 0.27576897 -0.118384674 -0.6807349 0.06123768 0.79154366 0.49827456 0.32378143 0.18340321 0.13778357 0.28272423 -0.0030585276 -0.63086236 0.106412664 0.5286657 0.04929158 -0.0734747 -0.22362505 -0.28986812 0.38441405 0.44570473 -0.08943011 -0.32350886 0.37062836 0.054279346 0.26848647 0.031698883 0.23130009 -0.26510742 -0.013293289 -0.22296378 -0.2751849 -0.42253274 0.062254388
已 0.73180413 -0.41542095 -0.07571024 -0.6468555 0.23656774 0.54963607 -0.105534084 -0.023072336 -0.38555774 0.09440855 -0.3291212 0.5417312 -0.23859408 0.29920974 -0.0038340196 0.81510633 0.28802288 -0.20501228 0.15835634 0.6934813 0.0532478 0.96601033 0.057017423 0.10576172 0.49974144 -0.28038174 0.9103796 0.023472168 -0.05718916 0.11374429 0.11149464 -0.29919943 0.27341196 0.13381279 -0.5026386 -0.2926567 -0.51661974 0.038187258 -0.18040049 -0.24641418 0.2870007 -0.11591166 0.30058947 -0.3233022 -0.07663484 -0.46097752 -0.27523997 -0.3410982 0.3340633 -0.6237343 -0.4669937 0.14056651 -0.7171392 -0.008419627 0.45341867 0.4708444 0.37735778 0.22393224 -0.21519968 -0.25575128 0.16534099 -0.23318043 -0.12240336 0.95717037 0.07955353 0.08080419 -0.12894347 0.1967895 0.38197058 -0.24189937 -0.2414263 0.28779545 -0.12899539 -0.3746285 0.30414778 -0.7231354 -0.160935 0.10016252 0.7795497 -0.03445022 0.10442045 0.3545789 0.29086685 0.50661397 -0.47505966 -0.43323976 -0.40204215 0.5609986 -0.20789534 0.44367626 0.29872224 0.11892175 -0.4471699 -0.15864274 -0.0039951145 -0.12239395 0.50748247 -0.63729256 -0.6294995 0.064251535
得 0.06654356 0.08075422 0.027233364 0.10339003 0.12235171 -0.11364565 0.30425775 0.18804637 0.24803288 -0.5195219 -0.029361542 -0.19430025 -0.30565792 0.021293694 0.09315778 0.23645428 0.657746 0.3046087 0.2020911 0.0049284324 0.24891931 0.46754625 0.87504774 -0.1564334 0.0017132838 0.10329604 -0.2032328 -0.6665991 -0.19278255 -0.7339333 0.7486976 0.14566587 0.05551808 -0.017854387 -0.5372329 0.016237637 0.041376997 0.10991747 -0.41234964 -0.062702976 -0.14275953 0.14309293 0.33199954 0.3226864 -0.30098614 -0.35239145 0.17888436 -0.54406595 0.22366923 -0.07484987 -0.23734061 0.12805043 -0.33830187 0.45619997 -0.8830966 0.09252965 -0.018015757 -0.30844375 -0.37562495 -0.17292121 -0.09944776 -0.34213322 0.39310896 -0.053447153 -0.22831228 0.26305455 0.054378904 0.28153962 -0.69807357 -0.44108072 -0.13173914 -0.21928114 0.043379255 0.1597366 0.1451299 0.30834305 -0.3157374 -0.23263545 -0.046355993 0.1586329 0.1487083 -0.09975914 -0.007596209 -0.09516059 -0.09443082 -0.18568803 0.083731875 0.6742395 0.12365533 0.35785934 0.051376574 -0.014985076 -0.021732735 0.34238768 -0.14455852 0.373222 0.094081886 -0.16366832 -0.3402387 0.6290073
所 0.12160028 -0.31726018 -0.5348241 0.07397504 0.34468594 0.38199034 0.19766362 0.49735585 0.48408258 0.1310753 0.3802966 -0.525869 0.13454147 0.101700984 0.10011374 0.06775568 -0.111451484 0.7571091 0.0029381984 0.45119005 0.028633567 0.9327215 0.5968462 -0.30704245 0.04803338 -0.09431555 0.24733174 0.22625832 -0.39656088 0.06925512 0.26724645 -0.23053402 0.24147496 -0.43296784 -0.7502583 -0.2419238 0.24965099 0.48607033 -0.06687202 0.15975147 -0.3274027 -0.11469502 -0.18305027 -0.3628197 -0.24593775 -0.38109908 -0.23730367 -0.36353782 -0.3078296 0.5098967 -0.6860785 0.15628129 -0.60346454 0.11357854 -0.15289761 0.38443646 0.14836293 -0.02824195 0.17911722 0.01255801 -0.49542382 -0.78272325 -0.094649576 0.1361448 -0.07755437 -0.32747582 -0.17972648 0.246606 -0.105191156 0.8075323 0.008451114 -0.60587144 0.06769439 -0.18780984 0.20699549 -0.34943417 -0.33668572 -0.16159374 0.03749288 -0.44696212 0.14566292 0.33623794 0.061966754 -0.071956694 0.034014594 -0.09391562 0.5116581 -0.4299915 0.9725861 0.6222093 -0.22637877 -0.34143803 0.19376975 0.50044805 -0.19668627 0.0596381 0.17651711 0.27677485 -0.119620696 -0.023810288
民 0.16863574 -0.09233456 -0.2718516 0.05120888 0.14516985 -0.18303518 -0.39161822 -0.3334571 0.55328995 -0.085893266 0.45352072 -0.063171074 -0.75013936 -0.017516194 -0.3711088 -0.15807086 0.20255278 0.0699074 0.14707522 0.23825498 0.5016491 1.014184 0.29454222 -0.0467141 0.16016854 -0.042091407 0.029371139 -0.4513058 -0.021485917 0.7358635 0.09681411 0.15456626 -0.03667576 -0.14318614 0.6652202 0.71093076 0.010691545 -0.01058266 -0.42420417 -0.5509779 -0.21289776 -0.34145695 0.012284133 0.15055504 0.2156243 0.14800327 -0.28900722 -1.102186 0.57989806 -0.14715624 -0.28537583 -0.42326856 -0.26034793 0.11729711 0.31048754 0.48388195 -0.16748935 0.06634114 -0.16263492 0.6919259 0.7521185 0.17715168 0.05791182 0.16071872 0.3175087 -0.03010155 0.68137234 -0.16713312 0.46692425 0.2092845 0.6962481 0.31763473 0.28082812 -0.25515175 0.09947407 0.1913852 0.078148484 0.48918462 0.25680566 -0.03421746 0.14037965 -0.24413453 -0.024377516 0.19658682 0.11052023 0.26536182 0.4922186 0.38128358 -0.2366203 0.036188863 0.3708822 -0.04462389 -0.6193132 -0.10295355 -0.058032423 -0.50280833 -0.20209649 0.11321102 -0.4163107 0.06265034
小 0.1805879 0.3687749 -0.094557256 -0.04443975 0.32318836 -0.29846612 0.0345535 0.15630817 0.76953113 -0.39041412 0.44939774 0.18607624 -0.6941402 0.049994316 0.17808168 0.24775262 0.035243485 0.063489035 -0.6106553 0.27239498 -0.0055177566 0.49740702 0.7151048 -0.16938877 -0.43121716 0.2546825 0.013142932 0.4712178 -0.18062817 -0.059715267 0.30902898 -0.07649992 -0.35069206 0.17156288 -0.013129748 -0.46148938 -0.5359454 0.1518368 0.16776606 0.22940496 -0.3176279 -0.0050591254 -0.38606012 0.4092651 0.055405837 0.24938251 -0.42139003 0.27347937 -0.96280706 0.46420813 -0.11741684 -0.09605125 -0.0078102485 0.29314622 -0.3112314 0.23405638 -0.14120165 -0.1806346 -0.082783796 0.46367565 0.3871299 -0.3951318 -0.37909305 -0.050264705 -0.20861137 -0.28070164 0.4484728 -0.32727933 0.40179858 -0.41443214 0.07203841 0.062398978 -0.04022559 0.26737896 -0.29145038 0.17371853 0.24793416 0.09735065 -0.1352154 0.044334453 -0.21462803 0.60980654 -0.08413147 -0.065289125 -0.3096248 -0.29111156 -0.051647447 -0.13740844 0.19010493 0.30110708 0.19574593 -0.05192891 -0.38126808 0.20501384 0.6098151 -0.18433267 0.45457944 0.34522584 -0.545679 0.23008767
天 -0.2318942 0.062674284 0.13254477 -0.37647906 -0.038549498 -0.38122392 0.48787233 -0.0113092875 -0.5311241 0.32093295 0.07057535 0.28958845 0.25357214 -0.29652792 -0.20536348 -0.13012396 0.14074208 -0.5937576 -0.9470619 -0.102214605 0.41183662 0.52508897 0.40078002 -0.23555203 0.23188253 -0.1593816 -0.06753361 0.16538939 -0.5775108 -0.0057092234 0.27834013 0.6313785 0.10934508 0.13538809 0.22289553 -0.13725369 0.3933014 0.70043135 0.08006311 0.6482436 -0.05134918 -0.10267731 0.1042064 0.33221397 0.088342205 -0.22900636 0.010022053 -0.053361703 -0.2150798 -0.1789612 -0.22128233 0.3025731 -0.14231671 -0.4725322 -0.040346004 0.097435616 0.2182703 0.09217062 -0.32683903 0.21572562 -0.15793106 0.86696535 -0.5337056 -0.19391501 0.35425287 -0.58755964 -0.15579455 -0.28779042 0.0960273 0.5427978 -0.16801101 0.025532756 -0.2403922 -0.21916187 0.5653801 0.0845964 0.67551666 -0.020968439 -0.47869402 0.43707743 -0.043251883 -0.0643218 0.34924555 0.49176082 -0.2872551 0.39897507 -0.22743689 0.15668157 0.19353746 0.6295254 0.5664154 -0.28954065 -0.6694764 0.06506164 -0.014635723 0.5227281 -0.099721834 -0.56827456 -0.4438263 0.06755058
乐 -0.05407912 -0.1794149 0.030396678 0.14354858 -0.5342295 0.088256106 0.258567 -0.2770284 -0.31227896 0.3971551 -0.2993315 0.0658117 0.13708565 0.033901703 -0.08912014 0.20996584 0.63625264 -0.09860749 0.013982091 0.4519455 0.28075996 0.33220035 0.29875967 -0.17323466 0.011150886 -0.10342387 0.14708754 -0.48273164 -0.33677995 0.50676167 0.16939019 -0.28303948 -0.55067855 0.3620028 -0.27556932 0.37773466 0.28502274 0.035204217 -0.13233379 0.26914462 -0.5210507 -0.05983377 -0.3942253 0.46246028 -0.40193972 -0.72214586 0.05130978 -0.047579296 -0.31777543 -0.02668188 -0.46771294 -0.0020399662 -0.23664775 -0.26042914 -0.33694965 0.2182765 -0.11896401 -0.2736493 -0.007518394 0.33331567 0.0839765 0.102558516 -0.45542964 0.08405552 -0.24952176 -0.11191008 -0.44254002 -0.73036873 -0.17024899 -0.2026044 -0.040542524 0.16404137 0.03630806 -0.40914574 -0.6590124 0.30870643 0.009848141 0.38103628 -0.24842583 0.21083191 0.23625463 0.41628125 0.21059032 0.29843092 0.38593212 -0.39961356 0.16128905 -0.2361862 0.23317118 0.48490167 0.22098137 0.18348002 0.08294942 -0.20293178 -0.15104023 -0.24091665 0.25185788 -0.24822542 -0.25961104 0.10856808
邦 -0.25577977 -0.02857843 -0.010265419 0.0023476551 0.6905495 -0.62509245 0.018331058 -0.45124182 -0.14011435 0.033504058 0.4769611 0.046702392 0.024557102 0.254938 0.04914014 0.46648902 -0.13327734 -0.033405606 -0.21496809 0.029102867 -0.12774315 0.36548167 0.6037201 0.10691758 0.41888112 -0.13443834 -0.25869134 -0.28346288 0.100406736 0.18304612 -0.321745 0.5677727 -0.3406123 0.04104043 0.5468315 0.46177214 -0.6681119 -0.42298165 -0.43233827 -0.30934238 -0.22426718 -0.07546079 0.46932536 -0.06991671 0.09172004 0.26269883 -0.27165627 -0.7211922 -0.44849965 -0.45150435 -0.2668442 -0.364135 0.096124314 -0.24394165 0.40911493 -0.38900495 -0.02970434 0.099226974 0.22570895 0.13328284 0.03243705 0.2781057 -0.05542253 0.18239938 0.45644042 0.11036011 -0.29628345 0.26832664 0.29556677 -0.41778246 0.16023263 0.41719562 -0.10645146 0.65923065 -0.1553034 -0.1060819 0.09898256 0.16233136 0.061264995 -0.006956171 0.4592839 0.3031943 0.035453845 0.03301979 -0.4218361 0.25227273 0.06501365 0.46783307 -0.28906354 0.6867219 0.025608445 -0.123065315 -0.08860165 0.6601723 0.060375344 -0.022352047 -0.3174372 -0.33856428 -0.22538961 0.3701308
亦 -0.081075124 0.27114818 -0.35273582 0.324796 0.2600838 -0.12289859 0.20874271 -0.037233192 -0.1051546 -0.2866851 0.99512964 -0.05278295 -0.419159 -0.4726494 0.22252765 0.06516755 -0.0030337847 0.44934857 -0.2533082 0.028823737 0.79882437 1.0882205 0.8728888 0.653934 -0.12320305 0.056698266 -0.2554214 -0.12356881 0.37479398 0.33039653 0.15160394 -0.023640761 -0.46762565 -0.23677935 -0.13541271 -0.047019877 0.30747524 -0.31423107 -0.4462762 0.34669176 0.091078155 0.21355323 -0.024675466 -0.45508912 -0.24408326 0.39671615 -0.08221254 1.1890504 0.001994057 0.5473758 -0.75501055 0.30410278 -0.13386889 0.23904878 -0.1959672 0.051877297 0.66234946 0.00235305 0.19075654 0.080784105 0.26539826 -0.22068745 -0.19604628 0.16010804 -0.04842224 -0.08827289 0.045965657 0.1489434 0.1797601 -0.037955523 0.6336582 -0.3527489 0.11486335 0.027642844 -0.45133194 -0.2739985 -0.37111047 -0.11199203 0.0024138067 -0.09769811 -0.011252542 0.039860852 -0.45799035 0.30885273 -0.57090276 0.22754666 0.03018132 0.443232 -0.18862265 0.5110707 0.016678529 -0.33822492 -0.17924024 0.024558794 -0.23707901 0.2297824 -0.9677972 -0.30775005 -0.3310171 0.3201534
使 0.11185305 0.45543283 0.37625995 0.38597572 -0.014667123 0.18686576 0.113199905 -0.29392928 -0.15816396 -0.31427693 0.5421063 -0.008966589 -0.07958129 0.18556686 -0.21489893 0.6610078 0.419151 0.49607393 -0.36703044 0.04782451 0.07435787 0.80363137 0.34660265 -0.19586214 0.2993264 -0.15481849 -0.47675154 0.15939462 0.5060109 0.29898012 -0.09538057 0.5801518 -0.41366407 -0.45547843 0.048722383 -0.24425423 -0.11486376 -0.2558662 0.22356686 0.5072307 -0.24130002 -0.16842364 0.14049643 -0.2965266 -0.25369123 0.3314004 0.6585389 -0.67207235 -0.36790806 0.24909264 0.32062113 -0.6096402 -0.068205655 -0.9540733 0.4971292 0.19835323 0.42319718 0.3413238 0.5388401 -0.1775811 0.27140963 -0.09444092 -0.13617831 0.18801147 -0.12488965 -0.30386007 -0.09624827 0.037719034 0.08024798 1.0167462 0.10519584 -0.0869005 0.16797736 -0.10935094 -0.46882463 0.29463005 -0.035107818 0.0065614227 -0.34323585 -0.036177117 0.49435315 0.19519854 0.12314914 0.10153431 -0.55749494 -0.021704836 0.009606375 -0.14065456 0.10128995 0.18729395 0.36449397 -0.3174829 0.39615905 -0.39241415 -0.038884826 0.28199595 0.9362247 -0.44956964 0.16026011 0.11303761
大 0.37624872 -0.030841624 0.16038482 -0.18729067 -0.05008772 0.1821337 0.84975195 -0.0041482197 -0.34190822 -0.0033334235 0.038389772 0.0011111195 -0.997413 0.0663629 0.66692835 0.2980478 -0.6442637 -0.2115253 -0.041790165 0.15939416 0.12552544 0.6320261 0.5700432 -0.60931486 0.13778229 -0.32641128 -0.50452775 -0.29134905 -0.21863532 0.29008415 -0.31968397 -0.12762387 -0.6717701 -0.047506783 0.3913664 -0.6583013 0.10284935 -0.45637673 0.66056716 -0.26953632 -0.42114276 -0.40877098 -0.17431338 0.2256883 -0.09722689 0.02310249 0.8688732 -0.40282223 0.04522603 -0.14242555 -0.060523223 -0.5346261 0.4106002 0.18521473 -0.054579828 0.043638922 0.34089613 -0.111998826 -0.27366528 0.12638254 0.2328117 0.43525708 -0.038489312 0.30530426 -0.39833534 0.6100334 -0.42958286 -0.34586897 0.2511754 0.4695906 0.6191995 0.38725513 0.05380348 -0.30170855 0.26919612 -0.52523226 0.40394917 -0.6064895 -0.46508056 0.23199767 0.24719986 0.26080608 -0.4250776 0.20888674 -0.4800245 -0.18055424 -0.07993226 0.12849237 0.13259974 0.71625817 -0.18808916 -0.31825185 -0.5764078 0.11238492 -0.040092792 -0.25604197 -0.024290323 0.12892385 -0.08128555 0.02361549
下 -0.08607279 0.13760427 -0.116056584 0.082149796 -0.2186605 0.34616432 0.30446315 0.05894109 -0.105125315 -0.11535549 0.2891611 -0.03756034 0.05458004 -0.75617737 0.10374382 0.08014795 -0.028504575 -0.16211922 -0.056291968 -0.20997708 -0.03270046 0.9885229 0.51752865 0.26063904 0.6800996 0.9261673 0.3444597 0.2555185 -0.67238325 -0.27832896 -0.2966038 -0.03553324 -0.31461382 -0.08350366 -0.5458753 0.103025846 0.21000725 0.4746032 0.41065723 -0.9046131 -0.29627475 0.5497882 0.126195 -0.07801981 0.07923151 0.27114183 0.34704983 -0.23082648 -0.036670517 -0.11831409 -0.4737225 -0.25855035 -0.022347936 -0.033571903 -0.31677568 0.025331138 0.6056389 0.04352229 0.5974208 0.5011714 0.28552178 -0.33895582 0.06360517 0.7845881 -0.369352 -0.4318259 0.44146374 -0.06614054 0.39616042 -4.4001863e-05 -0.4469707 0.40137756 0.6927196 0.7095867 0.26031592 0.09400122 0.3021073 0.23071186 -0.056929573 -0.52294075 -0.17115499 0.11098579 0.092187494 0.0073441267 -0.30514756 1.340915 -0.36009464 -0.15766983 -0.09904833 0.42060626 0.37420616 0.34842354 -0.011635366 -0.6403403 0.5150313 -0.33216408 -0.32079372 0.28854668 -0.43308118 0.34685683
贡 0.50705224 0.071234524 0.9017934 -0.7514009 0.20767806 -0.047074907 -0.547732 -0.48428407 -0.25858372 -0.11375063 0.093146 -0.119788155 -0.00996743 -0.07778635 0.32366547 0.12902625 -0.3523541 -0.031607673 -0.948759 0.41280848 0.03289248 0.25507677 0.7761624 -0.7727403 -0.2542848 -0.59288335 -0.037712306 0.33906642 -0.117794886 -0.021585582 -0.03067674 0.3273202 -0.41285527 0.3708372 -0.2826744 0.6487114 -0.92043024 0.111250065 -0.19907606 0.32576928 0.3197083 -0.14578782 0.17606728 0.06250977 -0.123358354 0.2900259 -0.0690726 0.8696 -0.3743194 0.57253236 -0.476238 0.43861416 -0.55912673 0.15565331 0.32819188 -0.1511892 -0.061662417 -0.30731902 0.3670444 0.16827622 -0.48844633 -0.20849466 -0.5142382 0.060905546 -0.44216686 -0.39354184 0.6916734 -0.04477941 0.2721971 -0.29336667 -0.14131285 0.32840058 0.13185054 0.4394076 -0.17025496 0.102106035 0.13359727 0.44994017 -0.20948319 -0.19402665 0.10411022 0.022675246 0.28126264 0.029094694 0.039523 -0.04831301 0.39502296 -0.16641033 0.2979259 2.0866938 -0.014994902 -0.326926 0.4605946 0.2961793 -0.12683533 -0.01958566 0.6292226 -0.18505016 0.3167781 0.109050356
欲 0.4626187 0.011568238 -0.12600271 0.24069527 0.19035213 0.23743719 0.015482651 -0.12463269 0.019903071 0.17973253 -0.22356805 -0.59690547 -0.3248032 -0.28057966 -0.24206759 0.07851711 0.076778464 -0.09586688 -0.6126974 -0.5607091 0.37660053 0.83262444 0.024599442 -0.35330108 -0.22204567 0.17164072 0.06708238 -0.3170038 0.019002585 -0.15935789 0.3621562 -0.038786933 -0.077674426 0.19776481 0.4025544 0.04114077 0.009459845 -0.1618456 -0.50078106 0.48983636 -0.3388503 0.16891342 -0.319183 -0.1787128 -0.15191832 0.68910253 -0.28903276 -0.04186957 0.00026133552 -0.09104872 -0.62004495 0.4918105 -0.21738441 -0.3209092 -0.42917708 -0.1719296 0.36946952 0.17174567 0.12884237 -0.11869502 -0.54276997 -0.39862412 -0.28419745 0.3873933 0.49278927 -0.09820657 0.38151968 0.31692395 0.28521016 -0.4148635 -0.118755765 -0.25533238 0.36080107 0.6973108 -0.05347176 -0.04545448 -0.5595389 0.15173721 0.4097933 -0.035323985 0.73585504 -0.21087945 -0.20774841 0.18582603 -0.1602172 0.0013424228 -0.34878108 -0.40507746 0.27625328 0.26802906 0.03884449 -0.042265236 0.27530542 0.303059 -0.32217112 -0.101484604 0.029937413 0.35450977 0.033467907 0.38600457
诸 0.2264814 -0.07191476 -0.5770671 -1.263138 0.033448674 0.9644527 -0.31625843 -0.024240827 0.31038207 -0.4624143 -0.062964834 -0.51174027 1.084826 -0.77207136 0.33732453 0.0021561862 0.55938584 0.25354892 -0.98622453 -0.086955436 0.07869155 1.0549313 0.95618165 0.20192936 -0.008271817 0.03093357 0.27165696 0.08553933 -0.49918285 0.17447275 -0.35948464 0.1693285 -0.690729 -0.004166527 -0.005482497 -0.18137254 -0.37047538 -1.1170576 -0.17848931 0.8878012 -0.1382281 -0.23995286 -0.60571223 0.4531595 -0.18015157 -0.11235521 0.686887 -0.8200384 0.16715719 0.57035655 0.25229126 -0.9953123 -0.75504047 0.20635372 0.33493045 -0.37485236 0.22735098 0.58641076 -0.037600763 -0.10570298 -0.17318316 -0.7006955 -0.40722516 0.31585944 1.1017604 0.11089076 -0.4696821 0.4501646 0.22125213 -0.5494247 0.6971056 0.09189796 0.07873032 0.11513458 0.4465646 -0.018430678 0.5248807 -0.015612071 -0.052288994 -0.50017715 -0.61687076 -0.27005777 0.5622384 0.9481375 -0.117994234 -0.2788459 -0.58529466 -0.39042428 0.053583086 1.109865 0.05342894 0.0661362 -0.047650497 -0.3016652 -0.1276706 -0.3605877 -0.4730666 0.1502528 0.62215257 0.14676607
从 -0.02677919 -0.839782 0.22768894 0.4087428 0.42783317 0.3664249 -0.011648053 -0.14381598 0.20905091 0.23269324 0.12261746 0.3012212 -0.7388709 -0.20522864 0.0733431 0.25872356 -0.019456996 0.1283653 -0.67740035 -0.25272512 0.046854258 0.63206005 0.14232913 0.46843213 -0.13160203 -0.22813879 -0.14864343 0.15301313 0.0042346525 0.60615784 0.20435658 0.08407386 0.34303865 -0.057162162 -0.21581078 0.28482556 -0.3215254 0.29212174 -0.24780886 0.14351258 -0.6289503 -0.02768667 0.025298376 -0.0956747 0.599688 -0.2806452 0.20272422 -0.46912524 0.29870892 -0.3835828 -0.2982096 -0.25363806 -0.4656696 0.3966223 0.018743612 0.33505276 0.3129941 0.5055231 0.30793384 -0.15050532 0.10395366 0.46466726 0.06372774 0.18116066 -0.34564227 0.15322553 0.08810246 0.59578663 -0.22808328 0.5425346 -0.23874135 -0.22689475 -0.04115473 -0.2370327 -0.38450664 -0.15773946 0.64795804 0.8478137 -0.4789458 0.24475071 0.3851631 0.10938935 0.24915259 0.62813413 -0.45417118 -0.37885433 0.65838903 0.044371378 -0.05102466 0.21238317 0.03492386 -0.502279 -0.08030453 0.008990522 0.27830678 0.17375298 0.17406508 0.35958257 -0.07680215 0.124993265
文 0.16242082 0.16267739 0.48343578 -0.005054555 -0.47433618 0.13474756 0.009501435 -0.64925104 0.21945319 -0.06478299 0.387897 0.018816845 -0.24289888 0.86625594 -0.15442453 0.23342107 -0.19708407 0.048084352 -0.053128816 0.13659108 0.400056 0.6753654 -0.22615853 0.18750842 -0.0031573307 0.38895708 0.045645345 -0.39017576 -0.13968411 -0.22984812 -0.027088767 0.13161263 -0.4046187 0.04616493 -0.7446054 0.31225815 -0.7053832 -0.07995867 -0.12096736 -0.24736722 -0.43206772 0.8043876 -0.08669911 -0.27933082 -0.13814045 -0.7739807 -0.23205568 -0.46073762 -0.4860003 -0.121641316 -0.09687698 -0.28117457 -0.3151274 -0.12288962 -0.0067306273 -0.054097585 -0.13975027 0.23110566 -0.37643287 -0.04759935 0.0068248375 -0.09843948 0.42692995 0.39576745 -0.22649725 -0.2851283 -0.1511809 -0.7013074 0.29287505 0.05846157 0.08744215 0.19148374 0.12813841 0.23139377 0.34058937 0.08949461 0.09569028 0.45465162 -0.37404117 -0.06357916 -0.04234845 0.07743441 0.18373226 -0.22768736 -0.21479027 0.48761448 -0.14343734 0.06694486 -0.14790778 0.2995791 0.2213882 0.2632719 -0.045181155 -0.5367146 0.14649653 0.06002377 -0.0060255965 -0.065857716 -0.3209972 -0.49971023
政 0.11926618 -0.53059334 -0.3342913 0.1948418 -0.5804505 -0.013023442 0.37332857 0.5484122 0.13827264 0.081661254 -0.18124467 -0.028648173 -0.31790647 -0.17292416 0.12297864 -0.19016537 0.31287736 0.37147233 -0.4230404 0.77785814 0.29308432 0.5310232 0.6118856 0.41793153 0.2613269 0.14568533 -0.05537591 -0.16689636 0.42974824 0.67800426 -0.571084 -0.07675926 -0.28234133 -0.16510211 -0.5818247 0.20222746 -0.21387886 0.07078496 -0.22916073 -0.59285045 0.0022469491 -0.55081856 0.78852975 -0.30575866 0.27061656 0.082722515 0.3810337 -0.513147 -0.09578138 -0.36849025 -0.37601945 -0.0075999545 -0.77275026 0.08045555 0.08815523 0.40178478 0.3302946 0.4440415 0.40573442 0.4163727 -0.11048796 0.3041171 0.0104373265 0.42739305 0.04153621 -0.51642674 0.018912852 -0.04218817 0.12922955 -0.052513525 -0.3905522 0.4815274 0.6022527 0.28130403 -0.11337039 0.36153156 0.44427425 -0.054200407 -0.5058964 -0.00083611713 -0.0662153 0.37516633 0.17022055 0.25472018 -0.5478179 -0.17190123 -0.37191248 -0.5482335 0.25625432 0.3283359 0.46802124 0.16258681 0.36603636 -0.2072656 0.16954291 -0.0020038537 0.022179067 0.5332682 -0.42785618 -0.26706833
食 -0.5417581 0.4729953 -0.03840547 0.3720355 0.22736457 1.1228896 -0.27239472 -0.39495826 -0.034197267 0.71240157 0.11403919 0.06519416 -0.39413723 0.1596166 -0.2252712 -0.05382341 0.42420158 0.21035035 -0.7620914 0.44274512 0.50872445 0.31914237 -0.102126256 -0.84979874 0.5270728 0.37307313 -0.28935188 -0.52835166 0.11950309 0.26842082 0.2985337 0.0399095 0.13387555 0.032559674 -0.044659235 -0.022946538 0.011421614 0.61404943 -0.23406853 -0.0017975139 0.051468503 -0.0717833 -0.4525934 -0.50193113 -0.08767532 -0.3002198 0.21679784 -0.097294606 -0.2691257 -0.04306384 -0.47386003 -0.0003988866 -0.16086088 -0.15275414 0.32156765 0.06004028 0.03923609 -0.10526162 -0.7251914 0.3832473 -0.850667 -0.16627897 -0.36385435 -0.029011983 -0.34165183 0.22279626 0.33586034 0.4252307 -0.06959603 -0.7669104 -0.49627143 0.06212299 0.32817698 0.22073945 0.26453048 -0.44890624 0.88612336 0.29796636 -0.15004367 0.2527058 0.41461703 0.15718056 -0.20493554 0.2762201 -0.25749642 0.32464567 0.36232424 -0.49859446 0.20953654 0.64450973 -0.24513052 0.98864615 -0.3009736 -0.32957128 -0.37351406 0.50004053 -0.3392489 0.43747118 -0.043461423 0.77331215
善 0.23199433 -0.022533236 -0.7102185 -0.20054814 -0.12629184 -0.53632236 -0.27140385 0.23749682 -0.13880448 0.13293861 0.011958863 0.104781464 -0.50167984 -0.5741148 -0.43626913 -0.011691085 0.04251604 -0.021730984 -0.23034395 -0.12789974 0.1605794 0.6489424 0.089545324 -0.31038764 -0.34335622 -0.2549593 0.31682628 -0.17466837 0.42651576 -0.14764524 0.66552526 -0.18641432 -0.086772375 0.3472632 -0.115185395 -0.09072245 -0.30224752 0.1307116 -0.179984 0.10168059 -0.33060396 0.20665796 -0.3725253 0.392036 0.08684299 -0.15651661 -0.27609318 -0.42052907 -0.38951153 0.02838291 -0.6851477 -0.12493331 -0.41957483 0.12709859 0.1263316 -0.03075684 -0.14556623 -0.26568237 -0.24021639 -0.13402104 0.11234213 -0.3619119 0.040845748 0.21216024 -0.04931897 0.6102594 -0.0068442984 -0.21893482 -0.15369572 -0.19600238 -0.3499474 -0.12838711 0.14762057 0.20261167 -0.21885468 -0.118457295 0.43655452 0.29654035 -0.19541237 -0.40761486 -0.47596702 0.024416294 0.09143741 0.49875325 -0.6043769 -0.12614077 0.1098201 0.014446003 0.34266216 0.046142034 0.41145372 0.40403485 0.25212446 -0.25269586 0.2569362 0.0532633 0.41235465 0.043302562 0.23482291 -0.40030083
后 0.02712847 -0.34072196 -0.7264298 0.022793056 -0.7495851 -1.0098659 0.3655423 -0.25826743 0.18080077 0.26034805 0.17078553 0.88966006 -0.42200384 -0.5066802 0.017275369 0.31746376 -0.3300488 0.5351069 -0.28465658 0.2852572 0.42587113 1.018412 0.19740471 -0.07238153 0.54954636 -0.08369372 -0.23298356 0.027324336 0.10276387 0.15113394 0.41388792 -0.14401306 -0.14609693 0.22242065 -0.30258474 0.1575062 -0.36695457 -0.45737574 -0.06123834 0.14974466 0.097343504 -0.55876434 0.5274248 0.13834684 0.16462983 -0.5112507 -0.25511855 0.40199202 -0.20011517 -0.3939634 -0.39674842 -0.10807203 -0.4413598 -0.43880087 -0.28979874 0.09681113 -0.026309943 0.2612016 0.49914318 0.034544554 -0.09911593 0.90531456 -0.022120839 -0.0196681 -0.70398515 0.10108534 -0.802095 0.30446386 -0.22338577 0.15668277 -0.3703518 -0.36370122 0.1932061 0.19608712 0.09944933 -0.5872027 -0.42438787 0.05899373 -0.09661676 0.17669164 -0.18723984 0.23796734 1.060396 -0.19850251 -0.8169612 -0.21769044 0.19099429 -0.026925644 -0.65431064 0.49793065 -0.5316316 0.24467918 0.10879734 0.009074431 0.5154244 -0.2375966 -0.2967405 -0.47044286 -0.02043606 -0.078070566
德 -0.0710968 -0.45678952 0.0024457285 -0.057580322 -0.100240625 -0.15389195 0.29863146 0.3383164 0.57567686 -0.2678478 -0.15298977 0.3487385 -0.061625745 0.15805027 0.24849921 0.034096465 0.10822158 0.3455149 -0.40672943 -0.32137564 0.41509148 0.57174903 0.23060323 -0.032469664 0.45013058 -0.16389173 0.37043488 0.53156096 -0.23912205 -0.36046714 0.39496312 -0.1511049 -0.14681229 -0.19240789 0.3401068 0.27526936 -0.20225583 0.098874725 -0.67362404 -0.094182275 -0.18371621 -0.06423107 0.3688909 0.004482868 -0.2466812 -0.6980204 -0.16772473 -0.72302955 -0.12912846 -0.53818876 0.00545888 -0.37250227 -0.7882382 -0.7133513 -0.03605113 -0.4095302 -0.66293836 -0.09465338 -0.011848662 -0.04034089 0.07545213 -0.7535588 -0.13133045 0.28214556 -0.12288022 -0.770201 -0.3068657 -0.67599666 -0.56703424 0.11708598 -0.2557064 0.22425553 -0.0606978 0.102266364 -0.27224275 0.019796768 0.796627 -0.14019243 -0.090574734 0.04571498 -0.29264975 0.1050436 0.2655695 0.12483339 -0.6934127 -0.26298845 0.18438092 0.5374005 0.009699771 0.3205945 0.056230612 0.0999106 0.442815 -0.964817 -0.010765482 -0.39241284 -0.009819945 0.29630256 0.09584194 -0.12584083
求 0.509199 -0.10550051 -0.121027544 0.16012469 0.15022552 -0.319783 -0.2896772 0.15035824 0.12427273 -0.018201368 0.19767886 0.06851795 0.08127744 0.13879573 0.12995659 -0.541478 -0.16504668 0.37748933 -0.50769705 0.013260076 0.3042997 0.89546406 0.5200625 -0.020563714 0.6584926 -0.26132172 0.027729074 0.55710167 0.6917526 -0.19448128 0.07280948 0.18566418 -0.2298981 -0.36822462 -0.1420751 0.12921104 -0.9932242 -0.2424187 -0.26217327 -0.22859327 -0.07132022 -0.12091062 0.41696358 -0.055436783 -0.21979043 0.28145325 -0.65496606 0.12599249 0.18853192 0.21376388 -0.49254334 -0.11179164 -0.17623879 -0.2393941 -0.041273255 0.4663103 -0.40306178 0.109909095 0.026179012 0.22053322 -0.0017648053 -0.20757096 0.006706667 0.27394253 0.17129186 0.4517784 -0.18224704 -0.77700925 0.04592714 0.38313916 0.023676652 0.5461332 -0.047071215 -0.48110244 -0.41930836 0.06289794 -0.023181224 0.43809035 -0.06446119 -0.2791781 -0.29245096 0.20564109 -0.1470819 0.090806365 -0.4432101 0.42527956 -0.09750382 0.31387535 0.22359215 0.08879489 -0.41583374 -0.033658676 -0.44474986 -0.097528554 -0.62865597 -0.0990506 -0.14368884 0.045303915 -0.047602177 0.15412723
对 0.34928107 -0.24560836 0.12396697 -1.0152924 0.47161725 -0.1338209 -0.19303365 0.13389443 0.2191388 0.038090136 -0.11763791 -0.19615412 0.33076552 0.25634265 -0.25629932 0.5722336 -0.16918245 0.23214738 -0.8872077 0.20917313 0.20164326 0.24204712 0.6985515 -0.11789512 -0.16919473 0.29714143 0.02834967 0.39064738 -0.012792361 0.4526774 -0.014983539 -0.04616917 -0.046502642 -0.10060166 0.29984674 -0.28940964 -0.2566223 0.3494051 -0.19665794 -0.2406557 -0.14673196 0.15470935 -0.18374275 0.43002233 0.45980495 -0.18917035 -0.13596892 0.21676095 0.18998395 0.5137481 -0.050978098 0.2698087 -0.36971813 0.2560434 -0.36449116 0.15449485 0.06847155 -0.34988937 0.19618504 -0.6158506 -0.2056898 -0.3892754 -0.50184613 -0.24966134 -0.5361467 0.37704974 0.7113608 0.16878693 0.1422017 0.2653067 -0.21515766 0.35036904 -0.18094756 -0.19106716 -0.49667773 0.02820775 0.06139784 0.18859348 0.030158559 0.627815 0.12519385 0.027311783 0.4808304 0.3646984 0.072153635 0.17295076 0.08590131 0.04078059 -0.6098189 1.6425655 -0.24204642 -0.15006801 0.14786848 -0.42870545 -0.40539175 -0.15399195 -0.3986427 0.3441768 -0.33178836 0.19223386
恶 -0.11421875 0.25444674 -0.2539009 -0.010256738 0.4765523 -0.32823426 0.07842507 0.45980275 -0.11776894 0.48153564 0.123999044 -0.09273297 0.06465704 0.07374762 0.10775894 -0.2857992 0.39621654 -0.06940675 0.090362154 -0.20082721 0.36565647 0.49158406 0.814068 -0.060719114 0.3276938 -0.013354462 -0.08322374 -0.17607464 -0.4988031 0.1123194 -0.31588322 0.47140184 0.65557057 -0.060529344 0.19604935 -0.13010472 -0.3519988 0.39228895 -0.3872178 0.37534526 -0.40590575 0.70104694 0.09240609 -0.07729801 0.49869862 0.014559658 0.04767165 -0.043988805 -0.5387767 0.18937287 -0.8596616 -0.11249988 -0.14009872 0.13403694 -0.15006253 0.24031174 -0.39510942 -0.39493743 0.2053641 0.17483081 -0.6549649 0.21333975 -0.24792552 0.5117771 -0.36882517 0.19735491 0.24987735 0.609424 0.37966964 -0.7221341 -0.72479796 0.32908794 0.014766097 -0.16713782 0.23811147 -0.27717954 0.21554863 0.253856 -0.11136144 -0.05432645 -0.46298492 0.46395683 -0.019116452 0.02319148 0.38410097 -0.0041905884 -0.26652065 0.25981262 0.07021012 0.5059496 -0.46807942 0.117773116 0.12047937 0.2155818 -0.046106428 -0.2980958 -0.26726657 0.11496196 -0.13933474 0.04095175
信 0.37855676 0.547319 -0.34689105 -0.31408176 0.21479127 -0.045218255 -0.18197551 0.14859569 0.24032634 0.56010973 0.25807086 -0.28592077 -0.44426638 0.12776946 -0.21764328 0.25851297 0.17546587 -0.4304112 -0.032091547 0.45128635 -0.10579429 0.49820143 0.5905172 -0.49078634 0.15958601 0.4281104 -0.31206092 -0.50338954 0.49531737 0.71207803 -0.028663125 0.04398639 -0.22852255 0.33245468 0.042682026 0.4774176 -0.39488322 0.38739023 -0.33618712 0.15456282 -0.59449375 0.7124434 0.3820741 0.39119256 0.4440219 -0.49944213 0.37809896 -0.5169853 -0.3096596 0.14507332 -0.27972543 -0.082068406 -0.57587063 -0.13198774 0.07669646 0.23106964 -0.17150058 -0.26422325 -0.48632377 0.28643286 -0.011404941 -0.19610572 0.0037705782 0.09565983 0.7814643 0.2620023 -0.11587564 0.047871783 -0.2100278 0.17927451 -0.51029015 0.6138296 0.3351381 0.060922787 -0.01070259 -0.014261223 0.113872744 -0.45553777 0.12175066 -0.43750617 -0.203836 0.38203385 0.21877849 0.05759021 -0.4249504 -0.13359705 -0.09807148 -0.442287 -0.030089254 -0.017001763 0.27200043 0.4807763 0.62009865 0.11395495 0.017099531 -0.15605795 -0.4011141 -0.41115388 -0.3221458 -0.084069066
死 0.14706248 -0.21520062 -0.62832284 0.1734207 0.07255519 0.120654576 -0.053457137 0.21097723 -0.1236872 -0.26848426 0.3587419 0.090427876 0.037341587 -0.5584564 -0.22418508 0.20531073 0.3121198 0.032588918 -0.46517062 0.2045284 0.90212786 0.55136067 0.3889154 -0.6276355 -0.24963632 -0.45334765 0.45956123 0.019238686 -0.122833654 -0.0039997264 0.065473005 0.5892909 0.020523869 -0.34786543 -0.948564 -0.012785084 -0.03114809 0.035608813 -0.5667492 0.0062833885 0.08762191 -0.29775876 0.101335905 0.29195786 0.24471885 0.43249354 0.16798943 0.05049384 0.29838926 -0.15738657 -0.8506399 0.115429215 -0.30144513 -0.542725 -0.0034902163 0.112598024 0.07237965 0.37173933 -0.10588669 0.16470695 -0.3236016 0.44924408 -0.39170748 0.08706842 -0.009531908 -0.51508814 -0.11876303 -0.18024692 0.085788764 0.43021318 -0.4289039 -0.08006742 0.11929774 -0.35664448 0.007130258 -0.277264 0.038853996 -0.30774987 0.27887416 0.02695486 -0.33181986 -0.044997904 0.21322817 0.3307119 -0.583393 -0.2612868 0.008073504 -0.039707944 -0.08805233 0.19174154 -0.17338693 0.4648728 -0.08643713 0.3393673 0.26374224 -0.2841271 0.40824655 -0.29679468 -0.318731 0.29881656
然 -0.18485132 -0.28347585 -0.5087686 -0.43103933 -0.0029748376 0.2278247 -0.63704056 -0.3398605 -0.2831052 0.32065806 -0.4533961 -0.44741032 -0.22525357 -0.19967985 -0.09785225 0.24982075 -0.053086765 0.2748685 -0.7484675 0.12198222 0.75449103 0.6199849 0.4960638 -0.25705507 -0.30508605 -0.3004521 -0.041325375 0.07486144 -0.3362594 0.4821984 -0.18916428 -0.077130504 -0.25743952 -0.18437862 -0.22565728 -0.2250744 -0.7701217 0.38647792 -0.041118395 -0.1249472 -0.096107826 -0.39891565 0.20094012 -0.030964492 0.8000915 0.28783715 -0.45543233 0.34123334 0.3464601 -0.05612807 -0.055794142 0.1123938 -0.1752399 0.34109446 0.17425773 -0.073363714 -0.106712766 0.10353061 -0.09905062 0.21330923 -0.00409191 0.18090975 0.28435647 -0.45179373 0.1154084 0.40110853 -0.4326214 0.25181168 -0.6061837 -0.20896095 -0.22404051 0.16502193 0.2109435 0.1801462 0.4104981 0.3066106 -0.24271254 0.5276029 0.31153035 -0.14157826 -0.381186 0.35104552 0.11201632 0.4337722 -0.24152616 -0.6122049 -0.4862012 -0.27787554 -0.080738224 0.45166352 0.14240505 -0.09461892 0.021863405 0.40272138 -0.3971169 -0.3943563 0.22484258 -0.0883661 -0.020789262 -0.23276758
《 0.1461283 -0.6689351 0.051806178 -0.2719891 -0.27172694 0.95209855 0.41990897 -0.13926047 0.26087984 0.027700484 -0.349343 -0.5418837 -1.0247883 -0.041205563 0.16272251 -0.12748772 -0.078756675 0.46136206 -0.8375935 0.23572452 0.07314375 0.6818455 0.29660618 0.18020591 -0.3492915 0.5673784 -0.15044472 -0.2454067 -0.36369583 0.44157964 -0.21921529 -0.037703674 -0.34812212 -0.2119553 -0.2549352 -0.18621777 0.29328683 -0.19142996 0.49135503 0.047657635 -0.10848955 0.2709648 0.2283531 -0.14968234 -0.7471041 -0.18549691 -0.22769593 -0.24329817 0.12668693 -0.3392503 -0.32340986 -0.4621056 -0.25103578 -0.40351927 -0.23708132 0.27036852 -0.16919048 -0.15623914 0.072166346 0.1960838 -0.063552566 0.5335081 0.33329797 -0.053656723 0.16327323 -0.5748501 -0.86474365 -0.41559443 0.15511677 -0.14733598 -0.066442214 0.090765186 -0.13960722 0.19008006 0.5376726 0.3772363 0.12927774 0.68948096 0.13482141 0.084890336 0.017270852 0.18782805 0.0058186306 0.16377214 0.30424887 -0.3263304 0.25115597 -0.330785 -0.030056767 1.1511247 0.6131948 -0.45598027 0.70458394 0.2533567 -0.18298066 -0.7377109 0.5383688 -0.7460594 0.6363764 -0.5209525
》 -0.028819451 -0.049702045 -0.09105957 -0.14828253 -0.38137448 0.09653479 -0.0036176979 -0.03539488 -0.09804978 0.410599 -0.110743724 0.06926183 -0.33923486 0.744109 0.1498596 -0.3963659 0.116765454 0.22541653 -0.1886585 0.3399079 0.13405702 0.11487925 0.86270875 0.54539114 0.7234536 -0.3837026 -0.8117679 -0.61568886 -0.108962394 0.27812842 0.26924792 0.27518448 -0.05194126 0.08637542 0.124942675 -0.054800685 -1.3175706 -0.10946443 -0.2869345 -0.21100296 0.09403072 -0.080369286 -0.20620567 0.27546066 -0.05417209 0.039283365 0.1170995 -0.0017796275 -0.06598991 -0.047737975 -0.26924384 -0.19792908 -0.46493283 -0.8566548 -0.27647194 -0.082864776 0.13777417 -0.25864255 -0.15137081 0.3814144 -0.51863396 0.26586127 -0.350157 -0.24495396 0.058874443 0.0035633284 -1.2451035 -0.19469862 -0.19481152 0.12016046 -0.297213 0.12716947 -0.020749792 0.10744468 -0.3911056 0.2859424 -0.26796782 -0.032851364 0.28089297 0.031975355 0.30091316 0.01482773 -0.22845693 -0.24506155 -0.022057211 -0.114424 0.44805208 1.0982437 0.17311382 1.015945 0.61004037 0.08754386 0.47667983 -0.64476556 0.04003645 -0.4885713 -0.034247093 -0.59194773 -0.5623819 0.058268547
