1352 50
， 0.12608911 0.05645426 -0.048508666 0.18611476 -0.011148864 -0.082505226 -0.035994228 -0.06270168 -0.041283578 0.06899337 0.041433886 0.060075622 -0.02331836 0.0006617237 0.011257455 -0.044873755 -0.0077836146 -0.008988359 0.45252362 -0.15419246 0.0753001 -0.0036777097 -0.011999076 0.026437424 0.061967604 -0.017017689 0.040261228 -0.10009959 0.22167969 0.27767643 0.028314838 -0.031680238 0.08756355 0.27239183 0.08081312 -0.020022992 0.008530426 -0.095552415 -0.094877526 -0.039603647 0.18841743 -0.025719237 -0.07896824 0.12555297 -0.07504865 0.011781922 0.07649549 0.11423202 -0.010623646 0.15333436
子 0.07362748 0.1696811 -0.03486078 -0.3656443 0.021018352 0.12926014 -0.006697556 0.10375994 0.11892447 -0.14015178 0.048778195 -0.007870589 -0.10091727 0.05112638 0.087753594 -0.13278598 -0.20420831 -0.030249974 0.15827973 -0.09239428 0.1653288 0.058041893 0.03977429 -0.06136999 -0.06756195 0.043213807 0.0069514667 0.022965891 0.7841006 -0.2874545 -0.10299438 0.06894518 -0.04823901 0.086836405 -0.039672572 0.0039282343 -0.09049616 0.07958709 0.010255818 0.0025315257 0.026073568 0.07960346 0.075222336 0.14737262 0.03949321 0.038327284 -0.12723899 -0.032550212 0.051635917 0.0030236633
。 0.07228691 0.1991369 -0.11094014 0.0077781067 -0.015358802 0.15595411 -0.30574888 -0.017589234 0.11558946 0.026412224 -0.015306877 -0.07675099 0.045589793 0.13019319 0.05523127 0.025112122 -0.05824299 0.16503632 0.270331 0.05419096 0.1083454 0.2201962 0.05526817 -0.1869202 -0.023651097 0.062094484 0.073288135 -0.17052743 0.63136965 -0.073721275 0.15854575 0.2224948 0.06714372 0.33855775 -0.047621418 0.02297729 0.18834074 -0.11349237 -0.19193205 -0.15976253 0.03370908 0.011895988 0.030708438 -0.2228294 0.08277415 -0.1520355 0.0008778886 -0.0073970687 0.0917042 0.05864077
： 0.00849881 -0.01992075 0.025443034 -0.014021384 -0.067480706 0.10573205 0.01839806 0.035352897 0.060509305 0.08298927 -0.17284906 0.09732839 0.009358172 -0.12820292 -0.08572312 -0.033627104 0.07446302 0.1216073 0.09729076 0.079096235 -0.04589908 -0.0014153675 0.07942354 0.004232578 -0.20513156 -0.18746212 -0.063067496 0.009181183 0.856548 -0.377771 -0.08014868 -0.020544194 0.13758676 -0.03768851 -0.10990775 0.024430694 0.018877352 0.020046268 0.075321615 -0.05733884 0.09782642 0.04351705 -0.13082682 0.12767822 -0.0047698426 0.0403025 -0.028372431 0.036566876 -0.02465692 0.032098573
曰 0.00020688886 0.023733068 -0.026469868 -0.055829424 -0.03009476 0.11983233 0.044874173 0.1078283 0.030737838 0.024603818 -0.12770224 0.09508205 -0.049720913 -0.027359284 -0.00809705 -0.10145439 0.047331717 0.10926676 0.08149608 0.05119397 -0.013263657 0.09458789 -0.051773746 -0.08048108 -0.19229813 -0.23165266 0.06431377 0.043363716 0.95653933 -0.4317637 0.0016021663 0.047890685 0.08864889 -0.095986016 -0.072276 -0.03763976 -0.001721822 0.11612393 0.02673916 0.053590324 0.085316375 0.13632183 -0.076848194 0.1295253 -0.09127851 -0.06888957 0.04326231 -0.025017157 0.038008086 -0.015735233
之 0.18413728 -0.199113 0.064778104 -0.018135916 -0.26700133 -0.034626108 0.067761995 -0.13243985 -0.036865007 -0.0933775 -0.051099993 -0.06925719 -0.17285019 0.12665762 -0.067508474 0.021747597 0.052217122 -0.0037018585 0.31856522 -0.077006705 -0.05253376 0.022954693 -0.004509395 -0.14928362 0.12555772 -0.009977131 0.08735208 0.049584232 0.37901777 0.16798903 0.13912547 0.042193193 0.22500543 0.04930207 0.15336157 -0.056311052 -0.03870399 0.36909747 0.032658257 0.030485243 -0.14511421 -0.0020593714 -0.16158257 0.03179247 0.0666208 0.100205965 -0.0039796745 0.038967397 -0.08022228 -0.08733953
不 -0.04084448 0.11853911 0.1008516 0.13530762 0.012547681 0.23359318 -0.14402561 0.22500572 -0.046448287 0.04517484 -0.0761679 0.11904749 -0.038407966 -0.08628734 0.12023785 -0.085453525 -0.16432507 0.09762072 0.30412766 -0.023265015 0.10041265 0.05601797 0.0432817 -0.13741915 -0.20537077 -0.15354103 -0.070024155 0.29930848 0.39099905 0.49066624 -0.0531227 -0.24484973 -0.14829457 0.030801736 0.037168898 -0.11332068 0.014768702 -0.09924177 0.039263833 0.11933558 -0.10595563 0.07774872 0.12471305 0.16816518 0.15727855 -0.009452258 0.055025626 0.120211646 -0.05542443 -0.07238391
也 0.07441168 -0.29400146 -0.012925933 -0.05596079 -0.01369075 0.04668552 -0.28752157 -0.047383502 -0.1889887 -0.038912296 -0.007877125 0.0757423 0.027024303 -0.056581832 0.05674918 0.093420595 -0.19556317 0.0025187703 0.3183923 0.010107894 0.014940416 0.018546376 0.000714501 0.07846191 0.08802088 0.12686484 -0.20000085 -0.18127264 0.5135137 0.0652121 -0.21566606 0.042576443 0.10662127 -0.09152063 0.06666193 -0.11414636 0.064041086 0.3716327 0.10330055 0.01943002 -0.09172812 0.010505872 0.049242508 -0.14416902 -0.051692154 -0.2340892 0.045660038 0.26492402 -0.11822019 -0.15851451
而 0.19223759 0.22962385 -0.014140094 0.08139608 -0.030027235 0.08498067 0.04431194 0.14106365 -0.19960693 -0.22366221 -0.090191856 -0.10053645 0.03661109 -0.03921201 0.3459904 -0.35015076 0.12869191 0.25958946 0.747567 -0.047730323 -0.08607619 0.1990139 0.021764342 0.1430895 -0.18267035 0.055628374 -0.062361713 0.02826408 0.12141665 0.11045248 0.18103172 -0.101647995 -0.22767906 0.03860093 -0.057290804 -0.11869985 -0.12277855 0.037161864 -0.13273644 0.046695102 -0.21297465 -0.06375797 0.08161098 0.10868231 0.10030208 -0.040604968 -0.06634624 -0.061080284 -0.13430795 0.053911515
？ -0.16500837 0.21809046 -0.0066733584 0.27973333 -0.1828878 -0.31573054 0.06117425 -0.044916365 -0.13916866 -0.028856972 -0.034016147 -0.34346735 0.03204508 0.006499945 0.25456968 -0.1535376 0.1676523 -0.22766316 -0.3145175 -0.2261802 -0.00051754643 0.108757176 -0.06582306 0.2803979 0.117920175 -0.002273609 0.17647767 -0.15138204 1.2407323 0.0671426 0.051912636 0.21216622 -0.17554733 0.16891588 0.043008447 -0.07578777 0.042887315 -0.3675769 -0.20452532 -0.035607018 -0.036109757 0.060730428 0.004153426 0.050458044 0.021431854 -0.01893619 0.025272109 0.10835278 0.15965778 0.13494195
其 0.033418115 -0.01961408 0.26239583 0.14789774 -0.04021229 -0.12825853 -0.109229356 0.056842364 -0.21415238 -0.33259246 -0.07660163 0.1534104 0.14510173 -0.19359393 -0.12955013 0.1443741 -0.26559407 0.1343237 0.5554827 -0.4255309 0.25349593 0.06628819 -0.03375715 0.037560795 0.28835806 0.19014065 -0.10143841 0.06160291 0.28208327 0.20982496 -0.06929612 -0.05176239 0.10597176 -0.0771399 0.14459628 -0.03756728 0.050300404 0.21716623 0.06895931 0.2574557 -0.010648433 0.31761056 0.17917578 -0.1841445 -0.14102574 -0.15785421 0.032327775 0.12853524 -0.1107474 0.09557555
人 -0.08295492 0.2847721 -0.048119817 -0.08855627 -0.1092819 0.090148345 -0.14382276 0.101707436 0.049341153 0.028353073 -0.023458742 0.36647776 0.07929429 0.023735832 0.28892797 -0.08084258 0.065865204 -0.24049386 0.5133502 -0.27634567 0.102783434 -0.12590414 0.07344607 -0.11367852 0.16710173 -0.08979586 -0.050656117 0.1935189 0.35027754 0.045219123 0.23297073 0.007963786 0.14376998 -0.2556284 0.021105338 -0.09703275 0.09464659 -0.022467207 0.0068351584 -0.12001712 -0.18917571 -0.050488856 -0.08399143 0.27672344 -0.05838423 -0.09733236 0.2574372 0.1359904 0.016671715 -0.038164034
者 -0.057723343 0.18742333 -0.14609545 0.25144845 -0.14569554 -0.34302914 0.0669455 0.35167795 -0.05102096 -0.07417558 0.040428635 0.16119789 0.02646632 0.11565897 0.097008765 -0.067625314 -0.07150203 0.06520822 0.47335985 -0.09901916 0.049386654 -0.09370247 -0.061249137 0.2020883 0.0352295 -0.06606769 0.3589603 -0.045182005 0.35715097 0.06347795 -0.07091569 0.00084188697 0.036587287 -0.23735125 0.18082356 0.00936568 -0.004975831 0.09388943 0.25804126 -0.21283376 -0.12740758 0.10740846 0.06104065 -0.29715064 0.17629302 0.20120752 0.27692407 0.13772406 -0.19914642 -0.21206525
以 0.24252938 -0.36374387 0.20564216 -0.0043583475 0.12680496 -0.17512749 0.21910666 0.11424198 0.11234831 0.25141653 0.06886943 0.25332522 -0.24045007 -0.37935612 -0.032431453 0.18149583 -0.031977285 -0.22967917 0.1993027 0.2841737 0.057526127 -0.043570716 -0.031621527 -0.30774942 -0.16062595 0.07796979 0.09007882 -0.12559459 0.55731076 0.55477023 0.012802592 -0.17560314 -0.17598642 0.19957101 -0.15169138 0.039375033 -0.28472534 -0.0074236025 0.03964904 -0.097980514 0.26106802 -0.03503438 0.03297465 0.0019975924 -0.03466759 0.24173868 -0.13410284 -0.34225824 0.35640588 -0.15267044
有 0.045320626 -0.08410934 -0.082338236 -0.078605354 0.16906942 -0.42956823 0.16432472 -0.023002118 0.25751528 0.16898605 0.28477603 0.061919536 -0.05862613 -0.016041065 -0.21248788 0.4156209 -0.11435704 0.1037875 0.29474548 -0.08621732 -0.025007704 0.09624676 -2.1435262e-06 0.15561858 -0.30216178 0.0569112 0.19880664 0.050256923 0.5238985 -0.028552085 0.25055677 -0.16976832 0.13192971 -0.50255084 -0.3089138 0.15788321 0.13884036 -0.54489845 0.09975687 0.09589046 -0.15153705 0.041581642 0.13966982 -0.044711452 -0.050050385 0.0745736 -0.10386858 0.27338356 -0.005205278 0.06498833
于 0.41664755 0.005992768 -0.32900614 -0.31376848 0.218021 -0.037573513 0.4986821 -0.018192964 -0.030228494 0.12684709 0.14496404 0.09282759 0.28891027 -0.10965159 0.109885246 0.027679104 -0.11645982 0.07190076 0.6646159 -0.27110854 -0.22540718 0.055302273 -0.10259503 8.903531e-05 0.04636468 -0.10382977 0.09967944 -0.22145215 0.16910721 -0.10455547 0.06174941 0.06907084 -0.098213136 0.053663246 0.0018749159 -0.15027888 0.16554424 -0.19247063 -0.1584097 0.17545666 0.10727482 0.3560252 -0.2645592 -0.19548048 0.018884813 0.045329083 0.17433347 0.017328518 0.32070768 -0.03355298
矣 -0.17466778 0.006757762 0.16380881 -0.069543555 0.014844011 0.048308432 -0.19197007 -0.041612573 0.09868092 -0.007012886 0.34761944 0.15553725 0.08398468 0.13058604 0.18147254 0.13759774 0.12742437 -0.17124861 0.71672285 0.4269106 0.10806915 -0.008978114 -0.049157843 -0.12648198 0.27529603 -0.014623972 -0.04053538 0.06772763 0.37264183 -0.4486907 -0.09531669 -0.19666073 -0.41116703 -0.06606159 0.19048385 0.02194278 0.30623397 -0.16009347 -0.050693292 0.19390869 0.18901391 -0.15518688 0.045920294 -0.5881965 0.15815589 0.2820798 0.009401567 0.17062134 0.090897076 0.23238033
为 0.32959968 0.038512245 -0.087768994 -0.35558215 -0.14606273 -0.39099556 -0.09775657 0.2878146 0.22758807 0.19717023 -0.32219434 -0.33839867 -0.34059897 -0.41938668 0.068957336 -0.045964852 0.36782852 -0.16628805 0.24507543 0.037947576 -0.19868736 -0.32284942 0.124611475 -0.27097693 0.013012895 -0.03802344 -0.14016192 0.14479128 0.5230314 0.2943879 0.0029270425 0.069423266 0.025027284 -0.08598123 -0.032623153 -0.035123423 -0.1634281 -0.1757678 -0.25572148 0.06923232 -0.17186674 0.10078151 -0.03886135 -0.13278627 0.08222331 0.2912642 -0.04239105 -0.28400633 -0.048699062 -0.2840505
君 -0.21035016 0.14772967 0.006492137 -0.26854697 0.22730647 0.11712642 -0.2561218 -0.064779796 0.13384603 -0.017820083 0.025346745 0.2877697 0.04692803 -0.45027545 0.11225118 -0.17275026 -0.5840273 0.21934311 0.14136748 -0.15704197 0.050329324 -0.29706043 0.25650567 -0.08057099 0.070787705 0.33859888 0.020278595 -0.007458614 0.69388586 0.03637839 0.016477894 0.053774536 0.099342726 -0.20712349 -0.23562147 -0.03233372 -0.055517383 0.08061161 0.28111562 0.11927674 -0.024040202 -0.060344934 0.07065215 0.13097124 -0.032934934 -0.024778098 -0.61315936 -0.21642558 0.05946846 0.3396034
乎 0.11364297 -0.06124904 -0.042959932 0.060177762 -0.06725912 -0.42799342 -0.004656695 -0.012190255 -0.03427368 -0.20616186 -0.049098495 -0.19188227 0.5778335 -0.20274808 0.3279756 -0.10983689 0.15915695 0.08249617 0.16038793 -0.14149086 0.019340534 -0.107969835 0.057143066 -0.14045846 0.06879541 -0.20965998 0.14671943 0.022898633 0.7295005 -0.21695569 -0.060855497 -0.06461494 -0.43336362 -0.38033813 0.26841855 -0.013754015 -0.16720355 -0.29348516 0.01090081 0.13428989 0.10815649 -0.19578055 0.07647922 0.14995827 0.007607669 0.16312009 -0.01367639 -0.11817487 0.113508835 0.2888513
可 0.00083015964 -0.007806171 0.15772672 -0.36504638 -0.14727598 0.1042863 -0.028099874 -0.18992993 -0.42773506 -0.0860845 -0.08320953 -0.06877142 -0.20915407 0.030133171 0.42077777 0.08373117 -0.012867239 0.20954002 0.08221783 0.20792207 0.19508512 0.14344335 -0.38068137 -0.022423506 -0.12556139 0.04556464 0.062377855 -0.1585482 0.52962434 0.6947858 0.30536088 -0.3686807 -0.33755687 0.12947524 -0.053095244 -0.11143811 0.17314954 0.20383532 -0.09792749 0.079930015 -0.026868373 -0.026522137 -0.24187212 -0.00730615 0.15816593 0.22119634 0.41774836 -0.107147746 0.278115 -0.045975327
如 -0.20443927 -0.11756325 -0.14286666 0.38856366 -0.08167654 -0.039812177 0.2966187 0.15488814 -0.19086677 0.08226267 0.4306049 -0.03503093 -0.22369015 0.19014417 0.15606043 0.23191255 -0.093000665 0.19222865 0.099980235 0.14843304 -0.17161237 0.058428705 -0.060397718 0.52864444 0.09691303 -0.11557171 -0.31764355 0.27435312 0.6802948 0.2984525 -0.30189684 -0.29341033 -0.094852425 -0.09035043 -0.13417134 0.1419272 -0.23989451 0.35250068 -0.22185257 0.06106126 0.2696605 -0.06237138 0.10769254 -0.00061602675 0.16339205 -0.03897552 0.1713941 -0.26003578 -0.15177108 -0.19968021
与 0.25813445 -0.013916194 0.23115313 -0.31442624 -0.07647698 -0.25172564 0.22378759 0.14200142 -0.14825778 0.11532599 0.080931455 0.12825826 -0.17059138 0.02162342 -0.13026667 -0.34070122 0.15999451 -0.0030313109 -0.113140374 -0.026745427 0.04667502 -0.12088621 -0.31183457 0.32987535 0.11261958 0.048451256 -0.23869435 0.047293924 0.699862 0.40682322 0.038132392 -0.01103046 0.03172895 -0.15032694 0.27193114 -0.021825567 0.067782484 -0.06307142 0.2682973 -0.12901594 0.12006939 -0.026287531 -0.21269797 -0.33241966 -0.25060135 -0.20480338 0.1040378 0.29850903 -0.35401362 -0.10931498
； -0.058916766 -0.055310555 -0.20265004 0.53589875 -0.19523278 0.26144293 -0.46589306 0.13509442 -0.0890186 -0.06705504 0.12528864 -0.24211624 0.106356524 -0.07674882 -0.107065745 0.11454551 -0.093256585 0.12953691 0.47359464 -0.32503882 -0.25828406 -0.01909856 0.25968826 -0.15666068 0.13217504 0.13773152 -0.10641535 -0.057344552 0.40412354 0.5126893 0.28963286 0.10920973 -0.029303182 0.1128645 -0.0053865956 -0.15122904 0.23387474 0.047129534 -0.04504495 -0.14072707 0.23555487 -0.21998316 -0.065167256 0.18745497 0.02950949 -0.09264019 -0.21850252 -0.102417625 -0.09643979 0.067795634
言 -0.21275267 -0.24358758 0.26218304 -0.003996543 -0.16975176 -0.22995795 0.14521453 0.22036818 0.31438392 0.028334977 -0.16914663 -0.07384563 0.05077273 -0.25387558 -0.08026699 -0.059308555 0.08790984 0.37123978 0.33808252 -0.056297015 0.11907796 0.06340582 -0.13571922 -0.08891486 -0.23775375 0.14569305 0.010622313 0.13963957 0.33806923 0.2702691 -0.0028457902 -0.3232826 0.112038106 0.030868955 -0.19934541 0.12792362 0.4601767 0.15099145 0.05165601 -0.46179092 -0.014479524 -0.36869124 -0.3422389 0.08684788 -0.31187448 -0.28501996 0.025130723 -0.09162412 -0.18270244 0.10739426
无 0.006145941 0.24636428 0.16153525 0.090971336 -0.12944841 -0.4184082 0.17624736 0.098023236 -0.04927096 0.29862466 0.16287231 -0.10592817 0.22531316 -0.12740919 0.101027116 0.149536 -0.3541661 -0.2983825 0.6368977 0.14602256 0.30575758 0.17627864 0.20013298 -0.22116224 -0.14498031 -0.119085155 -0.015852902 -0.048692774 0.24339561 0.13626066 0.17514208 -0.16026026 -0.15091072 -0.25042647 -0.16786195 0.021780936 0.13531148 -0.043598577 -0.25751862 -0.058010086 -0.20421585 -0.068789996 0.16561218 0.08704623 -0.08396054 -0.1834746 -0.099120274 -0.45500824 -0.18277578 -0.09007899
则 -0.23520598 -0.07267551 0.42522526 0.15515374 0.016835941 -0.2769458 -0.4282483 0.15833804 -0.45169878 0.10195992 -0.15960103 0.08840451 0.17527808 -0.117654204 -0.0061802613 0.23710126 -0.34520218 -0.24197704 1.032257 0.049270306 -0.22234698 -0.12910329 0.29454562 0.12442327 -0.33378318 -0.106782906 -0.13113867 -0.07490016 0.06655823 0.045878246 0.05099079 0.018770209 0.26816395 0.019037494 0.0064041438 -0.1903813 -0.0081259385 0.039793227 0.08240897 0.09222672 -0.0052089687 -0.05079366 -0.19887975 -0.13369404 -0.09399034 -0.083392434 0.0502447 -0.516908 0.14161256 -0.20874579
！ 0.08465378 -0.06610471 -0.27778822 -0.0011482154 0.093147635 -0.2396015 -0.077330805 0.26730686 0.22970526 -0.33312866 0.021869754 -0.04783848 0.38108447 -0.20723635 0.19213381 0.28875685 -0.31549457 -0.03427059 -0.12777226 0.22863203 0.07542687 0.007707807 -0.054291308 -0.23456264 0.17991109 0.23578829 -0.15902486 0.032678913 1.0011896 -0.06879364 0.23519069 -0.0059459573 0.093325995 -0.07486962 0.2152635 -0.20149401 0.11436098 -0.17883562 -0.2459277 -0.112914875 0.05198458 -0.027554594 0.02671872 -0.068743825 -0.035833977 -0.093577184 0.31782332 0.1446254 -0.008190879 0.4468502
问 0.02891635 -0.016975751 -0.02852888 -0.6345596 0.08330537 -0.14243318 0.5074791 0.0035726577 0.20520546 0.110412754 -0.035621252 -0.056173902 -0.17075859 0.08528806 0.07074791 0.07529641 -0.13898908 -0.14006552 0.6841419 0.25789616 0.0084732855 -0.28620556 0.07058825 0.041168455 0.22066417 -0.09156447 0.15602165 0.0686815 0.509053 -0.39199993 -0.07957932 0.43919614 0.16466984 0.3671962 0.12155125 0.15406558 0.16614734 -0.23925859 0.5742825 0.06631184 0.10264543 0.34650695 0.31276414 -0.07562145 -0.13946122 -0.16626833 -0.10037273 0.038301863 -0.21913224 -0.3588753
知 -0.29570177 -0.19669385 0.015708543 0.05136571 -0.16457762 0.4223585 0.12179607 0.18170574 0.1284177 0.36444995 -0.20571427 -0.094992414 -0.093191706 -0.25089172 0.15071683 0.17892101 0.2594955 -0.09588118 0.1195917 0.17944661 -0.09316783 0.18476415 0.12716623 0.13942905 -0.044379115 0.12770592 0.04720352 0.047024027 0.6167701 0.40479675 0.19875306 -0.062914476 -0.24139823 -0.1288024 0.17432813 -0.14407633 -0.08022684 -0.004833313 -0.052542835 0.27023396 -0.39396244 0.024288366 -0.07194371 -0.34332418 -0.034473553 -0.2117432 0.08871668 0.19408314 -0.27331862 -0.25548625
何 -0.22099237 -0.15763621 0.12436486 0.06691821 -0.38655478 -0.2617941 0.09582298 -0.1892856 -0.060782865 -0.03619712 -0.09114097 -0.3508683 -0.11045156 0.08631093 -0.039946444 0.08379748 0.21238694 -0.23204347 -0.052001745 -0.060466662 -0.16432911 -0.23037119 -0.015570813 0.27531478 0.4383912 0.38005868 -0.120864086 0.16638215 0.8427111 0.1081862 -0.3123405 0.12419519 0.051789165 -0.15713993 0.16077596 -0.0009888477 -0.21104923 -0.00690463 -0.09295629 -0.31352845 0.001917972 -0.016898284 0.4863821 -0.01612664 -0.12365461 0.3257598 -0.024852604 -0.0019505259 0.024408195 -0.07942657
吾 -0.23506896 0.16907564 0.08817311 0.06674839 0.064807765 -0.38515618 -0.20314266 0.17072669 -0.17827125 -0.16371517 0.33646962 0.07978275 0.39228237 0.1643147 -0.6314866 0.090686396 0.1015512 -0.14469586 0.05278342 -0.08302905 0.0046761762 0.25838166 -0.29616782 -0.2791242 -0.16707787 -0.30691373 -0.25322264 -0.08288148 0.6182954 0.27254847 -0.21204059 -0.19122699 -0.04731792 -0.1749631 0.0388851 -0.13102227 0.17285118 0.16238233 -0.042212807 -0.06000722 0.21245141 0.04191196 -0.27128696 -0.19535264 0.3834514 -0.019960567 0.07308163 -0.34871987 -0.014877106 0.018788846
仁 -0.2206292 0.07557581 0.025007198 0.03683789 0.23606417 -0.28009203 0.035962928 0.11572721 0.12886405 -0.12138844 -0.3420697 -0.1420651 -0.04613886 -0.15160555 -0.13941805 0.113844775 0.29752126 -0.20912193 0.39128134 0.10548804 0.06877578 -0.0018736983 -0.11430095 0.1476326 0.105550855 0.032419723 0.24126346 0.013373232 0.42205447 0.13567267 -0.32392043 -0.08972154 -0.49847525 0.07456865 -0.102243446 0.19474582 0.17791764 0.093595855 0.12401688 -0.050015222 -0.14646535 0.16193718 -0.006377952 -0.16563094 0.00786551 -0.012828148 -0.3240988 0.38443416 0.3917342 -0.056358226
夫 -0.38337734 -0.037902135 -0.33345568 -0.31304383 0.011689301 -0.10432639 0.06320633 0.008166281 -0.20944862 0.22283332 0.3716304 0.33142522 0.22137858 0.15801348 -0.2777461 -0.12232754 -0.13272622 -0.2206584 0.12990704 -0.48333704 0.14938062 0.16825256 0.07147621 -0.086077616 -0.21076186 0.30101043 -0.11445913 -0.041205414 0.669468 0.006455313 -0.23203196 0.01951072 0.02066789 0.062299233 0.12562963 0.29121312 -0.16204718 0.38104013 -0.50648415 -0.31035995 -0.12204183 -0.16616613 -0.28538215 -0.23730356 0.25746962 0.3661703 0.13904764 0.15359414 -0.10021623 -0.00078930013
、 0.0725929 -0.1686128 0.048284885 0.3930116 -0.04050787 -0.11331615 0.2291609 -0.27952024 -0.108305156 -0.08271625 -0.18984094 -0.032060396 0.0698155 0.19910888 -0.098114446 0.11297109 0.12882212 0.6829066 0.48110747 0.057110853 -0.49843413 -0.04881356 0.36463678 -0.538751 0.34842193 0.2060972 -0.436976 0.55036205 0.7596729 -0.0890925 -0.0864116 0.11871991 0.24568695 0.39111543 -0.24807799 -0.08247497 -0.113391995 -0.6444634 0.039963704 -0.47249573 0.24623962 -0.06549151 -0.41764855 -0.16376941 0.38263544 -0.048736997 -0.28034782 0.10347467 0.3303443 -0.22916949
道 0.192951 0.049864285 0.33620152 -0.33933783 0.05838309 -0.09363709 0.008514696 -0.058253154 0.18581606 0.22510894 0.12370592 0.17027949 -0.14954424 -0.048385747 0.34363025 -0.013833272 -0.11351782 -0.010474154 0.15310705 0.23339319 -0.15289024 -0.10172086 0.027964378 0.37797573 -0.31969905 -0.04603345 0.2016733 -0.34519097 0.42582202 0.5243043 0.26140192 -0.035553075 0.31988952 -0.34152535 -0.2789721 -0.19188826 0.07722525 -0.052028667 0.0801819 0.10915832 -0.04676998 0.02659275 -0.14205493 0.118912406 0.14133713 0.040821828 -0.426948 0.13854823 0.12578167 0.07805344
焉 0.2956929 0.1968571 0.32700336 0.064428784 0.055319864 -0.078077964 -0.016932696 0.027554426 -0.43690404 0.07985996 0.13064592 -0.41110563 0.032733668 -0.09203128 -0.23435938 0.045120385 0.26651806 -0.01723064 0.68297744 -0.17949504 0.6972456 -0.2100142 -0.07435741 0.23594174 0.11181818 -0.10272051 -0.2051861 0.22340278 0.37282178 -0.16584231 0.0024540068 -0.033648435 -0.019819615 -0.18031394 -0.29904363 0.2832493 0.20191137 -0.17758742 -0.09456794 0.2540646 -0.30910814 0.043850113 -0.07986968 0.019501057 -0.24754763 0.33155766 0.044126965 0.416093 -0.21796152 -0.031399976
行 -0.22926262 -0.37081656 0.27289864 -0.2297552 0.6367242 -0.06959823 -0.1455457 -0.122010686 -0.23458804 -0.20126021 0.23792899 -0.28773326 -0.30083066 -0.10834503 0.16111848 -0.28086013 0.059377573 -0.06879726 0.5420683 -0.03600104 -0.15191992 -0.048999418 -0.16511273 -0.09530862 -0.1630576 -0.047952585 0.01603717 -0.1622505 0.29512647 0.16174361 -0.12452673 0.08878678 0.16325963 -0.013106621 -0.22388552 -0.035469703 0.055577017 -0.02800458 -0.067162625 0.284711 -0.0019760171 -0.0004941835 0.118431 0.28863078 -0.2624506 0.107443005 -0.18870394 0.02338164 0.17441696 0.41011608
谓 0.04774093 -0.21794794 -0.14283787 -0.30603462 -0.16125561 0.2696676 0.09873283 -0.19196096 0.18766749 -0.19240862 -0.11361988 -0.45810044 -0.23181748 0.08950709 0.071303815 0.25860173 0.07981244 -0.22043696 0.3685452 0.0888483 0.25841004 -0.071138114 0.008144663 0.41057828 0.16706327 0.23604965 -0.42882413 -0.10672602 0.6231454 -0.10778351 0.37578768 -0.34902278 -0.086451806 0.041846525 -0.32307371 0.2613225 0.16017857 0.00024051408 0.39285025 -0.050480034 0.0015323461 -0.22766884 0.4040946 -0.2352484 0.106284454 0.2931918 0.10871711 0.0038040038 0.054308027 -0.24686477
必 -0.25322074 -0.19445413 -0.34762245 0.47015533 0.106739074 -0.19946156 0.33009794 -0.20804776 0.0034328967 -0.47638085 0.2535957 0.10669092 -0.37185508 -0.31016067 -0.19316708 -0.06046561 -0.0438577 0.0832119 0.7942039 0.11306272 0.040927242 0.14997862 -0.06275639 0.023339259 0.101107046 0.5582414 0.18202716 0.17286913 0.23962587 -0.023281755 0.40336153 -0.020329 0.34938237 -0.20776999 -0.008951076 -0.001870318 0.12495833 0.014217954 -0.27071065 0.16833363 0.29013553 -0.13410985 -0.13674553 -0.086258136 -0.20923725 0.2170423 -0.05168807 -0.057586327 -0.03508354 -0.27996
礼 0.040742893 -0.069426134 0.3995382 0.1615343 0.14824648 0.2351092 -0.053884804 -0.15516505 0.08303739 0.19672981 0.007772484 0.08842349 0.1604941 -0.13624267 -0.11362444 -0.12813795 -0.023327155 0.009217022 0.3828815 -0.1422735 -0.2088098 -0.20091891 0.2836247 0.06267437 -0.06549571 0.07353048 -0.17075534 -0.48029214 0.39129126 0.4420637 -0.3256792 0.059068244 -0.06652682 -0.43290612 -0.2086114 0.16693923 -0.2289265 -0.47302243 0.382036 0.15851675 -0.62805766 -0.09812385 -0.24729827 -0.2736747 0.18753295 0.33921078 0.19662713 -0.4810777 0.324105 0.187791
孔 -0.21204285 0.45364067 -0.018876303 -0.6061699 0.12137644 0.14848986 0.20532902 0.06301938 0.085126184 0.029278493 0.37400866 -0.47482502 -0.45265895 0.5568699 -0.29875213 -0.42702937 -0.03457601 -0.2875237 0.5359555 -0.18979552 -0.018525487 0.52747315 -0.04148269 0.20761874 -0.21162814 -0.09102965 0.14986782 0.035281956 0.6473242 -0.37216878 -0.055949435 0.1457522 -0.088709235 -0.10478019 -0.082422145 -0.04441676 0.25868124 -0.111175396 0.45033875 -0.18915133 0.09344289 -0.10347749 0.36558375 0.20081377 0.19813442 0.1393073 0.5847868 0.089220114 -0.17539737 0.37619928
斯 -0.05564251 -0.095356844 -0.1883934 -0.10837705 -0.035018764 0.10722521 -0.04955616 -0.34215632 -0.25039828 -0.3691016 0.1719937 0.23347175 -0.25563902 0.05579713 0.1358165 0.3714195 0.23198026 -0.28372398 0.48614353 -0.19932191 0.07886439 -0.073153 -0.6010053 0.14627557 0.17424105 0.1691183 0.13221699 -0.16296504 0.4321367 0.18994762 -0.02481365 -0.3476044 -0.39880314 -0.08954593 0.012056274 0.21578269 0.08034888 0.20392111 0.012962998 -0.1535919 0.016414268 -0.21706097 0.5738243 -0.32301682 0.20851305 0.10941044 -0.13011952 0.070716955 0.20089315 0.35288575
三 0.08384269 -0.2585997 -0.49691343 0.027552873 0.07757048 -0.17498194 0.5030959 0.17262323 0.05799349 -0.34713218 -0.21235897 -0.21165948 -0.0813236 0.3583344 0.0659593 -0.06528584 -0.20911078 0.11866037 0.19690011 0.12387458 0.2040407 -0.13426577 0.14618552 -0.48618278 -0.50937265 -0.161618 0.16506329 -0.283846 0.5163146 0.32230917 -0.23493442 -0.23600516 0.17615175 0.20452066 -0.29679033 -0.07484634 0.13621487 0.048708 -0.13142362 0.09640423 -0.0035004392 0.08919638 -0.23860201 -0.03433666 0.30246922 0.6126869 -0.004324347 0.117373995 -0.2290521 0.14030299
能 -0.07700184 0.3331612 0.31092998 -0.10375283 -0.009476969 -0.084792495 -0.1694335 0.30681846 -0.09109086 -0.34880435 -0.057487845 -0.1804187 0.26706022 -0.12653036 -0.013358105 0.24989608 -0.2592063 -0.41069874 0.46265736 -0.26534212 0.14459568 -0.41075292 0.23270823 0.23738149 -0.12788203 -0.32146925 0.05096782 0.04453629 0.30902526 0.37715694 0.02440512 0.17467132 -0.24232498 -0.12968047 -0.012595286 0.022945933 -0.089017086 -0.005855271 -0.2078227 -0.14690012 -0.10540169 0.13156353 -0.31141314 0.15843873 -0.09725573 0.045523286 -0.08310126 0.26598597 0.14623268 -0.3400723
见 0.005387414 0.15934813 0.15663886 -0.102385394 -0.17066403 -0.14154041 -0.03327015 -0.027131151 0.11169387 0.04706981 0.416197 0.10209144 0.32326013 0.21948259 -0.21649332 -0.465079 -0.095816664 0.4909861 0.21991353 0.1878218 -0.14839682 -0.0314554 0.24869706 -0.079351954 -0.17333442 -0.014177253 0.37516588 -0.116177805 0.5221895 0.34446448 -0.45331982 0.2688946 -0.30911222 -0.17113449 -0.32838976 -0.21551102 0.57445633 0.32067418 0.07907389 -0.100727186 0.043906238 -0.06017943 0.24174394 -0.119921595 0.08339869 -0.12932816 0.48303875 0.52000636 0.3879449 -0.12043989
学 0.071916305 0.046679944 0.28723162 0.011508549 0.13050774 0.3985126 -0.346032 -0.027185466 0.21738839 0.13887036 -0.045131993 -0.53043854 -0.13358659 -0.10449198 -0.2875418 -0.12545781 -0.08661494 0.06828976 0.5214514 0.37807086 -0.05974382 -0.42969063 0.018016977 0.23949876 -0.23396073 0.4599483 0.059027337 -0.5541159 0.39838538 0.12770031 -0.27920356 -0.32103655 -0.23401888 -0.086297914 -0.112460695 0.21340224 -0.48878455 0.10592738 0.39828345 0.20873529 0.19697931 0.042182934 -0.15868706 0.0496815 0.35715532 0.0041533643 -0.04316806 0.44249263 -0.04512377 0.11246201
事 0.08436645 0.33174887 0.031053787 -0.33878955 0.14744851 0.18707223 -0.10410341 0.113866314 -0.06157269 0.42169592 0.20650968 -0.07039799 -0.0017855655 -0.0917371 -0.028522009 0.18210694 0.0003791955 0.20620231 0.62783504 -0.27291936 -0.62718296 -0.5008878 -0.3033973 -0.008219902 -0.2065849 0.07039331 0.30199862 -0.13954552 0.27341595 0.25803038 -0.045630734 0.34821355 0.43034244 0.18950787 0.3958225 0.059427734 0.37235636 -0.10506317 0.0085046645 0.03789475 0.088684596 0.06772984 0.14080018 0.0036316318 0.35435084 -0.38364065 -0.38903958 -0.37119436 0.14299774 -0.2783249
是 0.22962897 0.10816664 -0.075892255 -0.40182063 -0.518142 -0.3295299 -0.22331995 0.3582033 0.34928825 0.23021506 -0.10249606 0.009362466 -0.15020548 -0.12392344 -0.030946147 0.2560118 -0.22747825 -0.026188442 0.45042846 -0.041600008 0.026769908 -0.19882265 -0.21257119 0.19426204 0.03220059 0.015298912 0.035688695 -0.12111689 0.42129013 0.11330019 0.20913564 0.1589812 0.15605602 -0.41187346 -0.05416955 -0.36964127 0.49663606 0.20390111 -0.23499297 0.09682484 0.031726733 -0.07466041 0.4208872 -0.2579593 -0.48186508 0.38683897 -0.1613634 -0.22767578 -0.18943317 -0.10126919
哉 -0.05205559 -0.09572506 -0.1502117 -0.41907504 -0.0012649989 -0.4406538 -0.30386695 0.29023135 -0.20679592 0.24719995 -0.10437292 -0.27171385 0.3730976 -0.07427149 0.17862254 0.039846595 0.20204206 -0.16317725 0.19340834 0.024363521 -0.15811045 0.14060864 0.062949866 -0.091903776 -0.09003424 0.26352048 -0.022306306 0.025059802 0.819082 -0.27823955 0.10675236 0.11852519 0.14463115 -0.45198926 0.19332466 -0.46375775 -0.44798172 -0.3978645 -0.33615166 -0.032162298 0.40295428 0.005139792 0.16396114 -0.15513907 -0.07515251 -0.06406414 0.5001343 -0.2786431 -0.32387912 0.11493435
闻 -0.2995533 -0.16892676 0.25532803 -0.31987086 -0.32277143 0.2739214 -0.021154761 0.00648146 -0.03128219 -0.22328396 0.317387 -0.30317554 -0.04795213 0.54551864 -0.0012715156 0.06161231 0.1163818 -0.57327276 0.24613751 0.23868686 -0.3631593 0.08776529 -0.070059374 0.046755783 -0.23338746 0.097622596 0.5451315 -0.5700949 0.6105761 0.18604985 -0.2264526 -0.11220201 0.0064117154 0.04567653 -0.35021466 0.14708103 -0.021234104 -0.059314903 -0.1678474 -0.093892485 0.45835814 -0.06925879 -0.35467827 -0.08982346 0.040178552 -0.039872315 0.07858836 0.009218633 -0.40151295 -0.39134026
未 -0.32264394 0.22457434 0.25706002 -0.08199918 0.13547148 0.13923542 -0.17076299 0.16034321 0.11756113 -0.22211936 -0.11304405 -0.099132024 0.24382706 0.10782375 -0.35215792 -0.20108311 0.23683381 -0.35507444 0.22615652 0.16180886 0.15390502 -0.27480182 0.009817569 0.06428163 -0.36815917 -0.048004266 0.31665713 -0.23286062 0.43484542 0.28299254 -0.1059316 -0.13345018 0.22734302 -0.012467055 -0.20135598 -0.22416334 0.54869837 0.4124149 0.12905324 -0.19609351 0.2749772 0.033266753 -0.016260898 -0.13381855 -0.19742641 0.019174766 -0.036664784 0.12035893 -0.017966637 -0.11195543
公 -0.15780412 -0.43818605 -0.20033176 -0.42469093 -0.18345365 0.73056334 0.5191315 -0.050154656 0.16873808 -0.0022039828 0.54634506 -0.040407356 0.15844059 -0.41143703 -0.22648008 0.1843397 -0.2722609 -0.07269091 0.37774587 -0.10103737 -0.14921603 0.06867296 -0.07983554 0.66152513 -0.3248638 0.30946562 -0.20804922 0.58785623 0.56235 -0.033991948 0.14243561 0.46012142 -0.2006052 0.2901772 -0.07739383 0.09796449 0.19262433 -0.25170523 0.3258477 -0.18464999 -0.08281086 0.074276745 -0.24639504 0.19931526 0.10522046 0.33090115 0.011700341 -0.1369025 0.10823162 0.13995437
好 -0.09613009 0.44639736 -0.15030672 0.3550761 0.48449737 -0.08731427 -0.40916038 0.036015756 0.20091107 0.042494163 -0.077953644 -0.06388828 -0.29803276 -0.06592649 -0.17874777 0.0764977 0.08848516 -0.078270584 0.7715105 0.20176211 -0.22188728 -0.5392473 0.13176925 0.27519107 0.00040349242 0.3702528 0.23680578 -0.35032955 0.4149257 0.3511897 -0.2764896 0.20370586 -0.11264806 -0.10973586 -0.3482398 -0.41261566 -0.3671677 0.21961398 0.11883747 0.2282196 -0.24243414 -0.1814626 0.3630662 -0.24851592 0.29899746 -0.46332836 0.49257907 0.21388513 -0.19153686 -0.12443364
我 -0.28462166 -0.16357055 -0.0358857 -0.095128804 -0.2599477 -0.53072286 0.29501987 -0.059532512 0.267951 0.15953238 0.021500705 0.16177954 0.42244366 0.21606693 0.15730244 0.20684688 -0.18292072 -0.17044671 0.30173028 -0.2747221 0.06953864 -0.46453792 0.09352694 0.42892855 -0.118236475 -0.26855525 -0.4803147 -0.19183616 0.5714035 -0.084081545 -0.44012624 -0.032181367 0.16829 0.053362243 0.065597706 -0.17028262 0.21612348 -0.080985524 0.06671173 0.075248376 -0.2968296 0.3792943 0.077641964 -0.27406207 0.030490018 -0.1250789 0.150952 0.19081087 -0.057881325 -0.10789004
路 -0.15070513 0.2845469 0.19680385 -0.61745024 -0.23439245 0.1364213 0.29883605 0.37433904 -0.26141465 -0.65149635 0.113751255 -0.05586659 0.12924406 0.08302211 0.14212997 0.25945562 -0.41846567 -0.28195214 0.28749004 -0.45150876 0.0530267 0.05695746 -0.15276353 0.0485129 -0.36166355 -0.10813361 0.27633214 0.4243945 0.7724988 -0.102128156 -0.61673474 0.24185972 -0.4378898 0.20741534 0.0867332 -0.13259028 0.14331935 -0.05985491 0.06860803 0.16703731 -0.077716865 0.3508881 -0.2064395 0.20987092 0.01350712 0.07430606 -0.22027053 -0.21167271 0.013589478 0.019637352
在 -0.10308288 -0.2590333 0.32051203 0.23683707 0.28884396 0.25442398 0.3513466 0.033942122 0.099722676 -0.108537406 0.5351596 0.034282036 -0.12057972 -0.11596401 -0.024261048 0.14175974 0.13688949 0.5685257 0.44211778 -0.4548759 -0.1227522 0.2395449 -0.53502977 0.44737342 -0.14513826 0.45847788 0.05238087 -0.3411696 0.46698394 0.08537266 0.14157096 -0.340968 0.34094548 -0.34503224 0.29514614 -0.5801326 0.24719444 0.23167533 -0.23435488 -0.22413428 0.003268663 -0.465968 0.095509455 0.0692687 -0.31837833 0.19659923 -0.25215906 0.11591235 0.30181035 -0.122864306
已 -0.24990293 -0.2240602 -0.089686185 -0.14378144 -0.15350056 -0.022711746 0.04770067 0.06792679 0.04165304 -0.5586754 -0.04094606 -0.5318063 -0.30796117 0.14976294 0.5206002 0.11027316 0.32894522 -0.23540144 0.5945349 0.39303997 0.08327439 0.3202994 -0.122130424 -0.3682662 0.022680435 0.683119 -0.38640422 -0.24976107 0.5887429 -0.20887208 -0.46365142 -0.5995929 -0.3373606 -0.08469228 0.26698875 0.3991631 -0.05021064 0.28652617 -0.40332577 0.19359225 -0.007671638 -0.07672671 0.20174886 -0.475069 0.16866414 -0.1511584 -0.4109509 0.47559237 -0.22395992 0.22984134
得 -0.43116915 0.15363248 0.44979542 0.11907382 -0.30136374 0.051414162 -0.029434873 -0.2289196 0.012527768 -0.33746713 0.07350355 0.102383874 -0.0894495 -0.25555754 -0.3697444 -0.43567157 -0.061902322 -7.308013e-05 0.6397726 0.15074217 -0.30981526 0.23869917 -0.1892763 -0.050703812 0.2600472 -0.32739702 0.2245665 -0.20699193 0.28555122 0.23721616 -0.22219768 0.04054996 0.058780443 -0.27917543 -0.21809745 0.63130707 0.2000763 -0.033031147 -0.36519486 0.008690507 -0.21042381 -0.39080152 -0.034220826 0.015874205 0.16746129 -0.2789497 0.2550436 0.3833977 -0.11914435 -0.18623994
所 0.05444729 -0.07321013 0.20629486 0.28119454 -0.0034308508 -0.16386531 0.32330847 -0.018116519 0.040502653 0.11265409 -0.23200329 -0.09523399 0.24658054 0.05851494 -0.03681639 0.022273408 -0.52968824 0.026436614 0.44054604 0.1380407 0.375034 0.23211366 -0.36886388 0.02506178 -0.284658 -0.371479 -0.33742797 -0.14123707 0.39643967 0.31802914 0.3261223 -0.14430372 -0.26295412 -0.48933157 -0.09354248 0.12150002 0.17215627 0.11623066 -0.26607794 -0.10655282 -0.28755483 -0.19269162 0.13532113 -0.17186981 0.164562 0.065961234 0.29515404 -0.016267478 0.07083915 -0.29863894
民 -0.093167275 0.20519283 -0.03321616 0.016815608 0.48513964 0.44174147 -0.173911 -0.09658229 -0.02069245 0.44087273 -0.078302756 0.08148978 0.22251037 0.18407844 -0.26206252 0.31664234 -0.17846756 -0.08354877 0.52963555 0.570128 -0.6147928 0.2312715 0.56398 0.06493047 0.09347906 -0.10115558 -0.48687032 -0.010919973 0.26077822 0.5022179 0.47949934 -0.03565012 -0.048085473 -0.20412454 0.17419691 0.23242646 -0.18608297 0.1100673 -0.4634933 0.19206941 0.044573776 0.28454262 0.21148162 0.29591402 0.021945804 0.42537144 0.09117127 0.028288983 0.20301463 0.006752153
小 -0.18738692 0.1133781 -0.54131585 -0.24749413 0.14489095 0.26391962 -0.44892243 -0.19711447 0.069141895 0.64085877 0.32900652 0.18885764 0.22457834 -0.49878538 0.27929047 -0.085945986 0.38035315 -0.43965188 0.63274646 -0.35557926 0.30921182 -0.09386994 0.09448934 -0.24484752 0.31003216 0.014759638 -0.07349304 0.33026522 0.3297947 0.17155649 0.22248234 0.03756756 0.39454418 -0.2650452 -0.45347175 -0.11046947 -0.08828836 0.027296217 0.102588736 0.5013697 -0.13056803 -0.15451878 -0.09952362 0.2631306 0.20694472 -0.20372114 0.27418366 -0.0956109 -0.13439769 -0.060828637
天 0.16935478 -0.46338317 -0.23612776 -0.55989736 -0.12519479 -0.1703456 0.4930923 -0.028741717 0.16432425 0.40104556 0.15605855 0.4552716 0.49328902 -0.044096254 0.12621099 0.07425186 0.10537986 0.17801945 0.11244197 0.041890346 0.22712278 -0.123095706 0.47743508 0.14311464 0.2691113 -0.46434072 -0.17140464 0.26114607 0.49883965 0.35627055 0.4044156 -0.2967005 0.27527317 -0.25482252 0.6148061 0.2458374 0.019499974 -0.09540666 -0.17492133 -0.31218904 -0.12144961 -0.4720788 0.13092327 -0.09548566 0.6774699 -0.103779286 -0.20714597 0.43958142 -0.15694278 0.26176605
乐 -0.23268463 -0.16994481 -0.2118921 0.33073264 -0.22038585 0.101676196 0.0073522707 0.13105707 0.12349368 -0.03530008 -0.20675597 0.1544804 0.2240669 -0.056958538 0.041033495 0.23401102 0.3106213 -0.17382483 0.57793266 -0.24701974 -0.23982872 0.21955952 0.1178042 -0.29323456 -0.16760094 0.42233557 0.05513643 0.19623382 0.27573472 0.4477892 -0.43463475 -0.110951275 -0.67219496 -0.381327 -0.14956038 -0.095539324 -0.34948388 -0.33321702 0.17705652 -0.3051281 -0.007828616 0.006643149 -0.38135502 -0.16458195 -0.0005908807 0.055353455 0.41635495 -0.2415093 0.2898603 0.024831548
邦 -0.053262956 -0.32461235 0.10459973 -0.3388344 0.07307608 -0.092750035 0.073727086 -0.2600761 -0.14321692 -0.50018823 0.47851554 -0.14328744 0.12962274 -0.24917462 -0.14124447 0.35355514 -0.21296789 0.19553912 0.51648664 -0.34663513 -0.021316035 0.33921316 0.46361145 0.09991323 0.0072644353 -0.17292693 -0.13816002 -0.45166495 0.26218635 0.33817255 0.20334929 0.19189861 -0.016907629 -0.3476854 -0.6859452 -0.43994784 -0.069324516 0.076045655 0.022973303 -0.024387313 -0.37893534 0.08989915 -0.25337955 0.08513363 -0.14387129 -0.33319905 -0.20937718 -0.3958712 0.04857308 0.0023362315
亦 0.03705132 -0.17263694 0.37742475 -0.12738954 -0.15332554 -0.107418604 -0.11320353 0.19389223 -0.4264611 -0.047391105 -0.07505156 0.43288594 0.03679263 -0.2594534 0.32734987 0.08687362 0.19726427 0.1545648 0.14746428 -0.25954545 0.26639435 0.15258823 0.14841977 -0.13923097 0.14278392 -0.09325424 0.08982778 0.17538132 0.69071937 0.6330081 -0.025793154 -0.17763199 0.2835114 -0.22284766 0.024464436 0.4048418 0.15495157 -0.3465164 0.29881543 0.74277586 0.30937696 0.23612253 0.26637596 0.1428152 0.22880831 0.89619654 -0.16308326 -0.26699573 0.030110296 -0.00047702345
使 0.2821135 -0.0058943094 -0.16205865 -0.4219756 0.3456904 -0.10828352 -0.2102124 0.14831385 0.087633856 -0.12591064 -0.23934889 -0.5808801 0.07694964 0.14250642 0.38777238 0.44451144 -0.28530008 -0.13849036 0.3066458 0.05054277 -0.267823 -0.20039989 0.09550228 -0.17521839 0.008567402 0.34713635 -0.27499536 0.17719705 0.36082834 0.46126062 -0.52405906 0.15341191 0.025719488 -0.1502762 -0.34760058 -0.04409535 -0.008202262 0.10786519 -0.13179845 0.21513844 0.38754022 -0.17727149 -0.020670032 0.14895952 0.1086519 0.32228634 0.3660215 0.156885 0.22753906 -0.35407668
大 -0.24001278 0.18779698 -0.36665002 -0.15183458 -0.45366576 -0.01865184 0.09467047 -0.27960172 -0.014755412 0.42094326 0.3238281 0.11952099 0.1181394 0.019089682 0.32505953 -0.063516736 0.008381053 -0.17054226 0.163921 -0.02972408 -0.24059454 -0.31194854 -0.070750766 -0.47555634 -0.04993062 -0.13544469 -0.30857474 0.30472666 0.50980335 0.36533222 0.039720535 -0.27056167 0.2059526 -0.20303482 0.12684494 -0.3770629 0.3973441 -0.25210857 -0.30984712 0.20427212 -0.30249274 -0.21527232 -0.2457778 -0.055175304 -0.092678614 0.11362366 0.08895119 0.21097283 0.19267572 -0.2773218
下 0.24524106 -0.10984303 -0.21259041 -0.2140166 -0.108198054 -0.42480722 0.027476318 0.062005863 0.31606802 0.19486906 -0.1307517 0.06727568 -0.020911582 0.5546795 -0.09076097 0.14517836 -0.19943258 0.49874914 0.6295028 -0.23903768 -0.25407165 0.10889753 0.064472 -0.13459247 0.11477902 -0.14135252 -0.20449497 -0.35576454 0.1855834 0.18871987 0.6338306 -0.013591958 0.10725722 -0.56876194 0.20035554 -0.14897765 -0.15401389 0.05154017 0.08597675 -0.30694598 0.05550013 0.08546225 0.11035406 -0.24737372 0.19534144 0.4419628 -0.19378375 0.2498954 0.14069504 0.25206935
贡 0.0681013 0.154508 0.020613607 -0.6012064 0.28944245 0.26825136 0.38107398 0.15006801 -0.050846122 0.11068273 0.19857596 0.20046912 -0.16057241 -0.20549974 -0.15150909 0.29456338 0.082722865 -0.26021105 0.328852 -0.5572901 -0.17181742 -0.2769694 -0.12683225 -0.35434678 -0.16554417 0.33099648 -0.04591049 -0.020750333 1.0936737 -0.42491418 -0.008899069 0.0068929093 -0.4212773 -0.090931185 0.08264649 0.597189 0.083950445 -0.13569228 -0.023017671 -0.28291613 0.36930925 0.07488037 0.05891723 -0.46208653 -0.2058822 0.14461647 -0.052351583 -0.1885896 -0.03128663 -0.26552936
欲 -0.23218645 0.14012885 0.86610955 0.07204192 -0.2919492 -0.14500622 0.23015893 -0.06483035 0.50710666 0.22983652 0.29033643 0.08646753 0.06606067 0.20000464 0.023987252 -0.12517966 0.087492324 0.3737914 0.52108246 -0.2528809 0.07731284 0.20986553 -0.14460087 -0.25873625 0.36400267 0.03952192 -0.10716377 -0.1606099 0.44518 0.11202989 -0.070116565 0.17719792 0.025031865 -0.39475164 -0.21651453 -0.061167784 0.28385282 -0.1842503 -0.21100025 0.05746865 -0.31640145 -0.050037734 0.060649954 0.5421381 0.071208894 -0.1367024 -0.42069495 0.5075802 0.032213185 -0.0907072
诸 -0.23022372 -0.3126251 0.2980976 -0.20928419 -0.009938565 0.79640585 0.2233297 0.12498005 -0.5466515 -0.14858976 0.5739853 -0.693134 0.22968538 -0.115845636 0.118488066 0.18869802 0.39380354 -0.60257703 0.6889781 -0.462705 0.18643865 -0.2837014 -0.4302642 -0.26395798 -0.15004092 -0.5751184 -0.21674456 -0.4112103 0.44202068 -0.2726593 -0.08365944 0.30551487 0.31035355 -0.31828746 0.33501503 -0.033880938 -0.4550918 0.085855596 -0.56182176 -0.5482599 0.13317052 0.5066896 0.004412106 0.15560783 0.14907297 0.37066293 0.053912066 0.045019567 -0.020150213 0.31695628
从 -0.81927514 0.45615917 0.0017175411 -0.040041007 -0.19970068 -0.6427722 -0.15397331 0.0014423165 0.207189 0.032105178 0.054870203 -0.22701134 0.5573776 0.43459767 -0.03568496 -0.27426684 0.17824036 0.29598233 0.51063764 0.15113364 -0.19752865 0.055836346 0.15523344 0.30587 -0.13376482 0.38726768 -0.3395778 0.26965114 0.3482952 0.20273776 -0.14543617 0.057883132 0.1438542 0.08017273 0.22582778 -0.3462888 0.18809983 0.051657144 -0.13847862 0.87800264 0.292043 0.25136784 0.35802352 -0.3549106 -0.06778014 0.35207304 -0.24455823 0.08965007 -0.13863152 -0.64576834
文 -0.2672805 0.103504136 0.098487675 -0.49472085 -0.03715909 -0.20561296 0.006383815 -0.12240807 -0.027421884 -0.06457886 -0.10405914 -0.019224383 -0.12435484 -0.20650208 0.10553704 0.70719904 -0.4488312 0.030492624 0.29292768 0.1720861 -0.3533296 0.06819536 0.14779678 0.41515413 0.07462616 0.2642476 -0.32555875 -0.29919285 0.4769957 -0.03615446 -0.16412534 -0.37135106 0.7479491 0.22619879 0.57446295 0.4322842 -0.294115 -0.16288227 0.45272127 -0.58673805 -0.17598544 0.34096676 -0.20371139 0.031483572 0.30002686 0.058151882 0.25775477 -0.1241701 0.16983257 0.19191784
政 -0.6169476 -0.18105863 -0.47585875 -0.6170301 0.40114853 -0.61727566 -0.12977551 -0.62761354 0.120468564 0.2286924 -0.12863994 -0.3065623 -0.3622801 0.39631394 0.01135905 -0.07598695 -0.23739529 -0.027944751 0.27653983 -0.29449773 -0.13049442 0.23360917 0.39401373 0.47283792 -0.24850419 -0.0633802 0.005687885 0.09299362 0.5584437 0.25828356 -0.39624947 -0.049400423 -0.27320248 0.38043946 0.26323852 -0.23848286 0.27757904 0.08078735 -0.43007526 0.30870304 0.04769459 0.69897836 0.0037631071 -0.10137009 -0.37738758 0.4177106 0.018280221 -0.107708365 0.21141511 0.1247318
食 -0.0482311 0.18355033 -0.29653597 -0.088645905 0.008185374 0.092520595 -0.11259602 -0.24278787 -0.6736103 -0.67193305 -0.34730712 0.409814 -0.2218534 0.005475097 0.15681274 0.2289954 -0.013409784 -0.09273707 0.51118004 0.3614059 0.1048322 0.29431614 -0.08728727 -0.91920006 -0.20416331 -0.033893447 0.21853708 0.11411453 0.46430966 0.4233989 0.039872885 0.2061143 0.0019742702 -0.455816 0.13629104 0.15356855 0.023265932 -0.09441365 0.4415372 -0.77004045 -0.004669329 -0.058743484 0.36381197 0.41231 -0.434589 0.06256991 -0.56422627 0.1707072 -0.47064665 0.04825115
善 -0.22813028 0.37484184 -0.019939288 0.12464493 0.07467197 -0.20009008 -0.04407169 0.24994424 -0.15129186 0.1283308 0.109528966 -0.07892247 0.39021376 -0.13067111 -0.14942642 -0.19082505 0.08346899 0.30126062 0.43809462 0.042291507 -0.47512951 -0.065654375 -0.03021065 -0.1504343 -0.16893019 -0.124406226 -0.31006482 0.75145525 0.46745974 0.20828633 -0.25811154 0.39032713 -0.52542394 -0.08824949 -0.056717698 -0.09584544 0.03718087 0.49912617 -0.2917647 -0.48694107 -0.32808456 0.53907096 0.0111476295 0.36823955 0.25177217 -0.059042033 -0.35307473 -0.3491343 0.025413474 0.021188647
后 -0.22974767 0.22648263 -0.3725762 -0.39252457 -0.007901325 0.23491749 0.1916479 -0.33151644 -0.29736948 -0.15932798 0.14239703 0.014943957 -0.07101275 -0.29236156 -0.085076384 -0.46690455 -0.04172147 0.2602147 0.54446435 0.270506 -0.18942778 -0.27949807 0.0027254503 -0.15761948 0.1884386 -0.12781067 0.18890063 -0.11941681 0.19398561 0.24073133 -0.5165121 -0.11124304 -0.06436523 -0.041008025 0.41901872 -0.17388305 0.0059017437 -0.31398183 0.107116 -0.10407843 -0.39369202 -0.2742957 -0.16603947 0.28875673 -0.16881628 0.18334769 0.3152804 -0.24902126 -0.45691687 -0.50444734
德 -0.11295913 -0.036824163 0.11591264 -0.33972535 0.062350273 -0.2156956 -0.42117384 -0.20064251 0.11619709 -0.2785918 0.28739548 -0.009777002 -0.22368968 -0.19267577 0.24422416 -0.07471013 0.29003167 -0.16534635 0.4837598 -0.100217424 -0.04020381 -0.5742753 0.4639848 0.33294448 0.23910083 -0.18129899 -0.14185543 0.11016483 0.4589387 0.09833815 0.1674138 0.030428762 -0.084322244 0.026820175 -0.013990656 -0.14145051 0.0064485352 0.31232414 0.16692434 -0.49683562 0.07077859 -0.3156009 0.34027675 -0.26361814 0.074616246 -0.5220306 0.2761812 -0.38047755 0.6976228 0.014966887
求 -0.62609226 0.014314838 -0.065859266 -0.09412221 -0.17715454 0.04077097 0.264638 -0.18029694 -0.46792358 0.38354442 0.0045156656 -0.27875182 -0.2903679 0.477246 0.18846783 -0.08496756 0.19666462 -0.1707861 0.30866802 0.019829525 0.16814385 0.0075149024 -0.43254396 -0.47531143 0.050316393 0.019146252 -0.33655164 -0.29478627 0.61588305 0.24063675 0.43921822 0.4252731 0.13962074 -0.055957824 -0.3454873 -0.11947398 -0.12121495 -0.024057135 0.404468 0.8930488 0.06953881 0.18430676 -0.070121296 -0.34296864 -0.2770381 -0.24466184 -0.06738621 -0.26655215 -0.031112863 -0.30006206
对 -0.2130728 -0.12172255 -0.05908193 0.3220207 0.15325958 -0.23562083 0.06283238 -0.30092567 -0.00031785638 -0.004935364 0.108412795 -0.41034427 0.15832998 0.21541874 -0.3973169 -0.21338895 0.03077078 0.11213845 -0.00543973 0.09263047 0.050271016 0.053233568 0.15214723 0.15450804 -0.45177147 -0.22961964 0.09130359 -0.17502955 1.1890181 -0.34481168 -0.13601509 0.2775064 -0.38801944 -0.4303704 0.28157488 -0.23533218 0.1065204 -0.18614437 0.40137282 0.33949152 0.46770743 0.012240373 -0.4178004 0.12719825 0.030377414 0.08438081 0.56228477 -0.33192614 -0.2146185 -0.022790993
恶 -0.15401365 0.06665125 -0.33698002 0.26847598 0.5590222 -0.16670565 0.012174079 -0.17221686 -0.14892767 -0.11720018 0.41916034 -0.08352141 0.07581111 -0.18188 0.35908845 -0.07742501 0.32924008 0.08399338 0.41166213 -0.0633917 -0.09255866 0.4826783 0.24417877 -0.033372715 0.17394374 -0.2956619 0.4512687 0.1524829 0.43238947 0.47646677 0.48223826 0.41889626 0.1478569 -0.37809125 0.06498934 0.013200094 -0.38240176 0.3793875 0.27201697 -0.12842216 -0.11067006 0.034115493 0.47477263 -0.08408191 0.22575393 0.29571712 0.21410756 0.03124422 0.40599042 -0.41954052
信 0.17089239 0.89974666 0.5498859 -0.0051633096 0.50400996 -0.20265327 -0.07168175 -0.11280687 0.36135232 -0.27771157 -0.015791621 0.02818844 -0.19834994 0.4611499 -0.053404853 0.15135846 0.4867014 0.24462062 0.42769215 0.17144276 -0.3372882 -0.538362 -0.049327374 -0.15489317 -0.48656744 -0.22842552 -0.36803246 0.119500525 0.36126077 0.4841205 -0.36222428 -0.044567656 0.26056942 -0.42568225 0.28373134 -0.082080245 -0.09677185 -0.014890857 0.2282743 -0.011527964 -0.15811497 -0.1752549 -0.19343011 0.5928351 0.015785556 -0.034931507 0.0407994 -0.17952363 0.045969732 0.16723137
死 0.14068569 -0.46201327 -0.15567079 -0.3565578 0.16659743 -0.14975736 0.14946984 0.410023 0.20887977 0.069351755 -0.34813112 0.13227083 0.14418767 -0.47167006 -0.7725001 -0.15243062 0.12786424 0.28663713 0.65785784 0.26340866 -0.014937161 -0.048138082 0.36340186 0.4606585 0.23932575 -0.39314386 -0.20628856 -0.37574804 0.29416895 0.11704063 -0.40844342 0.20088299 -0.3610823 0.22766857 0.17654815 -0.024929851 0.19432539 -0.12129306 -0.12525384 0.47571206 -0.26366052 -0.3272841 0.017430771 0.09680548 0.3393484 -0.3535084 -0.35287082 0.45014954 0.048647784 -0.045577906
然 -0.17409822 0.2526004 -0.23426816 -0.25971517 0.36456853 0.2083246 0.446494 0.028170593 -0.17236117 -0.13494366 0.26423815 0.35638282 0.4496351 -0.51558435 -0.3348054 0.017349303 0.37145415 0.17636189 0.08948644 -0.20614856 -0.393409 0.05067872 0.13809814 0.09074122 0.48539716 -0.07438087 0.00014445736 0.00695918 0.71481407 0.21060394 -0.51954174 0.2735362 0.20177676 0.0032257282 -0.01448794 -0.18104097 0.5393509 -0.26726595 -0.19120587 0.1368904 -0.5852787 -0.47534394 -0.19712846 0.2492135 -0.095659636 0.3092612 0.012349491 -0.18144625 -0.42159003 -0.30068284
《 -0.5285072 -0.026886838 -0.16674602 0.14360926 -0.6583886 0.16153014 0.43248138 -0.47129515 0.098674126 -0.5481913 -0.5660216 -0.00066144415 -0.27233094 0.06830332 -0.031819683 0.040553067 -0.59295666 -0.05493418 0.60005873 -0.18671702 -0.15464664 0.26575997 0.7099566 -0.10576365 -0.005187316 0.538873 0.22546744 -0.5204766 0.65356743 -0.058607627 -0.06536648 -0.6970047 -0.2577921 -0.1867574 -0.17759378 0.36715415 -0.2847563 -0.5441937 0.4442827 0.049602963 0.26932365 -0.015942238 -0.59917533 -0.24861549 0.07997758 -0.31009272 0.056350704 -0.31025293 0.017958649 -0.20757236
》 0.08678673 -0.09370657 0.63470626 0.07425396 -0.7342531 0.2398577 0.44847757 -0.8106816 0.15460068 -0.56030875 -0.78943956 -0.6457418 0.11120797 0.22161676 -0.28642553 -0.012751282 0.072805464 -0.27950767 0.5995751 -0.1263645 -0.32852936 -0.089660116 0.43730983 -0.38154066 -0.313246 0.17458224 -0.24365075 -0.37779173 0.5693873 -0.030757768 -0.060239427 -0.81693715 -0.14992297 -0.401015 0.31191045 0.119752355 0.015668925 -0.37635496 0.26479733 -0.15755613 0.22189432 -0.1100267 -0.17365165 -0.083043784 0.017330982 0.08531296 0.14646189 -0.23216538 0.060576603 -0.13321587
由 -0.504957 -0.39014778 -0.40266454 0.037907083 0.49259415 0.124507554 0.23841104 0.5053922 -0.5009176 -0.06794398 -0.2734924 0.002662476 -0.291921 0.26147673 0.10943615 0.22085167 0.089992605 -0.20523095 0.17115824 0.049343273 -0.0087657655 0.016298905 -0.10335584 0.10747545 0.32314608 -0.027886137 0.06951191 -0.010924913 0.6513765 0.21425603 0.006146044 0.18034798 -0.3353187 -0.18178047 -0.16185938 -0.38910437 -0.029018512 0.2284121 0.074502945 -0.0300324 0.21635883 0.15848982 -0.46104872 -0.48216835 -0.06972005 -0.028665047 0.24523863 -0.052026942 -0.20952757 0.21446787
仲 -0.31071153 0.23119636 0.5774269 -0.4582384 0.06810049 0.2915042 0.36444914 -0.3938185 -0.58237493 0.2704692 -0.07735896 0.010325739 0.028596822 0.03643683 -0.40390292 0.65255034 0.29567656 0.08689676 0.15488099 -0.06039541 0.6143345 -0.2082114 -0.2513985 -0.6544592 0.24299966 0.14738011 -0.65859795 0.15470544 0.89482915 0.14017019 -0.12860262 0.5035182 -0.40493125 0.20106809 -0.04264324 -0.26934397 0.5577748 -0.30524048 0.23435356 -0.08043472 -0.28808683 -0.30180666 -0.25829732 0.0012967505 -0.2764108 0.026277397 -0.059750937 0.065156214 0.15845144 -0.23657034
非 -0.4303587 -0.25019345 0.106105044 0.38124967 0.22818568 0.21099436 0.20553273 0.32630238 -0.033166997 -0.04023752 0.46715182 0.14036264 -0.3518398 -0.45306656 -0.23927349 -0.06978664 0.057377532 -0.14832905 0.18521227 0.028561622 -0.3270388 -0.29921728 -0.69645286 0.4158973 -0.19918753 0.030154053 -0.0036982198 -0.4277716 0.8106024 0.29536998 0.46808624 -0.029116087 0.15646486 -0.4191494 -0.3388002 0.3145794 -0.18024206 -0.2741627 0.14600645 -0.055904217 -0.09078572 0.10287098 -0.03886249 0.024829118 -0.26799983 -0.51995957 -0.12209066 -0.3359424 -0.061351262 0.021237802
出 -0.012544947 0.15673147 -0.49092686 -0.25380272 -0.23724385 -0.12527163 0.31693116 -0.1578363 0.10760465 0.3492562 0.40062806 0.27529487 -0.08668829 0.18262367 -0.0408744 0.4241712 0.22121617 -0.18544504 0.4342181 -0.25573766 0.12356209 0.17886098 0.37502962 -0.08167969 -0.53499836 -0.15137373 -0.0019208394 -0.053075608 0.34282526 0.22717512 -0.46593955 -0.31440893 0.13487925 0.45189643 -0.2174838 0.08688018 0.11637428 0.122375235 0.06086411 -0.21900962 0.0317782 0.4927259 -0.2819825 -0.47959697 -0.117571875 -0.12709534 -0.098876216 0.17471825 -0.40132192 0.024896597
过 -0.028277373 0.40543696 0.027761985 -0.12263536 -0.14628181 -0.31496823 0.13190447 0.37978798 -0.08311188 0.07460524 0.013389682 -0.14568615 -0.4398714 -0.6497984 0.030415133 -0.15291964 0.14156692 0.57015014 0.58101016 0.18197815 -0.119633354 0.73720914 -0.56006026 0.29848146 0.02479064 0.06883571 -0.2846254 -0.29419118 0.21325763 0.13932928 0.060018666 0.002603472 0.03990209 -0.36806443 -0.39925483 0.0622441 0.28517893 0.11239512 -0.11307943 0.12174834 -0.074483275 -0.21988817 -0.22286513 -0.10326419 -0.2845642 -0.2136998 0.45849752 -0.19487838 0.31551257 0.39263302
一 -0.13444285 -0.46286836 -0.23739424 -0.19829209 -0.05457158 0.15310888 -0.04477873 0.33879793 0.034613274 -0.6601074 -0.018184476 -0.08102964 0.40208045 -0.23512948 -0.45567873 0.15449241 0.42699623 -0.595259 0.4530987 -0.21602514 0.35843262 0.16987498 0.25205275 -0.5553828 -0.31193036 0.43732926 0.41221538 0.03678591 0.36946782 0.47540033 0.5277189 -0.10224516 0.11626307 -0.29715264 -0.10587707 0.08388067 0.13205521 -0.51666003 -0.12127574 0.01686216 0.10105075 0.1345486 -0.098036766 -0.21164298 -0.2081832 -0.30605343 0.24862565 -0.43377274 -0.16086696 0.39252135
虽 0.12995411 0.24188218 0.33731347 -0.13634196 0.46958223 -0.79696405 -0.37015155 -0.28673097 0.45045444 -0.119637236 -0.17266911 0.026432045 -0.29245496 0.5065984 -0.45730948 -0.25459173 0.20282711 0.235362 0.5190254 0.14867355 0.11469392 0.6399374 0.52281624 -0.28485 -0.32523012 0.07246536 0.19907211 0.24519017 0.35732988 0.53539854 0.22271909 0.14484112 0.27941483 -0.43693197 0.22868688 -0.23959887 -0.059777815 -0.20341893 0.082007624 -0.06724842 0.05185594 0.09353837 -0.36196065 0.7467075 -0.5413418 -0.56214035 -0.03897382 0.04752883 -0.10878271 -0.45910686
足 0.16757329 -0.101101756 -0.17428732 0.009052114 0.3715558 -0.3414447 -0.2658723 0.16900787 -0.5470207 0.08682936 -0.74877 0.09975346 -0.34468088 0.12089326 0.17485243 0.25954336 -0.4159459 0.18673126 0.2866112 -0.04577085 0.21858935 -0.12285358 -0.06267095 -0.27001595 0.09574218 -0.6914522 -0.73099023 0.35661867 0.595995 0.5884672 -0.115911596 -0.32702646 0.41389292 -0.38420582 0.10162541 0.7534445 0.15319315 0.19381198 0.4669326 -0.32019684 -0.045305505 0.39840266 0.24393173 -0.37892115 -0.21405178 0.035849214 0.15323447 -0.09745873 0.36789387 0.29140353
居 -0.08883159 0.11987441 0.20287247 -0.05949786 0.29990983 -0.1854012 0.09785795 -0.71780545 0.038180325 -0.16639559 0.034935247 0.26885304 -0.24864684 -0.13126123 -0.28292167 0.1304226 0.45580736 -0.030578446 0.63561547 0.0053829825 0.1236515 0.36808324 -0.3928388 -0.7493917 -0.090232834 -0.18983896 -0.57419205 -0.31853732 0.37444827 0.2954639 0.26203862 -0.28862265 -0.025429375 0.046975996 -0.42500913 0.119254336 0.12426176 0.38809833 0.32428822 -0.58608115 -0.39635164 0.041428577 0.23620568 0.745282 -0.16265629 -0.07769479 -0.2659998 -0.47271886 -0.23579289 0.0926864
尔 0.29392332 -0.34564364 0.4997279 -0.08165481 -0.36567777 -0.31190303 0.26334313 -0.18562044 0.11803987 0.17774642 -0.21865898 -0.62352186 0.28772646 0.30677193 -0.21494049 -0.03277031 0.13399108 0.18077308 0.59217954 -0.052881435 0.6416261 -0.08146148 -0.3860589 0.37070715 0.17612135 0.3747056 -0.46897346 0.069955334 0.38627347 -0.30961323 -0.025248222 -0.03638538 0.31669402 -0.58708715 0.36001644 -0.024621205 0.52409166 -0.010824325 -0.43986318 0.36426875 0.1695336 0.016402163 0.18851091 -0.26715484 0.28623825 -0.11645165 0.18846503 -0.33856034 -0.50937724 0.17329258
夏 -0.2128141 0.08641818 0.28522992 -0.63630265 -0.42488456 0.29703268 -0.1304088 0.18288712 -0.043307614 0.06267456 -0.38625014 -0.3024179 0.08080925 0.16023788 -0.48748526 0.46298844 0.14928369 -0.026909713 0.03895302 0.017452316 -0.37847212 0.085932225 0.1455664 -0.1442102 0.27171117 -0.4563634 0.25600898 0.0640676 0.88450104 -0.18987341 -0.5004712 -0.4851125 0.37155065 0.19194649 -0.25053576 -0.22105022 -0.4750716 0.095605105 0.19275078 0.44784886 0.17573352 -0.046234224 -0.20986366 0.015654905 -0.17194813 0.072973974 0.2891296 -0.27144194 0.19027029 0.22845623
父 -0.41849062 0.07028508 -0.27708924 -0.5053337 -0.18150638 -0.3512843 -0.16060032 -0.1102048 0.36410293 -0.7310181 0.17598264 0.02767986 0.2560162 0.066659376 -0.2388847 0.23990965 -0.6120451 -0.27913737 0.53651386 -0.44123143 -0.315172 -0.78600705 -0.11737698 0.06655833 0.69695646 0.04969754 -0.07437198 -0.24660052 0.56229955 0.120537244 0.29046708 -0.543923 -0.16451077 0.20752439 -0.24830821 -0.06527862 0.14684589 0.044027504 0.13147123 0.29080307 0.10804397 -0.068923205 -0.09374728 0.66443133 -0.08126178 0.11263853 -0.24667552 -0.56878763 -0.1929995 0.028619818
及 0.006386404 -0.26576662 0.18686955 -0.23492795 -0.12673113 0.20535769 -0.58555716 -0.28123006 0.21476394 -0.18844043 -0.05486291 0.30953592 -0.13978666 -0.36079904 0.037841465 0.056395676 -0.14053014 0.13131127 0.41956642 -0.0036332184 -0.2556987 0.22494194 -0.10846304 -0.23829955 0.15673178 -0.15868655 0.26590255 0.77560043 0.6015622 0.74627066 -0.15621378 0.079511814 0.26941183 -0.22979999 -0.41282672 0.10730291 -0.20210308 0.6033404 0.52678967 0.5614563 -0.0612209 -0.20360343 0.40932417 -0.47709015 0.56856513 -0.38261935 0.67265296 0.26376146 -0.8632542 -0.18346047
己 -0.46433425 0.009554836 0.42765155 0.3579334 -0.28055647 -0.09273734 -0.1630312 0.43112087 -0.069209926 -0.29070044 -0.07535367 -0.07387561 0.1645968 -0.21070516 0.18758681 -0.48346633 0.4732967 -0.43152893 0.5250712 0.08816224 0.18936805 0.028781146 0.37798005 -0.29700422 0.15641974 0.09897663 -0.30001917 0.6404982 0.44203192 0.42500755 -0.014494068 0.10282997 0.15093729 -0.13668784 -0.44805273 -0.22308536 0.06077459 -0.044220462 0.54196113 0.3278391 -0.31873763 0.30630243 0.14882417 -0.092992336 -0.270134 -0.19896136 -0.15948954 -0.14508933 0.26114655 0.42025843
予 0.15946625 -0.10360647 -0.23110937 -0.079021186 -0.40803048 -0.03119529 0.22212832 0.3695083 0.26324603 -0.16366668 -0.5666267 0.066106714 0.2994554 0.015200105 -0.5737572 0.31024417 -0.11068721 -0.23340723 0.019332131 -0.06581053 0.09569018 0.45174897 0.25180376 0.4099346 0.46463346 -0.06070702 -0.19256711 0.024334887 0.6130706 0.36222056 -0.4177635 -0.5107069 0.40606588 -0.33815873 -0.03110355 -0.039768625 -0.12588592 0.108338825 -0.15238906 -0.23566012 0.044651505 -0.4999775 0.47936887 0.20980878 0.21211576 -0.51961267 0.35660535 -0.5005951 -0.12598231 0.11345897
色 0.09436548 0.3839354 -0.1628726 0.74465996 0.2417512 0.24632852 0.5304339 0.10395785 0.24098903 -0.63181674 -0.4936504 -0.08770612 -0.37204707 -0.03832244 0.37616202 0.71739626 -0.2974832 -0.040319804 0.72778076 0.19912395 0.14032845 -0.17931731 0.7788902 0.34489563 0.597836 -0.19444096 0.12222229 0.2830657 0.25420594 0.23187311 0.023242434 -0.016835878 -0.2685087 -0.30256087 -0.24382694 0.2991981 0.41585878 0.3585346 0.27570617 -0.3575314 0.46095648 -0.016867317 -0.16905077 -0.57906145 -0.04995476 -0.10384821 0.27946165 -0.13839294 -0.33964315 0.36491603
友 -0.27658555 0.13294123 0.1510373 0.35475415 -0.102006234 -0.22560118 0.6597924 0.4795097 0.28830212 -0.08672174 -0.39424443 0.49274158 0.12445955 1.0596697 -0.060415927 0.1825689 0.4189583 0.15357736 0.7536677 0.05807687 -0.15136038 -0.42501867 -0.15052408 0.020067625 -0.062723465 -0.086543165 -0.3512138 -0.31300932 0.3785033 0.15212072 -0.31354353 0.13462302 -0.5043912 -0.04502112 -0.4230356 -0.28312725 0.09173039 0.27766103 -0.35178155 -0.44808146 0.59263843 0.25703225 0.0014859585 -0.1821122 -0.03332998 0.17365374 -0.28352684 -0.4302001 0.1630056 0.32317242
成 -0.6731832 -0.124670185 0.1491417 -0.32920855 0.22389567 -0.13319941 -0.14906693 0.1523491 0.40938556 -0.047528386 0.35259023 -0.09561051 0.24421933 -0.121022314 0.14304121 0.3224177 0.00781226 -0.06278727 0.37653977 0.13169254 0.3178052 -0.43391755 -0.008800137 -0.021767009 -0.2744031 0.2560696 0.23767735 0.5787576 0.32250547 0.2881192 0.32741833 0.0214115 0.19981739 0.24927706 0.25740558 0.012971325 -0.23687795 0.12830581 0.56269693 -0.39235994 -0.16486101 -0.14838628 0.0053352662 0.06521718 -0.119110055 0.50581163 -0.4693189 0.279973 -0.08419812 -0.03946906
远 -0.05636988 -0.09771896 -0.2086165 -0.24550356 0.65287876 -0.06982416 0.021531727 -0.24785322 -0.005902125 0.4471896 0.3409593 -0.029534847 0.18374093 0.22096501 0.11814222 0.6276614 -0.14144014 -0.34615302 0.6551744 0.01071117 0.03708377 0.22805052 0.15584393 -0.22147995 -0.31886384 -0.08805317 0.50009906 0.2979163 0.22338517 0.23641506 -0.1386926 -0.1226316 -0.03410466 0.2780384 0.2077188 0.5676077 -0.14156033 0.48933482 -0.3229692 0.22060415 0.4076764 -0.8072731 0.39733338 -0.22881262 -0.06813861 0.22126734 -0.6231745 0.28759748 -0.14710422 -0.1868731
上 -0.113597326 0.20857878 0.1841583 -0.09675114 0.24087475 0.55021095 -0.5076129 -0.17642023 0.025594985 -0.17247109 0.6143354 0.47552505 -0.21490347 0.20472676 0.21062621 -0.357259 0.15001233 0.2633026 0.326503 -0.0077386773 0.06219195 0.048882533 0.012975751 0.012428317 0.14883777 0.37518126 -0.12098671 0.09807138 0.5359292 0.33379477 0.45304713 -0.31446806 0.16016711 -0.43594155 0.41947302 -0.5306659 -0.43032053 -0.014710024 0.79569685 0.35139096 0.22992727 -0.052817967 0.13050675 -0.4218437 0.57758254 -0.4038757 0.29663834 -0.63994074 -0.100639895 0.079856895
立 0.031064782 -0.34255546 0.4321647 -0.11583065 -0.038174123 0.38153207 0.2729886 0.58917266 -0.047193225 -0.12868957 -0.23240802 -0.19958468 0.20700108 0.67929256 0.5889649 -0.53068733 -0.52742124 0.1371001 0.78744745 0.5668996 0.41704223 0.36753887 0.58750874 0.5055039 -0.1972989 0.3957097 -0.13733426 -0.45525998 0.051234674 0.57208496 -0.21367557 -0.087453775 0.24608654 0.036906563 -0.2813315 0.0077243336 0.46713018 -0.045011878 0.17051074 -0.62595695 0.060935088 -0.024040252 0.4529695 0.05657061 -0.075045325 -0.30802104 0.12490887 0.22704567 0.10934724 0.69070435
今 0.13478452 0.14737743 -0.0239066 -0.2933932 0.19479778 -0.09442573 0.19120108 0.3930656 -0.31633782 -0.114364445 -0.020209115 0.060232237 0.44560805 0.33980784 0.26131994 -0.1330546 0.0007532906 -0.22966619 0.6890979 0.22580208 -0.6691522 0.1701086 -0.14699888 -0.23670225 0.14468206 0.33910143 0.5720879 -0.75517225 0.3423705 0.027527867 0.26598108 0.23229292 0.20589304 -0.050616696 0.37575448 -0.6919519 -0.6032223 0.58953166 -0.46777937 0.17074108 -0.1883864 0.20917915 0.34997782 -0.5359107 -0.48895836 0.23886754 0.11657616 -0.15568507 0.21247256 -0.013065565
张 0.12706126 0.110339336 -0.11319603 -0.50581235 0.60628057 0.3945673 0.57343405 0.1610151 0.24236666 0.09389578 0.13415895 0.13230763 -0.1868844 0.27863047 -0.06007717 0.06551395 0.23880684 -0.55411756 0.3002924 -0.18472667 -0.008059663 0.068868645 0.109326825 -0.25941285 0.6162091 0.17985743 -0.3839917 0.12612568 1.0392789 -0.5424222 -0.12317966 -0.83194906 -0.23727082 -0.2921146 -0.049641553 0.033025894 -0.40792534 -0.03766913 -0.15456136 -0.6992014 0.38384888 0.8120839 0.37866506 0.18749341 0.09175805 -0.32812357 -0.36103097 0.25653416 0.14179634 -0.30297565
中 0.18719031 -0.2774939 0.5229524 -0.40159282 -0.085746795 0.13276726 -0.41457796 0.1322126 0.19066608 0.0028945536 0.39997444 0.09220078 0.113181464 -0.083722666 -0.0069494 -0.21043068 -0.21125764 -0.15524 0.8326787 0.010871017 0.09384807 0.4826549 0.39917853 -0.046469007 0.50930583 -0.27742094 0.13445109 -0.18908535 0.2878162 0.10572407 -0.29934654 -0.2673925 -0.30230704 0.002116289 0.29776892 -0.35606748 0.1258079 0.04851066 -0.5271762 -0.01022152 0.5549146 0.052905917 0.08105279 0.083253905 -0.12900807 -0.47163728 0.109029934 -0.55969685 0.262269 -0.22355297
季 -0.25383785 -0.11367095 0.01730474 -0.5956017 -0.11073406 -0.28137338 0.30154446 -0.2029119 0.05992328 -0.028839612 -0.5103013 0.11019555 -0.56920415 -0.04478483 -0.16677797 0.6305005 -0.33911905 -0.045407612 0.6006132 0.29688388 -0.38680857 0.39315042 0.15576808 -0.19778544 0.015602052 -0.04185241 0.08420959 0.08158789 0.38909507 -0.10748588 -0.6645919 0.656572 -0.105529755 0.24667265 0.19088715 -0.41168573 -0.28722975 -0.3908832 0.33784276 -0.17339267 -0.13781762 -0.45118773 -0.16969106 -0.15751718 0.088400826 -0.16361381 0.21276158 -0.1231146 0.30235502 0.31428227
臣 -0.29838222 0.036827035 -0.1830941 -0.39389148 -0.8402522 -0.17678672 0.023444945 0.22152054 -0.45989117 -0.058674317 0.43589583 -0.12367097 0.07313879 -0.12961371 -0.25945997 0.011288205 -0.8259962 0.07205814 0.49049848 0.09073596 -0.34238055 -0.85962754 0.07586297 -0.27786356 0.3940322 0.37355947 -0.04594834 0.29797626 0.35768735 0.4785396 0.008204371 -0.48939145 0.18007475 -0.08604339 -0.1628248 0.29648146 -0.25897866 -0.22230263 -0.33135563 0.3745263 0.021410625 -0.45185164 0.09134601 0.41526005 0.6895352 -0.14549953 -0.23933312 0.31514335 0.16470687 0.015257617
贤 -0.5724523 0.4792374 -0.06304854 0.13681726 0.27879173 0.36638188 0.13235416 0.23819517 -0.5217002 -0.49273142 -0.24381581 0.54525864 0.21998237 0.09338239 -0.22768609 -0.13563511 0.050760414 -0.35687712 0.29025593 -0.13306993 -0.4370905 -0.15789458 0.22731204 0.08242262 0.23676778 -0.18070775 -0.3429114 -0.43242383 0.6626803 0.084657535 0.31554046 0.087781616 -0.0951628 -0.15918295 -0.15865043 -0.15078224 -0.1272874 -0.23496675 -0.23197654 -0.05839088 0.062975176 0.1757976 -0.16086338 -0.583311 -0.13982108 -0.06369813 0.25628528 0.49134308 0.058935337 -0.065184645
思 0.20166658 0.40659633 0.029773394 0.041112877 0.37005165 0.32488412 0.75763977 -0.27288148 0.4288416 0.19231099 0.16447686 0.34711328 0.079915665 -0.64834875 -0.6770597 -0.25415164 0.14375523 -0.6134244 0.7857393 0.33731183 -0.005753825 -0.23584345 0.20965742 -0.22746234 0.14671996 -0.12203413 -0.13675323 0.120586075 0.27123937 0.06576006 -0.3814305 -0.06523988 -0.038729206 0.27656433 0.29364723 -0.06159558 0.11404444 -0.1827218 -0.030110998 0.045100227 0.12348348 -0.08823369 0.123977885 -0.14953205 -0.104180284 -0.19482777 -0.06257351 -0.18694103 -0.89799017 0.39785329
齐 -0.114024684 -0.28151384 -0.4178292 -0.23795208 -0.31070966 0.2523714 0.49154043 -0.33775875 -0.22610746 -0.6666219 0.6918913 -0.069534875 -0.33107486 -0.083734505 -0.58658254 0.07264323 0.029930064 0.16915056 0.27207765 -0.04264784 -0.23867454 0.41751897 0.52661705 -0.09480307 0.30870366 -0.06274416 0.33331084 0.27874425 0.48242474 0.24633624 0.064018056 -0.044784453 0.2636933 -0.1782014 -0.12245272 -0.4228196 0.47511503 -0.12645294 0.26036876 -0.6267656 0.03313662 0.3175085 0.0006341203 -0.104430914 0.010746146 0.019412993 0.20204493 -0.33956146 0.6158209 0.1367667
义 -0.16032308 0.7036177 0.0012582968 0.27248815 0.06997951 0.056137275 -0.40206596 0.2921722 -0.031331256 0.19834843 0.19003452 -0.2626625 -0.36211067 -0.73605955 -0.80960965 0.23708904 -0.26917636 0.15504536 0.79531807 0.25299168 -0.09097182 0.04689741 -0.6007377 -0.12413536 0.0674237 0.1504233 0.24689414 0.012073893 0.15825185 0.37041086 -0.42871007 0.12860836 0.1440939 0.08551846 -0.36631656 -0.18251014 0.5321318 0.17156875 0.0824325 0.5316234 -0.040633783 -0.20766728 0.10518287 -0.18964845 0.5103251 0.033385426 0.2822789 -0.5289593 0.25155196 0.3303534
正 -0.11748041 -0.4437622 0.15608464 -0.4842847 0.14946178 0.13909987 0.11313251 -0.09754652 -0.43529484 -0.05778967 -0.21780214 -0.41413966 -0.41720852 -0.7577686 0.2895062 0.10163477 0.22249891 0.5526156 0.2985094 -0.036925804 0.74651015 0.32345232 -0.22444199 -0.2791333 -0.17445728 -0.48136723 0.19789095 0.27186456 0.43124202 0.43009883 -0.4468675 -0.124909006 -0.0109133 -0.07847227 -0.09645669 0.31999838 -0.05980243 -0.67323905 -0.08002832 -0.73347956 -0.16973482 0.07109396 0.21009809 -0.34104702 -0.5021765 -0.3603761 0.24160288 -0.093106 -0.36263174 -0.03083021
命 0.38952935 -0.404253 -0.12579952 -0.57940584 0.07263116 -0.26206136 0.07865728 -0.04664066 -0.206424 0.2751626 0.33722448 0.1282876 -0.28897622 0.28299314 -0.3661113 -0.7162727 0.012450914 0.74957645 0.17743269 0.14754093 -0.240791 0.22894418 0.20827109 -0.26210105 -0.15733133 0.045891646 -0.14774804 0.2651949 0.56829786 0.588643 0.18408504 -0.40065864 -0.26462817 -0.09476739 0.18776248 0.29940265 0.64505476 0.02013047 -0.11197933 0.37009105 -0.14383836 -0.28770667 -0.23385563 -0.18518226 0.19712234 -0.4235766 0.31529102 -0.0619489 -0.008966057 0.55044514
曾 -0.4381729 -0.11641525 -0.0038762335 -0.93905413 0.34891042 0.030999448 -0.24746388 0.3392349 0.20851217 -0.67448133 0.20994094 0.05069636 0.124255694 0.6281147 -0.32674897 0.7385418 0.35011366 0.29214802 0.58711094 0.07973728 -0.0111178225 0.07203496 -0.23477542 -0.14431521 0.09260634 0.2814073 0.47726506 0.09854164 0.764918 -0.23136981 0.38366285 -0.1668937 -0.025060037 0.34435907 -0.563488 0.33197817 0.0104486765 -0.0666492 0.034431305 0.23591602 -0.2383005 -0.26396552 0.12724473 0.37512305 -0.4310943 -0.30890477 0.067026824 -0.24318533 -0.081091195 0.27666348
伯 -0.02399081 -0.0212567 0.21876426 -0.8630527 0.5697861 0.043031212 -0.19989723 -0.4770061 0.08709133 -0.39286408 0.38284168 -0.43850982 0.117164455 -0.047668736 -0.08698765 0.18272722 0.06412317 0.79126656 0.47125733 -0.073213615 -0.07374594 0.16917396 0.19124879 -0.03897288 0.08598662 0.12148824 -0.52494025 0.85650355 0.5709474 0.00891327 0.3109558 0.52941406 -0.23989649 -0.08927821 -0.19144431 0.025185673 0.0012645646 -0.06652771 0.07615219 0.09083039 0.29234958 0.6201636 -0.085275784 -0.08565058 -0.024088172 0.4275599 0.009033446 -0.15141489 0.6057506 -0.42364803
门 -0.06409154 0.023856204 -0.45886964 -0.40295967 -0.68032646 0.20399167 0.069698855 -0.0046300446 -0.032435272 0.4099143 0.15666428 0.057617284 -0.43646148 0.066475034 -0.11942603 0.05384929 0.23707503 0.24186675 0.68933475 -0.32134694 -0.29282126 -0.06933848 0.041197956 -0.046217915 0.2428311 -0.39612556 -0.092111446 -0.2492959 0.25102365 0.18864825 -0.438619 0.721011 0.047320135 0.13211781 -0.35617802 -0.21248297 -0.068539634 0.114774436 0.026232935 0.4655963 -0.13950057 0.28403258 0.27636102 0.28699997 0.04713637 -0.3871474 -0.42174384 0.40177736 0.3120062 0.49380046
敢 -0.40887606 0.25558168 -0.14127436 -0.047459032 0.49028912 0.41334346 -0.08923343 0.5889153 -0.58139825 -0.088269226 -0.24940488 0.36798403 -0.5006944 -0.35317823 -0.33924434 0.5272125 0.36904278 -0.109190166 0.37920353 -0.06672617 0.035704058 -0.38076517 -0.0044318233 0.13137916 0.18096794 0.31266865 -0.6069414 0.699259 0.7264604 0.51376843 -0.012295338 0.7198634 0.12313172 -0.3640139 0.89518493 0.110966064 0.35846856 -0.38160956 -0.41098922 0.57885146 -0.023163948 0.05089666 0.73239076 0.27880302 -0.18535733 -0.27096498 0.15204208 0.26354703 0.39096847 -0.25662094
犹 -0.62842715 -0.522639 0.6253666 -0.32872966 -0.71055263 -0.32605568 -0.10599802 0.24603055 0.12813045 -0.39277852 -0.21206203 0.42953938 0.07676632 -0.07230974 0.12928607 0.47545674 -0.36624506 0.11131633 0.28824985 -0.16022776 0.090464756 -0.052953437 -0.1724296 -0.5613676 0.28684378 0.29948997 -0.84459645 -0.3221546 0.7910382 0.4405024 -0.08675275 -0.29294434 0.01456273 0.088835604 -0.14966016 0.46733811 -0.7485461 0.5635369 -0.21234098 -0.32720265 -0.31625134 -0.074968636 -0.34975353 -0.025579087 -0.19977497 -0.29980934 0.27918273 0.37153554 -0.39128247 0.095717095
生 -0.20951365 -0.40395018 0.05974142 -0.3621187 0.20494176 0.20564985 -0.119871624 0.16085085 0.2173479 -0.099080175 -0.27473515 -0.20330334 0.17677502 -0.22577116 -0.9536477 -0.9947766 -0.043236535 0.21674679 0.33840635 0.06491726 0.43505234 -0.1724169 -0.36228058 0.17730722 0.17410026 0.0028454466 -0.36335573 -0.22026853 0.3862313 0.18686591 0.50690883 0.07549307 0.11801077 -0.24977845 -0.076638736 0.35014808 -0.0067010103 -0.02140585 0.29441944 -0.5290882 -0.2560198 -0.4661579 0.12090284 -0.12490961 -0.19197321 0.04623059 0.040730268 0.5865341 0.1290276 0.043445077
日 -0.4557928 -0.59337306 0.094067596 0.059045713 -0.27657115 0.63666695 0.34741858 -0.16148634 0.004733946 -0.30574104 -0.55337393 -0.37575564 0.6470277 0.24713264 -0.08223962 0.2435853 -0.22072852 -0.34641114 0.5517822 0.7228829 0.81599736 -0.39083368 -0.16445345 -0.43532944 -0.17921269 -0.2623974 -0.19110385 -0.5143189 0.31032386 0.32240364 -0.18980475 0.41082725 -0.017175986 -0.11853628 -0.20274338 -0.09098162 -0.07426099 -0.15526114 -0.08405484 0.580841 0.112327434 -0.3842115 0.33748558 0.40437916 -0.7941558 0.114564955 0.49915656 0.05827556 0.42277163 0.33323652
敬 0.18364619 0.11255075 0.20151624 -0.22561653 0.24608749 -0.12238177 0.006352555 -0.065541565 -0.27657402 0.582659 0.03693168 -0.36848682 -0.117006265 0.18014477 -0.702929 -0.02751058 -0.2113709 0.10552136 0.27873597 0.3450813 -0.52798337 -0.4500645 -0.13992767 -0.53188837 -0.116960235 -0.29412496 0.08449452 0.447194 0.36638206 0.6792806 -0.518204 0.42156032 0.26444384 0.16368271 0.7953056 -0.2767614 -0.19327334 0.1420913 0.08568383 0.3517954 -0.18406412 -0.29131407 -0.2817367 0.13957664 -0.10105307 -0.61222535 -0.45356598 -0.2796648 -0.072612904 0.2030612
难 -0.052666593 0.55962074 -0.27860323 -0.44460785 0.59498435 -0.31918925 0.3153191 -0.21722315 -0.5663326 -0.34662414 -0.11144582 -0.48184618 0.06650238 -0.1849593 -0.13099629 0.48356155 -0.11029891 -0.3636802 0.53543353 0.13120459 0.17464443 -0.8070712 -0.105770886 -0.259245 0.2300718 0.1980102 0.2534919 0.07859129 0.19272937 -0.044521756 0.29690224 0.11821439 0.08121429 -0.2883342 0.30336556 -0.48509726 0.031997632 -0.048408825 -0.24229941 -0.0030844868 -0.14100757 -0.08588437 0.14100628 -0.14866132 0.16022205 -0.2218317 -0.09123634 0.10563823 0.23779932 0.41522124
直 -0.22472697 0.2772697 0.18566665 0.28258952 0.49654597 -0.20675205 -0.23943314 0.2620864 0.38996953 -0.7041105 0.5603342 -0.18340957 -0.007811414 0.5454502 -0.31323162 0.66111404 0.21248892 -0.39834198 0.5091647 0.29470488 -0.095235795 -0.18717141 0.68691415 0.28664514 0.41848564 -0.006775719 -0.20883755 -0.4699707 0.6370664 0.09373299 0.3569006 -0.36878577 0.18888198 -0.1701602 -0.31281877 -0.7431373 -0.74331224 0.06655325 0.2132235 0.24281423 0.33306643 0.075619206 0.2029426 0.172477 0.5343161 -0.29521778 -0.36025935 -0.3875084 -0.33468118 0.004963162
丧 -0.38928357 -0.32336608 -0.39126086 0.09371981 -0.14184017 -0.538979 1.0183753 0.15048201 0.10818645 -0.47229898 -0.06965836 0.3498799 0.16082373 -0.27706087 0.45214877 0.38461468 -0.7107641 0.80157095 0.36065617 0.08075016 -0.6145394 -0.12730317 -0.25661418 -0.12683666 -0.056187652 -0.50141656 -0.45118523 -0.18257275 0.5142909 0.10593758 0.3659741 0.31293482 0.019810697 -0.2929519 0.16430372 0.7676787 -0.27354518 0.03245346 0.26574916 0.15243845 0.4174986 -0.31323725 0.15089373 0.034393072 -0.28660247 -0.009373647 -0.29151157 0.43475854 -0.037162226 0.5431089
说 0.24650177 0.1446317 -0.34072712 -0.44856432 0.46616855 0.20019005 -0.4201384 0.07990689 0.03940903 0.15283392 -0.45368963 0.14121573 -0.2078939 -0.17164014 0.34240052 -0.1660739 -0.2134001 -0.5587345 0.29781207 -0.15035658 -0.54663944 -0.1818554 -0.1417324 0.6725417 -0.094136246 -0.41412693 0.51754236 0.07758839 0.44489864 0.5338274 -0.046529137 0.101202205 0.14404057 -0.3281511 0.4651283 0.20558369 -0.32036033 0.28131407 -0.693884 0.01882423 0.30992886 0.25752234 -0.35895473 -0.19362809 0.9334921 0.1482331 -0.85337853 -0.18535936 -0.17822227 0.20745198
自 0.1442799 0.41113427 0.18787722 -0.1927804 0.035539124 0.12891108 0.034481157 0.11827581 0.108062245 0.313884 0.43240967 0.30049345 0.08804282 0.42344272 -0.10030328 0.3084692 0.63032794 0.20121242 0.3765906 -0.2757972 -0.25363943 0.32805288 0.26157904 -0.05360405 -0.54429483 -0.46530092 0.2760249 -0.17217888 0.49168256 -0.23666841 -0.100402355 0.27247685 0.11273591 -0.28252128 0.06351405 0.041396692 -0.64960045 0.3099587 -0.2062587 -0.5771153 0.35611406 0.029716494 0.090765156 0.0342567 0.011451313 -0.33323362 0.11371767 0.03609525 0.11250079 0.5847126
用 -0.4210779 -0.38319558 0.013998199 0.16209775 0.27477303 -0.32849213 0.12441269 0.11085632 -0.24543045 1.0371416 0.037453208 -0.36401227 -0.05327488 -0.104482405 -0.16350946 -0.18928997 0.24546121 -0.1548566 0.58394265 -0.1460765 -0.374038 -0.255829 -0.35219306 0.4379941 0.10567022 0.022371776 -0.50896394 0.3135058 0.51526886 0.014360306 -0.36885378 6.4266016e-05 -0.40984026 -0.097324006 0.27419174 0.23592508 -0.09858719 -0.5684092 -0.2744065 -0.18498936 0.13605493 -0.07666805 0.19621216 0.22405991 0.041980535 -0.10816591 -0.54412365 0.14001356 -0.1525125 -0.65378463
周 -0.12984668 -0.34898973 -0.2561811 -0.25118348 -0.42372587 -0.11142557 -0.18236014 -0.014701597 -0.2159538 -0.15572105 -0.64375484 -0.14032535 0.060349043 0.37890586 -0.31184912 -0.12624696 0.168187 0.41377133 0.69671667 -0.043280095 -0.14718932 -0.5303496 -0.022175921 -0.07993801 -0.5112561 -0.6087367 0.70223594 0.3144913 0.20305645 0.15853028 0.23754029 -0.2550482 -0.028894018 0.08542443 -0.47969785 -0.15513644 0.39698267 -0.23576666 0.41418 -0.01809527 -0.0947648 -0.36991516 -0.024337372 -0.27063128 0.40996757 0.4074548 -0.0056918073 -0.8702314 0.57383627 0.19697385
颜 -0.14466193 0.60754085 -0.27062324 -0.92665315 -0.11929656 -0.41593087 0.15046848 0.6931089 0.26739514 -0.8672056 0.09783733 -0.31146392 -0.3954297 -0.22474204 -0.18257065 0.92290395 0.04044559 0.055253107 0.47821578 0.38507235 0.5695346 -0.17593092 0.47898048 0.28985453 0.5450151 -0.30004704 -0.0007052497 -0.20759806 0.5807066 -0.16448689 -0.7017358 -0.07993631 -0.39860722 -0.2227316 0.22524603 0.37063748 0.31769422 -0.3412111 0.016303537 0.5254073 -0.5538599 -0.4933021 -0.054643225 -0.08061634 -0.15205863 -0.9563238 0.15065561 -0.103196494 0.4964061 0.5008971
年 -0.4861174 0.07195651 -0.3676748 0.004394656 0.13376689 0.44041654 0.74372774 -0.41044602 0.16062552 0.5106583 -0.5549445 0.5354747 0.42539757 -0.024516987 0.35170972 0.76336503 -0.15605135 -0.046589654 0.38831168 0.44765598 -0.2346824 -0.32103276 0.21758007 -0.29244623 0.0723388 0.65907705 -0.12620027 -0.3165399 0.52774733 0.13666455 -0.44384837 -0.5534404 0.7332693 0.12189557 -0.32872865 -0.34371486 0.35682753 -0.010675631 -0.14625126 0.4584005 -0.35225582 0.25038967 -0.01825549 0.60034186 -0.3974536 0.24162742 -0.27233127 0.022211885 -0.28820658 0.51299334
告 -0.6645968 0.533895 -0.29843038 -0.76985794 -0.1297486 -0.18202937 0.050601184 -0.36943135 0.3563199 -0.16604616 0.5842366 -0.07099307 0.013541973 0.33103198 0.3659653 -0.6140504 -0.20785646 -0.044848055 0.5772993 0.7046387 0.379475 0.52109295 0.17321175 -0.006083166 -0.18857786 0.1323411 0.64808244 -0.021944476 0.3828753 0.28105533 -0.14169657 0.65837675 -0.10530388 0.7270995 0.6712437 0.4328774 -0.05268113 -0.16388705 0.19463271 -0.15381573 0.5748973 -0.36960855 0.27852526 0.6107628 0.48964047 0.006068355 0.25815788 -0.33464032 -0.6822537 -0.26685616
十 -0.3514966 -0.52957207 -0.26585272 0.384951 0.009233471 0.0032104342 0.13607113 -0.29860872 0.59775394 0.15484954 0.43761918 -0.70617944 0.027279062 -0.04028451 0.045433473 -1.1477721 -0.27851596 0.06801437 0.6379779 -0.25307062 -0.4778908 -0.30155388 0.40987444 -0.20915718 -0.24601267 0.3033753 -0.40216753 0.51956004 0.4373024 0.10881135 0.3404978 -0.6517696 0.28039688 -0.092272475 0.0018834083 0.1493509 0.060013946 -0.2884496 0.13251963 0.024457397 0.25439018 0.62085795 0.1919029 -0.04308894 0.27809492 -0.39099824 -0.14472139 0.4570623 0.04414113 0.05637827
怨 0.13458098 0.13139407 0.54031295 0.002416452 -0.3530505 -0.13823532 0.322806 -0.4462391 0.78361076 0.21121705 -0.12433554 -0.2759019 -0.60372454 0.076900825 0.007795123 0.2923337 -0.173395 -0.79814386 0.5860738 -0.10792645 0.1867763 0.030588794 0.46018726 0.31355068 0.095517375 0.255951 -0.3628355 0.24875467 0.40697992 0.18877535 -0.37838733 0.110842206 -0.12597021 -0.37994623 -0.045354057 0.3297768 0.10334873 0.09142119 -0.5759078 0.05220227 0.37309822 -0.2513893 -0.04747369 0.64659363 0.81883764 -0.25253594 -0.10734317 -0.08445912 0.37567443 -0.28047818
达 -0.27098843 0.33515596 0.073435865 -0.3399505 -0.027533708 -0.16500998 -0.009962982 0.11542188 0.055880573 0.07962148 0.36520144 -0.41180795 0.06660865 -0.0062774043 0.27730647 0.13088585 0.26409388 0.1821394 0.5479558 -0.18042244 -0.18245396 0.43543234 0.20307626 -0.1716956 0.39055482 0.44769087 0.06577471 -0.2354465 0.33476502 0.08400548 0.035501346 0.23173308 -0.04689573 -0.5359688 0.040886153 -0.02374089 0.34422183 0.22703779 0.51830196 0.09393529 0.10792043 0.37257078 -0.08635364 0.23160473 0.6215173 -0.73772013 0.17529517 0.039664175 -0.1613628 -0.41480407
孝 0.015358566 -0.022531888 -0.13146703 -0.41121903 0.5729548 0.20661134 0.072701916 0.22449319 0.24821375 0.003762029 -0.15738288 0.0013319413 0.48822814 -0.13796538 -0.19293436 -0.19734758 -0.032225057 -0.17154068 0.42308646 -0.106772855 0.100958735 -0.09954099 0.13068236 0.5505703 0.21937925 -0.21805331 -0.087017655 0.23748471 0.31965476 -0.09426314 0.026834693 0.8474427 -0.1736462 0.06264138 -0.15502383 -0.25253332 -0.96326196 0.0034337356 0.19867535 0.14643042 0.6339012 -0.024573507 -0.26997745 -0.5035616 -0.4903695 -0.0032557803 0.16552232 0.19388391 0.66268456 0.15970168
弟 -0.027527839 0.5703614 -0.360985 -0.5239844 0.007831602 0.55623204 -0.15652725 -0.07997274 0.2460164 0.12711583 -0.09079085 -0.36935914 -0.22876056 0.028071633 -0.49966064 0.20300952 -0.08589511 0.18420245 0.62812537 -0.6206856 0.01545401 -0.8057118 0.11718496 0.28690815 -0.063042074 -0.28777933 -0.18908481 -0.21561436 0.28274825 -0.07562979 0.27456713 0.33545923 0.059032165 -0.23559101 -0.11199615 -0.19540644 -0.15874264 0.09667055 -0.123344466 -0.020912023 -0.11098453 0.18094769 -0.17267145 -0.19004992 -0.79112923 -0.45147946 -0.103705585 0.083351746 -0.0029241422 0.44623026
至 -0.20769241 -0.028390046 -0.14388727 -0.6006896 -0.034126252 0.20493361 -0.07765683 0.1418188 0.017021198 -0.037295565 -0.41214585 -0.34983608 0.37857854 -0.108251736 0.4709173 -0.31778815 -0.17996436 -0.2793406 0.6752331 0.53495044 0.21918486 0.52767104 -0.2545942 0.31322107 0.31220803 0.041373696 -0.26410052 -0.6682368 0.13254897 0.17806593 -0.2151831 -0.5682699 -0.11889215 -0.082007214 0.045767784 0.2721166 0.5003715 -0.46212858 -0.07213267 -0.604441 -0.021879215 0.07883907 0.37650588 -0.06104474 -0.14124462 -0.3566664 0.12732558 0.27949986 0.15290102 -0.11172461
先 -0.1063267 -0.045450553 -0.35120347 -0.062354453 0.3697352 -0.49532145 0.057049062 -0.12067711 -0.25316 -0.026629819 -0.023593394 0.72803015 0.06514823 -0.02872731 -1.1322062 0.123178035 0.087576255 -0.12626624 0.15254235 0.6291749 0.055705454 0.035998072 -0.056142483 0.50567484 0.06259093 0.091319986 0.18616675 0.3255341 0.7514131 0.31658164 -0.1213233 0.42596427 -0.28740212 -0.027896572 -0.046497364 -0.19404763 -0.0040098713 0.051129892 -0.39432135 0.044696987 -0.11520182 0.4632509 0.08303858 0.22265697 -0.35023326 -0.18726458 0.075874545 0.057697445 -0.86939657 0.06833624
师 -0.41274148 -0.09937526 0.11380393 -0.5170713 -0.060492333 -0.059417646 0.31750965 -0.6157332 -0.27750406 -0.06343889 -0.6464768 0.7361274 -0.018418616 0.32389203 0.30562752 -0.17073883 -0.3153575 -0.89660525 0.3213618 -0.5034332 -0.51636636 0.6389599 0.46425158 0.640891 -0.01694459 -0.20228656 0.06891954 0.08675941 0.7034637 0.2397418 0.17656916 0.1322754 -0.14116715 0.374712 -0.1342265 0.20183188 0.39720362 0.18306956 -0.0188741 0.36122784 0.1972736 -0.2320107 -0.22836167 -0.6275686 -0.38912952 0.6200189 -0.11574099 -0.49953106 0.41318795 -0.3719979
女 -0.22983609 -0.24015896 -0.08601887 -0.4964736 -0.5238488 0.49664986 -0.28237528 0.30411404 -0.47657356 0.20012885 0.2074657 -0.13210645 0.3638762 0.048544966 -0.35371694 -0.39434442 0.059650954 -0.36523718 0.087733455 0.1469838 0.029253574 -0.04732149 -0.30650258 -0.55798644 0.31394973 -0.19549637 0.10388449 -0.20690559 0.87340784 0.0063640904 0.44234836 -0.25286898 -0.26296747 -0.34720856 -0.39996523 -0.5328152 -0.17435502 -0.19209927 0.46632388 0.03366445 -0.36094162 0.10087231 0.102700785 -0.7591183 -0.109896794 -0.330543 0.25705087 -0.3860323 0.15587044 0.27977735
多 -0.43324098 0.36511067 -0.26084012 0.15867855 0.6801744 0.22119482 0.25051636 -0.028298186 -0.38311034 0.2591835 -0.8587912 0.52057135 -0.040201634 0.2606118 0.14015299 -0.5909259 -0.7096088 0.39673236 0.4528719 -0.5994912 -0.4448502 0.036867354 0.12958406 -0.4936745 0.32938707 -0.81301665 0.05455044 0.118573986 0.39511302 0.18908276 -0.22203664 -0.7485592 0.30939066 -0.69146824 0.071220875 -0.52028996 -0.19964784 -0.2952659 -0.14722994 0.022955613 -0.23069668 0.36277944 0.12653755 -0.5890141 0.05176039 0.1468477 -0.108987324 -0.046832476 -0.53882897 -0.049981546
忠 -0.5651713 0.384828 0.54037863 0.30408728 0.346759 0.4561924 0.3417424 -0.005375433 -0.066906705 -0.2322606 0.15104127 -0.14776298 -0.010651089 0.47771975 -0.547851 -0.34149802 -0.52657324 -0.02012992 0.2908251 0.1927248 -0.3626366 0.16233285 0.22898768 0.11446431 -0.7141266 -0.101425104 0.1425001 0.6056953 0.5507315 0.3860312 -0.17847858 0.104023494 0.2356839 -0.37364835 0.02170375 0.23279265 0.027736537 0.3838157 -0.68831015 0.20706846 -0.14668757 -0.018406898 -0.47431675 0.32333988 -0.057576727 0.1358551 -0.30914882 -0.87078774 -0.31140894 0.4046469
四 -0.028804233 0.122113116 0.24146378 -0.68884355 0.2015099 0.050492167 -0.20345573 -0.31000602 0.16079848 0.3438207 0.2563981 -0.28802913 0.21112983 0.8156556 0.08777773 0.0920768 0.19933239 0.55263424 0.008777713 -0.20710753 -0.05820613 0.39863908 0.70751166 0.22780024 0.3531805 -0.028200442 -0.3423477 0.6878244 0.5420034 0.6294454 0.49968606 -0.8914536 -0.20770314 -0.47390667 -0.23829399 -0.3891962 -0.061190467 -0.05342934 0.18751314 -0.03720778 0.6014421 0.44367588 0.31622547 0.3584075 0.18753406 0.75848985 -0.22330737 0.7722691 0.10788926 -0.0057036574
疾 -0.005462617 0.9205711 -0.7119299 -0.33517027 0.2869917 -0.13052654 -0.10697269 -0.13764039 -0.35329652 -0.112297505 0.04542384 -0.31935915 -1.071241 -0.17523476 0.1978643 0.2224876 -0.29305378 0.34380433 0.75059915 -0.36600813 0.12823325 0.242142 0.12259261 -0.1661395 -0.39436916 -0.0694419 -0.35066298 0.061463088 0.30514887 -0.19652389 -0.5206023 -0.1842223 0.3909698 -0.023966502 0.2843049 0.45060638 -0.050969154 -0.15302968 -0.4195771 0.83118427 0.5895971 -0.22102764 -0.051720567 -0.35862255 0.20511955 0.2854154 -0.42038658 -0.28206488 -0.80668604 0.6820111
服 0.16626826 0.04066812 0.19147797 0.25832278 -0.061429042 0.6378646 0.06507712 0.10169986 0.6112969 0.14453264 0.25302818 -0.11920975 -0.39224413 0.19784869 -0.22706954 0.5569906 -0.019730834 -0.27241257 1.0733578 0.2684591 0.2838886 -0.6586886 0.24615029 0.087533705 -0.9028122 0.1101799 0.41789675 0.5613818 0.14216575 0.1875313 -0.12120127 0.52643526 -0.74346983 0.13978705 0.071402855 -0.56432414 -0.8253163 -0.14940841 0.3839357 -0.5711604 0.24465114 -0.09147273 0.7076772 -0.06098174 -0.14065106 0.41624072 -0.17781444 -0.013774665 0.66663206 0.13168447
氏 -0.19362229 0.16056645 -0.5701309 -0.72712094 -0.44301236 -0.24090251 0.22877859 -0.5964545 -0.35605437 0.09500889 0.118023485 0.037856657 -0.12719683 0.0403003 -0.29041538 0.4787901 0.58147335 -0.30865932 0.4174482 -0.03632598 -0.5230508 0.5218712 -0.15961367 0.031552624 -0.4974526 0.7869041 -0.1521339 0.47035602 0.50625294 0.094682895 0.14832187 0.59191215 0.1241099 0.03143942 -0.122672126 -0.35210386 -0.02891431 -0.09645265 0.3589399 0.41031122 -0.26017419 0.17672567 -0.36167455 0.41884783 0.10803072 0.12980214 0.10412456 -0.16474257 0.6249104 0.30354935
冉 -0.4665263 -0.04725281 0.043003302 -0.6694474 -0.28179756 -0.3944043 -0.034660406 -0.10632528 -0.5315023 0.16757613 0.97996753 -0.17888941 -0.32687002 0.777539 0.30717823 0.58628243 0.05569347 0.12492933 0.21443327 0.24382906 -0.18434581 -0.10458575 0.1062272 0.560637 -0.0128485905 0.24758853 -0.47922522 0.11673886 0.8748454 -0.06366578 0.5559472 0.50880665 -0.40633497 -0.42507678 -0.61068183 -0.36550474 -0.58800954 -0.5985598 0.39196056 -0.1713733 0.26764968 0.34943146 -0.45268422 -0.6663259 -0.031561702 -0.047673896 0.03169131 -0.08939238 -0.22095442 0.16213147
将 0.09063052 -0.27385426 0.9032415 -0.7800407 -1.1893396 -0.15990058 0.4832807 0.5326821 -0.12044664 0.17216502 0.50042295 0.09733652 0.18255715 0.6140204 -0.14897935 -0.0072622714 -0.36093768 0.26084265 0.25555548 0.30927134 -0.6153855 0.24001901 0.07238655 0.39995003 -0.4759468 -0.39864823 0.21958089 0.21342705 0.36423394 0.47107622 0.24204506 0.086471185 0.10298208 0.085441835 0.30115595 -0.7827664 -0.19087717 -0.16222073 -0.26891553 0.053038653 -0.07925346 0.035665452 -0.15896031 -0.3763164 0.06756354 -0.6014564 0.29515046 -0.46905217 0.14157212 0.10957069
士 -0.34191328 0.27826354 -0.19276617 -0.42977685 0.008654778 -0.3228268 0.121059075 -0.06991805 -0.34282422 0.14472514 -0.3203321 -0.03306639 0.07497691 0.10182362 -0.4940857 -0.17914577 0.1804654 0.1020311 0.43947917 0.059484318 -0.46522018 0.1311845 0.6241715 -0.12300583 0.5272917 0.4921637 -0.3780267 0.30221888 0.51009506 0.20095305 0.26549983 0.35715953 -0.23348108 0.17742193 -0.4344065 0.85306215 0.3649994 0.31968647 0.007412958 0.0139549775 0.36868867 0.42429018 0.029234238 -0.34667572 0.73866683 0.6391969 -0.5172291 -0.1515519 -0.11318092 0.007872298
丘 -0.1270017 0.14340241 -0.34336603 -0.22332364 0.17616421 -0.30444127 -0.041171618 0.14489488 -0.15379368 0.30184335 0.26172096 0.19633035 -0.72635144 0.1873238 0.15593374 -0.37073627 0.14445886 -0.19421987 0.25725132 0.32581797 -0.16305853 -0.33702797 0.3481501 0.55089504 -0.579641 0.31377664 -0.17992532 -0.60169584 0.96190506 0.1936404 0.18589155 0.32105458 0.36791208 -0.15618129 0.39077866 0.34570172 0.027757978 0.71983576 -0.24837549 0.66241837 -0.55010813 0.61633533 0.44071645 0.07057323 -0.15538974 0.14335895 0.3484509 -0.21368419 0.18513174 0.5233033
身 -0.24966864 0.26494634 0.5082707 0.14210293 -0.2650188 -0.3462281 -0.3256564 -0.5871761 0.32932657 0.10199519 0.09855185 0.33612737 0.531884 -0.24823263 -0.56922054 0.88716334 -0.68245035 -0.21604092 0.37119603 0.45847264 0.28618705 0.18694854 0.009783722 0.31101167 -0.123520814 -0.43819118 0.30895573 -0.09523864 0.48462573 0.77476394 -0.1749183 0.32428908 -0.46156266 -0.15196033 -0.9789323 0.21062961 -0.12301029 -0.29303104 -0.43123922 -0.11679234 0.49784774 0.58533883 0.23208894 0.29686597 -0.21085185 -0.4951558 -0.07780606 0.49543 -0.14099087 0.16696483
入 0.36463287 -0.24935664 0.08941832 -1.2278064 0.1718193 0.45175716 -0.05108522 -0.25244832 0.110050336 0.14193551 0.19688076 0.008374304 0.039672293 -0.6979043 0.86440766 -0.004282965 0.20417298 0.020550946 0.7836452 -0.7637116 -0.35909012 -0.18611549 0.31879538 -0.047640454 -0.5223497 0.1544082 -0.12069139 0.23153287 0.29981065 0.44150847 -0.13191944 0.46228355 -0.24225838 0.26578766 -0.4421787 -0.26465935 0.16391283 -0.49393338 -0.27616608 0.13675743 0.2919789 0.6603321 0.27451685 0.048354123 -0.5142994 -0.040236335 0.16651852 0.25462258 0.20968583 -0.19802995
志 0.07510289 0.13992651 0.65867496 -0.54389894 0.40045765 0.102197796 0.4420812 -0.8030549 -0.12414451 -1.2364339 -0.3434451 0.32582152 0.0982333 -0.10147188 -0.004212523 -0.42268938 -0.5517371 0.23832987 0.18051921 0.3416824 -0.7921598 -0.14653543 -0.12395627 0.14469504 0.1328224 -0.018165665 0.4109852 0.12799372 0.7658177 0.36167023 0.23784927 -0.23305827 -0.30282703 0.2956192 -0.21891204 0.6031195 0.4025051 -0.10376578 -0.0957137 -0.6251963 0.18817298 0.41215572 -0.21923167 0.008124842 -0.032305304 -0.51052725 -0.2548111 0.3033379 -0.56983846 -0.15065897
耻 0.4099448 0.43889183 0.1558761 -0.20491841 0.14597425 0.723598 0.44889516 0.17393158 0.44085327 -0.075458854 0.3237802 0.5474667 -0.35388967 0.09619023 0.73559576 -0.2844871 0.40291834 0.067544095 0.55919087 -0.22673789 0.11861563 -0.12071948 0.25638348 0.66943765 0.1930637 0.28164944 -0.13212413 -0.12821312 0.37429288 0.4759833 0.18312274 0.19034445 0.4901876 -0.44636983 0.57880944 0.59673566 0.29572305 -0.06041998 0.17592 0.17167439 -0.6865481 0.20468245 0.45075417 0.31618032 -0.4549939 0.05559911 -0.5312066 -0.058761552 -0.025478136 0.3771067
失 0.046016246 -0.36281964 0.080190584 -0.07661686 -0.07367302 0.3507885 -0.49293658 0.2201387 0.72012025 -0.17514433 0.038601916 0.22380005 0.28864524 0.118948326 0.002029786 0.42427516 -0.3649176 0.5792416 0.6041046 -0.1534003 -0.24522865 0.1949323 -0.5671865 -0.30771014 -1.1222242 -0.25696394 0.033634413 0.60658 0.3387849 0.8873232 0.33896533 0.055673998 -0.93909216 -0.1174223 0.6386049 0.028806534 0.25914958 0.5434061 0.20160031 0.25147825 -0.2898915 -0.46077728 -0.7653869 0.08839218 -0.45313433 0.38540912 -0.049822498 -0.034956954 -0.66432685 0.26164612
安 -0.78149843 -0.41334492 0.18606687 0.006544149 0.27708733 -0.5494275 0.09351915 0.39647883 -0.06323469 0.6685442 -0.4447681 -0.16178085 0.07243397 0.12080042 -0.32298115 -0.69137996 0.22393337 -0.3307927 0.7234521 0.49578846 -0.3374143 0.04851449 0.8262291 -0.47991145 -0.3244081 -0.9935934 -0.13390897 -0.06084889 0.5047953 0.08954412 0.2504119 0.18714349 0.10282103 0.09992083 -0.2059372 0.17290288 -0.2569163 0.007474724 0.11320759 0.074563004 -0.6620575 0.32669446 0.25013727 -0.97781044 -0.4120256 -0.26680923 0.2662452 0.3714963 0.45910484 0.2373239
富 -0.2910142 0.24732175 0.46275565 -0.35755715 -0.13994561 -0.6181977 0.053945966 -0.2359677 0.33295944 0.5391036 -0.49575746 -0.21844482 0.38888356 -0.20026878 -0.053039297 0.15327121 0.3050732 0.19345495 0.39335552 0.45115143 0.06898503 0.21820796 0.35753003 -0.18819413 0.37506467 -0.47511548 0.49737847 0.57514495 0.40291086 0.0143879345 0.21019316 -0.07758204 0.4263324 0.01030365 -0.36410835 -0.06155243 0.15555853 -0.13264108 0.36804688 -0.14924861 -0.80138725 -0.24570966 -0.24405135 -0.09701343 0.21216601 0.00615293 -0.013534213 0.08406778 -0.6732647 0.32038966
赐 -1.0206974 -0.21425569 -0.8334303 -0.31440076 0.520335 0.18468845 0.5018865 0.07837095 -0.37938988 0.34486407 -0.03177912 -0.0112854475 -0.76391864 0.5039107 0.1275317 0.07301063 0.37855396 0.25531033 -0.098763645 0.023052897 -0.4553319 1.2160228 0.29938293 -0.37229735 0.235317 0.277411 -0.2976178 -0.10139935 0.9417367 0.14342207 -0.56497145 -0.6457723 0.39136443 -0.23513104 0.20664263 -0.011147653 0.3363 0.17033859 0.110866986 0.08258698 0.25979763 -0.81070787 0.3676102 0.16273853 -0.2684477 -0.5789107 0.01418047 -0.5884996 -0.27547854 0.08041085
患 -0.5072004 -0.122516125 -0.038280856 -0.14002553 -0.6296107 0.01611433 0.614261 0.3907857 0.8187675 0.3541403 -0.35640058 0.32559007 -0.5125387 -0.2514205 0.11194206 -0.21173221 -0.16708581 -0.5510603 0.36989573 -0.30294564 0.020225223 0.01761504 -0.66178393 -0.76772815 -0.3542781 -0.37646452 -0.34850696 -0.43095914 0.75003076 0.59965265 0.0469678 0.1659911 -0.4026085 0.11267166 0.5861684 -0.04501025 0.12956414 -0.15162246 0.17981291 -0.084076084 -0.9415474 -0.5456886 0.7119663 -0.030158043 0.13150539 -0.5801323 -0.01995552 0.213486 0.13927531 0.06108785
百 -0.30330127 -0.38996124 0.5132682 -0.08830609 -0.7289354 -0.3584572 0.47461256 -0.0038209648 -0.16295984 0.27263272 -0.12261605 0.54006773 -0.02772551 0.03846007 0.5730777 -0.8019125 0.26235467 0.005995902 0.48460937 0.9947299 0.30600703 -0.05805586 0.44556448 -0.657488 -0.057626184 0.2585699 0.12511294 -0.15632015 0.7026805 0.29598132 0.676552 -0.34042385 0.37756166 -0.03559758 0.1407682 0.55815595 -0.41151345 -0.32554162 0.09141121 0.28312415 0.50990844 0.3977987 -0.59212744 0.51710856 -0.38977042 0.43759942 -0.010225414 0.19301014 -0.024552196 -0.5265534
回 -0.8755335 -0.019405298 0.011383782 0.17536648 -0.09010922 -0.09167978 -0.32094082 0.554699 -0.023185868 -0.71224946 -0.3396993 -0.29993013 -0.72956884 -0.20861454 -0.709223 -0.0033982503 0.80064356 -0.12530477 0.025137901 -0.44275838 0.020021513 -0.13154176 -0.10794044 0.13294409 -0.5755317 -0.22090946 -0.2584935 0.2632188 1.2503746 0.20005617 0.18501857 -0.5925828 0.7708333 0.3112106 0.044955786 -0.3893324 0.18665966 -0.041130215 0.1323796 0.80478114 -0.11156455 -0.22013423 0.2050725 0.019784743 -0.68094903 -0.56725276 0.37325612 0.58095986 -0.5698969 0.5388477
宰 -0.50059086 -0.48574793 -0.4443958 -0.86063 -0.4784083 0.29531977 0.31524137 0.61520183 0.07386593 0.06393642 0.22668684 0.015736584 0.09800684 -0.80322516 -0.090989284 -0.1654307 -0.2917758 -0.62181735 0.36128628 -0.026319897 -0.6957756 -0.5362118 -0.44319862 -0.30431154 0.27236328 -0.06386014 -0.48543426 0.08681557 0.901605 0.07916466 -0.46051812 -0.10294094 0.27604583 0.5154761 -0.47477052 -0.6151757 0.008395726 -0.4293511 -0.17280744 0.13843526 0.29183415 0.63364166 0.17425077 0.26746958 -0.28812113 0.4176361 0.8115294 -0.41526634 -0.40292385 0.22934443
朝 0.024548683 0.09470746 -0.40175605 -0.12831914 -0.8320936 0.5692819 0.5198831 -0.11657911 0.1568779 -0.08665904 -0.15174326 -0.07201865 -0.24060617 0.41565096 -0.4666614 -0.11265039 0.35267612 -0.54915524 0.71925324 0.13885932 -0.04175361 0.13465351 -0.22873417 0.06565777 -0.740951 0.51103526 -0.0059179054 0.18410592 0.29594493 0.09909454 0.44541225 0.25974214 0.03405698 0.19310567 -0.18173368 -0.04279364 0.042685904 -0.13163976 0.15978788 0.10376859 0.9475213 0.37876436 -0.1480496 0.2328408 -0.6188294 0.26925296 0.12426683 0.087412626 -0.08748101 0.3243958
莫 -0.6764336 -0.049280696 -0.15716778 0.021680359 0.20429944 -0.68642443 -0.07016411 0.21817715 -0.3325652 0.30431232 -0.40823317 -0.2194085 -0.10625262 -0.48805103 0.5010251 0.43380243 0.020677254 0.17420174 0.48810002 -0.25516307 -0.74959654 -0.63280565 -0.17896359 -0.27750152 -0.101991124 -0.14652616 -0.32926986 0.21595459 0.5161763 0.34929797 -0.0490464 -0.29970032 -0.06615958 -0.113602296 0.021810679 0.08807711 0.23269351 0.090748094 -0.6420028 0.20614882 -0.54115075 -0.49638188 -0.047616586 0.011160186 0.5447192 -0.32855764 0.40677473 -0.15992022 -0.15681568 0.07764145
若 -0.27628797 -0.17826658 -0.018036906 -0.7098673 0.89454293 -0.37762016 -0.011765981 0.20633356 -0.24802262 0.5973987 -0.15117472 0.23205577 0.36164597 -0.45979515 0.40070227 -0.118478715 0.05812967 0.33719638 0.23184295 -0.22209628 -0.07038568 -0.019392963 0.08744224 -0.20387137 -0.18223111 -0.15314208 -0.4201076 -0.37987322 0.6134557 0.18381365 -0.36880615 0.30821064 -0.026340174 -0.15285969 -0.116750546 -0.3876806 0.5317412 -0.23981656 0.16380599 -0.19956236 -0.16679767 -0.61915517 -0.366719 -0.4433869 -0.08005894 0.2830036 -0.079869255 -0.50294805 -0.34605834 -0.27497262
云 -0.17462502 -0.05517035 0.49243167 -0.23808616 -0.438868 0.43655413 0.3753908 -0.831025 -0.14811784 -0.022623107 -0.06249101 -0.6864152 0.5324546 0.5099856 0.9278633 -0.33131763 0.42308924 0.017568346 0.13806091 0.03847095 -0.6781308 -0.29680365 -0.682504 0.16307025 -0.29157487 0.06948294 -0.7929711 -0.3372723 0.957894 -0.29373407 -0.04708157 -0.66826993 0.20702322 -0.54810387 -0.358978 0.27329963 -0.6645495 -0.67970484 0.1949108 -0.24252515 0.6527867 0.29135767 -0.3598617 -0.5213066 -0.052396838 0.2642956 0.39290255 -0.28712913 0.19782184 -0.08188132
孙 -0.34721655 0.100985564 -0.23795873 -0.53584164 0.17890152 0.10845563 0.087576814 -0.09036814 0.21304758 -0.62787205 0.00072697795 -0.54032606 0.13575915 -0.28689095 -0.49698842 -0.04813466 -0.83309126 0.5517882 0.37861183 -0.23128617 0.44535783 0.27868596 0.11253227 -0.22028525 -1.2266481 -0.063045986 -0.18286 -0.21897031 0.34157613 0.29928383 0.050210483 0.616653 0.34756052 0.35837922 0.0051580514 -0.41973272 -0.12927864 -0.5377461 0.4007417 -0.15075824 -0.37629467 0.043845885 0.12532006 -0.2977391 -0.67255574 0.52336365 0.18547064 -0.18051393 0.03906719 -0.13135028
