1352 100
， 0.050436907 0.013923424 -0.019512255 -0.0138459625 -0.039426357 0.2819283 -0.07320706 0.011178996 -0.008982479 0.078929774 0.043128226 0.0033709009 -0.02199357 0.016531365 -0.036202274 -0.020675348 0.02862744 0.005853686 0.022627879 -0.016292619 -0.07925265 -0.17586109 -0.0118128285 -0.03488874 -0.040291317 0.03832215 0.0364318 -0.011716758 -0.1009353 -0.0042473185 0.058056217 -0.084453255 -0.092408486 0.049229916 0.11049241 -0.015465641 0.011028862 0.0500414 0.110136956 0.051477086 0.20661072 -0.009587029 0.007205181 0.010505408 0.0139385415 0.016621294 0.07457046 -0.09000539 -0.007528933 -0.0435048 -0.09816046 0.001344633 -0.12189869 -0.00073013175 -0.011660334 0.7268382 0.0128066065 -0.021813646 0.008872374 -0.028698104 -0.045172963 0.07841985 0.0016716534 0.08549827 -0.11626199 0.018991506 -0.057372473 -0.07824087 0.02862063 0.025650805 0.040531274 0.09258634 0.017710082 -0.079770304 -0.004949145 0.053349234 0.025290323 -0.08303579 0.0036233189 0.026628837 0.0130352685 0.04568329 -0.019706642 -0.038217597 -0.029371262 0.05835674 -0.03228768 0.007522721 -0.0642907 0.10826511 -0.035701208 0.04249391 -0.07545902 0.06886678 -0.07854682 -0.030320099 0.09617107 -0.05314893 0.03563064 -0.040076297
子 -0.056434095 -0.022291185 0.060502008 0.07688866 -0.013326247 0.08691146 0.08078165 0.044894006 0.06866765 -0.09246456 -0.020905342 0.029334335 -0.009687156 -0.033132818 0.10582231 0.0074380212 -0.006895264 0.023497362 -0.15388642 -0.02936122 0.052943002 0.3411251 -0.02426127 -0.041947138 0.030873504 -0.09229701 0.018386997 -0.10813571 -0.0054028207 0.019297779 0.08246657 -0.04989854 0.034205742 -0.0947264 -0.033258267 0.10861713 -0.06713059 0.13471837 0.12567575 0.093718104 -0.4366378 0.08886856 -0.07047315 -0.0045103272 0.10149223 -0.032635707 0.0049923034 0.100024834 0.039402414 -0.18120436 -0.06115632 -0.0693932 0.036509473 -0.08313958 0.025547266 0.7120396 0.04526505 -0.10406266 0.038762636 0.019336928 0.07012378 -0.040201124 0.13037524 0.022329623 -0.04278652 0.1369601 0.01796177 -0.012585337 0.09762062 0.015764872 -0.11926146 0.017724637 -0.010683521 0.2515827 0.03873938 -0.010738585 -0.00939312 0.052391052 0.02951658 -0.03167861 -0.056568436 -0.08210443 0.07172827 0.106051564 -0.0034513276 -0.009117337 0.0274598 -0.033718836 -0.0022922638 -0.0008059989 0.11335534 -0.06618337 0.015576111 -0.24304138 0.007272767 -0.0066032903 -0.088542946 0.052245248 0.03774888 0.27636686
。 0.024323381 -0.2322983 0.16411784 0.02158346 0.09820113 0.28807646 -0.10647898 0.040637396 -5.6054298e-05 -0.06740003 -0.026644913 -0.044847313 -0.104383826 0.11278177 0.02382848 -0.06979754 -0.0149225565 0.024431406 -0.10140273 -0.004344539 0.17452353 0.055656668 -0.0633482 -0.043795176 -0.15494017 0.04612501 -0.23787329 -0.059060108 -0.023775453 -0.13867573 0.027614156 0.097415805 0.038440455 -0.043641273 -0.24430002 0.035439953 -0.08785588 -0.04564336 -0.14193133 0.10243158 -0.2356192 0.053345587 -0.0064440435 -0.06737955 -0.11450928 -0.04715252 0.08132278 0.0673162 -0.003132367 -0.03573093 -0.14074968 -0.013686291 -0.30171007 -0.040610973 0.056013096 0.79622567 -0.11593281 -0.030131536 -0.040801395 0.0872911 0.032964867 0.023109587 -0.097776026 -0.07384124 -0.045503337 -0.008862319 -0.07312446 0.12006375 -0.056447335 -0.04361154 -0.018283144 -0.023496203 -0.020711627 0.03194193 0.009632146 -0.10472489 0.010565761 -0.16539383 -0.036372002 0.10927865 0.025583886 -0.15658604 -0.05097975 0.06219515 0.0027701533 -0.038231425 -0.048213713 -0.12744808 -0.057546254 0.043917038 -0.056347616 -0.09734558 0.17160378 0.18353204 0.008857117 -0.13521253 -0.1383695 0.040187366 0.07619979 0.01655749
： 0.07560235 0.065210216 -0.014472667 0.13116631 0.04536898 -0.11629557 0.14126505 -0.045065697 -0.16137442 0.0043514553 -0.0714466 -0.14118762 0.09524631 0.06266027 0.003843008 0.052083537 -0.070611835 0.12012967 -0.21587811 0.08150855 -0.00992513 0.30833623 0.06750109 -0.036861025 -0.06043993 0.15022701 0.07554026 -0.0041356413 0.06282479 0.031989835 -0.046054468 -0.066863045 -0.113522574 -0.061688296 0.11418309 0.016892042 -0.05780461 -0.07208818 -0.09262395 -0.025840268 -0.5642729 -0.08458264 -0.056828715 0.12131853 -0.014543124 0.058319047 -0.11863086 -0.099033274 -0.0337015 0.099231064 0.0077972924 -0.089561895 -0.19804937 0.10997843 -0.029121784 0.6548931 -0.043889675 -0.013111522 0.027044222 0.075046465 0.049592815 0.04592604 0.005495974 0.04256443 0.007859866 0.054950032 -0.05387862 -0.043644637 0.0038660972 0.027288709 -0.031146813 0.087828696 -0.002281663 0.0011493361 -0.0573477 0.004704847 0.040322986 -0.10252574 0.06297768 -0.03658159 -0.13585292 0.11132594 -0.04073419 -0.045586865 0.0012888431 0.12640563 0.0015949787 0.08351249 0.08102611 0.034517232 -0.031425525 0.09330661 0.14187168 -0.08384324 -0.040894255 -0.004002497 0.009662018 0.04437878 0.014358141 0.033426173
曰 0.015783537 -0.058896955 -0.05282842 0.09061328 0.0927952 0.08112039 0.14838171 0.05902939 -0.05125878 -0.019777352 -0.13004461 -0.11816256 0.09217485 0.027117958 -0.036245633 0.0990233 0.1300385 0.068335086 -0.08618847 0.08325564 0.022348728 0.33485878 0.034868196 0.037906367 -0.08110166 0.19996028 0.022506304 -0.043815494 0.025925554 0.0122482395 0.039958242 -0.10864808 0.15771092 -0.098982014 0.08691993 0.09648553 -0.07678222 -0.06034064 -0.107909195 -0.053861372 -0.6012399 -0.062429264 0.06798945 -0.012876416 -0.00014625474 0.03224016 -0.075519145 -0.04349859 0.066371635 0.02157277 0.10824191 -0.17756964 0.09595458 0.04621542 -0.055087034 0.71502995 -0.092121445 -0.0134854475 -0.050037753 0.0300796 0.026655836 0.053411175 0.09336427 0.0025927338 0.06301888 0.08648139 0.046719525 0.08731227 0.025958389 -0.011383997 -0.029669315 0.09081106 -0.060788665 0.06199885 0.018751087 0.022217885 -0.055114727 0.031970665 0.11050286 -0.060695473 -0.16639851 0.0531026 -0.099985346 0.011443445 -0.05076344 0.09315082 -0.12319076 0.13039653 0.042395864 0.052772306 0.014362785 -0.016032357 0.14547604 -0.10955471 -0.10763382 0.08651333 -0.15342711 0.10815828 0.013976506 0.03597446
之 0.09701857 -0.0059251916 0.13753058 -0.11139296 -0.012512622 0.1499767 0.009183923 -0.08049151 -0.05617453 0.04737615 0.13669494 0.04039676 -0.054060664 0.064438306 0.058316354 -0.08078928 0.07428189 -0.06467025 -0.018848905 -0.049656853 0.09867719 0.15417215 -0.028071223 0.08626442 -0.027284788 -0.062950194 0.055641223 0.20952548 0.060681053 0.046770092 -0.1011347 -0.17170066 0.14660323 -0.0026620624 0.028996022 0.12257397 -0.052726246 -0.14416938 -0.05651693 0.05103575 0.17351995 -0.16252802 0.067833565 0.02953397 -0.010446988 -0.0070735603 0.0051143686 -0.13522916 -0.084900185 0.045533 0.03575213 -0.2521666 0.16011702 -0.0073324963 -0.17285234 0.6267875 0.13272241 -0.08976669 -0.21915288 -0.08372438 -0.021951498 -0.15237728 -0.16205925 0.037909478 -0.04361081 -0.07910121 0.100429714 0.027155293 0.08591979 0.1394427 0.06071899 0.06509253 -0.22511518 0.029601665 0.03647337 -0.030550916 -0.03771549 -0.040983558 -0.0693631 -0.05902969 0.065175556 -0.0751702 0.02793919 -0.10863183 -0.045149 -0.081646435 -0.036645062 -0.12767678 -0.044959463 -0.12133346 -0.03180337 0.15717067 -0.074092954 -0.20774342 -0.06866102 -0.20717831 0.07695335 -0.11818805 0.06967354 -0.0038422146
不 -0.04941186 0.15228005 -0.16297084 0.024432061 0.20632 -0.19778663 0.027795328 0.05433714 -0.123191595 -0.15575612 -0.033364262 0.09776919 0.044392914 0.0001787844 -0.1082163 0.0666624 0.036705464 0.06596484 -0.09880031 0.093048856 -0.18294257 -0.10503644 0.065741055 0.16778836 0.06530637 0.008244675 -0.121319115 -0.04615113 -0.048420586 -0.15241107 0.011359728 -0.015124525 0.03996106 -0.040180024 0.024770863 0.08192247 -0.10349327 0.022975117 -0.05576212 0.11512796 0.24021506 0.021775901 -0.04962243 0.11602196 0.006097172 -0.050933477 0.14901543 0.030690704 0.29129183 0.04033349 -0.059024956 -0.040953632 0.08551878 -0.0062179687 0.05715148 0.76786613 0.09180383 0.096904576 0.038349837 -0.009371812 0.044195555 -0.016239367 -0.012002 0.23258057 0.035753768 -0.07021492 -0.13622957 0.001158334 0.2245764 0.12398121 0.058012646 -0.20890757 0.06357671 0.04276591 -0.056093253 -0.08527563 -0.105611175 -0.016301941 -0.0912295 -0.10256694 -0.14005093 0.0031476836 0.22771709 -0.10569868 0.19654813 0.033822 -0.02726307 0.0008590638 -0.20525332 0.052124362 0.2999075 -0.13999906 -0.24350488 0.05130978 0.1758322 0.118443914 -0.03286722 0.01892576 0.14388008 -0.049850322
也 0.03215613 -0.18763766 0.024935093 0.13990454 0.28085804 -0.25797155 0.060972355 0.008654157 0.04724605 0.112051465 0.06499427 0.08343288 0.17407516 0.06438138 0.011047571 -0.20706634 0.19002736 -0.03548886 0.084739335 -0.011961942 0.12894179 0.3294743 -0.109491676 0.15366079 0.114805594 0.0060141794 -0.111124754 0.1721205 -0.17373031 -0.05042635 0.025259363 0.020218441 0.013315355 0.09011662 0.07494425 -0.043704458 0.09225651 0.13812013 0.06612758 -0.07760778 0.050196018 0.06281763 0.12764475 -0.0072148107 -0.06383747 0.014793031 0.0037066473 0.03344713 -0.071964726 -0.057701692 0.022642896 -0.08916772 -0.23244338 0.04669813 -0.0053212396 0.6148149 0.10893213 -0.30135843 -0.018406278 0.0402383 0.13512816 0.04346882 0.07421965 0.23717713 -0.11289152 0.020068476 0.19930872 0.12779902 0.07542004 0.04904712 0.014862194 -0.062356107 0.07314947 -0.15563788 0.089187965 -0.07294632 -0.0014707342 -0.09889505 0.057335105 0.020726323 0.12469816 0.07969313 -0.03255042 -0.08345749 -0.13351831 -0.1260524 0.18141854 0.008815167 0.0020055182 -0.058977064 -0.124412134 0.00056684413 0.016144818 -0.11373096 -0.04702956 0.09272336 0.11158197 -0.11178802 0.07817874 -0.0030930818
而 -0.011414456 0.03441466 -0.1563419 0.07450695 -0.054406174 -0.10374444 -0.13630989 0.17540084 -0.13721223 -0.14567256 -0.036216963 -0.14355591 0.06024161 0.25589964 -0.061571952 -0.20307977 0.25716794 -0.094427936 -0.11531299 0.023069475 -0.09338902 -0.1698324 0.099479645 -0.319921 -0.003500533 -0.25362545 -0.20278023 -0.16472284 -0.1185432 0.017093038 -0.14691938 -0.018200606 0.1929805 -0.031221857 0.0044777575 -0.0025964542 -0.04353519 0.011625574 -0.09946031 0.13104254 0.38707092 -0.16445366 0.0077773416 -0.061256483 -0.00051710673 -0.00086615706 -0.22408709 0.29645365 0.025654864 0.05294862 -0.090047285 -0.028145852 -0.04292861 0.1270187 -0.065017655 0.8275366 0.07476779 0.03879827 0.17303579 0.06145334 -0.109170936 -0.11158684 -0.014363105 -0.17088306 0.063916646 0.060157686 -0.0727493 -0.02397502 0.03583981 -0.008908913 -0.17377199 -0.13423039 0.15585692 -0.0050411634 0.067497544 -0.13239676 0.13884506 0.09750033 -0.09670912 0.033298694 0.22628693 -0.16491856 0.06936479 0.042633105 -0.021874832 0.13801523 -0.07693463 0.06140856 -0.08478556 0.11382027 0.22143555 -0.06371947 -0.0014512074 -0.23118481 0.036581807 -0.0384072 0.041471582 -0.061614543 -0.072814964 0.15308967
？ 0.049921352 0.049911965 -0.123443514 0.025757125 -0.3459891 0.24713229 -0.01148663 0.3766607 -0.106059276 -0.07045883 -0.033650275 0.1473328 -0.075494856 -0.112018175 0.08310053 -0.111092664 -0.052945524 0.123715475 0.1606644 0.0021661452 0.007211997 -0.14895508 0.14479685 -0.013643459 0.13622186 0.11146933 -0.14774024 -0.101652846 0.055077694 0.116977006 -0.08299006 -0.19586584 -0.05423412 -0.15434235 -0.0705455 -0.11416113 0.3237049 0.1975913 0.1097064 0.028283725 -0.62678653 -0.11170049 0.14206773 -0.038691238 -0.02035652 0.038783446 -0.18445891 0.04659111 0.0073015573 -0.1301884 0.10947116 -0.09639488 0.096980445 0.1360362 0.06332672 0.88298434 0.094016135 0.037059695 -0.040504243 0.1387496 -0.048954677 0.023928776 0.14892767 -0.17599931 0.046903353 0.09057963 0.13049306 0.023367204 -0.036858227 0.051218793 0.14089498 -0.21593077 0.018392263 0.16439141 -0.010929799 0.09339021 0.081211574 -0.08113899 -0.045434114 0.26803002 0.16255866 0.012785865 -0.011482967 -0.24335471 -0.2770856 -0.0051950235 -0.012985706 -0.057776842 0.17148986 -0.14316922 0.11388435 -0.043275118 0.02939731 0.30585322 0.2522373 0.042295054 0.028871633 -0.07195978 -0.058901403 0.1659908
其 0.043433625 -0.0041415696 -0.11013531 0.042890895 0.17513478 -0.06100068 0.0045925546 0.041601826 -0.050893858 0.047872692 0.24595374 0.09341255 0.3163692 -0.020131381 0.053790018 0.13764614 0.00071306655 -0.046915308 -0.04375983 -0.06306783 -0.07163339 -0.08459754 -0.16069983 0.12455611 0.09286273 0.26131737 0.02607651 -0.09022589 -0.17499726 -0.0011483958 -0.0028970563 0.07082531 0.34419718 0.062182046 0.17216335 -0.053527974 -0.05129636 0.009233127 -0.03251065 0.023839917 0.13641177 0.13017002 0.13136466 0.13724099 0.14439066 -0.0917103 0.14998075 0.30527076 -0.040514253 0.018190352 0.043255746 0.0051652286 0.1688044 -0.09597784 -0.2611361 0.74718046 -0.09209467 0.21929622 -0.14744641 -0.12983379 -0.08506888 0.22259961 0.124837495 -0.17862643 0.19578333 0.07655945 0.33149603 0.2707936 -0.018903317 -0.10086623 0.08140976 0.14066488 -0.09424614 -0.2348828 -0.32630572 -0.0121211875 -0.06600532 -0.035914227 0.0047582686 0.070654735 0.10881508 0.01220834 -0.06364617 0.15667336 0.09116919 -0.13424633 0.12940335 -0.09168467 -0.11842931 0.011341226 -0.009868276 0.031123128 -0.16127917 -0.12469227 -0.019614043 0.01750542 0.22597831 -0.2552816 -0.16556305 0.036825307
人 0.16979437 0.16378647 0.117097884 -0.14831552 0.27280378 -0.28621143 0.041337773 -0.1402735 0.1473897 -0.14529935 -0.002262238 0.08778253 0.059441198 0.12176982 0.067298755 0.110122845 -0.06513507 0.11652231 -0.029209604 -0.23124748 0.024325043 -0.050383616 0.05749921 -0.0660833 -0.26366925 -0.0841289 0.2655645 0.0031986726 0.0115408525 -0.16468243 0.17224775 -0.13432601 -0.15446611 0.18901445 -0.11006294 0.091764405 0.18424195 -0.09460988 0.021935826 0.06213048 -0.108208075 -0.17779553 0.06903003 0.21580012 0.12406818 -0.045898523 -0.018722167 0.017330864 -0.010376173 0.056698628 0.04241965 -0.03857391 0.10651356 -0.08474935 0.1932728 0.73901564 0.12203142 -0.32570842 0.11918167 -0.23402208 -0.27194008 0.0867666 -0.076620944 0.03546533 -0.012961606 0.077915266 0.20741394 -0.13779795 -0.09646846 -0.26608342 0.014755542 -0.08567412 0.01825912 0.19484569 -0.023749769 -0.22172914 0.017308028 0.15805306 -0.20270559 0.38481832 0.10298413 0.17831829 -0.063028485 -0.033907462 -0.0004628899 -0.09954958 -0.04454906 -0.05558007 -0.21990636 0.15064366 -0.050485242 0.12740694 -0.16959134 0.042642675 -0.103860915 0.18797563 0.108761154 0.12465249 -0.15155184 0.12431633
者 0.023661332 -0.0800034 -0.1840043 0.07744517 0.20734788 -0.12628944 -0.15472652 0.10225659 -0.086161755 0.0691794 -0.12045036 0.09377733 -0.2259274 -0.033702917 0.00796384 -0.009129398 -0.2073166 0.008094553 -0.09288444 0.030802019 -0.06887785 -0.03394842 0.1584816 -0.04931761 -0.026797451 -0.22164434 0.021253314 0.020665128 0.030677294 0.102444336 -0.20792994 -0.06005892 -0.12970985 -0.13179585 -0.11826447 -0.07995005 -0.1012125 -0.053783678 -0.17268026 -0.02694933 0.1483538 -0.08799786 -0.19199769 0.210717 0.18027556 0.0002611413 0.21819039 0.13868241 0.020935697 -0.01708417 0.10602634 0.056589168 0.258163 0.07741442 0.13996394 0.72125965 0.05912922 -0.13068473 -0.22163346 -0.18044075 0.35409528 -0.35536954 0.15511873 -0.18747808 -0.03567819 0.04512355 0.13183138 0.10695011 0.03900015 -0.031633724 0.3321049 -0.19542904 0.017264301 0.02134933 -0.08953573 -0.22838436 0.26104534 -0.04603431 0.08085625 0.13389944 0.19274141 -0.009490317 -0.15705423 -0.05158608 -0.005592991 0.1294118 -0.25711375 -0.044110503 0.07446795 -0.10728697 -0.12953284 0.25767452 -0.014841184 0.15001376 -0.25913528 -0.052597407 -0.024676368 -0.035148177 0.12278825 0.12529816
以 0.09619896 0.19145064 0.068936825 0.13292457 -0.18505664 -0.05489145 0.3008901 -0.15542227 -0.0060443655 -0.16439897 -0.0099030845 -0.21851222 0.027403543 -0.03318658 -0.11891725 -0.027243394 -0.0344618 0.033442404 0.09542067 -0.0041082846 -0.23684786 0.27520487 -0.08733528 -0.06409148 0.2388051 0.034347694 0.040841393 0.16468492 0.052956987 -0.14744015 0.059816413 0.036496203 -0.06856296 -0.13302214 -0.04216118 0.009520815 0.18801041 0.012847892 -0.3124352 0.042126436 0.3488626 -0.15041201 0.04155277 0.004850149 -0.19143102 -0.17363541 0.08544716 0.0025586463 -0.14579517 0.017708775 -0.065882094 0.2324605 -0.27587554 0.032865886 0.16630867 0.7050577 -0.06887788 0.17980821 0.021468928 -0.16608103 -0.07524133 0.19146328 -0.023763692 -0.08558307 -0.18657161 -0.12738995 -0.10627279 -0.021740943 -0.020625142 0.12601133 -0.045616515 -0.10994836 -0.0005208235 0.12650394 0.08671349 -0.114413545 0.09683031 0.008212978 0.36334324 0.014694854 -0.14849995 0.3637576 -0.036051452 0.055931892 -0.15764827 0.1878939 -0.14666449 0.18831451 0.14889228 -0.2990462 0.07010093 0.2387842 -0.16948345 -0.09316555 -0.0146022495 -0.35930285 -0.16481453 0.16347006 0.029617092 -0.027473805
有 0.13854975 0.050707817 -0.08953467 0.022555916 -0.085964024 -0.2210556 -0.07340776 -0.11209671 -0.2833882 0.22155838 -0.005582399 0.0002855528 -0.12737086 -0.04590075 -0.016196016 0.110327885 0.06701275 0.07485025 0.07715954 0.07681289 -0.06775557 0.046267726 0.0489514 -0.074903026 -0.08115505 -0.068765186 0.29856485 -0.22155684 -0.11323547 0.037676655 -0.2924428 -0.3822756 -0.26762727 0.20972557 0.10317047 -0.046847787 0.015406152 0.0076038525 -0.14819925 -0.060409077 -0.27097446 0.26042712 -0.22657818 -0.064609066 -0.0070666876 -0.32992384 -0.12694968 0.119532086 0.0012439388 0.082784384 -0.12732977 0.27756962 0.3538603 -0.093752116 0.06512993 0.6542543 -0.16560158 -0.13683349 -0.072430566 0.17194076 0.15486924 -0.03074978 -0.2007972 -0.04074621 0.036312595 -0.079583764 -0.08605211 -0.07578372 -0.028407095 0.10263661 0.06345969 0.31243876 -0.13006961 -0.2289493 -0.014055428 0.03660239 0.1314754 -0.17110297 0.22252369 0.1026755 0.06861025 -0.0048148464 -0.04657824 0.009166456 -0.028108967 -0.008495018 -0.06543127 -0.02854603 -0.045489162 -0.18080541 -0.013345592 0.17941573 -0.146456 0.043376055 -0.08306943 -0.028711962 -0.30993596 0.014006906 0.12084337 0.18957974
于 0.1455218 0.011060985 -0.034430258 0.22241852 -0.26570272 0.2054223 0.002908558 -0.30631346 -0.036908634 0.022448037 -0.12096741 -0.004243632 -0.17829338 0.035786882 -0.16787913 -0.08441061 0.11439971 0.058043692 0.18043603 -0.039894752 -0.22338001 0.17192656 -0.08626901 0.053629037 -0.4671393 -0.022015465 0.5232193 -0.076879255 0.19106169 -0.017800061 -0.19552884 0.12381771 -0.0668784 0.27143356 -0.012445627 0.005599546 -0.09446511 0.22574814 0.1211579 0.2359485 0.14314584 -0.084273264 0.32430217 -0.20822284 0.115119085 0.205967 0.17626405 0.05927867 0.12500809 -0.1832256 -0.051957555 -0.05062767 0.13049297 -0.25132346 -0.046154756 0.6552578 -0.10148565 0.0066035 -0.09183718 0.18954407 0.12864466 -0.055335738 -0.2258154 -0.07811359 -0.10839603 0.08328599 -0.025678912 -0.02997153 -0.1662818 -0.25614437 -0.21264273 0.1174727 0.21966472 -0.15573078 -0.07235605 0.004566761 0.15881303 0.23183239 0.060242686 0.0013104375 -0.09359682 0.032455884 -0.19207552 0.14045846 0.06549934 -0.04149721 -0.040652793 0.11261267 0.14388229 0.11786418 -0.34969407 -0.109294705 -0.040467493 -0.32073772 0.108461045 -0.05193219 0.058935843 -0.032711092 0.010694227 -0.07904054
矣 0.2889969 -0.14778063 -0.07544192 0.11635468 0.14373022 -0.2216847 -0.17265537 -0.1004636 0.07780966 0.06757167 0.16444834 0.03315621 0.115385905 0.06349895 -0.023225218 0.07598879 -0.08657462 0.1408005 0.2520958 0.048475865 0.07875861 0.29165637 0.14415593 0.037863012 -0.12638761 0.13586819 -0.22548394 -0.027996557 0.19110942 0.22283264 -0.08773664 0.2268392 -0.06983553 -0.41281247 -0.27985826 -0.12979892 -0.16672562 -0.053496365 0.06886707 0.10374433 -0.16496149 0.10518758 -0.08018139 -0.21938229 -0.085367896 0.0817369 0.008990223 -0.17658693 0.12837905 0.00032334938 0.120222315 -0.2223609 -0.24075384 -0.26365513 0.01871641 0.67189276 -0.0972786 0.04806937 -0.12793589 0.115186915 -0.389141 -0.31554326 0.07075114 0.05509206 -0.08034722 -0.07079014 -0.23144346 -0.059337214 -0.2465418 0.028640967 0.033516884 0.051800784 0.20872918 -0.28813514 -0.06243875 0.14424634 0.20818256 0.20208158 0.18867016 -0.13340421 0.15679923 0.13863231 -0.109809674 0.093911014 -0.034671657 0.025125401 -0.008750476 0.0005499794 -0.30366778 -0.057503447 0.14322565 -0.04767812 -0.060359243 8.877434e-05 0.03355038 -0.06535439 0.20795208 0.029718626 -0.1615578 0.22386964
为 -0.25694117 0.18231896 -0.030236604 -0.16266684 -0.17689092 -0.07569187 0.12106434 0.034229998 0.2048894 -0.115326874 0.041754957 -0.05146735 -0.098584175 -0.085790984 -0.23204036 -0.08487557 -0.090228274 0.034142874 -0.0785199 0.0015066422 -0.40153587 0.26855424 0.1576746 -0.29187545 0.27697086 0.095372036 0.065802805 0.14555338 -0.13481393 -0.20204017 0.22048181 -0.0072915223 -0.055168748 0.08376553 0.03069467 -0.17028636 -0.23670103 0.21100818 -0.09950533 0.04478304 0.07465796 -0.04414142 0.054385014 0.32599124 -0.05303574 0.06266988 0.0033725752 -0.120141864 -0.34803596 0.04093051 0.5129524 -0.052446023 -0.0013196856 -0.05237324 -0.24273433 0.6522501 0.19688436 0.12328932 -0.028209021 0.2973299 0.0067865048 -0.2287233 0.048804026 -0.27187347 -0.01923225 -0.38639027 0.19063061 -0.004530315 -0.054595996 -0.06879222 0.015577279 0.006933849 0.07791229 0.20649838 0.07143948 -0.25467837 0.04349591 -0.12739009 0.007942202 0.06808788 0.037475362 -0.01774175 -0.105034485 -0.13752665 0.019696506 -0.16581236 -0.16776352 -0.06834349 -0.1177966 -0.040970076 0.012232774 0.005320149 0.15808319 -0.050652537 -0.1263216 -0.004668123 -0.44663933 0.20001079 0.03991571 -0.033283472
君 0.053801954 0.036504194 0.23754464 -0.30766585 -0.25289467 -0.14688389 0.04197009 0.028030936 -0.07672319 -0.24617481 -0.13643909 0.12261562 0.15143302 0.12469548 0.07942266 0.07217617 -0.07880699 -0.0030774334 -0.12887898 0.14178425 0.24604316 0.17559408 -0.3984477 0.019893005 0.22418709 0.16266514 -0.3864924 -0.092061415 -0.05603295 -0.010006532 -0.0705121 0.19448589 -0.26879424 0.006373603 -0.023105884 -0.08858395 0.0017767061 0.030559486 0.091166526 0.026007269 -0.16463625 0.14014265 -0.30662858 -0.07406329 0.09310091 -0.05461821 0.19926965 -0.0013238266 -0.37303615 -0.038190518 0.121815875 0.18683274 0.014831186 -0.22087955 0.3964506 0.7110758 0.04193173 0.11648474 0.37159175 -0.29465187 0.14851834 -0.04407424 -0.019017331 -0.056615673 0.009900562 0.32292575 0.034270413 0.07773047 0.0065460172 0.015568313 -0.06758879 0.14865188 0.31170624 0.19903113 -0.16679269 -0.18086268 -0.16281672 0.22005185 -0.06880753 -0.045988023 -0.11265088 -0.16267103 -0.03751965 -0.015249049 0.29099053 -0.0723177 0.0521823 -0.009308157 0.04940085 -0.0069532604 -0.10534235 0.05175243 -0.02814017 -0.26038122 0.009626086 -0.123661265 -0.17068982 0.09768947 0.10375547 -0.02944272
乎 -0.52238107 0.1703521 -0.0651897 -0.09520801 -0.51515776 -0.19951831 0.013161458 -0.027532475 -0.14231437 0.023516018 0.2203326 0.12184208 0.117956445 0.25564924 0.18336108 0.0032844592 -0.11924765 0.19768411 0.2267631 -0.1831973 -0.14770444 -0.11032262 0.00026575377 0.04092554 0.041423764 -0.064900726 -0.04051608 -0.02603109 0.34051508 0.28012106 -0.216405 0.16476056 -0.018733561 -0.030168176 0.18843496 -0.1415219 0.1711706 -0.017006949 -0.08130137 0.08758291 -0.30994883 0.28688988 -0.025129717 0.22047754 -0.16150855 0.122303426 0.025852947 0.11889347 -0.12682182 -0.05895707 -0.09592389 -0.2187597 -0.068834834 -0.36355367 -0.07471741 0.80736625 0.02435202 -0.050776687 -0.20428978 0.1846299 0.31762707 0.06748587 -0.03299017 -0.13779967 -0.13595629 0.15040693 0.011596625 -0.08077108 -0.17072308 -0.008712877 -0.011289154 -0.16326262 0.019427031 0.0024867507 -0.029254435 0.3040911 -0.14389734 0.10022665 0.030965088 0.087933205 0.029349064 -0.22560444 -0.09816646 -0.06445281 -0.10419467 0.16696042 0.02628879 0.3482306 -0.054802977 -0.19255391 0.036315985 0.025426328 -0.004564156 0.034321688 0.22219042 0.15954208 -0.10291073 -0.031521615 -0.29417896 0.085611045
可 0.06698453 -0.114446275 -0.17771429 -0.06244222 0.1375484 -0.10954726 0.06880064 -0.14890677 0.054021046 0.09929177 0.0013762672 -0.112608634 -0.056776833 0.060160935 0.120207414 0.17280264 0.029641531 0.054882582 0.06766172 -0.29645577 0.056204695 0.17977206 -0.047710426 0.09924149 -0.027067125 0.0073663485 -0.27004322 0.0059070573 0.03824215 0.13736123 0.19443491 0.11540562 0.006772203 0.28487352 0.3140026 0.12425005 0.48195958 -0.08831403 0.08493511 -0.2248624 0.17089003 -0.016800696 0.2522659 0.16166423 -0.42423716 -0.10416046 0.29963666 -0.09767364 0.035270806 -0.13368382 0.17823265 0.080117516 0.15915993 -0.041950844 0.060117718 0.7639193 0.050568514 0.21115556 0.01830927 0.030600404 -0.051215976 -0.1722739 0.09352504 0.043392655 -0.12357331 0.3085228 -0.14617373 0.1410099 0.0019006485 0.2787318 -0.07638357 -0.12934054 0.096834034 0.041880228 0.1937647 -0.3384397 0.13330261 -0.22120099 0.13995484 -0.022302037 0.048117504 0.15450391 0.23546028 0.100446805 -0.06288027 -0.15076488 -0.3580443 -0.048976485 0.09597632 0.11944105 0.21458216 -0.30947134 -0.24457574 0.056607347 0.2269586 -0.047362458 0.100929804 0.052224 -0.06404875 0.036045685
如 -0.06050252 -0.036424138 -0.37226316 0.0009744947 0.19337676 -0.23731934 -0.011048531 -0.013765643 0.15445213 0.06591758 0.14061312 0.02043251 -0.065806374 -0.027374906 -0.17404027 0.03970542 -0.07407036 -0.05311998 0.23784165 -0.005345509 0.04964817 0.16635965 0.030085895 0.103849925 0.09226061 0.017010633 -0.16228664 0.1594772 -0.18211272 -0.061966754 -0.44467545 0.28433505 -0.13087395 -0.10137477 -0.3440541 -0.14562814 -0.1879487 -0.20825063 0.18376887 -0.20098467 -0.0009941175 0.029101918 0.1633116 -0.11802523 0.20941965 -0.11678859 -0.25340143 -0.20801093 -0.17787816 0.43113926 0.049261566 0.16207069 0.28795147 -0.077778645 -0.2259543 0.8414837 -0.013918578 0.10187664 -0.073665135 -0.33593318 0.11478331 0.018273994 0.25412092 0.23674792 0.22628504 0.039548803 -0.083666876 -0.04773905 0.30962172 0.103647806 -0.1948515 -0.021387935 0.0431155 0.06532819 0.23769678 0.1245345 -0.012830182 -0.27851158 -0.1455682 0.121207535 0.02357252 -0.07106391 -0.21246414 -0.091392614 0.028652582 0.06240825 0.061695952 0.22554551 0.108421005 0.19938974 -0.2670538 0.06416623 0.2570058 -0.200992 0.35427803 0.0669044 0.17493817 -0.072621375 0.17502435 -0.104392104
与 0.09723537 -0.0106768 0.100610666 0.10138418 -0.0013712861 -0.28161734 -0.21414298 0.04614607 -0.0024009498 -0.07713199 -0.13982105 0.009643356 -0.34129792 0.054244712 0.0065538627 0.07660329 0.44354916 -0.15433955 0.065318495 0.31222013 -0.044581383 0.32480547 -0.15255108 -0.17752206 -0.28963077 0.09485372 -0.005720735 -0.21151596 0.28936243 -0.18162253 0.06831526 -0.04721378 0.117891125 -0.136141 -0.20313002 0.004640081 0.35937116 0.055173807 0.22452411 -0.28432694 0.020202722 -0.21363294 0.04192059 -0.030246155 0.12145293 0.16623886 0.0436669 -0.26156875 -0.17121361 0.03140667 -0.015002577 0.25252232 -0.02525227 -0.08596143 -0.14718328 0.5690298 0.2888343 0.09553733 -0.1783613 -0.20896526 -0.030516783 -0.2792894 0.3485315 -0.057504587 -0.096635275 -0.072818175 0.0019519605 0.1320252 0.3257652 -0.06665856 0.034383956 -0.29627064 0.045923427 -0.122189835 0.2444809 0.25017494 0.060210995 -0.21986441 -0.093094 0.21880743 0.009596074 -0.0045725643 0.24085435 0.18375209 0.009335799 0.115781076 0.07527956 -0.09936171 -0.03590567 -0.24734357 0.08284503 0.21425688 -0.09471531 -0.09544091 -0.26899675 0.28982866 0.11808244 -0.19859843 -0.32272148 -0.38086167
； -0.042317335 0.056033447 0.34126237 0.07103872 -0.15321516 0.2821773 0.012827551 -0.055313893 -0.06771724 0.22999685 0.26267412 -0.1980099 0.15100944 -0.121546865 0.21507244 0.1647609 -0.06565068 -0.1871996 0.07567923 0.040503222 0.30339482 -0.39592612 0.02908458 0.12824969 -0.04509478 -0.21693164 -0.20483936 -0.08758151 -0.27281913 -0.075448155 -0.110833585 -0.16767958 0.06516534 -0.07644936 -0.06317657 0.106484994 -0.115773015 0.33170676 0.22445339 -0.0087194685 0.4425759 -0.13057065 -0.091418885 0.23391722 0.095074125 0.0072883503 0.070910946 0.165291 -0.04511992 0.2607773 0.013536174 0.02960609 -0.27556995 0.082118176 0.057305753 0.9863752 0.104380466 0.20667565 0.062641785 -0.08338742 0.005400587 -0.043967314 0.031277787 0.2651661 -0.18140027 0.17462353 0.087418824 0.1634648 -0.107831225 -0.39141175 0.107812785 0.24901417 0.04913731 -0.019263526 -0.22906773 -0.028561722 0.06651087 -0.2812291 0.01003248 0.063390456 -0.27799466 -0.028927967 -0.019906929 -0.04958249 0.22845319 -0.394105 0.048706908 0.2223889 -0.11447507 -0.22413996 -0.07605464 0.07922399 0.15439367 0.41681054 0.01779103 0.21432012 0.115792386 5.3333493e-05 -0.04563468 -0.17169462
言 -0.16645306 0.03947608 -0.31897286 -0.11639042 0.19442339 -0.22653835 -0.055915132 0.2339056 0.18780328 0.17834334 0.15023327 -0.09780528 0.025343118 0.039621778 0.036271635 0.119860746 0.01819965 0.11744266 0.051089242 0.11057992 -0.130105 0.23353238 0.026760295 0.32376856 -0.16662072 -0.21399312 -0.13298512 -0.23683982 0.29393417 0.13998759 0.11363714 0.11446231 -0.28777826 -0.028412005 0.04450839 0.010318134 0.33433 0.11133664 -0.08214455 -0.20726396 0.16247264 0.07243338 -0.012203814 0.01847231 0.12916404 0.06529734 0.08582115 0.22719777 -0.2097928 -0.14397365 0.14898741 0.07529681 -0.15586777 0.06394553 -0.046300907 0.6670211 -0.12663986 0.07111798 0.29943746 0.12405222 0.1185855 0.049771387 -0.185595 0.1048487 0.05784659 -0.17213196 0.52712744 0.2649025 0.21766932 0.07528613 -0.18915354 0.20488273 -0.29009277 -0.1885392 0.1589101 0.0010241333 0.16366905 -0.08052463 0.1378114 0.056387227 -0.2605424 -0.101853244 -0.15232104 -0.05757267 0.13233209 0.14082971 -0.04271674 -0.01567248 0.22929938 0.0746109 -0.0771081 -0.14659542 -0.13312756 0.30435342 -0.081513 0.051264748 -0.15694803 0.0014971988 -0.44838497 -0.3106877
无 -0.040591653 0.093278594 -0.01403198 -0.019690853 -0.086261876 -0.04101025 0.11057095 -0.1272824 -0.038921043 -0.028844882 -0.16312785 -0.14029093 0.10459544 -0.054460585 0.025660528 0.2138587 0.004953461 0.16853979 0.054941136 -0.14817649 -0.13550168 -0.42458594 0.009120489 0.025643233 -0.021696214 0.092578344 -0.15774816 -0.079372935 0.12452751 -0.06624476 0.0156693 0.19718455 -0.071587354 0.0933481 -0.07540468 0.055487607 -0.08192995 -0.22441578 0.04932302 -0.20357542 0.23353292 0.21701494 -0.23853268 -0.0024940413 -0.32878476 0.18430303 -0.14496493 0.022550339 -0.07318639 -0.15827155 0.27842072 -0.092251025 0.44627106 -0.31792971 0.075551085 0.9362949 -0.15772848 0.19620885 0.26616445 -0.032403335 -0.18065354 -0.068262465 -0.12846772 0.28673893 -0.06883079 -0.31133553 0.29205146 0.111103185 0.014889356 0.14281256 -0.04823423 0.0066804956 -0.033044647 -0.0979546 -0.05648233 -0.09129011 0.22005571 0.14219546 0.2962622 -0.109410256 0.05034918 -0.3972145 0.08272357 0.31341305 0.053703815 0.20407283 -0.11185016 0.12804173 -0.22096497 -0.17401837 0.045601945 0.19159426 0.08936701 0.020360233 -0.0130713675 0.21599455 -0.0613505 0.14712268 0.26619202 0.0933138
则 -0.19884099 0.011404975 0.11884417 0.20080556 0.078426756 -0.04389012 0.21452211 0.009729215 0.17958139 0.14195447 -0.31469446 -0.29058573 0.37278372 -0.078163445 0.046149425 0.00042826653 0.13389331 -0.27865404 0.13729453 0.048884366 -0.43930712 0.0008257491 0.008193081 0.17990576 -0.06661714 0.09853466 0.22905767 0.38759524 -0.15007134 -0.06987846 -0.08891283 0.17986149 0.14145361 -0.020558234 0.14091179 -0.09191269 0.0873063 0.019281736 0.029074438 -0.03228467 0.33572245 0.023906186 -0.12862934 -0.45533618 0.0766983 0.036096428 0.09773085 -0.25164837 0.03593993 0.099665366 0.06597893 -0.13163292 -0.12579955 -0.06768786 0.087537445 0.7953447 0.024476742 0.114948444 0.019085769 0.3925743 0.10616825 -0.20297305 0.040699396 -0.10890496 0.14883837 -0.2452524 -0.23568562 -0.12744343 -0.17377329 -0.07544078 0.04810448 0.07154682 0.055048544 -0.090175554 -0.37009162 -0.32288533 0.020419678 0.08159361 0.15559204 0.057262495 0.16125466 -0.026277812 0.08984138 0.039429534 -0.1419329 -0.26293078 0.14527012 0.08477099 -0.056268066 0.28226602 0.121255 -0.06373444 -0.050290138 0.0009342961 0.06194363 0.354735 0.01878494 0.038195387 0.020834997 -0.09228732
！ -0.11658783 -0.082795896 0.080707155 -0.18481149 -0.09072884 0.1856969 -0.07178179 -0.058615997 -0.22321948 0.1562834 0.06415472 -0.17702207 -0.37957528 0.5346455 -0.12622851 0.0027789765 -0.20720895 -0.03651843 0.084591135 -0.031112509 -0.07699913 0.0926505 -0.11052108 0.03004308 -0.105736576 0.20869066 0.05500979 -0.13675256 -0.078513585 -0.13338673 -0.023560742 0.01383033 -0.047428828 -0.16151507 -0.021308927 -0.014030524 0.21813405 0.3630622 0.009456617 -0.057758648 -0.6106857 -0.034366943 -0.297766 -0.06335017 0.2336253 -0.09714696 0.051912658 0.104842946 0.13775247 0.06269352 0.29368064 0.11845199 -0.021586759 -0.0069537726 0.0072112684 0.7758001 0.24694902 -0.00080039457 -0.32289958 0.1325054 0.036577284 0.16958587 -0.115479805 -0.029166939 -0.13266444 -0.076445 0.21959075 0.2002027 0.20598346 -0.44935554 -0.09066336 -0.016074287 0.005071904 -0.14535151 0.0045736996 0.14073336 -0.26112628 0.258331 0.026681056 -0.09891946 0.16915767 0.0539575 -0.042040534 -0.13358168 -0.022242146 0.0052240635 -0.03078662 0.19700845 -0.29802886 -0.19257095 -0.07316375 -0.27628917 0.1554553 0.19094048 -0.2047125 -0.1735216 0.15858842 -0.060973696 0.1344306 -0.055936597
问 0.3535196 -0.052673016 0.28669533 0.30340594 -0.2938167 0.013596248 -0.023894917 0.14603058 0.07538351 0.07025738 -0.046462014 0.24323712 -0.09724715 -0.042905774 -0.0009158432 0.33238748 0.16735034 0.07826101 -0.0487835 0.15603726 0.10196748 0.54437965 0.35847792 0.1095806 0.021249035 -0.20467739 0.20305797 0.052383635 -0.04667462 0.112780295 0.25615996 0.25630686 0.13838279 0.060193554 -0.09798758 -0.22125185 -0.5394801 0.27651986 0.12712014 0.103506014 -0.32094 -0.073296994 -0.19856642 -0.4343593 -0.046048693 0.41170466 0.17541507 -0.043740522 -0.12987149 -0.28812796 -0.11215386 0.29071102 0.08635238 0.14508055 -0.06919838 0.6992881 0.18785167 -0.5072837 0.29414162 -0.073698655 -0.13597938 0.109389864 0.07337619 -0.048058245 -0.03314287 -0.2129634 0.23987801 -0.07043551 -0.12924998 -0.27493992 0.0868237 0.024595803 -0.019057121 -0.12846567 0.15029119 0.18653893 -0.070078544 -0.057191327 0.12890159 -0.13348556 0.13585651 0.08504673 -0.12915216 0.16260464 -0.10478577 -0.010968123 -0.1878431 -0.075874396 0.113588445 -0.038016163 0.07031623 -0.024447132 -0.2004412 -0.21296924 -0.017789854 -0.036356654 -0.18029128 -0.064908884 0.041008882 -0.097544834
知 0.2018523 -0.08183338 0.12867296 -0.07984466 0.031563845 -0.40298635 0.04417508 -0.07358604 0.24551722 0.1085143 0.12094528 0.105349645 -0.10009222 -0.14331658 0.030777577 0.21528284 -0.09830069 -0.17863677 -0.08607453 0.1424778 -0.03706216 0.071294196 -0.19926028 -0.08683291 0.21816362 0.23936519 -0.11915968 0.45460933 0.062003408 -0.08538138 -0.08643465 0.01669377 -0.15708832 0.37307024 0.08592027 0.04492868 -0.051702354 -0.22585544 0.18534721 0.09315224 -0.03148596 0.016100524 -0.082501896 -0.030977016 0.17472373 0.026892772 0.040819436 0.042798493 0.19076882 0.08389903 0.16484089 0.30912513 0.15730955 0.11548205 0.030654512 0.7013192 0.029303096 -0.06032124 -0.17068371 -0.17007783 0.019289805 0.0008910493 -0.2215992 -0.14236079 -0.110724114 -0.21411188 0.0060967584 0.07845442 0.022243593 0.10067454 -0.16083346 -0.43441278 -0.10366204 0.00014867859 0.25287983 -0.00803322 0.31796187 0.030955775 -0.055838443 -0.12476347 0.24778718 -0.09017436 -0.05060243 -0.33587068 0.03210402 0.13500978 -0.04986009 0.17396523 0.122832 0.010560607 0.15804921 -0.22764736 0.14118613 0.25183883 0.16118664 -0.05855044 -0.003380066 -0.15743338 -0.05241208 0.06961684
何 -0.17167866 0.0804793 -0.16983347 -0.0908282 -0.4883047 0.15523446 0.13227515 0.020287167 -0.022750026 -0.17317812 0.013661857 0.10148721 0.07244136 -0.1213978 0.0070550246 -0.18728095 -0.2012847 0.3333411 0.17129134 0.045896165 -0.14230047 0.4758884 -0.20341112 -0.05848518 0.152156 -0.34040067 0.07895423 0.48523626 0.092430726 -0.0066826195 0.036738195 -0.23827076 0.1831896 -0.065024555 0.012069438 -0.23040986 -0.049566142 -0.15784423 0.10482104 -0.12755834 -0.2687161 -0.031376496 -0.15239784 0.15676035 -0.14762916 -0.2574797 -0.21798274 -0.2735216 -0.016109576 0.07774089 0.040173214 0.024817878 -0.0013318767 0.21450739 0.12659788 0.5624732 -0.0217652 0.16143216 0.04231851 -0.05752823 -0.0057045044 -0.12817971 0.15684325 0.066259995 0.11060485 0.21328847 -0.10721144 -0.067929104 0.26665658 0.051973403 0.39991415 -0.17402634 -0.15121925 -0.06140599 -0.10637013 0.21706124 -0.01889878 -0.02311254 -0.1511708 0.23511839 0.21949884 -0.017540036 -0.2241661 0.12078321 -0.06562452 0.144399 0.03900639 -0.10701008 0.15076244 -0.16369629 0.09443017 -0.065954 0.025206573 0.25028747 -0.0406815 -0.0776255 0.1655949 -0.118801735 0.080346346 -0.18278627
吾 -0.0955837 -0.2993237 -0.37691364 0.19486094 -0.14687765 -0.035379514 0.5836796 -0.03037609 0.20906746 0.024122411 -0.121171236 0.05538933 -0.08449082 0.27718368 -0.010833974 -0.047368284 0.03350841 -0.2925168 -0.10726167 -0.058434363 0.10816272 0.26001844 0.14891155 0.07037162 -0.3169536 0.08243536 -0.0055624475 0.17465928 0.1474548 0.0721282 -0.25221428 -0.07825023 -0.017263707 -0.08210613 0.064633496 0.10027757 0.08726428 -0.23188181 0.23391092 -0.2307954 0.08028432 -0.23722045 -0.013027663 -0.03850327 -0.10077191 0.038805544 0.16920996 0.0950866 -0.049545433 -0.030210845 0.12567751 -0.15942687 0.10096214 -0.117173746 -0.010124858 0.553839 -0.25804362 -0.15370749 -0.17036626 -0.045891322 0.0696002 -0.21065718 0.2920171 -0.024380943 0.08328488 0.20595619 0.043529507 -0.0150296455 0.13925925 -0.11929594 -0.13924137 0.08838472 0.2872373 -0.20904289 -0.2834077 -0.08562267 -0.2949979 0.06186367 0.024015687 -0.2648342 0.013620301 -0.33183482 0.11426529 -0.20696543 0.03036288 -0.042997494 0.06615821 -0.09432893 0.100268416 -0.24646911 -0.030074233 0.02325056 0.051707875 0.48576054 -0.024057262 0.14357817 -0.084391475 0.067275524 0.37458956 -0.0924835
仁 -0.0161085 -0.37528968 -0.07328385 -0.23882611 0.068652086 -0.3167751 -0.009020932 -0.0049561053 0.057628304 -0.24919689 0.1533235 0.07799395 -0.08105813 -0.0075654723 -0.24087703 -0.045444407 -0.24935971 0.23858194 0.25840393 0.1758873 0.20144233 0.13471249 0.048276033 -0.14840762 0.32769468 0.109290235 0.046642143 0.04290501 -0.044108447 0.15168877 0.006800643 0.094222285 -0.45441252 0.14080204 -0.058826946 -0.1082942 -0.37567443 -0.06760136 -0.14804824 0.337098 -0.09473896 -0.17634857 0.15921593 -0.05893557 -0.04055426 -0.017548833 0.10478979 0.10731027 0.08696337 -0.22057089 0.027022041 0.034376115 0.108037226 0.3360445 -0.15065588 0.619599 -0.12424208 0.04280245 0.20750946 0.0948919 0.024759205 0.13706775 -0.15284443 -0.20152989 -0.2538403 -0.040238474 -0.051592566 -0.09767363 -0.10946911 -0.058503054 0.440199 0.0017183933 -0.2914155 0.14922969 -0.14638872 -0.018949518 0.13452148 -0.008529714 0.01884754 -0.22969359 0.27885798 0.024227345 -0.25373784 -0.1371069 0.14216505 -0.01916751 -0.16555633 0.053514726 0.08331417 -0.06663858 0.021729762 -0.047554016 -0.10802903 0.22893512 0.0020830538 0.12041857 0.035882432 -0.14706466 0.021990983 -0.03306134
夫 0.03595927 0.004692233 0.017725365 -0.1460389 -0.15621829 0.13264182 -0.17636593 -0.013684774 0.05238858 -0.26292813 0.112737544 0.037856616 0.071286336 -0.20900682 0.059444487 -0.40301505 0.06594982 0.17572612 -0.14363173 0.07169678 0.12324546 0.43719676 -0.23270786 0.057492033 -0.12389246 -0.058312103 -0.042784568 -0.17535606 -0.18311846 0.3509691 0.0034991375 -0.1368269 -0.13272446 0.020442113 -0.018208817 0.016424779 0.20554876 -0.19770157 -0.060281668 0.025845818 -0.14032464 0.08185866 -0.039160732 0.079920374 -0.083864786 -0.13222943 0.21295257 0.05251455 0.6045627 0.28374982 0.015309567 -0.2005199 0.08844195 -0.4461358 -0.21595702 0.62459284 -0.1803794 -0.23928778 0.38395146 -0.108709075 0.1673055 -0.38626492 0.382124 0.20969154 -0.23271118 -0.2276066 0.010127641 -0.1757735 0.24623625 -0.2904045 -0.27095285 0.23363999 0.115948655 0.11702132 -0.22074778 -0.06415533 -0.04865639 0.07285817 0.27288896 0.15641847 -0.1504421 -0.24033648 0.3686548 -0.21214251 -0.030244743 0.06244339 -0.02652603 -0.0010071248 0.025856832 -0.27932888 -0.10494044 0.22242671 0.09891337 -0.08704801 0.17976494 0.12717527 0.13770707 -0.24730295 -0.054803643 0.2798568
、 0.022663858 0.035119686 -0.059402134 -0.09740939 -0.052706383 0.4131983 0.10421413 0.20824231 -0.023035595 0.23650682 0.083079934 -0.05024051 -0.14603768 -0.01638125 -0.532889 -0.10078782 -0.23962042 -0.02816407 -0.11172965 0.23040134 -0.15412013 0.38380757 0.39556304 0.118665256 -0.011883319 -0.120110996 0.20719832 -0.07810757 0.15178512 0.0069827433 -0.12190077 0.014551972 0.06885345 0.09893136 -0.15754953 0.040920626 0.05948909 -0.07628678 -0.43531623 0.061895054 0.011917199 -0.010862586 -0.00765498 -0.015427382 0.14055638 0.116217524 -0.14506704 -0.09534816 0.041324213 0.036027476 0.1745391 0.3261472 -0.25587744 -0.24052566 -0.011247261 0.81042796 0.28964424 -0.49537465 -0.078048415 -0.073130436 -0.3072146 0.15368399 -0.55838704 0.18522908 0.2813801 -0.19217679 -0.27293214 0.13557842 -0.048286624 -0.102792114 0.031267807 0.24107958 0.25842923 0.09846267 -0.1835285 0.3207911 -0.010530194 -0.70045096 -0.3025333 -0.13850082 -0.056578737 -0.09536756 0.031704023 0.3047937 0.0018507914 -0.09515924 -0.105492726 -0.02658466 0.26100567 -0.24961273 0.13283902 -0.022146432 -0.2320889 0.060128402 0.24038176 0.034106456 -0.084001206 -0.012851516 -0.07437598 0.16924168
道 -0.010890464 0.040104106 0.0125266295 -0.17142138 -0.37329292 -0.43526626 -0.23433654 -0.2348639 -0.008239984 0.16214621 -0.20812385 -0.079095766 -0.1679715 0.16192037 0.078881726 0.049281847 0.08345933 -0.06327378 0.055402763 0.087166555 -0.11869821 -0.20181212 0.20556778 0.4192481 -0.14034772 0.20282337 0.10281527 0.007819124 -0.118670754 -0.11974053 0.24493296 -0.118862115 0.05161643 -0.36770296 0.06365679 -0.18448831 0.090248585 0.15859236 -0.018897882 0.1339077 0.14338379 0.18729989 0.048414033 -0.30577326 0.14829656 0.00088025135 -0.04331395 -0.19569571 0.025246222 0.22174412 0.10208149 0.13366403 0.06783095 0.26338118 -0.13482834 0.74307364 -0.042394087 0.13354544 -0.106704906 0.13632357 -0.028337196 -0.42927957 -0.013649286 0.32686618 0.18295664 0.38291398 0.02717328 0.17638747 0.35518712 -0.14792794 0.13249071 0.080707476 -0.08722129 0.020057596 0.18453981 -0.089496374 0.2870097 0.12717983 0.07770394 0.022276511 -0.058393784 0.26090968 0.18169035 0.02328486 0.18065329 -0.015508117 -0.15414281 -0.32464704 0.011994764 0.016350288 -0.073255196 0.37441602 0.12641115 -0.08817552 0.15362449 -0.23956223 -0.2919614 0.27094442 0.070191346 -0.11978307
焉 0.23802084 -0.07619198 -0.015194976 0.14832114 -0.029305521 -0.40339193 -0.11534037 -0.16220431 -0.13845214 0.24176778 -0.099755876 -0.06034043 0.08788897 -0.07465176 0.11015526 -0.12761068 -0.010629782 0.1713209 -0.10410078 0.06479752 0.10078226 -0.15244259 -0.23098388 0.13328624 0.028108604 -0.03270781 0.10965358 -0.075779185 -0.26806498 0.07060057 0.23884007 -0.25665125 -0.31061763 -0.07430684 0.06198324 -0.11817872 -0.032708116 -0.20577528 0.24984728 0.033084124 -0.13966638 -0.3094565 0.018865429 0.16436966 -0.20021115 -0.32196933 -0.04877956 0.24848586 -0.038458224 -0.5783589 0.01687913 0.0069497414 0.09894228 -0.118770294 0.1231757 0.9139147 -0.2854151 0.08320038 -0.37607035 -0.0033541005 -0.35091984 0.12694025 0.008795123 0.07265873 0.31499413 -0.17286052 -0.23458229 -0.26408514 -0.30645633 -0.02929146 0.20161477 0.07522189 -0.06161884 -0.0118901245 0.28291544 -0.02274836 -0.31914315 0.08688812 0.18529788 0.105851986 -0.08419095 -0.0047320826 0.12876362 -0.45914522 -0.17939563 0.012948272 0.04141096 -0.36435524 0.25702554 0.16902278 0.035060965 0.1536611 -0.23008196 -0.16486093 0.24228516 0.31301004 -0.08924119 -0.1504109 0.044866815 0.011308662
行 0.043276016 -0.13304374 0.009923202 -0.032988206 -0.124942645 0.079306886 -0.25077412 -0.090288386 -0.1263018 0.049632084 -0.18018448 0.163343 -0.09133854 0.08730667 -0.21047562 -0.35932678 0.043747783 -0.43762648 0.33037817 0.05285889 -0.0877732 0.35587332 -0.04720714 0.24618223 0.34577754 -0.16500035 0.082620956 -0.20481117 0.18091884 -0.12779836 0.21608506 -0.029250951 -0.2023962 -0.0043540187 0.21677433 0.13711321 -0.29540622 -0.11116535 -0.13004085 0.036856715 0.1272067 0.16067058 0.15997136 -0.26033187 0.048668906 -0.032953337 -0.18804348 0.11216952 -0.42156 -0.22271405 0.064403504 0.03229918 -0.10911125 -0.11496991 0.04088278 0.6300356 -0.3318825 0.3396894 0.38566902 0.03667637 -0.053014997 -0.013622635 -0.10480431 0.02590528 0.16600724 0.001942772 0.35186005 -0.1057497 0.006963935 -0.055689044 -0.049400404 -0.014197664 -0.28358823 0.055998385 -0.12215323 -0.232019 -0.144213 0.060776792 0.07806507 -0.084210575 0.07813006 0.1766419 -0.012305426 -0.30741364 0.39323628 0.14424656 -0.16084869 0.25347567 0.18334731 0.041230924 0.003858436 0.07536647 -0.12190852 0.100576505 -0.037625253 0.07890316 0.19210795 0.24161385 -0.18525165 0.25405088
谓 0.030860595 0.19006352 0.32938537 -0.23643465 -0.010473229 -0.044835366 -0.1381121 0.076262206 -0.113673344 0.20926926 0.30319208 -0.40917763 0.07559002 0.08328991 0.05669763 -0.03065609 -0.18888402 -0.091325 -0.23730344 -0.14396209 0.055541445 0.81705225 0.21381551 0.30413052 0.1668395 -0.34874445 -0.03085075 -0.1335935 -0.17202626 -0.3716125 -0.024474928 0.3302983 0.35553014 -0.020468954 -0.15651803 -0.13402979 -0.09489788 -0.15847646 0.16745476 -0.35563347 -0.360741 0.08192496 0.017194508 0.11770427 0.20305862 0.10380613 0.12325072 -0.10704065 -0.22015747 -0.12527062 -0.007526198 0.2126848 0.3444943 -0.09150382 0.075214915 0.5388044 -0.6527779 -0.0036738182 0.0940249 0.13311379 -0.101336986 -0.008457921 -0.13469763 -0.092500396 0.028600864 -0.05810681 0.0039263414 0.28639293 -0.021212045 0.0405827 0.31525305 -0.04330192 0.32645148 0.13612173 0.14314069 -0.10494689 0.019189486 -0.27688327 -0.26182333 0.085218765 0.45483202 0.43374106 -0.17854002 -0.18972625 -0.11687986 -0.03716114 -0.08911573 0.15564077 -0.38244024 -0.1590212 0.15233225 0.11241715 -0.053758275 0.017850429 0.2561754 0.05397584 0.017434878 -0.14186086 0.24173285 -0.2340804
必 0.24273115 -0.03439324 -0.0013095038 -0.069610335 0.21347804 0.27918872 -0.09071743 -0.0050283493 0.099408396 0.123001516 -0.11909671 -0.0022400476 -0.108610675 -0.17739272 0.031862933 0.03522878 0.099650435 0.17648946 0.16464303 0.19445997 -0.057684615 0.22209267 -0.19401878 -0.0010053959 -0.10950039 -0.5043541 -0.2129379 0.14034124 -0.45319164 0.23116308 0.08653131 0.11094797 -0.022501133 0.3202881 -0.0495105 0.23485182 -0.10637069 0.122881435 -0.07253559 0.0024006076 0.43382406 0.35859284 -0.04396374 -0.028094575 0.32617518 -0.14949931 -0.08765035 -0.26759768 0.007920034 0.25531912 0.09278612 0.10607354 0.28879184 -0.19747716 0.0073842406 0.7653216 -0.20483688 0.362332 -0.26509368 0.099255994 -0.14680807 0.17778434 0.0501878 -0.15022038 -0.07799606 0.016204951 0.063560985 -0.1417107 0.1390423 0.22223388 0.073341414 0.05958205 -0.03764868 -0.062703386 -0.22092107 0.39969167 0.094234854 0.08038192 -0.17608714 -0.092888795 -0.066011146 -0.2862342 0.32010782 -0.08699858 0.11438459 0.15821002 -0.0981985 0.45316282 0.376994 0.3089919 -0.1763646 0.41825083 -0.07866142 -0.07872718 -0.10036049 -0.1184466 -0.065027915 0.092363134 -0.3562334 0.12936439
礼 0.1177384 -0.18549095 0.058721073 -0.005458543 -0.2992203 -0.14818719 0.05191905 -0.16411196 -0.26431313 -0.035505787 0.16207878 -0.0068569467 0.2655988 -0.05551765 0.06738378 0.16535504 -0.17584613 0.03671511 0.017080197 0.046854135 0.15893488 0.09816217 0.11635588 0.25880468 0.03352735 0.056257818 0.24406017 0.06543516 0.16186643 0.041963764 0.17237803 0.06499657 0.03383378 0.06929859 0.061410148 -0.22665259 0.19033737 -0.11116118 -0.0744225 0.14362457 0.3364992 -0.24023804 -0.02349379 0.14443178 -0.038828827 0.24329118 0.37629417 0.023395099 0.0718986 -0.018250162 -0.14076349 0.1585442 0.1001678 0.19419417 -0.2026723 0.54995716 0.20880517 -0.14096911 -0.14067687 0.05672509 0.48705214 0.017450448 0.015960034 -0.06619313 0.20588051 -0.1643016 -0.17638458 0.23892745 -0.25918943 0.27828413 -0.22277777 0.10460504 0.19864498 0.29833072 0.074474074 0.2539847 0.23052737 -0.07362197 -0.2334114 0.013801627 0.09288771 0.36736685 0.1664892 0.08219755 -0.27074462 -0.096450634 -0.003668639 -0.07358693 0.060369473 0.02786272 -0.33934173 0.3092114 -0.0048061386 0.21686953 0.27196464 0.5612623 -0.02275866 0.33891782 -0.05444748 0.03990202
孔 0.45369917 -0.0512301 -0.055758327 0.27527902 0.08201925 -0.27820113 -0.37691802 0.288634 0.4099413 -0.14321527 -0.22198233 -0.42676562 -0.039157495 -0.56054884 -0.032723524 -0.1847619 0.12958921 -0.124812126 -0.24887429 -0.012740482 -0.007892804 0.18442507 -0.19022118 0.43375364 -0.25484315 -0.07356024 -0.079828806 -0.18256567 0.12263131 0.28718707 0.46951815 0.16798495 0.020569267 -0.14560148 -0.22230312 -0.19572443 -0.1213168 -0.2152232 0.16636972 0.09892953 -0.62911093 -0.27621892 -0.09140544 -0.08963087 -0.074805684 -0.10721692 -0.3095517 0.3723513 -0.0887674 0.17418984 -0.47604758 -0.23911552 0.4018362 -0.15066493 -0.22506236 0.92999834 -0.33196 -0.17567307 -0.0002372498 0.18079795 -0.028508728 0.24465393 0.19562452 -0.33359107 -0.16482769 0.1770756 0.09878847 -0.27993152 0.01890987 -0.025353352 0.1836877 -0.27288914 0.057862263 0.18746687 -0.1251435 0.14795895 0.0564226 -0.07872392 -0.29477108 -0.20606926 0.23340672 0.026140692 0.04972319 0.35975796 0.020231815 0.17304325 0.28482637 -0.009781058 -0.15538351 0.009562249 0.3548596 -0.041115396 0.054459244 0.06251037 -0.14393115 -0.08322632 0.17751355 0.2728202 0.02463717 0.18115264
斯 -0.079706356 0.0751043 0.076522276 0.022925882 -0.03432764 0.086517975 -0.14353664 -0.046177 0.27058172 0.10562379 0.29766172 -0.133912 0.043846272 0.3583541 -0.3561522 -0.22545898 0.15539913 -0.093024 0.09787791 -0.42629182 0.22687076 0.39900833 0.08784161 -0.1871315 0.30942604 0.033698022 0.13581613 0.05123769 0.07877121 0.4470298 0.15077804 -0.18080857 0.1747349 -0.08874701 -0.41003832 0.2046739 -0.03582252 0.12494621 0.33904636 -0.020822536 0.26057348 -0.22497894 0.16438304 -0.048560537 -0.10075715 -0.4910894 0.3413066 -0.060858674 0.28049815 0.20824075 0.06517078 0.212373 0.19079868 -0.12091906 0.0398078 0.6441852 -0.26499814 0.21187098 0.3088778 0.1917213 0.36833754 -0.11659514 0.060197856 0.074994154 0.08152248 0.1885456 -0.14238526 -0.17588666 0.01094978 0.30358168 0.049813654 -0.19292714 -0.4027323 0.047061983 -0.23446126 -0.13751557 0.19603659 0.24188773 0.39374816 0.21373615 0.31848925 -0.11774784 -0.13790622 0.13167687 0.13518918 0.021551628 -0.21767588 -0.0084449975 0.054635227 -0.061689056 -0.05633862 -0.13755094 -0.16057707 0.07749057 -0.13799195 0.32472003 0.24094138 -0.10383393 -0.21675366 0.14677991
三 0.21841407 -0.29022878 0.032528687 -0.024905153 -0.091561384 0.0016254365 -0.5449879 0.044062577 0.105587035 0.0142621435 0.07708812 -0.124405526 -0.22540821 -0.02223098 0.18098125 0.25480658 -0.08196375 -0.04579036 0.022087758 -0.2886499 -0.3565324 0.15860258 0.004124049 -0.25659055 0.09584561 0.2532061 0.06181168 -0.040110018 0.020584539 0.31077325 -0.10278942 0.044279218 0.21167429 0.34625787 -0.120969474 -0.087134406 -0.16445345 -0.3558278 -0.18433353 -0.27967528 0.29944524 0.04979715 -0.2891122 -0.101456374 -0.32125047 -0.11586128 0.26746994 -0.08948058 0.29817554 0.09273803 0.1297822 -0.07175587 -0.16493072 -0.011133906 -0.13249841 0.64327425 0.28777322 -0.14152476 0.015244703 0.2919138 0.35241228 -0.1609376 0.11929982 0.06009427 0.09917095 0.19198568 0.22000983 -0.3508576 0.08051554 0.08274385 0.059934713 0.3139441 -0.040960982 0.22044949 0.45784536 0.2330568 0.11248692 -0.014098471 0.09184281 -0.52175695 -0.40103844 -0.13920644 -0.1497183 -0.034161832 0.053993624 -0.1181891 0.13805601 0.35686055 0.12813114 -0.25217682 0.19412759 0.04245258 0.10282018 0.14629944 -0.0031006783 -0.22732985 -0.004175564 0.19570853 -0.20971856 0.1556184
能 -0.28523093 0.13930494 -0.22674929 -0.21186037 -0.25597155 -0.35555726 0.073773794 0.13882004 0.28194323 -0.22282967 0.06735851 0.04524505 0.42807958 -0.24122423 0.15311916 0.10621505 0.1008181 -0.19648285 -0.14925365 -0.11061402 0.09510124 0.012285215 0.30392385 -0.108485304 0.11965775 0.05358972 0.0831187 0.013173082 -0.30784073 -0.3021067 -0.06414913 0.08172198 -0.08843946 -0.05648087 0.16375464 0.019849507 0.05665064 -0.3142322 0.017314663 0.06068956 0.1943706 0.06640288 0.28401318 -0.08350578 0.18910646 0.014650374 0.005637678 -0.008673074 0.06813061 -0.26891798 0.33807713 0.23686804 -0.03752177 -0.05920352 0.10350624 0.7080552 0.061984647 -0.12122845 -0.37296826 -0.04193576 0.17848301 -0.09860207 0.12652251 0.17519248 -0.18488447 0.3265784 -0.41193548 -0.073078915 -0.056968953 -0.37922195 0.052506644 0.008332977 -0.23397103 0.06445808 -0.041944068 -0.28432193 -0.10922925 0.27662042 -0.100520186 0.086141855 -0.22878335 0.34100792 0.04863821 0.4129131 -0.20355986 0.22553886 0.3101741 0.08089362 0.17335369 0.009446917 0.15160996 -0.033057697 0.049301393 0.05569375 -0.026769813 0.18857254 0.26469302 -0.21834819 -0.3615475 0.092860214
见 -0.07902184 0.25025293 0.2097743 0.13328846 0.40082952 -0.15436581 0.04727004 -0.090313025 0.053544536 -0.14237036 -0.022352187 -0.23050581 -0.34894648 -0.2771612 -0.14064363 -0.060443446 0.08909779 -0.16480553 0.25814456 0.4711723 -0.08256117 0.25117892 0.15142046 -0.13430457 0.0114708515 -0.098426886 0.38362288 -0.3448823 0.15160432 0.0961077 -0.29750025 0.044924755 -0.0059374236 0.049779058 -0.18161307 0.28545883 0.032952797 -0.024887357 0.362342 0.27764696 0.16280672 0.039347403 -0.03140513 0.10197791 0.07730174 -0.045005955 0.056068417 0.117877066 0.09244264 -0.07660263 0.028064338 -0.26644495 0.04703018 -0.054019894 0.003368003 0.6325449 -0.28672653 -0.037249114 -0.0961572 -0.46351627 0.11667574 -0.20475407 -0.19446492 -0.38769218 0.25199342 0.44231662 0.26670298 0.124874346 0.16106421 -0.34487525 0.2356661 -0.1470009 0.17257242 -0.12047012 0.19476627 -0.06685777 -0.36587074 -0.09221686 0.002625092 -0.4334408 -0.024941955 -0.13774635 -0.13807903 -0.04678804 0.090752035 -0.113570005 0.015373972 -0.06277768 -0.123476036 0.05227188 -0.04997562 0.15746939 0.18011709 0.679382 0.04057677 0.0132802315 0.02918612 0.089784294 -0.12672506 -0.05344916
学 0.058001015 0.060888804 0.32035482 -0.0048293527 0.18508385 -0.3905262 0.1218878 0.032876138 0.16155365 0.13410087 0.065504506 -0.0063176206 -0.08201766 -0.43363336 -0.15921769 -0.09509414 0.1970668 -0.12057049 0.32753274 0.25523597 -0.14028586 0.35480675 -0.14999296 -0.045734324 0.25647473 0.1215288 -0.49776897 -0.18130268 0.13568196 -0.011129373 0.3056691 -0.18670811 0.2210246 0.18373775 0.1752983 0.1838123 0.13750117 0.1271257 0.11341381 0.02802386 -0.001071818 -0.397979 -0.4833021 -0.26464316 -0.21933803 -0.09606813 -0.21157974 0.031952664 -0.12044606 -0.26898494 -0.48086876 0.064523816 -0.31551033 0.20102134 -0.3343514 0.7219957 -0.19038905 0.12618528 0.24641676 0.07351742 0.26849166 -0.1723555 -0.1529797 0.20939685 -0.13706844 0.20474908 -0.02957301 -0.12310965 -0.1816385 0.0430352 -0.10158642 0.21740904 -0.21404645 0.069810495 -0.041628584 0.33569944 0.15464786 -0.13337934 -0.25426614 -0.091763616 0.0628768 0.05708779 0.050105438 -0.055742126 0.3569884 -0.3200454 0.1985023 0.071570694 -0.17766555 0.09642365 0.19772744 -0.13848178 0.006947112 0.14496791 0.26059702 0.40430585 -0.1386868 -0.10031595 0.0009195241 0.030815063
事 -0.1432535 0.026646195 0.15481418 -0.2054058 0.016661635 0.23729753 -0.3154124 0.310773 0.1255647 -0.3377259 -0.14334351 0.175246 0.16101278 -0.39433524 -0.2793325 -0.24144493 -0.0009205983 -0.20181169 0.33968806 -0.3191418 0.23766471 0.397375 0.4863901 0.036836945 -0.38811353 -0.028768606 0.34200117 -0.16055842 0.0019333771 0.11956368 0.1448888 0.024723258 -0.0843821 -0.047456197 0.110996366 0.12678963 0.116492085 0.28972864 0.06646758 0.18765813 0.2083356 0.52817506 -0.15069658 0.26634532 -0.13629982 0.2869371 -0.30835286 -0.09196783 -0.114169925 -0.06465519 -0.34974688 0.09851558 0.08663841 0.22627231 -0.03929062 0.63366157 -0.24818042 0.30964324 0.014200399 -0.5401456 0.3800756 -0.3169794 -0.10644683 0.144065 0.25058874 -0.2937489 -0.26131415 -0.026454194 -0.0112211965 -0.060104 -0.08607448 -0.019661391 0.025158115 0.028314276 -0.196996 -0.12823597 0.05190015 0.08674224 0.124617904 0.088327564 0.3868125 -0.03870043 -0.1611529 0.10257536 0.0342786 -0.26553226 -0.12411765 -0.25480828 0.00032033212 -0.10224279 -0.0026108723 0.20220439 0.08513816 -0.07777487 0.21473333 -0.0070747454 -0.18348123 0.007950007 0.08233199 -0.08423962
是 -0.24865855 -0.18368629 -0.13145792 0.04276811 -0.27541456 -0.61323357 0.08018905 -0.037049998 0.2533812 0.05954141 0.0656696 0.12266933 -0.13433239 -0.14259352 -0.28235364 -0.109911256 0.11942966 -0.15211232 -0.08256647 -0.002087218 -0.19018717 0.14508134 -0.46697187 0.17521241 -0.097782835 -0.39887673 0.08684632 -0.12263538 -0.12831603 -0.027247299 0.0930957 0.25344452 0.18381593 0.026416838 -0.02755889 0.10600197 0.08182492 0.14343062 0.16738823 -0.19673364 -0.17712294 -0.2017243 -0.22522733 -0.31935927 0.22423746 0.20304713 -0.17857563 -0.3519762 0.050453637 -0.40155932 0.13033152 -0.32222733 -0.13626821 -0.071038194 0.073211186 0.74623495 0.053613856 0.15899427 -0.30828613 -0.101005144 -0.0059700543 0.3426325 0.06989719 0.14465174 -0.2851489 0.037128173 0.15524147 -0.23187695 0.21494798 -0.0660007 -0.14352998 0.0017027301 0.035518546 -0.15896384 -0.039842773 -0.5109898 0.151725 -0.096558124 -0.06432938 0.025257265 -0.047985945 -0.4218396 -0.37067908 0.027549388 -0.09382 -0.035432227 -0.16845237 0.0033899627 -0.1029283 -0.1515329 -0.035691295 0.08171659 -0.29009473 0.18947661 -0.2721364 -0.3539567 -0.19472322 -0.36568758 0.08481348 -0.18731949
哉 -0.26572818 0.19304349 0.13705492 -0.09605807 -0.35543922 -0.05896918 0.080619335 0.15845634 -0.08375626 -0.1398021 0.14791948 -0.24684907 0.09808712 0.12277731 -0.045702707 -0.25454354 -0.22116387 0.139521 0.20887126 -0.11683673 -0.05166195 0.27131054 -0.08037891 -0.11140702 0.0358756 -0.5296236 -0.09244831 0.22043253 0.23174617 0.08107469 0.098246254 -0.31490356 -0.18881808 -0.038848925 0.22054087 -0.22718608 0.12311156 0.13346827 -0.015306098 0.35730726 -0.7652889 -0.2058556 -0.078352675 -0.1799668 -0.37303454 0.05004706 0.19591823 -0.075882964 -0.35335088 0.054460865 0.19195814 0.38422975 0.21105815 0.20178792 0.15854593 0.7996257 0.31198195 -0.027282218 -0.1883218 -0.035176102 -0.19010474 0.031485047 0.21920247 0.15497315 0.2836922 -0.12799025 0.21356058 0.48589796 -0.006986219 -0.3449114 -0.24104518 0.27043903 0.33501798 -0.6639302 -0.22701447 0.1347489 0.009616287 0.16187994 0.05450566 0.1579431 0.14011046 0.07891784 0.003559419 0.064033926 -0.0049784402 -0.07645317 0.18482825 0.47552118 -0.07130832 -0.15082717 0.09713431 -0.025306655 0.3094155 0.35155353 -0.06399633 0.06105175 -0.09785168 0.12481927 -0.072989576 -0.024771774
闻 0.21269517 -0.072924085 0.2525837 0.04095387 0.29907578 -0.17203146 -0.40580487 0.13625951 0.16046165 0.042711187 -0.35276204 -0.38056484 0.19895391 -0.17828323 0.04940951 0.07909088 0.017271632 0.2499626 0.17416562 -0.42681804 0.13933007 0.5686239 0.07870501 -0.06880651 0.13707526 0.21589758 -0.119872876 -0.085531354 0.45469555 -0.31353912 -0.23355469 -0.21892717 0.035588957 0.24844456 -0.006467512 0.25922954 -0.020183997 -0.14586061 0.22752433 -0.12855093 0.19161236 0.06267238 -0.065067776 -0.19628932 -0.12683877 0.015312572 -0.06007143 -0.19403079 -0.18263312 -0.13387801 0.09676919 0.015593821 -0.030966656 0.11218528 0.01063727 0.4831652 0.10304585 0.0867014 0.14572506 0.10426007 -0.21081398 -0.06430197 0.037142422 -0.029501582 -0.18274114 0.04741327 -0.04268836 -0.2518494 -0.104890406 -0.1859212 -0.02584549 -0.015043334 -0.22640845 -0.012288589 -0.10998745 0.3618205 0.16948095 0.15803152 0.03882683 -0.21742211 -0.10428932 0.12599023 -0.08843452 -0.1547371 -0.44446582 -0.326618 -0.17445405 -0.19475299 0.29025057 -0.21015221 -0.5333419 -0.008582517 0.09409543 0.408218 -0.062002547 -0.06744825 -0.19868052 0.24431436 -0.19203992 0.03356178
未 0.19207248 0.016599061 -0.048028927 -0.0009897405 -0.061708644 -0.2448785 -0.009240229 0.11517209 0.16512567 0.09149229 0.22721837 -0.36295822 0.14366059 0.02935787 -0.25845242 0.17804657 -0.04099575 -0.001295263 -0.29380062 0.12746492 0.061300654 -0.0019560636 0.20603517 0.18045351 -0.122485824 0.2204186 -0.028640287 0.10665315 -0.28139704 0.22331034 -0.05558581 0.0328745 0.003381209 -0.14789458 0.047201864 0.112648845 0.06949483 -0.3453496 0.079725765 0.0845586 0.06624651 -0.103257135 0.19049002 -0.2637678 0.0656975 0.29450598 0.0915263 -0.029342737 0.006782556 -0.009332566 0.11857151 -0.061059274 0.30004147 0.25397667 0.02700167 0.70073146 -0.38283876 -0.10690507 0.2667532 0.25263748 0.06905499 0.08145437 0.33473316 0.011594469 -0.22380716 0.41151148 -0.036966223 -0.019287536 0.012282885 -0.27786836 0.12628868 -0.33324617 0.019702047 -0.018444099 0.24929571 0.07372522 0.07579705 0.39761436 0.04140211 -0.15181422 0.03925474 -0.1265839 0.31365168 0.16507834 -0.034461927 -0.40964484 -0.08324069 -0.019637529 -0.042068657 0.10641587 -0.1885342 0.2870441 -0.20733048 0.4920007 -0.11023392 -0.41502902 -0.15514828 -0.29613462 0.44902518 -0.039479554
公 0.13588458 -0.36099073 0.10960622 -0.03810211 -0.21493255 0.037943818 -0.040802464 -0.13958056 -0.5048488 0.14102995 -0.13127051 -0.18563418 -0.10974789 -0.10851272 0.1393574 -0.107384905 0.009392103 -0.19358948 -0.12639748 0.31968373 -0.055371277 0.26911336 0.21575402 -0.23724566 0.07806091 -0.20134172 0.29371718 0.39047062 -0.08167491 0.13453907 -0.20894034 0.10448039 0.15649429 0.009439166 -0.026603973 -0.15738761 -0.37379542 0.20922738 0.52553326 -0.25415465 -0.49035186 0.19853285 0.43657282 -0.16760293 -0.14448613 -0.16109547 0.16205758 0.23158607 0.12674019 0.012315791 -0.19768403 -0.13747106 0.24183002 -0.051444683 0.24822704 0.78414273 -0.026282692 0.050694283 0.046309203 0.077120855 -0.21963918 -0.13117252 -0.028026272 -0.042831764 0.042668253 -0.32535264 0.26606727 -0.09617978 0.084404275 0.25959507 -0.25430858 -0.06216218 0.3648796 -0.029832978 0.06242647 -0.10424835 0.34585094 -0.4285101 -0.28936273 -0.18472445 0.05713341 0.06618455 0.16496369 0.3957584 -0.13436496 0.6688295 0.48093048 0.038111195 0.24213101 -0.101568125 -0.09752467 -0.1427923 -0.04554492 -0.21056296 -0.14923353 -0.062169123 -0.3459158 0.32499945 -0.32278854 -0.17957096
好 -0.1488461 0.25119787 0.06911929 -0.11111413 0.23208196 -0.17639102 0.51307935 0.18259126 0.08183269 0.22022 -0.004928182 0.14645171 -0.019613927 -0.2061521 -0.0036373693 -0.5581654 0.14127766 -0.20385773 0.20825084 0.026764108 0.15369803 -0.04668723 0.008080474 0.064531274 0.20966814 -0.031284723 -0.12033424 0.05775173 -0.40766922 -0.34271178 0.051850367 0.10019838 -0.14675699 0.14600703 0.05100182 0.04097227 0.120297454 -0.29047766 0.21228467 -0.05319919 0.23306729 -0.5452551 -0.33777517 -0.088280134 0.0033901166 0.06693884 0.042298842 0.3269949 0.34940505 0.09588172 0.26171067 0.104743466 0.115711026 0.052832082 -0.32386515 0.9362923 -0.0658703 0.2339909 -0.00013381372 -0.39246613 0.0906693 -0.24531516 0.1087335 -0.11138323 0.1854292 0.22780551 -0.42537266 0.03130155 -0.041016676 0.28332025 0.5222279 -0.13385803 -0.14104502 -0.042759273 0.34485418 0.16495919 0.315099 0.25100428 -0.29621816 0.002992622 0.014555442 0.023726493 -0.0933806 0.3508005 0.3497806 -0.03052921 -0.04338967 0.26587155 -0.14277591 -0.24374881 -0.20350541 0.13762774 0.040972006 0.18995747 -0.16376643 0.1246199 -0.041074637 0.008656404 0.2620033 0.11210244
我 -0.10804385 0.33102298 -0.21781904 0.08746093 -0.434687 -0.331822 -0.29543152 0.22862127 -0.085468896 0.20055519 0.17103772 0.36004445 -0.030248344 -0.057393987 0.059196327 -0.37798843 -0.1531126 -0.113762565 -0.6553015 -0.09230207 -0.36150682 0.3132033 -0.14405727 0.12379061 0.07536309 0.1633643 0.5126398 0.26768765 -0.1320341 -0.13772783 -0.23504448 0.13107827 0.16015048 0.3829967 -0.14679952 -0.28376368 0.17132837 0.14929214 -0.027216205 -0.14324024 -0.13264875 -0.044408564 -0.1628574 0.042280916 -0.038699143 -0.13567758 -0.13286535 0.16068138 0.2468362 0.31481123 -0.08306237 -0.07296865 0.102439195 -0.19047551 0.078126386 0.5552885 0.20891824 -0.014952693 -0.096507974 -0.3168167 0.0810964 -0.26770672 0.4767562 -0.31224886 -0.118976034 0.06343611 -0.025346007 -0.24258211 -0.10505671 -0.059045162 0.2602617 -0.05865455 -0.06317278 -0.31859332 -0.07073503 -0.21758087 0.30360022 -0.12703511 0.17514195 -0.084508315 0.1086725 0.06069788 0.2908474 0.365196 -0.34823057 -0.28310505 -0.0029041881 -0.025976673 -0.2956315 0.233732 -0.09389011 -0.17978837 0.40223095 0.2654703 0.39334613 0.1750363 -0.22180377 -0.14789008 0.051468488 0.2038961
路 0.12311449 -0.13014118 -0.43717203 0.60047865 -0.15277143 -0.01554285 -0.020327065 -0.09144412 0.331327 -0.41935623 -0.22197151 0.20993961 -0.21435449 -0.016347112 0.13025329 -0.021594372 0.23438665 -0.28802925 -0.09834727 -0.15059015 0.25390688 0.5055161 0.10054469 -0.13005248 0.012060364 0.06560845 -0.4112115 -0.11243086 -0.25520056 -0.026905568 -0.12216918 -0.004771488 0.1361298 0.04746624 0.41650498 0.15541649 -0.16167498 -0.018650584 0.025259048 0.18293662 -0.45087907 0.17829743 0.42948937 -0.31456304 -0.10883806 -0.09725966 0.27221018 0.00010391157 0.04219885 -0.137053 0.102288015 -0.09685248 0.41776007 -0.2432107 0.20187452 0.74575704 0.23965167 -0.09171619 -0.038250025 0.23302627 0.047252458 -0.18841219 -0.41574562 -0.52101934 0.11563213 0.33013126 -0.5047947 0.1045326 0.0833485 -0.41374457 -0.021780277 -0.07027479 0.023742598 0.15991615 0.20920272 -0.057604115 -0.009971959 0.39937374 0.2813441 -0.17206922 -0.08289514 0.083890505 0.3949953 0.12194726 0.0531022 0.36303687 0.33995986 -0.078842625 -0.10741214 -0.10026002 -0.23687556 -0.04508749 -0.26055518 -0.082955785 -0.04865145 -0.023528783 -0.30351532 0.26674485 -0.27439165 0.2704914
在 -0.014454398 0.5554578 0.004790885 -0.05097624 -0.036216084 -0.17245829 -0.35525048 -0.15812448 -0.44275123 0.34746486 0.030450894 -0.10612198 -0.0954729 -0.17228042 0.018417554 0.18458411 0.14497474 -0.15025318 -0.044761077 -0.0019444434 -0.33343005 0.28743485 -0.20479608 0.6163345 -0.26223361 -0.1326474 -0.050326727 -0.31566137 0.115639135 0.36233488 -0.22138926 -0.0642492 0.44417414 0.2642513 -0.05162187 0.05944648 -0.170461 0.05076713 0.22388777 0.22083917 0.21609305 0.27054355 -0.13536228 -0.15940264 0.23131052 -0.006511466 -0.18969204 0.37224725 0.25725093 0.3562709 -0.28909433 -0.22215983 -0.21746868 0.19518895 -0.21360284 0.7426217 -0.21957618 0.024498563 0.08370972 -0.111487344 -0.2498324 0.011804728 0.38369733 0.3769743 0.10320292 -0.43776903 -0.05568794 -0.08543414 -0.47461656 0.3747969 0.07975291 0.19130829 0.107635975 0.09067259 -0.1694878 0.1217312 -0.15733492 0.043319672 -0.02783725 0.2802475 0.028593056 -0.23005973 -0.18465924 0.05030589 0.03272595 -0.30493385 -0.45386258 -0.10968999 0.2985911 -0.18274617 -0.2918905 0.13273418 0.080481514 -0.062287677 -0.07137855 -0.3248162 -0.15975282 -0.20888263 -0.12688622 -0.26275066
已 -0.29988688 -0.14471723 0.35536993 0.39306676 0.16560428 -0.04199286 -0.05670032 0.05816032 0.1006437 0.22689925 0.03160023 0.016086427 -0.30452642 0.27632406 0.11253339 -0.20984896 -0.17949705 0.22181435 0.29318038 0.07787197 0.21746893 1.008329 -0.44924247 -0.06299871 0.0785172 0.21383756 -0.43837273 -0.21805964 0.19523656 0.022777127 -0.23787253 -0.54562765 0.05409627 -0.41230986 -0.019247763 -0.00025422586 -0.15666133 0.040049925 -0.12480711 -0.088075496 0.22941056 0.29261974 -0.21535996 -0.018004704 -0.3822674 -0.05231228 0.06832224 0.3823901 0.04108932 -0.08124351 0.37663147 -0.07508212 -0.14251046 0.03823909 -0.14844376 0.632009 -0.072973706 0.27895698 0.04357632 0.31101695 0.19987638 -0.17928421 -0.18884212 0.14573462 -0.3567803 0.14396672 0.018140811 0.16394155 -0.38869146 0.120260894 0.17056446 -0.12796071 0.20207167 0.038286474 0.1893263 0.046370953 0.012977394 0.14231877 -0.4057031 -0.08481546 0.40193707 0.24224783 0.02326521 0.043186884 -0.56503636 0.3061969 -0.06327889 0.13646702 0.11842605 0.27602774 -0.01415184 0.01242611 -0.34160694 -0.05853214 0.07792947 0.037384957 0.37993827 -0.29484603 -0.03726711 -0.035881005
得 -0.23781264 -0.3575443 -0.19401988 -0.27594015 -0.11686694 -0.20934258 -0.16535632 0.10294825 0.048148546 0.37885493 -0.13635041 0.05667621 -0.15952788 -0.13823776 -0.018827274 0.6195 0.39755628 0.08789394 0.40586933 0.38269556 0.29186514 0.15741603 -0.013396571 0.23614852 0.21706833 0.107769795 0.09240834 -0.062451012 0.2623678 0.12186148 -0.044613376 0.1313676 -0.06775218 0.3727657 0.3236059 -0.17161414 -0.09739741 -0.331281 0.11803342 -0.26028553 0.21436578 0.13617107 -0.18568076 0.0018703262 0.19110541 0.09628636 -0.0024960954 0.2468389 0.13116041 0.18333286 0.35589778 -0.39401275 -0.1782384 -0.10955199 -0.027654277 0.6084855 0.28557888 -0.008649692 0.34414408 -0.07741007 -0.2555378 -0.1475256 0.12908138 0.1812993 -0.084765114 -0.22747946 -0.3729003 0.085514165 -0.030514795 -0.23427573 0.13375437 0.1827915 -0.24171874 0.33320892 -0.043418456 -0.24256642 -0.19336727 0.23498918 -0.048737157 -0.12334348 0.45787418 -0.122538105 0.24876125 -0.17770487 -0.11906423 0.13249665 0.35030735 0.3330842 -0.18911368 0.06549123 0.14990819 0.3582883 -0.011395071 0.5107962 0.12157316 0.047146175 -0.054836594 -0.16359366 -0.18891214 -0.0047430145
所 0.13654917 0.022711402 -0.22048013 0.07077367 -0.030707149 -0.3829254 -0.32078958 0.19444208 -0.28553218 -0.10570591 0.16967532 -0.0018188268 -0.083128236 -0.5953412 0.28776076 0.04010391 0.14257349 0.12037131 -0.13383675 -0.35307643 -0.18426305 -0.025412802 -0.1538259 0.06812536 -0.106756896 -0.12073224 -0.13389489 0.033934288 0.36090115 -0.007996191 -0.1809587 0.21992534 -0.25073117 0.11411967 -0.4145095 0.30348203 0.20522949 -0.02469353 0.07394366 0.2893637 0.3482041 0.10788964 -0.08861056 -0.22709659 -0.1814318 -0.16480072 -0.061882053 0.36399347 0.06408826 0.28311765 0.28053918 0.16810839 0.13070461 0.09222105 0.14944954 0.83658653 -0.25615165 0.3437241 -0.54040384 -0.10400223 0.21889588 0.20210402 0.02754849 0.25407165 -0.22135597 -0.028597856 -0.20457043 0.036492057 -0.124576695 0.07763616 -0.3491315 -0.005742087 -0.044895697 -0.14415446 -0.0021459202 -0.23026225 -0.21073948 0.17741153 0.11408808 -0.25761873 0.25402868 0.14031275 0.12988439 -0.10584205 -0.16212794 -0.10633601 0.10219268 0.29457238 0.15878654 -0.023086365 -0.10528066 -0.1673376 0.26566142 0.18725719 0.112123504 0.029267224 0.23957728 0.12157404 -0.29463497 0.07697702
民 -0.28248566 -0.07870534 0.01480214 0.074012026 -0.0112534175 -0.0650103 0.1736194 0.027477363 -0.19611795 -0.024563836 0.19448288 0.060891595 0.12023154 0.092948884 0.3047216 -0.25916886 -0.26542196 0.09711603 0.43577713 -0.26060864 -0.20263414 0.061944004 -0.10859857 0.24418283 0.27808553 -0.036719844 0.5745438 -0.17511457 -0.027594732 0.10296029 -0.18743578 0.31318608 -0.087473735 -0.56725883 0.013064461 0.32009885 -0.2472326 -0.11214144 0.07514266 0.07203761 0.34160525 -0.07016988 0.067167334 0.11902388 0.09313366 0.05770855 -0.21464688 -0.071017645 0.04951593 -0.09019322 -0.32977572 -0.046324994 0.18928562 -0.25523847 -0.017513283 0.7284006 0.3155797 0.028261393 0.40491006 0.26721522 -0.20491989 0.21390654 -0.38374752 0.18405259 -0.28200924 -0.026003687 -0.41327757 0.11268035 0.15084244 -0.30973676 -0.10672764 0.12929477 -0.35349286 -0.27252254 0.2933694 -0.76788366 0.30236512 0.30440745 -0.1484777 -0.061938867 0.189313 0.17279674 -0.2809696 0.12372408 -0.06439301 -0.1864549 0.108254164 -0.09109136 0.15257414 0.039822366 0.31105098 -0.09381679 0.3976271 0.1238322 0.3138266 -0.081635505 -0.096678846 0.34571892 0.3198121 -0.22093691
小 0.20935789 0.14464578 0.2492153 -0.06037976 -0.22625849 -0.27789575 0.18225975 -0.30084467 0.049887236 0.25681847 0.19173926 0.029877275 0.14589728 -0.031433407 0.11345003 -0.28477615 0.25305262 -0.11425441 0.36237943 -0.3052532 -0.16892464 -0.0033828686 -0.028100716 -0.023644775 -0.19395177 -0.17313977 -0.057279978 0.12811498 -0.34192795 -0.20388484 0.31882644 0.035443 0.27439293 0.09437648 -0.33138603 0.12670541 0.42063507 -0.05296423 0.03988011 -0.27836332 -0.05744304 -0.085203275 0.21343009 0.266903 -0.09316348 -0.10424474 -0.07286474 0.13860404 -0.02175129 0.3294416 -0.059013795 -0.045787614 -0.12560536 -0.17821394 0.27893332 0.8398889 -0.5318896 -0.27837297 0.0475507 0.10664584 -0.18024935 -0.28997985 -0.07745814 -0.02726056 -0.026225943 -0.36698574 -0.09028315 -0.45171338 0.072528236 0.03978672 0.011264026 0.06531623 -0.021625368 0.024049452 0.028508477 0.33787197 -0.119630784 0.18954526 -0.18583661 -0.23919539 0.22918959 -0.33351773 -0.31502232 -0.2661838 0.38341048 -0.17759348 -0.1749134 0.18373469 -0.17468868 0.4513781 -0.012140887 0.04977778 0.068717904 -0.028408414 -0.30086088 0.21154465 0.03553595 0.21943195 0.010975556 -0.0013708922
天 0.08715268 -0.009274724 0.11843737 -0.07351331 -0.44096175 -0.40986466 -0.35325944 -0.00086005934 0.1912699 -0.014675677 0.106375314 -0.19159815 -0.0372303 0.024298904 0.03072911 0.25340956 -0.23493071 -0.552448 -0.3575686 -0.18483219 -0.30079004 0.24627185 0.019797867 -0.007437565 -0.46879277 0.01796971 0.020492699 0.10356686 0.21826445 -0.02934185 -0.12531814 -0.27534422 -0.029858323 0.14325558 0.3475271 0.110285126 0.49409842 -0.06798798 -0.36293077 -0.21156962 -0.016888682 0.0032601494 -0.27428505 0.32758713 0.1803453 -0.38343158 -0.29335186 -0.68778974 0.28744432 0.1646753 -0.15321198 0.19255365 0.2377607 -0.21614501 -0.06873648 0.74400395 0.42857078 0.07846771 0.06303571 0.29313767 -0.3504032 -0.27330047 -0.17554094 0.23348933 -0.21707767 -0.31622282 0.162012 0.12289138 0.030522548 0.017704034 0.053002857 -0.15231231 -0.3721267 -0.15069166 0.09236282 0.24125217 0.01990247 -0.044471264 0.025900837 -0.27659556 -0.00936957 -0.10412459 -0.29745364 -0.25857684 -0.20981722 0.33012334 0.42573604 -0.078686684 -0.23493835 0.26346266 0.027703542 0.0072507854 0.007707382 -0.10545799 0.1481867 0.26054996 -0.08817095 0.13240401 0.182266 0.18310833
乐 0.37652984 0.20091112 -0.47876576 -0.023245841 -0.31955197 -0.3730479 0.3532129 0.16522317 -0.6023509 0.20129554 -0.0731398 -0.30396765 0.47395045 0.4088137 -0.05068768 0.19931719 -0.17944153 -0.06971639 0.061046716 0.19491817 -0.054092757 0.2865663 -0.19384864 -0.35869884 0.017432218 0.15514015 -0.21588767 0.018909905 0.2325542 0.042255644 0.4493639 0.2969057 0.13606325 0.1769352 -0.040622562 0.12005716 -0.18426476 -0.33532807 -0.118723415 0.45640564 0.51804614 -0.029814018 -0.05047004 -0.3492045 -0.39669728 -0.22433515 -0.08533307 -0.17574376 0.21687372 -0.12642811 0.044242408 -0.024615664 0.07626262 -0.31250584 0.25410542 0.5798836 0.41463566 0.41632098 -0.35994658 0.21203037 0.24581534 0.017387252 0.12176075 -0.0324328 0.34629092 -0.28903776 -0.04838927 -0.075055264 -0.44260094 -0.083297774 0.039817404 -0.05717008 0.18306008 0.5385612 -0.24193017 -0.021170978 0.0073085073 -0.22901973 -0.3079796 -0.0007677828 0.010768669 -0.12043218 0.067246936 0.011597022 0.19142361 0.12227429 -0.2779547 -0.07556066 0.121639475 -0.31959367 0.10344078 -0.08147792 0.22675042 0.38028708 -0.05507313 0.3500189 0.2223643 -0.27937332 -0.100912355 0.020834005
邦 0.06489124 -0.23542349 0.38008058 -0.05378662 -0.39293736 -0.3323673 -0.18576764 -0.8238973 -0.18454222 -0.08351365 -0.068962336 -0.14244671 0.17730717 -0.21758252 0.19272074 0.15581538 -0.103720546 -0.13056414 -0.3590776 -0.08374038 -0.055739835 0.056585316 -0.48833323 -0.34347805 0.23035719 0.05257057 0.05754546 0.31632367 0.0875562 0.3168362 -0.16046096 -0.17812765 0.1335913 0.12620744 -0.25876248 -0.060113575 0.08816249 -0.23467597 -0.026903024 -0.15536517 0.22479309 0.3780064 0.26689133 -0.35235015 -0.14255013 -0.0803233 -0.18239355 0.44942883 -0.06676565 -0.098285094 0.16096056 -0.640688 -0.033942245 0.1703893 -0.066485345 0.7889001 0.062814526 -0.28297186 -0.15339005 -0.14798014 -0.115579955 -0.004278003 -0.2778217 0.08983521 0.34826928 0.07339513 0.27143705 0.16940512 0.33391133 0.19272049 -0.1713351 0.2883271 0.011169834 -0.24237505 0.28401372 -0.081181034 -0.3966432 0.228476 -0.022029854 -0.066597536 0.17356208 0.019440442 0.17958939 -0.19174415 0.21085766 -0.102336474 -0.3147014 -0.30270183 0.20009463 0.3071704 -0.17541414 0.032939136 -0.37266856 0.22947253 0.0010030331 0.37181276 -0.15466073 -0.119774036 -0.060777284 0.38780582
亦 -0.0090217795 -0.03344342 0.1890029 0.08569081 -0.37931788 -0.20788616 0.034492213 -0.25197777 -0.26400092 -0.5800791 -0.16967039 -0.3079158 0.23342745 0.079253696 -0.07997594 0.21478586 0.18626826 0.049735185 -0.039662242 -0.21597724 0.34152204 0.14912216 -0.21112478 0.23694925 0.04658203 -0.349236 0.085150085 -0.06933904 -0.036388755 0.079613574 -0.13264185 -0.07898546 -0.110787265 0.19717614 0.04688559 0.35863337 0.058372684 -0.013399873 -0.0848113 -0.26118556 0.14961495 -0.07417398 -0.13499069 -0.015143258 0.10144169 0.06914384 -0.00768643 -0.81513745 0.1805925 0.029008051 0.24787351 -0.08350594 -0.098835535 0.07434949 -0.34685346 0.8807612 0.1424932 0.3977535 -0.056808 -0.107394546 0.15669404 0.04837624 0.35312876 -0.22973742 0.16871354 -0.25281498 -0.0608849 -0.20179172 0.15860058 0.4053882 0.16398719 -0.15852308 0.2010534 -0.26931578 -0.06480826 -0.111923926 0.08842383 0.17391674 -0.11886081 0.112377755 -0.4301531 -0.23129332 -0.41810653 -0.4437989 0.046411518 0.27585715 -0.03473052 0.051565092 0.08100273 0.13133562 0.38902068 -0.3315126 -0.20101306 0.17429554 0.48616818 -0.18552645 0.35128185 0.051120702 -0.25253576 -0.1702654
使 -0.31756127 0.13066025 0.084818706 0.085971996 0.3257663 -9.073997e-05 0.0067043365 -0.23176576 -0.08279657 -0.29970008 -0.09583734 0.018937215 0.16861041 -0.29447305 -0.054046527 -0.08585725 -0.11121087 0.41011682 0.022336395 -0.113766834 -0.09045755 0.6336747 -0.27974138 -0.022169817 0.16639201 -0.1446914 -0.18321805 -0.041951858 -0.56986356 0.4918471 -0.113128394 0.14672288 0.117303595 0.10403163 0.07267538 0.065430515 0.21045412 0.4631366 -0.24948451 -0.26195887 0.27148846 0.28042972 0.19156376 -0.026165262 0.2303099 0.30144027 -0.05365885 -0.2633667 -0.06714362 -0.10792293 -0.32629344 0.18713965 -0.017511752 -0.20899928 -0.3023117 0.38271156 0.2698233 -0.07753732 -0.061980553 -0.423421 -0.07925391 0.27561748 -0.26043424 0.15280707 0.19388466 0.0803518 -0.07678697 0.102814056 -0.08047553 -0.33700314 -0.09915243 -0.070432104 0.06278236 0.3378622 -0.027436204 -0.18007714 -0.32145777 0.1544429 0.00060855196 -0.6345814 0.22353865 0.29119897 -0.4098056 0.26941648 0.26168808 -0.0043606414 -0.117893934 -0.23055959 -0.006513685 -0.48221213 0.015235907 -0.005446343 0.078227095 0.55878145 -0.15225197 0.11522537 -0.26279613 0.14933185 0.07617884 0.119208835
大 0.011296662 0.018812781 -0.09769636 0.2742899 -0.07973042 -0.10558097 0.09265808 -0.003487683 -0.16617374 0.09852026 -0.1968051 0.09201394 -0.06897742 -0.26505685 -0.062202767 -0.016837513 0.06882118 0.109127246 0.03135664 -0.18654469 -0.12724687 0.4481187 0.17603032 0.20621069 -0.17428039 0.014275881 0.06728285 0.14050636 -0.091116905 -0.12730967 -0.2834472 0.43812633 -0.30960682 0.111393094 0.27797672 -0.42166093 0.08368347 0.12096888 -0.009305826 -0.26956958 0.08719087 -0.64092374 0.16649859 0.039387833 0.14918554 -0.31063402 0.2708533 -0.29878545 0.26010433 0.059532695 0.46202073 0.025146887 0.040393025 0.015472472 -0.18012471 0.50845945 -0.0011054127 0.07545987 0.15188813 -0.24734485 0.022807552 -0.17639124 -0.56865364 -0.054589834 -0.19527923 -0.20356101 0.064284705 0.106011294 -0.08676703 -0.24427053 0.03338437 -0.49596995 0.44175038 0.3760762 0.18314174 -0.08051907 0.065244175 0.0703863 -0.31720662 -0.18606217 -0.26060793 -0.300388 -0.19121556 0.030682303 -0.17833993 0.004813525 -0.2461266 0.03917277 -0.2536034 0.19142267 -0.17648454 -0.1452954 0.04776527 0.25687784 -0.09058492 0.06356137 -0.009560562 0.14059198 -0.1277184 0.23442507
下 0.16763279 -0.3730411 0.05753923 -0.19881861 -0.267647 -0.30761233 -0.1638367 -0.46226743 -0.43823266 0.29349193 0.30244553 -0.017364405 -0.26335904 -0.25648877 0.041210603 -0.22054252 -0.5650501 -0.06654977 -0.14486524 -0.10048073 -0.35607418 0.1206849 -0.19315238 -0.120036945 -0.6892093 -0.2619543 -0.021525348 0.06367414 0.012100532 -0.10092143 -0.0031553365 0.0596775 -0.17194267 0.020719323 -0.27045664 0.09938684 -0.2656502 0.17429882 -0.06048963 0.1446618 0.24694088 0.03163011 -0.1663727 -0.021651262 0.2881257 0.04674739 -0.0024074297 -0.06740546 0.1050515 0.14473625 -0.16153431 -0.42560387 0.27106196 -0.23193125 -0.35839954 0.7411304 -0.09381302 0.030969849 -0.07510437 -0.11650007 -0.026891956 -0.1427559 -0.1089178 0.2979554 -0.021722108 0.112589955 -0.08709666 0.12919866 0.15788999 -0.02901592 -0.027063869 -0.0009746034 -0.30479035 0.04775774 0.17272907 -0.16793093 -0.037702836 -0.0055687977 0.40241042 0.3839425 -0.021707276 0.09336416 -0.45805418 0.15091538 -0.09790868 0.13198361 0.11764362 0.0529619 0.20578782 -0.07717584 -0.054781064 -0.255341 -0.113180086 0.008279711 0.41128778 0.407247 -0.032133352 0.16556902 -0.14322224 0.038225055
贡 -0.17894898 -0.19031267 -0.26771146 -0.3130612 -0.31709388 0.018268893 -0.17471659 -0.5280286 0.09408699 -0.16219234 -0.07633886 -0.22317097 -0.18255197 -0.13889676 0.11390053 -0.077444226 0.10225995 0.38129145 0.14923336 -0.07420618 0.5186778 1.0798185 0.0988924 -0.11382504 0.29054454 -0.29775748 -0.08199875 -0.18462715 -0.32571512 0.022945385 0.27700937 -0.10677795 0.3257974 -0.24061902 0.07360338 0.060336523 -0.14217639 -0.3588335 0.026075175 -0.12541911 -0.7603956 -0.27750716 -0.34979168 0.03619935 -0.23014498 0.32829732 0.47911906 0.014075992 0.40700707 -0.09551181 -0.13600808 0.31727606 0.038351487 -0.17876205 0.017675756 0.77624726 -0.28721157 0.09172285 -0.16425258 0.09459131 0.2346565 0.14059018 0.1272651 -0.07570425 0.18928051 0.3435512 -0.06165098 -0.2249342 -0.013526475 -0.060971346 0.055603035 -0.126829 0.38184068 0.042611253 0.041110232 0.12971972 0.08416866 -0.3677635 0.21363828 -0.21793516 -0.23998787 -0.3123981 0.07464802 0.33403665 -0.3997271 -0.13390985 -0.2681015 0.2422811 -0.06747098 0.1812643 -0.014823929 0.10131488 0.3182308 -0.1403725 -0.3274546 0.19870539 -0.01812793 -0.06419809 0.3685812 0.03476169
欲 -0.22655588 0.16217735 -0.031561907 -0.0073636253 -0.030119287 -0.18945017 0.0061893533 -0.0026734506 0.044321243 0.18505074 0.24417363 0.17316763 -0.2946066 0.12440519 0.13919784 -0.00272753 -0.011701965 0.04257408 -0.048201118 -0.11561935 0.14909238 0.02214805 -0.30654302 0.41274303 0.04130877 -0.3916964 0.15391065 -0.46538538 0.20441468 -0.31373736 -0.015467901 -0.26381546 0.1769126 0.036486868 -0.09686305 0.055301048 -0.034020804 -0.08791081 0.015799016 0.6817743 0.048792552 -0.31289166 0.20475468 -0.010122712 0.3895641 0.22145502 -0.18179044 0.113373235 -0.18210891 0.0697288 0.42880505 0.17268322 0.35342085 -0.34925252 0.07003805 0.8233303 -0.12170045 -0.35766557 0.14282012 0.060045063 -0.43681982 0.07893857 -0.14724861 -0.22001469 -0.13353744 -0.3517565 -0.023813317 -0.008729427 -0.28400916 0.30643252 0.060186457 0.1070459 -0.31628373 0.15752229 0.041837774 -0.18435653 -0.46444142 0.043263514 0.19185321 -0.24710336 -0.34477052 0.10979483 0.3347101 -0.12425601 -0.09989686 0.33367494 0.34443578 -0.07695573 -0.35220703 0.009048203 -0.016255256 0.19094053 0.26181406 0.14100479 0.31164327 -0.10251171 0.37239307 0.0906404 -0.00822174 0.028905574
诸 -0.50580245 0.08163213 0.17015532 0.11656344 -0.100274146 -0.1541386 -0.21552318 0.085305534 -0.075995535 -0.23100528 -0.1702138 0.35592377 -0.055551704 0.17446473 0.30846143 -0.36905468 0.28959417 -0.14409584 -0.45923552 -0.04298764 0.1212925 0.2228122 0.46988213 0.39437306 -0.032064952 -0.12117589 0.15188049 0.3756156 0.009060705 0.3119587 -0.22134127 -0.69240975 0.053268835 0.19508229 0.0152807515 -0.20594016 -0.46471253 -0.00024617263 -0.04600238 -0.15757087 -0.05048421 0.00022692338 0.49213243 -0.42510006 0.0023551674 0.058189757 0.20834517 0.10788804 -0.3738464 -0.19359304 0.43422964 -0.41596058 -0.025270604 0.111050315 0.10255743 0.7528866 -0.08291785 0.080236085 0.16852057 0.24379991 -0.19008183 0.19834886 -0.12019886 0.24280894 -0.04108696 0.018889956 -0.41983888 -0.26276308 -0.026945993 0.027064435 -0.28847232 -0.47563222 0.3185531 0.409413 -0.05925036 0.325399 -0.058869805 0.19639544 -0.17979768 0.10812621 -0.35847777 0.021742102 -0.5702689 0.1286581 -0.13634844 0.12996426 -0.64462715 -0.22948965 0.16114262 0.12931728 0.31631944 0.6111705 0.18341643 0.23543294 0.38109207 0.21636014 0.47204784 -0.035540532 -0.09435866 0.30212796
从 -0.015393223 -0.37610304 -0.112647645 0.5815165 -0.31957707 -0.073378064 0.007863337 0.11043249 -0.07804709 0.33228695 -0.017718082 -0.23103546 -0.17799333 0.022057254 0.043313235 0.148425 -0.0638834 0.26326895 -0.0038571784 -0.30204418 -0.12733868 0.53848326 0.2705056 -0.3655902 -0.3345039 0.08548132 -0.05280973 -0.019226622 0.03235149 0.09418109 0.20701817 -0.030569049 -0.06106342 -0.6557403 0.32307634 0.019521503 -0.022197416 -0.07958297 0.43835038 0.22936581 0.28064647 -0.124965586 -0.025179354 -0.113155566 0.31129202 0.08320217 -0.5672172 -0.19881232 0.2021496 0.43537906 0.08255692 0.42769262 0.036426626 -0.012888772 -0.30254087 0.51552534 0.42247304 0.043488342 0.28790614 -0.15622008 0.20087974 -0.22971019 -0.045541115 -0.21575242 0.22088893 0.0482035 0.33536702 0.0012611336 -0.38032693 -0.24563967 0.061637767 -0.46392044 0.04676346 -0.5063427 -0.2550662 -0.21253248 -0.1811902 0.25633746 -0.05586255 0.101467885 -0.006419649 -0.06311183 -0.21889493 0.20733765 0.24702777 -0.15148468 0.31590623 -0.040820256 -0.056605022 -0.26074407 -0.09087686 0.08489354 -0.23799968 0.36319584 0.18032797 -0.038485605 -0.03260913 -0.17420818 -0.16188568 -0.10160523
文 -0.19846502 0.009980653 0.021088684 0.5410459 -0.4879012 0.08154732 0.023631053 -0.37644884 -0.099651605 0.21043785 0.0016830022 -0.22890075 -0.16366808 -0.013188965 0.07642595 -0.2985369 -0.19161345 -0.24140069 0.081763975 -0.017196557 -0.05319865 0.5056658 0.1307302 -0.04245113 0.13959058 0.03716197 0.16793609 0.12754115 -0.47178522 -0.04050791 -0.0013277975 0.12093838 -0.114364184 0.06656666 -0.5535066 0.5201469 0.11998264 0.0017846621 0.15916099 -0.019591292 -0.14453478 0.066857025 -0.3986277 -0.15990025 0.09972733 -0.14907777 0.04381997 -0.09013874 -0.05028716 -0.047512982 -0.08719919 0.0046583726 0.18368621 0.15265542 -0.25191712 0.5747125 0.5381064 -0.039280817 0.009862321 -0.12417458 -0.0635514 0.031374313 -0.046414636 0.31491542 -0.06796153 0.15753104 0.38279602 -0.31629923 -0.18132086 0.101649925 -0.12640253 0.014412625 0.11390645 0.01239384 -0.48704833 0.60529995 0.19517459 0.5778858 -0.20107806 0.26584327 0.12271524 0.35484254 -0.2661812 0.018676171 0.11043875 -0.15980028 -0.047660533 -0.60407674 0.017667131 -0.021050308 0.2139742 0.030495754 -0.095588975 -0.0062678983 0.45609394 -0.061380472 -0.11485333 -0.039561346 0.49766105 -0.020477584
政 0.24175647 -0.13956371 -0.047052372 -0.014131251 -0.20969847 -0.11596783 -0.23884152 -0.17005962 0.16755372 -0.24575447 -0.072202235 0.3806213 0.08141463 -0.26920205 0.31600037 0.2561824 -0.10010683 0.056426983 0.34133378 -0.07521159 -0.27714697 0.5183082 -0.06586448 -0.105358064 0.30169907 -0.040562414 0.1348878 0.035507284 -0.13672344 0.032556053 0.09513488 0.19878812 -0.29237452 -0.004806351 -0.003257143 -0.29051223 0.14825235 0.45985863 0.1813311 0.086481586 -0.26400155 0.024635414 0.24882759 0.12516041 0.2568838 -0.2784081 0.17057195 -0.5964662 -0.12185683 0.16918571 -0.25660136 -0.09476175 0.2976976 -0.19715045 0.1946043 0.49456432 -0.09702424 -0.5708882 0.4196303 0.40853706 0.081423335 -0.021004114 0.050816808 -0.034847356 0.21918812 0.20592377 -0.040973485 -0.12012647 0.03788176 -0.13844104 -0.2637001 -0.06119212 -0.17856152 -0.045912042 -0.1467303 -0.25674027 0.17329802 -0.1012545 -0.05222695 0.26719356 0.19905154 -0.07083772 0.10325965 0.12910227 0.3222948 0.10447026 -0.39968246 -0.047247715 -0.32605383 0.099921815 -0.1804871 -0.08259806 0.23881824 0.19460392 0.09436232 -0.35850394 0.35422754 -0.10563142 -0.05033423 -0.47291982
食 -0.27713993 -0.17207001 -0.14410302 0.0006147346 0.08120391 -0.19154745 0.14064603 -0.33000478 0.00022854266 0.052947853 -0.45200482 0.010536336 0.50395006 0.10706471 0.3112349 -0.13341582 -0.15079848 0.06803519 -0.23170571 0.412965 0.15606537 0.28955108 0.04106698 -0.19318955 -0.27108887 0.017246988 -0.27708647 0.15321177 0.024113087 -0.109303474 0.26655316 -0.02769365 -0.13829109 -0.28152546 -0.088420235 0.3017377 0.013944329 -0.0701157 -0.5665026 0.08052685 0.7311155 0.08006225 -0.04184411 0.41386956 0.029140092 0.013844959 -0.19413444 -0.32111686 0.35498065 -0.26557198 0.16211426 -0.15940449 0.24098487 -0.23188849 0.5317268 0.7783281 -0.048521042 -0.12619853 0.16235748 0.14365381 0.29008234 0.32802936 0.021611767 -0.13351999 0.015093125 -0.009909532 0.18027078 0.22771478 0.33430016 -0.0029049814 0.24183147 0.11084016 -0.21762913 0.05479361 0.20956744 0.63685375 -0.45838535 0.20013896 0.120094374 -0.5298253 -0.073592596 -0.1549213 0.096409254 0.12545857 -0.1982425 -0.03587805 0.52352846 -0.25146806 0.5115299 0.13028285 0.22900113 -0.3038729 -0.049194556 -0.047429528 -0.14069696 -0.38648066 0.16105199 0.5379018 -0.46981075 -0.059786484
善 -0.19661713 -0.10490379 -0.24338561 -0.24702385 -0.26957265 -0.31317654 0.06544556 0.100512736 0.18814255 -0.12890984 -0.11332546 0.1836523 0.318208 -0.05894456 -0.2381892 0.06471653 -0.011797578 -0.06447028 0.07136305 0.335198 -0.002957332 0.051864505 0.22791828 -0.42388883 -0.034194518 -0.08426639 0.090908006 -0.036828272 0.031757746 -0.41086403 -0.28346926 -0.35403046 0.07495373 -0.35063058 -0.12659009 0.049773756 0.14304347 -0.30424896 0.17984882 0.06724363 0.12692119 0.11038614 -0.29358485 -0.29293787 -0.2658042 -0.26326728 -0.2632734 0.29573226 -0.085461125 0.18285866 -0.0073651876 -0.2848621 -0.002529412 0.075594395 0.43469712 0.79972494 0.10869779 -0.042824175 0.1128658 -0.22369099 0.15539321 -0.33401862 -0.015696863 -0.55489486 0.13739663 0.30950126 0.109519936 0.47291225 -0.17133094 0.1803139 -0.35751995 0.14374165 0.12571569 0.13057086 -0.47680634 -0.28538108 -0.2344859 -0.105126925 -0.23610933 -0.4342436 -0.101188436 -0.11448705 -0.3063446 0.006941173 0.21120955 0.35373437 0.35763988 0.09937781 -0.13983786 -0.17934266 -0.21911035 0.062409595 0.01184903 -0.17559734 -0.024518983 0.11823646 0.17680748 -0.36087596 -0.1005318 -0.15611938
后 0.19204897 0.06227474 0.19095747 0.036012106 0.07083993 0.05984954 -0.11892218 -0.48895702 0.09266215 0.17072967 -0.29481176 0.35076103 0.47397903 0.2874893 0.033691864 0.026565157 -0.009687703 0.13876714 -0.16601166 -0.09896242 -0.027255522 0.6508699 0.22910263 -0.076202616 0.19909808 0.1306292 0.3331082 0.055863626 0.15764749 0.19624503 0.3303302 0.13295573 0.028873608 -0.05721192 0.034183446 -0.34883124 -0.025589757 -0.13458006 0.30379733 0.073835865 0.3286511 0.22032115 0.17334254 0.44755495 0.10211148 -0.29239002 -0.070327595 -0.19487956 -0.029580174 -0.14506318 0.19027855 -0.14246494 -0.05242933 0.22422582 -0.29822987 0.3974985 0.23713526 0.24246018 0.35428542 -0.08073372 -0.20272107 -0.14381005 -0.0117472075 -0.1740784 -0.05578958 0.13281849 -0.3098937 0.4540516 -0.15778877 -0.3941108 0.0033406243 0.008594378 0.1869024 0.09261805 -0.0611076 0.45252308 0.35903993 0.04242446 -0.05679236 0.13741595 -0.09304214 -0.19891323 0.41775954 -0.27848008 0.62396866 -0.095566966 -0.072648324 0.4466238 0.0072231446 -0.038635474 0.20304365 -0.10769352 0.43085647 0.19241305 -0.24590828 -0.23912059 -0.07634557 -0.14555144 -0.37243658 0.19786575
德 -0.17838761 0.2459414 -0.018104859 -0.111773945 -0.1586079 -0.5012104 -0.117347375 0.012943983 0.086122766 0.120931976 0.2753127 -0.24179894 -0.12820837 -0.36562324 -0.25478372 -0.19873162 0.4128831 0.0820759 0.23664165 -0.07869695 0.20822316 0.14326388 0.32739228 -0.00047957717 0.43646953 -0.039819658 0.24916048 0.17471415 -0.16046299 -0.16345565 0.0671796 0.49739942 0.3662805 0.18139675 -0.21501423 -0.111791074 0.32180113 0.05681118 -0.22035308 0.14782597 -0.24994633 -0.20600706 0.13706985 0.65888476 0.1717709 0.076938696 -0.01789665 -0.06633112 -0.03288393 -0.066590466 0.07443135 -0.18750644 -0.09182836 0.33455968 0.14974251 0.6685279 -0.08985837 0.39191595 -0.012021984 0.245506 -0.38799286 -0.153165 -0.37281567 0.010012985 -0.28812706 -0.20617384 -0.060648136 0.25379977 0.34662774 0.07345437 0.33659846 0.1023037 0.29068497 -0.12398558 -0.057028674 -0.14748086 -0.36982024 -0.2338342 -0.12950449 0.65573186 0.034417357 0.067170896 -0.18688068 0.29008192 -0.15124899 -0.42515016 -0.15148258 -0.1988876 -0.32169244 0.21964759 0.034479633 0.0027456305 0.31220573 0.124679185 -0.1638975 -0.30039728 0.0816774 0.009612876 -0.26029745 -0.29919443
求 0.112718366 -0.21257398 0.59812236 -0.1834324 -0.008844086 -0.10390116 -0.30317897 -0.076072715 -0.1700769 0.2398279 0.21974781 0.41092896 -0.3567015 -0.14279668 -0.2522766 -0.07160076 0.17232694 0.31543857 0.16170385 0.21328115 0.12183943 0.31820577 0.016399395 -0.15655386 -0.07428608 0.2353066 -0.540658 0.35067093 0.15867302 -0.41248226 0.18635476 0.30397567 0.08366495 -0.17668818 0.33336425 -0.38002813 0.02762151 -0.046151347 -0.467936 -0.09923316 0.033194013 -0.067455225 0.6806704 0.10486444 0.16360134 -0.15432324 -0.1701287 -0.19445845 -0.29694092 -0.12893729 -0.2628136 0.26966488 0.41543052 0.17478791 0.2767467 0.685383 0.17385449 0.5258559 -0.13332881 -0.15937693 -0.22123618 0.13044849 0.12204573 -0.18764268 0.16119282 -0.078810334 0.015639752 -0.20178589 -0.039918818 -0.0912551 -0.25724286 -0.1411886 -0.21959138 -0.014876222 0.25019264 0.009348512 0.17469352 0.021796932 0.5176328 0.06582547 0.18315038 -0.26042047 0.16879196 -0.31159946 -0.1555461 -0.2763743 -0.1310244 -0.029920178 0.19961126 0.084667996 -0.017573338 0.18262294 0.18152896 0.10218934 -0.05708577 0.27763528 -0.17551254 -0.037799288 0.14011727 -0.029979423
对 0.2254819 -0.01216447 0.0015270794 0.37331954 -0.2620298 -0.012114186 0.017737878 0.4275224 -0.33228314 -0.008063903 -0.21234722 0.1643945 -0.09135951 -0.0023479017 0.2536395 -0.08305032 0.34538192 -0.15326734 0.5191118 0.16098703 -0.0154954335 0.19819954 -0.011728596 -0.5535953 0.39859426 0.16781305 0.053588822 0.36098382 0.4170868 0.32854086 -0.21862578 0.2228226 0.08014614 0.21315505 0.6263782 0.5745972 -0.13789108 0.14277458 -0.35703874 0.16881937 -0.77834076 0.00026013516 -0.08396872 -0.095227435 -0.012583082 0.52242035 -0.12810756 -0.35995334 -0.200808 -0.012747876 0.21190795 -0.3344864 0.27868745 -0.15873075 0.18870302 0.8729246 0.03741377 -0.24106602 -0.22308408 -0.22299275 0.5249382 -0.01823846 0.18320735 -0.26007685 0.3557599 0.124014065 -0.041398104 -0.1633686 -0.16228363 0.3422557 -0.3318122 -0.38940534 -0.6775668 0.024426125 -0.37046805 0.2656736 -0.009370499 -0.20749041 0.0015453412 -0.045828175 -0.068625316 -0.21221553 0.0061317794 0.35543883 -0.11033145 0.007980933 -0.16246136 0.11933797 0.12706307 0.14135906 0.30283841 0.11174769 -0.103778586 0.19940816 -0.038408786 0.15834688 0.4153456 -0.035941426 -0.20512213 0.024395159
恶 0.088122524 -0.2655737 -0.15593527 -0.14151435 -0.069406316 -0.27168506 -0.050246317 0.095084995 -0.15658256 -0.14926946 0.14652647 0.02121833 0.26342618 -0.21529227 -0.29542568 0.051679563 -0.06276115 0.47829846 -0.23242874 -0.042268794 0.10025553 -0.06047659 -0.3089964 -0.3233545 0.12172847 0.038248375 0.023247762 0.05860692 -0.15762302 0.044416443 0.3277056 0.22140923 0.07946122 -0.13429207 -0.17192687 -0.51592845 0.33806768 0.32973582 -0.34866184 0.40284428 0.4975173 -0.22163588 -0.18264493 -0.10594614 -0.028267557 0.13438335 -0.40085694 -0.03404133 -0.16683592 -0.078857206 0.002019126 -0.23059495 0.44333994 -0.4582655 -0.06110818 0.73704475 0.21740904 -0.37474817 0.29160324 0.15331508 -0.32887712 0.10119699 -0.12222175 0.034225456 0.073914714 0.4107455 -0.18436472 -0.39225453 0.14279403 0.12132139 0.48340535 -0.16161123 0.010843445 0.19575775 0.17738359 -0.07915566 -0.14068252 0.078503855 0.18483013 0.28470847 -0.32699654 0.031831857 0.0074315476 -0.58711594 -0.3133178 0.019479062 -0.19734874 0.1125562 -0.06665889 -0.06034409 -0.07278349 0.060071904 0.18563268 -0.0332636 0.11952289 0.089225896 0.33254364 0.40376878 0.06695278 0.0036919336
信 -0.002130496 0.38678113 -0.13967858 -0.152431 -0.0014510585 -0.5352984 -0.00042566145 0.17574227 0.08589243 -0.045243043 -0.6006369 0.02282625 -0.24113335 0.33258885 -0.21672465 -0.036867905 -0.2045024 0.08373106 0.25370583 0.06766557 0.07637893 0.07924841 0.25312522 0.1781517 -0.069797255 -0.025383912 0.39405808 -0.15842992 -0.25379068 -0.3036933 0.040303968 -0.070808016 0.29735282 0.049443927 0.45321926 -0.23832057 0.36797106 -0.36615604 -0.113973446 0.21411555 0.34928623 -0.13495423 -0.15280886 -0.0044395276 -0.19196211 -0.094769314 -0.012489639 0.3038493 -0.07709379 0.28232807 -0.5075377 -0.19536851 -0.17977856 0.46356118 -0.35141256 0.5875506 -0.0017403787 0.077414855 -0.1448242 -0.30579427 0.20662418 -0.086466014 -0.27333504 0.06277078 0.04024746 -0.11772668 -0.31312498 -0.13791355 -0.073246256 0.06946546 -0.39534286 0.17584944 -0.036464926 0.17096116 0.16397984 -0.36987123 -0.04531598 0.19188611 -0.11478881 -0.20091015 -0.45186418 0.0666901 0.20790955 0.06540411 -0.1523501 -0.21094477 0.13506454 -0.3553984 0.104964405 -0.20872712 -0.0803179 0.26500413 0.08243269 0.49335763 -0.109212615 0.124491006 0.041977838 0.37435156 -0.32353708 0.012804437
死 -0.093460314 -0.20461218 -0.069430105 0.31537667 -0.05455252 -0.35476363 0.037497424 0.078777745 -0.041744217 -0.1774784 -0.0027183308 -0.05070319 0.18171753 -0.10855265 -0.10265327 -0.10304056 -0.05821864 -0.3413452 0.02984828 -0.0967731 -0.086109996 0.5638114 0.44521838 0.48858598 -0.044243064 0.032114264 0.15011926 -0.665543 -0.1109326 -0.104132086 0.103408925 -0.0010268501 -0.8311368 0.15422487 -0.054215167 -0.23921852 0.05171933 0.10006818 0.28608936 -0.5410492 0.13300394 -0.5196629 -0.33908802 -0.23552972 -0.2586199 0.21715094 -0.18528154 0.043125328 0.16229917 -0.6521195 0.019145386 -0.22301114 -0.15536919 0.3173344 -0.39511696 0.5487296 0.25417194 -0.003765128 0.12193603 0.15000032 -0.14504679 -0.25826615 -0.20324594 -0.09051349 -0.0727499 -0.5219571 -0.32608092 0.12901218 -0.09837563 -0.3897477 0.23528826 0.07955859 -0.40531588 -0.13249299 -0.22090304 0.15449968 0.0504162 -0.19397628 0.0029976107 -0.19540499 0.3590281 0.20937534 0.035191126 -0.37860313 0.17861558 0.18106054 0.2193675 0.17138073 -0.10262677 0.2988089 -0.19519508 0.04416211 0.013337887 -0.115436144 -0.060393102 -0.49822053 0.04637689 -0.2079219 0.130587 0.15435515
然 -0.020219572 0.10365176 -0.54845357 0.20494115 -0.1827475 0.10783639 0.055147655 -0.58013064 -0.32218674 -0.011298237 -0.43800467 -0.18454841 0.1753498 -0.087876886 -0.089735135 0.25284255 0.27646032 0.18279701 0.14545473 0.05786624 0.08969601 0.59892005 0.054048978 0.1744361 -0.18107644 0.025788464 0.14870533 -0.24061637 -0.2555235 0.12376816 0.07874789 -0.16866598 -0.045314673 0.5903413 0.02359119 -0.027054437 0.03271586 -0.1707913 0.0011034526 -0.019787608 -0.1778597 -0.044381082 0.047010966 -0.08183148 -0.14470388 0.17562217 -0.21608995 0.30187866 0.43417782 -0.047187 0.25267148 -0.2544183 -0.048545245 0.21500221 0.36911055 0.6744709 0.24967766 0.12702213 0.6388907 -0.16368833 -0.11243331 -0.2502387 0.16245823 -0.3186296 -0.011462116 0.005810431 -0.08723331 0.26101226 -0.04880478 -0.22200167 0.29313847 -0.19782819 0.29305995 -0.09890586 0.2043999 -0.11444986 0.2484864 -0.006783273 -0.23096015 -0.28383577 -0.43035924 -0.12958835 0.49585918 -0.5980459 0.07453249 0.120257184 0.10908656 -0.17883405 -0.20338766 0.23193596 -0.08061308 0.24494784 0.073534474 0.01626387 -0.31186393 0.05394066 0.10710058 -0.18152617 -0.2349192 -0.22550304
