1352 100
， -0.013229962 0.05937077 -0.07133295 -0.20367357 -0.3154225 0.16236122 0.1143841 -0.122465506 -0.113711305 -0.12139892 0.0797526 0.07875012 0.08822391 0.0943769 -0.027194763 -0.049537294 -0.013579928 -0.54725885 -0.041932866 -0.05190784 -0.010546315 0.95627165 0.005948713 -0.024324523 0.12885006 0.21963242 0.034373857 0.093840376 -0.2005733 -0.088522546 -0.032767557 0.10754732 -0.12942475 -0.006862507 0.07715372 0.15729383 0.04909523 -0.062685855 0.14477335 0.017450456 0.08579649 -0.035624284 0.15726018 -0.19995153 -0.07852198 -0.18015572 0.049501415 -0.0014234014 0.0894479 0.078531384 0.18862805 -0.09740998 0.15635505 -0.065104105 0.07288055 0.20342669 0.03603679 -0.09452512 -0.01766895 -0.04371045 -0.00765508 -0.25256848 0.15875608 0.033387307 -0.1697188 -0.13008513 -0.09852007 -0.01861268 0.012048201 0.014231208 -0.15887794 -0.18354043 0.036917433 0.16638526 0.076254606 0.049526595 -0.034180533 -0.010721393 -0.066832684 -0.028715407 0.12321509 0.10925408 -0.17210637 0.03092796 0.06787717 -0.25199404 -0.073357195 0.011318728 -0.015831498 -0.026689025 -0.121889055 0.106175534 0.07615266 0.034662195 0.13791125 0.048547223 0.113685064 -0.036092035 0.042783704 -0.4285928
子 -0.17758273 0.16202447 0.050180223 0.25227332 -0.114685334 0.025246678 0.07087394 -0.15835711 -0.18903647 0.02802885 0.033087794 0.08510634 -0.1443642 -0.09411408 -0.006956559 -0.49157664 0.10452452 -0.017790899 -0.05195265 -0.1021104 0.19110085 -0.084506266 -0.023818491 0.21737893 0.036517024 -0.1118105 0.23577087 -0.25094548 0.04313169 -0.21900186 -0.11693774 -0.21700874 0.16584782 0.030018423 -0.11786953 0.03555485 0.7231982 0.1401167 0.025431827 -0.16856487 0.06314838 0.014359863 -0.20746745 -0.25876847 0.27593195 0.24843632 -0.2316146 -0.12424724 -0.07048851 0.029537862 -0.024668556 -0.058118436 0.038102705 0.12086552 -0.066095434 -0.24335791 0.044463716 -0.041358713 -0.03757303 0.18148476 0.35461703 -0.14388612 0.17820406 0.29166916 -0.09826692 0.06804207 0.43431726 0.14438371 0.12524354 -0.27901238 0.15144458 0.069508694 -0.027220707 0.10374328 -0.03568037 0.17759891 -0.06510794 -0.35912305 -0.034185264 -0.29688168 0.025800899 -0.071932726 -0.2499978 0.28205457 -0.18800615 -0.8919399 0.022690136 0.07801101 0.040227108 -0.08346744 -0.16528256 1.4242152 0.08495077 0.16374452 -0.070465475 -0.01352869 -0.24284998 -0.2312626 0.24798612 0.43801764
。 -0.19516322 -0.1502695 -0.06271603 -0.13914329 0.15233591 0.07481211 -0.17606144 -0.14226373 -0.07695595 0.20543027 0.19618611 -0.1529829 -0.1648605 -0.11523267 0.2236586 -0.26996142 -0.062584884 0.5546728 -0.113386415 0.093058236 0.026698526 1.2877003 -0.02726827 -0.1692399 0.07401053 -0.22243074 -0.063107945 -0.06486502 -0.05537007 0.022571469 0.10827076 0.11815132 0.12727 -0.015086474 0.060027894 -0.002942665 -0.043988485 0.17033918 0.40135863 0.0076093306 -0.14176886 0.12877199 -0.07732718 0.28451812 -0.113291174 0.316385 0.062426224 -0.08917535 -0.1518876 -0.09474219 -0.22227733 0.023805453 -0.2798121 0.2119087 -0.3017543 -0.05144139 0.018759258 0.09324813 -0.11289712 0.4148569 -0.04243968 0.068730466 -0.0637386 0.11009265 0.16628325 0.11665401 0.16762708 0.03317378 0.21908543 -0.31231374 -0.2011293 0.33378413 0.17639285 0.028319696 0.053666502 -0.11590108 -0.049024057 0.12806141 0.20163167 -0.06942758 0.08942161 0.19555946 0.003617025 -0.13615504 0.0032287212 -0.011563841 0.09593122 -0.1478984 -0.12502585 0.0044622323 -0.11157291 0.79312974 -0.061687525 0.020036098 -0.11252223 -0.17975752 -0.07549824 0.16054969 -0.11410018 -0.34179056
： 0.17329162 -0.032604586 0.027145872 0.108945005 0.15112342 -0.115666784 -0.0012472707 0.4523656 0.5534047 -0.23756923 0.3839639 0.018623201 -0.11422048 0.12458946 -0.15042382 -0.24066177 0.08974733 -0.68425 -0.092184484 0.1059362 -0.21543932 0.49300134 0.14182201 -0.034276344 0.19038405 -0.17746931 -0.581662 -0.20093289 0.24785799 -0.025030687 0.18292588 -0.026402581 0.0043214313 -0.18586273 -0.022283642 -0.10260241 -0.13964647 0.14185028 -0.35565808 -0.0070173237 0.2076663 -0.009199529 -0.30649424 0.024172608 0.12459696 -0.1505766 -0.08711592 -0.0014323087 -0.3237279 0.17793524 -0.009346453 -0.12227492 -0.18127967 0.1004499 -0.29208216 0.17920248 -0.23075554 -0.32982495 -0.1453679 -0.048032522 0.2631536 0.24268094 0.07397443 -0.07942854 -0.22901596 0.13991444 0.3458369 0.1102792 -0.28009924 -0.16443847 0.066975966 -0.059036106 0.17952992 -0.059547395 -0.12788768 -0.13132887 -0.09966203 -0.041553523 -0.43964216 0.07490039 0.2756571 -0.15601712 0.28799018 0.0043101753 0.066977724 0.04805423 0.20339908 -0.147617 -0.05002418 -0.31323788 -0.12406763 1.3462839 -0.020642612 -0.081293195 -0.35753068 -0.10506361 0.07281501 0.13442957 0.017175322 -0.57575536
曰 -0.38058606 0.21092725 0.035491582 0.097797416 -0.05427993 0.1406855 0.13222112 -0.04878959 0.2831205 0.03806678 -0.475452 -0.18160975 -0.10687625 -0.019017987 0.18128543 0.49825257 0.23802581 0.09773408 0.11255629 0.0060071135 0.08848029 0.01854218 0.07099046 0.07861673 0.10366517 0.28789273 0.5185413 -0.066754274 0.4240934 0.21488205 -0.3790418 -0.51763844 -0.06128542 0.19151936 -0.23807926 0.034654666 -0.12245857 -0.17425156 -0.020762615 0.14731134 0.107045546 -0.34674317 0.32665294 0.5215387 0.0019988816 0.41741097 -0.4766478 -0.27499396 -0.26697227 0.21485387 0.040867098 -0.18840767 -0.0060873656 0.2742916 0.26811945 0.056487076 0.24670987 0.18931499 0.07516882 -0.3580703 0.42011192 -0.1974415 -0.09541127 -0.009315892 0.11110125 -0.16654319 0.36952156 0.013280138 -0.26589355 -0.18050149 -0.10516616 0.048276626 -0.24801318 -0.047217797 -0.0022304892 0.086163335 -0.18244584 0.031268626 -0.20576996 0.32258227 -0.010330845 -0.47230133 0.03464567 -0.0018739342 -0.47788793 -0.7214184 -0.057473123 0.14050467 -0.13162737 -0.30403042 0.2191453 2.1901195 -0.09950098 0.30609915 0.02745187 -0.05845614 -0.2971226 -0.2321561 0.27765656 -0.20704192
之 0.08115951 -0.08917027 -0.12075037 -0.019568812 0.3404253 0.08232762 -0.09547446 -0.17803153 -0.35090056 -0.10200835 -0.28690445 0.38389584 -0.1382329 0.24222389 0.21272273 -0.099946484 0.18721852 -0.055170666 0.2729936 -0.22571097 -0.17667177 0.42369825 0.39620346 0.34512502 -0.07947436 -0.033227816 -0.031302564 0.101298824 -0.050493155 0.10994274 0.18212838 -0.3918654 -0.35854697 -0.26717684 -0.09769615 -0.4746325 -0.08980621 0.13265492 0.08882735 0.019070929 -0.063084394 -0.26383075 -0.34433565 0.14824428 0.11787644 -0.14694516 -0.32201007 -0.22097233 -0.12599486 -0.2286693 -0.06628612 -0.12913677 0.08491197 -0.030410934 -0.22616227 0.08863863 0.1671222 -0.067651056 -0.1895555 -0.18305361 -0.28311515 0.04560713 -0.057585657 -0.2826261 0.38871413 0.047983143 0.070179716 -0.22008877 0.030181168 -0.291416 -0.028723193 -0.022808079 0.20852493 -0.057153378 -0.002685268 0.0013419325 -0.00015815524 0.0086704455 -0.10348623 -0.046160273 0.20311548 0.022783166 -0.23788923 0.19928825 -0.5252365 -0.34734696 0.17338668 0.2698229 -0.0017950574 -0.25745785 -0.0024255316 0.09343804 -0.25773057 -0.37350124 0.21131887 -0.029470183 -0.16462173 0.21480282 -0.43137905 0.07677742
不 0.2584819 0.28697813 0.076386936 -0.12861176 -0.24873775 0.3795227 -0.16162246 -0.49967644 -0.0010258532 0.34091836 -0.2834613 0.22891381 -0.20237143 0.21148525 -0.14928553 0.032838102 0.29237267 -0.5681082 -0.1389664 -0.3108212 -0.02344904 0.053191297 0.1708639 -0.3811668 0.043252323 0.051307183 -0.05580037 -0.22743186 0.08757435 0.087826565 -0.26197624 -0.10836191 -0.2512221 -0.003797608 0.55293596 -0.17046393 -0.17224714 0.07064129 0.08906333 0.15151545 0.16851443 0.30560204 0.11557278 -0.03399788 0.1312127 -0.012776323 -0.1342639 -0.19235009 0.015745448 0.3470806 -0.11158715 0.21792147 0.11210089 -0.22978821 0.08018213 0.047977995 0.11295084 0.115553245 0.05173849 0.39393258 5.388254e-05 0.27418286 -0.11930308 0.0972289 -0.00789511 0.2017882 -0.3371025 -0.5928926 0.20006298 0.11142835 0.119600005 0.3026269 -0.034031954 -0.12506643 0.11150436 0.115389995 -0.3853564 -0.03837069 -0.02574942 -0.07046008 -0.3365937 0.023161491 0.20613307 -0.11704491 -0.010372929 -0.062311515 0.19115368 0.20117845 0.2821107 0.05241475 0.098137565 0.5039339 0.03558242 -0.3723241 0.11432449 0.23599058 0.2369621 -0.51270616 -0.230805 -0.2215309
也 0.37456873 0.10370462 -0.054020144 0.46883366 -0.25457665 -0.20813671 -0.3157857 0.14447655 -0.11254003 -0.12790215 0.18382907 0.086201176 -0.028365005 0.18211724 0.1424662 0.04685155 -0.2796589 -0.15597634 -0.021673393 -0.252461 0.029661719 0.6249518 0.20712407 0.111608975 -0.2747155 0.075081944 0.043949265 -0.033372767 0.3000612 0.049408153 -0.14897136 -0.15619949 -0.0016408059 -0.16653004 -0.022298198 0.037609015 -0.22495328 0.06998116 0.07859429 -0.55782586 -0.006924764 0.12674154 -0.47852796 0.4504654 -0.0075735934 0.11602327 0.039286878 0.011822337 0.11456117 -0.31571373 0.34002417 0.033120856 0.12415095 -0.09801509 0.2203844 -0.28060186 0.37422895 -0.25609538 0.25000766 0.2202032 -0.23763555 -0.07761999 0.0063957074 0.18731469 0.04279493 0.07015607 -0.30052048 -1.040102 0.09773055 0.25332093 0.21652198 -0.13292842 -0.17258686 0.39236343 0.0561908 -0.26206607 -0.009482422 -0.09140106 0.024450062 0.09390135 0.17403042 -0.072995305 0.061656207 -0.15430301 0.32299995 -0.27610648 -0.253069 0.16934128 0.164667 -0.04767884 -0.05349028 0.5670426 -0.4347517 -0.020995049 0.1892511 -0.10366394 0.13146019 0.12881967 0.09302676 0.6329799
而 -0.07104986 -0.092078894 -0.3391828 0.025197899 -0.10814658 -0.23501714 -0.045097385 0.07477953 -0.011960987 0.10729493 -0.09484569 0.23703009 -0.21296811 0.13140252 -0.087753065 -0.13414127 -0.48045236 -0.38715863 0.3362845 0.3610824 -0.109352835 0.81218344 0.17841925 0.064650446 -0.13446599 -0.2286324 -0.093516864 -0.06203938 0.05561822 0.32752463 -0.14600173 -0.15303248 0.030410158 -0.20394039 0.14616475 -0.010247652 0.11472328 0.25930768 -0.2475449 0.0018165002 0.17390113 0.24377249 0.41650957 0.15426202 -0.03709205 -0.29914302 -0.86190635 0.2862312 -0.059583876 0.6944281 -0.16250335 0.54881716 -0.004815736 -0.06957232 -0.0014209016 -0.11786756 -0.24026644 0.12476036 -0.16156611 0.019468552 -0.50201577 0.016145648 -0.20636764 0.2125982 -0.23426327 -0.38924482 0.059158556 -0.91073906 0.54520476 -0.15255746 0.23630677 -0.29596058 0.060916305 -0.1611025 -0.17545864 -0.025750289 0.32923073 0.32048506 -0.6490391 0.09530454 -0.16670026 -0.11284477 -0.21157138 0.09016063 -0.1961359 -0.26916394 -0.13598149 -0.10060603 0.31219262 -0.05003642 -0.11977086 0.33729252 -0.08305837 0.26111913 0.0845182 -0.022592526 0.078974724 0.21108374 0.14522105 -0.028488884
？ -0.43057314 0.0030239606 0.48894113 0.281229 0.3122086 -0.2456857 -0.2142976 -0.12015553 0.3117805 -0.06047227 -0.3794313 -0.16090658 0.003329747 0.3170791 -0.38574088 0.2916467 0.09585793 0.46210113 -0.2682769 0.25846785 0.038334373 0.9758336 0.25065017 -0.17387281 0.35706696 -0.14757924 -0.011755706 -0.20585494 -0.15734762 0.10294768 0.51920635 -0.45054606 0.042809267 -0.4281089 -0.4835123 -0.21896197 0.4649388 -0.13839373 -0.06321046 -0.56485337 0.20849015 -0.38183796 0.2717592 -0.33961 0.20243151 -0.27188218 -0.18773204 0.11190328 0.355976 0.17682987 0.11888906 -0.1903851 0.12106984 0.37353978 0.0025011264 0.3289478 0.104293674 -0.019834273 -0.16251086 0.3229112 0.26403704 -0.05539009 -0.2851143 0.24727444 -0.6734944 0.48002476 -0.22174078 -0.3505184 -0.10450499 0.21202156 0.1940164 -0.18355963 -0.14953622 0.07477231 0.2554735 0.08582653 0.4331783 -0.21949418 0.13846265 -0.28627068 0.080515645 0.2970076 -0.2635732 -0.31416282 0.2122207 -0.09345714 0.052941237 0.08277539 -0.19618043 0.053957615 0.062152233 0.85053223 0.10336278 0.01771332 -0.08317452 0.16829994 -0.27540562 -0.17731793 0.11511806 -0.7980053
其 0.18559785 -0.33788934 -0.18198209 0.091195345 -0.0877694 -0.5216818 -0.19694042 -0.22093423 0.17735377 -0.21651715 -0.07631777 0.23945914 0.17953089 -0.15148447 -0.27811712 0.404508 -0.2985668 -0.28701103 0.26451188 -0.11270737 -0.36238524 1.6468475e-05 0.28904504 -0.1352342 0.12910655 -0.14977643 0.27294287 0.14634211 0.1412575 0.011164923 0.18401356 0.07180747 0.03288262 0.28533918 0.20238079 -0.6139647 0.16663563 0.569793 0.1295318 0.20851427 0.019501502 -0.13089722 0.056667343 0.26742288 -0.45902094 -0.09930276 -0.016493125 0.011791115 0.09380958 -0.32182792 0.08367172 -0.053491168 -0.17782536 0.14813976 -0.17408712 -0.23536058 0.04498375 -0.14875175 0.07574073 -0.5083205 0.4760914 0.12172282 0.037548132 0.2688223 -0.07377752 -0.27355775 -0.28681138 -0.4901824 0.19672765 0.44014308 0.18097413 0.17777644 0.59420705 0.006480905 0.0061668633 -0.50526726 0.0019882794 -0.062349614 0.09957951 -0.39981395 -0.090045296 0.042254705 -0.08689295 -0.08685174 -0.09089333 -0.15999565 0.27591297 -0.18911983 0.5485082 0.61385334 0.2226166 0.80091643 -0.19949503 0.18349078 0.30362952 0.14447019 -0.09737069 -0.3429362 -0.036052145 -0.30191076
人 -0.27698535 -0.07470085 -0.1788486 0.1621479 -0.01784824 -0.15918161 0.16830716 -0.36821684 0.109829724 -0.064468734 -0.020471008 0.23855406 -0.3212605 0.010237023 0.0062755733 -0.17790762 0.09597439 0.11778482 -0.28132463 0.28780323 -0.03347041 -0.13451602 -0.37223566 0.15073359 0.38078684 -0.11918599 -0.020365326 -0.23011957 0.35287997 -0.27999026 -0.10479459 0.31062275 -0.016171856 -0.24812207 0.39583734 -0.029920701 0.10173425 -0.081927046 0.38552654 -0.051935773 -0.12294685 0.124767736 -0.46944907 0.103335105 -0.102016784 0.45524207 -0.19485712 0.34367278 -0.2550245 -0.11108243 0.10615712 0.5828817 0.71041626 -0.096076824 -0.3516824 0.5612348 -0.4434632 0.01508284 -0.323396 -0.47936714 0.10735316 0.0949903 0.13056196 0.23581988 -0.016637601 0.031310584 0.25050753 -0.7841273 0.106764965 0.29068545 0.088738196 0.40483984 -0.28299218 0.24423724 0.03452148 0.06650772 -0.1121525 -0.23561628 0.068872005 -0.0047563594 0.3701976 -0.48718342 0.03426383 0.21265152 -0.7057539 -0.4653106 -0.3470163 -0.11966233 -0.2246215 0.28544733 0.24526718 -0.14488836 -0.54154825 0.048907984 -0.28744966 0.15180843 -0.13327633 0.37207004 0.34539843 -0.30569726
者 0.122981004 -0.17542359 0.1284059 0.13298188 -0.32898557 0.1555084 0.10916995 -0.1635146 0.36211744 0.3114591 0.11026567 0.03175606 -0.06190131 -0.27280313 -0.017748138 0.503303 -0.7128521 -0.094485216 -0.10608872 -0.25466752 -0.03214748 0.4135374 -0.49858108 0.03510572 -0.23102467 0.34992838 0.2483494 -0.2276466 0.13146915 -0.34114584 0.032314982 -0.33566204 -0.19642825 -0.007876763 0.21879509 0.023215216 0.4564719 0.02494948 -0.005644843 0.20632957 -0.101218686 -0.3104609 -0.5483975 -0.017135194 0.20230909 -0.31422022 -0.1647648 0.105178155 0.53146607 -0.13593291 -0.089173354 -0.14778164 0.1918554 -0.24092464 0.17951164 0.11198899 -0.17412181 -0.13952015 0.029250259 -0.15052697 -0.4017611 -0.23151912 -0.36972895 -0.20599933 0.06995163 0.27420342 -0.12783718 -0.69770825 -0.4305906 -0.042185415 0.41024932 0.08743033 -0.20491701 -0.11029763 -0.1251542 0.11462642 0.18470079 0.09162197 0.2948955 -0.3908823 -0.34299088 0.18420757 0.27026725 -0.02042989 -0.5039811 -0.12551725 -0.10397313 -0.660691 -0.0059749023 -0.36717898 0.04159897 0.5279343 0.16864648 -0.1863391 -0.6306287 0.38305077 -0.44247764 0.2789947 -0.34893745 0.103012
以 0.4163297 -0.2145842 0.15106526 0.38534987 -0.13830036 0.0656557 -0.068605505 0.491862 -0.0924549 0.1861662 -0.10521234 0.12260393 0.05544813 0.00460208 -0.77929735 -0.059046566 0.45549473 -0.6095316 -0.09046182 0.043771207 -0.2677227 0.54596764 -0.4038945 0.1907817 -0.33986488 0.017225485 -0.20315517 0.40260357 -0.03307157 -0.120900676 0.06625445 -0.47603145 -0.1869404 -0.25285882 0.36560878 -0.14892147 0.2250133 0.09906019 -0.053193673 0.34400898 0.23466197 -0.34035537 -0.36051604 -0.15582941 -0.16706517 0.89862144 0.29833263 -0.11808656 -0.36395878 0.050361015 0.44489118 0.81986845 0.038128424 0.11483535 -0.01045707 -0.06444814 0.11458432 0.46091112 0.24229656 -0.2979505 0.054007523 0.27921382 -0.2203332 -0.32248595 -0.07584517 0.024585264 -0.11440309 -0.3965659 -0.013918247 -0.4262921 -0.36101806 -0.090997405 0.08805935 -0.2921808 0.28566185 -0.03340146 0.12195941 0.22377105 -0.20254268 0.17285344 0.05318384 0.33114675 0.10520293 -0.03103756 0.054011364 -0.16823277 -0.12235205 -0.029466823 0.07614687 0.44166842 0.037376307 0.38176408 -0.047928344 0.062159073 -0.24198967 0.13950735 -0.16928115 -0.23494738 -0.5436351 0.19480836
有 -0.09562067 -0.36698958 -0.15931328 -0.20451482 0.3481856 0.04122084 0.11664793 -0.13809253 -0.03358241 0.36567733 -0.08228535 -0.057055626 0.25832245 -0.20032732 0.29188356 0.044366367 0.0036387073 -0.35550427 0.051095687 -0.3827799 -0.17095457 -0.1264471 -0.56327075 -0.07557641 0.1401209 -0.03569826 -0.2377724 -0.008817538 -0.08059546 -0.0021850904 -0.12086819 0.023556419 -0.52432126 0.31817564 0.094068944 0.18697284 0.038200293 -0.3000272 0.12952279 -0.088224396 -0.34581771 -0.16643642 -0.06439138 0.016774729 0.08069083 -0.2636116 -0.30686176 -0.13463141 -0.2740717 -0.3018268 -0.08269268 -0.05218014 0.15046409 0.5302958 -0.21498677 -0.01836115 0.47580183 -0.23381548 0.1801141 0.15233189 -0.0013137818 0.17473474 -0.2797762 -0.621361 -0.17499235 0.27237934 -0.30555934 -0.66600907 -0.43211657 0.13492312 -0.38661158 -0.33236894 0.16269757 -0.42576584 -0.51411045 0.09254509 0.15424389 -0.0899705 0.17434952 0.35058504 0.33017772 0.3766735 0.11356723 0.10000981 0.14093637 -0.3285501 0.10473821 -0.040409073 -0.5895196 0.33201286 0.4199372 0.6636818 -0.34526545 0.26233405 -0.07001055 -0.135222 -0.19542834 -0.26379025 -0.22342041 -0.14707312
于 0.27068505 -0.028076643 -0.34034088 0.29734215 -0.09215401 -0.08960929 0.10694205 0.035988756 -0.30773547 -0.40064988 0.27938166 -0.35478872 -0.19496246 0.17412032 -0.23350497 -0.009731321 -0.094033055 0.13745403 -0.10892851 0.2525511 0.012220833 0.638721 0.27684805 0.003709687 -0.5333759 0.3413311 -0.09597699 -0.07397726 -0.27614477 -0.25736415 -0.1633667 -0.34009966 0.31264713 0.0885611 -0.21833467 -0.07942636 -0.28811094 0.24950512 -0.1648485 0.23177744 -0.4892676 -0.03813004 -0.08065492 0.20844364 -0.35717335 -0.19952714 0.20096558 -0.1662067 -0.12728438 0.20370628 -0.1662985 0.022006007 0.022173261 0.11664586 -0.3856438 0.043058053 -0.67956614 0.17558387 0.44572982 0.10064589 -0.042776342 0.16903129 0.17149034 0.24273457 0.19395372 -0.16415954 -0.118421465 -0.22050425 -0.09569025 0.36643657 -0.11954923 -0.24697031 -0.061729785 0.026706116 -0.27220646 -0.13413066 -0.3281665 -0.024853025 0.066512 0.2555129 -0.17440087 0.50768906 -0.007005118 -0.15562123 -0.5669525 -0.5211744 0.4724203 0.3308095 0.20418322 0.35691333 0.38726678 0.6564016 0.6085045 -0.039970983 0.26164225 0.33561638 0.12789649 0.06627691 0.3884986 -0.2878731
矣 0.063981965 0.042702224 -0.15174901 0.36883754 -0.058465347 -0.09385475 -0.3161987 0.40244985 0.010869444 -0.037908893 0.12574674 -0.020362845 0.4111916 0.34132233 -0.057334606 -0.074682005 0.6434446 0.03850188 0.03991244 0.18178774 -0.07815081 0.22563918 0.12560105 -0.16280079 0.54068077 0.043462425 0.46328762 0.051231846 -0.31013384 0.014734047 -0.5708667 0.19415364 0.39872727 0.2645277 -0.1579067 -0.8518407 -0.6229372 -0.69224286 0.2764967 -0.034222446 -0.27445683 -0.28445488 -0.6039205 0.11383531 -0.38279033 0.18659848 -0.41781965 -0.017679865 -0.099400416 0.3966042 0.31558105 0.12885259 -0.3595915 0.2597615 0.11609402 0.47897983 -0.012305599 -0.4001203 -0.019074986 -0.1707318 -0.031990223 0.07368341 -0.15969788 -0.028870568 0.2748184 -0.09231846 0.07079156 -1.805381 0.5199529 -0.18182935 0.14809337 0.39103845 -0.28049102 0.21213691 -0.104232475 0.31393695 0.0970725 0.052457575 0.0041051414 -0.15255688 -0.27729124 -0.30195555 -0.33109573 0.024844183 0.030597685 -0.62253976 -0.15514138 -0.63308877 0.32500935 -0.25561383 -0.035500668 0.44617346 0.32981646 -0.050217424 -0.21907713 0.07467363 0.10651601 -0.2271013 0.2515397 0.39443815
为 -0.23652703 -0.110547036 -0.29129338 0.055541106 0.2328695 -0.34350917 0.048578218 0.48278028 0.027114801 0.2152741 -0.15310149 -0.48190448 -0.121470205 0.2395797 0.18047598 0.07672078 0.5795275 -0.20150428 0.25396252 -0.20581956 0.30279288 0.49901366 0.12726742 0.24138221 0.0069065955 -0.15823269 0.07782808 -0.31160772 -0.2863313 0.09130448 -0.48870516 -0.2604618 -0.030143356 -0.27235335 0.25917166 -0.028484253 0.24435195 -0.23286788 0.1684946 0.33910048 0.38505402 -0.064681165 0.084459744 -0.18676667 0.0936403 0.38622978 -0.31487498 -0.084021606 0.50314784 -0.32143757 0.15342288 0.19595246 0.40988496 0.17673968 -0.26967165 -0.16688694 -0.18504532 -0.53307354 0.08802012 -0.074762784 0.0585386 0.12208177 0.29603568 -0.24819891 0.42863363 0.119359314 0.1970756 -0.26390508 -0.04048268 0.4481136 -0.049376864 -0.27053353 -0.09639076 0.23985016 -0.036789965 -0.14821766 -0.7242086 -0.41542652 0.049612503 -0.16871302 -0.47305217 -0.29853174 0.07712009 -0.21545433 -0.22090192 0.4002482 -0.27091536 0.15069611 -0.70180666 0.5313466 -0.3457047 0.2953329 -0.01723347 0.6122572 -0.034615368 0.37089166 -0.30651104 0.1778867 0.050129883 -0.5045781
君 -0.039474934 0.16223222 -0.30591226 -0.28346658 0.31395507 -0.028616492 -0.35373467 -0.35891378 0.19856311 -0.26818776 -0.24199806 -0.52096653 0.15473911 -0.17745762 0.2192734 0.34190094 0.32818088 0.0011770716 -0.12579605 -0.5187948 -0.09767364 -0.08787302 0.33322078 0.066035666 0.61155796 -0.09314837 0.20155706 0.0058825193 -0.037841544 -0.5714535 -0.44979674 0.086577274 -0.07532683 -0.07365718 -0.29382148 0.12709688 0.23998651 0.25451434 -0.07223028 -0.28379232 -0.20858258 -0.38940293 -0.41591868 -0.027812004 0.062677994 0.31089634 -0.049423885 -0.3458136 -0.11829647 0.009698433 0.24692379 0.2680317 0.2480864 -0.5092584 -0.012626368 0.04163488 0.17419182 0.28365707 0.31525946 -0.16823174 0.71888703 -0.3343759 0.25165334 0.22829649 0.4360188 0.08240984 0.14065903 -0.24527551 0.111674234 0.050024763 0.39168525 -0.2836881 0.12892562 0.08434466 -0.0047544846 -0.2443611 -0.32998705 -0.18308012 -0.0640097 -0.06495123 -0.17944737 -0.5468338 -0.14658773 -0.72423214 -0.23863387 0.0058024856 0.5082753 0.5069857 -0.22732383 0.18141024 0.06243566 1.3653101 0.08078653 0.38557228 -0.073696144 0.09665446 0.2426321 0.3635958 0.09951784 0.14222197
乎 0.49583203 0.55625576 -0.7433144 0.27948776 0.23340094 0.08436786 -0.52867395 -0.09088568 0.06317451 -0.28086573 -0.5055257 0.43413922 -0.12097498 -0.4650544 -0.12974045 0.58309907 0.223876 0.11211361 0.3689411 -0.03566529 0.38998756 0.61881787 -0.044233132 0.09005893 -0.29167134 -0.12876633 0.18479122 -0.30752376 0.12211743 -0.43983316 0.10934767 0.12306471 0.6749768 -0.17445306 0.13427049 0.01445988 -0.006419411 0.035619084 0.01666987 -0.119901635 -0.23146412 0.12973869 0.2203873 0.09843782 -0.6507967 -0.07135196 -0.023543257 0.2653162 0.4692377 0.23374338 0.26367295 0.4387675 -0.51312834 0.15895848 -0.47582462 0.50212836 0.2657227 -0.24584736 0.352108 0.047844503 -0.14213763 0.033181 -0.06808002 -0.13034588 0.45061424 0.3701286 0.039609127 -0.5501791 -0.44561124 0.15173882 -0.031179667 0.2763501 -0.17681557 0.013577978 -0.28691253 0.32143041 0.6914298 -0.05447612 -0.18409182 0.27580044 -0.107848145 -0.010141377 -0.14151907 0.27125713 0.24365933 -0.27644327 -0.3453456 -0.29905948 -0.22699866 0.25232244 -0.18334053 0.85019165 0.44739854 -0.021343587 -0.11968343 0.40409362 0.12054958 -0.14038913 -0.21957941 -0.052302524
可 0.330632 -0.12147223 -0.024471225 0.25918895 -0.3333971 -0.674689 -0.34211716 -0.41103616 0.50380343 -0.08692248 0.12746069 0.04895287 -0.25449786 0.20100778 0.18264678 0.3942136 0.26311642 -0.35653207 0.34405878 -0.028410925 0.49843156 0.56264514 -0.046146084 0.10893791 0.16347843 -0.3933864 0.10702025 0.17405932 0.37889788 -0.3036252 -0.48295486 -0.12543024 -0.7003229 0.1608669 -0.5272354 0.5657327 0.2835679 0.37296945 0.33098996 -0.2338656 -0.048704565 0.27191588 -0.22319373 -0.23035634 0.049697157 0.6468284 -0.080256686 -0.16130047 -0.13032097 0.27780482 0.13853496 0.4889468 -0.1914046 0.20782112 0.10400514 -0.025431294 -0.18690777 -0.08972351 0.16349162 0.0044582947 0.2914346 0.32271257 0.007344561 0.036934767 -0.11016412 0.13408425 -0.088110745 -0.29681632 -0.10725125 0.19583441 -0.018841585 0.40279317 0.025082983 0.18451743 -0.14583147 0.5826455 -0.18121316 0.16812795 -0.3026921 0.42963466 0.015810715 -0.44863486 -0.053311273 0.09027376 -0.24337074 0.23654136 0.42043358 -0.051831782 0.44044825 -0.24158429 0.49261907 -0.0062747984 -0.5019614 0.11425535 -0.087017715 -0.199053 -0.51009166 -0.105145395 -0.37664235 -0.13701396
如 -0.07720053 0.3194481 0.26059082 -0.18746282 0.29792494 -0.14425579 -0.19638021 0.5130577 0.34764636 -0.13170609 0.012009399 -0.5358309 -0.11335668 -0.39226925 -0.44837922 -0.2703132 0.1280755 -0.04329052 -0.16639197 -0.25424966 -0.14782934 0.67467463 0.25445607 -0.17403369 0.051065836 -0.6375177 0.34495944 0.34301087 -0.29130778 0.4042315 0.19705391 0.2434365 -0.2499004 -0.0747867 0.074645944 -0.06784127 0.089812614 0.17621846 -0.16472328 0.10025657 -0.05975164 -0.61249286 0.24909024 0.033584125 0.12773804 0.44813856 -0.28197688 0.38450542 -0.03655365 -0.22152458 0.36444828 0.06770129 0.26326618 -0.085707046 0.283314 -0.16198678 -0.23998185 0.14347462 0.1199031 0.1979818 0.007031411 -0.10159559 -0.26000115 -0.030161921 0.09318781 -0.027744109 0.19356903 -0.43670917 -0.46248654 0.3549087 0.63499874 0.0142760435 -0.17077628 -0.072151154 -0.03354273 -0.2890155 -0.51484585 -0.30889675 0.18719317 0.06251541 0.043269463 -0.0056524253 0.20031793 -0.30310884 -0.56200993 -1.0255929 -0.3343988 -0.53911513 0.031109795 0.14264631 -0.5351081 -0.00891325 0.13185628 0.19756079 -0.2675585 -0.4045784 0.018976351 -0.1486871 0.04626414 0.18361127
与 0.09442887 -0.4410762 -0.27808625 0.75950325 -0.12870857 -0.26419756 -0.4328823 0.07644504 -0.49477193 0.30615667 -0.6996621 -0.8418011 0.15238689 0.19037735 0.030051311 0.090413876 -0.15838642 -0.38883114 -0.613617 -0.58548003 -0.0678101 0.68110967 -0.0046511325 0.29734743 0.03674612 0.0123777585 -0.049321167 -0.2984979 0.27711183 0.036226723 -0.16359599 0.59591407 -0.1920564 0.4963049 0.17564872 0.10983063 0.20664379 0.51951563 -0.15618797 -0.36588013 -0.17187162 0.061135117 -0.17217632 0.007213126 -0.24890125 0.14751755 -0.39733842 0.40736607 0.21733893 -0.27061012 -0.17986503 0.32596144 -0.057406645 -0.10877813 -0.086997986 -0.07722927 0.53672934 0.36992717 -0.068786114 0.16119659 -0.23618904 0.6700847 -0.10107616 -0.2659908 0.4493876 0.25661096 0.15654498 -0.10193005 -0.004726297 0.14867055 0.05135229 -0.5160763 -0.10166034 0.37324172 0.24925102 0.18505234 0.1604008 -0.6398039 -0.07668585 -0.20667666 -0.28784952 -0.5802947 0.29104355 0.15145311 0.062146205 -0.12215332 -0.1540544 0.05223955 -0.0473598 0.013452716 -0.078966334 0.44778776 0.4636057 -0.23267075 0.122656025 0.18919851 0.07637181 0.11120002 0.11358222 0.08779738
； -0.028970798 -0.55827135 0.1510714 0.07228727 -0.14297305 -0.4044817 -0.10912366 -0.28812528 0.4035151 -0.38018352 -0.20095478 0.23218092 -0.29658052 -0.20983951 0.0902103 -0.10021249 -0.39744857 -0.057502266 -0.1294293 0.2213231 0.14140986 1.54908 -0.3403657 -0.52971756 0.06279855 -0.047227312 -0.18023913 -0.17677337 0.47463644 0.04459968 -0.30905467 0.042209394 0.1931526 0.27827284 0.41701224 -0.22835506 -0.056469787 0.095676705 0.33547553 0.78074336 -0.33415037 -0.37794304 -0.3491567 -0.561092 -0.048789676 0.41615143 -0.028154315 -0.016579447 -0.09411759 0.102084875 -0.43427974 0.23234898 -0.31331664 0.046268065 -0.11040256 0.380539 0.20324896 -0.22888383 0.0055709356 -0.05767062 0.023380158 -0.3363884 0.03263107 -0.04438293 0.08478445 0.1286994 0.04799834 0.20422032 0.23079932 0.97237813 0.30129132 -0.26001832 -0.011294093 -0.24015145 0.30026197 0.13093697 -0.26455697 0.34769297 -0.15997145 0.34736374 0.22629999 0.2542947 0.18552646 0.18990064 -0.05537429 -0.13162713 0.073201545 -0.43945628 -0.0004631309 0.15803237 -0.20350018 0.23053008 -0.19974917 0.24444494 0.62693334 0.090022154 -0.020114759 0.12984888 -0.2504413 -0.23398314
言 -0.08199661 -0.3009673 0.19504325 0.2857218 0.16655086 0.19504046 -0.118315846 -0.11775066 0.38018703 0.2940159 0.030400086 -0.074904814 0.25033522 0.12146963 0.34011883 0.41517833 0.015831016 -0.33079395 -0.68489116 0.09520351 -0.09155332 0.2590229 0.3630943 0.19951278 0.40250698 -0.09378174 0.25111893 0.4045145 -0.16216727 -0.056471586 -0.23427236 0.3131466 -0.20751812 0.29444396 -0.024194712 0.072627865 0.19550739 0.20110565 -0.19667812 0.27085033 -0.07341533 0.23096767 -0.6034954 0.1333501 0.031042926 0.11133767 0.40070355 0.13111416 -0.131452 0.34762228 0.6443283 0.46150947 -0.37801787 0.4317749 0.62042487 0.109837025 -0.3017041 0.21442667 -0.021496087 -0.019778917 0.30000484 0.00042328026 0.247328 -0.3432012 -0.6175278 -0.2116321 0.58662283 -0.38748434 -0.11180535 0.004118751 0.26756808 0.38831517 -0.052549347 0.38142893 -0.26039132 -0.058553126 0.06758197 -0.21445224 -0.14900853 0.44496349 -0.20888893 -0.13960315 -0.30318916 0.049094595 -0.89803016 0.33519343 -0.46589717 0.04679439 -0.42517084 -0.11935948 -0.37100312 0.23392172 0.17167565 0.0023630145 0.36926365 -0.33715406 -0.079633586 -0.40826246 -0.0693541 0.28368914
无 0.6666229 0.49288693 -0.48443237 -0.23959121 0.18981916 0.5730979 -0.019704053 0.20913154 0.36770535 0.511851 -0.25831679 0.62336504 0.025523772 -0.002620968 0.036397558 0.4442412 -0.2634052 -0.5593795 -0.056103468 0.58279055 0.2265858 0.23240413 -0.20125197 -0.47290203 -0.30238795 0.16964856 -0.059338283 -0.23434861 0.07368342 0.11856839 -0.36327824 0.026866565 -0.28863236 -0.15075995 -0.4419831 -0.31195205 0.28103226 0.38694134 -0.2614489 0.23329374 -0.15613087 -0.370231 0.23633401 0.091298334 -0.35058385 0.42985272 -0.14811267 -0.37792516 -0.14447415 0.10456126 0.4289471 0.21318516 -0.01659023 0.30838966 0.046888154 -0.15012139 0.9556309 -0.09613248 -0.103333615 -0.328014 0.14701754 0.4170159 0.29482737 0.09958483 0.17035872 0.15464222 0.0623378 -0.49768943 0.14537427 -0.032006722 -0.07163496 -0.5668821 -0.12248953 -0.04558007 0.16461572 -0.21423861 0.07340425 -0.46546048 -0.16147189 -0.25003567 0.35629323 0.12214038 0.33129647 -0.10331473 -0.30402574 -0.2182271 -0.3234975 -0.0005211058 0.17085102 -0.36951432 -0.025273407 0.1471604 0.28725505 -0.31344104 -0.30659902 0.38653982 0.15619709 -0.6604942 0.26645195 -0.29577923
则 0.23405223 0.37756452 -0.74501795 -0.2625205 0.10111198 0.36816028 -0.69152534 0.34092042 0.065869294 -0.29323822 -0.02825551 0.0218332 -0.1049584 -0.14321792 -0.59509736 -0.32639366 -0.19762781 -1.1057626 -0.34899035 0.3859354 -0.05251631 0.77229315 -0.094701864 0.25958788 -0.35662118 -0.15652259 0.42930022 -0.12054647 0.015791042 -0.0055159414 0.19237873 -0.07692007 0.03092071 -0.18643382 0.026672605 -0.18844387 -0.25410825 0.2128433 0.30953377 0.04765044 -0.3964967 -0.16586807 -0.6700785 0.5049688 0.18696137 0.61160594 -0.34375653 -0.18041602 -0.24900502 -0.2995435 0.65326715 -0.016810603 -0.2572434 0.25761762 -0.14606144 -0.042400867 -0.22590783 -0.10405798 -0.21691695 -0.19541049 0.21642743 -0.28683344 0.0333741 0.01613804 -0.2403557 -0.15771312 -0.26367626 0.07362384 0.35935545 0.00027818218 -0.3143336 -0.091346495 -0.5118428 0.5631457 -0.416881 -0.25874522 -0.024192344 0.05921338 0.008786224 -0.12496241 -0.39726818 0.3363546 0.67652315 0.4799461 -0.14716822 0.30121836 0.15017068 -0.058965452 0.23914512 -0.12560035 0.14298898 0.40915456 -0.14046115 -0.2837979 0.27098915 0.17397283 -0.19657984 -0.022285396 -0.1100568 -0.36492947
！ -0.14819133 -0.11180802 0.16348006 0.65925086 0.0075173043 -0.2954232 0.18936242 0.18604964 -0.27042466 0.3587711 0.06988581 0.376481 -0.26968908 -0.093887806 -0.08152736 0.22442687 -0.090094745 0.11571338 0.019044256 -0.29916492 0.04240836 1.6083745 -0.36124805 0.13024683 0.89824426 0.3862695 0.24177085 -0.33176407 -0.11810694 -0.20423539 -0.030484227 -0.087823376 -0.23968154 -0.10864987 -0.17896487 -0.5239055 -0.15577193 -0.3697271 -0.33002126 -0.2800762 -0.021972522 -0.21175659 0.17631231 -0.19033526 -0.14850366 0.22603536 0.26711 0.029031461 0.47048193 -0.16128868 0.05396444 -0.10115423 0.20260826 0.04436387 0.12758575 -0.11803013 0.1942165 0.14464143 0.5064219 0.33692083 0.2808453 0.2878284 0.33714855 0.3292112 0.10759573 0.1966727 0.7164271 0.3162429 -0.082752764 -0.15525176 -0.31492788 0.51174957 0.0329861 -0.24676076 -0.09531059 -0.32767138 0.2690439 0.08837774 -0.4080781 0.025196915 0.072964035 0.00307019 0.16907763 -0.121211 -0.093978375 0.09838714 0.3119504 0.33184236 -0.13901938 -0.27036786 0.15162027 0.4759566 0.4948756 -0.17213024 -0.59050775 -0.26733947 -0.46320647 0.0056164507 0.33220765 -0.8772073
问 -0.006027716 0.092741355 -0.4347212 0.08850981 -0.0730779 1.7397542e-05 0.42296654 -0.2252886 -0.10019642 0.6309028 -0.0430921 0.089864895 -0.00053838815 -0.30422294 0.09082517 0.11626021 0.4135708 0.10854056 -0.58925515 0.25210735 0.21054333 -0.13014701 0.081879765 -0.18756068 0.23678543 0.059340402 -0.13533449 0.1936961 -0.18384817 -0.10915163 -0.28946474 0.10116709 0.24878676 -0.09393263 -0.15069824 0.07372979 -0.17915235 -0.13519697 0.011525473 -0.0039513516 -0.20541056 0.1166272 0.11460633 -0.14063764 -0.43120363 0.617859 -0.307289 0.18315633 -0.099659 -0.29917425 0.05104839 -0.1105761 -0.11144831 0.6062748 -0.17698555 -0.6205084 -0.7774577 0.4893266 -0.2368043 0.10126601 -0.1287924 -0.49057445 0.43480957 -0.15891245 0.28383142 -0.38809428 0.17608584 -0.43546566 -0.39095458 0.08485778 0.36624178 -0.16246024 -0.04917784 -0.07059056 0.4200912 0.56068987 -0.32237148 -0.8473502 -0.3098336 -0.30919477 0.1491915 0.32449433 0.0396673 0.13894263 0.16746457 -0.20446984 0.16661982 0.096952215 -0.19939038 -0.04089882 0.17162287 1.1971052 -0.09124433 0.24955736 0.096559115 0.13514704 -0.6987534 -0.15407863 -0.08765427 -0.28942218
知 0.2911541 -0.30495155 -0.39431426 0.6070789 0.09290845 0.0839906 -0.06913076 0.4734014 -0.1786438 -0.092172675 0.4987707 0.15923378 0.07342042 -0.25998482 0.5121585 0.55877244 0.1218374 0.28079036 -0.59075934 -0.5783661 0.29054794 0.93160504 -0.062789254 0.0014061086 0.32100478 -0.21299236 0.41842076 0.2671024 0.20448878 0.18823975 -0.23137449 -0.029820828 0.06885166 -0.068623394 0.14251244 -0.28184202 0.029363977 0.2153874 -0.089954235 -0.47113305 0.20786755 0.1879564 0.22259256 -0.010154206 0.31440857 0.6405281 -0.14347409 -0.11589229 -0.09146777 -0.25737265 -0.3106788 0.06382126 0.06563526 0.20442125 0.016718408 -0.6031155 0.14932656 0.33838788 0.103664614 -0.42609677 0.4822792 0.2606278 -0.19497734 -0.18363692 0.07698017 -0.053784624 -0.08870242 -0.6229269 -0.25153536 -0.13659863 0.12356562 0.23331372 0.044201087 -0.12408783 0.15630092 -0.36581618 -0.16055728 -0.4072188 -0.19071628 0.29260466 0.17434101 0.119441375 0.5656938 0.28213567 -0.33060005 0.08295196 0.3660671 -0.32359594 0.004623463 -0.035246007 0.4042137 -0.35063598 0.43331367 -0.11499442 0.25414288 -0.30777454 -0.14446889 0.21044391 0.0093582515 0.16518031
何 0.43573013 0.08745953 0.08729438 0.47400135 0.37443233 0.24085824 0.38154313 0.36423331 0.0018655038 -0.1666979 -0.16258147 -0.10701813 0.05223687 -0.038042687 0.04154837 0.6886118 0.24164988 -0.090285115 -0.015548165 -0.4605513 -0.40827623 0.30609247 0.08998395 -0.0033641271 0.5849592 -0.011970634 0.2970227 -0.2687672 -0.20916107 0.15752767 -0.1721137 -0.32175425 -0.038676344 -0.58419424 -0.59486943 0.0712398 -0.3035294 0.088950455 0.3942976 0.20233573 -0.06295345 0.14375213 -0.11819532 -0.3918737 -0.012392561 0.07232623 0.31620458 0.028628096 0.14311151 0.15547955 -0.0052350513 0.28727707 0.07626336 0.038624752 -0.5506596 -0.24639884 0.4592513 0.2256384 -0.19585197 0.2974303 -0.08254297 0.45151043 0.17460322 -0.6396108 -0.38185546 0.2719232 -0.0110747265 -0.35536245 0.2596954 0.5752616 0.15331475 -0.005771151 -0.02336432 0.20293733 -0.49032608 0.32508695 0.4066007 -0.59559005 0.54794854 -0.37440914 0.10328961 -0.47384426 0.469938 -0.4866594 -0.31310514 -0.05339704 -0.34931383 -0.1648145 0.27877623 -0.033736058 0.27505878 0.58385706 0.44831508 0.39233884 0.3964254 -0.48218346 0.08020299 -0.3422824 -0.094625644 -0.23456766
吾 0.07409986 0.051130496 0.46415555 0.019932134 0.2489017 -0.041700564 -0.12497794 -0.40657926 0.2670014 0.02004254 0.069218114 0.05014723 -0.2906618 -0.044193372 -0.11147381 0.7119095 -0.1528489 -0.40316087 0.27985987 -0.6474132 0.6302424 -0.20906462 -0.24957037 0.5040204 -0.29400617 -0.61351913 -0.39316282 0.34213054 0.6488571 0.045435343 -0.14515789 0.0021759567 -0.34147245 -0.062225517 -0.17355119 0.030917395 0.3196061 -0.31140226 -0.051815394 -0.66787404 0.013792987 0.023843769 0.09681024 -0.08803617 0.1233912 0.36709702 -0.9512533 -0.008368882 0.14518154 0.00010314489 -0.05328206 0.5970023 0.00695615 0.3541166 -0.082568675 -0.29299495 0.23412056 -0.32780647 0.20937015 -0.7986202 0.5097021 -0.05177161 0.18145657 -0.23509344 -0.003505672 -0.02342434 0.07005306 -0.8516948 -0.4862391 0.555928 -0.42815757 0.12169028 -0.11864062 0.47755602 -0.20690443 -0.37317258 -0.3085733 0.58102375 -0.33343187 0.14978977 0.33924577 0.29725128 -0.25328138 0.27267992 -0.17891714 0.11415224 0.20139669 -0.41560492 0.6546145 -0.22653708 0.446927 0.4369712 0.5767868 -0.32063287 -0.06860563 -0.58042943 -0.11860598 0.085201114 -0.13483338 -0.41463348
仁 -0.374668 0.1039035 0.19379686 0.6920575 -0.2731628 -0.33008096 -0.49362877 -0.62126243 -0.60816145 -0.36496893 0.050794877 -0.03761964 -0.34578747 -0.3626989 -0.0063970033 0.6749661 0.33304748 -0.35477817 0.44755536 -0.037915833 0.37390506 -0.018761441 0.14354783 -0.035909098 0.18932061 0.20381309 0.11114495 -0.11298137 0.42574984 -0.45419142 0.16940579 0.15656771 0.30841583 0.054617852 -0.7608063 0.287196 -0.1529731 -0.1148969 -0.2571083 0.24507557 -0.008129335 0.1009858 0.08738246 0.22656175 0.43672645 0.18866009 -0.7819544 0.005697339 0.046881054 0.31339735 0.10176274 -0.20107079 0.0780222 -0.24790272 0.10115437 -0.09587561 0.30231446 0.1460313 -0.08975043 0.0011003319 0.077151105 -0.017676737 0.11841419 0.093326494 0.3315816 0.2431939 0.337806 -0.59129286 -0.04952952 -0.110224605 -0.1770325 -0.08790077 0.4629839 0.2084322 -0.13296463 0.2580327 -0.18288368 -0.11977696 -0.24608572 -0.11079518 -0.05590617 0.2747207 0.3132967 0.24153957 -0.7584518 -0.6155883 0.13781205 -0.13590446 0.3339048 0.11129301 -0.12799855 -0.07038106 -0.031980526 0.07597361 -0.39864376 -0.255218 0.13849673 0.46139243 -0.1147931 -0.10239662
夫 0.17150182 0.39766973 0.03383441 0.3280102 -0.044336397 0.020099498 -0.58255833 -0.21919188 0.31464702 0.3225301 -0.124641486 -0.5363719 -0.18810353 -0.43697512 -0.20670092 0.019152705 -0.075462535 0.59364605 0.35922167 -0.4212006 -0.286021 -0.12251659 0.16971627 0.034044564 -0.25918418 0.21551158 -0.23482327 0.4775235 0.075226165 -0.15383989 0.39874133 -0.08650256 -0.03215638 0.0152477715 -0.23104356 -0.19456683 0.034538742 0.10433784 0.42199486 -0.075148314 -0.22281696 -0.18106762 -0.640052 -0.20202689 0.24143821 0.3729949 0.15203534 0.061857052 -0.15694611 -0.676699 -0.10203033 -0.04577587 0.051102906 0.69915575 -0.03299707 0.64681035 0.30170906 0.06789363 0.15874086 -0.48900363 -0.058877684 0.10346542 -0.5260655 -0.3525919 -0.18287763 0.1925416 -0.20966087 -0.1303288 0.11211145 -0.21474017 0.9472344 -0.21703148 0.04557221 0.23154381 -0.3026614 -0.39741644 -0.42998254 0.15980728 -0.31591707 -0.29877278 0.0020161893 -0.116262175 0.013249729 -0.2567207 0.11488164 -0.32818797 0.28016117 0.12825087 0.47828433 -0.22191723 -0.34303123 0.93649375 0.83998 0.42061284 -0.102063894 -0.043531224 0.036803383 -0.06453511 0.52745736 -0.6973305
、 0.5995633 -0.11968589 0.15969375 -0.6735802 -0.1127159 -0.022655332 -0.07268231 -0.032289594 -0.092955 -0.29093876 -0.54609275 0.12662648 -0.2568605 0.12694724 0.38644764 -0.24293995 0.056648266 0.408658 0.12485175 0.253556 0.20961182 0.63600564 0.6775315 0.2826225 -0.18180202 0.039137762 0.32028568 -0.22847354 -0.12019553 0.41829127 -0.27931726 -0.67783743 -0.33598766 0.4521572 0.17187588 -0.2322458 -0.104213655 0.06956493 -0.06454922 0.0042906296 -0.2599952 0.11062788 -0.21601991 -0.03477224 -0.026723407 -0.09729495 0.8516313 0.29217216 -0.104432024 0.11550144 -0.0634074 -0.53593004 -0.06040142 0.38819748 0.046147555 -0.001579631 -0.099358305 -0.215792 0.28130102 -0.16531503 0.23189668 0.07997154 -0.17866264 -0.059039336 -0.076695465 0.19403999 0.3992241 -0.7725651 -0.013107844 -0.0048974217 -0.51251435 -0.6018694 -0.047616955 0.27877647 -0.16664834 0.76368284 -0.3582892 0.14330012 0.78090256 0.2343538 -0.06259675 0.2057538 0.4663709 -0.22399199 0.48092878 -0.35147887 -0.5001951 0.082193516 0.46150282 -0.3301848 -0.24566391 0.86862195 -0.5513546 0.37468696 -0.5574513 -0.19277376 0.5347985 -0.058245238 -0.27054816 -0.9940582
道 0.19702233 0.048597436 0.41744006 -0.08240655 0.15429431 0.28808883 0.60034 -0.66898715 0.43702096 -0.31833214 -0.47478402 0.119612806 -0.34824026 0.22320205 0.01429226 0.6599529 -0.17583953 -0.60408515 -0.2366322 -0.46365517 -0.106531695 0.41183433 0.51638144 0.23471206 0.007697301 -0.32016295 0.2661941 -0.07543306 -0.058736347 -0.024785373 -0.37270445 0.017880341 -0.023109447 -0.2665864 -0.20198561 0.4470695 -0.031989817 -0.02472261 0.12696812 0.19935922 -0.52957433 0.014248762 0.13080068 -0.12509343 0.15219842 -0.1708953 -0.059253328 0.22973691 -0.39062265 0.01929977 0.115963496 -0.13979551 -0.06759089 -0.1291903 0.42976624 -0.25975814 0.17929262 0.22743627 -0.16689129 -0.1919306 0.60916173 -0.47983223 -0.42836174 0.09105 0.20472996 -0.12353766 -0.153367 -0.16413519 0.5640541 -0.074345924 0.4110942 0.045697622 -0.23790665 0.23483522 -0.31580746 -0.36121202 -0.5358166 -0.9521262 -0.26434216 0.13949482 -0.04205539 0.4742475 -0.13691147 0.19548295 0.031693384 -0.38452053 0.039300494 -0.38074073 0.05255373 0.27407396 0.18667293 -0.3107193 -0.05025577 0.19191809 -0.48519942 -0.2359385 -0.0600692 -0.14500704 0.22706166 -0.52496606
焉 0.42878312 -0.2353029 -0.42902318 0.19777575 -0.13025676 -0.27014863 -0.6326468 0.17944485 0.09090115 1.0798628 -0.085646555 -0.005253699 0.6347014 0.55493724 -0.27399823 -0.10762842 -0.093743116 -0.20450146 0.42431483 -0.28015277 -0.13199754 0.105824135 0.7409713 -0.16546825 0.19774282 -0.21945752 0.20545252 0.22821501 -0.30214646 -0.2277413 -0.18899916 0.22197106 0.3007356 0.22684814 -0.061705094 0.57796466 -0.77838165 0.025538772 0.3091905 -0.23925778 -0.24147668 -0.52665573 -0.33427343 0.20654173 -0.23547758 -0.616973 -0.7371279 0.13938564 0.056119625 -0.24753983 -0.3497332 0.40872988 -0.2052301 0.10123369 0.100750975 -0.06380842 -0.47909304 0.29182258 0.7563079 0.3423219 0.47865096 -0.018613756 0.3267937 0.2362314 0.40688527 0.1598029 -1.1029837 -0.46211708 0.3384855 0.3049702 0.3835802 0.41379443 -0.3015426 0.61607385 -0.07660537 0.039988976 -0.11556825 -0.22504829 -0.52221984 0.18382744 0.170595 -0.04425148 -0.051372852 0.21091235 -0.84527224 -0.6307281 -0.28034803 0.09666458 -0.2339334 -0.005025446 -0.5331281 0.9379068 -0.757593 -0.17623343 -0.75963926 -0.16025743 0.8341297 -0.015776789 0.3604165 0.3516767
行 -0.39517373 -0.12549661 -0.054924965 -0.78229773 -1.0495492 -0.2201009 0.053117137 -0.6798047 -0.28406653 0.40777585 -0.49133393 -0.24381961 -0.36763874 0.30290478 0.15687956 0.35183355 0.19123381 0.26100838 -0.1945986 0.06999188 -0.30392972 0.26918042 0.2842557 -0.15484521 0.54402816 -0.22788693 0.015262817 -0.00832564 0.07222318 -0.3573082 -0.6044743 -0.232071 0.046016704 0.25098485 -0.32403433 -0.103898376 -0.61259407 0.34958458 -0.24290632 0.28419834 0.22215763 -0.49536687 -0.36603963 0.56320876 0.81737524 -0.038898624 -0.48208985 -0.06362704 0.19783737 -0.101127096 0.24829094 -0.22203977 0.046083283 -0.063991785 -0.09691714 -0.42250147 -0.16831698 -0.22184914 0.29487914 -0.12943625 0.2941808 0.40635544 0.028444508 -0.112201676 -0.083863944 0.1816195 0.24326451 -0.61003274 -0.26968524 0.053068068 0.2851114 0.3616977 0.04531355 0.14173876 -0.15778822 -0.35092163 -0.39852548 0.08588324 -0.5572986 -0.026437461 -0.44896835 0.4073308 0.45876995 -0.049328856 -0.2571711 -0.22261518 -0.29987305 -0.45383874 -0.21713147 0.1461089 -0.3966965 -0.11710569 0.7748989 0.59447986 -0.09097535 -0.3303939 -0.7094851 -0.29990172 -0.25654203 0.4561862
谓 0.13113646 -0.1386027 0.032041736 0.42500058 -0.29961652 -0.029875046 0.13714458 0.2512223 -0.6699263 0.33797336 0.1619797 0.016651582 -0.4797756 -0.4178967 -0.17656964 -0.67333984 0.18574883 0.43242887 -0.35938615 -0.07313953 -0.043388657 0.71285117 0.5667704 0.20359465 -0.50832355 0.3163394 0.23518415 0.3947427 0.35632285 -0.6831155 -0.030234322 0.4025874 -0.3907554 0.14185545 0.09281001 -0.26477218 0.3161317 -0.5603945 0.54701364 0.32259676 0.11564271 -0.011363829 -0.43524048 0.14929968 0.06616694 0.30661964 -0.7036781 0.08145784 -0.4423762 0.27812582 -0.18448223 0.46800935 0.32781142 0.5390561 -0.051867533 -0.21643695 0.2677436 0.28320816 0.014727291 -0.1562777 0.5026552 0.22147569 -0.5462646 -0.5491855 0.5227668 0.5127471 -0.018512057 -0.24862176 0.20866506 0.5793682 0.3700602 -0.06817546 0.38398427 0.3774971 -0.0853062 0.08547825 0.31810242 -0.6344689 -0.027907573 -0.1916946 -0.19723797 -0.30273977 -0.3172247 -0.4285134 0.09978234 0.34268454 -0.39970103 0.060021013 0.18617132 -0.52466536 -0.027434863 0.72323436 -0.231192 -0.19055806 0.07135778 0.002039431 -0.0843269 0.1424796 -0.06567425 -0.47131747
必 -0.6214176 0.14875901 0.22214535 0.3431559 0.23101643 0.4250395 -0.52744615 0.4724473 -0.20441088 -0.055637963 0.009174108 -0.085874535 -0.26670733 -0.053908255 0.24610513 -0.025661694 -0.003594159 -0.6857704 -0.010216814 -0.1509067 0.01769966 0.07544931 0.4237235 -0.16431974 0.15020818 0.27571872 0.3741004 0.21720949 0.31821278 -0.57737017 0.19316366 0.026397109 0.12553786 0.074293844 -0.4128279 -0.24430734 0.321347 0.7448579 0.74100196 0.12658593 -0.0901274 0.017183684 -0.2195329 -0.4323576 -0.36482352 0.4938739 -0.22913262 0.16077232 0.050773997 0.0910668 0.34978762 0.15676677 0.17653258 -0.22787873 -0.055575613 0.399838 0.10938363 0.27317148 -0.054605197 0.22021954 0.26927558 0.04175447 0.014938282 -0.16929013 0.38330233 -0.04796802 0.26287258 -0.38824844 0.10842354 0.31595263 -0.52895457 -0.29081693 -0.120199434 -0.05402436 0.3012826 -0.45011035 -0.26755017 0.47523823 0.21701643 0.17844868 -0.17584732 0.6848546 0.31212825 -0.2643908 -0.061464302 0.18685102 -0.20950548 -0.76445115 0.29009217 -0.8398238 0.11830543 0.46437123 0.5228704 -0.35047847 -0.07131592 -0.70391226 -0.32816687 -0.33960533 -0.031993113 0.2568426
礼 0.28745738 -0.0049630487 0.13018171 0.09473915 0.18956028 -0.01056981 0.8800153 0.37271518 0.45712814 -0.72208935 -0.8816742 -0.18899341 -0.23550814 0.104549274 0.47363213 0.2166866 0.22479771 -0.40107867 0.26241753 -0.15415776 0.3677771 -0.14759271 0.5852645 0.7644526 0.38596356 -0.7571219 0.78863424 -0.83557767 -0.09063155 -0.54529446 0.1901446 0.076304555 0.13853788 0.33807245 -0.15426348 -0.25944293 -0.21875842 0.02688533 0.14367545 -0.3045942 -0.4697569 -0.2718947 -0.06312308 -0.79427296 -0.23585886 0.85524976 -0.29826227 -0.26972294 -0.20144632 -0.25063276 -0.45428953 0.71656895 -0.34736896 0.4773751 0.44384181 -0.35079142 0.036051713 0.022387104 -0.19617109 0.2959249 0.4491097 -0.23964515 0.069756575 0.015501427 0.12331406 0.120586105 0.6049164 -1.372878 -0.5932237 0.69018584 0.29317653 0.30312434 0.4161858 0.6691538 -0.10078304 -0.43874612 0.15165265 -0.31249398 -0.053966653 -0.53870314 -0.4569328 0.15463452 0.39221445 -0.2150153 -0.10246151 0.06687583 -0.4251401 0.100890264 -0.04425234 0.05290242 0.22462988 -0.018898314 -0.29109296 0.5055444 -0.40098932 -0.23586987 0.7152135 0.4607483 0.15207091 -0.48129332
孔 0.24332331 -0.37035614 -0.13517907 -0.03560562 0.13860849 -0.30570132 -0.06462666 -0.77199143 -0.4164303 0.25833642 -0.5733287 0.30900308 0.7864432 0.47475895 0.434515 0.24198645 -0.12604624 -0.15863395 -0.50479776 -0.060959764 -0.3729053 0.22362511 0.025331637 0.20902781 -0.6910338 0.2994568 1.0643572 -0.050117504 -0.23157261 -0.5771382 -0.15172054 -0.0068371315 0.07833725 -0.40370217 -0.36523712 0.42388952 -0.1374599 -0.5041391 -0.017883305 -0.978077 0.11543791 0.1759403 -0.6879857 -0.29336554 0.118799016 0.09685047 0.067069374 -0.064709745 -0.4336623 0.12854876 -0.04049629 0.37787697 0.12338695 0.079893395 -0.33594504 -0.60246044 0.51467836 0.437233 -0.28427505 -0.23396152 -0.22119586 0.673112 0.0490147 0.22628394 -0.021372946 0.71977806 0.5056593 -0.2951676 -0.3995324 0.20311886 -0.08080501 -0.12830566 0.5960431 -0.20382506 0.015009672 -0.7453993 -0.20992243 0.029809088 -0.03659239 0.4011862 -0.5565796 -0.37600186 -0.36252818 -0.2134801 0.19615142 -1.1085086 -0.00031612342 -0.28827617 -0.034670945 0.004399542 -0.16095757 2.1014652 0.40146416 -0.44708973 -0.24029139 -0.12902592 -0.05939189 -0.23988388 0.22098808 0.22393063
斯 -0.12239515 -0.055551283 0.2256059 0.29106066 -0.22285853 0.08360073 -0.55055636 -0.34976664 -0.72773117 0.114942536 -0.2756615 -0.004056567 0.016091645 -0.17587481 -0.14075977 0.4134812 0.50907063 -0.84782916 0.30393496 0.12737052 -0.002422002 0.37487116 0.14520557 -0.24106513 0.17515974 0.13191015 -0.13123032 -0.8150948 0.066992655 -0.16610909 0.780495 0.27310297 -0.025979312 0.13714007 -0.23133487 -0.21065244 0.37976176 0.12079681 0.21313909 -0.01373738 0.22071129 0.4183634 -0.5367729 -0.21822083 -0.28331482 -0.47375995 0.010755714 0.6108798 -0.3283146 0.2133695 0.19377913 -0.36395997 0.061607085 -0.2449963 -0.18448769 -0.16735537 0.36814052 0.22408062 -0.36247143 -0.018082367 -0.35736954 0.11239789 0.261066 -0.26178342 -0.12192358 0.074634396 0.56595945 -1.1991187 0.40585706 -0.36834043 0.47593808 0.015801704 -0.13126957 -0.33478338 -0.09125475 -0.10625576 -0.5658247 0.40659526 0.068241164 0.19028302 -0.13768113 -0.15908606 0.1266321 0.027739584 0.30952036 -0.31814212 0.74168426 -0.40382403 0.024561279 -0.15479843 -0.06448774 0.18588375 0.1906079 0.0629368 -0.10105408 -0.054157365 0.16680211 0.1423675 0.46334928 0.25578743
三 0.48723954 -0.04542821 -0.2746526 0.1306727 0.3083749 0.4322142 -0.63198835 0.30879897 -1.0864104 -0.021580305 0.009466547 0.30024347 0.58480877 0.34272072 0.27163282 0.42089906 -0.38391522 0.04375111 0.32436907 -0.5036743 0.151346 0.6371265 0.6294713 -0.3106612 0.08107702 -0.15613347 0.2651796 0.5456813 0.06383721 0.189046 0.50486803 -0.25213188 0.0674043 0.32425183 0.17842676 -0.0673661 -0.088970356 -0.46519524 -0.07371009 0.23661754 -0.29003695 -0.13314746 -0.26556906 -0.45223898 0.04882823 0.72770286 -0.39751855 -0.7478765 -0.43748668 0.72396654 0.21163793 -0.015342614 0.06532207 -0.034130424 0.7260497 0.24275672 0.11525447 0.09421878 -0.4643888 0.41125247 0.51452166 -0.5206258 -0.120047696 0.7099357 -0.06706592 -0.04847751 0.37192726 -0.3062827 -0.09845641 -0.018887896 -0.4866746 0.62371254 -0.26871517 0.015834907 -0.123433575 -0.40598089 -0.2045289 0.18989533 0.31543237 0.46011546 -0.28217205 -0.97529405 0.044028454 0.11167836 0.6927761 -0.2817587 0.36239225 -0.30317178 -0.01110275 -0.11649612 0.48742887 0.6771742 0.8365427 0.14958653 -0.25678203 -0.5799898 -0.38345888 -0.52712363 -0.43577802 -0.3540971
能 -0.018977065 -0.19585039 -0.20576467 0.03570764 0.27766207 0.25653931 0.22451483 0.3315936 0.60578877 -0.2232021 -0.48471156 -0.07133724 0.2553704 -0.0013446597 -0.20903131 0.24455498 0.20651707 -0.68949866 -0.14048879 -0.43070674 -0.63214165 0.3981041 0.3306169 -0.20164502 0.0743668 -0.4772194 0.31046048 -0.25856626 0.11526915 -0.65912336 0.3154974 -0.03870519 0.373233 -0.639325 -0.111225866 0.18260957 -0.03963253 0.12172544 0.19287235 -0.387979 0.21111819 -0.07825527 -0.4120562 0.33057252 0.007481028 -0.27219415 -0.23953716 0.25472707 -0.14795394 0.037235443 -0.5583377 0.14354305 -0.53339946 -0.33253 0.68306243 0.14488904 0.16234891 0.44833308 0.2794381 -0.1964333 0.41878948 0.75463325 0.052103672 0.5150548 -0.016429331 -0.7621381 0.29558343 0.03453824 0.69265014 0.030311601 0.44140205 0.8048937 -0.53209156 -0.2644088 0.73214716 -0.10321609 -0.4318122 0.09447147 -0.2353839 -0.120761625 -0.4550201 0.86662364 0.2892995 -0.2721603 -0.8450724 -0.56683743 0.24855721 0.19561628 0.15343516 -0.14928305 0.24223863 0.026199635 -0.032268338 0.020993818 0.04143887 0.25621894 -0.578918 -0.030214394 -0.20303881 -0.10650965
见 0.014822656 0.13842 0.58093095 0.06550665 0.06306412 0.30541623 0.2841342 -0.70397687 -0.46695232 0.14422634 0.26054052 0.1671598 -0.1647743 0.41669855 -0.14087598 0.5944169 0.98410964 -0.26203814 -0.51606566 -0.18579508 0.22584142 0.0988168 -0.2909161 -0.01455416 -0.5157202 -0.18042566 0.1506828 -0.25669783 1.0866708 0.18244527 0.5762807 0.31098536 0.071725786 0.38939005 -0.59545594 0.36689067 0.09749603 0.67386603 -0.16025268 -0.08959511 0.28809583 -0.100660026 -0.24851736 0.10216831 -0.013722894 0.2952916 -0.61890405 -0.54985934 -0.44434884 0.12835939 0.16832158 -0.044272806 0.14229289 -0.0500201 0.54416984 0.17129305 -0.7319727 -0.66228753 0.4289281 0.59960467 0.031892806 0.15954229 0.37445536 -0.20198283 -0.015798632 0.52486986 -0.06371454 -0.4124102 0.72242826 0.10783472 0.114157565 -0.22281909 0.37077782 0.41657832 0.34984064 -0.51048625 0.15661001 -0.44568184 0.43595806 0.3209604 0.15307096 -0.18707679 0.026634902 0.5834229 -0.50862193 0.43875417 -0.2275219 0.06255945 -0.13729262 0.26638612 -0.35202935 0.88239855 -0.25268063 0.03296665 0.505753 0.76613295 0.036210608 -0.08799716 -0.106729746 -0.29083967
学 0.2683843 0.63564193 -0.28771353 0.107885845 0.19111794 -0.28111264 -0.60672307 0.36617777 -0.31464693 0.14617397 -0.12076769 -0.057418223 0.15184212 -0.045286037 0.093704365 0.699197 0.06520301 -0.15033776 -0.31183738 -0.13936116 -0.03908048 0.1308374 -0.16464949 -0.33118108 -0.044264723 -0.43795073 0.5080618 -0.9344102 0.45877093 0.21820219 -0.48859861 0.13298824 -0.8145676 -0.010013501 0.35028455 0.208975 -0.76255226 0.22023477 0.09559888 0.3299506 -0.09023031 0.25846153 -0.064550914 -0.37121212 -0.075946935 0.48489246 -0.5408269 -0.25097913 -0.23240764 0.15835498 0.05887051 0.6406438 0.29829577 0.011357288 0.17361075 -0.044459645 0.7711256 0.0062439013 -0.4583604 0.19688897 -0.34721616 -0.32342413 0.3275215 0.06918303 0.15475273 0.5536154 0.65063286 -0.14472936 -0.36639425 0.044653066 -0.11582817 0.3331678 -0.12850635 0.28432572 -0.5478682 -0.23947282 -0.46469 -0.17417485 -0.053142052 -0.77691036 -0.1975305 -0.06639232 0.32279935 0.24669306 -0.6472909 -0.76067495 -0.056111887 -0.13064647 -0.6186758 -0.23994303 0.07398859 -0.13567714 -0.49508885 -0.09013874 -0.20080385 -0.46949136 -0.38452345 -0.044327967 0.116597235 -0.47871733
事 0.49005476 0.2193276 0.09082422 -0.15458682 0.2019152 -0.19492279 -0.06463065 -0.17690541 -0.0419036 0.14028125 0.36659655 0.4485215 -0.051215634 -0.036674038 -0.19301374 0.65619254 -0.58963907 0.00664573 -0.2561749 -0.59949654 -0.6525048 0.24223837 -0.4677909 0.2601281 0.17584161 0.39236578 -0.07651522 -0.032344785 0.09792514 -0.8758991 0.16178423 -1.4446393 -0.54051137 0.12531753 0.37503314 0.19856842 0.037776172 0.34490114 -0.46995726 0.31784272 0.21481091 0.088832974 -0.24659622 0.09560393 0.02485269 -0.04284396 -0.4037105 0.16037533 0.11301221 -0.09024949 0.10235145 -0.050715297 -0.050898455 -0.29387337 -0.5033069 0.189617 -0.52996343 0.62403834 0.51615775 0.29962552 0.00850708 -0.34474894 0.35054073 0.063455984 0.38677585 -0.04498334 0.30913964 -0.5995198 -0.58091056 0.9425855 -0.17374024 -0.23783107 0.55303305 0.75528187 0.3113546 -0.12584935 -0.9440425 -0.32645345 -0.07375785 -0.08212905 0.38593876 -0.03069772 -0.017296806 0.29567164 -0.082246915 -0.12751839 -0.4497025 0.4886946 -0.3921422 -0.13621147 -0.42961282 -0.090634726 0.17064194 -0.0553355 -0.21573591 0.30371925 -0.6594584 -0.19226816 0.6582616 -0.57746315
是 0.08274326 0.281888 -0.44329965 0.09800473 0.5786521 -0.8019103 -0.032164425 -0.1727521 -0.05016499 0.31503782 -0.15516086 0.47066844 -0.20545708 -0.28712407 0.21240488 0.14393693 0.24016877 -0.63913167 -0.5266323 -0.1183484 0.015801633 -0.17101066 -0.21519761 0.21555036 -0.5944742 -0.22676283 0.84470403 0.64602244 -0.5336231 -0.48114783 0.38050768 0.09440855 -0.83699906 -0.48813683 -0.62192017 -0.058715228 -0.07834239 0.40835923 0.34937507 -0.08179973 -0.09194884 -0.20038158 -0.47618705 -0.10362168 -0.45613924 -0.15238884 0.11592086 0.21148056 0.4934236 -0.27065158 -0.5067478 0.050280884 0.3043903 -0.036763925 0.23020796 0.22378814 0.8029743 -0.37346396 -0.23357294 0.6009482 0.38407743 -0.06677847 0.2993763 -0.14014618 -0.44481823 -0.32219082 0.42741427 -0.9208652 -0.12989289 0.394969 -0.5485285 0.41163263 0.15155092 -0.7370259 -0.35663155 -0.3653713 0.045304872 -0.40034965 0.30355167 -0.031215474 0.6404961 -0.3244706 0.6028812 -0.06206438 -0.96859044 -0.15229498 0.1289147 0.24325679 0.33164087 -0.8233125 0.6463099 0.36669353 0.22561371 -0.20494992 -0.0676657 -0.124294296 0.48573142 0.23554851 0.4554593 -0.36722156
哉 -0.41099086 -0.02779383 -0.3463707 0.588531 -0.37827566 -0.5500237 -0.17299248 -0.18740566 0.025171598 0.11445614 0.15052865 -0.20257974 -0.12857963 0.19743703 -0.014852232 0.3705657 0.34162363 0.81157446 -0.6153428 -0.3037065 -0.47762057 -0.0014356467 0.47144896 -0.42331985 0.4135718 -0.128422 -0.31596163 0.3103256 -0.010895591 -0.03544344 -0.11189724 -0.123783834 0.37111503 -0.4198846 0.07939024 0.15002604 0.11652647 0.27925414 0.25194058 -0.67013896 -0.5042512 0.17892253 0.09719029 -0.07630801 -0.0047697923 0.78346133 0.17969924 -0.17165926 -0.060448352 0.6045522 -0.043097086 -0.072107956 -0.6514059 -0.28422597 -0.1852494 -0.28524128 0.082302265 -0.84478056 -0.16115282 -0.2755733 -1.1014035 -0.30955538 -0.6180008 -0.40048078 0.08075145 0.711914 -0.09077555 -0.25199395 -0.16801952 0.031684928 -0.4315487 -0.7652718 -0.17465863 0.3904278 -0.568176 -0.5402182 0.5743075 -0.39811504 -0.103744246 -0.5691866 -0.32988867 0.22856416 0.23044424 0.82683563 -0.6828887 -0.89319164 -0.23877169 -0.35476807 -0.04666059 0.25548902 0.31002516 1.1109957 0.06583101 -0.34546092 0.1565127 0.19535029 0.2807113 -0.34343135 -0.21017158 -0.5364458
闻 -0.26435092 -0.059802677 0.84328336 -0.4861108 -0.23243962 0.76360714 0.32246983 0.2624366 -0.27840286 0.30538926 0.32544458 -0.33134016 -0.4880493 -0.15302904 -0.019892044 -0.59311295 0.49610382 0.5023934 -0.19308738 -0.6226626 0.5745861 0.42435387 0.037872426 0.51973075 0.27811372 0.27484438 -0.01074605 -0.27758634 -0.42438072 -0.2628914 0.22097233 -0.21723968 -0.48270634 -0.011175109 -0.5973037 0.52379227 -0.16414653 0.1538801 -0.2194614 0.05213219 -0.053525936 -0.59903765 0.081878886 -0.053428553 -0.38901064 -0.10465788 -0.032000657 -0.35267282 -1.4510074 0.43329784 -0.61713815 -0.1359154 0.05902977 0.06107769 0.5663898 -0.7590822 -0.23930721 0.34054512 0.5983059 0.1599885 -0.0023104975 0.36149523 0.66191125 -0.3130921 -0.18012756 0.2968676 0.055769775 -0.68451715 0.6203003 0.052590333 0.4648611 0.23147961 -0.15255591 0.19381326 -0.7582838 -0.703937 -0.54525316 -0.75850326 -0.2246653 0.33580807 0.56935465 0.53340304 0.042712092 -0.14782561 -0.86033714 0.15319163 -0.32506448 0.54103816 -0.3001482 -0.17406777 -0.21184132 0.67331505 0.36185598 0.22074072 -0.091284096 0.033171304 0.03708713 -0.0058267885 -0.31554535 -0.36223876
未 -0.48608476 0.77704746 -0.16229501 0.2188184 -0.43940523 -0.13124837 -0.36619937 0.26546606 -0.30232665 0.336756 -0.032248493 -0.12406801 0.23549365 -0.42687297 0.17687449 -0.09477639 -0.43146864 -0.81082314 -0.24445817 -0.3882893 -0.4983229 0.34494728 -0.8929594 -0.4112393 -0.63896465 -0.12696378 0.4091886 0.23791163 0.3135302 -0.12074306 0.4428761 0.19362085 -0.7195893 0.31072196 -0.6200129 0.34447464 -0.097095266 -0.13046229 0.10456607 -0.018211115 -0.6630948 0.22635522 -0.20343727 0.22777966 0.014401645 0.38220492 -0.010146488 0.048291273 -0.9473562 0.13312405 -0.22202288 0.15274371 -0.7255597 0.1598697 0.43442488 0.117595755 -0.17712425 0.70411664 -0.31205624 -0.029644096 0.057069827 0.116728485 -0.029633015 -0.0038978718 -0.31116852 0.15447618 -0.2408199 -1.0485274 -0.22398527 -0.14445408 0.20593013 0.059430737 -0.12311607 -0.48107076 -0.29800972 -0.61062145 -0.45823228 -0.5348622 -0.11159289 0.25320682 -0.15306878 -0.0069621713 -0.09895692 -0.4642652 -1.1172698 0.9450101 -0.4447767 -0.12893626 0.23136623 -0.13201725 -0.16989432 0.83030677 0.21439523 -0.45446202 0.30315742 0.16139552 -0.21741316 -0.24052419 0.17687735 -0.26824135
公 -0.6377696 -0.7302312 0.25308838 -0.24080807 -0.109565884 -0.09847539 0.11546691 -0.90870667 -0.5046361 -0.69903386 0.21247636 0.44481742 -0.40836188 -0.13432162 -0.0040705604 -0.37105876 -0.087106004 0.124490075 -0.8945218 -0.31374016 -0.010367818 -0.3328926 0.6829404 -0.56833345 0.010543597 -0.29255828 0.27017593 -0.65324986 -0.05395111 -0.10403604 -0.14981385 0.8412995 -0.38491425 -0.290485 0.06629702 0.69607574 -1.05832 -0.76703465 -0.38763344 -0.40277505 0.08613917 0.09016552 -1.1703376 -0.2696928 0.12488927 0.34494317 0.016783526 0.9020597 -0.32872567 0.12118989 0.6576136 0.59532166 -0.037513305 -0.013737087 0.066967085 -0.39409515 -0.3661757 -0.43511832 -0.046396185 -0.24154755 -0.11611144 -0.55989957 0.37377015 -0.5864195 0.47729003 -0.016747342 -0.23282577 -0.48625565 -0.12511824 -0.30842188 -0.23136343 -0.6760386 0.27455607 -0.5939291 -0.17846501 -0.05016833 0.30276114 0.13469186 0.31872013 0.8955872 -0.69583505 -0.09267077 -0.690498 -0.57055813 -0.5036854 -0.002163846 0.14283748 -0.0813829 0.57951677 -0.19415227 -0.8722432 1.6288443 0.1901074 -0.61311597 0.14755787 0.24182498 -0.2474953 0.07949679 -0.22065744 -0.053132504
好 -0.04092328 -0.44679093 0.053979892 -0.066464365 0.3228845 -0.3270848 0.15326895 0.47551358 0.046296634 0.47463563 -0.54759735 0.21290568 0.090141036 -0.82239074 -0.2041419 0.5080571 -0.03402516 -0.21570301 -0.08831763 -0.5759145 0.15629178 0.6306219 -0.05806305 -0.1713838 -0.09611826 0.23564456 -0.0744571 0.1046521 0.45474526 -0.2266251 -0.066934906 0.055286963 -0.16605589 0.14382394 -0.22828564 0.02685614 0.5357405 0.50389344 0.042087015 -0.23385231 0.7660693 0.11234285 -0.01800755 0.099374205 -0.013266499 0.018423647 -0.24564749 0.08258088 -0.06399674 -0.10198353 0.483345 0.32396436 0.5800269 -0.21712016 0.10298394 0.019227754 -0.5639213 -0.17186593 0.21100968 -0.61017346 0.03669025 -0.062369347 -0.55904824 0.2314312 -0.33867356 -0.28095967 -0.7780813 -0.45720905 0.15175115 -0.4804875 0.3924858 0.0192962 -0.042937737 -0.04879321 -0.15371841 0.1243422 -0.5285807 -0.27297455 0.10128626 -0.19332339 -0.2230214 1.436997 -0.2688002 0.5940491 -0.12919803 -0.11891374 0.6450701 -0.027957147 -0.28126875 -0.051809885 0.52875435 0.500014 -0.7050978 0.057845507 -0.22333312 -0.0021745386 -0.067805655 -0.08795771 0.5306169 0.30866182
我 0.30275476 -0.2908313 0.2530236 0.74773926 -0.07729449 -0.3903053 0.12322623 0.059128642 -0.21966784 -0.10953306 -0.6046341 -0.09093979 0.3278789 0.5342095 0.101396 0.9979028 -0.21141204 -0.1425158 0.4444909 0.42102244 0.4698789 0.30112845 0.9027741 -0.028181707 0.14768726 -0.5760085 0.44763616 -0.5179793 0.8035542 -0.49952203 0.49521464 0.075223446 -0.57785183 0.23563693 0.07128374 -0.42374954 0.17167915 -1.0151609 -0.43139496 -0.22788396 0.25942928 0.30351105 -0.42975733 -0.83683354 -0.07286469 0.30913725 -0.21388803 -0.38384894 -0.10363426 -0.86944836 0.18435149 0.92672557 0.16772735 -0.37704343 1.0120051 -0.56913924 -0.65652215 -0.682404 -0.5469393 -0.58756477 -0.16661079 -0.14762004 0.37075058 0.28285867 -0.20616654 0.43347794 0.4712652 0.33130947 -0.21826519 -0.5236797 -0.36762795 0.4025968 -0.38045216 0.75524515 0.08119691 0.05907748 -0.42856047 -0.25450334 0.5485846 0.01360132 -0.11867797 0.119432196 0.59429586 0.26101187 -0.5699256 -0.52318335 0.6062985 0.26620254 -0.05263184 -0.26334465 0.72173816 0.6267905 0.020541491 -0.15391749 0.2980333 -0.25583526 0.9680972 0.21561103 0.13634048 0.12673062
路 -0.4769667 0.45718914 -0.2268826 0.0853973 0.23977883 -0.03500648 0.08816369 -0.44840416 0.16314337 0.453563 -0.092768 0.10860796 0.3083812 0.3891667 -0.32073438 0.9868264 -0.12494697 -0.27598447 -0.5286621 0.013693841 -0.04841979 0.6004999 0.037404966 0.28047538 -0.5075317 0.2838534 0.23370965 -0.41107458 -0.012809577 0.15661766 -0.23225585 0.076656535 0.16031902 -0.15627605 -0.70559525 0.5206867 0.13065086 0.10537972 -0.8251168 -0.050134733 -0.8344099 -0.093747474 -0.11491741 0.07145581 -0.22114822 0.1532468 0.34293488 -0.10648455 -0.28317475 0.28675455 0.2367461 0.5781573 0.06059796 0.24558905 -0.59836125 -0.6240057 0.06504299 0.5695504 0.23141503 -0.21716021 0.63906294 -0.043183703 0.2728596 -0.06703118 -0.4219624 0.17521773 1.1100823 0.3808994 0.385395 -0.24053016 0.37494853 0.78251386 -0.535527 0.12791376 0.24244338 -0.6136301 0.119558565 0.4283625 -0.29553825 -0.47289342 -0.13973805 -0.15796772 0.068069614 -0.12374965 0.3678904 -0.15220432 0.41013357 0.4022415 0.07648535 -0.56722456 -0.16294716 1.5569397 -0.33156848 0.22257322 -0.7267143 0.24593906 -0.81590426 0.13717638 0.6240281 -0.41215497
在 0.0053372695 -0.22719285 -0.018160122 -0.30465636 0.38184398 0.816873 0.372096 0.022027906 0.2917703 0.21755393 0.7651536 0.42966753 -0.007942479 0.55201733 -0.26415193 0.89622 0.5642427 0.34635904 0.29759696 -0.08306183 -0.1736993 0.9250145 -0.7412687 0.22846046 0.23421347 0.1268632 0.24561445 -0.07737404 0.017040722 0.62464577 -0.54764616 0.14490604 -0.577377 -0.24162953 -0.70611185 0.07135236 0.06966246 1.019498 -0.27660123 0.23792036 0.52391356 0.036998548 -0.638186 0.0051147155 -0.6942029 -0.24487363 -1.2292447 -0.13896933 -0.35834318 -0.86437875 -0.66919243 -0.4558359 0.07526655 0.47441682 -0.110962614 0.01478711 0.06586871 -0.38766682 0.6599776 0.111445464 0.6110314 -0.28232706 -0.18456091 -0.0019472165 0.23599373 -0.3090366 -0.07121652 -0.58823955 0.02994184 0.23927446 0.44762644 -0.31100532 0.10018265 0.1440286 -0.677849 0.41763628 -0.6993987 -0.5145478 -0.40934154 0.38628066 -0.48759824 -0.37786406 -0.5012585 -0.3868742 0.31965044 -0.4697598 0.04858885 0.28167027 -0.032866396 0.4325903 0.08412594 -0.19588666 0.8032619 0.14217252 -0.5647667 -0.5284054 -0.06694921 -0.14897746 -0.34629 -0.4777067
已 -0.36565894 0.49390915 -0.54721844 0.34443495 -0.46218878 0.014807129 -0.35283417 -0.57264745 0.6449523 0.13814813 -0.5101901 -0.44040868 -0.27359626 -0.42793047 0.64437616 0.8511968 0.37779862 0.180405 -0.2583144 -0.15736566 -0.6679786 0.7897949 -0.24848373 -0.54202163 0.116774715 0.21430548 -0.014620348 0.15357955 -0.183986 -0.21704713 -0.11294631 0.4082733 -0.0038201152 0.39714038 -0.56687003 -0.88665277 -0.44805613 -0.028293207 0.12641183 0.1049129 -0.030725177 -0.08720089 -0.37423357 0.17058223 0.03589375 0.2375084 -0.28912514 -0.03880469 -1.0168791 0.3966122 -0.33224696 0.6806424 0.0638695 0.3220897 -0.012731161 -0.095654264 -0.18889129 0.35436314 0.14590141 0.16946815 -0.27466297 0.28952554 -0.49614805 0.52595675 -0.43327358 0.5418634 -0.28850058 -0.36562517 0.06739049 -0.19906113 0.045993034 0.33508673 0.40774605 0.54014325 0.41755205 0.052446183 0.1764442 -0.49657375 -0.29891372 -0.5967129 -0.1632555 -0.30507633 0.23110823 0.01250486 0.038013738 -0.23517458 0.6144862 -0.1623247 -0.46554038 -1.1017705 -0.32861876 0.05054929 0.525929 0.3011064 -0.5254927 -0.6102412 0.25234336 -0.24540877 -0.18112364 -0.058711957
得 -0.49640775 -0.45113876 0.28187552 0.17730907 -0.2658465 0.011602151 -0.022141417 -0.04686911 0.6034689 0.51030636 -0.45974246 -0.02521905 -0.15078533 0.4269148 -0.33695453 0.8916882 0.21635976 -0.3516849 -0.06743714 -0.37157822 -0.114364594 0.9151151 -0.6093335 -0.66867495 -0.6212298 -0.07691235 0.032659777 -0.48031127 0.06658506 0.14100358 -0.13291939 -0.21859635 -0.24729483 0.16380961 0.24552189 -0.20047173 -0.31459355 0.17281356 -0.17445011 0.17972216 0.071895406 0.2350107 -0.19835407 0.018690072 -0.21824564 0.58164144 -0.31082687 0.18414068 0.21413603 0.41436756 0.1914895 0.23169233 0.12130737 -0.37601018 -0.7769278 0.23472987 -0.3051719 -0.7875315 -0.14413413 -0.49459544 0.5129416 0.17864062 0.042977784 0.39468265 -0.361969 0.18488681 0.452424 -0.32009447 -0.45915 0.1196362 0.58644557 0.29330334 -0.15632881 0.17065062 -0.09722688 -0.52626157 -0.70162493 -0.5775496 -0.20394523 0.6735953 0.28562474 -0.36523333 -0.62995154 0.868757 -0.15245679 -0.2771978 0.30965438 0.14177236 0.19905621 -0.38056436 -0.49612406 -0.51040924 -0.0884637 -0.5683063 0.10240277 -0.36063775 -0.5413466 -0.09246069 0.44372845 0.1371402
所 0.23371221 -0.5119455 0.19629076 0.29953516 0.34712616 -0.39274958 -0.25454322 0.3334042 0.78411555 0.48731527 0.108144015 -0.2795999 0.30286193 -0.09644507 -0.3571363 -0.05069903 -0.4167603 -0.78248024 0.0730417 -0.47531578 0.1599091 0.39184028 0.28792915 0.19992606 -0.2934884 0.22699235 0.49934536 -0.9206101 -0.056628425 0.090158425 0.24551976 0.000809797 0.28540936 -0.40034142 -0.6171388 0.4066572 0.4016831 0.25549495 0.4324846 0.4500459 -0.31875557 0.46529758 -0.0792171 0.085429356 0.41368335 -0.26799417 -0.64042735 -0.4121391 0.38958943 -0.03764394 -0.25662372 -0.44154617 -0.41010025 -0.27090424 -0.29068735 0.059182063 0.8367962 0.6286926 -0.24123357 0.28856188 0.30664963 0.16974089 -0.37318388 -0.06506215 0.26259902 0.24251264 0.7909894 -0.729541 0.23139818 -0.1356764 -0.25738177 0.7504986 0.030123096 0.4222592 0.18137528 -0.20191774 -0.38459927 0.15901327 -0.02701719 0.5752862 0.56765825 0.069087416 -0.31935734 -0.21163915 -1.1357963 -0.051129755 -0.5430566 0.050604988 0.24301273 -0.14868812 -0.26819757 -0.08096919 0.15509252 -0.013916401 -0.00985088 -0.31486705 0.42354333 -0.41628912 -0.5293142 -0.5640166
民 0.024173288 0.8182511 0.43396983 0.4352961 -0.5425956 -0.036084402 -0.44823787 -0.31931207 0.4458929 -0.22508958 0.20120686 0.16452208 -0.0924651 -0.6022027 -0.51744455 0.9739321 0.97767586 -0.34289327 -0.5301774 -0.5867971 -0.2554623 0.5235745 0.47660992 0.6288455 0.27235883 -0.3646169 -0.26631552 0.056490242 0.1751629 -0.23072714 -0.6213974 -0.30575475 0.03606441 -0.401182 1.067643 0.46153063 0.03033105 0.075124435 0.13144895 0.37449488 0.072799414 0.076089896 0.8673532 -0.5663904 -0.3852548 0.38421592 0.46568352 0.10592213 -0.42606863 0.38181213 -0.6330106 0.40043032 0.16419508 0.21962978 -0.5147088 0.08285935 0.34055683 0.068517014 0.30649945 -0.5917652 -0.19585405 -0.3102074 -0.073846534 0.851988 -0.524834 -0.12608753 -0.0050627114 -0.5597804 0.29254055 -0.4170277 0.23583281 0.069504134 0.042530492 -0.058194824 0.1134877 -0.015098623 -0.8287448 -0.5539989 -0.12458037 0.25451186 -0.099692 -0.64806664 0.52697635 0.08595063 -0.89718056 -0.29287598 0.09171682 -0.42314622 -0.3593243 0.015583643 -0.08721972 -0.31117564 0.24917501 0.3018306 -0.4485912 -1.1329322 -0.022692956 -0.025659068 0.6198871 -0.14149603
小 -0.3635258 0.4645018 -0.6318627 0.22589727 -0.82038283 -0.14790542 -0.13519034 0.041900758 0.2790536 0.42799214 -0.35368028 0.007998828 0.506711 0.32932967 -0.4233794 0.6693183 -0.15589577 -0.15207958 0.13831574 -0.3046549 -0.023512403 0.5425791 0.5012217 0.1701427 0.32456544 -0.26830333 -0.62173986 -0.13224919 -0.19995888 -0.42810452 0.36135092 -0.10578527 -0.0020319172 -0.005206462 -0.33217892 0.06796605 -0.10032589 -0.06940903 -0.04505644 -0.5490747 0.554375 -0.3996433 0.12405283 -0.1306839 -0.26667264 0.17373404 -0.021950327 -0.5680463 -0.69818187 -0.71896774 -0.0042125983 0.11220209 -0.17749316 0.22240576 -0.018885238 0.12490101 -0.10221851 0.20056848 0.2861113 -0.113013685 0.27608213 -0.18890291 0.5135981 -0.20595495 -1.0325167 0.1271757 -0.13095596 -0.16488653 0.8910623 -0.43546492 0.15728849 0.17881905 0.16454872 -0.0636219 0.18442541 -0.10749862 -0.7091332 0.16889349 0.13617544 0.12236093 -0.3633624 0.013083611 0.16389427 -0.3027118 -0.44851735 -0.1923529 -0.19701566 0.26947826 0.158898 -0.099825755 0.23846649 0.9027073 0.026137227 0.45756808 -0.073319696 0.58288294 0.054671124 -0.1363497 0.24623908 0.97981614
天 -0.68439335 -0.19364803 -0.7641087 0.4473566 0.61058027 -0.06609548 -0.1451992 -0.5599671 0.056129865 -0.59376544 0.1541261 0.18665962 0.4928348 0.20474824 0.4435316 0.17869566 0.5337857 0.37459108 0.22879362 -0.89121103 0.08329575 -0.21484984 0.46054235 -0.029208055 0.26921192 -0.14348514 0.3989045 -0.70213765 0.13137394 -0.38989753 0.20891875 0.45924786 -0.89292616 -0.07860283 0.12780449 0.092128426 -0.6631573 0.26464722 1.0431706 0.34116915 -0.11164528 0.03443292 -0.54039216 -1.3375722 -0.07952244 0.53352857 -0.5621597 0.029330282 0.78036374 0.11934203 0.5353384 -0.517027 0.013510857 -0.026040215 -0.1601284 -0.49768248 0.76037043 1.0440109 -0.11215171 -0.75549966 0.68632245 -1.0657442 0.83441806 -0.7203454 -0.40465844 -0.80305845 0.5056076 -1.0450077 0.10575799 0.7929385 0.26737723 -0.35538083 0.11744202 0.05737486 -0.34176823 0.31546253 1.0836004 -0.28250548 -0.36329466 -0.07190293 -0.16121288 0.31032 0.276705 0.38615605 -0.8097624 -0.45895877 -0.40205368 0.52584517 -0.65531117 -0.13620092 -0.032626595 0.7777949 -0.3250857 -0.28490788 -0.09001018 -0.3762189 0.71580803 -0.8659045 0.09899907 0.07893875
乐 0.04025236 -0.05957126 0.13579072 0.3049262 0.5371901 0.6851222 -0.14689198 0.47902066 -0.1609214 0.06376542 0.10683772 0.0880294 -0.26216927 0.20962486 -0.51006365 0.4418733 -0.81188565 -0.7746146 -0.108778 0.28516266 -0.18112211 -0.032062862 -0.13882647 -0.59038013 0.12044945 0.15268707 0.37305105 -0.16610318 0.6657871 -0.78834885 -0.30249226 -0.15884969 0.16296136 0.069657825 -0.07410721 0.37397236 -0.44900224 1.0223022 -0.2288774 -0.22996472 -0.008433971 0.04426724 -0.2875482 -0.7345977 0.2091007 0.46080306 -0.18490404 -0.2895789 -0.19742456 -0.21732646 -0.13573849 0.7954118 0.372222 0.17530559 -0.5264501 -0.12458272 0.20623437 -0.71484864 0.38522542 -0.8273994 0.0030957756 -0.010319071 -0.32725635 -0.28183824 0.62700063 0.4630103 -0.52910703 -0.21666232 0.3599895 0.29165745 0.19574897 0.7761389 0.74203837 0.20614195 -0.18097514 0.17948565 0.2587836 -0.5037861 0.23338819 0.14870124 -0.123919986 -0.029199485 -0.7620883 -0.196958 0.018620033 -0.71450454 0.61482084 0.59907466 -0.5697935 0.31865633 -0.00028842216 0.09463454 0.14366288 0.51324886 0.6763305 -0.043795638 0.057483915 0.44122645 -0.04376086 0.41202033
邦 -0.35477725 0.26585278 -0.18689564 0.05479724 0.29553396 -0.21374209 0.10485679 -0.24174419 -0.25199124 -0.47927043 -0.32232577 -0.38576934 -0.20087443 0.14094485 0.7066566 0.051985025 0.1703816 -0.102995396 0.383251 0.22152509 -0.37686622 0.103060484 -0.31172186 -0.028308416 0.43317175 -0.012321476 -0.25182027 0.08451704 0.3203448 0.26772323 0.08028623 -0.10906781 -0.053073768 -0.42410642 0.13451275 0.6595307 0.16154413 -0.018554006 -0.5201273 -0.67325246 -0.18234497 -0.81028515 -0.46465454 -0.57319754 -0.01740436 0.08066471 -0.5413817 -0.10653152 -0.051879358 0.14188279 0.4172902 0.42945656 -0.52664965 -0.36660817 -0.016090617 0.24232216 0.11273985 0.23531613 0.08710841 0.12829392 0.55312544 0.2987674 -0.043351732 0.13234189 -0.2344924 -0.2570168 -0.1642717 -0.48330373 0.2565946 0.20523146 -0.099814825 0.122771256 0.29477784 0.4586454 -0.33651832 -0.42961618 0.1544812 -0.49331474 -0.1574481 0.19900624 -0.10220506 0.38342637 0.21998662 0.7246302 -0.6090864 0.119436 0.29093134 -0.2249588 -0.43898088 -0.3521157 0.17643991 0.8332763 0.88350356 0.27090693 -0.19807452 -0.5301621 0.5889335 0.3525432 -0.3841717 0.16406149
亦 -0.5989468 0.8684429 -0.7185863 0.4499104 -0.6614457 -0.20694277 -0.54342544 -0.36602196 0.6809097 0.17906712 -0.6284386 -0.05342735 0.13919091 0.43621746 -0.46019438 -0.25003955 -0.029131537 -0.5188662 0.087568365 -0.1987991 -0.0060505383 0.51783663 -0.056290172 0.47254395 0.7550684 -0.40494215 0.55329853 0.21681705 0.0041657966 -0.32016772 0.26648027 -0.27472833 -0.13691448 -0.22943299 0.2337413 0.5406317 1.2473301 -0.5869591 -0.17344542 0.27576628 0.19884399 -0.27270854 0.73081416 -0.2794163 0.7099797 -0.23820843 0.109594636 0.58548987 0.02515333 -0.044346392 0.11072922 0.15355152 0.32488117 0.1876404 -0.7120877 -0.353295 0.5871507 0.588032 -0.39387453 -0.43814704 0.21898785 0.5737227 -0.30270764 0.031159624 0.11646724 -0.5452566 0.46245837 -0.76194227 -0.28993112 -0.47910324 0.2758956 -0.2838963 -0.4028543 0.20593065 0.2797593 -0.560391 0.053593293 -0.24129331 -0.23599535 0.10870253 0.103663474 -0.3094142 0.456071 -0.5044032 0.5283562 0.2646305 0.28160906 -0.30381852 0.20272417 -0.1861653 0.0723207 0.66532564 -0.49235892 -0.26717922 -0.00542667 -0.49295247 0.8626245 -0.21094975 -0.19527447 -0.18394476
使 0.06746582 0.6273177 0.45126885 0.45447177 -0.651974 -0.3125414 -0.49128696 -0.5949952 0.24757192 0.35821015 -0.054539677 -0.1916862 -0.10112599 0.18811195 0.29834443 0.41711703 -0.0028801612 -0.0038595037 0.24666034 0.47490916 0.28085485 0.27300775 0.012909284 0.38786715 0.07392921 0.29780912 -0.2659688 -0.04634639 0.6259764 -0.3500331 0.47778618 -0.46641764 -0.29812768 -0.48933122 0.47770262 0.49776903 0.16065209 0.32652396 -0.8883148 0.1946693 0.20841108 -0.019122155 -0.16459478 -0.01240523 1.0700376 0.65470856 -0.0104313195 0.09813017 0.15046649 -0.285712 -0.2641684 -0.2205914 -0.06967082 -0.25269502 -0.24402949 0.151758 -0.15251268 0.7956044 0.11243895 -0.29962483 0.9624087 -0.12997286 0.31724012 0.21394917 0.1726962 0.26083875 0.30803394 -1.0120316 0.09206817 -0.006345243 -0.45033276 0.24496512 0.096760936 -0.59817046 0.39447972 0.2637252 0.3518586 -0.00093483453 -0.13347028 -0.29204258 -0.45925924 -0.24908257 -0.66078675 0.2909804 -0.5168678 0.52043545 0.7544522 -0.89158267 0.28465495 -0.12801397 -0.21036345 0.28319058 -0.149342 -0.19860579 0.2639865 -0.11212465 0.009775982 0.5315574 -0.2915744 0.6807007
大 0.18231365 -0.3723628 0.266627 -0.10945888 0.24985905 -0.69234127 -0.07511978 0.045045003 -0.17332415 -0.37557846 -0.78828365 0.005113254 0.6597593 0.1594667 -0.5180625 0.0781184 -0.08123811 -0.39156318 -0.10197992 -0.49764258 -0.23376697 0.47005692 0.5645307 -0.28531525 -0.17024338 -0.077134 -0.49835458 0.5435567 -0.2606876 -0.22161503 -0.61699146 0.13483816 -0.29179236 0.23026967 -0.38506037 0.3549818 -0.039044823 -0.34558022 -0.12883645 0.021813976 0.25455314 0.06478655 -0.29186204 0.6052505 -0.34241834 0.20228247 -0.03248667 -0.4309551 0.34885666 0.42885977 0.13408862 0.68517447 -0.1497463 -0.2668847 -0.5803233 0.31043828 0.07124549 0.35011065 -0.32825947 -0.13429679 0.011671933 0.69521827 0.212938 0.07687659 -0.29608238 0.1545102 0.76012653 -0.55289155 0.048409335 0.59959745 -0.47077462 -0.24283183 0.56215006 0.32332417 0.34909117 0.3358315 -0.35814017 -0.37993452 -0.2532897 -1.0146927 0.050952278 -0.20650905 0.21216986 0.6167371 -0.55009943 0.09764641 0.10434056 0.31704587 0.23754378 0.15651892 1.1445184 0.14490923 -0.260345 0.31907257 -0.12411891 -0.0938457 0.50461084 0.119122766 0.03070079 0.37316892
下 -0.22050977 0.053802643 -0.8344876 0.08884015 0.54734 -0.15298502 0.060641885 0.29069513 -0.109586604 -0.106910564 -0.54364926 0.37906805 0.13468371 -0.41704288 -0.025479814 0.54120064 0.20293032 0.33095086 -0.16563971 -0.0029631297 -0.505565 0.35878974 0.080201976 0.9509939 -0.3060827 0.29273653 0.6412383 -0.4636429 -0.18853736 0.046384443 -0.4574691 -0.24122635 -0.31028432 -0.2829091 -0.2813507 0.3184866 -0.16835806 0.07801961 0.031479284 -0.30529952 0.16500315 0.2783804 -0.5906907 0.016077286 0.21851464 0.09120048 0.19869702 -0.23944291 -0.5778321 -0.50953776 -0.33537212 0.8231425 0.18502374 0.2908657 -0.70024776 -0.06949821 0.028162938 -0.27098754 -0.14574178 0.53808516 -0.54399925 -0.6566474 0.1840819 0.19737792 -0.35590082 0.46058506 -0.04828811 -0.3108377 -0.16812648 -0.6170048 0.11694056 0.057260662 0.5970385 0.046319194 0.27391657 -0.18048263 -0.23947728 -1.2394508 -0.06165386 -0.1274325 0.0767588 0.48680034 0.4673747 0.39856106 -0.734868 0.20499438 0.44001427 -0.66814697 0.504391 -0.04665059 -0.19231603 0.57445014 -0.22469208 -0.13753943 -0.63072604 -0.67641693 0.78073 0.5332893 1.0633928 -1.0931515
贡 -0.54185116 0.36565882 -0.70188165 0.65296435 0.06891815 0.55895126 -0.59275657 -0.6323766 -0.16341405 -0.04978124 0.73930496 0.07386325 -0.22567216 0.35101622 0.23752132 0.44430363 -0.039173033 -0.23028848 -0.7682907 0.06991475 -0.5030181 0.7283774 0.36069816 0.39323676 -0.87651086 1.3351762 1.6545169 -0.13795313 -0.29479545 0.22016305 -0.3419311 0.4862162 -0.068178765 -0.2934897 -0.3328629 0.0952488 -0.30734995 -0.08117901 -0.72311896 -0.8528683 -0.8002224 -0.59623444 0.172056 0.416581 0.6429254 0.41605344 0.35595563 0.5312058 -0.30511767 -0.5223311 -0.71338546 0.93658227 -0.05283972 0.83522654 -0.69955623 -0.33262298 0.3329481 -0.02612692 -0.31252077 -0.028363653 0.7749725 0.9726606 0.30110753 0.5162315 -0.8740565 0.8157889 0.14696997 -0.78895193 -0.20001902 -1.2413408 -0.10800245 0.030503009 -0.4030997 0.5356347 0.2621488 -0.75932246 -0.036720697 0.82492775 0.5836341 -0.054500468 0.5779904 -0.8112618 0.050106358 0.5242771 0.07281761 -1.9917144 0.17154077 0.3581025 -0.74482375 0.1673994 0.72398454 3.4751766 -0.38648987 0.24424222 0.03662844 0.19316775 0.26296285 -0.4550734 -0.53008235 -0.67181826
欲 -0.54097337 -0.1746933 0.3223978 0.3970831 0.39712915 0.48902765 0.14553414 -0.46103323 0.22804438 0.7857878 0.24090388 -0.49994487 0.9357545 0.68071944 -0.13317302 0.51069856 -0.43112734 -0.48783183 0.305403 -0.23938635 0.35057232 0.50088227 -0.5770196 0.28134015 -0.22550215 -0.44805646 0.43166775 -0.19771057 0.73217136 0.5327803 -0.62918764 0.25798354 -0.11534901 -0.09534695 -0.32136425 0.28906798 -0.38259524 -0.1386383 0.1488006 -0.07268468 -0.89729184 -0.4558851 0.473425 -0.010981549 -0.047923174 -0.1702536 -0.27134022 0.22256815 -0.41940144 -0.36570898 -0.22536962 0.2628575 0.32354575 -0.36684313 -0.07561151 -0.84889543 0.49636498 -0.12806898 -0.1381169 -0.20721856 0.34935063 -0.020054974 0.15430439 -0.11222629 -0.4249263 0.25503302 0.24751897 0.12854075 -0.048626784 -0.3223625 0.43121368 0.1824024 -0.14113252 0.28500962 -0.14070223 -0.010561267 0.23323806 -0.10027127 -0.5064998 -0.16990614 -0.076486 0.027280284 -0.5944046 0.3311488 -0.7202382 -0.31362885 -0.17113142 -0.35324222 0.026927747 0.35049194 -0.47007054 0.31649795 0.33179325 -0.17811698 -0.055978727 0.6790365 0.03120988 0.13603146 0.1523406 -0.23633738
诸 -0.42415303 -0.69334394 -0.04632777 0.094349936 0.6323457 -0.04135711 0.4671676 -1.0113478 0.12538776 -0.3559128 0.29442942 -0.5876426 0.24311046 0.20586467 -0.07946507 -0.3234015 -1.252229 -0.99247473 0.13972889 -0.033026185 0.9584508 0.71282107 0.8798344 0.07214659 0.94436824 -0.27308816 -0.32415754 0.38742423 -0.053932182 0.3317658 -0.40747163 -1.1168184 -0.22197706 0.4781166 -0.17041518 0.1171623 -0.52470547 0.13287915 1.3319333 -0.05992638 0.14186853 -0.31108415 0.31615815 0.26269603 -1.2394229 -0.07257302 -0.29981622 0.28920528 -1.0105393 0.22040081 0.17109089 -0.08441022 0.05351257 -0.51652074 0.24573803 -0.30183202 0.6437256 0.10202318 0.14791802 0.32946151 0.20302902 0.22274703 -1.1622146 -0.31407338 -0.6410529 1.381387 0.38020027 0.3332658 -0.20934123 0.3302541 -0.81478816 -0.93416405 -1.108161 -0.01999547 -0.92229575 0.18350594 0.36383235 -0.10323487 0.048638742 -0.102307975 -0.017690195 -0.04932873 0.37392476 -0.22334532 0.16573739 -1.1693461 0.6657745 -0.6284187 1.2894175 0.46328154 -0.40720835 0.9810187 0.8182784 -0.10679802 0.6754471 0.25655606 0.40553346 -0.2189431 0.2943729 0.419709
从 -0.7338474 -0.24460998 -0.8632041 0.33872062 -0.019348172 0.44796818 0.3666701 -0.26142845 0.2809703 -0.9547247 -0.123484194 -0.4068064 0.39907378 0.28501683 0.30818135 -0.03927197 0.94157445 -0.61582994 -0.32914096 0.11449391 -0.061850153 -0.28241217 0.34384534 -0.5942284 -0.22035894 0.08299845 -0.120498374 -0.25429264 0.23776159 -0.42337838 -0.2159461 0.33227462 -0.060174394 -0.2482299 0.046853505 0.090782814 0.3224626 -0.044951823 -0.13952523 0.2632889 0.029795699 0.14018285 -0.2053274 0.104198314 0.2033187 0.89655346 -0.3422627 -0.013943694 -0.46481428 0.09657082 -0.07795404 -0.64677787 0.010125122 0.22369668 0.13285773 -0.03921507 -0.17888252 -0.059912466 0.17295936 -0.48848313 0.1064519 -0.09512777 0.47741958 -0.6414781 -0.03871296 0.011940221 0.57972693 -1.8825523 0.26415515 0.16075668 -0.18978666 0.19821246 0.3568551 0.35245228 0.33129326 0.4074697 -0.43984348 -0.5006113 -0.24690817 0.8754372 0.11409265 1.2050449 -0.44609076 0.018506844 -0.2576384 -0.14036284 -0.60720843 -0.13433194 -0.096408114 0.1671183 0.9182731 -0.22302434 0.8756912 0.2679683 -0.5943262 -0.3900724 -0.32469645 0.030558523 -0.43125644 -0.36911646
文 -0.32843342 0.21351252 0.15158056 0.87886 -0.4784199 -0.283049 -0.06760501 0.36673403 -0.27083835 0.15242714 -0.568312 -0.73479956 -0.78340036 0.39291033 -0.36706367 0.11061006 -0.522572 0.27942184 -0.13039881 0.567397 0.24919416 0.15879439 0.31420553 0.4620014 0.55391365 0.19409768 0.6215262 -0.09312409 -0.4843377 -0.17513362 0.3603317 -0.68499297 -1.1659801 0.08605308 -0.2563307 0.24727415 0.2755791 -0.25878948 0.64592177 -0.41848406 -0.37428886 0.13793549 -0.25558138 -0.684053 0.40581024 0.38011894 0.23282324 0.47192544 -0.48639116 0.35690302 -0.25899026 0.25323233 0.7365822 0.99369854 -0.4141959 -0.5135773 -0.16930631 0.4014113 0.19421381 -0.16551182 0.5269026 -0.84534985 -0.19748269 0.23808035 -0.4041878 0.35135397 -0.468887 -0.023259467 0.49054065 0.24972484 -0.433138 0.46604988 0.48762274 0.68040717 -0.1433152 0.80007243 -0.50197184 0.2358307 0.14265293 -0.23695643 0.2063492 0.6820799 -0.031473458 -0.679711 0.16320756 -0.43513638 0.55855787 -0.29669207 0.16480443 -0.3633324 -0.39635175 0.21408606 0.34529626 0.42968222 -0.28833362 -0.27128977 -0.5225264 0.43657365 0.31843597 -0.5748913
政 -0.26178116 0.3188373 0.08835312 0.3299743 -0.31708765 0.35468066 -0.47635075 -0.69444084 -0.70980805 -0.831745 -0.77619666 -0.0021207288 0.21164098 -0.5232094 0.3652481 1.4412212 0.07996599 -0.18259165 -0.1389738 -0.20585844 0.42151785 -0.17774911 0.6129945 -0.41263437 0.48106092 -0.33027372 0.19929214 -0.13137633 -0.21202962 -0.040421914 -0.16550384 0.044097867 0.41353685 0.21647526 -0.15381223 0.74472415 0.6124492 0.2209349 -0.038959026 -0.05529874 -0.22264016 0.24597737 -0.3557822 -0.019331517 0.40086117 -0.19919571 0.16557471 0.025521712 -0.6675343 -0.26423302 0.09873622 0.93028516 -0.44158623 -0.27761498 -0.11402921 -0.042201523 -0.32421246 0.2874748 0.37697783 -0.35858086 -0.11887611 -0.78254545 0.7532476 -0.5016843 -0.02996088 0.06473938 1.0730647 -1.2842932 -0.4547735 -0.002490112 0.23734438 0.45934355 -0.0735528 0.4024087 -0.48939663 0.23508403 0.52993196 0.03835238 0.09600427 0.035132106 -0.18377563 0.34337267 0.34868285 0.051876437 -0.6983971 -0.59502256 1.3637346 -0.44934177 -0.026375007 -0.008817215 -0.0022059889 0.53958815 -0.43231875 0.06109848 0.5020804 -0.08450518 -0.19501238 0.11792556 -0.2879391 -0.39350146
食 0.15304355 -0.5039741 -0.14476557 -0.04506398 -0.4844151 -0.068594866 -0.5322212 0.23258907 -0.2024596 0.84618837 -0.29424763 -0.011554298 -1.2043202 0.20292372 -0.8975788 0.21296097 0.95673156 0.09361814 0.06928755 0.21680908 0.47403148 0.24853829 0.58399916 -0.23504572 0.7309005 0.09288617 0.9008889 -0.04941865 0.9044113 -0.026395258 -0.57392293 -0.64331025 0.46112007 -0.28759605 0.27814668 0.47245374 -0.41969714 -0.5140238 -0.6420613 -0.9210214 -0.44691387 -1.2229896 -0.7168868 -0.08442817 -0.047906905 0.2731515 -0.19712739 0.8260988 -0.46086287 1.1646302 -0.79831237 -0.1942313 -0.49969012 0.2012139 -0.21451691 -0.26509866 0.5740127 0.25476888 -0.019191632 -0.6510679 0.13595712 0.0012788211 -0.43869984 -0.21233216 0.09930185 -0.5909076 0.46435812 -0.1599326 0.18666972 -0.6692805 0.364102 -0.44568688 0.33465794 0.80081654 0.14841773 0.031990845 -0.52474225 -0.41170946 0.11573577 0.69882584 -0.09949991 0.36779273 -0.31735903 0.38171834 -0.26744893 -0.498005 -0.014153642 0.07703823 0.16708301 0.1899177 -0.25365007 -0.15830044 0.108525835 0.4906097 -0.70328075 0.57419634 -0.17975898 -0.8654272 -0.43491742 0.34367552
善 0.05788488 0.9095366 0.04563942 0.69557035 0.23710302 -0.12963215 -0.2359127 -0.35916775 -0.94601417 0.20806094 0.8664188 -0.46738827 -0.467014 -0.02441494 -0.57272255 1.1395276 0.1551909 -0.45302975 0.026164131 0.2605542 0.18826425 0.5899755 0.09955131 -0.3639893 0.0619888 -0.21845917 0.046778683 -0.38644725 0.1452502 -0.15723795 -0.060765106 -0.62364554 0.41354594 0.5357849 -0.4425382 -0.68392545 -0.22875433 -0.34415302 -0.2307072 -0.09250846 0.17527074 0.1477184 0.351531 -0.52272445 0.060760166 -0.13387117 0.17284708 0.3990413 0.14540797 -0.08108457 0.053000692 -0.22031686 0.088717595 0.7674113 0.07292949 0.3151927 0.17471096 0.7067765 -0.30441454 -0.40010592 0.6814945 0.13978116 -0.17368327 -0.2878985 -0.01731739 0.1917222 0.62882006 -0.6293303 0.27028796 0.24595165 1.1385443 0.501216 0.84793645 -0.42110568 -0.7720903 0.2684716 0.21171923 -0.032940943 -0.72435236 0.2099413 -0.010984017 -0.29410335 0.43337855 0.51341754 -1.0188942 -0.34775248 0.16310349 0.88267195 0.088459745 -0.11142716 0.14748167 -0.8574651 -0.57574433 0.118067995 -0.22177175 0.37090698 0.013364489 -0.34429085 0.079381615 -0.07942861
后 0.075534195 0.14802504 -0.32511863 -0.85925734 0.95309997 -0.3161636 0.53061163 -0.95249486 -0.18698779 0.51080096 -0.7021742 -0.28259844 -0.6045575 -0.15898483 0.004856244 0.41619363 -0.41419977 -0.42096865 -0.37097093 0.3448002 0.64910805 0.11074205 0.48589417 0.6656575 0.17133226 0.21119863 1.014849 0.6289212 0.130112 0.4217105 -0.35998884 -0.8353957 0.42108965 -0.27914387 -0.37825388 -1.0241284 0.54887164 0.04354114 0.19374354 0.34616184 0.34404203 0.7189607 -0.079201795 -0.5129502 -1.2192638 0.15599604 -0.5511043 0.13009237 -0.8841639 0.017311241 -0.67700285 -0.26026222 -1.0751216 -0.5041148 -0.947764 -0.6432988 -0.83430034 0.76138926 0.116919994 -0.19189279 -0.118253544 -0.2105388 -0.30522925 -0.040112264 -0.04148968 -1.07881 0.31886357 -1.1630703 -0.041776963 0.48891592 0.2781184 -0.24344619 0.3986346 0.37917465 0.31207502 0.60205793 -0.00574748 0.10609974 -0.61577505 -0.65802115 0.061321378 -0.1639759 0.05756556 0.59908193 -0.5010568 0.4092244 0.41412595 0.21496804 -0.29294124 -0.5945158 -0.1203108 -0.09597905 -0.6056355 0.26202592 -0.020062689 0.31635132 -0.58005387 -0.37593699 -0.057509374 -0.18103738
德 0.035071597 0.50773937 -0.5571301 0.43209583 -0.18809573 -0.34027618 -0.09388897 0.44101545 0.45385224 -0.23883976 0.3670772 -0.39430633 0.40808085 -0.120480746 0.28188404 0.016207242 0.7407892 -0.040332083 -0.33520246 0.0044154804 -0.9170197 0.39378414 0.3696384 0.77311784 -0.18088579 -0.9774015 0.3447047 -0.16556676 0.29762232 0.3367395 -0.81714094 0.76540154 -0.31030405 0.76263165 -0.73763335 0.15785298 0.20437205 0.017331883 0.2574355 0.57558984 0.542549 -0.21515928 -0.2486935 -1.175655 0.7108885 -0.017987115 0.16563363 0.12485202 0.46737233 -0.8457941 -0.3650404 -0.11091913 0.4475472 0.45121792 0.31185 0.34852263 -0.58506054 0.0051308493 -0.5341244 -0.34163985 -0.33124614 0.3052519 0.089618824 0.33354604 -0.2774441 0.98927015 0.0916963 -1.0611657 -0.6717286 0.19089952 -0.55181336 -0.2430338 0.85470265 -0.4290191 -0.065526985 -0.23706 -0.10387425 -0.04880457 0.5077469 0.6039457 -0.43045062 0.5074707 0.19169919 0.69451284 -0.44058174 -0.5743212 -0.1323391 -0.7690451 0.105586134 0.31577063 -0.12655936 0.223695 -0.19771226 0.08680046 -0.25587207 0.15054779 0.17546567 0.22607745 0.001614138 0.39260957
求 -0.3004938 -0.7225068 -0.13077007 0.29291946 -0.5482863 -0.71989363 -0.06834749 0.774747 -0.0114953155 1.0002326 -0.6392694 0.096872225 0.6820666 0.05583384 0.44991654 0.015982779 0.45221266 0.19563323 0.003000942 -0.28486887 -0.18984497 0.3431812 -0.10215869 -0.061145693 0.19385181 -0.0015758537 0.58438754 0.014875092 0.86655587 -0.34142867 -0.3923681 0.44910678 -0.43650737 -0.18980333 -0.16797335 0.6956629 -0.26365 -0.66901666 -0.1507039 -0.9966081 0.100041404 -0.34270352 -0.23874845 -0.4658933 0.9991985 0.38895097 -0.15049234 0.13926855 0.36873809 -0.5087073 0.10870273 0.24516107 -0.6096149 -0.15110287 -0.079298556 -0.05053966 0.3194374 0.48053673 -0.81159383 -0.46534553 0.08565697 -0.2189874 -0.38789454 -0.02759635 -0.6314321 0.10626506 -0.4356251 -0.6910417 -0.38798857 -0.30218714 0.32251522 -0.12438536 0.3088795 0.19023326 -0.28044674 -0.15998237 -0.21004331 -1.3754696 -0.7461905 -0.4839442 0.25779378 -0.6089399 1.0223919 0.05570779 -0.5246378 0.20991954 -0.09786329 -0.1808531 -0.09959464 0.55130494 0.09602609 0.49362156 -0.5258898 -0.1902519 -0.6635686 0.21924698 -0.41847962 0.5024647 0.045835417 -0.64737433
对 0.36530098 -0.17517053 -0.14037757 0.17090088 -0.013367794 0.064600356 0.07161118 0.265266 0.57232547 0.31700787 -0.37193188 -0.0029237897 -0.043351978 -0.63341933 -0.11692733 0.052024826 0.13283879 -0.50300336 -0.6717452 0.33569473 0.62356615 0.704575 -0.004060534 -1.1355872 0.06476347 0.51815 1.07014 -0.30134308 0.42794356 0.9015688 -0.2965014 0.6398166 0.0965501 -0.46422285 0.6301724 0.3800319 0.19506289 0.0805092 -0.54096156 -0.20188595 -0.15599136 -0.64740884 -0.07715863 0.08893837 -0.0059356517 0.17738627 -0.038475826 0.043119844 0.123920225 0.2168521 -0.09399933 0.35945702 0.20919019 0.6188012 0.25684133 -0.060950436 0.114424035 -0.13091315 0.13055454 0.26281327 0.74997425 -0.21584213 -0.50623524 0.032393005 0.027070314 -0.06271218 0.116751984 -0.23991473 -0.8867878 -0.8079543 0.32988346 -0.35623786 -1.117379 -0.30100068 -0.22396958 -0.017941631 0.3020593 0.14828935 -0.4757309 0.33557513 -0.27704182 -0.52873194 -0.66562665 0.44957486 -0.16296293 -1.7055185 -0.16284984 0.72810304 0.21227567 -0.9152972 -0.028334586 1.1082509 -0.026291633 -0.12932116 -0.060906332 0.5205579 -0.2082911 -0.26480988 -0.04550971 0.7632698
恶 0.55995303 0.045252465 0.031143587 -0.34889224 0.44027892 -0.13539426 0.37662482 -0.3301426 0.24705806 0.5777413 0.014234477 0.28104347 0.93138933 -0.074283764 -0.46913296 -0.27369836 0.6303844 -0.5028347 -0.2047086 -0.34591994 0.15511853 0.7209039 -0.11642397 -0.6794242 0.38872463 -0.23893403 0.6577498 0.24447697 0.3429271 -0.35327208 0.086669326 -0.07904411 0.36343566 0.4753488 -0.7353683 0.15968244 0.053856242 -0.12736686 0.16440603 -0.09737591 -0.15367284 -0.5426737 -0.033231605 -0.2932112 1.0363483 0.1043898 -0.32023874 0.3597098 0.42887625 0.3712582 -0.24508543 -0.040984575 -0.20574214 -0.3102963 0.16883095 -0.17929742 0.5510369 0.7733804 -0.28120345 -0.4225356 0.82927406 -0.1498528 -0.15779573 -0.30700955 -0.16736856 -0.08262629 0.53766596 -0.25830662 0.8557077 0.24693757 0.341216 0.10816931 -0.31505355 -0.12820224 -0.3774459 0.038129367 -0.54792494 0.3210792 0.024110936 0.06509799 -0.36268365 0.10827412 -0.33703506 -0.08802531 -0.71816105 -0.9231327 -0.2866945 -0.124792375 0.2875183 -0.287065 0.41475087 -0.24280497 0.7579771 0.1856233 -0.04614522 0.35676044 0.9630884 -0.061791543 0.13557348 0.20142306
信 -0.031468954 0.2899447 -0.112194054 -0.7601865 -0.37255427 0.050194707 -0.4677679 -0.9140818 0.47732043 0.23625015 0.33666733 -0.24376798 -0.50064087 -0.069966555 -0.3247805 1.0909662 -0.40150663 -0.4052259 -0.50415725 -0.7201906 0.30217353 0.10124112 0.08547714 0.27083093 0.41273642 0.035330363 0.15154691 -0.65518916 -0.14662926 0.34405285 0.08749869 -0.10272281 -0.6317004 -0.17117454 -0.6109251 0.1301105 -0.49602458 0.25538698 -0.27970186 -0.40495816 0.07421892 0.44368842 -0.3194398 -0.95858926 0.028410362 -0.008652873 -0.78196335 0.035717178 0.20273918 -0.78985703 -0.62102365 0.067042515 0.09501748 0.47967383 0.29972616 0.14756009 0.59221023 -0.00075093296 0.51715326 0.048271026 -0.025479192 0.17314094 0.23247825 0.18217762 -0.10520027 0.77453744 -0.08180534 -0.8248156 0.731348 -0.16229092 -0.15523905 -0.3003853 0.1520912 -0.07484023 -0.20946506 -0.5533357 0.47975972 0.2177196 -0.18403417 0.4763058 -0.32628968 -0.39276072 0.5328232 -0.32840946 -0.83850867 0.07397479 0.2294168 -0.7702095 -0.47507545 -0.21388282 0.23490103 0.23412274 -0.13299194 0.15272199 -0.6710881 -1.091283 0.18523663 0.057853576 -0.29974952 0.32028815
死 -0.006355649 -0.09085468 -0.45959783 -0.3918941 -0.7635117 0.3106937 -0.017081877 -0.05617245 -0.89806914 -0.2866464 0.107724786 -0.28387254 0.006787719 -0.18825097 -0.31765705 1.4596562 0.97996795 -0.1198889 0.0653967 -0.6421252 0.64505136 -0.18391429 0.42882782 -0.10271898 0.45197085 -0.92244685 0.25458 -0.06358349 0.5902715 -0.29761335 0.28903174 -0.2843501 -0.74623454 0.9524168 -0.07459606 0.9613258 -0.23119292 0.36377558 0.46061087 -0.45495427 0.21066369 0.21577817 0.30517194 0.009526964 -0.48123777 0.22325629 -0.49581432 0.9456472 0.16020527 0.3038727 0.089308895 -0.1648013 -0.50057995 0.5589934 0.47654715 -0.19356453 -1.2677443 0.27797765 -0.49159914 -0.42912334 0.41702446 -0.007042998 -0.069367856 -0.7604656 -0.08294938 0.075234406 1.2897564 -0.7786134 -0.13278511 -0.095541194 -0.28367957 -0.1080828 0.023907788 0.5036477 0.2891032 -0.22069056 -0.13477425 -0.3349558 -0.5060398 0.5860764 0.5021145 0.3254676 -0.38351923 0.03719005 -0.09887459 -0.09612612 0.0029465884 -0.20481406 -0.72867703 0.01068755 0.4514078 0.3010156 0.5973762 0.24341041 -0.31422794 -0.66968983 0.3382559 -0.13210303 0.19809173 0.15108448
然 0.433152 -0.65631574 -1.1275444 -0.32383412 -0.8834289 0.19297965 0.45467862 -0.20518424 0.18379365 -0.49230644 -0.0153800305 0.0844262 0.017656568 -0.6485462 0.22804025 0.052962452 0.06328913 0.077870436 0.5027779 -0.4045298 0.3419972 0.44903624 0.27911153 -1.0364788 0.82148427 -0.15257034 0.22759706 0.63691264 0.5249179 -0.5324462 -0.3543364 0.15882738 0.60422313 -0.20574845 -1.0320857 -0.05030638 -0.121403225 0.47920573 0.1786257 -0.30716193 0.5009408 -0.052038327 0.5711196 0.32870016 0.67115945 0.0014031928 -0.33076474 -0.34187037 -0.57720053 -0.9399428 0.04661167 0.6378186 -0.14978434 0.11452231 0.33556345 -0.12169868 -0.33723423 -0.08684503 1.1686612 0.5936853 0.102763444 -0.5022171 -0.21574178 -0.38232696 -0.08340819 -0.72591245 0.64073503 -0.7697886 -0.90496206 -0.053202357 0.6144663 0.27880657 0.0126763135 0.038134065 -0.36702743 -0.64338297 -0.1286263 0.08672076 -0.19443487 -0.65863717 0.24600306 -0.4546247 -0.13333444 -0.19112408 -0.9932829 -0.51602083 -0.20777418 -0.40820011 -0.10420037 0.0696992 0.7751793 0.8235381 -0.35379586 0.0061581098 -0.30486274 0.28851968 -0.2797349 0.09358187 -0.14216188 -0.30040434
《 0.32323188 0.06748059 0.5166751 0.73477376 0.8616786 0.17605726 -0.41533035 -0.1711249 0.6395581 -0.6391944 -0.19829358 0.1470669 -0.9777097 -0.018794382 0.042900622 0.10944521 0.44391352 -1.240263 -0.44041446 -0.44687343 0.762635 -0.3644309 0.33556083 0.26943436 -0.650393 0.6832785 1.2393516 0.40399018 0.5064904 -0.008480734 -0.6241241 -1.0938729 -1.0407913 -0.7103423 -0.8955088 -0.33774582 0.31630424 0.06485324 0.28387567 0.25190207 -0.116162844 0.8128708 -0.104339674 0.28195527 0.22150186 0.9119717 0.33651263 -0.14188254 -0.24142118 -0.5496295 0.46552345 1.6401509 -0.45475897 1.0848316 -0.010817699 -0.2171311 0.10578054 0.28696245 0.6981693 -0.25116092 -0.27019453 -0.1986324 -0.05447029 -0.8877832 0.7530029 -0.85865694 0.9128612 -0.12732595 -0.29173693 -0.43112367 0.4977834 -0.3000421 0.11960528 0.14166869 0.55771035 0.5764003 -1.1511872 0.39294028 0.10750364 -0.8467047 0.26695478 -0.21811318 -0.007313057 -0.23288381 0.3529124 -0.32152772 1.0741602 -0.62608904 -0.08798508 0.35829985 0.19274895 0.7482389 -0.070547074 -0.57643217 -0.316761 0.37556216 -0.14371793 0.037502408 0.7974539 -0.40014797
》 0.6021002 0.13482323 0.6393079 -0.74301773 0.009095303 -0.22504872 -0.1579244 0.49624944 -0.47401693 0.00484744 -0.49439448 0.29067314 -0.13145572 -0.2181963 0.06369216 0.20177582 -0.19446786 -0.70061713 -0.31281838 0.4195767 0.5654991 0.3982887 -0.36786875 0.12717488 0.1609334 0.4252653 0.29861996 -0.22008619 -0.13153176 -0.3712041 -0.76398575 -0.4699436 0.35927728 0.85983306 -0.6798229 0.071217045 -0.21616633 0.35240316 0.22675367 -0.2458988 -0.0847764 0.06928407 -0.042918313 0.22732538 0.79792285 0.73066473 0.42405966 -0.52198964 -0.24821565 -0.06863694 0.24650463 0.48078597 -0.5322587 -0.0053542717 -0.8684777 0.40588436 -0.0011837047 -0.3727404 0.45231918 0.068927824 0.46536192 -0.93704295 -0.23536377 -1.3344307 -0.9576771 -0.4991579 0.57768494 -0.737198 -0.42974538 0.0017981972 0.33317614 0.1920646 -0.4402688 0.04922689 -1.0390792 -0.06432269 0.16344921 0.46820527 0.037517924 -0.61970454 0.037840866 -1.0874543 -0.049879298 0.1556981 0.23341122 -0.5068511 0.20540251 -1.0297421 0.12913403 0.25174356 -0.024771038 0.2354355 0.86733234 0.5495864 -0.2041951 -0.83703834 0.25797743 0.55667007 -0.0032524178 -0.53706384
