1352 50
， -0.069168516 0.2872403 0.17309153 -0.07011279 -0.18082714 -0.09240196 -0.008941727 -0.12286402 -0.21359372 0.27367595 0.044775356 -0.05379923 0.20429687 -0.11986279 0.078569725 0.15446645 -0.212495 -0.05424121 -0.11508402 -0.06955937 -0.10873946 0.04727388 0.06457421 -0.035407353 0.08164008 0.10028391 0.24160361 -0.07170711 0.19468585 -0.09661045 -0.23407051 -0.8023488 0.16380976 0.22870527 -0.061471023 0.06261543 -0.17205292 0.08391024 -0.35385042 0.2356079 0.8340391 0.100987256 -0.033793084 0.21826531 0.28478536 0.22588909 0.17383535 0.012390299 -0.04088742 0.069994755
子 -0.17290106 -0.15329106 0.019202756 0.034321554 -0.32516494 0.017771972 0.17093803 -0.13920932 -0.077845834 -0.29402804 -0.44105107 -0.32489777 0.21230106 0.19400609 0.008651036 0.036503274 -0.15363044 0.5245996 0.1348457 -0.059208903 -0.39466634 0.00036233678 -0.10393549 -0.10144824 0.49023923 -0.18912683 -0.6293477 0.25938046 -0.16904639 0.18206695 0.102485895 -1.1698143 0.37854946 -0.013052034 0.015975527 -0.22422911 -0.0015965267 1.0143095 0.28321898 0.18302011 -0.32244286 0.0033917546 -0.58346003 0.22417396 -0.20523226 -0.62356746 -0.016453255 0.17260316 0.09704772 -0.06133999
。 0.14793637 -0.30576655 -0.2755016 -0.40029305 -0.032800492 0.26941597 0.14790472 0.08973352 0.07874475 -0.000113728805 -0.14854912 0.079159304 0.039945822 -0.2513059 0.115602635 -0.095434785 0.45778242 0.34550315 0.34402907 -0.2348019 0.23091763 0.17655957 0.11775324 -0.19452316 -0.36398327 -0.2970585 -0.17843626 -0.025329836 -0.19249955 -0.08857232 0.11630544 -1.5357078 -0.17262962 0.16312706 0.010827599 0.30195117 0.03971077 -0.2153233 -0.09858238 -0.09631317 0.11525209 -0.37544036 -0.10532865 -0.21973813 0.2887741 0.82415503 0.15633051 0.4312404 0.21283913 0.051769342
： 0.41604358 0.10864144 -0.062022854 -0.18317814 -0.14439021 -0.0139626125 0.32101208 0.08572197 -0.058692534 -0.17308718 0.27672642 -0.29125592 -0.14161229 0.32453027 0.2131795 -0.13835222 -0.05227614 -0.29885378 0.0087372465 0.58681184 -0.037292514 -0.26968214 -0.14011648 0.21411063 0.18865488 1.1510695 0.15635091 0.15165299 0.21879874 -0.20210464 0.24491255 -1.8367376 -0.45901918 0.14383598 0.13106778 0.13284981 0.306449 0.1271402 -0.4443576 -0.35904527 -0.17509975 -0.09535176 0.20491982 0.18475324 -0.0874109 -0.30292535 0.13394219 -0.010190774 0.28236645 0.019092515
曰 0.06675283 0.31116846 -0.11346555 0.076693565 -0.048289847 -0.3559801 -0.2927495 -0.41638374 -0.1958505 -0.46859762 -0.2949366 -0.24797578 0.037305456 0.27348462 -0.34805706 -0.19118369 0.23070848 -0.35637677 1.2379451 -0.14523491 -0.546749 -0.31939942 0.40901855 -0.10712498 -0.40298384 0.14607799 -1.4897178 -0.0877363 0.00056515477 -0.1799904 5.0866503e-05 -1.1075583 0.06522119 -0.11106173 -0.27759588 0.7245362 -0.15072358 1.0087646 -0.1335074 0.24668384 -0.4767991 0.2511492 -0.5300593 0.08734037 -0.3102154 -0.4424021 -0.3717264 0.23535398 -0.09924218 0.12433354
之 0.4298476 -0.08209334 0.079419844 0.5182431 0.7014391 -0.013003051 0.053687707 0.13419887 -0.6365588 -0.29444835 0.08405369 -0.24181712 0.20112497 0.43167475 0.017339917 -0.064899005 0.1325613 -0.003773406 -0.16454448 0.08493164 -0.30788136 -0.3063946 -0.1504548 -0.28420514 -0.26693738 -0.2517997 0.028949272 -0.06309102 -0.1680877 0.5561296 0.10789177 -0.63863444 -0.17193952 0.32018328 -0.18867145 0.24731325 0.015465001 -0.49743128 0.40937388 0.2248913 0.4623184 0.092341065 0.04263095 -0.111410975 0.013011286 -0.31006372 -0.14544952 0.4188914 -0.1898605 0.41150534
不 -0.2505089 -0.097853296 0.03766243 -0.42996836 -0.1454892 -0.52958995 -0.29833093 0.18521154 0.30102193 -0.8823064 0.06382998 -0.03563169 -0.024595171 0.45035625 0.22971821 0.029888926 0.056069277 0.19816731 -0.008485091 0.3653133 -0.704953 -0.08435567 0.05189401 0.077314764 -0.77262217 0.10788323 -0.42340887 -0.22147965 0.19526646 0.116114646 0.32998112 -0.028979639 0.38895804 0.03575424 0.04458988 -0.124214396 0.2333944 -0.09250113 -0.17614456 -0.13825087 0.6736037 0.07931737 0.051646195 0.42904004 0.06347412 0.2829537 0.3706989 0.26847002 -0.030968677 -0.21645047
也 -0.17204916 -0.0275576 -0.01288371 0.525379 -0.14093353 0.07652751 -0.24584131 0.124886505 0.016125923 -0.6458093 0.44537544 0.45665607 -0.19912925 -0.15132438 -0.15175158 -0.34210637 0.19032525 0.04853872 -0.329777 0.19400081 -0.11524314 0.14843927 0.12499719 -0.30037603 0.4794148 -0.38643935 -0.38073614 -0.16921477 -0.32446912 -0.005909368 -0.29596165 -0.5507315 0.12100513 0.36083823 0.5173941 0.19240977 0.28380886 -0.09286689 0.22141238 -0.31291434 0.9805629 -0.72766554 0.23109108 0.15477425 -0.38861012 -0.36322 -0.17747642 0.5192364 -0.61127454 -0.2935705
而 0.07948052 0.33650634 -0.46534288 0.08209985 -0.6175836 0.092105635 -0.65956235 -0.21059811 0.106015325 -0.24188283 0.09113148 0.23743547 0.008255858 0.5861228 -0.035304654 2.8947561e-05 0.36891952 -0.066723526 0.3493774 -0.26702082 0.13789181 -0.52513045 0.42508894 -0.3201133 -0.31010747 0.29708436 0.49268642 -0.39072117 -0.37006724 0.34725702 0.3657056 -0.7141487 0.11092451 -0.31487057 -0.10749665 -0.16459587 0.26641405 -0.45277786 -0.19268338 -0.53052217 1.1425477 0.45666462 -0.33901042 -0.21912034 0.0361649 -0.5513749 0.1054217 0.17727357 0.1581837 -0.43800887
？ 0.39829853 -0.041562352 0.32269385 0.573034 -0.5151124 -0.57856786 0.11180975 -0.34085798 0.10378322 0.4682797 -0.24498378 -0.47001848 -0.1885816 0.4873475 -0.391435 0.20139831 0.6736861 -0.012493023 0.7254336 -0.25632742 0.4430331 0.15081675 0.086093515 0.30602944 -0.23598827 0.09878015 -0.21519198 0.047922492 -0.03851752 -0.041201234 -0.62743276 -1.3068292 -0.33866432 0.13503441 0.39117137 -0.8839572 0.1408164 0.24954545 -0.12946142 -0.38909096 0.1629697 -0.20201232 0.35485366 0.9854941 0.27259374 0.48672518 0.0022890996 -0.4151284 0.51019776 -0.2876193
其 -0.25788304 0.28433788 0.088642925 -0.2398622 0.042631213 -0.41193622 -0.2510241 0.027890455 -0.3727773 -0.2463379 -0.19713677 -0.43292058 -0.094168186 -0.4497671 0.08049623 -0.13770683 0.8531998 -0.71534747 0.014245745 0.31456748 -0.39950645 -0.002275575 0.47575468 -0.68467295 -0.3736238 0.47036177 -0.08007976 -0.3557434 -0.15074275 -0.18876243 -0.00018304342 -0.21107367 0.11306077 0.0070304284 -0.36246356 -0.08126918 0.18068175 0.031111851 0.12680206 0.05708179 0.6013351 -1.1589799 0.35145 0.084945224 0.05097406 -0.6320854 -0.47001764 -0.27383137 -0.066244505 0.037986685
人 -0.18104388 0.39776015 -0.19002564 0.019182384 -0.3095451 0.2757469 0.1905749 0.08484476 -0.030430095 0.12859084 0.33976397 -0.39557156 -0.47015002 0.49610722 -0.11337574 -0.07615958 0.008163426 0.19483063 -0.37663376 -0.513626 -0.12684168 0.26098555 -0.24164714 0.2993666 -0.46359769 0.08182834 0.1335821 -0.21682397 -0.3365751 0.40745205 -0.45237786 -0.3347116 0.9345689 0.030677421 -0.422991 0.44937646 0.74306107 0.28582862 0.56183046 -0.03406773 0.0028116484 -0.43672356 -0.0075739888 -0.14390877 -0.23689489 0.11484059 -0.6386992 -0.41775537 0.51303315 -0.39195368
者 0.5024325 -0.24312374 0.06268943 0.18761921 -0.029843712 -0.007145266 0.03210933 -0.46423385 0.065868616 -0.256138 -0.17232335 -0.49114123 -0.23434387 0.35529593 0.4589299 0.12035946 0.26141006 0.0011994485 -0.2979606 -0.66741955 -0.13005236 0.3914486 1.076003 0.20945711 -0.14038497 -0.32704738 0.34378573 0.5146211 0.07673368 -0.573855 -0.4277663 -0.53031677 0.87394094 -0.10388207 0.46283928 -0.1771098 0.12210396 -0.12403397 0.4646152 -0.0020035622 0.98932946 -0.03432162 0.35780916 -0.06964128 -0.25723544 -0.54121125 0.18605866 0.095994994 -0.08212207 0.47937614
以 -0.33867368 0.325164 0.22508465 0.24378906 -0.034922533 -0.8881357 -0.09613537 -0.0598775 0.12280489 -0.6660639 0.34493014 0.24374525 0.90704757 0.35165307 -0.09859231 0.19161111 -0.06517237 0.30630946 -0.106342755 0.17438695 0.17234457 -0.16987573 -0.18442571 -0.121538155 -0.36666924 0.7361359 0.9337246 0.26140863 -0.18310022 -0.4473058 0.07421269 -0.60720325 1.121097 -0.32891363 0.24270403 -0.21856204 -0.11962385 -0.025389021 -0.45778623 -0.3163591 -0.31224817 -0.5552138 -0.35542738 0.06805006 -0.16768947 0.27822882 -0.35505953 0.5249858 0.28704062 0.29449478
有 0.007648905 0.08802876 -0.28370577 0.36638558 -0.03693005 -0.03194001 -0.03560607 0.7612961 0.109092005 0.03774199 0.6564585 -0.43527287 -0.2044574 -0.6118505 -0.25751165 0.014788 -0.5628994 -0.29335135 -0.20788494 -0.06874509 0.09127924 0.2788082 0.64286053 0.36295795 -0.54312104 0.3409919 -0.56897736 -0.080453135 0.20027731 0.36249077 -0.20532046 -0.43373033 0.08586837 -0.13988355 0.35282564 -0.00935548 0.104865946 0.11169433 -0.23788492 0.6859753 -0.093826026 0.023531789 0.31589842 0.31273487 -0.2625139 0.024423366 -0.8804169 0.7860881 0.41131842 0.09300069
于 -0.28266552 0.18542565 0.18346457 -0.7479922 0.16873653 0.1630415 0.33334255 0.00019532579 0.17032838 -1.1803619 0.07132012 0.66421276 -0.06969865 -0.42156625 -0.34226343 0.8935765 -0.0976207 -0.7641616 0.5297853 0.038636133 0.3178828 -0.3096817 0.029033901 0.8929271 0.11552176 0.24490996 0.06341707 0.2585089 -0.24420676 -0.15115428 -0.23925737 -0.92213637 0.19146435 0.02555282 0.28743738 0.034507062 -0.22484758 -0.706355 0.33640796 -0.20449859 0.69090736 -0.12331675 -0.6586032 -0.019995851 0.3187558 -0.5872582 -0.5367959 0.1063302 -0.10984161 -0.46504676
矣 -0.37424263 -0.46467617 -0.1011782 1.3762792 0.58972806 0.7510644 -0.9230532 -0.08006742 0.70587903 0.112564005 0.75712556 0.35661647 0.16997035 0.22347741 0.118432924 0.19334947 0.12145677 -0.29094976 0.36908966 -0.069595635 -0.55862457 -0.29282957 0.007724992 -0.30221677 -0.46696162 -0.14261208 -0.1416055 -0.45828882 0.037541393 -0.65144575 -0.45471293 -1.0642549 0.9959307 -0.09510336 -0.49368426 0.23432735 -0.20304361 -0.46976787 0.16878714 0.597053 -0.38202956 -1.1176605 0.21592158 -0.13665196 -0.0677496 -0.81988823 0.44413555 0.044730343 0.009488038 -0.62240535
为 0.54786825 0.46728697 0.8307807 -0.2858656 0.45684603 0.2821375 -0.74128383 -0.43476522 -0.4925345 -0.65992707 0.21952775 -0.37354574 0.14869563 0.27450863 -0.5839614 -0.38548523 -0.52701753 0.26288137 0.60476816 0.12316011 0.743413 -0.09578514 0.39744103 -0.19555761 -0.11725241 0.58980703 -0.6536125 0.36555457 -0.018109517 -0.26740924 -0.03442127 -0.24228668 0.7374883 -0.057221737 0.219906 -0.25468412 -0.21012805 -0.32307965 0.012048329 -0.030041518 0.12464919 -0.5940412 -0.10425643 -0.17994234 -0.72899795 0.645956 -0.31646654 -0.26302594 0.38398263 -0.35742906
君 -0.17739168 0.48920286 -0.29828477 -0.2247392 0.2654798 -0.6488275 0.1718498 -0.8522317 -0.15646727 -0.61646616 0.121586844 -0.09931409 0.030356396 -0.22555816 -0.21953906 0.28450635 -0.027293542 0.21774141 0.6955838 0.19061768 -0.5959408 -0.27413523 -0.2816745 0.032247875 0.17326921 -0.73668426 -1.1133338 0.527737 0.402297 0.35836428 -0.15175422 -0.35214815 -0.19846939 -0.02185893 -0.7937362 0.13735305 0.9714241 0.7914364 -0.70441365 -0.35076085 0.47906134 -0.567477 -0.17375919 -0.101678304 -0.44336975 -0.67086464 -0.23516126 0.19760373 0.24406981 -0.16439213
乎 0.015006162 -0.05736678 0.7159615 0.28293163 -0.28905946 -0.20666948 -0.28725702 0.32070976 0.050951574 -0.09289933 -0.16924939 -0.0071627023 -0.37456003 0.6621996 0.0969539 -0.34098238 0.03347503 -0.37159947 0.70161974 -0.7495574 0.023400959 0.458161 -0.0034591875 0.022083411 0.35202628 0.6766213 -0.5011685 -0.060790062 -0.27055293 0.23290999 -0.54723424 -0.9269443 0.52591604 -0.29272664 0.13556361 -0.52320975 0.23263773 -1.190052 -0.44703558 0.92019296 0.20584743 -0.12103368 -0.16401576 -0.3919589 -0.7462725 0.1261792 -0.29529235 -0.12277913 -0.4150175 -0.6605963
可 0.1179535 0.18758982 0.100782335 -0.007891925 -0.46305916 -0.1618229 0.307821 0.37013492 -0.06660969 0.10234302 0.28753513 -0.050968457 0.2910309 0.45022628 -0.55129945 0.11899906 0.6889557 0.26563296 -0.018844604 0.20678134 0.48746502 -0.6948213 -0.29042727 0.0022228681 0.29819965 0.31034794 -0.36336848 -0.27038652 -0.59642625 -0.09434622 -0.121459074 0.24466906 0.5074769 -0.0729789 -0.17075337 1.2726607 0.9415697 0.7090716 -0.11679323 0.06052687 0.7828465 -0.28096434 -0.30701753 0.00948278 0.16940029 -0.08112436 -0.18095881 -0.22860296 -0.0908777 -0.6352281
如 0.040048018 -0.18104312 -0.59918237 0.78821933 0.18136239 0.17343393 -0.012419191 0.15230401 -0.45932397 -0.088320725 0.28835005 -0.13230436 -0.20082882 0.11213374 -0.41586062 0.21827316 0.80300534 -0.0035959217 -0.2506287 0.120101064 0.45083606 0.013400296 -0.43183574 -0.014652736 -0.9216814 0.22464444 -0.71683836 0.5921589 -0.26491416 -0.19481063 -0.43100482 -0.5149913 0.14873485 0.02907677 0.45878118 -0.16877043 -0.5139781 0.69866514 -0.113219395 -0.41362387 0.5802359 0.06766301 -0.87011355 -0.5155961 0.046557963 -0.5054331 -0.11877534 -0.58958334 -0.22693165 0.41642207
与 -0.40336397 -0.04782169 -0.3790962 0.4119417 0.63270044 -0.36824062 0.1838038 -0.09560538 -0.0795931 -0.25151896 -0.39620736 -0.28045097 -0.24444845 0.06090721 -0.40110058 -0.14950538 -0.53257865 0.57100886 -0.014354168 -0.29669836 0.36451423 0.08550913 -0.39520764 -0.4549827 -0.446368 0.7029418 -0.138843 0.642937 -0.014034711 -0.45178834 -0.14957416 -0.05676648 -0.34705785 -0.28243765 -0.19987303 0.18507315 0.5594877 0.162152 0.17263804 0.41639197 0.9723877 -0.7716388 -0.16345459 -0.22307535 0.054431524 -0.27860355 0.105181344 0.91299576 0.08153861 -0.20084247
； 0.6675135 -0.7472877 0.7749909 -0.6668903 0.24397916 -0.03866497 -0.53913367 0.1669879 -0.34513783 0.47978684 0.02515592 -0.03754904 -0.11895393 0.08359231 -0.03995289 0.12810999 0.34447154 0.42134306 -0.35765308 -0.5119624 -0.87665427 0.017178062 0.08868736 0.38573292 -0.14406534 1.1446824 0.3514458 -0.36982375 -0.41232866 0.45230028 -0.6027225 -1.188061 0.22744152 -0.17929375 0.56513333 0.7502407 0.025577607 0.13229603 0.014203646 -0.21871889 0.479405 -0.47819778 -0.20893334 -0.65383387 -0.22551176 0.49948743 0.04019863 -0.6451184 0.15634729 -0.15835716
言 0.3922755 -0.07516537 0.06394758 -0.06005772 -0.12648705 -0.2741073 0.50895625 0.017092517 0.22383767 0.20712736 0.30239192 -0.12333738 0.2326264 -0.11854259 0.23244634 -0.112632014 -0.20724732 0.8293375 -0.2673035 0.14674085 0.1916618 -1.058045 0.086813055 0.116020225 0.08082814 0.5919953 -0.560998 -0.4687358 0.08590927 -0.55380857 0.10630888 -0.13721651 0.6919084 0.07568765 -0.50957304 0.57461965 -0.17587279 0.1166262 0.7833361 -0.332277 -0.079917386 -0.62164384 -0.001460997 0.54805475 -0.18843761 -0.5228163 0.4175548 0.05486068 0.05363701 -0.21348482
无 -0.53921664 0.14135718 0.22163868 0.3877425 0.23317364 -0.8369461 1.0546129 0.40097398 -0.3546091 -0.5635676 0.39550906 -0.44795966 0.3612871 0.27818355 -0.08775169 -0.43854594 -0.33884552 0.06584554 0.78874725 -0.60794777 -0.76674485 -0.07974949 0.711727 0.16453053 -0.37465477 0.7282148 0.12255066 -0.05220072 0.079333045 -0.28513792 0.5595613 -0.047501694 0.726497 -0.4348875 0.29820958 -0.01394966 0.049731556 0.0396454 -0.09712537 0.04700469 0.30085653 -0.054085568 0.14309789 -0.090000495 0.91141754 -0.058669247 -0.5558804 0.38987982 -0.51498085 -0.60658884
则 0.28771916 0.4831098 0.939997 0.28977063 0.0069048465 0.0011637111 0.12380096 0.34344587 -0.47705632 -0.16517924 -0.20457275 1.1273518 -0.10302789 -0.027054569 0.80603373 -0.16424431 0.27589035 0.017458878 0.25504914 0.26212692 0.21612537 0.7242358 -0.06981451 -0.57859117 -0.09321613 0.5889074 0.26464784 -0.36863506 0.1999207 0.107074775 0.23014179 -0.83935696 0.51746416 -0.2564217 1.0662025 0.05214896 -0.51190776 0.30630973 -0.30059028 0.3689378 0.43080777 -0.6391691 -0.6294541 0.21863924 0.25543165 -0.6086121 0.28053188 -0.37518886 0.75360733 -0.8468851
！ 0.536269 -0.47956344 -0.13352063 -0.5367151 -0.022587508 -0.97529703 -0.0469868 0.11115712 -0.052334864 0.059156787 -0.19729756 0.1228889 -0.52891123 -0.9924851 -0.6656771 0.46449557 0.6523888 0.47287032 1.2887206 -0.82481706 0.75396764 -1.0466821 -0.51910484 0.41567284 -0.13959649 0.12886684 0.49328926 0.59695226 0.2913307 -0.0010035362 0.2264893 -1.3985348 0.6714831 -0.123806 0.4369478 -0.11514939 -0.08192091 0.09503714 -0.11049714 0.2625256 -0.23662274 -0.39142853 0.2328937 0.020560473 0.20393625 0.014797565 1.1886462 -0.061480295 -0.375578 -0.2831436
问 0.39390883 0.41963428 0.45699447 0.15317316 0.43222928 0.05096211 0.035978317 -0.8900639 0.45184818 -0.41720486 -0.42735422 -0.23083444 -0.04363552 -0.33799744 0.42618126 -0.378018 -0.43828872 0.42968163 0.23969483 -0.1572622 -0.018770924 0.8431161 0.5181792 0.124278545 0.31388536 0.3653592 -1.3936317 -0.24012314 0.14495137 -0.023920389 -0.5005772 -0.811444 0.42437428 0.11048549 -0.24096616 0.70978624 0.06381155 -0.36071587 -0.082523435 0.07480009 -0.28727365 0.5086674 -0.17924827 -0.19746813 0.35360563 -0.66063964 -0.17701693 -0.3175974 0.338081 0.09506185
知 0.4698632 -0.093706936 -0.37408057 -0.4549809 0.15858357 0.30702117 0.33940676 0.10277619 0.42713764 0.13332719 0.15025255 -0.06674747 -0.08083159 0.57216406 0.013112022 0.0034633074 -0.09103697 -0.0048866295 0.40314007 -0.21698098 1.0896637 -0.1805066 0.077007756 -0.32979837 -0.33277547 0.38791564 -0.27615014 0.28249332 -0.041705646 -0.37863305 0.19248648 0.16528451 0.62337124 0.590147 0.42571217 0.71764356 -0.24726766 0.13664769 -0.0012809783 0.42601696 0.53789353 -0.42047808 0.05136467 -0.08109181 -0.19549859 -0.698373 -0.13632987 0.18969953 -0.18358403 0.15516621
何 0.11256359 -0.44163853 -0.5321719 0.7079026 0.096068256 -0.8517163 -0.009306462 -0.42977893 -0.15209137 0.28441525 0.25919852 -0.048817955 0.55990946 0.8935054 -0.052159414 -0.2538222 -0.31193548 -0.122243375 0.3416714 0.30026665 -0.24284731 0.036284864 -0.43000695 0.4517859 0.08815776 0.47276786 -1.1722568 0.47455144 0.5172632 -0.112889886 -0.14954633 -0.19770879 0.089593396 -0.14060733 0.23171212 -0.16420758 -0.19642797 0.48287538 -0.30715817 0.7457846 0.30395406 -0.43143874 0.5056436 -0.25622156 0.26244017 0.12851323 0.06907012 0.42807844 -0.3636471 0.11713366
吾 -0.18638967 -0.27510455 -0.052721146 0.5932546 -0.7932658 -0.831421 0.288405 1.1158711 -0.31383654 -0.20300947 -0.32646966 -0.35244918 -0.20586221 0.27468827 0.41254 -0.049648356 0.8028736 0.055590026 -0.011089506 0.6378556 0.718175 -0.72857463 0.26806813 -0.36257562 0.2696605 0.037128154 -0.4187253 -0.18695486 -0.41929877 -0.34797472 -0.017710952 -0.014290304 0.3084036 0.48436934 0.18054044 1.2617532 -0.22232264 -0.15737566 -0.13860974 0.46818098 0.44426507 0.19576551 -0.29983923 -0.28578755 -0.12355648 -0.25986734 -1.0657203 -0.050241616 0.4658371 0.20417587
仁 -0.25563782 0.13900834 -0.16874817 -0.010750519 0.06622844 0.010122646 0.63050425 -0.27838483 0.49747705 0.013442152 -0.07704032 -0.18035062 0.041643374 1.1082761 0.48793006 -0.28505823 0.42170984 -0.26025257 -0.17429046 -0.2322426 0.48781687 -0.83339506 -0.2423737 0.5163904 0.29636797 0.42755803 -0.81359076 -0.51003593 -0.399716 0.65452486 -0.03340568 0.057471726 0.5676861 -0.10453806 -0.5004455 0.21203582 0.36075965 0.35785785 0.7936357 0.12407257 0.3950035 -0.1992441 -0.3904922 0.0602104 -0.093054846 0.041038755 -0.41917557 0.5872393 -0.3624381 -0.3648626
夫 -0.00072404125 -0.54416364 -0.9593406 -0.18252051 0.6021563 0.08571589 -0.15060915 0.33050728 -0.11236589 -0.3926079 -0.65175813 -0.28978062 -0.5955871 0.35497618 -0.52346736 -0.57599515 0.20814134 -0.7380331 -0.11038731 0.010301135 -0.05523453 0.3453729 0.37800252 -0.021528507 -0.11133077 -0.672552 -0.118854895 -0.32970172 0.21198688 0.36983725 -0.18572025 -0.8327272 0.18064016 -0.100105345 -0.017955933 0.29925302 -0.083864234 0.72332066 -0.8897955 0.12932085 -0.18053898 -0.9148968 0.116957 0.44162214 -0.17780924 -0.3401996 -0.32367507 0.525878 0.122733735 0.16207613
、 -0.081617385 -0.16649608 0.009746176 -0.025266243 -0.59033406 -0.09593845 -0.6952014 -0.40127313 0.61342484 -1.2372521 0.45167243 -0.8233242 0.26154408 -0.40899736 -0.75594157 -0.2611416 0.30738187 -0.07730457 0.38256198 0.5114823 -0.25364506 -0.005608656 0.008215893 -0.04743675 0.2955234 0.6423762 -0.1223284 -0.69126505 -0.2521762 -0.018680591 0.26021507 -1.2315456 -0.32491714 -1.474042 0.6022228 0.057162907 -0.576794 -0.43102634 0.24387747 0.7666132 0.19616653 0.31387576 0.15493047 -0.096053705 0.04889455 0.4820207 0.6433271 -0.52715814 0.14324702 0.22297093
道 -0.17471014 -0.55147773 -0.26972532 -0.13419192 0.14102533 -0.18531202 0.35572493 -1.0544173 -0.21376912 -0.058127478 -0.5211686 -0.07144253 -0.24715558 0.43728065 1.0230675 -0.06711318 -0.2244541 0.048258323 0.52378714 0.25815713 0.08581575 0.12940358 -0.72225994 -0.99656695 -0.57022464 0.46293718 -0.5079032 -0.06553436 0.058073234 -0.039479535 -0.9904187 -0.123655185 1.1985153 0.12021615 -0.37685648 0.4565832 0.08100737 0.4005852 -0.6314134 0.21060385 0.9028358 0.8795631 -0.055131506 0.50227606 -0.031142062 0.06872641 -0.22213912 -0.12715651 0.2418034 -0.121099636
焉 -0.71518826 0.46837914 1.0492241 0.60742515 -0.058383122 -0.37708893 -0.38030508 0.80430853 0.18710348 -0.51504856 0.59479994 -0.3918926 -0.346348 0.25042778 -0.38244393 -0.2572296 1.6501051 -0.19539876 0.36726037 -0.3381729 -0.3145331 0.6367777 -0.5382733 -0.37756166 -0.20082949 0.2844072 -0.85235095 0.32892016 0.11866811 -0.4454115 -0.014922821 -0.22705665 0.55832654 0.16299826 -0.3316997 0.4261395 -0.43074185 -0.21328545 0.5923861 -0.38384306 0.16783085 -0.12250161 -0.70136255 0.19663037 -0.36814234 -0.1581524 0.5477076 1.15747 -0.16528806 0.096134745
行 0.2887651 -0.17782342 -0.5518496 -0.2133751 0.07079438 0.45944104 0.8347194 -0.32634887 0.13006294 0.027019514 0.40778765 -0.29007214 0.4281264 0.013691378 -0.18421307 0.3277023 0.13596933 0.05349659 0.15556648 0.31443977 -0.14394508 -0.29779512 -0.23654154 -0.22619472 -0.44773054 0.19961506 -0.25110146 -0.76394945 0.24423455 -0.48148468 -0.95630497 0.09248957 0.831168 -0.3218449 -0.15399487 0.11610921 -0.39499676 0.34120452 -0.4445365 0.0870457 0.11163589 0.5049174 -0.11021995 0.21567552 -0.46931484 -0.10929663 -0.8676404 0.7985639 -0.0037275564 -0.18770629
谓 0.3187231 -0.26444027 -0.4924302 0.08363468 0.97661775 -0.8181197 0.3382977 0.3015448 -0.11428467 0.0014703816 -0.30152318 -0.41108721 0.33299446 0.2798671 -0.40664014 0.81510663 -0.2700554 -0.3879968 -0.022235971 0.40913087 0.97868127 0.9221491 0.761651 0.06107385 -0.84356624 -0.17569111 -0.23074894 -0.65350944 -0.08610996 -0.11581757 -0.30545604 -1.2870234 0.61565316 -0.97602624 -0.1981952 1.3980796 0.10415076 0.33203444 0.37931702 -0.5735393 -0.3113835 -0.30031654 -0.09820764 0.5916469 0.33837754 0.355477 0.57824385 0.25791094 -0.76900923 -0.16617496
必 0.05551124 -0.42558166 0.3716037 0.390362 -0.109046474 0.30532044 0.16021226 0.645516 -0.4995531 -0.75200284 0.2171056 -0.6459295 -0.3690695 -0.0714963 -0.2004974 1.1310091 0.61880016 0.42648432 -0.7976535 -0.50360465 0.071318865 0.42934704 -0.5411212 0.21618348 0.20560382 0.14507394 -0.6191978 -0.2969494 1.1356753 -0.078255706 0.26232666 -0.51834744 1.013281 -1.0635811 0.15935935 0.7649857 -0.31777903 -0.11998248 -1.0681431 -0.2644137 0.28151655 -0.2325949 -0.18291779 -0.54645973 0.08779842 -0.7455127 -0.033318825 -0.4567008 -0.7883861 0.6560458
礼 0.06297231 -0.63448834 -0.41291025 0.9445324 0.24797572 -0.22685659 0.24673976 -0.041164093 0.7100727 0.117339134 0.022199413 -0.09906342 0.39286378 0.020223057 1.0093492 -0.35482663 0.62712395 0.2195465 0.8875925 0.7613353 0.25422078 0.16399108 -0.39702561 -0.11862881 0.6038916 0.018968515 -0.35816708 -0.6401075 -0.033175047 0.094130956 0.6583439 -0.06360354 0.9005243 -0.115923174 0.7402572 0.13544342 0.4088584 0.65647274 -0.5919541 -0.35250798 0.5331489 -0.9868564 -0.48046023 0.3532432 -0.14069742 -0.030618161 -0.34223437 -0.71805364 -0.6235926 -0.0087711215
孔 -0.3315939 -0.6097756 0.10259595 0.9351104 0.08678861 -1.0040711 0.19805261 -0.19755061 -0.0030144665 -0.5095905 0.20371069 -0.6055038 0.07317574 -0.298797 -0.4286751 0.34414175 0.029057413 0.43287078 1.1085324 0.5418505 0.2512947 0.2976619 0.20541802 0.39868632 0.30873626 -0.7428478 -0.6928708 -0.11149993 0.6512247 -0.21112315 0.117773205 -1.6885859 0.027757073 -0.5660371 -0.8151846 0.32350138 1.0851678 0.59923744 0.81261224 0.36385265 -0.37366843 -1.3601134 -0.34468308 0.092871636 -0.25778612 -1.3419421 -0.35656926 1.7753172 0.4078872 -0.40274388
斯 -0.28396496 -0.15356995 0.17343457 -0.29620174 -0.43348393 0.34294802 0.6474338 0.34868225 0.72921973 -0.18907613 -0.44703564 -0.6326749 0.28940272 0.6514313 0.22363698 0.2061315 0.01097844 0.38497752 -0.97352237 -0.14811465 -0.11103843 0.34811425 -0.26151544 0.5398785 0.32330883 0.43883744 -0.48115027 -0.08176191 0.43930104 0.48168257 -0.48583826 -0.16640553 0.014288253 -0.30741987 -0.11280555 0.030970603 -0.49511924 0.3372026 -0.022187123 0.13840371 1.4860551 -1.1667546 0.9206387 -0.3853376 -0.15164682 -0.77666306 -0.09497074 0.8237204 0.87988174 -0.4996127
三 -0.6794433 -0.49068642 0.7069273 -0.05803573 -0.24204525 0.8238644 -0.31998715 0.22333218 0.14406508 0.3332653 0.03633731 -0.23006627 -0.19096182 0.46367466 -0.8370001 -0.50097126 0.01143372 0.053989172 0.6144061 -0.11282823 -0.99047387 -0.6638103 -0.41359538 -0.09359253 0.08150379 -0.53728426 -0.50084406 0.07990135 0.85032725 -0.19122037 -0.17515971 -0.5123799 0.14050458 -0.8717877 0.28195408 0.6778979 -0.31922936 -0.3099839 -0.23469253 -0.034444008 0.028635126 -0.7831175 -0.092520416 0.5758569 1.335253 -1.020682 -0.50052404 0.22579406 0.1348716 -0.49846253
能 0.090092406 -0.049223214 0.65638125 -0.34296107 -0.084362976 -0.6302653 0.3677051 -0.17932497 0.5218088 -0.115450144 0.34701103 0.31100082 -0.65401644 0.6208454 0.5128868 0.58739483 0.31118378 0.5648798 -0.06728633 -0.20317347 0.31762242 0.8198498 0.45884854 -0.5131125 -0.17820564 0.64409196 0.04020019 -0.4926898 -0.3962369 0.8287064 0.3452082 -0.24388577 0.14160372 0.3825984 0.27784944 0.5606115 -0.2873696 0.2713419 -0.98109126 -0.09919387 0.30571342 -0.40934977 0.2182283 0.32417783 -0.78666645 -0.7959841 -0.08089148 0.17935854 0.18921424 0.57550144
见 0.23533717 0.27055046 0.54869515 0.15227565 -0.015798524 0.19252107 0.91866225 -0.6419159 0.23541799 -0.5197776 0.0027085743 0.1136755 -1.6970366 0.56650466 -0.14638406 0.07977987 -0.547156 -0.5655018 -0.24907348 0.07525879 -0.33652583 -0.19299981 -0.040110957 -0.12101451 0.07450621 0.1781496 -1.3847146 -0.49111158 -0.35366207 -0.1779771 0.083639644 -0.48906815 0.69262064 1.1735687 0.25563487 0.10966737 0.12931876 1.2842501 0.67338 0.13776748 0.20501848 0.2907867 -0.058890615 -0.17793286 0.8610321 0.61812973 -0.19994107 1.0212978 0.05714951 0.07380488
学 0.26047966 0.3080778 0.12685455 0.074075036 -0.23193271 0.6462259 0.5772588 0.2655482 -0.6205529 0.27145132 0.2736256 0.34771207 -0.038946874 0.5196476 0.30961472 -0.57610387 -0.53927994 0.46496245 0.28725824 -0.3704555 -0.3267013 -1.3341497 -0.34366193 -0.4881116 -0.20950116 0.61270994 -1.8059309 -0.3571822 0.32553864 0.55181783 0.16106313 -0.18783668 0.43600735 -0.3064443 0.510481 -0.4992381 0.5760568 0.55114716 -0.0266882 0.06416936 0.7690371 -0.7799386 -0.5018885 0.3989338 -0.35667405 0.16232292 0.12011152 0.36745808 0.0154811945 0.21208894
事 0.51266825 0.87989485 0.15943545 0.49414408 0.71299595 -0.39650306 -0.075742215 -0.853526 -0.22384122 -0.53693414 -0.07211666 -0.389785 -0.38156044 -0.6919775 0.22508731 -0.07604535 0.046188407 0.33496535 0.53511417 -0.20722122 -0.7322347 -1.5902933 0.55275697 0.5409978 -0.0033858456 0.8297407 -0.3713642 -0.3198535 -0.27210775 0.18615791 -0.5503153 0.031755984 0.5174535 0.13715571 -0.22962299 0.2916175 0.25550997 -0.4423041 -0.12539093 -0.1024882 -0.2953558 0.018714044 -1.1337117 -0.038742118 -0.17408003 0.19721144 -0.48533738 -0.19071195 0.24421099 0.7856268
是 0.4505248 -0.6152119 -0.6296363 0.08108345 -0.33874136 -0.562443 0.16096646 0.5555739 -0.24275073 -0.27969652 0.6861529 0.79867065 -0.3414152 -0.14707626 0.08666843 1.0981019 -0.378513 1.1279112 0.7099101 0.12625608 0.100707754 0.64360785 0.00071316265 -0.18866679 -0.3319486 0.7529099 -0.70579356 -0.5960631 0.5294711 -0.10554164 0.5466802 -0.23678385 0.7030523 0.538829 -0.23213562 0.5224232 -0.19602579 -0.3503606 0.5394518 -0.2601417 -0.21970819 -0.7719213 0.60636055 0.12662919 -0.1357987 -0.5321748 -0.6134199 0.29266116 0.24335808 0.29630163
哉 -0.025811398 0.6260142 -1.068547 0.14223517 0.35877523 -0.95110863 -0.12088619 0.07012428 -0.1510823 0.07188436 -0.57434154 0.44170997 0.17569377 1.9286587 -0.030300772 0.7864779 -0.18433055 -0.33900768 0.043617155 0.014704708 0.4991794 0.4882307 -0.23239546 -0.062344808 -0.19366235 -0.07631787 0.18004043 0.15441214 -0.36666933 -1.014442 -0.5145578 -1.4346799 -0.10201347 -0.10604693 0.80680585 -0.4052639 0.28524905 -0.17563754 0.117677726 1.353531 0.017093826 -0.7512436 0.48753676 0.6860328 -0.7300243 0.06728724 0.16094895 0.81435186 0.42094585 -0.69063765
闻 0.18834417 -0.015117521 0.077260695 -0.76235235 0.023703866 -0.40434042 0.7458219 -0.8142537 -0.18559466 0.22079213 -0.06416501 -0.092554495 0.0014416466 -0.29960245 -0.110849634 -0.3320501 -0.18420537 -0.035509642 0.33166492 -0.17924744 -0.054453675 -0.27720633 -0.038905557 0.55449593 -0.43124285 0.1534038 -1.375546 -0.418305 -0.38143378 -0.569133 -1.0438671 -0.40026957 1.1786935 -0.2636601 0.62824184 0.079067096 0.021136893 -0.0638862 -0.107004374 -0.5473818 -0.25576738 0.014891586 0.02148115 0.27109146 0.03273349 -0.5558812 -0.073575735 0.21266727 0.08921508 -0.06296995
未 0.37233514 0.26406157 -0.03348554 -0.08241172 -0.08685283 -0.882441 -0.741065 -0.06831659 -0.31014067 -0.9470074 -0.23491041 0.21150307 -0.4927437 0.57103914 1.142644 -0.1668602 -0.09574422 -0.21720918 0.04324456 -0.7756013 0.13896465 0.8376748 -0.27609602 0.05302374 -0.19350171 0.41337162 -1.042586 -0.08897531 -0.025673948 0.19348933 -0.5263897 -0.10679106 0.2440821 0.5895409 0.109129466 0.84594136 0.30453414 0.3002787 -0.6763798 -0.6808359 0.12652154 -0.9867945 -0.19827719 0.10179776 1.1642495 -0.6964072 0.6438928 0.5429557 -0.2844885 0.4011396
公 -0.5117362 -0.08869403 0.3045216 1.0653425 0.5534486 0.14631043 0.5931567 -0.6676158 0.5694766 -0.37680855 0.38718706 -0.5268717 -0.042949513 0.26262474 0.09276849 0.25267935 0.24114695 0.77254766 -0.25273263 1.0373205 0.113915145 0.31999296 -0.13794723 0.7584238 0.15417469 -1.1178005 -0.36905044 -0.9301383 0.12928462 0.51081824 -0.048593033 -1.3294902 -0.87196124 -0.47516817 0.4145051 0.92751116 -0.1267593 0.26770008 0.38723797 -0.024877952 0.22281046 -0.14068638 -0.68003994 0.75380266 -0.17938408 -0.6250523 -0.4714623 -0.25357822 0.28626344 -0.50088173
好 -0.094241105 -0.56866497 -0.0016629433 1.1039408 -0.19130585 -0.8358447 -0.7195304 -0.20986788 0.277088 -0.32595125 1.3483346 -0.30303654 -0.87014836 1.0111986 0.5444145 -0.15722719 0.06624222 0.66966456 0.03109128 -0.21869145 -0.28555498 -0.20336607 -0.43733978 -0.17089263 -0.3318431 1.1450212 -0.37869358 0.8347903 -1.6723624 0.85317504 0.20398627 -0.14793986 0.21978413 0.64145267 0.8029727 -0.29658443 -0.809632 -0.13724789 0.4681885 -0.29462782 0.6221886 0.313134 0.3317779 -0.010057471 -0.06420539 0.17774111 -0.5384057 1.6030517 0.5215991 0.66886556
我 -0.3098374 -0.503987 0.01484723 0.643076 0.019539956 0.17493062 0.25439167 -0.09251077 -0.052713998 -0.12469121 0.7557178 0.6859325 -1.383602 0.63003236 -0.18994021 -0.23709153 0.6964538 0.6591503 1.0242864 -0.22419527 0.5750824 -0.686458 -0.2475973 -0.9155617 0.3320108 -0.11810751 0.01609244 -0.29351047 0.19730781 0.50588214 0.4124958 -0.62665814 0.23259698 -0.4948698 0.020836381 0.36268398 -0.2685439 0.1013042 0.5434512 0.21971743 0.49639717 -0.20489852 0.8078992 0.8892416 -0.34566724 -0.6331871 -0.22932196 -0.8825533 0.349292 0.7143409
路 0.71334356 0.8711335 0.676528 -0.06903856 -0.7792166 0.009115542 0.3805913 -0.14140108 -0.18094599 -0.48760438 0.38659874 -0.7961348 0.40639523 -0.073196836 -0.3799398 1.155064 0.009245676 -0.42013976 1.3669724 -0.29421234 -0.3486892 -0.15965849 0.14725697 0.47330418 -0.40736505 -0.41269496 -0.4877913 -0.6612629 0.13409318 -0.017758824 0.2695904 -0.8238434 -0.22162583 0.118926905 0.0012831405 0.5634705 0.3751437 0.5781454 0.588775 0.13875003 -0.35462382 -0.8092427 -0.3184648 0.48541197 0.1733562 -0.45831946 0.14745581 0.15715122 0.42342246 0.50197077
在 0.6241044 0.60201657 -0.59608644 -0.5670622 1.0351384 -0.37616065 0.28280324 -0.32637703 0.819342 -0.25228596 -1.1132782 -0.2957697 -0.14070594 -0.2833343 -0.78319705 0.13814409 0.6280166 -0.9663126 -0.42034748 -0.055125818 -0.47342885 -1.1136615 -0.3189267 0.04639685 0.28091666 0.010813944 -1.2033207 -0.036955267 -0.023042262 -0.3868602 -1.0374672 -0.20440799 0.6531609 0.10042958 1.0219796 -0.012166708 -0.5500906 -0.35183114 -1.2669433 -0.61131597 0.7659564 0.15276909 0.34664705 0.111923724 -0.7217326 -0.43974635 0.09011106 0.63856626 0.23475374 -0.12045701
已 -0.47752488 -0.80555767 0.14264435 -0.08431849 0.8902649 0.6897371 -1.1765329 -0.15055276 0.2869568 0.04736923 -0.3303292 -0.5363109 -0.024688171 0.75427306 0.660618 0.29039887 1.184909 0.58943653 0.32513797 -1.0813404 0.57324994 -0.58137983 0.38912624 0.16583158 -0.059315376 0.11788766 -0.847823 -1.0358115 0.5401913 0.10546869 -0.30824187 -0.6992403 1.4928075 -0.39572504 0.069253094 0.60573775 0.60503495 0.34236896 -0.35663888 0.2672602 -0.2774795 0.028106982 0.020934511 0.13505208 0.4455668 -0.011523916 0.15748848 0.52646315 -0.054829326 -0.7389712
得 0.19618556 -0.13949661 -0.15482281 -0.29076648 0.24231908 -0.48517257 0.6132117 -0.07258243 0.39197436 0.036299642 0.17655845 0.29665902 -0.26427284 -1.2829727 -0.07614146 -0.1435279 0.47080314 -0.25208116 0.008775545 0.51502615 0.09636273 -0.5466074 0.09372361 -0.18607987 -0.2839602 0.9033057 0.08451506 0.14778215 -0.5512624 0.5448736 -0.8605534 -0.036738727 0.77950627 0.22612064 0.121094 0.780132 -0.29758608 -0.04630995 -0.61589205 0.056910034 0.5059605 -0.27376744 -0.3137753 1.3375331 -0.32943773 0.021279506 0.8874318 0.39050192 0.4542234 -0.7725712
所 0.3810976 -0.05040225 0.24983336 0.6035003 0.46234065 -0.8945395 -0.39674747 -0.23697205 1.0029112 -0.41784713 0.27059487 -0.9947893 0.02023503 -0.97654486 -0.40190268 0.31547898 -0.13534145 -0.10678062 0.41308537 1.6859536 0.17799786 -0.66294944 -0.17985071 0.21073002 -0.2100493 0.005175844 -0.33085248 0.48542014 -0.7503652 -0.19511275 0.91131794 -0.37724832 1.3524071 0.15535028 0.22882305 -0.18220702 0.023789858 0.558608 1.1637465 -0.76398593 1.2070544 0.4143418 -0.5414855 0.0008895525 0.53626025 0.16399936 0.09176247 0.26538262 -0.14008445 -0.6344432
民 -0.8714041 0.23046455 -0.5401013 0.520627 0.49681288 -0.24353911 -0.29671764 -0.41446817 -0.30295533 -0.5379742 0.4285542 -0.62466806 -1.139283 0.55927426 -1.1462466 -0.31852463 -0.056940973 0.49297327 0.44889 0.049759667 -0.6885931 -0.19803633 0.14503682 0.21270046 0.17496061 0.118851356 0.5032251 0.28010213 0.12784666 0.10219198 0.2109736 0.3924134 1.2764242 0.05916972 -0.14025308 0.1897821 0.32629657 0.3465246 -0.6292558 0.63019323 1.097992 -0.5080617 -0.5826696 0.3369564 0.13523926 0.5032707 1.0100299 -0.23863983 0.5313061 0.3687355
小 0.2051192 0.45075506 0.16307974 0.66600513 0.031978954 -0.56259185 0.56445724 -0.10469386 -0.6652153 -0.29581955 -0.025342725 -0.27423304 -1.0320511 -0.668779 0.81536853 -0.7538967 -0.10354735 0.14498533 0.17357549 0.4190734 -0.4729861 -0.029062748 0.4786572 0.13539347 0.15653943 0.44653955 -0.18342553 0.032105055 0.5530481 -0.21523237 -0.6502599 -0.21002991 0.37037563 -0.30977076 -1.1651996 -0.2980855 -0.574343 0.26325864 0.15943734 -0.37711787 0.4564069 -0.9318574 0.2794951 0.43510863 0.7295258 -0.10723818 -0.47861412 1.4664668 -0.5774626 -0.5586925
天 -0.4427066 -0.43886015 -0.7374959 0.8381217 0.42886055 -1.2880965 -0.0558894 0.1704411 -0.0018215064 -0.0350079 0.000668427 -0.75959134 0.047267906 0.031148482 0.33396864 -0.36324483 0.18217914 0.9580564 -0.03546821 -0.34253204 0.16002919 -0.46105993 0.06389469 0.25835648 0.49708566 0.048628096 -0.7448701 0.5532556 0.27296248 0.22815879 -0.4746264 -0.9038321 0.8244729 -0.9835036 -0.7933098 -0.7096854 -0.15804137 -0.6221087 -0.45380756 -0.68850046 0.3310731 -0.34138307 0.48739615 0.042563636 0.0026814374 -1.1020721 -0.56708294 -0.53328526 0.9317267 -0.3100406
乐 0.54418623 -0.49884516 0.3693646 0.25946656 -0.704518 -0.54254204 -0.2813547 -0.6827698 0.1741536 0.24447523 -0.37138492 -0.39601007 0.23993331 -0.07823872 0.006532405 -0.29223838 0.24250497 -0.044856504 0.019525496 0.010865896 -0.24223857 -0.38849175 0.07374964 0.5222622 0.6415953 0.019626845 -0.08064676 0.83140874 0.06606843 0.9699313 0.17325297 0.28325495 0.14125876 0.58169484 0.19934165 0.28900132 0.36871478 -0.147978 -0.11796456 1.0666848 0.26242894 -0.987055 -0.725992 0.35545173 0.082047 -0.15376697 -1.1720996 0.78354883 0.25615922 -1.0156788
邦 -0.57890755 -0.17904252 0.3501926 0.9464761 -0.012317421 -0.40690914 0.71016395 -0.7188318 -0.015386218 -0.47117484 0.20753102 0.17910148 -0.7170757 0.094348095 0.16532241 0.21747904 0.39764345 0.98449576 -0.2986055 0.4783379 -0.5140943 -0.12893815 -0.7772074 0.47030228 0.6332574 0.21082793 -0.37704694 -1.0550722 -0.05835399 -0.53597236 -1.1652955 -0.64569724 0.14271532 -0.21532479 -0.9521233 -0.69953024 -0.20530784 -0.38281214 -0.97493297 0.2175502 -0.03978062 -0.35842386 0.13687864 -0.87868625 0.11615058 -0.5679815 -0.66499645 -0.47378087 0.9911475 0.27092993
亦 0.6916345 0.13932748 0.15534778 0.16111463 -0.024668328 -0.16414715 0.26823965 -0.12504664 -0.564456 -0.8269679 0.43047494 -0.37372133 -0.22933935 0.2527366 -0.47467092 -0.17059492 0.09736976 -0.11817458 -0.30409935 0.7188224 0.19904715 0.42583823 -0.07256491 -0.02607517 -0.7245149 0.14875498 0.30005208 -0.1918619 -0.68026054 -0.038643323 -0.42389673 -0.58299094 0.8299285 -1.1785177 -0.45211634 -0.78207886 0.74680597 1.2167505 -0.6521849 0.72154564 -0.0126744285 0.057014085 -0.3138674 -0.056304015 0.52383053 -0.91158134 0.373748 0.4084598 -0.49820313 -0.27455872
使 0.097630225 0.31211582 -0.16256396 0.48962703 -0.29689917 -0.858924 0.87573546 -0.65922254 0.73299944 -0.9366611 0.07719199 0.103655964 0.0626748 -0.08356583 0.019606322 -0.15639408 -0.07168628 0.22428934 0.6909017 -0.15961722 0.088552535 -0.1928135 -0.06438253 -0.046117473 0.014743946 0.4575359 1.0022703 -0.5048549 0.62532574 -0.24099283 -0.29968888 0.044180743 0.033232305 -0.11698849 -0.46564087 0.34222737 0.43784896 0.76718825 0.25462708 0.26085326 0.13088225 -0.6650791 -0.13473946 0.3211937 -0.59059924 0.36449462 -0.052356105 0.11891098 -0.30438623 0.3585805
大 -0.1046533 0.47378847 -0.62372327 1.030456 0.698179 0.017801845 -0.49439874 -0.6005262 1.1769428 -0.53983 0.2892421 0.61643153 -0.7596468 -0.06274554 0.39141387 0.8453417 -0.39834392 0.33223647 0.3278499 -0.42489544 -0.74981135 -0.95485604 -0.65611595 0.011298143 0.2906828 1.7526358 0.43796018 0.13146383 0.6451214 0.54764336 0.19219278 -0.0477488 -0.13309841 0.73326933 -0.5039439 0.37307253 0.9422522 0.12615398 0.3107813 0.62543225 0.1787239 -1.1815839 -0.327605 -0.42383593 1.1152226 -0.16203727 -0.35723382 -0.29173744 -0.30947885 0.10990126
下 0.9606974 0.24529631 -0.59305847 0.2042627 -0.9593733 -0.4807984 0.35751942 -0.36436725 -0.487371 0.32056415 0.22507802 0.5050432 -0.5088535 -0.15441391 -0.8812152 0.6818064 0.5246252 0.1020245 0.58229774 -0.0060702693 -0.03768671 0.31649855 0.5122397 -0.22254768 -0.3467153 0.04324383 -0.5313367 0.5269835 0.22977322 1.0654762 -0.12367879 -0.6992475 0.9395325 -0.014182049 0.6030298 0.44901899 0.15214948 -0.9968911 -0.055349845 0.078127846 0.20072708 -0.8520093 -0.043129615 -0.4097118 0.06726401 -0.71901065 0.027292518 -0.18035355 -0.7699573 0.3826089
贡 0.8123844 0.3672463 0.29186186 -0.12176356 -0.42843533 -0.19640084 0.5217672 0.22381052 -0.7764995 -0.78155893 -0.0024727425 -0.71516407 -0.3408606 1.1392564 0.58701265 0.5699724 -0.65853816 -0.019721558 2.5302548 0.20697916 -0.31903502 -0.701819 -0.09480118 0.7409827 -0.09732896 -0.29191104 -0.8031328 -1.796128 -0.19294104 0.30136 0.042400803 -2.9088354 -0.14571281 0.8739907 0.59134567 0.65082294 1.20172 0.58962274 1.38467 0.65817136 -0.35965514 0.088504665 -0.15337205 0.9074855 -0.6985407 -1.453244 -0.4585643 0.89513487 -0.5903404 -0.08134452
欲 -0.48973146 0.6741509 -0.63761073 -0.12595795 -0.5620965 -0.8365194 -0.1517302 -0.7938251 -0.18311796 0.03232991 -0.5294129 -0.021933433 0.13612853 -0.61259997 0.035352822 1.4266138 -0.039498717 -0.2128196 0.32692945 -0.19677268 -0.81707275 -0.49156958 0.18183155 0.36792853 -0.0970272 0.10255194 -0.13387197 -0.22457828 -0.9277169 -0.73973185 0.20831414 0.096361876 -0.44410974 0.18259189 0.6585831 0.64789695 -0.22848012 0.48265347 0.18610454 -0.42090335 0.44340506 -1.4554088 -0.71086484 -0.1013522 -0.38174176 0.3375106 0.76805717 0.3950272 -0.09892352 -0.728095
诸 -0.8392809 -0.9691726 -0.8577804 0.35855472 -0.3689667 0.46929398 -0.94680774 0.26849952 0.12684926 -0.6953359 -0.30114776 0.75717735 -0.1539958 0.5836665 -0.4653817 0.3794759 -0.013933879 -0.36917058 1.3231877 -0.44959745 -0.27390572 1.2831084 -0.706952 0.38946638 0.39347848 1.5043623 -0.061458275 -0.4313208 -0.21060428 -1.0037354 -0.6845513 -1.1630894 0.20545772 1.1107025 -0.96770144 0.19182388 -0.23895133 0.38558945 0.18621139 0.03165293 1.3269378 0.49447194 -0.79848605 0.43989807 -0.27017725 -0.6476199 -1.420192 -0.21647449 -0.2145085 -0.66527313
从 0.035127126 0.3583071 -0.27905202 0.59382933 1.1683357 0.75435495 1.3690686 -0.37212476 0.84075236 0.70297253 -0.83334655 -0.27459356 -0.9003093 0.37824276 0.23451395 0.101271085 -0.031012543 0.343673 1.0427859 -0.34059554 -0.5090625 -0.4863853 -0.14666595 0.028872708 0.49167576 0.645988 -0.42546958 0.15120406 -1.0003227 -0.6422463 0.40763572 -0.1709926 0.98046637 0.0932412 0.5026282 0.7850877 0.27960593 -0.623027 -0.48042318 -0.08443181 0.53678656 0.08538661 0.35808828 1.3381166 -0.034636967 -0.011093585 0.08878288 -0.03523475 0.5987577 0.49328753
文 0.1317082 0.24672003 -0.40651503 0.08113744 -0.6875496 -0.25508407 -0.28505042 0.14843117 -0.7466881 -0.33197713 0.69000304 -1.2355595 -0.08182078 0.8504626 -0.6183573 -0.04087165 0.0041339896 0.15285812 0.34778947 0.49195012 0.49905175 0.04337893 -0.64872116 1.3775467 -0.44268513 -1.1582541 -0.5024937 0.44893536 0.8179894 0.10799098 -0.60957116 -0.7076234 0.8099152 0.65079087 0.31439945 0.29113734 -0.123791 0.38008624 0.3455912 -0.014465124 -0.037788857 -0.15328929 -0.44992426 -0.0111810425 0.09112212 -0.116581865 -0.31967053 -0.6584967 0.14218204 0.9727582
政 0.8800109 -0.2673173 -0.26691127 0.21687698 -0.18656473 0.5141737 0.046924584 -0.791192 0.114725925 -0.08058223 0.3144833 -0.8380909 0.60564244 0.47250736 1.0700568 0.55157477 0.26065108 0.33794025 0.87831265 0.24334085 0.8227943 0.24485925 0.1394651 0.5578508 0.17137581 0.2762967 -1.03727 0.5517131 0.43940645 0.7323502 0.08719403 -0.34102198 1.0052004 -0.078152224 -0.38922644 0.12813711 -0.7472708 0.2090786 1.0885834 0.41686946 0.48362514 -0.7218709 -0.97423494 -0.019472005 -0.29009992 -0.06079796 -1.012504 -0.026688786 0.40259236 0.1165845
食 0.36088607 0.83401406 -0.35309637 1.3333131 -0.23789312 1.1150748 0.26774424 -0.9071399 0.61908716 -0.664635 -0.4259601 -0.77740663 -0.7671946 0.54699814 0.14135171 0.01972491 -0.72799057 0.24177979 0.7057471 -0.41246182 -0.3499921 -0.8829584 -0.099846795 0.20671858 -0.29820123 -0.3277215 -0.3907345 -0.79786354 -1.0812379 -0.54484344 0.40249762 -0.0077666934 -0.071255416 0.13214013 -0.47192693 0.18939228 -0.16403311 0.8685091 -0.9191466 -0.46728274 0.57166314 -1.3707361 -0.33533028 0.22853938 0.38494596 -0.08953628 0.0662375 0.7876705 0.31201473 0.6007801
善 0.69968706 0.572188 -0.3509914 -0.15404369 -1.2245737 0.10930889 0.074369244 0.2552406 -0.5989061 0.16039388 0.2420427 -0.2939347 -0.6193162 0.4340408 0.4411276 0.03967125 0.47341338 -0.0351999 1.5188038 -0.6728064 0.435038 -0.35736847 -0.42786604 0.15010668 0.094262674 0.93687147 -0.004538293 0.5952589 0.0052217334 0.22006637 -0.26935565 0.54319537 -0.037036203 0.39266577 -0.22639343 0.74036163 -0.41394633 -0.03163177 -0.51871973 0.47824624 -0.836169 -1.1006967 0.35960966 0.3715412 -0.15999083 0.11891908 -0.06702019 0.8235918 0.95102245 0.1340133
后 -0.28683126 -0.03528623 0.071628734 0.86567676 0.4521037 -0.6941191 -0.45855805 -0.9815983 0.7062546 -0.4861451 -0.021276811 -0.8359072 1.2352287 -0.2824211 0.84761053 -0.12852435 0.7099021 -0.09645859 -1.2079761 -0.16193478 0.024093084 -0.1975816 0.57271045 0.1341005 -0.3752153 0.6847166 -0.3093819 -0.51517683 0.29760915 0.37566584 0.11876676 -0.24365589 1.1408406 -0.22716878 -1.1770575 -0.1370102 0.16545929 -0.35903755 -0.91668415 0.7843092 -0.3439755 -0.57091665 -0.27811742 -0.6950241 0.50000507 -0.5866814 0.3829775 -0.58267605 -0.67534333 -1.0337399
德 0.7344976 -0.18508963 0.33129165 -0.08990257 1.2486295 0.6082385 0.13276845 -1.2202314 -0.41715565 -0.13489 -0.48318553 -0.24452806 -0.73969394 0.5751624 0.73867047 0.20430481 -0.18454456 1.1432517 0.3540729 -0.18068898 0.5797691 0.10805724 -0.7636187 -0.09726617 -0.9990154 0.81521463 0.02245388 0.78058314 -0.74407953 -0.041945416 0.7029375 0.27529687 -0.1581388 -0.89367634 0.2006848 -0.059761528 0.19758596 -0.59984976 1.0038881 0.55924207 1.3240491 -1.8329834 -0.5632637 0.7248399 -0.3203811 -0.77399343 -0.967792 -0.4797754 0.8676636 0.12753949
求 -0.19150662 -0.050871972 -0.4715712 1.3010533 -0.47573593 -0.1606759 0.1646145 -1.6447376 -0.36813238 0.025598975 0.41650397 -0.16567515 -0.52708733 0.41549608 0.29779288 -0.8060438 -0.07893996 0.5554374 -0.6246265 1.0924536 0.4609062 0.30536306 -0.077505104 0.1109954 -0.25772727 -0.2186231 -0.3735963 0.119793564 -0.37099105 -0.40723708 -0.7002291 -0.5100467 0.96367216 -1.0768901 0.34610632 0.18248112 0.3489892 0.4553935 -0.9699377 -0.39518294 -0.20587315 -0.4945783 -0.19092843 0.65046114 0.41110483 0.25595936 0.07159744 -0.04764727 -0.87913334 -0.091938116
对 0.19296035 -0.26856664 0.624199 0.4275591 0.17336413 -0.41528317 -0.31122065 -0.057820026 -0.001907391 -0.63790655 -0.42404398 -0.26745465 0.06814334 1.1365424 0.13566238 0.37368518 0.45568565 -0.02097265 0.72347707 -0.6991925 -0.26085615 -0.7714851 -0.02433874 0.28883195 0.15806967 -0.25154608 -1.0273715 0.15795203 -0.93091303 -1.95631 0.8194329 -1.3022863 -0.3889257 0.9718226 -0.14737526 -0.38751176 0.28925472 0.9481757 -0.73590225 0.43292496 -0.0012753052 0.27818382 0.04407415 0.98144484 0.41372755 -1.10305 0.7063813 0.4374625 0.020204352 0.09951608
恶 0.029446555 0.022345655 -1.1534265 0.94922614 -0.9851665 -0.79300255 0.3074638 -0.4498759 0.478363 0.40612108 -0.26845062 0.4054656 -0.25579527 -0.10498598 -0.14778799 0.014719182 0.18852249 -0.6306001 0.35125342 -0.3137205 -0.805612 -0.3960366 -0.25065503 0.07817635 -0.16960722 0.46691027 -0.23824051 0.31111008 0.24511878 0.31502253 -0.446801 -0.04259806 0.17239644 -0.5732337 -0.4218977 -0.13746952 -1.1070768 1.4253092 0.45283926 -0.21628287 1.2393317 -0.30960652 0.9536501 -0.4146092 -0.48818675 0.03946293 0.4770928 0.36450785 -0.066724844 -0.29454038
信 0.2535739 0.13098812 -0.28240898 0.068980105 0.19063863 -0.32617447 0.27534616 0.52364206 -0.19711095 -0.26830253 0.6029184 -0.96673584 -0.5590299 0.08162983 0.8909791 0.44276002 -0.18259864 0.46962512 0.111038074 0.56468475 0.19381239 -0.5667979 0.0781549 -0.76714224 -0.22063658 -0.012117549 -0.35123634 -1.3275582 0.81051844 0.67552584 -0.3223178 0.063419215 1.0587031 0.17153132 0.46889243 -0.7773247 0.08490427 0.5204997 -0.022764375 0.86980945 0.33102664 -0.27061668 -0.23285793 -0.088794805 -0.14935331 -0.36463323 -0.5277436 0.9106851 -0.06259265 -0.017320555
死 -0.10108197 -0.0004998341 -0.3952496 0.08991711 -0.6887204 0.22769704 0.29626337 0.31855395 0.087378696 -0.73180175 0.6583427 -0.57961774 0.056167915 0.20120423 0.99990857 -0.96290684 -0.31642354 -0.20749852 -0.7309729 -0.3954876 0.84503186 -0.19417533 0.7752807 0.24668276 0.8097521 0.2703056 -0.8771738 -0.0170391 0.46800187 -0.583504 -0.8694152 -0.07036587 0.6372692 -0.5165769 -0.5501843 0.51930183 -0.0579516 -0.43823788 -0.40729815 0.8468215 0.5939288 0.19271669 -0.4867054 0.15520275 -0.37843278 -0.21636781 -0.15755902 0.36348003 0.21714236 -0.43534333
然 0.5760389 0.0035268923 -0.39987326 0.17984279 -0.79723155 0.7940522 0.28277746 0.21578196 0.66452044 -0.198038 0.6559737 0.6697309 0.1399207 -0.032633502 0.7622579 -0.04641467 0.5854841 0.121917576 0.45405218 -0.5234264 -1.1534011 0.5441618 0.046747748 0.30181772 -1.331123 -0.20969306 -1.1360344 -0.73340064 0.3903092 -1.1434153 -0.7294173 0.13794115 0.47167984 0.42297602 -0.43003708 0.10461036 0.8190095 0.66625255 0.31388965 0.98416525 0.4077152 0.35713032 -1.3734521 0.04117389 0.08304392 -0.07768117 -0.0656809 -0.3667269 -0.27896222 -0.28742582
《 0.10117006 -0.6501457 -0.40011963 1.5037557 -0.5097954 -1.2285434 -0.06304787 -0.16405876 -0.07259012 0.048542857 1.0939678 0.03435013 0.7964067 0.51378816 -0.4507477 -0.98228705 -0.14099896 0.43687254 0.659768 -0.1685892 0.113683075 -0.04862166 -0.83588177 -0.3907616 0.6968276 -0.88632745 -0.28489134 -0.14049348 -0.28431812 -0.4308955 0.91257405 -0.89202523 0.059013974 1.1008447 0.30039006 1.277081 0.08971307 -0.09630339 -1.1656595 0.79168856 0.29999763 0.5528143 -0.6270769 -0.8699078 0.23654541 -1.237123 -1.6547472 -0.7164731 0.33178315 0.22507359
》 0.46162292 0.29136878 -0.46976537 0.70844907 -1.2616298 -1.0016392 1.0704906 -0.20603068 0.07261146 0.1723966 0.73896194 3.6487756e-05 0.047399197 0.71667963 -0.14863694 -0.78735083 -0.4218866 0.043672882 0.31519502 -0.3708964 0.49993932 -0.13455899 -0.38590962 0.970895 0.029267916 -0.34473097 0.25572214 -0.18856977 0.16057597 -0.20037019 0.43961614 -0.28085637 0.032043926 0.6506826 0.78798056 0.77777517 0.95775294 -0.76357406 -0.3797632 0.97697514 -1.0588762 -1.4551146 0.16883172 0.3956082 0.18988977 -1.4276755 -0.3040569 1.1601499 -0.265138 -1.174801
由 0.3498838 -0.38296288 -0.44670883 -0.2434487 -0.03425316 0.14120361 -0.48260146 -0.78357655 -1.0129758 -0.67883956 -0.5150558 0.46680486 -0.41801736 0.7403037 -0.560082 0.7128424 0.8616235 0.117201984 -0.58449566 -0.15693627 -0.13940279 -0.6157802 -0.21882589 0.5500466 -0.78710794 0.53215116 -0.56660503 0.9172837 -0.8513815 -0.7790365 -0.35703948 0.1167442 0.9958751 0.2854658 0.20057455 0.5573644 -0.86292416 -0.33491102 -0.73090136 0.5612588 -0.18269113 -0.8907692 -0.5288102 1.0374308 -0.2722211 -0.53794545 0.6784703 -0.5685655 -0.71084136 -0.1753862
仲 0.69554055 -0.12444621 -0.036454104 0.6154442 0.12809242 0.21388167 -0.38354152 -0.10855943 0.15092677 -0.5832768 0.06744824 -0.5264977 0.023046188 -0.23483333 0.40999135 0.95259726 0.69402456 0.011076504 -0.33819443 1.3980291 0.2940427 0.012612643 0.020571332 0.31047067 -0.3417967 -0.47746137 -0.92362314 0.060668424 0.6104334 -0.64414984 0.7954962 -0.2215859 -0.3680593 0.51805985 0.4275914 1.9045305 -0.27102295 -0.42255068 -0.40712878 0.08462284 0.17141598 -1.3409176 -0.573675 0.04410496 -0.9041077 -0.8891018 0.4985659 -0.28972316 0.15063627 -0.2953541
非 -0.71474344 -0.21895295 -0.5726939 0.6609949 -0.6319265 -0.4842744 -0.5173168 0.36067894 -0.12826276 -0.11074925 0.071724355 -0.50291073 -0.030263243 -0.6568243 0.19585043 -0.63557935 -0.29351184 0.21473935 0.60955775 -0.3234113 0.21070383 1.2891428 -1.5838922 0.7938171 -0.83770776 0.377997 -0.42898425 0.33529425 -0.11596857 -0.12892699 -0.3589753 0.046041764 0.33944947 0.5772521 0.31370765 1.0322764 0.5983225 -0.05338452 -0.49294448 -0.18014817 0.32403207 -0.054004695 -0.31871885 0.07971021 0.091524296 -0.34724578 0.020422595 0.37337103 0.35543013 -0.6518821
出 0.114043646 0.07970738 -1.0926757 0.83469355 0.4509187 0.39495474 0.20768014 0.56508654 -0.19013055 0.5387988 -0.089563474 -0.5249546 -0.018425995 0.34767142 -0.82828724 -0.38415614 -0.34590763 -0.663309 0.17638446 -0.49632767 -0.1542123 -0.2573188 0.026201462 0.4406519 -0.29684958 0.29078835 -1.0113528 -0.57278043 0.5748209 -0.8922239 0.70223063 0.010148326 0.65339833 0.86170816 -0.42466128 0.64101636 -0.03275671 0.40974635 0.21777786 -0.3467991 0.46097845 0.4964194 -1.2997061 0.8597998 -0.6146739 -0.29587394 0.69726026 0.7863736 0.15177386 -0.20639312
过 0.013666746 0.3414501 -0.84715873 0.20183805 0.41148722 0.24185903 -0.7222817 0.476283 -0.024065172 0.5971314 -0.6230164 0.0062934263 0.16484298 0.11931864 -0.09355557 0.33724383 1.0981935 0.5590155 0.53714514 -0.07452038 1.3876262 -0.0006965421 -0.05287452 0.7112366 -0.3249846 -0.12748358 -0.9481066 0.87255377 0.74638885 0.30696276 -0.069790035 -0.39300367 0.8827133 1.0036824 -0.34132555 0.83196104 -0.07140881 1.0223022 0.32962683 0.95776147 0.6277343 0.79206556 0.28659934 -0.30969885 0.7978831 -0.4046413 -0.4138252 -0.56364495 0.26022717 -1.1512594
一 -0.5011663 0.37137902 0.1365588 0.12941469 0.55336106 -0.74442947 -0.62948376 0.730758 0.24522851 0.5099698 0.64984095 -1.4317853 0.23892051 0.7506559 -0.5506708 0.35259596 0.31487358 -0.33521867 0.70999783 0.17819388 0.13305888 -0.51141286 -0.15259899 -0.41273865 0.5091617 0.4884119 0.57520217 -0.40534467 1.0164251 0.14840175 -0.29954425 -0.26018405 0.46934748 -0.36675805 0.54836583 0.485168 -0.33694947 0.6339261 -0.5107814 0.5959803 0.23414822 -0.50139934 -0.22258435 -0.934785 -0.11806131 -0.35065168 -1.1320734 0.5564202 -0.42569652 0.34616342
虽 0.33030626 0.72523576 -0.10530924 -0.0072038327 0.17700577 -0.5632043 0.82938546 -1.1097289 0.5992524 -0.44285327 -0.6436017 0.8656613 -1.0540104 -0.4707972 -1.0412573 -0.6803926 0.21927334 0.6494345 -0.41761336 0.87351507 -1.1376975 -1.2164798 -0.74059594 -0.34120655 -0.67329293 0.23124743 0.09692538 -0.51862246 -1.0899625 0.7100843 -0.11687205 -0.88755 0.8740864 0.6033998 -0.6022481 0.8353492 -0.32668483 0.57829684 0.3259328 0.54245794 -0.68525803 0.093218945 -0.23717558 0.26867038 0.35666627 -0.6323027 0.39812323 0.48671114 0.31314644 0.24146433
足 0.2372216 0.0053209094 0.12682326 -0.13154489 -1.3686613 -0.3486328 -0.7935568 0.2731194 -0.5004088 1.0120208 0.27263096 -0.33147937 -0.4604751 -0.025575545 0.77963066 -0.085592195 1.4079317 -0.4176286 1.7578725 -0.13176967 -0.20069212 -0.01574823 -0.37408292 -0.46944186 0.3704381 -0.37299055 -0.09200564 0.5774472 -0.8948014 -0.48366386 0.76038307 0.27443287 0.54108447 -0.9929381 -0.43558004 0.69895256 0.53789455 0.9224494 -0.8172336 1.2850491 1.6135578 -0.35920608 -0.22532776 0.61305934 -0.5887853 -0.66558415 -0.26545462 -0.7752935 -1.0004914 -0.22951315
居 -0.6428226 1.2908432 -0.7235176 0.1199195 0.49634215 0.502647 0.17741196 -0.5601395 -0.037650008 0.18058509 0.2457695 -0.8426051 -0.5989374 0.8039327 -0.21008354 -0.6783074 -0.3124431 0.10573592 0.32597452 0.14521442 -0.29347965 -0.22752422 -0.5524468 0.0853651 0.38027218 -0.7742298 -0.35920584 0.0727677 -0.6117653 -0.41792718 -0.07952418 0.034485847 0.6162842 0.15130988 1.4556633 0.57186586 -0.7271643 -0.41043696 -0.23385635 0.6461776 0.50210077 -0.83549863 -1.1726733 -0.19779299 0.23747942 0.3022314 -1.1111069 0.4043486 0.6361667 0.5617922
尔 0.3853339 -0.18410707 -1.5452018 0.47796744 0.008357332 -0.21385545 0.68480694 0.91179913 -0.19770762 0.09560933 0.13444342 -0.9201221 -0.017593822 -0.26054347 0.65698445 0.058109496 0.93995696 -0.025599435 0.34450608 0.6604874 0.55619305 0.32344836 0.346856 -1.5433573 -0.009162404 0.79557276 -0.017038774 -0.74616206 0.26082966 1.474459 -0.33544397 -0.6982425 1.1121938 0.09524609 -0.08640086 -0.22235191 0.84271765 -0.18375158 1.1292571 -0.040330805 0.618924 0.6038802 0.22442019 0.68442297 -0.1451175 -1.2540069 0.07093177 -0.40370393 0.3942351 -0.6761092
夏 1.2824488 -0.24854103 0.06511753 0.08998399 0.63070107 -0.3573194 1.2440612 -0.3598085 -0.8783856 -0.88094014 0.10905677 -1.3878657 -0.025629198 0.2636588 0.71682847 0.5964132 -0.42365208 -0.6302636 0.72313434 0.7687025 1.0995442 0.27382648 0.1417735 1.1724901 -0.9075145 -0.84148675 -0.80977994 -1.1560203 0.36740908 0.38972664 0.23052354 -1.5324479 -0.22935341 0.5229517 0.34737727 0.21704918 -0.33488637 -0.15256679 0.4758945 -0.8098945 -0.46146065 -0.9334527 -0.78030586 0.030829394 0.60595894 -0.53591937 -1.348423 -0.15812853 -0.16894487 1.02987
父 1.3364516 0.09331334 -0.3243389 0.5865107 0.85563236 -0.2487465 0.48983026 -0.08639526 -0.6452643 -0.2084288 -1.039568 -0.46772486 -1.0750008 -0.63940537 -0.01930507 -0.14148267 0.25536615 0.8857814 -0.26481873 1.0202659 -0.64565754 -1.2027577 0.9234152 1.7949016 -0.19360206 0.19710925 -0.8597627 -0.24970762 -0.48182443 -0.22763962 0.24943912 0.6008935 0.95511824 0.55889523 0.13126278 0.17346433 -0.3117723 -0.058939196 -0.09384877 -0.14187753 1.1885964 -0.609382 -0.2512298 0.6416465 -0.19505097 -0.1614346 -1.0075173 -1.1782027 -0.16530949 -0.8848675
及 -0.06080193 -0.06188694 0.33921063 0.1706595 -0.14849876 -0.029889919 -0.022975098 0.4839502 -0.38898113 -0.71652603 0.01574669 -0.34802297 0.33007807 0.34339902 0.13644047 0.52891743 0.6565012 1.2548437 -1.2794372 0.74800473 0.38155216 -0.77646613 0.703165 0.42260724 0.00855339 0.3841947 0.42263225 0.5213486 -0.40728113 -0.6465236 0.12841462 -0.35633937 1.0422769 0.5842752 -0.5584749 1.1112448 -0.1538394 1.4020438 -0.49007645 0.8385904 0.3856028 -0.2054747 0.88211954 -0.9855793 -0.16324508 -0.087400675 -0.5761433 0.626354 -0.10269959 -0.25551802
己 0.21517791 -0.3218206 -0.15151983 0.606699 -0.67558116 -0.6795215 -0.3548177 0.819359 0.21586037 0.30047053 0.40379968 -0.9918933 -0.4487987 -0.6438417 -0.548535 -0.35156274 0.5039347 1.8043556 0.37178183 0.3253603 0.6034586 0.9938507 -0.47308266 0.07876737 -0.78498316 1.1190442 -0.45493397 -0.07912529 -1.0231813 -0.097141586 0.683344 0.5044634 1.0538279 -0.26951262 0.7506931 -0.36363038 -0.1425554 0.34023535 -0.1277209 -0.12061126 1.4792458 -1.1357688 0.59674996 0.12479268 0.17161627 -0.20889159 0.087374866 -0.5743745 0.104303814 0.11249869
予 -0.69762176 0.02154441 -0.20968316 0.050638076 -0.68418366 -0.35642818 1.2723545 0.5987646 0.26614553 -0.6918708 -0.69467026 0.0012396274 -1.3242148 0.33375853 -0.28171527 -0.13948242 -0.25408733 -0.23688507 0.13836576 0.7503504 -0.40338033 -0.073470116 -0.30111337 0.060465496 -0.057192136 -0.30669618 -0.37207034 0.7986602 0.05007289 0.12201145 0.73138064 -0.47458085 0.53461134 0.7318702 -0.8448189 0.43502662 -0.0046193497 -0.326575 -0.94323266 0.9030379 1.1735463 -0.53436196 -0.30776688 0.8505861 -0.7971672 0.40060276 -0.04702172 -1.7386258 -0.063440755 0.8174208
色 0.003014664 0.21217397 -0.07771147 0.21801858 0.34771475 -0.29152024 -0.065726645 0.47446686 0.47665748 0.008405878 0.014593538 0.4673115 -0.94792473 -0.24505602 -1.0230047 0.3335981 0.3545272 0.5687826 0.07549395 0.2043188 -1.2631211 -0.568488 -0.07715681 -0.9842789 -0.20855822 -0.34042254 -0.6328336 -0.8755515 0.57068807 0.4695653 0.43919542 -0.11864616 0.19760461 0.8009076 -0.22442245 0.97263026 0.11915487 -0.3572794 -0.07724951 0.046972577 0.17019163 0.33755112 -1.0919145 0.7262531 -0.43710262 -0.31864244 -0.24894044 0.6357806 -0.4442106 -0.08990199
友 1.0734543 0.034382798 -0.31407773 0.752741 0.012384194 0.5662534 -0.38879967 -0.4093776 -0.15573828 0.60586065 0.68429244 -1.0934728 0.16131325 -0.32004312 0.95303416 0.70184803 -0.34615475 -0.19712433 1.0753644 -0.5428507 -0.28015634 -0.46671873 0.49077278 -0.44191298 1.3294405 0.47097588 -0.30311894 0.093036644 -0.34743395 -1.5684775 -0.503067 -0.25273496 1.1280774 -0.28645766 0.809357 0.5898522 0.23539059 -0.34705865 -0.40551865 1.1170325 0.013666091 0.13102658 1.1705729 -0.55819666 -0.50716925 -1.101421 0.68592215 -0.16876327 0.39977828 -0.6572966
成 0.4371167 -0.11380319 -0.91855747 -1.4929246 -0.02419104 0.09547064 1.5499849 -0.499255 -0.43411422 0.10982441 0.5737874 -0.13067034 -1.0257508 0.69661534 -0.37629634 0.22547211 1.7124579 0.86720604 0.11478553 1.1748911 0.3692721 0.028159553 -0.08434237 0.6931566 0.40248257 -0.109714165 -0.7741521 -0.109233774 -0.25573128 0.76898444 -0.63364863 -0.24022049 0.65523404 -0.7553071 -0.8526226 -0.35092708 -0.9310684 0.007287671 0.24230216 0.49256426 -0.5370992 -0.8542023 0.32068622 1.2704501 0.4888298 0.10239743 0.5910084 0.914881 -0.2217963 -0.35770118
远 0.28715357 0.5095322 0.60878146 0.8846334 0.74128175 -0.21778788 0.10682409 0.8690287 -0.17527437 0.5242498 0.54216796 0.11537173 -0.5974784 -0.21622711 0.3646985 1.1407486 -0.20571874 0.4875904 0.3569381 -0.43712375 0.16428603 0.35825318 -0.7290139 -0.42324775 -0.6082058 -0.10556487 -0.2615812 0.4192049 0.57757163 -0.19576094 -0.43593428 -0.4660844 1.0303972 -0.3974297 -0.6517914 0.8516989 -0.85863984 0.38283676 -0.5494686 1.41231 -0.22725616 0.42187747 0.3701517 0.07292472 -1.0509052 0.73369384 0.09691381 0.6660972 0.51556206 -0.3194975
上 -0.18841031 -1.0474045 -1.7787993 0.33835092 0.07939723 0.080263086 0.003119279 0.5426645 -0.6354391 0.13282357 0.35203084 -0.040888242 -0.5617242 1.8092462 0.5646677 -0.0025088503 0.34473515 0.88462293 -0.08070667 0.60245425 -0.7482903 -0.5542967 0.38997194 0.5638037 -1.1909189 -0.19554758 -1.0804038 -0.02578742 0.060772486 1.5138743 0.48527348 -0.19582945 -0.03742925 -0.28149438 -0.96621466 -0.4383114 0.28668082 -0.64118505 0.0010219256 -0.27126944 -0.20642789 -1.3019104 0.1753655 0.88581544 0.86235166 -0.18639491 0.43737203 -0.80392855 0.87891847 -0.53387535
立 -0.0636493 -0.60932195 -0.045064732 -0.008444718 -0.62853956 -0.87224543 0.24410507 0.7088728 -0.025449809 -0.76749885 -0.10360428 -0.55481875 -0.88927746 0.11290926 -0.8090326 0.1571436 0.8020614 1.0972811 0.66483384 -0.28343618 -0.18384841 -1.2827206 -0.2943472 0.052626457 -0.37152177 0.050759602 -0.3716707 -0.05608497 -0.31599283 0.58323276 -0.6350266 0.71881056 0.912812 -0.51801074 -0.18236957 1.0636512 0.6200245 1.0632764 -0.20588155 0.767925 0.3184117 -0.6982947 -0.15329666 0.7618549 0.03053697 0.38008785 0.5220607 0.12017182 -0.4528819 1.0241954
今 0.49971122 -0.75943905 -0.48489624 1.1552441 0.42731088 -0.2974577 0.2564335 -1.1678734 -0.22729541 -0.085408516 -0.08491887 -0.4727834 -0.94956625 -0.63628507 -0.5813298 0.03295673 0.60008335 -0.35595465 -0.55646753 -0.36835292 -1.2070323 -0.20571281 -0.8305473 -0.37252858 -0.3550376 0.28556213 -1.5984151 0.5417918 -0.23140156 -0.75652444 -0.35886115 -0.11582341 0.34973198 -0.22548719 -0.68833166 0.22740589 0.273172 0.44037738 0.39388597 -0.19246396 0.4415689 -1.0496509 0.16323818 0.7910895 0.25448838 0.06595824 0.6803036 -0.48720503 1.2860252 0.2739359
张 -0.23759829 -0.06614385 0.4795701 -0.18149206 -0.75382787 -0.7532268 0.35490596 -0.07377675 -0.333196 0.07804742 0.5013852 -0.74799335 -0.73463017 -0.11834866 0.695185 0.54344255 0.75439924 0.3427333 0.9948387 -0.93948513 0.25717998 -0.26630497 -0.55437183 1.5001205 -0.7212228 -0.94120985 -0.19505748 -0.4234828 0.15657558 0.4361305 -0.89812815 -1.9500773 -1.0115215 0.26225576 0.47525844 0.3819198 1.7620641 0.055431265 -0.34985816 -0.022224946 0.27360734 0.13998728 -1.0801446 1.201345 0.5722554 -1.4286942 -0.008853113 -0.29302153 0.8155006 -0.652118
中 0.075064436 -0.49216563 -0.442265 -0.11560503 0.8196114 0.70715225 -0.592687 0.21732375 -0.1440652 -0.060855623 0.90839916 -0.5301229 -1.1391596 0.516954 0.92785543 0.5159022 0.9121252 -0.1344779 -0.086061746 0.13804823 -0.11018843 -0.69220555 0.09108405 0.16696063 -0.016118787 0.42778867 0.021705236 -0.10126208 0.24092649 -0.059391964 -0.41133124 -0.18950132 0.8071732 0.27710244 -0.4472025 1.4081215 -0.5400298 0.4697647 -0.2183123 -0.414104 0.8028494 -0.45395395 -0.7732484 -0.7520634 0.39266247 -0.07413659 -1.8032472 0.71066475 1.216877 1.388063
季 -0.3932599 -0.6267458 -0.45012745 0.20002158 -0.12715194 -0.38279024 0.7261148 0.35141957 0.45062482 -0.81897646 0.85975325 -0.50938547 0.4903481 0.49333206 0.050233085 0.37271646 -0.2681564 1.2947131 0.879427 0.068226874 0.12272296 0.020323336 0.9430243 -0.4129001 0.7744463 -0.39365175 -0.3293806 0.19416977 -0.3469106 -1.2825722 -0.32632497 -0.88164103 -0.087216526 -0.63442713 -0.058101524 0.5043898 1.1735532 0.46772733 -0.37768567 0.8484448 -0.021463323 -0.11271814 -0.42064843 1.5373362 -0.0979605 -1.3684237 -0.49234897 -0.025037467 0.24715897 -0.0234449
臣 -0.086583 0.19632536 -1.6648687 0.50066966 -0.016053965 -0.8343291 0.8135081 -0.9966449 0.55185527 -0.5959237 -1.2034695 0.3129165 -0.040595982 2.1666589 -0.13645029 0.272624 0.07549222 0.87255275 -0.53499436 -0.4134545 0.8360026 -0.72777665 0.8502473 0.49160552 0.35288104 1.1718296 0.28397754 -0.18446556 -0.06133539 1.5231026 0.4693116 0.3007497 0.18377757 -1.3081813 0.21115823 0.6088991 0.21657987 0.508658 -0.43145263 0.62299585 0.1249522 -0.9626032 0.11155981 0.36107042 -0.4963174 -0.18043977 0.26200715 -0.48709777 1.0452527 0.0055130306
贤 -0.6169986 -0.022209752 -0.0023948506 0.9970671 0.07785515 0.056805253 -0.32865757 0.38201812 -0.052973192 -0.6865166 -1.2072845 -0.6231553 -0.32648385 -0.265378 -0.049194343 0.5026759 -0.09430867 0.8361767 -0.30360878 -0.34294906 0.55015326 -0.7440129 1.2485048 -1.5339892 -0.24609677 0.5968852 -0.8181137 0.5026248 -0.27668542 0.473182 -0.49717337 -0.1061321 0.32924178 0.7899239 -0.44701982 -0.009094752 0.47920597 -0.4244419 -0.33793423 1.5930328 0.08259588 0.025324874 0.39160302 0.7547967 -0.07272742 -0.70310766 -0.094477594 0.09774096 0.6871151 0.24349402
思 -0.29341203 1.0467008 -0.003382459 0.26522902 0.09942345 -0.059652723 0.70842 -0.031646732 0.19222233 -0.7001474 0.9829777 -0.34510958 -0.47445285 -0.20186052 0.81507933 -1.0884004 0.322726 0.84205854 0.7617375 0.0769392 0.43571582 -0.38682032 0.25868216 0.5380274 -1.1431236 -0.60517097 -0.2699375 -0.60705376 0.32623687 1.0958698 0.7946098 -0.12806211 0.14753419 -0.3370498 0.4598835 -0.51272017 -0.9413103 1.0590336 -0.63422215 1.1057936 0.9903574 0.5637012 0.7139952 -1.5504199 0.050070506 0.011468109 -1.6573294 0.09679159 1.2332858 -0.75609154
齐 -0.5584228 -1.0787715 -0.84464836 1.6797429 -0.42188695 -0.45132306 0.46821582 0.36413586 0.63436127 0.018140389 -0.88903856 0.10425289 -0.8297872 0.22843362 0.23657249 -1.4408305 -0.0956736 -0.08888248 -0.3931198 -0.12802015 -0.25158924 0.2736404 0.59111434 0.42822453 0.45461607 0.52662927 0.035069205 -0.071411796 -0.21776982 0.8400894 -0.72744644 -0.20382571 -0.8126164 0.56214476 0.022276241 -0.17986819 0.4337487 -0.2608368 -0.12281785 0.95140433 0.77689236 -1.3180779 0.026712459 0.6015789 -0.8346454 -0.32084066 -0.5302132 -0.29778925 0.3917108 0.6793548
义 0.28521284 -0.78526247 -0.09849792 0.24916214 -0.69388145 0.10344394 0.3599116 -0.87460434 -0.124381326 0.7602117 -0.7599384 -0.48760086 -0.30722898 -0.09668841 -0.074015215 0.05846556 -0.13426664 1.2590768 0.5634263 1.2760508 0.28158638 0.81547004 -0.36981678 -0.33139166 0.3833233 0.3000169 -1.7360675 -0.26970062 -0.65609896 -0.72527885 -0.22271585 0.03197668 0.8780622 0.5260377 0.109701425 0.03702207 0.4385307 0.5358524 -0.98528814 -1.0698256 0.3785985 -0.835298 0.38259187 -0.46155292 0.024218343 -0.4291758 -0.53157634 0.50211406 0.17652023 -0.0076949783
正 1.693794 -1.759292 0.019833248 0.27434045 -0.8058168 -0.9561842 0.3926034 -0.29610866 0.23832348 -0.20786604 -0.5750943 -0.5972022 -0.04455581 0.19405876 -0.9043511 0.2252313 0.8229813 0.43497035 -0.1552212 0.58789647 -0.7589518 0.024310626 -0.16622569 0.025577523 -0.2856609 1.6555625 -0.5086339 -1.5655375 -0.275621 -1.7267399 -1.2457031 0.28875324 0.21902001 0.55249316 0.18126017 -0.04008179 1.0195225 1.0412676 -0.20601715 -0.25941518 0.44709617 -0.0014530873 -1.031601 -0.32378206 0.14191426 0.22458111 -0.6930548 0.4027877 0.57511 0.71623945
命 2.2265763 0.3288511 -0.0480098 0.45419225 0.3346428 0.12355329 0.290345 0.053090718 -0.45571798 0.26879805 -0.93221545 0.46557274 0.40410012 0.331939 -0.22075593 0.4692421 0.35660568 0.26349315 -0.19525898 -0.9917532 -0.23623876 0.9812654 -0.022511333 0.0843731 -0.29571813 0.38562664 -0.4711255 0.63498634 0.514477 0.47797647 1.3563718 -0.60757154 1.4380672 -0.15010993 -0.16478144 -0.70830363 0.32479343 0.11283552 -0.48916504 0.72828215 0.0998639 -0.7483383 1.1571622 0.6800424 -0.4637838 -0.5466286 -0.49719274 -0.422963 0.77178174 -0.06828049
曾 0.66887414 0.7475807 -0.1586525 0.90901905 0.21918452 -0.8403511 -0.44999737 -0.3145379 0.24087651 -0.44380113 0.7980589 -0.14576657 0.110594906 0.94365203 -0.8273649 0.5928013 -0.19108942 -0.17113943 0.9452463 0.18265085 0.5490764 0.7413556 1.137964 1.3183649 0.183161 -0.7202233 -0.6672558 0.7151687 0.36289638 -0.3825064 0.33537126 -1.6208676 0.031688243 -0.8234303 0.28326276 1.3926895 1.1719283 0.48213026 1.1391026 -0.1370705 -0.7992781 -1.6603752 -0.13542023 0.5122477 -0.70410794 -0.95835966 -0.7510909 -0.14138147 0.27335984 0.46149397
伯 0.7036226 -0.017006034 -1.6725159 0.12098482 0.67778116 -1.3351266 0.28911477 -0.33682206 -0.13823737 -1.0597388 1.5597655 -0.32647756 0.7622051 -0.50138897 -0.5352766 0.46172032 -0.27773076 -0.33015847 0.006360996 -0.1410013 0.47021255 0.6301241 0.2498246 0.5086688 -0.8472934 -0.2612553 -1.0623317 -0.5592653 0.6264886 -0.10263118 0.48158324 -0.15949623 -0.16945812 -1.0957667 0.26961982 0.9928123 0.33080757 -0.54739845 0.23847991 0.61105907 -0.09480981 -0.8159406 0.15984246 1.7515997 -0.55177325 -1.2022516 -1.0029801 0.40670595 -0.72306156 0.67672634
门 0.024083942 -0.28476676 -0.48123327 0.80206376 0.8748159 0.49536133 1.0222613 0.6319522 0.50760305 -0.52718264 -0.40106237 0.7012634 0.18839239 0.039725736 0.4182996 1.0254805 1.0340599 0.94935095 0.8172685 -0.5505592 -0.9785559 -0.0538287 -0.48423564 0.91902024 0.7840951 0.2819575 -0.47558925 -0.9346912 -0.001311342 -0.7913625 -0.0065787374 -0.4650748 -0.3495557 0.15055308 -0.96706194 -1.0954541 -0.8195571 -0.2348569 -0.29633442 0.6144982 0.56769574 -1.9815866 -0.42391503 0.9596125 -0.039601386 0.014219226 0.60628605 0.31893224 0.42392436 0.15142548
敢 0.45222002 1.7152472 0.04576961 0.55761486 -0.91520303 -0.31456304 -0.7186419 -0.8521924 0.33388242 -0.35913253 -0.61653876 -0.45700666 -0.622449 1.7985537 -0.053400427 0.69082576 0.018343747 -0.16914873 -0.53148353 -0.07658413 0.8698464 -0.95237297 -0.29478687 -0.23140767 -0.7919632 1.1576223 -0.6269242 -0.5407905 0.39481854 -1.057479 -0.009534947 -0.24703568 0.4251651 -0.7420368 0.21022135 -0.3270165 1.5536995 -0.45756438 -1.3330038 0.30981797 0.07264304 0.27576318 -0.43027747 0.7717497 -0.5721044 -1.4097407 0.60829675 -0.6660435 -0.1851071 -0.44084704
犹 -0.6324637 -0.78164935 0.3044347 -0.089391574 -0.0046364013 0.4111607 -0.17131819 0.33599782 -0.4083258 -0.8467766 0.3410229 -0.4284758 -0.23605752 -0.14056215 0.6741385 -0.73900074 0.716262 0.18420272 0.73545235 1.0313073 -0.9630104 -0.45364022 -0.5868624 0.999076 -1.5042462 0.95895183 0.060641363 -0.14733273 0.32080367 -1.2858639 -0.6702231 -0.19087993 0.1209169 0.645131 0.1879958 0.45041275 -0.6700449 -0.35251844 1.0662615 -0.41898543 0.19311054 -1.2709777 1.3180695 -0.955508 -0.46937257 -0.92524326 1.1546142 0.8845451 -0.25435126 -0.17084713
生 0.67136216 -0.059030328 -0.47693822 0.3384671 0.09065888 -0.1969001 0.23891465 -0.23797813 -0.4114915 0.27302566 -0.042949878 -0.5765294 1.7584591 0.32687476 -0.23050682 -0.49487832 -0.4507612 -0.6764022 -0.113572285 0.21351247 0.22336592 0.813369 -0.021832313 -0.09646306 -0.66150963 0.60980517 -1.0981274 0.22252779 0.5632194 -0.3496276 -0.36662546 -0.10694665 0.39304116 0.13772383 0.07569194 1.264848 0.2570285 0.42703 -1.0549507 -0.56292737 0.72348326 -0.48719856 0.2587561 -0.36091912 0.22301996 -0.38328075 0.46754 0.36097562 0.59312385 -0.52710533
日 -1.0079343 0.6422476 0.54380065 1.1037345 -0.9235818 -0.08899441 0.21536538 -0.805427 0.8636106 -0.13576815 -0.76012874 0.02073382 0.2414451 -0.10513867 -0.46984592 0.9634141 -0.26797998 -0.12970296 -0.5835812 0.87644565 -0.108255945 -0.32956985 -0.21483965 0.2693358 0.39121455 0.7225517 -0.8673131 -1.2718657 -0.9275073 0.18512538 0.9747359 -0.47344112 1.0936905 -0.73425764 0.96589214 0.3233241 0.05988217 0.15830377 0.44983193 0.9122316 0.378113 -0.33693695 0.3220586 -0.6410869 -1.0191554 0.36103332 -0.40054277 -0.6759705 1.8700646 0.111397155
敬 1.3810523 -0.8045944 0.3176738 0.57178277 0.065288015 0.6269682 0.9182814 -1.1355773 -0.91286254 0.41599026 0.8713512 -0.92208767 -0.50236464 -0.48995924 0.29832327 -0.032832313 0.31012225 0.68921864 0.9255341 1.1943612 -1.2571824 -1.1103557 0.7304219 0.7432815 -0.77382624 -0.31878015 -0.034813404 0.63160187 -0.62989897 -0.81687737 -0.08542246 0.07545275 0.6180048 -0.0030513245 -0.14382991 0.71873045 -0.011497282 0.61789376 -0.5500927 0.6970395 1.2281188 -0.27946103 -0.40433133 0.6633069 1.0257813 -0.1679854 -0.87603116 0.6106116 1.305312 0.1610687
难 0.16163142 1.4329171 -0.1126846 0.6456089 0.14139208 0.61503655 1.4006376 0.5789951 -0.08178739 0.08896178 0.8972704 1.2052137 0.20809564 0.013672399 -0.44071046 -1.3844005 1.0953445 0.40615192 -0.9244332 -0.86515677 -0.64693636 -0.81702393 -0.41461024 0.933007 -0.67228997 -0.025687607 -0.17606907 0.2568153 1.066368 0.48360336 -0.5051837 -0.24312527 1.030578 0.5453744 -0.09102281 -0.117844015 0.4368011 -1.2877525 -0.058754466 0.44905135 -0.002734907 -0.6312961 -0.29617843 0.828066 -0.6462319 -0.12005125 0.48897484 0.10817166 -0.13578644 -1.1899776
直 0.7075638 -0.14709829 -0.67117214 1.5347884 -0.15750362 0.9904962 -0.16907945 0.6300915 -0.89764935 -0.2379103 1.4428716 -0.38995123 -0.026873896 0.21422118 0.1687005 -0.09531875 -0.09276968 1.4594823 0.8183048 -0.8775867 -0.37100255 0.6931605 -0.914557 -0.66844875 0.5884134 -0.1817126 -0.4926435 0.21381085 0.5680025 1.5324711 -0.63264877 0.4104149 1.4709474 0.12495894 -0.8129079 0.028421964 -1.0097642 1.0752592 -1.4187808 -0.21363148 0.4259626 -0.0073141865 -0.19651696 0.46933588 -0.67904943 -1.1300085 0.24772654 -0.15168092 -0.23182967 -0.112578705
丧 -1.1036394 -0.05331235 -0.5269836 0.4138864 -0.5899363 -0.03356794 0.62868285 -0.038800932 -0.43867177 0.39547396 0.78018636 0.0179415 0.71491396 -0.4401637 -0.64168274 1.038254 0.9241484 0.04843142 0.022042776 -0.20730403 -0.27352858 -0.67815065 0.86464477 0.9877234 0.12420737 0.11104539 -2.040493 0.5621275 -0.18650165 -0.08446772 -0.48519087 0.48219153 -0.15020528 -0.11354155 -0.040143132 0.07026583 -1.0160241 -0.6736115 -1.0116665 0.954629 1.0387752 0.5040712 0.6903973 -0.27941874 -0.0017276444 -0.8826711 -0.27571964 0.32323945 1.109434 -0.900121
说 -0.22404744 0.25502875 0.53300583 1.0242827 0.036158346 -0.53443533 0.23040625 -1.4864957 0.71340585 0.16486132 -0.5792415 0.75920975 0.29018682 -0.13059054 -0.16348171 0.5944173 0.2365578 1.2669916 0.50736284 -0.54539526 0.08172223 0.3171346 0.927626 -0.5657817 -0.26363075 0.17050189 -0.62140816 0.9007807 -0.04785096 0.7498119 -1.1719974 -0.25698215 0.882206 -0.15793473 -0.013015218 -0.5760134 -1.5370839 0.7083398 0.16708387 0.9054605 1.0444202 -0.5072794 -1.3451737 0.09025468 -2.1437676 0.3721447 -0.26474097 1.6706653 0.578778 1.0533552
自 -0.42821223 0.26523063 0.26442525 -0.38845158 0.3304218 -0.1587244 -0.37322038 0.12477369 0.08581913 -0.030541508 0.033033345 -0.017134462 -0.74594694 0.70438695 0.039106064 1.1467853 0.54193765 -0.5515869 1.4702259 1.0619085 -0.88467705 0.7668299 0.045034807 0.06813887 0.2398058 -0.9531249 -0.5732734 0.07716175 -0.7154597 -0.5498811 -1.5916289 -0.7651389 0.78483295 -1.1846396 -0.20906171 0.26619446 0.34731102 0.61530316 -0.28264102 -0.12567076 -0.2451506 0.17928731 0.83423424 -1.3175632 0.48544937 -0.33202896 -0.41501898 1.5565654 -0.21205942 -0.3091233
用 -0.60294396 -0.24812037 -0.15893936 0.34838593 1.5399125 -0.4512248 -0.19032232 0.052661493 0.42124322 0.017249174 0.2589699 -0.9818095 -0.5471633 0.6685145 1.0019943 -0.6323947 -0.5776885 -0.22725858 -0.17746046 0.24893488 0.99331874 0.784976 -0.68553925 0.010020137 -0.41657674 1.1250063 -0.5338893 -0.38222104 0.2027601 1.0741258 0.26619318 -0.22940156 0.31460673 0.34845635 0.89579034 0.7925876 -0.16311982 -0.28681895 -0.53817725 0.22018746 1.0630183 0.54727983 -0.31046832 1.9173633 -0.091912076 -0.37821612 1.1576631 -0.80223507 0.74524856 0.19496183
周 0.19756027 -0.048125695 0.015305275 1.1061747 -1.1490228 -0.36309364 0.31201288 0.10990347 0.7344205 -0.2226536 0.5905794 -0.2306169 -0.19050914 0.10547017 -0.7865613 0.30304882 0.25837532 0.13607001 0.8706471 -0.6015696 -0.3879606 -0.16272086 0.035966985 -0.40193903 0.16184916 -0.31420416 -0.28981262 -0.17503028 0.2489086 0.9650803 0.5446774 0.12138946 0.44514427 1.0743494 0.19487897 0.37610024 -0.40871748 -0.13531397 -0.77643996 -0.7416009 -0.07437952 -0.765171 -0.4323656 0.16537833 0.17051548 0.021549426 -0.47485912 0.09315137 0.1894693 1.2048068
颜 0.43040323 0.4018913 -0.65906686 1.1232325 -0.7607513 0.000594517 -0.41185966 -0.42604828 0.4049494 -0.8828832 -0.4128436 -0.46333236 -0.021630669 0.5103365 -0.92280084 -0.4762072 -0.21960038 0.22387311 0.6452318 1.2338078 -0.6309428 -0.5890858 0.5077798 -0.5418408 1.3620905 0.7669828 -0.121183075 0.3709234 0.6679679 1.087039 -0.13887298 -1.1279881 -0.016952647 -0.87515575 0.052777432 0.96558666 0.4353605 0.9504054 0.9263468 1.4665418 -0.3885929 0.6336435 0.30259594 -0.5084796 -0.57056934 -0.81299645 -0.5569909 -0.18386017 -0.4869123 -0.7447747
年 -0.4258714 0.8825824 -0.7803312 1.2625201 -0.3355296 0.1966018 -0.25289714 -1.3476985 0.009252042 -0.2696302 -0.4364197 0.4988981 -1.1839151 -0.45115033 -0.15980156 0.5708498 -0.026460795 -0.1352697 -0.42438912 0.53052306 0.27341315 0.5648783 -0.3663318 1.0306562 -0.6296165 0.2160828 -0.10390332 -0.07213732 -0.86539567 0.1683719 -0.43065888 -1.4623708 0.6770673 -0.5673102 0.19873202 0.9386181 -1.3321955 0.9902593 -0.2908281 -0.2501146 -0.18292837 -0.14508916 0.40600443 -0.19685787 -1.2654977 -1.6430098 -0.12812261 0.5362975 0.29664055 0.66742396
告 0.5023666 1.2179949 0.58166957 -0.43140572 -0.396004 0.20899068 1.0006065 0.2486478 -0.7421447 0.77067894 1.0402385 -0.56711274 -0.91841614 -0.071815625 -0.0013994551 0.73124707 -1.4168059 1.4727619 0.5744143 0.08732834 0.103438385 -0.24162409 -0.08620855 0.7353867 -0.64220977 -0.19687499 -1.1034862 0.6507387 0.70161235 -0.5798619 -0.07623508 -0.7811316 0.9955881 -0.12889794 -0.88320905 0.29230857 -1.0294094 2.049781 -0.27878177 0.20591688 0.10504093 -0.70263654 0.5489052 -0.36344537 -0.20456827 -0.12671591 -1.1173446 -0.572848 -0.15293095 -0.9719544
十 1.5495389 0.799745 0.028880252 1.214805 0.6214146 0.320679 -0.48310217 0.7569376 -0.66824186 -1.1635047 -0.051248122 -0.7792108 0.022992874 -1.056012 -1.7679237 0.28196147 0.85507596 -0.45578742 0.844006 -1.389734 -0.8542634 -0.6231716 0.14304668 0.85929525 0.5117383 1.2432147 0.3739883 -0.27688146 0.62057334 0.16220088 0.25542092 0.3710428 0.8097977 -0.10639549 0.45308578 1.6032586 0.16842225 0.15422103 0.22096288 -0.22047772 0.58869255 0.48026747 0.972121 0.9369319 0.8313864 -0.07607713 -0.41911983 -0.5061107 -0.81944704 -1.2266915
怨 1.004619 0.25548813 -0.44298664 1.514493 1.008426 0.011705515 -0.21624932 0.28079432 0.18515295 0.33262652 0.84170693 0.38667414 -0.5920319 0.85891235 0.33075497 0.52633333 0.45234007 0.5980628 0.69519925 0.78957766 -0.41923264 -1.287799 0.3610246 -0.85444474 0.22248991 0.09066784 0.17312156 0.41352832 -0.7653516 1.7669902 -0.061527066 0.027494187 0.313475 0.12227546 0.38407996 0.12113031 -0.05161532 -0.062130783 -0.49705032 1.4656397 -0.3286615 -0.980833 -0.21034022 -0.11674508 -1.1034837 -0.41256607 -0.7737116 1.3902593 0.52735627 0.22619161
达 0.5285106 -0.3017933 -0.44357294 0.062380776 -0.02287724 0.4597185 0.28725442 -0.21037598 0.27918172 0.64439714 1.0776252 0.019054705 0.5111816 0.15641731 -1.1006035 -0.47980332 0.5569312 0.7960617 -0.44999507 0.4560461 -0.66102886 -0.45676136 -1.0249506 -0.516336 0.54598534 0.40085474 -0.71525115 -0.32836112 0.0925988 0.74621296 -0.35838607 -0.24184878 0.46399665 0.80143833 -0.3060014 0.29340875 -0.8696153 0.42184985 0.11777398 0.58483857 0.9229923 0.21425562 -0.35417578 0.44592714 0.27292013 0.058081556 -0.9528821 0.27117398 -0.24171041 -0.4654846
孝 0.48250118 0.8618603 -0.4341743 -0.025969561 0.5200051 0.3543977 0.4033679 0.3454567 1.2492632 -0.88961387 1.0148273 -0.74948394 0.13547495 -0.0908847 1.7565768 -0.33203128 0.86013144 0.8237739 1.2644349 -0.6148089 0.7304533 0.46310562 -0.67977697 -0.27093786 0.33798987 -0.5701171 -0.32662803 0.34316447 0.29577562 1.0660404 -0.5289102 0.13773501 0.19579709 1.279324 -1.096237 0.9809465 -0.33012387 0.5864169 -0.1307935 1.646637 -0.0992452 -1.2851596 0.123424105 -0.054991383 -1.6056986 -0.18967894 -0.50972694 -0.09631373 -0.86220616 0.9388684
弟 0.41931868 0.3444838 0.26213965 0.5523885 1.1655242 -1.5431246 0.28902602 0.058805075 0.2499928 -0.508491 -0.6056162 -0.26576203 -0.6419336 0.28609917 1.0648102 -0.64791465 1.2561178 0.627531 0.29790697 -1.0198544 0.704068 0.53846455 -0.37160006 -0.9500211 -0.60560113 -0.3936486 -2.2855349 -0.19638894 1.1219381 0.45303637 -0.89539814 -0.9596126 -0.4820443 0.44938478 0.49148524 0.758775 -0.25874615 1.2159556 0.9118043 -0.44556054 0.17354152 0.6267997 -1.4681135 0.31271 -0.79933494 0.8380397 -0.29418954 0.48240933 -0.35715368 -0.40017617
至 0.67657214 -1.0575408 1.1008028 0.9687313 0.016465982 1.1389556 0.8814483 -0.24980737 0.8130783 -0.81833506 -0.5590483 -1.3546119 -0.33395195 0.95981735 0.027961094 0.42824596 -0.017500058 -0.7756857 0.28838858 0.9558645 0.38955712 -0.9159261 -0.024266077 0.96350306 0.3164867 0.66181624 -0.34165895 -0.6607955 1.059274 0.5261226 0.103574745 0.3080611 0.9531728 -0.31531754 0.44538653 1.5306349 0.7582616 0.46499354 -0.004529842 0.29069254 -0.065688856 -0.97939306 -0.3295623 -0.12450692 -0.49148655 0.6810051 0.92040646 2.144958 0.19404316 0.36974967
先 -0.9998609 -0.8444227 0.46795207 0.25191247 -1.0358105 -0.42956203 -0.5251745 0.114695795 -0.7335166 0.56679904 -0.49344066 -0.6752514 -0.45514625 0.9717163 0.6096009 -0.1013102 -0.1437262 -0.6274008 0.3151772 -0.43790346 1.0366356 0.22328882 0.13103288 0.31262177 -0.85217315 -0.37979653 -1.646601 1.2931213 0.1093679 -0.22496912 0.032658637 -0.5384098 0.6713076 -1.268601 -1.308885 -0.1797749 0.6903103 -0.73004204 -1.1138245 0.13830356 0.10591399 -0.16156135 0.13238405 0.6517207 -0.24992335 -0.09941803 -2.0743265 -0.27887988 -0.64049536 0.15752085
师 -0.8678635 -0.9452443 -0.77275807 0.8779225 -0.08380031 -0.10808779 -0.20939583 -1.4389473 -0.6474357 1.0949928 0.04465035 0.6251301 -0.61706525 1.9551553 -0.8080724 -1.4718201 0.7222503 0.15037821 -0.3399763 1.0071988 1.6858791 -0.26199135 0.25739023 0.2561741 0.052631725 0.43307474 0.055224888 -0.51619685 0.7633886 -0.068972155 -0.23839882 0.05028279 -0.5572204 -0.0781774 -0.42472473 1.0892898 -0.5909715 0.6918833 -0.49651393 -0.09249912 0.61224437 -0.7089783 0.12798934 -0.6908047 -0.34824982 -0.46884677 0.2785155 0.78015167 -0.0810096 0.22678158
女 0.16498335 -0.17625792 0.8234356 0.6453572 -0.20248424 -1.0889223 -0.32672444 0.36622655 0.40615663 -0.16856658 -0.80093443 -1.2324283 -0.5279871 -0.22480129 -0.10352861 -0.23959789 1.7202755 0.53734094 0.19692074 0.78181225 -0.4852885 0.52240133 1.1313069 -0.5368522 -0.34465548 0.13472107 -0.14104211 0.27196282 0.043144345 0.18900838 1.0524043 -0.38514593 0.0076553957 -0.15062155 -0.788987 1.1494974 2.0339112 -0.086271085 -0.23456757 -0.1734965 -0.68295604 -1.1155771 0.2856898 -0.3855129 0.67763376 0.31901923 -0.9109865 -0.5121075 -0.16412598 0.52576977
多 0.69372785 -0.21120384 0.17244527 -0.48386112 -0.7275515 -2.217734 -0.9166042 0.08183157 -0.15261495 -0.6410702 0.06265091 -0.788661 -0.117239214 0.074845836 0.9826145 0.68789506 0.14383945 -0.03375111 0.5911455 -0.29040766 0.028485004 -0.7024245 0.042199805 -1.0976235 -0.10414379 -0.14046761 -0.5947653 0.49057227 1.3866057 -1.247651 -0.365533 -0.35922062 0.1940081 -0.15528275 0.3858252 -0.17318048 0.22900586 -0.13265121 -0.13040262 0.29669562 0.6250752 0.8151973 -0.34619457 -0.6945756 -0.801178 -0.41077685 0.002624628 0.35429266 -0.52371114 -0.36533445
忠 0.618724 -0.89880896 -0.8472513 -0.35950577 0.417009 -0.44944936 0.35291648 -0.7191949 -0.06287274 0.80997515 0.7156451 -0.1912196 0.12033672 0.59508765 1.0037591 -0.49273306 0.0918545 -0.18491307 0.710716 -0.1393454 -1.0325081 -0.6131095 -0.38225064 -0.90986204 -0.25708932 -0.23808794 -0.02621127 -0.4647007 -0.3921497 1.3961049 -0.49830967 -0.3854039 0.5433425 -1.1832556 -0.28197765 0.95729876 -0.10923527 -0.16602246 -0.57111967 0.26881662 -0.33463085 -0.2804585 -0.9810175 -0.80454385 -0.21746898 -0.76947486 0.1278571 0.8848437 -0.5864996 -0.36655983
四 -0.4756537 -0.13630337 0.16062863 0.31979927 -0.72685194 -0.01866324 0.14480157 0.2876127 0.341836 0.2726403 0.07745992 0.14118293 -0.7244444 0.51007324 0.24410826 -0.50847137 0.45062557 -1.2734634 -0.25711146 0.8555456 -0.70228356 0.4872444 -0.61344266 -0.58466405 0.49335453 0.15970123 0.18947801 0.13886522 0.8869135 0.27382952 -0.007616188 -0.56580925 1.4897312 -0.23924905 0.338565 0.40683958 0.41546038 0.7263497 -0.3332889 0.40912247 -0.24554756 -0.5967002 -1.1627935 -0.1733731 0.16632901 0.30759823 0.6353232 0.4878236 0.3866857 0.44914362
疾 1.2872553 -1.1770738 -2.4616573 -0.9407377 -0.035120092 -0.09221987 -0.5418678 0.24913104 0.55703515 0.07754965 -0.42581874 0.72328126 -0.011197933 -0.47706202 0.0094999485 -0.73565894 0.3016827 0.38475862 0.3988176 -0.090124175 0.076378815 0.63534766 0.2090601 0.95255935 0.11192369 -0.13867418 -0.107946716 0.49691424 0.03501667 -0.6166226 -1.4987807 -0.6384459 1.3023608 0.021315003 -0.054307494 1.2108997 -1.0932492 1.3388268 1.2099663 0.52856076 0.99243593 0.63265914 0.26892507 0.20287006 0.25070858 -1.2362888 -0.49133864 -0.3890315 0.49825782 -0.7435763
服 0.23921895 -0.111799344 -1.0055517 0.7663164 0.40985546 0.17948851 0.55055654 -0.9283267 0.9510569 -0.32892886 0.19047067 -1.088439 0.10810409 0.029778127 -0.32445055 0.30609056 0.7518129 0.6036077 0.70640033 -0.37403744 -0.35035422 -1.057101 0.61721355 1.1967267 -0.09716897 -0.4938157 0.38833314 -0.2329112 -0.37425682 0.41241848 -0.8734641 0.112877496 -0.66408324 -0.07716443 0.44712242 0.3031316 -0.7686499 1.0398446 -0.77714455 -0.3984726 0.81018496 -0.5374418 0.29095152 0.51842856 -0.21901006 -0.0045413813 -0.31948027 0.67954594 -0.4747239 0.03301104
氏 0.95854264 -0.12707187 0.1305324 0.9489874 -1.0669206 0.33129287 1.1966894 -0.13929614 0.28801158 0.02617562 -0.5724891 0.026803043 1.0524844 -0.9261713 -0.34796023 0.22041564 -0.771464 0.64473826 0.5669925 0.9516255 -0.13112555 1.157555 0.3686457 0.45285767 -0.13218632 0.8121119 -0.48719135 0.53023064 0.4249453 1.1191474 2.041337 -0.753298 0.48245162 0.14922786 -0.5084616 0.8902287 -1.526679 -0.31416383 0.13983075 0.8031442 0.40872577 0.105502896 -0.21674983 0.70554066 -0.7425793 0.19971219 0.046499763 0.22099233 -1.1208469 -1.1541159
冉 0.9025724 0.028564893 -0.8216342 0.5058626 -0.5964375 -0.9674382 -0.7140642 -0.09148339 0.38631395 -1.440921 -0.15347067 0.26360065 0.4468073 1.2372524 -1.8860942 0.397079 -1.0281852 1.6810312 0.45766273 1.1564184 -0.1942131 0.048116304 -0.19408183 0.20715387 0.62546456 -0.38489625 -1.3552682 0.28929257 0.39340115 -0.023967987 -0.88486737 -0.7920325 0.061416104 -0.56225616 -0.057391077 -0.47148752 -0.42596686 0.8957557 0.05457829 0.861384 -0.5899029 0.3761799 -0.41352114 0.49181408 0.47664973 -0.732953 -1.8744453 0.6276212 1.0827904 -0.67483073
将 0.04404568 0.70267797 0.41549385 0.20862027 0.8420979 0.14332679 0.57646406 -0.53164583 1.2762586 0.06699753 0.55684036 0.47291893 0.34249794 0.752059 0.84669876 0.59418756 -0.08736366 -0.76624244 1.8674866 0.31381282 -0.41962585 -0.28465787 -0.044711962 0.38750067 -0.47031957 -0.69217503 0.007840819 0.30700362 0.27186692 -0.37406746 -0.67961985 -0.40796286 1.2199531 -1.0003684 0.34270918 1.4916385 -0.49722683 -0.117745996 -0.5011196 -1.0853918 -0.04001102 -0.6008407 -0.23273903 -0.8160718 0.4006326 -0.78961504 1.1689407 -0.4800251 0.34150693 1.6053851
士 0.60375863 -0.19560261 -0.3837203 0.5193155 -0.05082506 -0.08900938 -0.29318964 -0.84007454 -1.5598719 -0.49832216 1.1980834 0.0226068 -0.8273018 0.58524215 -0.4770259 0.6108066 0.93675613 -0.18770489 -0.44675264 0.3964419 -0.019426337 0.47081876 -0.16168787 -0.38453478 0.16603194 0.8438089 -1.0412087 0.19144936 0.49574646 -0.061724205 -0.12024859 0.3293573 0.096937835 -0.74115217 1.242228 0.6573781 -0.52639043 -0.38363445 -0.5963151 2.523096 0.07836412 -0.57962686 -0.6498108 0.7426905 -0.71623826 0.9027072 -0.12025332 1.3896867 -0.7700146 0.5139443
丘 -0.4521863 0.4355126 -0.5944995 0.2931247 -0.7120752 0.3693145 0.07679956 -0.3276942 0.3144123 1.3197438 -0.5863888 -0.09604228 0.030380972 -0.70422596 -0.48806772 0.6400788 0.8757558 0.4095159 -0.086514175 1.3881694 0.44485062 -0.45110595 -0.24350782 0.664603 -0.3546981 0.599171 -3.0688593 0.26947027 -0.45811784 0.09452905 0.59865963 -0.51445514 0.34004053 -0.33832115 -0.49498934 1.2638024 0.615306 1.7856548 1.1102142 1.0991809 0.28050295 -0.94713277 -0.20185056 0.25047925 -0.6083419 0.64839834 -0.11513582 -0.7839452 0.52957624 0.3601886
身 -0.55386263 -1.3725795 -0.20653626 -0.22736713 0.06190379 -0.070149474 -0.92598414 0.33312875 0.5079181 0.095953956 1.1242415 0.10829113 -0.1016713 1.4206672 0.7033374 0.78737855 0.745657 0.18140833 -0.11197751 1.2057825 0.06782821 0.07796099 0.68121684 0.831443 -0.19681698 0.15142474 -0.7967246 -0.67753917 0.7369409 -1.0981333 -0.045823563 0.5334139 1.8156875 -0.5931133 0.12815134 0.4891058 0.59726155 1.0552417 -0.21811377 -0.4758603 -0.42623544 -1.1375825 -0.09371469 -0.6344192 0.21999383 -0.4673822 -0.7130748 0.86777544 0.6032235 -0.074437976
入 0.14161718 -0.39302778 0.73056436 0.80865955 -0.62819433 -0.5654097 0.53690267 -0.29861853 -0.32111523 -1.7547024 0.50615156 0.6090355 -0.66858166 1.840308 0.103685126 -0.40817147 0.7683584 0.902818 0.2871289 0.2618911 1.5778399 0.037623428 0.9672769 0.4233743 -0.029487029 -0.97018903 -0.610637 -1.2478607 1.5600846 -0.48928294 0.8256872 0.045904905 0.29209197 -0.13327652 -0.47781083 0.41884023 0.30217007 1.5108904 -0.7570058 0.3708466 -0.39363617 0.40692326 -1.9714202 0.11394299 -0.86532134 -0.30506736 0.08721409 0.6414752 1.0848875 0.28639698
志 0.23590614 -0.14545317 -2.1169908 0.7191797 0.09619819 0.19299868 -1.0977421 -0.2778033 -0.23682606 0.14569396 0.87136656 -0.6204862 0.08570383 -1.2402246 -0.13133883 0.12436898 -0.33765545 0.071891025 -0.88691175 0.34100384 -0.7954525 -1.744975 -0.007560745 -0.0764623 0.4536138 0.6880479 -1.6280333 0.1360471 -0.80907506 -1.0109448 -0.4623761 -0.0041624946 0.3405018 0.3624556 0.23721461 0.1669941 0.230363 0.28187633 0.70163804 0.04802251 0.86160046 -1.1300712 -0.70428896 0.07954993 0.41594428 -0.07379833 -0.10046628 0.45666224 0.63019216 1.1825912
耻 1.2923332 1.7618643 -0.8838009 0.4568198 -1.1042447 0.60417104 0.24225128 -0.18548448 0.018455932 0.10831857 0.014378576 -0.4545155 0.5140511 0.29408997 0.21408927 0.07852848 0.15014258 0.54681927 0.23518793 0.40194482 -0.50976473 -0.073485725 -0.6154448 0.2650008 -0.15114324 -0.60056657 0.04505449 0.2035213 0.041102897 0.28303218 -0.5785221 -0.11243655 0.81998736 0.5222606 -0.4025034 -0.35387254 -1.267991 0.51255924 0.8732449 0.4206338 1.4193676 -0.3819643 -0.59434164 0.6467029 0.3490716 -0.22507264 -0.5520028 -0.26320603 1.355568 0.05200323
失 0.8909255 0.570014 -1.6194751 -0.11468578 -0.68001467 -0.24339671 -1.2423095 -0.42314103 0.9768476 0.59068996 -0.29075506 0.28316265 0.4330098 0.7138607 -0.3369503 0.026521755 0.15576386 -0.61129117 -0.07876828 1.3894637 -0.031007888 -0.015059207 -0.12716377 -0.58915716 -0.7105183 1.1228573 -0.13155523 -0.026394358 -0.5446626 -0.15915814 -0.5130548 -0.70517904 1.3739666 -0.21518876 -0.26915267 0.59094477 0.038336623 -0.11197857 0.23435995 2.1735098 1.3841013 0.024517778 -0.67326194 -0.024304954 -0.43530357 0.89384943 -0.7974946 0.601827 0.061403647 1.0140915
安 -0.9141366 0.32830307 -0.18016529 -0.2536076 -0.23086447 0.37926093 1.0301132 -0.9376987 0.14654544 -0.9163895 -0.7575855 -0.87889767 0.04875857 -0.14187708 1.3656528 -0.15521847 0.16482371 -0.108323626 1.6238679 0.815584 -0.11698192 0.14558777 -0.682454 -1.0237978 0.31109795 1.0051168 -0.37919837 0.9120504 -0.87744737 -0.26977372 -0.32775456 0.29953837 1.2245505 -0.7585101 1.6282187 0.2936673 -0.5766253 0.055143032 0.274985 0.5543721 0.6251155 -0.5276388 0.15848655 0.5588218 0.22485352 0.055893525 -0.6764151 1.5633384 0.8662565 -0.14652622
富 0.86337876 0.52180964 -0.020431839 1.373866 0.32567105 0.56412506 0.74740523 0.3772983 0.4427681 0.56335753 0.11868431 -0.33317143 -0.76890707 -0.55557317 0.8425372 1.0210241 0.9227787 -0.27568704 1.0866292 0.05108519 -0.41837412 -0.45806295 0.6781061 0.61421204 0.0755682 0.5509729 -0.6898327 -0.015211487 0.21110976 0.10502961 -0.535067 0.19260302 1.2961472 0.35929957 -0.45389307 0.3503648 0.42571446 -0.96253943 -0.41484585 -0.48804533 0.15750068 -0.0803551 0.8059668 0.6219792 -0.08037035 -0.77068406 -0.061658796 -0.84902716 0.6339981 0.13693029
赐 0.49035087 -0.92220664 -0.32517383 -0.4528259 -0.24846494 0.20296128 0.45039636 -0.96303403 -1.9195002 -0.37701958 0.15383066 -0.35683933 0.25772804 0.073907614 -0.17237736 -1.4582356 0.42509428 0.4001149 0.69918543 -1.2070941 -0.21054615 -0.4966753 -0.45284757 -0.20815255 -1.1888316 -0.34039602 -1.2002438 -0.31099996 0.048575297 -0.77267355 -0.10796796 -1.0324868 0.23912708 -0.5974093 -0.94897765 0.7565477 0.17243516 0.98555005 9.9355624e-05 -0.784456 0.08385031 -0.9685173 -1.5482286 -1.5134407 -0.8565847 0.35678202 0.19960299 0.2817027 0.37668213 -0.25046846
患 0.5181722 0.4398563 -0.36777714 -0.28798363 0.28800985 -0.5989881 -0.45123646 -0.82533073 -1.6021061 0.5538014 -0.40946686 -1.0776329 -1.3092316 0.3555716 -1.0618 -0.62876683 0.41460502 -0.7257529 0.45434743 0.599456 -0.53974074 -1.8575621 0.42497346 0.23031229 0.2592343 0.76683855 0.3110684 -0.7781931 -0.096806705 -0.07053254 -0.7439153 0.26319677 1.1041802 -0.8254405 -0.04601268 0.2315227 -0.5731658 0.7170797 -0.05613831 -0.65335673 0.47920132 -0.48025236 0.2889674 -0.31185216 -0.89763147 -0.08018175 -0.20326713 0.11846384 0.38661465 -0.76177776
百 0.17392953 -0.68465614 0.7349502 0.61077476 -0.40005043 0.04355654 -0.14677708 0.11392695 0.15978271 -0.71151984 0.4344648 -1.2216723 -0.86285245 -0.15974307 0.19067395 -1.1544955 0.30905426 -0.7757193 0.2871159 0.16231906 -2.1900356 -0.50994945 -0.78714424 1.2992526 0.23150164 -0.4708774 -0.5265908 -0.11661273 -0.3898759 0.1900086 1.3125297 -0.733653 -0.04148642 -0.27335438 1.2727867 1.4285107 0.9851905 0.91223365 -0.54794115 0.28212819 -0.3134446 -0.42084226 0.65510505 0.53658307 0.26537558 0.22910339 -1.9827526 0.88435435 -0.803501 -0.27901995
回 -0.21956038 0.24144536 -0.85645974 0.049650624 -0.033144422 -1.6707175 0.028634144 1.2342234 0.027344493 0.16986749 -0.8871045 0.52345544 -1.390574 -0.28844836 0.2970738 -0.007816896 0.9417149 -0.33968294 -0.2444964 -1.5148512 0.8218298 0.40925297 -0.79393977 -0.9811104 0.20295604 0.8826288 -1.2868979 0.652851 0.39991644 -0.49586475 -1.6045566 -0.5569809 -0.25221786 0.8444856 -1.0350527 -0.21705297 0.45876744 1.5537167 -0.8440617 1.0449488 0.5942337 -0.7390284 -0.39474037 0.92121994 -0.14641216 -0.7498727 -0.09994664 0.41774696 -0.79895306 -0.7659154
宰 -0.5355177 0.6957734 -0.7774964 0.10736658 0.26686588 -0.24222998 0.018623278 0.28506875 -0.56979686 -0.6840613 -1.0875738 -1.001414 0.38774827 0.12076121 0.17240919 -0.3533041 0.28856638 0.35843983 0.40249547 0.7539172 1.5722429 0.7872853 -0.4074043 1.3896326 -0.19870202 -0.57836044 -0.9912938 -0.3065585 -0.04864295 -1.5652369 0.1828621 -0.51438814 0.13894297 0.3572022 -0.46919551 1.6425295 -0.50472134 0.06485172 0.55415386 0.84847 0.27747324 0.1686457 0.20608681 0.36435094 -0.24110474 -0.032529354 1.0227866 0.15549923 -0.44101402 -1.0291507
朝 -0.55680907 0.23883985 0.6401856 0.2955165 -0.6477412 0.06634132 0.7777484 0.011379947 -0.3033593 0.4328154 -0.66950226 0.087804124 0.53546524 -0.15830918 -0.03493971 0.8998533 0.35064775 -0.05351818 -0.891589 -0.26521692 -0.5440797 -0.7091378 0.17199294 0.3593708 -0.32640514 0.123950474 -1.315355 0.4471347 0.8164608 0.49266988 0.87716234 -0.42639583 1.1527203 -0.9138406 -0.37694386 0.57358783 0.23445939 -0.6125142 0.68439806 -0.44712853 -0.22115792 0.29029918 -1.0272149 0.89315575 -0.37296492 -0.6511061 -0.18497495 0.063734286 0.21003297 0.035494704
莫 0.09556611 0.9059101 -0.10237719 1.3658909 0.47295156 -1.4926184 -0.01893543 0.48289487 1.6489444 -0.6092891 0.3281487 -0.6877266 -0.21600938 0.19933046 -0.17059518 0.66740894 -0.6804024 1.015779 -0.32985783 -0.95251137 -0.16451429 0.06743912 0.67124313 0.9385158 -1.2793552 0.45519698 0.36245334 0.9727244 0.2086037 -0.51108176 -0.38419265 0.106512025 1.1283575 -0.2974999 0.530359 0.2813556 0.050782014 0.8580263 -0.41876373 -1.3761597 0.7856632 0.52220964 -0.72467786 0.11559303 -0.53175277 -0.0015515289 0.47854823 -0.22640237 0.23748973 -0.77525693
若 0.69405085 -0.08428348 -1.0234138 -0.026933035 -0.4957037 -1.6951306 0.9201497 -0.2547439 0.16314715 -0.39047548 -0.42549607 1.3504735 -0.9184856 0.04046972 0.16754946 -1.3095216 -1.079241 0.23020431 0.82384306 0.41906708 0.48290744 -0.8762454 -0.5374067 0.057503853 -1.0764083 0.56062376 0.79417264 -0.3280188 0.32223427 0.226855 -1.0412114 -1.5186301 -0.048891503 -0.5702851 -0.09152927 0.6214146 0.24573666 -0.16920106 0.8542209 -0.9059338 -1.2779636 -0.5902893 0.5870633 -0.069566 0.02821055 -0.8599946 -0.053830694 -0.3422779 -0.081619956 0.80057746
云 0.5502483 0.27972502 0.065304235 0.95233005 0.056583997 -0.91208786 0.2464749 0.1996125 0.30131415 0.055877864 0.44277325 -0.16619527 1.3796625 -0.9585243 0.43223846 -0.080535084 1.6261162 -0.522483 0.50780874 0.47662506 0.4637629 -1.4234056 -0.05915531 0.25774628 -0.5979058 -0.6673648 -0.80759937 1.0472951 -0.19936423 0.02125768 -0.04776392 -0.44000924 0.7907668 -0.973283 -0.32243866 0.1663871 0.20446351 0.10550405 -0.20380232 0.33335644 -0.014880235 -0.88668466 -0.7759159 0.50656927 0.6354652 0.058334738 -1.4907625 -0.9274134 -0.26946074 -0.27097413
孙 1.0017347 0.88921124 -0.20986685 -0.58963263 -0.9211551 0.2828175 -0.3611337 -0.6564179 -0.016036548 -1.4685129 -0.53190255 -0.73627836 0.8356806 0.831069 0.93399835 -0.060888235 0.92961097 0.7112874 1.8415072 0.072709486 0.27188098 0.1103419 -0.14498185 0.20790012 -0.54913306 -0.43352807 -0.1086825 -0.22852929 -0.2276369 -0.51236844 -0.38320056 -0.19491136 -0.55163544 0.17688745 0.5016989 1.1662977 -1.5709544 0.05397843 -0.809477 1.2748332 0.4396513 0.13265093 -0.78873855 -0.6302316 -0.5834717 0.30473268 0.3114103 -0.35367623 -0.5588238 0.3425877
或 -0.32776767 -0.018291969 0.039452285 -0.026033578 0.46654117 0.3992427 0.23022322 0.14706562 -0.35732144 0.43964583 -0.10936134 -0.25361875 0.0020853064 0.42726195 0.039679732 0.6159642 0.9621095 0.46239603 0.9312278 -0.48906708 0.62492806 0.89559555 1.025878 -0.45938316 2.1829343 -0.009444479 -1.1842873 -1.3680373 0.6970251 0.1656876 -0.55133516 -0.87804854 -0.58484244 -0.28349862 -1.0168966 0.7095815 0.22432439 0.731824 1.6716824 0.34364623 -0.54582953 -0.090573795 -1.000839 2.7057953 0.3109748 -0.8364331 -0.15084144 -0.933511 0.17293471 -0.113884486
勇 1.066111 0.042121954 -0.78295714 0.7515462 -0.9159115 -0.8539142 -1.2791115 -0.3942764 0.51524913 0.11987913 0.36637354 -0.94365925 -0.6776825 0.76965445 -0.0570927 -0.66043264 -0.17570122 0.7010853 -0.052211203 0.38484776 0.883927 -0.9340243 0.25388396 -0.07791955 -0.10892661 0.13803625 -0.38371697 -0.46697944 0.24132071 1.8245894 -0.3196996 0.07858373 1.1410153 0.7504379 0.07111664 0.16169326 0.02190376 0.017903043 0.201782 0.6797246 0.18064003 -0.18735768 -0.14947778 0.078533046 1.3568021 0.6854756 -0.055553693 0.9368197 -0.8101227 -0.584217
孰 2.8200994 0.6263675 0.32436723 0.90131474 -0.34754574 -1.0444727 1.1060394 -0.16208182 -0.862301 -2.129943 0.91927516 -0.2126281 0.15879159 1.0214761 -0.45304102 -0.7186113 0.16211104 0.43846014 0.09823077 -1.3688103 -0.013355736 -0.58773154 -1.1978042 1.8253142 -0.9561805 -0.14671566 -0.23846139 0.5018428 -0.55050683 0.32496455 -0.6069318 0.12118525 -0.41668898 -0.41438082 0.11030297 -0.38091236 1.0744033 1.3384621 -0.17292361 0.26293918 0.47707808 -0.43624792 -0.9890246 -0.54618406 -1.2589087 -0.57637435 -0.6430742 -0.96309966 0.46688735 0.14304352
叔 -0.98591554 0.16944416 0.24704139 -0.6087312 0.30046606 -0.003928661 0.6537622 1.0452726 0.29474348 -0.59572 -0.5742894 -0.2827853 1.0488499 0.42725244 -0.87393075 0.8570751 1.0352762 0.48459154 0.10644981 -0.47158185 -0.74724466 -0.65733194 -0.38410375 -0.44636792 -0.14479771 -0.39712676 -0.033278413 -1.203454 0.1296526 -1.3955339 -0.9244124 -0.5694448 -1.0974649 -0.89708567 0.72522455 1.8613579 -0.29723564 -0.0344738 0.34041443 0.68297154 0.061557475 -0.6878875 -0.67639375 0.6136454 -0.5502816 -0.15854155 -1.9713213 0.55486846 0.14169301 -0.43901244
渊 1.2206998 0.6896526 -0.12838684 -0.73847723 0.6833551 0.49296263 2.44853 0.23097144 0.8839757 -0.3783341 0.60837615 0.0002515839 -0.570045 0.71436274 0.02817174 0.5244551 1.0252949 0.08166133 1.3389622 -0.31638864 -1.1353157 0.7948133 0.3185681 0.08511975 -0.092703655 0.25447002 -0.24458517 -0.4432483 0.29110515 -0.2009485 0.07670461 -1.8124855 0.060935285 1.0928543 1.5799036 1.3689625 0.15678534 -1.2127805 -1.4643645 1.115272 -0.5324375 -0.3338524 -0.89377356 1.6216643 0.65600926 -1.4830581 0.2319803 -0.4845968 0.7067291 -0.6710625
