1352 100
， -0.10537495 -0.10598072 0.12448342 0.029292861 0.06721209 0.11313883 -0.17299758 0.088625714 -0.018662483 -0.012116145 -0.033107452 -0.014383109 0.019878618 0.02778317 0.013250123 -0.08148641 -0.01592929 -0.04657147 0.030554796 0.05653983 0.061232597 -0.06463497 0.067550234 -0.052558467 -0.042197905 0.032538753 0.010125569 -0.035357565 -0.018924648 0.008002846 0.0008699846 -0.04022171 -0.03541071 -0.06552608 -0.04476328 -0.20571014 0.12714483 0.21252073 1.09958055e-05 0.08446655 0.026594304 -0.1045796 -0.13138233 0.05260737 0.032482505 -0.15621904 -0.14705461 -0.06104709 0.0058263424 -0.09306282 0.056876842 -0.017935462 0.110948816 -0.01718919 0.11272781 0.14066608 -0.011710504 -5.3606243e-05 -0.093954474 0.0678371 0.104367 -0.09803457 -0.49481726 -0.0020327966 -0.011380059 0.030252326 -0.023221295 0.13751222 0.0014039314 -0.07909831 -0.097769156 0.049392242 0.117997445 -0.010939341 -0.015542406 0.002753324 0.04604503 -0.054824263 -0.15076649 -0.040652182 0.13231838 -0.067057714 -0.05211968 -0.052850164 -0.007758408 0.039466295 0.016267845 -0.0074889516 -0.060709935 0.14109863 0.019465199 0.09846816 0.021108806 -0.026432237 0.0074568614 -0.0056465417 -0.10206764 -0.06665241 0.11183343 0.030989725
子 0.08342855 0.059622083 -0.1991289 -0.00976623 -0.08315631 0.070092104 -0.018033206 -0.111013226 0.050597917 0.076986335 0.0035598562 0.02199887 -0.026958868 0.042354096 -0.023445392 -0.11403786 -0.042905867 -0.07308751 -0.16419862 -0.16633052 -0.086529374 -0.0967816 -0.057356182 0.011531033 -0.114261866 -0.02528774 -0.15841284 0.0034204694 0.13005763 0.04715831 -0.08773175 -0.0622881 -0.05007634 -0.0065493793 0.1038453 -0.18957245 -0.10474996 -0.14740565 -0.15379275 -0.05877472 0.0021721406 -0.008597057 -0.14512813 -0.020486588 -0.04095207 -0.04687708 -0.0737111 -0.118958235 0.027388243 -0.046570644 -0.009868503 -0.045483407 0.0046555786 -0.07921758 -0.91073585 0.022531027 -0.0474091 0.08823418 0.12205642 0.10705741 -0.07825733 -0.17806463 -0.14044411 0.03354017 0.08804357 -0.011348242 -0.06447904 -0.08036752 -0.010901597 0.051129997 0.26715288 -0.008067987 0.050459716 -0.018622903 0.05171069 0.07621747 -0.065583944 0.010406322 -0.040257618 -0.008114597 0.043300796 -0.07714057 -0.03676476 0.022045001 0.01378567 0.021247866 0.07353029 -0.031901132 -0.1434847 -0.083014704 0.006588754 0.021961223 -0.040678978 -0.105727196 -0.12582536 -0.008420466 -0.17017373 0.09003732 0.0687274 0.03509017
。 -0.029305464 -0.18436345 0.050192244 -0.097219 0.03136426 0.037329108 -0.018750306 0.052115865 0.018144041 -0.050381996 0.3356999 -0.2064461 -0.038902037 -0.05647431 -0.12917508 -0.14317532 -0.02850034 0.04385497 0.05048004 0.061034188 -0.16428937 0.019334551 -0.18783166 0.12080194 -0.14132684 -0.12028585 0.074962564 -0.027962951 -0.07960769 -0.025597407 0.03692532 0.04411201 0.041180547 -0.10741354 0.03308899 -0.21981516 -0.29554316 0.16324586 -0.2985185 -0.03608551 0.0074320487 0.053244576 0.0048465547 -0.15970021 0.078090206 -0.029293759 0.11453269 -0.07199925 -0.20838091 0.037935883 -0.075952604 -0.0955831 -0.22130974 0.027176611 -0.35490528 0.102333784 -0.12972754 0.02354528 -0.15426852 0.2615577 -0.06503757 0.014757043 -0.41317084 -0.029052772 -0.02969342 -0.15367964 0.0015391142 0.08284062 -0.026465947 0.09589563 -0.026234252 -0.07056747 0.043342922 0.10367248 -0.028539708 -0.21099733 -0.13325174 -0.014939568 -0.0049443603 0.033630114 -0.0021565845 -0.028019864 0.067032486 0.13079487 0.114765 -0.04026733 0.09538494 -0.037685048 -0.21063279 -0.080973506 -0.051943764 -0.13855219 0.08428492 -0.023104057 0.108710974 0.32524508 0.14038341 -0.14479731 -0.08000792 0.12461731
： 0.06781942 0.005604425 0.10971828 -0.19538118 -0.029361753 -0.10551829 -0.017467571 -0.0628036 0.011352203 -0.012902478 0.009950858 0.15562992 0.19177006 0.08593259 0.041631266 0.3057231 0.0053552315 -0.06514504 0.09929059 0.0015068742 0.21463439 0.0039288998 0.035368897 0.010862516 -0.009142985 0.0069735968 -0.14531015 -0.14271984 0.017950563 -0.0676228 0.12368888 -0.03456884 -0.12716416 0.05117689 -0.093519635 -0.032391205 0.052639082 0.049251836 0.028414905 -0.036568157 0.03687457 -0.13420641 -0.056103054 -0.019997232 0.21716242 -0.018205034 -0.01365878 0.07732793 0.104065925 0.0832867 -0.0069755493 -0.08318238 -0.06317498 0.032332115 -0.8301006 0.023155764 0.07712022 0.12479093 0.1450655 0.032992557 0.15807763 0.035915747 -0.16642264 -0.08198632 0.08955954 -0.04996233 0.003083739 -0.061489213 0.119353205 -0.1228526 0.12747328 0.12435163 -0.07572205 0.10248564 -0.05931992 -0.022748055 0.060782492 0.009505097 0.23067906 -0.0308512 -0.050861657 0.1153703 0.06920388 -0.029915381 0.08235206 0.09693128 -0.011382757 0.0065824296 -0.05038069 -0.15973526 -0.10643343 -0.016081452 0.020869821 0.10463371 0.027374987 0.02489396 -0.21456884 -0.05698859 -0.055788044 -0.03560458
曰 0.14356048 -0.014441542 0.094566606 -0.0683451 -0.002845905 -0.15842958 -0.100190476 0.037048575 -0.045673188 -0.03526076 -0.011310957 0.050318744 0.011601332 -0.058454648 0.017174615 0.10913241 0.11840019 -0.12358799 0.08886182 -0.09976467 0.25282755 -0.076348506 -0.06808185 0.05989023 0.013094336 0.1767409 -0.124938056 -0.14100169 -0.032579143 -0.054881252 0.10980458 0.08285659 -0.0016604479 0.06551252 -0.05114085 -0.10219171 0.06891153 -0.043524045 -0.13473661 -0.13248733 -0.054213304 -0.0785445 -0.12629601 -0.024365246 0.11863696 -0.100938715 0.13963377 0.010563168 0.047777597 0.028081065 0.11115535 0.017113974 -0.12532225 0.0076724975 -0.9150218 -0.05155118 -0.08180365 0.06623078 0.032175053 0.1680809 0.076097004 -0.0806856 -0.21628621 -0.18671101 0.061897054 -0.088942036 0.040337183 -0.08854923 -0.012457739 -0.13154702 0.13061263 0.023121288 -0.07277799 0.056039814 -0.06370376 0.14413884 0.137324 -0.027756244 0.12002855 -0.17836994 -0.23745097 0.026959097 0.033025984 -0.043830935 0.06446583 -0.0960502 -0.073575936 -0.033658944 0.13146037 -0.21946381 -0.074156374 0.027162444 -0.020195462 -0.052853223 -0.056339934 -0.01627125 -0.21324344 -0.0017060861 0.00069519336 -0.16354066
之 0.08736908 0.0024108142 -0.0644988 -0.021069057 -0.0779523 0.037597053 -0.20214124 -0.056437656 -0.23416856 -0.08678299 0.13845737 -0.23067303 -0.15434864 0.007121272 0.025289172 0.084733546 -0.03159846 0.05279669 0.09044564 0.011259359 -0.028143715 0.43131417 0.06163437 -0.12917346 -0.06993156 0.079261266 -0.024393195 0.18491197 -0.13927421 0.21277122 -0.086522944 0.094389506 0.08628996 0.072574556 0.062091816 0.11714513 -0.107804835 -0.14398992 0.24138871 0.24654602 0.16685694 -0.14671424 0.04397011 -0.19444163 -0.3152065 -0.12172761 -0.045879737 -0.08640117 0.21173221 -0.027576216 -0.02932861 0.1401417 -0.19332772 -0.10716728 -0.14402397 0.034297224 0.107118115 -0.0919604 0.15205696 -0.0720595 0.013491859 -0.11009916 -0.51553905 0.05128935 -0.29503316 -0.10920036 -0.06633141 -0.029097795 -0.19461721 0.14575703 0.027752576 0.0050310274 -0.053777747 0.04496148 -0.07774623 0.009712844 -0.028325262 -0.145395 -0.034495775 0.18918513 0.014791098 -0.05104773 0.11257913 0.15972728 -0.087372325 0.015317303 -0.015010791 0.033888955 0.07335051 -0.024720484 0.20590203 0.037087947 -0.020220734 0.0145197185 -0.14119996 0.14434747 0.021288684 0.2344368 0.0073976885 -0.06378651
不 0.044234637 -0.015638025 -0.08861323 0.00078650535 0.039559815 -0.053002458 -0.04733865 -0.22134203 0.051599458 -0.22336069 0.06318559 0.018186698 0.00048188627 0.1127857 -0.062325414 -0.055054042 -0.16285282 -0.050171033 -0.30578268 0.068507336 0.06132844 -0.076325595 0.11525071 0.07499319 -0.026277138 -0.10358941 0.03157632 -0.022479422 0.2798252 -0.23256394 -0.12290488 -0.28187168 0.014205359 0.034480326 -0.13976938 -0.2962895 0.011747003 -0.112274155 -0.043299757 0.10823444 0.012998943 -0.13548583 -0.104063265 -0.035077468 0.25126252 -0.043983113 -0.0003144788 -0.1943564 0.0026510877 0.017614638 0.015134391 0.17356725 0.18761058 0.15537384 0.11203026 -0.21695757 0.046939466 -0.11124928 -0.13342334 -0.014645627 -0.031160008 0.12130982 -0.7310955 -0.074811555 0.04427164 0.06400011 0.027982054 0.00037859034 0.33471945 -0.0005756563 0.22733276 0.1946464 -0.12043668 -0.031350754 -0.041176885 0.033383347 -0.04766694 0.103920676 0.17271276 0.109981336 -0.015048482 0.07987261 0.17944495 0.09130983 -0.11171701 -0.23723333 -0.13913466 0.13055514 0.14856867 -0.16371515 0.09774358 0.022586968 -0.08284758 0.023644002 -0.15923105 -0.15821955 0.10837307 0.018239342 0.17886809 -0.105227664
也 -0.00554191 -0.13775952 0.011144966 0.18583113 0.15419763 -0.16362143 -0.04672392 0.06787531 0.050705645 0.017308943 -0.030990332 -0.08209839 0.09394116 -0.20190592 0.0013574035 -0.28005096 -0.037639927 0.19095737 0.017572504 0.115198016 0.120295785 0.17643782 -0.33100545 -0.019401724 0.1644815 -0.26515162 -0.12603794 -0.011703739 -0.07816209 0.03427419 0.01809972 -0.17372169 -0.14601944 -0.029286718 0.017854588 0.21849363 -0.012630721 -0.12636045 0.1519882 0.0062280623 0.16457693 0.2458324 -0.06275558 0.04223423 0.16504413 0.065676905 -0.020486154 0.07730443 0.3813538 0.15197001 -0.17267513 -0.09918068 -0.08518138 0.12584361 -0.38132608 0.11967971 -0.094851464 -0.044093 0.061314993 -0.03595205 -0.08664314 0.06147959 -0.35684577 0.37106952 0.038074516 -0.1702664 0.20331874 0.05365056 -0.098945536 0.24227063 -0.038115494 0.18726206 0.043639768 -0.03684069 0.010235514 0.2632979 -0.05522066 -0.19759686 -0.12688552 0.043956093 0.24304168 0.11108844 0.08823723 0.04965084 0.020143455 0.1442384 0.03940819 -0.08957239 -0.08586258 -0.029429954 -0.09554732 -0.28853106 0.04126053 -0.29868326 -0.09143588 -0.026801903 -0.1211129 0.103947125 0.19788173 0.052419905
而 -0.06495571 -0.06568071 0.10234155 -0.16506256 0.12806357 -0.09566655 0.12129638 -0.20185797 0.33254752 -0.3518399 -0.054457046 -0.0544799 0.043425698 0.07992821 -0.03303614 0.07778036 0.32977524 0.075515084 -0.17151026 -0.1751564 -0.31706256 -0.17630409 0.21274099 0.17523904 0.14986128 -0.017300123 -0.1589887 0.09788988 0.033605047 -0.025237253 0.033558317 0.057719517 0.056827556 -0.10196279 0.19899847 -0.070825405 0.011808751 -0.30451447 0.08270189 -0.24769484 0.27608523 -0.24604784 -0.40950826 0.07121522 0.07184525 0.26062277 -0.024616508 -0.16631046 0.03826877 0.1242224 -0.07714092 -0.09504787 0.06124233 0.08204659 0.0040580602 -0.10213179 -0.1489648 0.09758632 -0.25323978 -0.42823118 0.12153435 0.04245826 -0.66207415 0.094631694 -0.1787543 0.0121389385 -0.063568465 -0.17426996 -0.11155526 -0.066176675 0.12373 -0.011989172 0.029435778 0.009236719 -0.030507062 -0.0044581746 -0.24625225 -0.15115376 -0.13435675 -0.08965022 -0.11419869 -0.0006528441 -0.13716578 0.12693761 0.059824977 -0.19815724 0.0319188 0.10293866 -0.0056680883 0.037850697 0.22306964 0.13868201 -0.0603809 0.06569363 -0.14058588 0.014399437 0.021633668 -0.006881573 -0.19468522 0.17946993
？ -0.22067936 -0.27886558 0.06609973 -0.057938866 0.052655764 -0.1074734 -0.12771335 0.017342445 0.052573357 -0.0059456932 0.18357345 -0.39158803 -0.09060593 0.029680062 0.20768654 0.121863686 0.13895762 0.046412762 0.08187849 -0.15379822 -0.2286518 -0.23867813 -0.061209347 -0.08002704 0.1280319 -0.26993316 0.22917107 -0.0105247665 0.12103162 -0.05871564 -0.08720323 0.069683395 0.13497913 -0.30906513 0.0067743007 -0.2786654 0.048182607 0.11729762 -0.06214336 0.013320222 0.07056697 -0.11967442 0.19359504 0.09074721 -0.02687615 -0.13723618 0.006506337 -0.37277314 -0.2542394 -0.2618885 0.026856832 -0.20927617 0.04715805 0.0031530324 -0.8232955 -0.110001065 0.19127823 -0.023990922 -0.07244384 -0.042089935 0.51241857 -0.055193216 -0.12083123 -0.0007722975 0.18619369 -0.34371594 -0.03616512 0.10831094 -0.1150416 0.1612335 -0.35199258 0.10799981 0.10410645 0.002572779 -0.24819459 0.07181517 0.14873451 0.36456946 0.074284054 -0.15207905 0.045973375 0.077420965 -0.24593909 -0.17199598 -0.10125018 0.2346029 0.13149525 0.04058092 0.41783684 0.27106264 0.049344387 0.18764889 -0.16533908 -0.27551588 0.16830155 0.17934103 -0.26012704 0.06338311 -0.11059805 -0.03278493
其 0.26445395 0.23400693 0.009953465 0.27345625 0.07364742 -0.3372795 -0.09958582 -0.005790271 -0.0515198 -0.20389783 -0.16303788 0.04608864 0.1419812 -0.10299238 0.27409095 -0.13718382 0.0329603 -0.10431905 0.12558895 0.029010499 0.18595967 -0.032183215 0.07877423 0.15543522 0.24460149 -0.032134928 0.22595476 0.18147093 -0.2553261 -0.13764821 0.03392644 0.06697278 -0.18914363 -0.064707115 -0.0014592728 -0.08047548 -0.11935426 0.1426757 0.17670946 0.03183665 -0.070014775 0.4863664 -0.23531212 0.27977395 -0.2230946 0.25999334 0.0055660517 0.011092712 0.08597806 0.18639736 0.10296983 -0.07672304 0.0613662 -0.06550755 -0.053962853 -0.31203288 0.0809549 -0.06837304 -0.06371077 0.20441787 -0.07361925 -0.2268088 -0.67853194 0.25900894 0.21905579 0.002023051 -0.14551724 0.17269053 -0.13601393 0.22309652 -0.007511488 0.17060402 0.086682856 -0.14172739 0.10463306 0.16106468 -0.36002907 -0.019234639 -0.18657072 -0.060478512 0.028320875 -0.019378414 -0.17188326 -0.0346559 -0.036673963 -0.07679241 0.0008869554 0.09928207 0.06612626 -0.17500505 -0.31606343 0.09793086 0.3209843 -0.069047146 -0.06904347 -0.24823776 0.09042886 0.21630313 0.040266 -0.06535779
人 -0.108090885 -0.100997455 -0.21702501 0.018766087 0.13388269 0.31836542 0.1288023 0.22913568 -0.17312098 0.05982866 -0.18113066 -0.06928315 0.02261739 -0.021803103 -0.12119602 0.13597098 -0.17121525 0.10845627 -0.04670944 -0.09849179 -0.11144964 0.19358803 0.04062416 0.04257179 -0.13543703 -0.28965765 -0.16191734 -0.22221231 -0.039976813 0.1667594 -0.26444992 -0.09154891 0.14744462 -0.13719201 0.053365134 0.15890183 0.0035436745 -0.12020508 0.08443937 0.013929171 0.1282772 -0.0416439 -0.080289304 -0.023667585 0.10008433 -0.10822615 -0.08309885 0.02797705 0.38386276 0.005846567 0.045501385 -0.13645497 -0.13481483 -0.2674157 -0.22054501 -0.42386323 0.19733144 -0.27071577 -0.024557367 -0.055514786 -0.0013418619 0.07611856 -0.5733867 -0.2654883 0.03899026 0.075098634 -0.1528722 0.34650737 -0.012118159 0.01857212 -0.105297066 0.10857123 0.10223219 -0.42087483 -0.120251864 0.15895633 0.17808242 0.05096076 -0.30276582 0.11734993 -0.300277 0.11571427 -0.07177947 0.15277989 0.22762862 0.18247846 -0.05119253 -0.02737862 -0.089591935 -0.4202238 -0.03179096 -0.0042731054 0.097563826 0.1129759 -0.13893247 0.0058493465 0.20991726 0.25775012 0.021947628 -0.35747272
者 0.12986383 0.2893419 -0.116443455 -0.09084296 0.13024949 -0.080096535 -0.36304554 -0.15867658 0.1532797 0.26703975 0.15258417 -0.10074214 0.10208697 -0.2073973 0.21318163 0.055209402 0.0443534 0.17933197 -0.15370889 -0.068019256 -0.03780278 0.045956306 -0.031238606 -0.2259357 -0.23326539 -0.19190882 -0.026429165 0.07038582 0.050083905 -0.14080542 0.16029105 0.07329774 0.093101576 -0.10643948 -0.051345367 0.19295071 0.071630985 0.015098899 0.11638566 -0.26978183 0.13891983 -0.07413652 0.4096283 -0.44731054 0.25744364 0.16428834 -0.35428417 0.044639125 0.019254051 0.025787067 -0.0725242 0.05730715 -0.18419227 -0.051592916 -0.053433035 0.06625244 0.27170587 -0.022886725 0.13916828 0.04467561 -0.22197738 0.13069893 -0.55374974 -0.4064241 0.27779165 0.0005791149 -0.15742789 -0.22453941 0.14874184 -0.026134327 -0.4127936 -0.051285066 0.05625256 -0.2095938 0.073544435 -0.015842624 -0.1261879 -0.20105037 0.17445216 -0.31596255 0.17674357 0.1696761 -0.19203894 -0.23804095 0.07998736 0.10760314 0.091989905 -0.23592055 0.21695635 0.0056775874 -0.18287978 0.11101049 0.18079434 -0.45559126 -0.35172457 0.13334815 0.20943776 0.27849355 0.01735325 -0.08863651
以 -0.04553046 -0.24067259 -0.065158315 0.06817388 0.17954941 -0.4290429 0.38840213 -0.24566546 0.07239765 0.13866614 -0.10996054 0.42380726 -0.19325148 0.0002076407 -0.29759905 0.2621608 -0.15634714 -0.043709636 -0.033682656 -0.4053413 -0.081007205 0.08967009 0.04034016 0.14912283 0.08844724 0.075152546 -0.14750181 0.20238853 0.34361377 -0.4417291 -0.15400109 0.01642308 -0.081474215 0.084725305 -0.12446282 0.21819466 0.0015010255 0.067941874 -0.021298686 0.1958243 -0.17807339 -0.2815159 0.0019251772 -0.054108392 -0.26836357 -0.09646439 0.29289907 0.10851858 -0.088031955 0.4366632 0.1806741 -0.019374577 -0.09183942 -0.30861247 0.036613327 0.22299159 0.110283986 -0.22432972 0.15011051 0.0778919 -0.046614673 0.05907524 -0.79987645 -0.32736877 0.03710718 -0.32237095 0.12825106 0.007607975 0.23884697 -0.034221303 -0.030557077 0.23757468 0.15721786 -0.07600517 -0.2114501 0.11248543 0.056571443 0.02986116 0.062416974 0.2597758 -0.117958605 -0.097895525 -0.009145315 -0.15928651 -0.15766348 0.14921744 0.29352754 0.22290055 -0.01484381 0.37458166 -0.14595684 -0.24146536 -0.02489248 -0.18627997 0.012485399 0.26884934 -0.19359104 -0.035733197 0.04888588 0.078341
有 0.07492554 0.053690266 -0.06293881 -0.23464946 0.042134322 0.16401924 -0.06824358 0.2743458 0.076644994 -0.007389932 -0.065988414 0.08466961 0.23903662 -0.005172767 -0.24396689 0.08084869 0.022539096 0.07265901 -0.1627769 0.06104806 0.1984892 -0.13409503 0.13288984 0.2777867 -0.066393934 -0.37569907 0.28079572 -0.32796064 0.074914604 -0.22876462 -0.017194996 0.13356629 0.13715112 0.0015487167 -0.29878274 0.39274302 0.5223374 0.11064776 0.1601607 0.2038344 0.08800875 0.26412293 0.0463772 -0.06497693 0.06282913 -0.36497158 0.34463817 -0.13888595 -0.06718156 -0.14505401 0.12899625 -0.1908457 0.355475 0.029789152 -0.41691762 -0.15202677 0.2037037 0.20919736 0.057375815 0.17705594 -0.22743553 -0.06779177 -0.4121981 0.051788144 -0.26839536 -0.050069932 0.048258252 -0.18734054 0.07176963 0.14429493 0.0503954 0.028855098 -0.2507411 0.15976651 0.30447704 -0.25169805 0.16746923 0.018345697 0.21302752 -0.23045616 -0.008794427 -0.21539491 0.10150738 -0.43267775 0.22476968 0.43602327 0.13196494 0.01143589 0.057042465 0.08353888 0.29670674 -0.1874755 -0.04336054 0.07940373 -0.06674079 0.019671317 0.26425704 0.3126135 0.13947548 0.15067206
于 -0.027234234 -0.24514274 0.22245859 0.10522366 -0.18080807 -0.012605409 -0.176474 0.082024455 0.16132773 0.08651119 -0.15199481 -0.06243707 -0.05237953 0.011890106 -0.2616114 0.119922295 0.57439953 -0.16170223 -0.18681735 0.22686252 0.18267111 -0.14431335 -0.059131935 -0.04954675 -0.04507835 -0.22281446 -0.07120378 -0.44208813 -0.056505345 -0.24504574 -0.0891262 0.10407317 -0.3932511 0.2412135 -0.017793402 -0.027441407 0.12093589 0.12760445 -0.30431512 0.3763444 -0.019610045 0.17625108 -0.07688234 0.20515753 0.049518354 -0.2598287 -0.5114766 0.31655762 0.030012531 -0.14766783 -0.15323122 0.054451726 0.08871621 -0.107663184 -0.19603872 0.3778482 0.21069738 -0.09223267 -0.076957814 0.29394183 0.0034367826 -0.16456899 -0.41095552 -0.22738329 0.037076943 0.18778509 -0.1678915 -0.2629975 -0.11990906 0.19002213 0.07070309 -0.17743766 -0.15757899 -0.13827074 0.076723784 0.26931685 -0.38838577 -0.20444591 0.017972132 0.24478221 -0.070586234 0.06274067 -0.02003029 0.23707063 -0.20608616 -0.07165148 0.24185732 0.15418516 0.012468527 0.059739597 0.15473339 0.21022996 0.108110555 0.629464 0.28062668 0.15638354 -0.14284922 0.48386407 -0.07685626 -0.13785791
矣 -0.22822858 -0.034811832 -0.039377242 0.34945732 0.0030893225 -0.03627129 -0.362965 -0.024834698 -0.20658636 0.122831486 -0.20842302 -0.19485027 -0.08183064 0.23837203 0.038533676 0.23008923 -0.26384625 -0.07375174 -0.16334912 0.391487 -0.31167942 -0.18957777 0.017708464 0.15902613 0.06334151 0.17335749 -0.28824407 0.061791673 -0.13702272 0.04155406 -0.008618592 0.44208032 0.19123664 0.1642714 -0.3596041 -0.12047623 -0.27528876 -0.1860758 0.24355227 0.012438437 0.23900114 -0.042458892 0.31603375 -0.012910979 0.15831828 0.18486951 0.025364865 0.36297357 -0.20701896 -0.36368027 0.060381234 -0.10002632 0.07741955 -0.14631595 -0.5087271 0.07954113 -0.2775658 0.0035969135 0.16636664 0.44462106 0.05751422 0.03450208 -0.35443416 0.10916234 -0.34059796 0.057727907 0.04489977 -0.22238262 -0.11481954 -0.17814976 0.012934909 0.29705316 -0.0689278 0.11787997 -0.20973973 0.1475987 -0.14140612 -0.12546088 0.13259794 -0.19481148 -0.08359159 0.06546225 -0.09437728 -0.07721172 0.14398593 -0.34131497 -0.20064071 0.14681765 -0.11905748 -0.23326053 -0.23712295 -0.15038565 0.23053108 -0.07061487 0.4754375 -0.04977711 0.36356866 0.022074195 0.008467972 0.28164217
为 -0.14342326 0.16766559 -0.119812384 -0.10119433 -0.16132228 0.03285578 -0.09439375 -0.29001862 -0.12596759 -0.040241774 0.39087245 0.28851655 -0.1266961 -0.20103231 0.04005626 -0.121063955 -0.13318948 -0.306695 -0.07094528 -0.17702681 -0.3311666 0.16349643 0.29480422 0.15820923 0.15681142 -0.0073341685 0.20998639 -0.1943196 -0.030714363 0.19761156 -0.114376515 0.13014838 0.0803003 0.03618367 0.0793935 0.5051821 0.24221876 0.0011479837 -0.47093716 0.21012293 0.14290972 0.00799892 0.23921463 0.04189015 0.15300043 0.02527261 0.09499991 0.1594384 0.31011394 -0.019620487 0.1769898 0.051588826 -0.0067622336 -0.11582048 -0.3947139 0.0144782765 -0.009262805 -0.15187272 0.020156741 -0.21767378 0.13533998 0.37389502 -0.37626532 -0.0016685243 0.012328704 0.28132603 -0.292341 0.12572533 0.53972656 -0.06948471 0.26434103 -0.2047233 0.0936302 0.15380022 0.12012426 -0.026767775 0.22525242 -0.21409765 0.2178896 0.23751414 -0.3030439 0.20209824 -0.07409495 0.07328469 0.13123383 0.039566215 0.008010709 0.062666915 -0.05419215 0.4087717 -0.23153964 0.051046733 0.16904984 -0.48692867 -0.031521935 -0.022055164 -0.26297805 0.18799177 -0.027391464 -0.014189015
君 -0.022128398 0.05451603 -0.17510252 0.09470052 0.09429114 0.099442355 0.16250798 -0.124932274 -0.25873858 0.14906608 -0.0070850374 0.27183932 0.16076325 0.19571729 -0.34030965 -0.15013349 -0.5627381 -0.270888 0.03494611 0.16314343 -0.12404786 -0.04065097 0.23388265 -0.07359574 -0.18998764 -0.113736555 -0.4622727 0.018753264 0.15952334 0.1697343 0.40881908 -0.08984359 0.05970124 0.20549488 0.073305644 -0.10568082 0.013668589 0.21109273 -0.2026718 -0.18415335 0.08397969 0.19170178 0.026973186 -0.070397906 -0.00021000531 0.01596572 -0.04521835 -0.29944947 0.12699784 -0.13172662 -0.07262267 0.0869656 0.18538596 0.18600506 -0.5881156 0.085121766 0.14011979 -0.30080754 0.04928535 -0.06186778 -0.07494243 0.31732056 -0.38917643 -0.0108677475 0.2526063 0.3472488 0.09668145 0.012219089 -0.17166068 0.043375224 0.4948162 -0.2190474 0.13644099 -0.16220082 -0.16608298 -0.21519808 0.2615033 0.15673758 -0.04939847 0.06255153 0.409364 -0.254123 0.031456884 0.038937677 0.24485826 -0.0274534 0.12795877 -0.116482295 0.19526067 -0.30882937 -0.007146979 0.13484095 0.13344236 0.027078379 0.039709102 -0.06043717 -0.011173358 0.050997607 -0.14334725 0.09419888
乎 -0.35888532 -0.29571688 -0.015742807 -0.11311013 -0.106871866 -0.008927595 0.12883334 -0.021050442 0.3348117 -0.1538392 0.080368206 -0.24572444 0.010410541 -0.17612767 -0.31233454 -0.08669759 -0.18419592 0.15230298 -0.14666933 0.012865843 -0.16145928 -0.1649346 0.30566475 -0.20542826 -0.1708866 0.020038182 0.044099722 0.060675353 0.017153343 -0.15970545 -0.044775516 0.45994705 -0.17094024 -0.14918602 0.22591029 -0.079571106 -0.24065763 -0.14616781 -0.07840241 0.10026673 -0.23705679 0.19625132 0.07543147 -0.21013372 0.25329316 0.13818237 0.15886806 0.40162906 0.13213205 -0.02312798 -0.1794931 -0.14058042 0.42010605 -0.021799408 -0.6045596 -0.35279015 0.3072155 0.05902228 0.15160395 -0.1807658 0.015108808 0.10371317 -0.18813048 0.25224403 -0.1333705 0.0218317 -0.309539 -0.087494195 0.1014874 -0.11680636 -0.24597162 -0.086758904 -0.019177176 0.040688172 -0.07524877 0.04545856 0.13386121 0.044364125 0.02565242 -0.0087545505 0.025700565 -0.17177646 -0.15940472 -0.21156864 0.062246867 -0.055838276 0.31290317 -0.10456957 0.66381127 0.24649881 -0.16674177 0.22887245 0.14156146 0.12884861 0.40103492 -0.31857216 0.17469537 0.12873258 0.009536417 -0.07135648
可 0.1453341 0.33440083 0.15048634 0.2817238 0.6368532 0.08556586 0.13711129 -0.283451 0.14579904 -0.1600722 0.19389379 0.13512377 0.35694203 0.11263248 -0.23308432 0.03048611 -0.12093543 0.008238672 -0.16534504 -0.19672346 0.02695887 0.18451151 -0.16872026 0.095761724 0.07290852 0.19729137 -0.34619072 0.37075642 -0.23162583 -0.10954819 -0.39302185 0.040291492 0.2860113 0.14284872 0.27899948 0.11357154 -0.085790776 0.08515194 -0.23168844 0.017919721 0.012369134 -0.07853355 0.33248264 -0.045438204 0.10363138 -0.16849346 0.29714623 0.35260078 0.10742812 0.1166328 -0.15875314 0.084719054 0.26540715 0.03808758 0.07037572 -0.34665653 -0.21949612 0.34357777 -0.13629878 0.54824066 0.082798176 0.045594867 -0.89339894 0.024801997 -0.09978142 -0.5555573 0.20606881 -0.0038185692 -0.02935557 0.05133322 -0.13127102 0.120321624 0.021282095 -0.19156286 -0.21169974 -0.023716016 -0.09051541 -0.027132254 -0.043624397 0.07791113 -0.036922984 0.22004066 0.055174734 0.04480995 -0.31525093 0.020789351 -0.093583494 -0.3223241 -0.03251873 0.0014515774 -0.057634696 0.09133682 0.10882591 -0.3457318 0.03267892 -0.23905852 -0.17763266 -0.19987352 -0.28339735 0.17516306
如 -0.15409522 -0.00895276 -0.09953108 0.14449319 -0.13111702 -0.23474006 0.099575974 -0.5859515 0.21142018 0.11610456 0.001875599 -0.22750278 -0.22845685 -0.09776894 -0.010753295 0.07957396 -0.08556007 0.19760798 0.085536316 0.12320776 0.0062278225 0.32052088 -0.29628175 0.1664839 -0.03377073 0.09990702 0.0687306 0.019941697 0.33320856 0.3076982 0.042762995 0.016982334 -0.14567843 -0.028807333 0.34276494 0.3058149 0.25419053 0.17348295 -0.072712384 0.11773429 0.26604834 0.014877272 0.20983009 -0.09687897 0.18871589 -0.17945065 -0.1321918 -0.07763156 -0.054929074 0.24326488 0.18785161 -0.29975256 0.10658105 -0.058912296 -0.25672436 -0.13205588 0.0666737 -0.090612754 -0.34804788 0.01313635 0.011300632 -0.014644226 -0.485583 0.39015013 0.08152011 0.1687638 0.17602946 -0.14948028 -0.07044792 -0.28430265 0.059959654 0.424194 0.24329714 -0.031917058 -0.17459004 0.3637334 0.32656926 0.009332692 0.21841562 -0.011127603 0.63272816 0.10962084 -0.096049525 -0.08990529 -0.037609167 -0.17648432 -0.40963376 -0.5195127 0.04602269 0.09782765 -0.10862193 -0.35912904 -0.0025228101 0.20532894 -0.019742003 -0.33828425 0.25013947 0.2512958 -0.36073872 -0.039772585
与 -0.03755127 0.14155754 0.20943892 -0.08576309 0.036564447 0.46035242 -0.16306955 0.14490318 0.31956255 0.38276365 0.2983773 -0.17746507 0.1098479 0.26851898 0.27647588 -0.23980452 0.31699097 0.2707788 0.3424554 0.009578271 0.12471537 0.36581522 -0.20829356 0.025605472 -0.078793995 0.37625235 -0.10994599 0.30981076 0.4069564 0.18207352 0.13645904 0.37933663 0.034379557 -0.02966815 -0.014263235 0.43233803 -0.24785264 0.14589982 0.27550334 -0.041987143 -0.092678614 0.07608494 0.17614463 0.033537805 -0.23376006 -0.2943033 0.008135897 -0.18626429 -0.2160394 0.121699065 -0.39873025 -0.04705285 0.059327666 -0.031585574 -0.1827361 -0.06834905 0.11132789 -0.23080745 0.065407544 -0.0057154894 0.27261993 0.07600726 -0.3713745 -0.08448736 0.2953573 0.015224686 0.06501533 -0.30692315 0.1634108 0.03564385 0.115330994 0.14804778 -0.0694249 0.18700439 0.09278586 0.40204167 -0.03655637 -0.014461799 0.019505123 -0.032146376 0.12903975 0.19801457 -0.11136308 0.3937596 0.057342015 0.17077938 -0.0010906535 0.16789748 0.15420023 0.23790239 -0.17667416 -0.027417738 0.34393373 0.15161543 -0.42916057 -0.1017553 -0.597582 0.12674823 -0.29540825 0.15725344
； -0.37821767 -0.28584898 0.1576282 -0.2720655 0.24107064 -0.42643452 -0.23876713 0.24993457 -0.45509574 -0.3495975 0.16581093 0.09742097 0.11495939 -0.13887258 0.13645636 0.008269881 -0.22732322 -0.12728968 -0.1599567 0.13635202 -0.21357886 0.17294964 -0.11554668 0.033651095 0.16848803 -0.063998446 -0.19142006 -0.16991527 -0.06528556 0.085553735 0.16185218 0.011984735 0.07519664 -0.46483636 0.030128153 0.03373852 0.0064185625 -0.033283714 -0.40123785 -0.082126096 -0.020895287 -0.04295686 0.044800688 -0.16237074 -0.08364734 0.29502326 -0.060781635 -0.001235035 -0.08332796 0.23742989 0.25654584 0.098446526 -0.21794377 0.65763885 0.29644752 0.093876 0.21590589 -0.09916202 0.1356204 0.3605417 -0.33437476 0.21938306 -0.81498766 0.21630055 0.055417433 -0.14561571 0.19248022 0.119595565 -0.11814132 -0.5740806 -0.004753447 -0.0783943 -0.32167265 -0.020395977 0.104722396 0.22030696 -0.15339257 -0.08948614 0.033568528 -0.00529912 0.36036336 -0.024119876 -0.29010287 0.08330403 -0.30387044 0.3423534 0.12556201 0.2135101 -0.22005269 0.14155371 0.26457766 0.045208115 0.19947119 0.111808136 0.113773696 0.12294102 0.2482318 -0.16197857 0.34519207 -0.27643746
言 -0.20996156 -0.061445802 -0.093402535 0.38019183 0.013359115 -0.054655075 -0.1103026 0.2698579 0.024535963 -0.07124434 0.16818182 0.30471915 -0.03134862 -0.105486564 0.055681877 -0.33211857 -0.008740317 -0.064708374 -0.03587523 0.31689602 0.37607825 0.11135675 -0.14666268 0.25848973 -0.22093925 -0.27648836 -0.071377136 -0.117213644 0.0655613 0.09835349 0.33638185 0.020890802 -0.1489184 -0.09900593 0.13529573 0.22713631 -0.032963116 0.097383365 0.24381879 -0.43643627 -0.0010203359 0.20334452 0.1432422 -0.10965982 0.1943285 0.49941552 0.14729844 0.44987383 -0.2788103 0.31510165 -0.07813102 0.40436885 0.12391902 -0.33882308 -0.17082517 -0.21225081 0.091381274 -0.03488865 -0.4681616 0.018132789 0.09274553 -0.35338938 -0.6070416 -0.15669996 -0.009231223 -0.46272254 0.16828795 0.020469893 0.10834541 0.07405862 0.22049718 0.30629352 -0.27686444 0.25766945 -0.012107909 -0.44787627 0.38671765 -0.11748701 -0.22496995 -0.12684387 -0.15361305 0.04350783 -0.27267337 -0.28180954 0.13976184 0.6021248 -0.04293919 -0.025024125 -0.04416186 0.025399387 0.18408024 0.19636083 -0.022882327 0.19807884 0.22350809 -0.23715574 -0.4391266 -0.11294485 0.20177811 -0.07922452
无 -0.1796165 0.19958986 -0.08774302 -0.08925418 0.18959478 0.2301142 -0.26946527 0.31544626 -0.08893853 0.041992337 -0.13653041 -0.025175134 -0.099496916 0.21759957 0.10014918 -0.041113768 0.10716533 -0.4572613 0.17693266 0.19830777 0.04582973 -0.19638565 0.011529279 0.07784975 0.021624826 -0.0403123 0.014107474 0.076097354 0.2674338 -0.18310559 -0.52859163 -0.10853515 0.061295096 0.10396066 0.0060588703 -0.03677643 0.030918965 -0.25681835 0.022703636 -0.17690922 0.3234273 -0.06654421 0.15099609 -0.08644195 0.15306678 0.3512935 0.32968917 -0.10954176 -0.15938044 0.27257028 -0.31585562 0.061386954 0.19037224 -0.26327854 -0.14219879 -0.19907485 -0.39901733 0.25061628 0.3341568 -0.03487858 -0.07507122 0.07714039 -0.59374994 0.10794491 0.018196745 0.019221544 -0.08234071 0.33475038 -0.2525501 -0.09479268 0.28994116 0.2641171 -0.41823423 0.08439787 -0.5105033 0.021361686 -0.24705994 0.21150738 -0.24054478 0.19322897 -0.14514092 -0.38930055 -0.17230253 0.08485429 -0.31930104 0.23436633 -0.004909081 0.051126752 0.37540781 0.10884684 0.26603478 0.16444741 -0.08512223 -0.13296293 -0.21035837 -0.09978218 0.23796947 0.25423217 -0.32450342 0.00012450824
则 0.4543747 0.124639936 0.036869038 0.03391683 0.066015296 -0.1537532 -0.07273153 0.07066986 -0.15879022 0.16814166 -0.06800375 -0.31463555 -0.09433891 -0.53718126 -0.36230943 -0.33649915 0.120309144 0.03452947 -0.07669235 -0.054399602 -0.15018076 -0.018847123 -0.010645377 0.029201297 0.13050498 -0.4627105 -0.1645062 -0.26890555 0.13795929 -0.3427862 0.19226058 0.16207369 -0.05767787 -0.07353322 0.46404803 0.195972 0.30446023 -0.19881885 0.053523052 -0.07135009 0.07990796 0.10348686 -0.25198385 0.11489968 0.047884885 0.34655377 0.1279265 0.14180867 -0.10004544 -0.02762907 -0.27019012 0.12167063 -0.15556057 0.1273959 0.010811446 0.20219551 -0.40480384 -0.08988121 -0.15720202 -0.12234712 0.29323113 0.20300151 -0.620072 0.04188342 -0.14050035 0.23256329 -0.124990456 0.3373707 0.48790815 0.049547497 -0.28238603 -0.034156807 0.18375374 0.25687575 -0.37145203 0.2468714 -0.008630432 -0.2899207 0.26384476 0.46341285 0.3229012 -0.17158385 0.09550781 -0.14134766 -0.40720877 0.44287303 0.015853778 0.21031095 0.14091107 0.0056409785 -0.26006043 0.173594 0.06313032 -0.013130625 0.08114773 -0.0989959 0.097371474 -0.11804464 0.2705549 -0.10707668
！ -0.46069154 -0.062481683 0.030026764 -0.13598078 0.09082659 -0.18305235 -0.10406179 0.29532528 -0.13738205 0.14343883 0.46964645 0.10723585 0.07036783 0.49329135 -0.033301383 -0.092200406 0.026582118 -0.018122457 0.020888193 -0.06778843 0.058614314 0.09473384 0.0301797 0.110007524 -0.23498578 -0.12765774 0.23868237 -0.09956155 -0.45341346 0.13341585 0.21130943 0.41588807 -0.0014718834 0.14851941 -0.13643116 -0.19914804 -0.070467405 0.3503468 -0.59014547 -0.44610533 -0.5513508 -0.25530636 -0.04258395 0.47448784 0.24144073 -0.024417022 0.16687588 0.08284573 0.15561366 0.05887764 0.0057262303 0.26844713 0.0026231036 0.030099947 -0.86863935 0.11132017 0.056505024 -0.54258794 0.26908275 -0.07081067 0.06830622 0.07067136 -0.29964477 -0.0015568531 0.0903202 -0.034847427 -0.23375714 0.081252426 -0.22228198 0.13027918 -0.13869967 -0.34771845 0.026845613 -0.034407437 0.19400589 0.36840025 0.1503835 0.13656949 0.10777436 0.21487263 0.44324514 0.007114218 -0.055186126 0.091404304 -0.16805162 -0.23756176 0.33903235 -0.012684248 0.098380774 0.18522733 -0.02182782 -0.530249 -0.08620567 0.19758731 -0.19923589 -0.3221396 0.24780038 0.0008826622 -0.15837075 0.07806095
问 0.0048456206 -0.18817316 -0.040695682 -0.2759428 0.21036963 0.02884076 0.161218 0.25030652 -0.027435875 0.16496111 0.1265067 0.028070811 -0.00440212 0.010457075 0.27688834 0.06523121 0.06424932 -0.19565421 -0.15492964 -0.058630697 0.27034074 -0.25606838 -0.06250384 -0.26178372 0.01190077 0.18444408 -0.46932533 -0.35676977 -0.0069312137 -0.0025836602 -0.36447307 0.07910252 -0.20020889 -0.07157802 -0.04174413 0.44202366 0.18153375 0.010220018 0.047772795 0.11678994 0.4326627 0.06930069 0.2011157 -0.050908145 -0.3682202 0.14438422 -0.003060739 -0.24182998 0.017116671 -0.22805922 -0.078904755 -0.115128964 -0.17274432 0.03542018 -0.9513712 0.36385277 -0.53968334 -0.08428013 -0.07579849 0.036981586 -0.12268382 -0.0685422 -0.22801696 -0.4525129 -0.027604531 0.2438655 0.45627072 -0.39684963 -0.1581668 -0.17060792 0.061221924 -0.43170413 0.41615102 0.43180066 0.09545398 -0.21440215 -0.22969139 0.25402948 -0.17235428 0.35831723 -0.076247856 0.30882016 0.12115821 -0.039009146 -0.22778496 0.058103446 -0.39417446 0.11784945 -0.30728373 -0.031134965 -0.23177858 0.4482711 -0.11770339 0.24594042 0.09301565 0.17646854 0.12356222 0.35988247 -0.15851523 0.062349517
知 -0.017548067 -0.036103867 -0.13625234 0.0063593537 -0.29493466 -0.098424636 0.023093935 -0.6707337 0.23525709 -0.03098363 0.0831709 -0.30376232 -0.05137608 0.13253824 0.4137406 0.06672674 -0.21401027 0.1204657 -0.02320796 0.018195726 0.13990854 0.03657537 -0.06924397 0.17560725 -0.0208939 -0.30208632 -0.2094355 -0.046343837 0.32616326 -0.11966869 0.08121786 -0.028116425 0.2844739 0.1924814 0.0377129 0.2103726 -0.16086917 0.22513126 0.112875946 0.13051556 -0.1638843 0.081944175 -0.015745876 0.2799227 0.3070067 -0.029537546 0.021768086 0.19752508 -0.37491918 0.26674062 -0.00032917297 0.105217695 0.184675 0.0064284424 -0.1487537 -0.04424458 -0.015587001 -0.10450295 0.13364483 -0.09197343 -0.11938514 0.09684408 -0.51748663 -0.16927406 0.34012064 -0.38848835 0.28069207 -0.17175217 -0.37650746 -0.0860703 -0.19892798 0.062882416 0.08257497 0.2953749 0.12983511 0.14514035 -0.26668224 -0.091002755 0.04621259 0.12174937 -0.5549556 0.2321234 0.365467 -0.065097205 -0.121715106 -0.11555259 0.04633013 -0.26760668 0.33183572 -0.18025118 0.3456916 0.3265566 0.2476254 0.08349282 -0.19820274 0.24249227 0.3310258 0.0075241853 0.22961801 -0.033367723
何 -0.061308954 -0.194733 0.095929965 -0.1528562 -0.32914138 0.015631145 -0.1488804 -0.55076176 0.10256896 0.08342056 -0.028006716 -0.35762528 0.01704865 -0.07221642 0.5247029 -0.01155173 -0.32622874 0.092994854 0.40236 -0.25089547 -0.19403377 0.06694289 0.15829857 -0.024893185 0.06601426 0.081700504 0.03713461 -0.13382682 0.041450553 -0.060227517 -0.2074569 0.23781243 -0.21303919 0.21336368 -0.26643592 -0.020207446 0.11840741 0.09311982 -0.0024070232 0.27667466 -0.26704955 0.059261046 0.23582998 0.23016039 -0.29048657 -0.101113625 0.037270322 -0.25874013 -0.23146252 0.03617971 0.21323964 0.3762488 0.28016132 0.15718472 -0.5442552 -0.08263571 0.32460615 0.41936216 0.10760537 0.06767526 0.38964468 -0.07402751 -0.19313042 0.28049213 0.14832267 -0.261179 0.055714957 -0.103293076 0.16560973 -0.06787063 -0.027441671 -0.07929658 0.1838828 -0.20646651 0.08953175 0.5883223 0.21266994 -0.15450317 -0.18799601 0.049072787 0.06896636 -0.10256498 0.07082409 0.039018266 -0.087268755 0.3447667 -0.016474782 0.28052 0.026872931 -0.07880594 0.01725131 0.18782671 -0.18703246 -0.16472743 -0.09795324 -0.07730417 0.36885262 -0.22594371 -0.17522727 0.37505475
吾 -0.12414316 -0.11887937 0.48024088 0.09885183 -0.17694962 -0.29977614 0.055104233 -0.19386289 -0.08615248 0.026086062 0.119261056 0.22621694 0.0946056 0.08853044 0.10383982 -0.084167466 0.1517822 0.01737733 0.34459507 -0.08255394 -0.039142746 -0.026651617 -0.026814306 0.3413994 -0.24616769 -0.030830419 -0.06801262 0.282864 0.21964978 0.20046304 0.16921656 0.11224822 -0.1991491 -0.10008954 -0.45721263 0.19354895 -0.31518814 -0.06726561 -0.15527767 -0.253324 0.06433882 -0.3112216 -0.10891587 -0.12896402 0.28875563 -0.28063935 -0.17766736 0.03414355 -0.026796468 0.12471444 -0.15903497 0.09899695 0.0021789414 -0.29245985 -0.19665428 -0.122108065 -0.26507115 0.23808646 0.070358746 -0.3212867 -0.48683223 -0.28243318 -0.3914182 0.2559784 -0.22846532 -0.07450739 -0.23859349 0.07357059 0.08654503 0.028184375 -0.027768917 0.060705468 0.21508709 -0.20797834 -0.048591275 0.051283617 -0.0015148427 -0.50489855 0.64734656 -0.011268582 0.30366063 -0.0824471 -0.30607897 0.2891166 -0.32949552 0.47094774 -0.23990451 0.09028793 0.5258226 -0.21647277 -0.29773483 0.033727627 0.19165665 -0.19881949 0.055005748 -0.17191102 -0.13366307 -0.18899855 0.05767385 -0.5587992
仁 -0.27628142 0.054591533 0.061614003 0.045973606 -0.05370812 -0.11301669 -0.24432427 -0.22983572 -0.2642846 -0.26063353 -0.32565317 -0.1444877 -0.021931753 -0.29617372 0.16431637 0.060472988 -0.09991438 0.08786784 -0.25370982 -0.28465566 0.12734 -0.33836052 -0.1897647 0.35901982 0.022730809 -0.30831826 -0.106990695 -0.048585024 -0.24613336 0.17262807 -0.22878854 0.5978884 0.006548071 0.08136041 -0.37426314 0.018136062 -0.13786006 -0.039889134 -0.24499352 0.18825859 -0.17976804 -0.2013032 -0.16633677 -0.08917599 0.1257413 0.10891333 0.16641384 0.14696367 0.07318412 -0.33300748 -0.33124882 0.11153606 0.15505305 0.023719708 -0.16827732 0.1178416 0.14386527 -0.07274218 0.572388 -0.2597099 0.28500792 0.13662931 -0.46815103 -0.21925853 0.52480465 0.051556323 -0.033352517 -0.24074024 -0.10953992 0.07283413 0.23214388 0.045121692 0.16824384 -0.236933 -0.06630976 -0.24561101 -0.16866498 0.05371808 0.15628958 -0.07712211 -0.20521562 0.13688703 0.07906623 -0.11486893 -0.11798048 0.035250716 -0.27817354 -0.5858346 0.06457408 0.09745838 -0.08281984 -0.21764427 0.13855135 -0.21805052 0.19222933 -0.11883369 0.25993568 -0.041640636 0.36693385 -0.04345232
夫 0.2382635 -0.12721021 0.009162021 -0.10486391 -0.2761236 0.23955522 -0.07228168 -0.45892262 -0.018424083 0.3764818 -0.31059036 -0.045133207 0.5155641 -0.1329146 -0.22603723 -0.060272783 -0.24580704 -0.12081082 -0.05928285 0.47444466 -0.027410176 -0.074031085 0.10822213 0.21446478 0.043316934 -0.34967175 0.2136259 0.06758571 0.006779862 0.12951943 -0.21599503 0.15387863 0.118925884 -0.18957658 0.017492121 -0.03203003 0.017580971 -0.14548877 -0.19413897 -0.32922283 -0.13871635 0.13080749 -0.29171142 -0.33024105 0.119014174 0.07422024 0.007104677 -0.3888802 -0.019650757 -0.1590453 -0.23056632 0.062344465 0.24475971 -0.05703611 -0.53237325 0.3554312 -0.1870348 0.13405488 -0.029395591 0.43717524 -0.23780012 0.25005636 -0.21767662 0.17567231 0.15149537 -0.25744015 0.060972523 -0.45453036 -0.065453716 -0.13148211 -0.040154282 0.28860894 0.22996993 0.22068115 -0.1883911 0.2042616 0.18552274 -0.15811451 -0.2677461 -0.41384116 0.00640666 -0.09708217 -0.32222694 0.39507926 -0.008429733 0.0068261568 0.15746376 0.35992956 0.13696289 -0.0670562 0.13105312 -0.2773443 0.3832063 0.2600445 -0.20217624 0.081472434 -0.19004673 0.31838736 0.06520221 -0.5091792
、 -0.067261115 -0.35447574 -0.006558166 -0.4690301 0.04856757 0.14872545 0.57509154 -0.18254158 -0.28591704 -0.18386872 0.067080766 0.0012675651 0.25535348 0.050809074 0.36274815 0.11317504 -0.093523145 -0.1983635 0.4213983 -0.5196451 0.008251957 -0.15056062 0.26281327 -0.6609758 -0.15879238 -0.019701507 0.30623627 -0.09837298 0.12259668 -0.22868247 -0.052527744 0.29960898 -0.38892072 -0.17949827 0.062339403 -0.02422426 0.03815003 -0.16698019 -0.33570907 -0.053555466 0.078288496 -0.100338235 0.70951855 0.018437475 0.09706697 0.33587772 0.28993335 0.34907228 -0.22339334 0.1533928 0.18708812 0.023447696 -0.19727693 0.013121745 -0.20520289 0.4172719 0.05349504 -0.47817963 -0.4386511 0.21555728 -0.13364059 -0.16265643 -0.64921874 -0.06416923 -0.19517742 0.28768104 -0.56601095 -0.4842284 -0.14922017 -0.21380903 -0.09888117 0.0885397 -0.08512193 0.47513378 -0.025545007 -0.45204264 0.15514565 0.27798048 0.664339 -0.20889358 0.13172221 0.18875106 0.42048323 0.6093107 -0.092841625 0.46201766 -0.008552576 -0.04151995 -0.13769498 -0.16058563 -0.0070420024 -0.2430641 -0.10859863 -0.031438384 0.021887464 0.029664416 -0.04310618 0.22839808 -0.08362548 -0.24671817
道 0.26756868 0.110182926 -0.19661137 -0.06576089 -0.08086434 0.03894249 -0.0410426 0.50775 -0.07088668 -0.19668698 0.13286014 -0.5275566 -0.18317561 0.2460338 0.03504825 0.016440623 0.40745455 0.15752864 -0.12010995 0.1561214 0.08952322 0.115668766 0.20834662 0.4760927 0.046761137 -0.12488467 -0.108737655 -0.1443911 0.055351295 0.26022175 -0.016438764 0.19287263 -0.45650384 0.12873851 -0.20319651 0.18349382 0.5048873 -0.051274847 -0.09357497 -0.014811356 0.10573355 0.032887075 0.09201168 0.25421137 -0.2368054 -0.30808517 -0.08900216 -0.4018386 -0.15793182 0.15087746 0.027266074 0.13159189 0.029694369 -0.050902292 -0.094234616 0.15418556 0.19266479 0.42939684 0.18539366 -0.11946861 0.08172704 0.39933708 -0.6847631 -0.032149844 -0.19129899 0.24491593 0.21678643 0.15377456 -0.22575803 -0.21448229 0.27126136 -0.3189806 0.21287665 0.011754679 -0.29169312 0.056373812 0.016605344 -0.24443102 -0.1806666 0.23769897 0.021630082 0.22999084 0.17320736 0.26601413 0.1819518 0.6057087 -0.26331887 -0.15285775 -0.10454349 -0.29745045 0.57687694 -0.33569044 -0.086039916 -0.22775519 -0.07171096 -0.11651067 -0.3231086 0.15134077 0.04880289 0.110543765
焉 -0.36364055 0.31884181 0.25781742 0.216158 -0.06385837 -0.033169575 -0.12365923 -0.28118148 0.01414869 0.028867103 -0.20003682 0.38549283 -0.25391352 0.34016988 -0.21422696 0.38975796 0.3492833 0.2201335 0.22118612 0.32466888 0.15645969 0.1254508 0.1597666 -0.427627 -0.038320683 -0.09963635 0.42804238 0.34404847 0.19563727 0.09775999 -0.039667107 -0.0757608 0.42238218 -0.43931758 0.22627687 -0.5839169 -0.3644397 0.06311417 0.30040842 0.37053388 -0.07643559 0.44427222 -0.3927681 -0.11055951 -0.29375783 0.072632685 0.14757241 0.06826076 -0.3556001 -0.39610764 -0.06071866 -0.12823763 -0.16454597 0.09110282 -0.3660189 -0.5098809 -0.10112584 0.023009876 -0.08271027 -0.33821973 -0.09769307 0.04768298 -0.48618403 -0.12114503 0.008352769 -0.021138556 -0.09701537 -0.28279522 0.18474741 0.010065967 -0.008929926 -0.37730667 0.18207808 0.19110131 -0.2756055 0.27270365 0.06776439 -0.18520635 -0.17534618 -0.17162809 -0.19678985 -0.09665501 -0.05776596 0.0903481 -0.5108442 0.55942136 -0.09306502 -0.37949878 -0.30295533 0.0881782 0.19768548 -0.0081424415 0.0030028897 -0.13458782 0.107152894 -0.32746327 0.2478313 0.09011365 -0.06465349 0.26127756
行 0.23163526 -0.23271102 -0.17727552 0.040918835 0.26031038 0.11742922 -0.4328778 -0.4012702 0.25886512 -0.011356637 0.061351232 0.08405507 -0.3294995 -0.15936743 -0.3872795 -0.27709863 -0.030910203 0.05330813 -0.05041381 -0.068455994 0.14878075 0.0126151815 -0.2185719 0.19975917 -0.09955422 0.12282105 -0.07075481 0.14020662 0.13398696 0.14961606 0.3736014 0.048398804 0.20193718 0.3552278 -0.114974834 0.23127818 -0.056443676 -0.095532455 -0.13677174 0.028331297 -0.15273964 -0.0228827 -0.13856693 -0.14534466 -0.2540306 0.33461 -0.026179291 -0.04996635 -0.12605293 -0.04841174 -0.07335794 0.15540126 0.32395548 -0.07836469 -0.13383305 0.00597722 0.010928283 0.48339832 0.2581602 -0.0133988345 0.38682687 -0.058131542 -0.43108228 -0.59249914 -0.24670924 0.39430785 0.042405833 -0.0882006 -0.36555606 0.060410663 -0.083157845 -0.15964153 0.21254198 0.29974383 -0.21710898 -0.44673076 -0.3757043 0.40267915 0.17025442 -0.16370897 0.062265303 0.6110735 -0.18754737 0.17678934 -0.09528271 0.524134 0.0047096536 -0.00039595168 -0.2825869 -0.07405885 0.05909579 0.023880078 -0.2294896 -0.0030404772 0.28159428 -0.5783568 -0.012793064 -0.11790795 0.4468334 -0.19244546
谓 0.2974922 -0.10132853 -0.07729486 -0.2331719 0.09371185 0.16553685 0.15369347 -0.05698154 -0.14429307 -0.19920237 0.31963003 -0.4997782 -0.13023731 0.054183353 0.112095915 0.24583921 -0.2637216 -0.017760307 0.3827278 -0.40520307 0.22439943 -0.041383266 -0.19947751 -0.08025853 0.09227149 0.19400102 0.014239987 0.13394004 -0.4836819 0.19732183 0.19095698 -0.053114295 0.4891155 -0.122958116 -0.11211142 0.1892408 0.31324697 0.18119973 -0.039331846 0.2191347 0.111617714 0.45885304 0.033803005 -0.11678124 0.21816733 0.6665345 -0.10772618 0.3754898 -0.29707742 0.6191306 0.22458933 -0.23871273 0.34411195 -0.044255733 -0.6060941 0.18162207 -0.05178366 0.13049155 0.4268623 -0.1633794 0.09050344 -0.002950338 -0.4079023 0.18496381 0.13497707 -0.20781782 -0.17328043 -0.49744192 -0.080728166 0.45752794 0.44960392 0.07266777 -0.01435314 -0.2421976 0.09120994 0.15171131 0.21483113 -0.18728319 -0.20549081 0.26308456 0.13525787 -0.094080016 0.09868291 -0.052436125 -0.17306271 -0.035234734 -0.41378638 0.25409475 -0.15169272 0.01226402 -0.26477286 -0.09482057 -0.076168366 -0.20337433 -0.13255605 0.20139618 0.04295361 0.658078 -0.029243918 0.45233297
必 0.29728135 -0.08916636 -0.33417568 -0.12608378 0.08807635 0.010837353 -0.17455754 -0.32868093 0.1332776 0.007970762 -0.11524469 0.1069487 0.07173629 -0.207296 -0.2727313 -0.3707922 0.23835272 0.1270592 -0.16504739 0.12005282 0.037412286 -0.1971797 -0.14691663 -0.053681646 -0.11980183 0.0874825 0.030888373 0.13112104 -0.22127247 -0.11379571 -0.28272557 0.09559423 -0.07036794 0.3804039 0.25552505 0.05022538 -0.11040266 0.68081903 0.0977311 0.13048598 -0.0013565073 -0.07660004 0.24733236 -0.07255839 0.09499636 0.21013722 0.065879755 0.17494416 -0.28419748 -0.043058623 0.2857883 -0.24414209 -0.05232587 -0.04270241 0.24138407 0.03514102 0.21098632 -0.20960444 0.3673324 -0.097451515 -0.106732905 -0.49102858 -0.7780757 0.42723033 0.30051377 -0.05990179 0.12698998 -0.21297102 -0.34611505 -0.18463226 0.3205078 -0.55442363 -0.11211881 0.01051805 -0.30304572 0.30035126 0.4398411 -0.2290877 0.4269278 -0.6094155 -0.07147614 -0.21304542 0.023448452 0.12569167 0.28473413 0.06623621 -0.095179394 0.38368484 -0.2896701 -0.019401709 0.39440554 0.19206616 -0.2165066 0.21606383 -0.13809028 -0.010023196 0.08120627 0.34283078 0.36594656 0.24475932
礼 0.20492217 -0.23408845 0.015737476 -0.6062717 -0.021131406 -0.23057422 0.13430211 -0.22810027 -0.024887068 -0.68481266 -0.35631213 -0.116008066 0.2014226 0.39572644 0.23922192 0.24410053 0.16477372 -0.10511388 -0.0055520195 0.076634206 -0.1484623 0.19228879 0.33576426 0.13486364 0.012529743 -0.48288697 0.14758891 -0.2672633 -0.058275983 0.09904194 0.3564924 -0.055227265 -0.1617711 -0.055248264 -0.11000358 0.47078538 -0.03143874 -0.2542119 -0.18610677 0.69497204 0.296451 0.39294112 -0.13851993 -0.3022527 -0.3402909 -0.08083822 0.1655352 0.40674597 -0.13128813 -0.2655842 0.00024804776 -0.16987757 0.07635403 -0.23119143 0.07242067 -0.16363482 0.027397577 0.219668 -0.15364154 0.030861696 -0.2824579 0.13219635 -0.662052 -0.25831124 0.1508871 0.0583293 0.11212112 0.25239623 0.23807493 -0.06603906 -0.3410515 -0.0098274145 0.10093922 0.05817325 -0.12985972 -0.11982551 0.0365465 0.25720307 -0.29126748 0.4491415 0.5067127 0.14348623 -0.40479496 -0.1924398 0.06436301 -0.3274451 -0.01221563 -0.42635602 0.06730825 -0.17912602 -0.0099377595 0.25649866 0.2672669 0.04979653 0.19872586 0.16382314 -0.14246903 -0.037448358 -0.029782996 0.23520073
孔 0.49503952 -0.26522946 0.15211025 0.31875467 0.08241003 0.09838597 -0.35067725 -0.40059802 0.24985118 0.107718684 0.008671526 -0.094112754 -0.32928634 -0.11796373 0.020170107 0.24743061 0.3935901 0.18159443 -0.17635766 -0.052578814 -0.7417722 0.12915452 -0.1265893 0.0041867103 0.23232262 -0.50658244 -0.7363351 -0.3637215 -0.37337172 0.013113535 -0.10426487 -0.12412158 -0.38148424 -0.571466 -0.26084456 0.19166748 -0.12622854 0.13386671 0.05703912 -0.3632169 -0.25261712 -0.21290371 -0.2137985 -0.04890656 0.037411038 0.4202039 0.6054407 -0.04849557 -0.48330224 -0.75335336 -0.11375429 0.07156398 -0.1851878 -0.23369186 -0.93409395 0.17221595 0.006695302 0.3032153 -0.4032788 -0.019154 -0.4822954 -0.28175983 -0.42842993 0.15313067 0.5640677 0.2799011 -0.15335685 0.011005086 -0.41307533 0.2464948 0.21193117 0.2480553 -0.016652603 -0.2918121 -0.21407765 0.010203812 -0.05966206 0.28531483 0.06380136 -0.09349398 0.15882605 0.28367457 -0.064799376 0.04218898 -0.03444075 -0.03920672 0.22285905 0.11197321 -0.4510611 -0.054201476 0.19146785 0.1343906 0.05068348 -0.017434372 -0.42372736 -0.5545314 -0.4034433 -0.07907527 -0.40262836 0.1533324
斯 -0.096264236 0.110288136 0.0009030832 0.49807978 -0.27991036 -0.0002614204 0.019802378 0.13239795 0.004027054 -0.45675382 0.044452947 0.23504987 0.24176422 -0.10419554 0.074587926 -0.10454919 0.059876345 0.16165273 0.10221643 -0.029050734 -0.21302237 0.08117061 -0.113782264 -0.15849422 0.057984132 -0.09385736 -0.5694599 0.58526236 -0.24384534 -0.32309625 -0.10503399 0.24571922 -0.2862023 -0.200809 0.1868201 0.33793676 0.07824016 0.2555779 0.21997689 0.0081037115 -0.12542692 -0.14031674 -0.02534098 -0.4713536 -0.15515833 0.42016718 0.14593866 -0.0029634757 0.04313522 -0.061263014 0.09614711 -0.21330401 0.5456286 0.02210346 -0.5015097 -0.062977575 0.21229015 0.3584123 -0.08084236 0.107840456 0.28461662 0.40365937 -0.71646935 0.15989877 -0.027024122 0.36537322 0.29717216 -0.67766297 -0.17952956 0.433307 -0.18388593 -0.38340056 -0.0765147 -0.31696734 -0.005365786 0.26743668 -0.0031508538 -0.17426296 -0.4056272 -0.23037846 0.31825688 -0.040391047 -0.30105606 -0.443046 0.05906664 -0.23426162 -0.2651571 -0.24206263 0.010930573 0.27997255 0.03969499 -0.47733545 -0.24661767 -0.076910526 0.1559064 0.3272167 0.48474538 -0.22388828 0.5383248 -0.2762211
三 -0.22142188 0.42196703 0.3524195 -0.16912878 -0.3540437 0.024552269 -0.2096299 -0.36654434 0.00016809393 0.07998079 0.25593847 0.039214604 0.086322635 -0.07248478 0.2477146 0.43599358 0.21749668 -0.009325268 -0.33007494 -0.036813855 0.4150154 -0.307256 0.16444664 0.18582562 -0.88053834 0.13974108 0.07585666 -0.0007442421 -0.38765576 -0.04183845 -0.21653922 0.00837338 0.070932284 -0.21831651 -0.00016183089 0.34752345 0.1579515 -0.15086527 -0.21334672 0.13720195 -0.27440488 0.028169984 0.12781921 -0.36504534 -0.043744814 0.10782954 0.09034549 -0.2544516 0.2525197 -0.49002144 0.3891429 0.19020975 -0.40696195 -0.13984449 -0.24260922 0.3031932 -0.06980251 0.4218243 0.15829195 0.21479031 -0.24273042 -0.2088597 -0.6816467 0.29924917 -0.16195287 -0.16018781 0.11635132 0.115227394 0.11260745 -0.080371976 0.21791802 0.19822997 -0.01645347 0.066181526 0.17660908 -0.27092385 -0.1044765 0.007953999 -0.20228744 0.24636765 0.059991837 -0.006846459 -0.22356805 -0.050562136 -0.13606356 -0.1783509 -0.27140373 0.1937143 0.33696526 0.10028793 0.09094229 -0.39601073 0.08880707 0.37444246 -0.08543119 0.1865422 -0.29155576 -0.60625565 0.05345774 0.02424299
能 -0.07200583 0.16754347 -0.13551319 0.31478924 -0.020566141 -0.07193016 -0.42402184 0.031538192 0.6627936 0.03371768 -0.39485934 -0.38292754 0.00357653 0.025504896 -0.19553052 -0.19946569 -0.17955646 0.39721742 0.33921394 -0.2545704 0.21687585 0.23153438 0.3397453 0.035607114 0.009930258 -0.27234718 0.16639388 -0.45900777 0.13235886 0.40353045 0.15163383 0.2832512 -0.091683805 -0.24268016 -0.44275266 0.16157712 -0.03423737 -0.030019775 -0.15552437 0.27343118 -0.15015231 -0.06433776 0.117517844 -0.08392896 -0.4443905 0.43964696 -0.15002921 -0.2321005 0.2995097 0.19751574 -0.07922829 0.11359657 -0.17284432 -0.37909308 -0.10859017 -0.051291373 -0.17650466 0.17206101 -0.29561177 -0.37237176 0.21447164 0.3919347 -0.72360367 -0.2154835 0.2642834 0.44586584 -0.24959083 0.42270064 0.34592116 -0.2866824 0.049613718 0.018594015 -0.06697218 -0.29906908 -0.06337033 -0.0349241 -0.22545709 0.12486066 -0.10588973 -0.23379646 -0.054907996 -0.41838616 0.31706804 -0.010594976 -0.30456355 -0.25443417 -0.38650936 -0.118189104 0.23229945 0.09466094 -0.21661536 0.32476568 0.14700146 0.07692685 0.30093107 -0.020374842 0.1481335 -0.05552613 0.3794286 0.21161127
见 0.05533136 0.28006384 0.18771808 -0.08797706 0.024396498 0.53670084 -0.14771505 0.5027614 0.20033084 0.49993876 0.40605202 -0.17039879 0.14614843 0.20800067 -0.23526467 -0.004143799 -0.17445765 -0.12986676 -0.44495782 -0.25910863 -0.09730403 -0.25342262 0.23410492 0.19885041 -0.07977534 -0.15656184 -0.373209 0.2664287 0.2742613 -0.36389276 0.27874273 -0.18913756 0.089992374 -0.48331353 -0.354466 -0.2166122 -0.3122825 -0.14044407 -0.17723896 0.31397367 0.26493874 0.30407193 0.08580593 -0.16943087 -0.08888532 0.0017047945 -0.20800766 0.16170324 0.29749864 0.1976176 -0.23870519 -0.05020499 -0.29828754 -0.0957242 0.015234308 -0.12351312 -0.09167463 -0.35381258 -0.24612553 -0.13558666 -0.12975377 -0.23737137 -0.38753068 0.16415322 0.50620025 0.19050837 0.10744051 -0.16173416 0.0023203436 0.37125504 0.045717176 -0.1025834 -0.03589905 0.023269301 0.1774431 0.22407988 0.16359417 0.013152265 0.1735897 -0.4259136 0.12745221 0.16064274 -0.009896573 -0.009117158 -0.17368887 0.6909415 -0.41204816 0.079450436 0.05176416 -0.2740599 0.08827114 -0.42857608 0.3426215 0.16869071 0.12057275 0.23746324 0.32231438 0.27694365 0.39190587 -0.43809414
学 -0.23545766 0.04350275 0.13563134 -0.24412806 -0.05605702 -0.41304606 -0.13325118 -0.25782403 0.062460635 -0.08191532 -0.13527937 -0.31968954 -0.31057796 0.092006706 -0.14783639 -0.333971 -0.31802836 -0.10624282 -0.13710752 0.050910596 0.19549002 -0.085401446 0.10948049 0.8740374 0.2323647 -0.019617513 0.29816395 -0.3066287 -0.15658873 0.054374203 0.2100273 -0.048293874 0.118780084 -0.16928542 -0.04351392 -0.18855146 -0.28371504 -0.15619105 0.16345142 0.3161816 0.34511757 0.29983112 -0.4467306 -0.2828035 0.021112924 0.2601185 -0.033482563 0.3750589 -0.16328698 0.048040207 -0.09749012 -0.08017858 -0.10813188 0.17572613 -0.034680706 0.35860753 -0.15357687 0.38258392 0.0007572706 0.100707434 0.41853777 -0.026050588 -0.5057398 -0.1195687 0.06397368 -0.19653443 -0.13004261 -0.47136566 0.33080596 0.059251193 0.4420914 -0.057289127 0.30106184 0.4255228 -0.25522125 0.21663937 -0.25029072 0.2481365 0.009835258 0.18182309 0.10354295 0.30156726 0.26043504 0.17203772 0.26766884 -0.03503404 0.3696809 0.008125402 0.36630866 -0.4527041 0.11565548 0.075846635 -0.37175643 0.15995365 0.0012743978 -0.28198913 -0.46930814 0.45984516 0.41163167 0.046300683
事 0.1277479 -0.10838164 0.2820678 -0.28136364 0.49088195 0.15107451 0.19300385 -0.22195797 0.1078003 0.3553797 0.40282977 -0.013568231 0.19263697 0.0081514465 -0.18240151 -0.38147074 0.2384888 -0.34699348 0.17745253 0.08505846 -0.27322462 -0.27245304 0.033605985 0.005179396 -0.03761872 0.23581731 0.1011441 0.102304436 0.12525772 0.23275578 0.17205366 -0.13738222 -0.043132376 -0.077209346 -0.14276476 0.14644341 0.43034074 -0.16697651 -0.27539667 -0.20355694 0.19178535 -0.2213694 0.38188383 -0.012223782 -0.41975567 -0.09806721 -0.30527636 0.4441838 -0.35996348 -0.6273464 -0.50367916 0.44384715 -0.027991544 0.44044095 -0.13999543 -0.016406693 0.1638834 -0.10905865 0.31805238 -0.18700707 -0.1337653 0.11127957 -0.6759156 0.18359113 0.14333303 0.4740289 -0.16186973 -0.11440566 -0.21028969 0.11741267 0.31139776 -0.10963112 0.28804606 -0.11611759 -0.054729834 -0.3646969 0.025977014 -0.29522124 -0.24466324 -0.113788776 -0.1826838 0.53875756 0.14714307 -0.016789615 0.045469545 -0.13312872 0.57382363 0.45185167 -0.02316547 -0.16862829 0.11114685 -0.08471064 0.36060184 0.02228365 -0.043475617 -0.07943072 -0.045173187 0.36027983 0.23344673 -0.14651161
是 -0.2985403 -0.11683574 0.18722858 0.05184002 -0.2923723 0.09968755 -0.34658134 0.053837165 0.14546372 0.3978631 0.29822055 0.22946641 -0.17369871 -0.21332875 -0.19471475 0.22693987 -0.1361467 0.2518836 -0.06547429 0.08766912 0.29435742 -0.123643756 -0.19585076 0.42722696 -0.1437635 -0.17469922 0.29119968 -0.008815053 -0.20447049 -0.21387663 0.33403537 -0.20116913 -0.013238908 -0.36655274 -0.08865984 0.5137832 0.21947245 -0.3251246 0.3532379 0.17802091 -0.23370445 0.3602369 0.49874595 0.44780353 -0.22897638 0.050303206 0.123296544 -0.08544525 -0.32078797 0.03253274 -0.4438922 -0.12905398 -0.108912826 -0.2591703 -0.66253364 -0.049946796 0.19293493 -0.28328544 -0.4321942 0.32351777 -0.00343894 -0.33295915 -0.425825 -0.1204229 -0.069888294 0.38446808 0.10272127 -0.03480856 -0.001962341 -0.34371486 0.34030524 -0.22163495 -0.025470639 -0.10324836 -0.72588754 0.14972904 -0.10246398 -0.30075458 -0.15805839 0.1785963 -0.17152496 -0.47022113 -0.21501729 0.3718499 0.08030616 0.0984446 -0.19846329 0.008437733 0.056455288 0.082548715 0.002639841 0.22621708 0.008448122 -0.62418306 -0.09458151 -0.03451354 0.30291384 -0.0372505 -0.023730157 0.10800449
哉 -0.35650516 -0.15178324 0.16604644 0.3011161 -0.2850439 0.05636267 0.36626983 -0.16963758 -0.33730558 -0.011141643 0.3374254 -0.369983 0.046428464 -0.050553918 -0.08495877 -0.18569192 -0.09453961 0.37494636 0.04351317 -0.16147341 0.02901368 0.124779806 -0.346837 0.2021519 -0.12437808 -0.004200664 0.027334359 -0.021286938 0.029555866 -0.010847882 0.09079835 0.19120695 0.22291394 -0.08757901 -0.09633594 0.19691761 0.29130197 0.2838907 0.2434272 0.033591118 -0.066372 -0.051645443 0.33866692 0.37141863 0.251176 -0.27828273 0.4495019 -0.043082442 -0.005140886 0.35256913 -0.1765833 0.0629227 0.13663341 0.019788975 -1.1494823 -0.6256909 0.15695262 -0.19596477 -0.24379043 0.08766066 -0.26545313 0.35948524 -0.25107425 -0.37598923 -0.082480356 0.34490055 0.028312061 0.034857925 0.20069411 -0.2102901 -0.30183828 -0.3625693 -0.07899759 0.016513424 -0.15497322 0.0889852 -0.13621734 0.0025871778 -0.29893494 0.25990275 0.15254806 0.33684576 -0.7533139 -0.07399617 -0.5129129 0.045040727 0.14185151 0.26994574 -0.17455022 -0.05350238 -0.068721354 0.3406537 -0.16072795 0.17977916 0.43311667 -0.40146673 -0.08496644 -0.053922527 -0.26479942 -0.13962042
闻 0.024476353 -0.01658008 0.35146526 -0.15498142 -0.16034806 0.20875196 0.08181231 -0.5047477 0.1872499 -0.12384434 -0.09247783 -0.3977536 -0.33052903 0.14766043 0.13055737 0.13102455 0.19863337 0.47292235 0.3820963 0.114172556 0.4251154 0.7376138 -0.5100106 0.16112553 -0.008512581 0.04264384 -0.1835004 -0.31253883 0.1311451 0.12718709 0.26461917 0.05507253 -0.10191642 -0.020838527 -0.046121806 0.1373867 -0.26220372 -0.4731149 -0.17736645 -0.14633268 -0.028257225 -0.3853746 0.10299412 -0.368137 0.35820526 -0.09264637 -0.1462907 -0.06817112 0.38933536 -0.33333173 0.4516038 -0.09641318 0.21074907 0.12616603 -0.100422725 0.377143 -0.19300249 0.28118116 -0.022459166 0.49180236 -0.04243809 0.1795466 -0.40552247 -0.44053844 0.29122752 0.046119355 -0.0021489186 -0.083136655 -0.44442785 0.27865416 -0.1398071 -0.10075157 -0.10648454 -0.0241698 -0.509325 0.078671195 0.027928269 0.34625277 -0.010762769 0.100681484 -0.2519548 -0.03156377 0.10457831 -0.3093023 -0.03775521 0.45350718 0.14011206 -0.14271319 0.6065146 0.012362642 0.23835148 -0.10567653 0.03503321 0.37782404 0.46564776 0.31095463 -0.036391433 -0.02182907 0.1282948 -0.08483228
未 0.2545311 -0.023792725 0.25648874 -0.2248133 0.46387228 -0.11701016 -0.29939926 0.097990386 0.5032011 -0.208333 0.16306669 0.12242885 -0.3041699 -0.20586658 0.4493023 0.09050155 0.25295696 0.52598935 0.31716323 0.06795746 0.18532023 0.0742924 0.4930201 0.2241425 0.15327981 -0.36557657 -0.7463037 -0.010197947 -0.15734129 0.015355147 0.153414 0.08757801 -0.29093057 -0.0936583 0.13857028 -0.10196807 -0.005730213 0.013159756 0.1267772 0.23043485 -0.40258548 0.07306001 0.3425465 0.15188527 0.20274004 -0.32304513 0.20729683 0.41365206 -0.3275939 0.2647589 -0.057990834 -0.18906726 -0.13775522 0.24846287 -0.28485212 0.07977093 -0.031676713 0.040162187 0.14110146 -0.23883201 0.13064303 0.29725185 -0.36332163 0.099941246 -0.14112255 0.12659276 0.18253304 -0.23141204 -0.0373894 -0.013735559 0.16460325 -0.029563414 -0.27530128 -0.3545941 0.23589598 0.065964915 -0.31890252 0.2536147 -0.361195 -0.2736386 -0.042172242 -0.24562208 -0.101473376 0.24510673 -0.22737038 0.31743824 -0.24365166 -0.00050531636 0.24478784 -0.529157 -0.044247564 -0.33900163 0.11891435 0.005746633 0.5042853 -0.38499266 0.040406454 0.43721336 0.19953533 -0.5293816
公 0.043168407 -0.61200064 -0.8196969 0.1869118 -0.17683114 -0.1933721 -0.366498 -0.03930282 0.16696203 -0.13114816 0.20047405 0.07552126 -0.042603225 0.09924376 -0.12117233 0.06318237 -0.27244142 -0.24130738 0.6294318 -0.302232 0.14164206 -0.43192384 0.15790908 -0.29407173 -0.037885714 0.11548581 -0.11508484 -0.11284584 0.22729799 -0.33403143 -0.054335732 -0.16730045 -0.005183489 -0.23871611 0.49567446 0.4081867 -0.15687926 -0.027370846 -0.1577241 0.079194486 -0.4705907 0.2631273 -0.16221787 -0.3240623 -0.19913167 -0.5752326 -0.3503411 -0.20297919 0.58379406 -0.037459444 0.2039183 -0.002218202 -0.02541953 0.19545238 -0.65741944 -0.31774148 -0.093316965 0.109657116 0.13607924 -0.25684518 -0.21037452 -0.36965877 -0.41219336 -0.27026236 -0.29431453 0.04557398 -0.24926846 -0.49543768 -0.40388775 -0.15272622 -0.6940879 0.35740244 0.11114766 0.37352774 0.21319167 -0.3246259 -0.12906633 0.0258202 0.49851125 -0.0038540396 -0.27082917 -0.21530087 0.09764895 0.12127221 -0.06050019 0.2861289 -0.051901966 0.23087184 -0.53180647 0.08038387 0.14625108 0.23757991 0.24525736 0.44149005 0.06048052 -0.24257898 -0.23890549 -0.05212314 -0.6192626 0.18521966
好 -0.25295988 0.010994419 0.1883104 -0.27705544 0.47929546 -0.32837465 -0.29043245 -0.08354601 0.39711297 -0.5891899 -0.4209511 -0.06168547 0.094473295 0.00078535866 0.15649049 -0.71657467 0.036983762 0.10363866 -0.26180154 0.339584 -0.3134407 0.43897063 0.73715645 0.075696826 -0.048387963 0.24511738 -0.18565828 0.054485925 0.30750045 0.10422936 0.7419319 -0.18508156 0.60669434 -0.41693413 -0.21594599 0.21084358 0.21632059 0.03418481 0.3343686 -0.09406081 -0.31330937 -0.3819998 0.2861385 0.20316307 0.1058578 -0.17646514 0.032249082 -0.13363937 -0.15448734 0.16653614 -0.52688384 -0.43804023 -0.0336478 -0.12758856 -0.11144412 0.55799365 -0.044412196 0.13701768 -0.37972164 -0.23233478 0.0068608155 0.08731885 -1.044646 -0.06979857 -0.029266343 -0.03172469 -0.08666788 -0.30568576 0.101926275 0.27786353 0.06868558 -0.43237424 -0.491292 0.08587683 0.25123703 0.642667 -0.080677226 0.17908764 0.35338962 -0.27826115 0.12978464 0.31229052 0.22844498 -0.19737427 -0.14556241 0.012278133 -0.023129255 -0.015581296 -0.075784765 -0.35159957 0.7136958 -0.083227664 0.043026865 -0.87259793 -0.11380931 -0.24136315 0.32877788 0.210631 -0.08299974 -0.06708879
我 -0.15596801 -0.15164961 -0.08966752 0.04273782 -0.20431541 0.029952 -0.39227474 -0.4122418 -0.08839128 -0.028127719 -0.34080502 0.10579748 -0.081775956 -0.5462846 0.24272403 0.24419913 0.49564347 0.15756916 0.45466307 0.45190635 -0.2207266 -0.24149977 -0.1968487 0.36466756 -0.16027935 -0.16023341 0.19574907 -0.40733382 -0.12228343 0.06261181 0.20586902 0.30671817 0.08527913 -0.5502858 0.06331919 0.48509392 0.44388694 -0.05844337 -0.23457812 0.13642418 0.13383086 -0.15931205 0.26073378 -0.23490246 0.6102843 0.06364922 -0.16873968 0.2691598 0.18210939 0.022032456 -0.15378492 -0.08742893 0.16845505 -0.114125825 -0.51573503 0.093048416 0.039005287 0.100650884 0.17178042 0.22190113 -0.0911754 -0.14917971 -0.11073677 0.15182157 -0.19090638 0.19038081 0.20611662 -0.03584168 0.48209858 -0.11992762 0.15750036 -0.122185856 0.13153495 -0.12816058 0.3792912 0.33605364 0.204062 0.21459496 0.023925997 0.053835806 0.014238948 0.27581835 -0.22993474 0.26594216 0.1926845 0.06261619 0.15980923 -0.5838023 0.072277315 -0.07437282 -0.11875677 0.33544454 0.015194055 0.64511776 0.047525045 0.045238912 0.3885953 0.081637695 0.2305549 -0.19881313
路 0.12748542 0.063604385 -0.2787954 -0.045407474 -0.26969537 0.28597936 -0.226345 -0.17849834 0.3407683 -0.11710773 -0.23400952 0.19480516 0.39888647 -0.5906671 0.079579376 -0.04471949 0.027785217 -0.028484853 -0.67038494 -0.22726355 -0.33934417 -0.1486114 0.21609879 -0.0044057253 -0.30373618 0.1888081 0.07058854 0.3132037 0.2544463 -0.033213187 -0.41366854 -0.011621203 0.026469003 -0.35733247 0.57826066 0.36345994 -0.36040238 0.104302764 -0.4892607 0.29627794 0.1060911 -0.43009704 -0.34037486 0.43533716 -0.35053074 -0.15760784 -0.18632364 -0.5415654 -0.1083216 0.16170418 0.36677226 -0.0036625536 -0.66894305 -0.0030435498 -0.98260194 -0.19190817 -0.4939508 -0.18780467 -0.013551459 -0.32227787 -0.2728452 -0.17890082 -0.24548723 0.11220282 -0.1920832 -0.32443312 -0.1974923 -0.7073338 -0.08592486 0.15343739 0.26927376 0.22066718 0.22087541 0.11685563 0.27267742 0.023386255 -1.0961176 0.10264652 0.22309458 0.30671963 -0.36940452 -0.10433471 0.110476546 0.10039711 -0.36494276 0.3117841 -0.08724336 0.42714623 0.27513435 -0.45378947 -0.5193163 -0.16559201 -0.073799744 -0.24778138 0.5100552 -0.6540117 -0.06399651 0.27642807 0.23682816 0.20035063
在 0.31651863 -0.036132153 0.10776981 0.14448924 -0.20823364 -0.06654021 0.21220718 -0.55387825 0.07689524 0.17616488 -0.15709314 -0.29711837 0.17246053 -0.025897404 0.2810844 0.038667545 0.46775773 0.23453404 -0.11434333 0.37810612 -0.19511394 0.14969508 -0.14285344 0.36415854 -0.16655682 0.4587582 0.00032267155 -0.38281554 1.0074288 -0.32705617 0.36514366 -0.5485736 -0.47559255 -0.3040168 -0.29084674 -0.13152954 -0.21543898 0.036503226 -0.039709155 -0.15013023 -0.11782456 -0.14629632 -0.13133116 0.19757533 -0.775871 0.02490875 0.13960932 0.15830536 -0.14959647 -0.10972362 0.3592925 -0.28685033 -0.05684351 0.13370638 0.0037171964 0.08769972 0.187598 0.011769635 0.079253644 0.20240507 0.27682593 -0.00562069 -0.65751535 0.37754524 -0.46012795 -0.010723685 -0.15252209 -0.0025332924 -0.1773866 0.46472916 0.1264562 -0.24290112 -0.4935342 0.12204018 -0.38130978 -0.015954806 0.31051672 -0.2042084 -0.4264095 -0.05474048 -0.5419126 -0.12927446 -0.004686674 -0.7099364 -0.22759321 0.55490994 -0.1198576 0.18315253 0.15289387 -0.042489734 -0.033479378 -0.06993679 -0.2082675 0.55602545 -0.2952399 -0.034859654 0.13002127 0.5222406 -0.035825938 0.08696405
已 -0.22079344 -0.08954389 0.13192384 0.42614427 0.15535438 0.09005711 -0.283253 -0.52449095 -0.10063148 -0.02965497 -0.23676693 0.1398191 -0.35131484 0.3014378 -0.044470713 0.10787564 0.27107984 0.33665785 -0.22531635 -0.2298262 -0.6589076 -0.027272027 0.064326994 0.27532324 -0.16703135 0.44408014 -0.15298687 0.25806707 0.17427412 0.3480916 -0.2011077 -0.43027955 -0.26505643 0.16658483 0.15010524 -0.13559416 -0.04867406 0.109037325 -0.21796578 -0.14224003 0.57220244 0.08050383 -0.020397114 -0.22293913 0.13962518 0.46334884 -0.18752518 0.12138793 0.033676963 0.012180169 0.19382478 -0.35400668 0.38163072 -0.13420229 -0.47208434 0.2258661 -0.5170668 0.35793915 0.11428207 0.25459138 0.10582577 -0.24978478 -0.5309906 0.42701882 0.47209466 -0.46867448 -0.18586415 -0.9203451 0.1665303 0.22562197 -0.45536336 0.27479532 -0.27233714 0.20297943 0.21164498 -0.009514173 0.33554658 -0.20541723 -0.23061532 -0.340534 -0.030804085 0.23320717 0.1978379 -0.12980577 0.11312942 0.1705914 0.4601545 -0.24263586 0.23260355 -0.053857934 0.3073678 -0.62023294 -0.018148772 -0.29321474 0.12805544 -0.13648741 0.32292232 -0.112590246 0.19947769 0.037573285
得 0.03663237 0.00815617 0.072492 0.110042125 0.27407336 0.34504604 -0.18509781 -0.37842482 0.14272988 -0.13724114 0.08192163 -0.28974074 -0.2422798 -0.007824125 0.3502488 -0.089259274 0.29371884 -0.34920564 0.3059498 -0.3978136 0.2283224 0.24740829 0.43613335 0.13697034 -0.15721805 -0.16143239 0.0804333 0.14842764 -0.3014698 -0.033235397 -0.15631281 0.38362524 0.51001304 0.5282114 -0.18570404 -0.0021349483 0.07717419 -0.33273357 -0.16286176 -0.28944567 0.037105177 0.02240357 -0.7701045 -0.16108188 0.25824863 0.107281074 -0.6287929 -0.10645337 0.03846981 -0.16580425 0.029385004 -0.3829278 -0.15221971 0.107454486 0.14334466 -0.30063814 -0.124536596 0.08507265 -0.32171166 -0.050897997 -0.05315589 0.48105875 -0.65463775 0.17645876 0.22757995 -0.14542167 0.06512001 -0.43668118 0.11657817 -0.031308 0.017482832 -0.020419752 -0.47218633 -0.04310656 -0.4838556 0.25092146 -0.10572881 0.13675494 -0.33562717 -0.33275428 -0.4008974 -0.11516734 0.0038339302 -0.5345593 0.20954984 0.8402199 -0.44174448 0.22639108 0.24460314 -0.07697169 0.26716208 -0.039947264 0.649117 -0.024891911 0.5034706 -0.025576161 -0.14960639 -0.15814619 0.29493508 -0.29809266
所 -0.13152783 -0.14893925 0.071261756 0.17979431 -0.14229776 0.3198459 -0.22853447 -0.29289374 0.3667478 0.08412958 0.27353996 0.08613737 0.012909461 0.103163406 0.61778504 0.23707126 0.37010655 -0.107583486 -0.018490676 -0.06699228 -0.14378434 0.101638 -0.071664214 -0.122140065 -0.11448809 -0.1677111 -0.17935587 0.20623942 0.3008189 0.1251989 -0.258588 0.061952576 0.21216428 0.14618465 -0.06253973 0.17762189 0.32241035 -0.17009848 0.08791013 0.10324134 0.32146305 -0.07305735 -0.026653143 0.010677147 0.29409322 0.44776863 -0.11619119 0.3093604 -0.12235853 0.076213166 -0.67005 0.23247081 -0.16367282 -0.062285148 -0.08861653 -0.050014503 0.23268162 0.15754592 0.30783492 0.28476825 0.22399828 0.043923713 -0.7763856 0.101350814 0.32379186 -0.06007872 0.116768345 -0.00957568 -0.091602035 0.32473785 -0.23458071 -0.15844467 -0.07278945 -0.3881436 -0.21121705 -0.19270599 -0.16715595 -0.12064336 0.058542825 0.47934592 -0.12625134 -0.5054245 -0.2813644 -0.26135167 0.05427288 -0.41035622 0.29149088 0.11135188 0.2572853 0.14418483 0.17817572 -0.13571219 0.2591054 0.21111168 0.21654814 -0.093303606 0.25771546 -0.004598781 -0.32778323 -0.05431377
民 -0.21400303 -0.19334885 -0.14508405 0.4558275 0.26431704 0.2925533 0.05029537 -0.24764098 -0.1317915 -0.07037618 -0.06705385 -0.13436314 0.457672 -0.0661839 0.36024994 0.40382212 0.19202824 -0.10311788 -0.39020506 -0.10827277 0.097600326 -0.43093607 0.32701674 0.2204787 0.3172745 -0.2152806 0.54461634 -0.16964182 -0.007862219 -0.11549807 0.099999145 -0.35093302 -0.12899612 0.10141861 -0.008817282 0.053057585 0.053348288 -0.25052106 -0.4174086 -0.6314107 0.004090946 -0.4608122 -0.41312817 0.18280199 -0.37708545 -0.3245186 -0.18665309 0.300596 -0.3315697 0.056615345 0.4770427 -0.23764513 0.08927817 -0.06997531 -0.0059771077 -0.047517188 0.42182636 0.28449896 0.10247943 -0.029169615 -0.20167957 0.47353953 -0.7562827 0.05312274 -0.07662285 0.19063194 0.5286724 0.40586326 0.58772826 0.13768546 -0.32059902 0.037165422 -0.14513066 0.1734641 -0.39771718 0.15000026 0.016242497 -0.07261686 -0.30993897 0.051370673 0.006214892 -0.32605112 0.24211916 0.22691266 0.13541397 -0.016559884 -0.009611373 -0.10127959 -0.22796203 0.029629389 0.56534886 0.13766384 0.25823376 0.26965064 0.039066087 -0.11578673 0.42391095 0.54548323 -0.04637003 0.38551548
小 0.1050813 -0.2717188 0.4182135 -0.0795525 -0.35729566 0.1644878 0.08713437 0.31073755 0.27587456 0.14903453 0.14336835 -0.1469378 0.29953292 -0.2682069 -0.33768305 0.06500332 -0.3462769 -0.019648258 0.22255263 0.033186737 -0.07311298 0.665599 -0.06441343 -0.25127536 -0.30678248 0.3812781 -0.15666763 -0.43831378 -0.10822176 0.035266485 -0.065090515 -0.2938352 0.18731326 0.05911213 -0.05977331 0.18019661 0.037253052 0.0955299 -0.10670467 0.17785953 0.3199386 0.07278726 -0.23381783 0.38315856 -0.14903715 0.3918051 -0.11962484 -0.052758593 0.2647497 0.4149397 -0.3943442 0.01985 -0.4129422 -0.43350148 -0.14609502 0.09377703 0.086702615 0.3108761 -0.009827015 -0.22446713 0.20998222 0.4278103 -0.6953373 0.047661714 0.18138245 0.27777833 -0.112954296 -0.22284319 -0.08752265 0.010622339 -0.45700693 0.025702069 0.37634313 0.104562506 -0.1548582 0.71644586 -0.0028339354 0.086540304 0.08910743 -0.2950225 -0.6374457 -0.5634997 -0.042472817 0.23710406 0.271409 -0.15839824 0.21958359 0.15291159 -0.1558825 -0.15787713 0.4412168 0.08076481 -0.12021552 0.05085268 -0.35701677 -0.66468376 0.26824105 -0.2318619 0.2133706 -0.18540393
天 -0.20596707 -0.17407855 -0.61234766 -0.2251054 -0.57162035 0.5312088 0.4383729 0.6516507 0.09676955 0.27770782 -0.014956517 0.20509629 0.22328994 0.4137131 0.27547413 0.45997784 -0.2265096 0.3504557 0.2983805 0.77701205 -0.054058876 0.117005624 0.15805948 0.39431983 -0.12797426 -0.059850596 -0.016720392 0.49599332 -0.25987908 -0.28910798 0.20815803 0.43588623 -0.16834338 0.076523714 0.06097611 0.31413737 0.011544075 -0.15943287 0.067271 0.06143625 0.48909763 -0.18124671 -0.57783073 -0.24677254 -0.05911489 -0.18005148 0.23303926 0.21248291 -0.08899854 0.1458235 -0.550012 0.102363646 -0.110231385 -0.26572347 -0.6819878 -0.46917543 -0.009976815 0.1867716 0.12257422 -0.2122145 -0.020553509 -0.47351876 -0.52955705 0.21640603 -0.13278897 -0.21002674 -0.27776417 -0.19232774 0.33683077 0.032389123 0.18441084 0.27614433 0.16166367 0.27749234 0.14281453 -0.09651915 0.21541145 0.42950284 0.16817275 0.095436625 0.030706523 -0.19985647 -0.09194043 0.023972157 -0.16613793 0.124213316 0.047448903 -0.08095297 0.23905887 0.60961884 0.33440384 0.16217963 0.18042886 0.08326265 -0.54029816 0.19483975 0.49078977 0.13987896 0.22177553 0.18137854
乐 0.008685991 0.3891318 0.25171587 -0.30803955 -0.50196916 0.12584774 0.23878665 -0.15874295 -0.02424955 0.062969424 0.2415282 0.15070827 -0.12679802 0.29333887 0.33839667 -0.21037635 0.20405176 0.542664 -0.06072656 -0.31441134 0.052942857 0.09868311 0.50504863 0.06734113 0.19445825 -0.2741568 0.058575038 0.12284239 0.24600941 -0.44766182 -0.60801023 0.02855806 0.089087725 -0.033142064 -0.38394883 0.10407329 -0.3502101 -0.5994592 -0.3098969 0.53393126 -0.08261637 -0.116089 -0.07244983 0.038360365 -0.058406185 -0.18723966 0.48577195 -0.42496672 0.42881358 -0.21511288 -0.34678617 0.08410769 0.23898439 0.056597203 0.29051828 0.08866959 -0.27500936 -0.3814396 -0.28519017 0.43341607 0.5365446 -0.088270366 -0.6556343 -0.331 0.30783692 -0.069225185 0.17406139 -0.3898063 0.081002004 -0.61089087 -0.052730642 -0.0337183 -0.58703226 0.15182436 0.07760384 -0.11443439 0.48630136 0.1497755 -0.054850154 0.11143507 0.34119996 -0.12130487 -0.36638442 0.1831723 0.2443961 0.15033448 0.55392516 0.44886905 0.20346949 -0.49417645 -0.09671515 0.58327097 0.1386709 -0.37722754 0.049785953 -0.03647125 0.014004665 0.13056229 0.036475558 0.18590473
邦 0.473453 -0.13755426 -0.24692382 -0.22528636 0.1342536 0.4106774 0.19947362 0.10769453 0.29258874 0.14788988 -0.08785819 0.12536506 -0.014764525 0.530176 -0.07954188 -0.049957547 -0.17683026 -0.32952464 0.20614079 0.19261882 0.1809201 0.47422388 0.19830428 0.28160393 0.26700532 0.017650722 -0.024445444 0.24120866 0.23647481 0.3819731 0.014742637 -0.321573 0.011502489 -0.36135992 -0.1560095 0.27094713 0.17629135 -0.19937056 0.08388697 0.046552904 0.07479435 0.22295742 -0.47399473 -0.33404747 -0.24101274 0.19366717 0.43477723 -0.32348308 0.21366082 -0.369245 0.055604454 0.28359696 0.048617393 -0.09537654 -0.39203352 -0.11645927 0.06702641 0.04716624 0.39394814 -0.014457922 0.25784588 -0.34789756 -0.58056784 -0.13211706 -0.020446764 0.18481067 -0.07182546 -0.16053914 -0.14081915 0.032738734 -0.2702761 -0.5390555 0.18242626 -0.105806574 0.26163322 0.20894073 -0.6348572 -0.12670095 -0.28134397 0.16273916 0.34335575 -0.02718329 -0.28294203 0.3168737 0.025737612 0.33383524 -0.15562382 -0.49166074 0.2602018 -0.041989334 0.14050864 -0.1521147 -0.3563631 0.23877318 0.12445545 -0.07933696 0.12863234 -0.43523988 0.24143977 -0.23315875
亦 -0.34497735 0.2588056 -0.12417947 0.43777755 0.02781355 -0.087380394 0.46623254 -0.05680484 -0.4067847 0.55479383 0.19214925 0.28690454 0.00088006654 0.2950009 -0.109815866 0.36515474 0.15444583 0.22872703 -0.2706269 0.6751429 0.26333106 -0.02698515 -0.34863356 -0.08702436 -0.07622103 0.024556072 0.06174098 -0.034986522 0.103589244 0.13724491 0.13761969 0.41013995 -0.3942371 0.03257174 0.06982207 0.13074724 0.8603486 -0.094050795 -0.44112352 -0.0072741243 -0.14704655 0.41775295 0.17966564 -0.14349967 -0.29907954 -0.017470757 -0.2259442 -0.13990606 -0.24425378 0.04895536 -0.3443365 0.069193535 -0.1571229 0.1682678 -0.17110015 -0.803045 0.16564058 0.026716087 0.0969139 -0.021014057 0.3009023 0.35181025 -0.9501362 -0.49797395 0.086507045 -0.14142434 -0.23018967 0.20075198 0.3213631 -0.18159355 -0.017596638 0.090582915 0.078707434 -0.33488208 -0.044228923 0.28895572 0.2899446 -0.16996227 0.13055019 -0.03619187 -0.11856873 0.046893425 0.1515888 -0.08621612 0.039621923 -0.05538463 0.069663756 0.54263765 0.3898481 -0.4913608 -0.2940261 0.39116284 -0.43362322 -0.44996697 -0.39326203 0.20119628 -0.10886459 -0.16257095 0.043021575 0.20073278
使 -0.4436486 0.2960943 -0.1343195 0.7087093 0.028014963 -0.12435976 0.7181672 -0.13767286 0.12969269 0.3431213 0.27665222 -0.059215542 -0.027963359 -0.12831676 0.32626027 0.6272884 -0.54159796 -0.2794238 0.15750366 -0.010423648 -0.6544984 0.0048058946 -0.2472578 0.035604764 -0.33339047 -0.27373093 0.17924894 -0.29183242 -0.016587166 -0.041020706 0.3965077 0.3285484 -0.6919166 -0.36481833 0.19617006 -0.14669432 0.38863018 -0.30359656 -0.1281953 0.36915892 -0.26097092 0.5248196 0.39842513 -0.247001 -0.5364444 -0.39972386 -0.3568647 0.005127333 -0.07306723 0.31186566 0.24508868 -0.015615614 -0.043899488 0.2031168 -0.12178768 0.67830646 -0.2923772 0.013329385 -0.050200228 -0.018135423 -0.025411779 -0.04703363 -0.600755 0.17333351 0.33682472 0.21475305 -0.03303561 -0.18205231 -0.17018919 0.21239698 0.21307833 -0.025904018 -0.45477685 -0.34589878 0.11929727 -0.049198784 -0.45809916 0.17650111 0.024671378 0.29882962 -0.34408358 0.1923775 -0.26934806 -0.32573107 0.3610298 0.12718952 0.16351189 -0.009174459 0.16469927 -0.41575542 0.18948568 0.39001742 0.2445293 -0.20757218 0.14363511 -0.05328407 0.051314037 -0.1299187 0.3558559 0.25336146
大 -0.31003675 -0.087202966 -0.26717988 0.19461286 -0.5601892 0.25319853 -0.1506934 -0.20212735 0.36985224 -0.20343786 0.20350263 -0.3418688 0.4074045 0.33850762 -0.053692915 0.4971592 -0.07670271 -0.5505118 0.3261126 -0.108693 0.0882872 0.035846807 0.0029278346 0.08974814 0.34635496 -0.12516208 -0.29963273 0.13466515 0.211685 -0.17515637 -0.13812575 -0.3732136 -0.03320821 0.021026049 0.052089125 0.26527417 0.103373 -0.1976054 -0.31410894 0.3758914 -0.08580748 -0.3007008 0.19265507 0.29021797 0.19143972 0.25760388 0.3266644 0.021212403 0.746406 -0.78827256 -0.15610327 0.29942194 0.09907709 -0.15099002 -0.03300377 0.46728176 0.19410306 -0.14949752 -0.3889886 0.27741593 0.11622987 0.6281884 -0.4189623 0.01842623 -0.12719381 -0.028138325 0.279776 -0.2032663 0.048320048 0.2452295 0.3543179 0.06050769 0.348499 -0.1321907 0.25593895 -0.33778453 0.279585 0.02601292 -0.3023002 -0.14192016 -0.28949544 0.053238973 -0.06833218 -0.16616948 -0.11093299 0.19227655 -0.49094602 0.32680622 -0.30617958 0.0318745 -0.29479375 0.0046736766 0.089334935 -0.6876736 -0.41805115 -0.109883666 -0.030728841 0.11067082 -0.2988691 0.059710708
下 -0.6586759 -0.099748254 -0.116383016 -0.1833713 -0.1493979 0.2929819 -0.41557738 0.050199345 0.16792578 0.26991144 0.04097689 0.23094155 0.05523018 0.5797992 -0.1336285 -0.1087917 0.19738382 0.28282234 0.5662934 0.08037024 -0.0070746522 0.22669062 0.68888885 0.22860473 -0.15587626 0.058997843 -0.31195185 0.16084363 -0.17509124 0.3771508 -0.052112304 0.39934686 -0.16087668 -0.33825412 0.45430776 0.27996725 -0.3144162 0.06116555 -0.25730994 0.6233147 -0.23166718 0.20323853 -0.47832936 0.00070357975 0.036532313 0.17946117 0.045271784 0.26193914 0.022305863 -0.15178163 -0.028140798 0.2958239 -0.40698972 0.22787969 -0.1261953 -0.3046555 0.20394373 -0.052825246 0.12219082 0.5629309 -0.36740276 -0.23075932 -0.53942776 -0.007532897 0.35391244 -0.00025986426 0.29755914 -0.22587985 0.09653407 -0.08050672 -0.014905933 -0.36663988 -0.28481242 0.18970507 -0.46310082 0.26814955 -0.25229096 -0.48727617 -0.139249 -0.061234217 0.15214072 0.33176294 0.05825777 0.16150466 0.22637919 0.26164407 -0.19835429 0.09572226 0.036396272 0.32521516 0.26364022 0.16775206 -0.121485084 0.3231827 -0.427407 0.065202996 0.374863 0.4002782 -0.17815024 0.42881155
贡 0.37418932 0.65884167 0.16095155 0.0748621 -0.4261768 -0.08144225 0.016726887 -0.41883904 -0.225108 0.2547863 -0.9028302 0.15215445 0.113210805 0.12504587 -0.35660562 -0.65006906 -0.17016758 0.17482054 0.12202844 -0.0352646 0.17359523 -0.20959003 -0.18091324 -0.33429518 0.31469804 0.28864378 -0.0019818922 -0.04378213 0.17220007 0.025886156 -0.5078999 0.22483788 -0.030325532 -0.53560644 0.606997 0.24402674 -0.11921155 0.0005370893 -0.6583218 -0.2601683 -0.10419497 0.16920298 0.30834642 0.43847796 -0.09762588 -0.17976545 0.18962263 -0.2415773 -0.019696714 0.056869224 0.18522099 0.115612864 -0.19471458 -0.19566238 -1.6629629 -0.02218087 -0.28909674 0.26090875 0.05200819 0.27161407 -0.22953302 0.24783933 -0.5192026 0.010788105 -0.18370508 -0.37623477 0.34715235 -0.7061846 0.21665892 -0.009336895 -0.26444486 -0.014788635 -0.3835385 -0.12180498 -0.0011340227 -0.38938603 -0.22841433 -0.514219 0.27589384 -0.10605979 0.2972746 -0.11341272 0.04425334 0.15115649 0.3393007 0.34495243 -0.0770367 -0.25341016 -0.0576014 -0.20067562 0.16528006 0.52019197 -0.46767417 -0.08693958 -0.18861884 0.38518265 0.16078664 0.09449681 0.18003504 0.19523442
欲 0.08577904 -0.09534678 0.12986997 -0.21627554 -0.0029454478 0.4926885 0.042439274 -0.23124841 0.31111056 -0.1620033 -0.3812194 -0.07101846 -0.24715558 -0.1974357 -0.0017100859 0.6126086 0.29986134 -0.20628707 -0.0772595 0.11204984 -0.04930788 0.24090761 0.29754585 -0.109924756 -0.10688577 0.27761352 -0.5955663 0.05100292 0.31152093 -0.20352355 0.37248388 0.22818504 0.18669713 -0.3915878 -0.30798987 -0.29142812 -0.0864517 -0.44108328 -0.2299177 0.6862448 -0.063749425 0.26543853 0.035991862 -0.07608524 0.26664504 0.1334364 0.1045813 -0.55701804 -0.25620306 -0.10236781 -0.015612929 -0.075612724 -0.013045194 -0.0865517 -0.33658737 -0.03416184 0.22380783 0.07886771 -0.48410165 -0.46812478 0.0394044 -0.15888868 -0.65411985 0.09817797 -0.069774985 -0.033820543 -0.19643386 -0.030276068 -0.31130177 0.27234304 -0.12024507 0.4336318 -0.27517793 -0.368594 -0.17855799 0.31381193 0.089825064 0.23225832 -0.17462778 0.4640408 -0.3017951 -0.23145212 -0.12832376 0.20412105 0.32867768 0.19370866 -0.13079235 -0.08236063 -0.35816464 0.036707472 -0.29761508 -0.30860892 0.11145089 -0.3074478 -0.29810807 0.095918134 0.03406385 0.10977115 0.2611852 -0.22357455
诸 -0.11887547 0.0897219 0.6024223 0.36090422 -0.24879658 0.24427505 -0.08238019 0.09369458 -0.39338624 -0.341996 0.11815356 0.08793519 0.38786027 0.30922785 0.6027292 -0.30757898 0.1567134 -0.043143176 -0.22488992 -0.12577231 -0.39019418 0.086906016 0.30095813 -0.3371033 -0.5670911 0.22947195 -0.27003822 -0.23923005 -0.07729518 0.1290309 -0.17521863 0.2753403 -0.46447876 -0.084064506 0.11161927 -0.32005903 0.3838133 -0.07609125 0.18128194 -0.040001996 -0.09043089 0.27786297 0.106767446 -0.21215633 0.27772555 -0.3008077 -0.47026005 -0.11267355 0.3760108 -0.029958514 0.52171016 0.07086626 0.4275246 -0.15022457 -1.0037024 0.36589867 -0.17000183 0.21542093 -0.12685521 -0.42332998 -0.096869096 0.19077733 -0.53739923 0.058408443 -0.061858665 -0.2667521 -0.10249537 0.40243173 0.113847114 0.2752109 -0.10076987 -0.10235811 0.8146637 0.31485495 -0.22871171 0.49285483 0.08281078 -0.41610998 0.16652398 0.2034908 -0.9177908 0.793209 -0.18718159 0.38019398 -0.24272561 0.30440697 -0.15542752 0.3557166 -0.23101309 -0.43349448 0.3448085 0.08005384 0.03219826 0.17372882 -0.08885894 -0.25766972 0.57231605 -0.0628349 -0.18808408 -0.34547788
从 -0.35155317 -0.2809456 -0.1664233 0.1741202 0.14151648 0.20999056 0.20208676 -0.06874403 0.42314497 0.050256714 -0.10919186 -0.17257752 -0.18918508 -0.28380567 0.36223382 0.14286429 0.08413709 0.08415784 -0.51548135 -0.24959068 0.4160054 -0.34258482 -0.077203326 0.16891095 0.76915884 0.40216795 -0.046596374 0.44177553 -0.26475537 0.97097635 -0.2818819 -0.093999304 -0.34552872 -0.3841687 0.09603471 0.41509983 -0.378794 0.59906423 -0.53193057 -0.44126204 -0.10459197 0.44044566 0.48068136 0.30663684 -0.010386754 0.28629944 -0.15012023 -0.12203442 0.24183318 -0.25688747 -0.43289652 0.068243325 0.10108021 -0.03214087 -0.24235156 0.0014483532 0.15804765 0.1598613 -0.14826131 -0.30561534 0.12011039 -0.26007146 -0.25841096 -0.16474575 -0.17641701 0.04246083 0.028189583 0.10368559 0.17793821 -0.5868408 0.23892967 0.21037 -0.084906794 -0.13151856 -0.57426274 0.5339909 0.47803304 -0.66279596 0.06611039 -0.16627602 -0.41939908 0.27256542 -0.6754971 0.16528705 -0.011916973 0.44991863 0.4363313 -0.022673476 0.007732872 -0.2878658 -0.2668078 0.07392635 0.22340818 0.32804582 -0.04221446 -0.50232136 0.45821416 0.5650456 0.43153787 0.117500626
文 -0.0888361 -0.12772934 -0.18603934 0.20668131 0.14619914 -0.069804005 0.029927153 -0.004807771 0.1766114 -0.0011532282 0.07226639 0.067040205 -0.18300584 0.16157442 0.07904633 0.05239956 -0.34556535 -0.18231809 -0.20644517 0.21640514 0.3039529 0.056655936 0.6727119 -0.33749682 0.5002404 0.01295825 0.043371767 0.02155044 -0.22085755 0.09220406 -0.37172228 -0.12290309 -0.14116703 0.12208971 -0.31824347 0.28524598 0.39582473 0.10690821 -0.036110345 -0.6500029 -0.19091456 0.019289535 0.38839775 0.33018485 0.18342926 0.13359123 -0.28542683 0.06233399 -0.1661148 -0.5719054 0.47882897 0.20416495 -0.13626988 -0.04099341 -0.59706354 0.41079134 -0.7214979 -0.17403284 0.16126029 -0.044025633 -0.35523742 -0.40997523 -0.51716626 -0.295324 0.12199303 -0.06812992 -0.28514108 0.050604347 -0.28331295 -0.38923025 -0.033129938 -0.5724567 -0.07273776 -0.14112994 -0.25872204 -0.03224444 0.20879595 -0.19455056 -0.29779264 0.59452176 0.5466062 0.27347326 0.008500107 0.06597717 -0.3432945 -0.04672718 -0.19170891 -0.44624466 0.62089944 -0.34220505 0.008855058 -0.38525522 -0.08641519 0.22601838 -0.35902026 0.2045883 -0.26343182 0.13790706 -0.06421669 0.40916693
政 0.15124166 -0.18916814 -0.1531479 -0.22232524 0.33032867 0.013414135 -0.28901076 -0.4950459 -0.042553436 -0.20501855 0.018152677 -0.22020264 0.350227 -0.3023337 0.13711399 0.13400075 -0.46262625 -0.36611998 -0.4160233 -0.32290488 -0.3262229 0.34885275 -0.045443755 -0.13329078 -0.42297944 -0.46655166 0.028843584 -0.31459364 -0.14689228 -0.37169477 -0.16099322 0.021600205 -0.104880966 -0.39844713 -0.16436602 0.2736889 -0.17309219 0.108161695 0.34780365 0.0389833 -0.06929522 0.2843894 -0.1384517 0.14953329 -0.12091305 -0.23747495 -0.60981345 0.046318367 0.33107188 -0.3564087 0.14141434 -0.080413766 -0.15673721 -0.36127135 -0.44767603 0.061468523 -0.30134237 -0.25044426 0.5723502 0.18558113 0.50606614 -0.12637343 -0.2712807 -0.022806725 0.23049225 0.16148663 0.051362876 0.081479825 0.36706614 -0.34310222 0.35108486 0.3372339 -0.027722633 -0.46858418 -0.3722017 0.023820693 0.2703071 0.86867225 -0.2677434 -0.61233395 -0.024488904 0.26524982 -0.17873111 0.40373608 -0.3864008 0.421867 0.1735076 0.48250917 -0.16477983 -0.025373256 -0.062683664 0.24611263 0.00672147 -0.025037877 0.105394326 0.3392264 -0.10756922 0.20913962 0.14536595 0.49465254
食 0.112205416 0.09596325 -0.1527603 0.18228365 -0.22807762 -0.06362093 0.3014526 -0.22275741 0.28090653 0.21713051 -0.054814912 -0.39334548 0.1986282 0.2677938 0.14945672 -0.16517743 -0.11150125 0.50896275 0.21183574 0.48552436 -0.19955641 0.043833032 -0.2221813 0.21453005 0.3712787 0.44652173 -0.24508539 -0.25035447 -0.033083033 -0.4650204 0.08401022 -0.1625294 0.29138768 0.28621852 -0.15961885 -0.21827571 -0.25865063 -0.40895036 -0.27508914 0.21904916 -0.1140937 -0.2631901 -0.1756332 -0.18695681 0.07910145 -0.21746048 0.9188331 0.23987047 0.36012644 0.06174856 0.42637718 0.4226284 -0.09376699 0.057971522 0.01302511 -0.40091386 -0.24362686 0.17398874 0.13878089 -0.08575046 -0.62534004 -0.12830973 -0.6254508 0.08361713 0.5227018 0.17540722 -0.21228622 0.30563796 -0.32021624 0.014930101 0.05815953 0.08359817 -0.020358054 0.077059835 0.30668506 -0.04557177 0.042060368 0.38587072 -0.11041841 -0.06903283 -0.17684436 -0.8005832 -0.34236547 0.09667375 0.34389648 0.5382345 0.32469812 -0.34656742 0.19799863 -0.042609382 -0.33973134 -0.6048124 -0.41699946 0.22129938 0.052444667 0.1563268 -0.039466653 -0.5403007 0.43552575 0.12335761
善 -0.24507453 -0.2450589 -0.38003677 -0.20192264 0.446991 0.1708226 -0.18157402 -0.2721989 -0.16820535 -0.12710088 -0.54478407 -0.27382687 0.11516771 0.08280774 0.12058687 -0.21021782 0.14556102 -0.07221923 -0.22449078 0.05662121 -0.1750177 0.36350968 0.10999422 0.25252566 0.488419 -0.29962564 -0.050553054 0.045589298 -0.45003295 -0.47419438 0.3059932 -0.40637505 -0.21764995 0.28488815 -0.5343102 -0.21625187 -0.51121736 -0.07972434 -0.21860494 0.095726706 0.3364543 -0.17946476 -0.1659455 -0.62952673 0.05457531 -0.033663914 0.2561285 -0.3478469 0.098745264 0.44862726 -0.5749694 0.28414658 0.16416085 0.15864961 -0.39624387 0.28645942 0.41847527 -0.25352427 -0.61975205 -0.24497266 0.23293857 -0.5683062 -0.37696102 0.06749874 0.1924163 0.47665858 0.22981013 -0.024143213 0.2124166 -0.2714247 0.06783438 0.02315166 -0.10925615 -0.02777586 -0.36853877 0.20245771 -0.30251408 -0.118740834 -0.06314585 0.0851687 -0.41613862 0.36228058 -0.29912794 0.19444779 0.2380404 0.36425316 0.0032268262 -0.24340816 0.13192834 0.370077 -0.513223 0.21803078 -0.31487566 0.19297849 -0.13358855 -0.24927096 0.624236 0.016334882 0.15589692 0.14573191
后 -0.079581045 0.43625042 -0.3279211 -0.47552285 -0.42989624 0.22922532 0.12902251 -0.0129321385 0.023629302 0.026190227 -0.38669863 -0.16862963 0.0872888 0.14709105 0.112883374 -0.08382546 0.22140041 0.075678766 0.2909791 0.020192172 0.033874262 -0.53654236 -0.02097457 -0.23989531 -0.20490581 -0.053711325 0.16962406 0.11312141 0.3529194 -0.45411956 -0.18441437 -0.46001315 0.387801 0.19497108 -0.13778253 0.4121086 -0.17842187 0.050636064 0.2482249 -0.2712255 -0.5690249 0.24956386 0.036111068 -0.16563386 -0.06482702 0.19349615 -0.46345803 0.28299093 0.35590315 -0.21053526 -0.254536 0.032777052 0.1265179 0.10087177 -0.27875757 0.18767639 -0.25179026 0.0586723 -0.18823035 0.16200368 0.18227321 0.13081595 -0.6632438 0.20229381 0.05774127 0.55220956 -0.19117624 0.34040242 -0.5233692 -0.3235796 -0.024613941 -0.08586481 -0.28233275 -0.078986384 -0.2750594 0.3312304 -0.2526102 0.44155982 0.05845379 -0.42153895 0.2196844 0.059135143 0.23024906 0.25410324 -0.39830512 0.23680136 0.00974361 0.5025163 0.12712173 0.120225586 -0.3440304 -0.12003976 -0.05661149 -0.31608278 0.08348451 -0.1075387 -0.24283339 -0.23466186 0.5620518 0.56210643
德 0.43582818 -0.28549874 0.11092986 -0.1230389 0.58598447 0.05464939 -0.24362595 -0.19269243 -0.005426293 0.21324502 -0.10547706 -0.43558338 -0.08302506 -0.048416123 0.054917704 -0.43949595 -0.6342511 -0.26637846 0.24977238 -0.27214834 -0.08327263 -0.21149895 0.40886828 -0.07427326 0.29838032 0.057345774 0.22842892 0.30944857 -0.30502638 0.10883117 -0.5320249 0.3884324 0.06992509 0.16844158 -0.15805092 0.07570222 0.09523171 -0.68000627 0.5183309 0.17312299 0.0556248 -0.53252023 0.3415067 0.23319994 0.14339842 0.11367424 -0.36296904 -0.4778962 -0.44983438 0.23926468 -0.26184905 -0.09325735 -0.4253835 -0.17671412 -0.36058965 -0.514151 0.51555425 -0.15807542 0.1583731 0.11731392 0.069049634 0.029229201 -0.55814946 -0.15126997 -0.019921193 0.042037513 0.38887355 -0.42092785 0.1836335 0.20421648 -0.06035827 0.57718307 0.48838028 0.3114344 0.22998908 0.41357014 0.22730283 0.14471704 -0.35077265 0.19783427 0.19844909 -0.061185613 0.07384252 -0.2528755 -0.13856497 0.24429849 0.20301186 0.0014078891 -0.27120942 -0.21981862 0.5990157 0.005611976 0.2539834 -0.3312806 0.5049576 -0.32936406 -0.03496759 -0.29834545 0.25523728 -0.22102177
求 0.45032188 0.02645502 0.12869962 0.100561455 -0.05410081 -0.08417664 0.09067793 0.042500034 0.051917206 0.0510941 0.30770057 -0.21868706 -0.008929783 0.3791523 -0.2202367 -0.004608069 0.099798374 -0.1888146 0.03866599 -0.30458155 -0.044116646 0.076786034 0.12844142 0.19653712 0.097866476 0.31778657 -0.13887727 -0.5284665 -0.100723915 -0.30616638 -0.46782535 0.090103544 0.35574695 -0.43805844 0.2762839 0.30292946 -0.1583817 -0.015264716 -0.17988718 0.10662762 -0.53523374 -0.11898176 -0.015520685 0.52737206 0.278835 -0.4947784 0.30631226 0.42374277 0.02316081 -0.30390188 -0.36442047 -0.12821706 0.38187742 0.32263502 -0.15285362 0.082549535 -0.35457677 0.2139495 0.14591031 -0.40916428 0.92602766 -0.26468793 -0.2722482 -0.33119676 0.054997552 0.00039593515 0.72620875 0.1263821 -0.25093597 0.5589588 0.2575019 0.22802392 0.39538658 0.4944891 -0.44906434 -0.092573196 0.22761576 0.12086949 0.14507346 0.2634549 -0.005528391 0.20290439 -0.5026854 0.22381817 0.12277814 0.24529307 0.040090527 -0.1557656 -0.14763911 -0.07893131 -0.19940627 -0.20265557 0.28829518 -0.299471 -0.38676715 -0.41144106 0.13644627 -0.028556084 0.40572834 -0.45687953
对 0.23762289 -0.19033362 0.492453 -0.6821279 -0.13346408 -0.24478282 -0.5377998 0.07422099 0.20715314 -0.2809417 0.42168966 -0.1181794 -0.06273178 -0.053813342 -0.5942092 0.29279834 0.24064384 0.21068576 -0.032310385 -0.051474113 0.06511845 -0.27862406 -0.5085834 -0.06307601 -0.074444115 0.12445063 0.09067827 0.021470636 -0.21733005 -0.1575261 -0.11156097 0.1724406 0.15615565 -0.2407608 -0.3387684 -0.5501617 -0.2832151 -0.34005892 0.08658257 0.05293702 0.36070144 0.3548084 0.3453786 0.034770265 0.13587308 0.018470163 0.21946791 -0.14157088 0.13756149 -0.3497825 0.0193889 0.03405523 0.47370464 -0.51447594 -1.097335 0.17885043 -0.31162807 0.92741764 0.3410841 0.03040767 -0.047401026 -0.33484387 -0.435004 0.37007692 0.3552068 0.28383812 0.26982525 -0.18091887 0.25817508 -0.11554955 -0.4370761 0.15237588 -0.3735573 -0.30511332 -0.34677947 -0.7825653 0.24818613 -0.12025551 0.256301 -0.090697706 -0.5018543 0.28641346 -0.032642458 0.42296755 -0.23660775 0.34018478 -0.022072682 0.15924288 0.43540305 -0.12099989 -0.11816462 0.3775496 -0.2551921 0.55234075 0.3220856 -0.3542324 -0.091411754 0.2684843 -0.119981036 -0.4327278
恶 0.14388673 -0.74425554 -0.0659547 0.22422983 0.003512168 -0.37040535 0.21866049 -0.33637354 -0.01611157 0.21135308 0.21795146 0.15448558 0.21678442 -0.116158076 -0.29307833 0.1681416 0.7654364 0.12414858 -0.51885384 0.30217618 0.019060152 -0.53888255 0.3693644 0.020400247 -0.48956612 0.012535756 -0.42746732 -0.36158603 0.23878442 0.095330015 -0.19242586 -0.14120115 0.21435206 -0.6882308 0.05221209 -0.0036736627 -0.149234 -0.2911521 0.21021916 -0.44810537 0.056230575 -0.17530489 0.025778897 -0.19113238 -0.16982934 0.32075074 -0.11714159 0.052775186 -0.06717802 -0.030668652 0.47661343 0.28527537 0.23160106 -0.3756558 -0.14087807 -0.5975308 0.25616017 -0.49101108 0.2037248 -0.18990546 0.34121332 0.12415212 -0.6198217 -0.6058747 0.27023014 0.116193034 0.043344896 0.09865506 0.4000373 0.23444238 0.14773992 -0.2885528 -0.041256398 -0.14918032 -0.10623562 0.29610893 0.28440198 -0.41935626 0.13879368 -0.14758375 -0.17777218 -0.38012514 0.12058311 -0.1488889 -0.11803017 0.10643443 0.02799093 -0.9073756 0.38469458 0.42562246 0.52004594 0.29744235 -0.1907804 -0.5902967 -0.5573038 0.14597031 -0.09852213 0.7861824 -0.03281109 -0.18156673
信 0.0026959202 0.43738362 -0.3611678 -0.3213558 0.5457293 -0.2507382 -0.14463435 -0.24026102 0.04999197 -0.16072947 -0.40172207 0.47298405 0.09050576 0.52140105 -0.42446893 -0.07821252 0.37636963 0.41936034 0.084060684 -0.25886658 0.06230123 -0.10685079 0.02467952 -0.059483893 -0.020756809 0.2108648 0.011358728 -0.25606275 -0.1272495 0.19004214 0.18922248 -0.20812438 -0.0012413948 -0.081452064 -0.0579746 0.20039706 -0.07169858 -0.3839682 -0.30440637 0.21102867 -0.05830254 -0.42994088 0.08947996 0.15364215 -0.10050715 -0.5207163 -0.22733185 -0.15852572 -0.5590642 0.13824435 -0.21978302 0.03644408 -0.28325978 0.020743355 -0.29979315 -0.23558384 0.2657892 0.12815532 -0.63191164 -0.21291144 -0.20250498 0.20248872 -0.74762124 -0.30763888 -0.6237469 0.36692256 -0.16320296 -0.17192239 0.3124676 -0.009835078 -0.23247747 0.18091495 0.2933987 0.41471887 0.042087443 0.13101698 0.06451846 -0.22705562 0.0854186 0.25981393 -0.12771028 -0.3845893 -0.09963663 0.1585355 0.20562752 0.23662487 -0.032900788 0.10698964 0.13270968 -0.6192149 0.3156636 -0.326105 0.14377488 0.012597038 0.53183025 -0.09334551 0.267435 -0.10937356 0.09187432 0.09931451
死 -0.33112624 -0.62906563 0.2076386 0.17619869 0.13401945 0.16337678 -0.1346173 -0.3742937 -0.50174797 0.19316122 -0.45524937 -0.44100288 0.43584347 0.28413492 0.26582754 -0.28395727 0.3756442 -0.119756185 -0.10021105 0.3425778 0.3020292 -0.2472849 -0.32314315 0.07718636 -0.29592618 -0.5856052 -0.37737495 0.4197296 0.12549476 0.44507855 0.6133374 0.20713179 0.37692922 0.040703606 0.041071538 0.4088118 0.2387904 -0.2173541 0.2774518 -0.023627045 -0.09950745 -0.21037228 0.0142128505 -0.07343298 0.30382535 -0.29068187 0.02182626 0.28495583 -0.06954928 -0.04558499 -0.043310236 0.3645688 -0.11108558 -0.026781574 -0.16978328 -0.32703298 -0.28189492 -0.13943666 -0.22357233 -0.08248505 0.8012478 0.051185843 -0.28003058 0.112386584 0.29401922 -0.19228715 -0.17682499 0.23941877 0.26945987 -0.6383054 0.347073 -0.5271776 -0.016889492 0.10494268 0.2921537 -0.3189736 -0.6002156 0.13703361 0.09435623 -0.16466938 0.13678788 -0.19727865 -0.018381132 -0.07215034 -0.4939905 0.54089665 -0.2564436 0.0080198925 -0.4159878 -0.07917252 -0.068609096 0.06631053 0.19324528 0.06959353 -0.06452669 0.20028281 -0.03838975 0.19592161 0.28246284 -0.10024572
然 0.04889172 -0.0022653975 -0.09918758 -0.39607197 -0.1671422 -0.13787721 -0.45098647 -0.157983 0.0029067553 0.10146507 -0.2662204 -0.09726108 0.1094405 -0.15927126 0.07498036 -0.2931682 -0.18550557 0.051813163 -0.3316452 0.36549327 -0.023632117 -0.14879115 -0.15594009 -0.34984076 -0.09872295 0.4047018 -0.14868942 0.15545377 0.6164034 0.08736696 0.046322215 -0.57631046 -0.2953857 0.44562107 -0.28977418 0.3070618 0.26476216 -0.218881 -0.60545254 0.2131086 0.06403158 0.122053154 -0.03181583 -0.15428934 0.1721366 -0.7321168 0.0162179 0.8016939 0.15464212 -0.11090424 -0.33762988 0.11748038 0.11288259 -0.19285235 -0.44049042 0.06551254 0.07145019 -0.13229029 -0.32394227 -0.19331568 3.2388336e-05 -0.53237164 -0.05119291 -0.23619418 0.097352564 -0.06363528 0.05114017 0.18111804 -0.08526771 -0.35594347 -0.11460615 -0.1456852 0.16561498 -0.14412616 0.21256764 0.12549256 -0.5053695 0.21035402 0.0025651683 -0.36057773 -0.30748308 -0.34167477 -0.55041516 -0.38796768 -0.04568147 0.5788536 0.014541606 0.37181222 0.36184502 -0.08303089 0.21985328 0.045393247 0.53868663 -0.18355916 -0.334371 -0.09083629 -0.026743058 -0.16300406 0.0065923627 -0.07523933
《 -0.4219375 0.5372063 0.41209966 0.26928917 0.15752602 0.07487332 0.13720149 -0.30729392 0.9258501 -0.19592637 -0.23270956 -0.3101889 -0.102958195 0.19714321 -0.115773365 0.23106864 0.09213178 -0.120502494 0.023246331 -0.13739458 0.092081055 0.5252458 0.7131318 -0.38837376 -0.09915708 -0.16896419 -0.18161935 0.030508162 0.32149434 -0.3942397 -0.3784922 0.56163555 0.26242462 -0.27270848 0.012190107 0.6627858 -0.09706838 0.22550023 -0.23900409 -0.25459632 0.49095783 0.24908827 0.38967294 -0.47925 0.187703 0.40144503 0.2492904 0.50895214 0.1490245 -0.43237114 0.33348784 -0.50866336 5.6640623e-05 0.12634106 -0.37589732 -0.2502053 -0.6113314 0.12598431 -0.36857948 0.07392302 0.17967057 -0.38230613 -0.41012982 -0.08027591 0.662486 -0.43794155 -0.2012588 -0.2741075 -0.19437575 0.38259736 0.26552242 0.2642542 -0.334689 0.37265342 -0.7004164 -0.061688717 -0.18985151 -0.37543973 0.6765392 0.074920036 0.55591387 -0.53186345 -0.11985875 -0.041772116 0.25094578 0.40625855 0.9347214 0.050750546 0.16326378 -0.29497325 -0.030241972 0.46077093 -1.161938 0.376894 -0.25251907 0.17547977 -0.5948898 -0.2567782 -0.61831605 0.46229652
