1352 50
， 0.14555553 0.04195462 -0.04940841 0.006252474 -0.07440447 0.0028578062 0.11302149 -0.0412632 0.1708114 0.06313308 0.0020051594 0.115231365 0.32220814 0.16154869 -0.07726443 0.041617524 0.198181 0.053377524 -0.023571093 -0.07444356 -0.0031542268 0.02369757 -0.08734858 -0.035609614 0.114224866 0.119171575 -0.06814382 -0.041915957 -0.027187625 -0.00079941493 -0.032563645 0.08912055 -0.14198837 0.03585901 -0.03793638 -0.41410667 -0.122463636 -0.07793818 -0.11510794 -0.11187741 -0.04386023 0.071085304 0.03781442 -0.049406175 0.07932867 0.115360335 -0.029380614 0.08084456 -0.0016599216 0.04373832
子 -0.15621911 -0.0780939 -0.016700158 0.060457926 0.034285076 0.02748246 -0.17406185 0.17555583 0.13156697 0.09245544 -0.08224952 0.10682839 -0.13536742 -0.2030545 0.10391688 0.18102735 -0.43348676 0.32893428 -0.15217194 0.16303098 0.25694254 0.12973537 -0.05880288 -0.01739421 0.08818707 0.16447198 0.04737079 -0.052009083 0.06625218 -0.0010726185 0.05059257 -0.0071558314 0.035456147 -0.08719266 -0.072748184 -0.16527526 -0.015988959 0.024792576 -0.08072667 -0.014168268 -0.00084394764 0.104689434 0.04774799 0.22419988 -0.20950432 0.08816347 0.050883036 -0.56898165 -0.14838402 -0.0811536
。 0.065908186 -0.053032275 0.02264078 0.16248882 0.15851428 0.016569527 -0.16870196 0.3899196 -0.047489103 0.08601554 -0.060363904 0.20616741 -0.09337558 0.054724693 0.02163694 0.031727128 -0.12898856 0.40700203 -0.18660137 -0.027560202 0.048743863 -0.034246538 0.13195118 0.099527106 -0.09504875 0.08828379 -0.078405984 -0.14124662 -0.010901228 0.08935822 -0.04013472 -0.011337179 0.11743143 0.07671852 -0.011446314 -0.74655294 -0.18292026 -0.21345194 -0.09191017 0.069685705 -0.078017384 0.14481023 -0.014990443 -0.04286095 0.019420782 0.05824429 0.09148378 0.030714326 -0.13257258 -0.01448528
： -0.0329288 0.04481903 -0.08354144 -0.14012194 -0.015493354 0.18162583 -0.21817379 0.27010396 -0.07519497 0.08270759 0.009276497 0.08508894 -0.19353622 -0.16074763 -0.008446494 -0.06701413 -0.21606414 0.25045863 -0.06495586 -0.035734214 -0.085341014 -0.043554373 0.11242032 -0.15022574 0.095028795 0.059479497 -0.01068633 -0.04338921 -0.08170537 -0.09239207 0.07089964 0.18432151 -0.01112353 0.13055652 0.21350844 -0.1555355 -0.088891745 0.15746583 -0.2283932 -0.018894115 -0.003720739 -0.1058084 -0.09218376 0.022958066 -0.012434205 -0.11942997 -0.090680555 -0.62510294 -0.1121718 0.20539588
曰 -0.116419375 -0.051328447 -0.064917214 -0.20898403 0.11748881 0.10053543 -0.20292437 0.24380618 -0.17625883 0.009808184 -0.12863758 -0.0720828 -0.052308846 -0.15253393 -0.023299608 -0.06755852 -0.28262925 0.43141237 -0.18979605 0.057193022 0.00050613977 0.054891136 0.11002114 -0.1284228 0.12070654 0.066544056 0.026584892 -0.112929724 -0.14478953 -0.07900689 0.19868404 0.1798306 -0.0240478 0.15329698 0.24302574 -0.11212749 -0.17536062 0.15397766 -0.3193259 -0.17191125 0.07132566 -0.17652065 0.07771317 0.035059836 -0.031988658 -0.16192862 0.055484924 -0.67574114 -0.15787475 -0.03557237
之 -0.040472437 -0.21518907 -0.0601249 -0.12632445 -0.08304197 0.16321723 0.02573628 -0.24823898 -0.2174992 0.037663214 0.11436519 0.13901673 0.22670712 -0.07636357 -0.10244684 -0.018811442 0.11126147 -0.011894521 -0.1620957 -0.04529538 0.04139946 0.024821157 -0.03858295 0.020424493 -0.15419744 0.0059637646 0.028653245 0.13899481 0.05620498 -0.20257132 -0.030948458 -0.09575142 -0.0035836305 -0.2097508 -0.0667177 -0.15982181 -0.18165462 -0.097444974 0.17545408 0.07814331 -0.004990485 0.20592822 -0.089937605 -0.0009915696 0.050588623 0.04825361 0.1540137 -0.188283 -0.32422873 0.13818401
不 -0.07242154 0.068411075 -0.15287313 -0.28270555 -0.24885905 -0.120825395 -0.019695766 -0.13586517 0.068177596 0.06854586 -0.041763294 0.18501829 0.48380753 0.038054336 0.27534792 -0.069968864 -0.08328552 0.07387641 -0.155944 0.21269909 -0.16006649 0.11577137 0.0044853147 -0.09513357 -0.263763 0.05160486 0.10007677 -0.016622027 0.14102118 -0.044419184 0.14080416 0.09952329 0.12562567 -0.0116595235 -0.2186928 -0.2421767 0.19803198 0.13194436 0.105503894 0.170225 -0.22388895 -0.13758603 0.062237527 -0.12822913 -0.2333073 0.12680224 -0.37030238 -0.061404034 0.10190494 -0.016648302
也 -0.06489258 0.176275 0.068546176 -0.1561787 -0.00069827004 0.032185964 -0.11464094 -0.23410298 -0.042713966 -0.03032964 0.3217352 0.0321576 0.07457282 0.04077059 0.056905348 -0.27907926 -0.2590957 0.03639991 -0.11997204 -0.13357012 -0.039542083 0.08046121 -0.17690414 0.050081264 0.003270993 -0.23091476 0.056507774 -0.006519066 0.18824479 -0.014573378 0.2436509 -0.21584289 -0.02545642 0.08377841 0.19662692 -0.28014585 -0.18050788 -0.15402642 0.12180256 -0.04183013 0.08788554 0.29014346 0.18850234 0.26087084 0.096985206 0.027150752 -0.1358769 -0.32015532 -0.065601535 0.113934614
而 -0.32130915 -0.012876085 -0.16868977 -0.25177664 -0.06612959 -0.24806976 -0.06686195 0.029915307 0.23287642 0.0007354235 0.060488593 -0.03157051 0.07069721 -0.018615767 0.28559875 -0.09897508 0.18084256 -0.51533675 -0.07970737 -0.11857931 -0.022152776 0.021004003 0.109792806 0.07800871 -0.022494378 0.27616224 0.08086187 -0.07692325 -0.01079565 -0.10655182 0.33511546 -0.19044891 0.13238677 0.07689982 -0.34412348 -0.5382766 -0.09132731 -0.18381877 0.21244209 -0.016349277 -0.03494778 -0.21129076 0.087994084 -0.20734106 -0.14613676 -0.049651407 -0.097591504 -0.28328398 -0.019159883 -0.36210942
？ -0.36956805 -0.15240684 -0.11000292 0.00058859243 0.0053782463 -0.36526757 0.1197605 0.39894542 0.4097471 0.37629658 0.21809392 -0.15247935 0.26127112 -0.0023298184 -0.19961296 -0.08011367 0.04627365 0.58050704 0.014463071 0.09688721 -0.36811015 -0.541619 0.08898229 -0.18890542 0.20121044 0.06348347 0.16901411 -0.37295157 -0.19995919 0.3369955 -0.28511342 -0.26743755 -0.12963851 -0.06363634 -0.11526249 -0.39714253 -0.22877589 0.011215165 -0.17408222 -0.17577164 0.2566732 -0.20291285 -0.30270767 0.13284384 0.012348479 -0.051149257 0.010571898 -0.3431286 -0.31507945 0.21936706
其 -0.03616633 -0.07898577 0.07671667 -0.13532194 0.06655368 -0.06937368 -0.12540053 -0.23025052 0.044874277 -0.22226085 -0.15340416 -0.16742483 0.51924825 -0.0033811328 0.19061899 -0.24448258 -0.012738993 -0.038609102 0.09957385 0.22465622 0.11459486 -0.16959646 -0.33136636 0.015591802 -0.37747833 -0.051184412 0.13326876 0.08664623 -0.24451986 0.1303758 0.27129793 -0.34223703 -0.15581171 0.037253182 -0.29072323 -0.2221495 -0.05044249 -0.1889441 -0.023335751 -0.051893767 -0.03549307 0.58202285 0.10009994 -0.0038799972 0.021724323 0.24259825 -0.10176566 -0.37676698 0.4760675 -0.052756958
人 -0.09364542 -0.14208058 -0.061402135 -0.24344338 -0.20478679 -0.064293526 0.12003401 -0.09151399 -0.2423093 -0.034077875 0.20015861 -0.095676266 0.077436775 -0.23151846 0.10009299 0.12954697 0.03797863 -0.056860488 -0.0665727 -0.21766312 -0.27979073 -0.06666346 -0.09773815 -0.24450088 -0.23668203 0.17311303 -0.24617584 0.4320969 0.26506963 0.42879382 0.19792834 0.06674788 -0.063579105 -0.2229595 -0.09512423 -0.30661932 0.09984334 -0.16304408 -0.22929892 0.51248175 -0.0044000433 0.31547937 0.2208719 0.10986682 0.025896842 -0.12627 0.14763597 -0.33005884 -0.14306621 -0.24796042
者 -0.24766561 -0.0069624605 0.024466004 -0.03871327 0.13847624 0.22998437 -0.06464019 -0.051312275 -0.27450943 -0.042920854 0.21547812 -0.3079437 0.41919076 -0.30850092 -0.11112717 -0.12456598 0.2818674 -0.15772888 -0.014067692 0.17266801 0.16438462 -0.06888093 0.24797133 0.24670187 0.08579146 0.20982811 0.28411812 -0.26089737 0.41516522 0.75612396 -0.028573856 0.335728 -0.10394842 -0.03968794 -0.24059895 -0.20019905 -0.032288026 -0.29439938 0.16343632 0.03296216 0.234799 -0.031194748 -0.04663404 0.031934336 0.43623027 -0.164364 -0.08999128 -0.35878533 -0.07795934 -0.30273542
以 0.38398215 -0.25041914 -0.13438104 0.09640308 -0.11054645 0.5217629 0.07625185 -0.38562933 0.036973525 0.31475788 -0.15242954 0.054524213 0.1926187 0.31211498 -0.10256817 -0.025353929 -0.018982291 -0.0061501996 -0.10846393 -0.3542089 -0.14648096 -0.02210938 0.115308695 -0.1515998 0.08831392 -0.148504 -0.07469853 0.14422947 0.04521163 0.09791091 -0.26790813 0.1692367 0.2799844 0.17798437 0.17284252 -0.37391907 0.4359448 -0.1139474 0.4535204 0.067085125 -0.0313861 -0.42282343 0.21093543 0.1932 -0.22830524 -0.13919389 -0.06841412 -0.51522386 -0.2043985 -0.1366126
有 0.0856306 0.21100329 -0.06790784 -0.26029232 0.31732455 0.24630338 0.12729847 -0.19488893 0.1550148 -0.042168334 0.032041777 0.12123097 -0.0713063 -0.24497077 -0.56835294 -0.08010668 -0.18028674 0.0003825674 -0.0035810557 -0.020006172 -0.13620211 -0.15520388 0.3163757 0.083471775 0.23621245 0.052799698 0.028444963 -0.601599 0.30531412 -0.045167457 -0.1557395 0.6518462 -0.18986642 -0.44795334 -0.03602603 0.019137006 0.3459272 -0.16579394 -0.14177875 0.1981033 -0.011623438 -0.0022849678 0.18334492 -0.06613331 0.11357287 0.029241608 -0.070431046 -0.5414393 0.13628767 -0.095881954
于 0.380768 -0.10136756 -0.08503788 -0.10808557 -0.26242736 -0.20535459 0.19350085 0.24549763 0.09913866 0.2037921 -0.38425645 -0.029432802 0.22636789 -0.30404845 0.14951955 -0.018653467 -0.1771186 -0.6207625 0.11035406 -0.3705901 -0.22910774 0.13693412 -0.20556594 -0.04958892 -0.058280837 0.1992016 -0.44827688 -0.10603948 -0.30597767 -0.17296174 0.04883461 0.3872925 0.06394101 -0.28205514 -0.1861577 -0.038589507 -0.70750827 -0.2535584 -0.076654516 0.18787798 0.006261695 0.08789365 -0.29679757 0.05277649 -0.22369164 0.015291837 0.19286977 -0.33516854 -0.019193511 0.09740881
矣 0.30620357 -0.06568414 0.24946114 -0.07497892 0.18802467 -0.22008613 -0.3572174 -0.23055623 0.019667989 0.3670771 -0.18522626 0.4682567 -0.016533803 -0.5263689 -0.45416096 -0.110264204 -0.38414824 0.17396407 0.13692723 -0.110624045 0.11229705 -0.14052467 -0.13432601 0.34742364 -0.059645552 0.20270982 -0.25801697 0.05934759 -0.358996 -0.12138927 0.1267559 0.006172393 0.23133801 0.9980035 -0.18921813 -0.12225699 0.12543468 -0.3151024 0.11907448 0.0784825 0.041049212 -0.1559837 0.12828968 -0.043325458 0.43858972 0.20050563 0.26642007 -0.19367194 -0.089412406 0.25456125
为 0.13389336 -0.094789 0.07124666 -0.1380932 0.13990618 0.39856485 0.40447515 -0.16549186 -0.26455086 -0.013429874 0.09734269 0.0799068 0.28074315 0.49734104 -0.07971135 -0.08793105 -0.012163482 0.12454254 0.29016268 0.13703349 0.088093914 0.025030734 0.12574871 0.3476574 0.18974178 -0.16658026 0.24428578 0.06250647 -0.4646104 0.09668939 0.03449346 0.1923414 0.20786543 0.094015084 -0.40088382 0.021592567 -0.036819458 0.18485646 -0.11902182 0.42418775 0.11123417 -0.36330935 -0.038391203 0.18828449 0.17104562 -0.17821784 -0.040141903 -0.6974144 -0.55675113 -0.24812588
君 -0.19210313 0.18776557 -0.32894012 -0.053802855 0.04651047 0.10305159 0.15167381 0.14678115 -0.12641124 -0.2502527 0.09236659 0.4999229 0.117653504 0.014136481 -0.098298505 0.28538436 -0.42187747 0.20387442 -0.091316044 0.1876436 0.018685298 0.25172794 -0.02379147 -0.1210473 -0.021438023 0.049454097 -0.060112786 0.08957079 0.12538011 -0.03627339 0.3842493 0.06202767 0.52662414 0.18539517 -0.041808296 -0.3087818 0.4960566 -0.24392429 -0.21118069 -0.061119013 -0.103946164 0.12122949 0.018517079 0.14796866 -0.0485918 -0.32055196 0.06885268 -0.5303725 -0.06005086 0.17020051
乎 -0.33862054 -0.48434696 0.14309941 -0.49858603 0.19366683 -0.186292 0.11975381 0.1687109 0.56990075 0.23147184 -0.025034016 0.11546734 0.026177658 -0.3629744 -0.14311361 -0.110244334 0.019774774 -0.24121082 -0.024733508 -0.057211466 0.36086404 -0.32836962 0.15280588 -0.059571534 -0.29493225 -0.3301621 0.2890787 0.11962406 -0.1774665 0.5211753 -0.211263 0.06304447 -0.24993593 0.22638866 -0.250474 -0.28612325 -0.008934454 0.26774874 -0.24412073 0.23772201 0.21650225 0.095542625 -0.11752268 0.3490113 -0.14259066 -0.5152684 0.17771982 -0.31407648 -0.12940176 0.5937639
可 -0.27238894 0.1586918 0.14028212 0.24733818 0.040132843 0.118618846 -0.104572155 -0.5666507 0.17717306 0.0056498367 0.3678969 -0.20836876 0.7099297 -0.14847134 0.027566936 -0.074090526 -0.4751097 0.314328 -0.29560092 -0.53540903 -0.013041471 0.12290858 0.2893292 -0.06335774 -0.15856938 -0.32732704 -0.5271961 -0.08892404 0.18034877 0.23659831 -0.31117085 -0.5499576 0.062257286 0.28915593 -0.62745047 -0.28959242 0.014707436 -0.087016545 -0.069406316 0.11332903 -0.037195083 -0.29579112 0.056525894 0.1047031 -0.39678663 -0.031549476 -0.119307056 -0.010587626 0.065695845 -0.12528175
如 0.41288736 0.030078331 0.46485355 -0.15277243 0.23193671 -0.3557749 -0.30992582 -0.09889413 -0.0140651595 -0.5741126 0.61623114 0.18791905 0.3752783 0.16273236 -0.19113599 0.114819735 -0.21109988 -0.4523398 -0.3020342 0.12360868 -0.09376174 0.18182173 -0.3565934 0.20320113 0.33561227 0.11717425 -0.09772672 0.047126092 0.010600627 0.47480243 -0.23631072 -0.1914557 -0.3006614 -0.061451923 0.18697323 -0.15538342 0.13164133 0.022972152 0.2405775 0.041308496 0.30090943 -0.11330998 -0.13835117 0.01548652 0.47239137 0.026284758 -0.38690007 -0.6000524 -0.2785397 0.3272811
与 0.04675285 0.055787515 -0.0020247193 -0.046592765 -0.35030895 0.13757603 0.2515768 -0.30296716 -0.57925385 0.062095378 0.015143486 -0.09001724 0.18393698 -0.14598407 0.10554896 -0.08288154 -0.21325767 -0.03060312 -0.37394726 0.05261134 -0.113602504 -0.21191277 -0.18023741 0.083780095 -0.17773128 0.17711355 0.03422026 -0.13904427 0.03587836 0.23969549 0.43221492 -0.32492995 -0.13656706 0.11890427 -0.15079267 -0.19093935 -0.18356542 0.44312078 -0.18417704 -0.07056862 0.63391554 -0.07664679 -0.75579983 0.053615633 0.06709865 -0.11052109 0.04226441 -0.4439423 -0.116351575 -0.37942833
； -0.21365768 0.05678065 0.1272884 -0.12552065 0.3036818 0.47560903 -0.04578251 0.13490222 -0.11430721 0.086163834 0.03172716 0.19043927 0.4598674 0.17782131 -0.16648571 -0.65928835 0.06415861 0.016652716 -0.044754032 -0.010334423 -0.020891804 -0.048502896 -0.18065798 0.075550586 0.15268014 -0.17767538 -0.45851326 0.12044327 -0.21952054 -0.05643401 0.20609796 0.03190131 -0.31551775 -0.15419124 0.102560654 -1.044085 0.66531223 -0.2018448 -0.03420775 -0.06595547 -0.059730496 0.5970891 -0.17377098 -0.0945172 -0.15310806 -0.2291864 -0.06452065 0.6140355 -0.07638945 -0.34956267
言 0.06958036 0.20662728 0.0848508 -0.21459761 0.03156329 0.84686536 -0.16816339 0.15216461 0.14013797 -0.15614058 0.20666571 0.11183602 0.24201632 -0.3760958 -0.30493858 -0.16274707 -0.09347817 0.05750938 0.07640471 -0.17354354 0.071638316 -0.18234196 0.026696919 -0.02300579 -0.2739954 -0.1183484 0.38598603 0.0016325084 0.0009607091 -0.060867526 0.19892582 -0.112292856 -0.38045135 0.25756633 -0.02699225 -0.47505772 0.10965502 0.16329682 -0.20411575 0.18948263 0.50603724 0.04847847 -0.27199695 -0.2801646 -0.14752124 0.22849154 -0.1514809 -0.13540795 0.45975852 -0.31620067
无 -0.13421531 0.10215492 0.38559356 -0.3660107 -0.041736588 0.35010615 0.41764247 -0.023585808 0.106597714 0.09094551 0.039123677 -0.15105437 0.35322273 0.39362037 0.083974496 0.3850441 -0.2651022 -0.11654813 -0.0895193 0.03326416 0.22615528 -0.26372337 0.23904738 0.3660934 0.2159255 0.26434052 -0.12048107 -0.17248571 0.05210478 -0.31243902 0.086843155 0.2212005 -0.0878057 0.3499682 -0.0019856498 -0.27197552 0.0013386392 -0.16083412 -0.030913055 0.25302327 0.031780772 -0.27215484 0.024937607 -0.292959 -0.45724937 -0.26971287 -0.29622293 -0.058661316 0.16937056 0.09942373
则 -0.16393863 0.08221932 0.5997234 -0.12255977 -0.10162039 -0.40752918 0.2481377 -0.09898599 0.10284364 0.08026005 0.05204161 0.43561652 0.68224645 0.04071849 0.09855493 0.2089245 -0.47566608 -0.19245066 0.5572534 -0.37875056 0.18121709 -0.17299123 0.142707 0.1314138 0.17338699 -0.20626192 0.16140413 0.5318261 -0.48561218 -0.17539376 0.08856371 -0.3051996 0.25002548 0.04097925 0.19166826 -0.35543227 0.134344 -0.09567846 -0.19485754 -0.028272899 0.13124175 -0.20769079 0.2513318 -0.30876166 -0.21527575 0.2468071 -0.25238854 -0.14015538 0.07620445 -0.45506573
！ -0.33860663 -0.06519825 -0.15766175 -0.47230795 0.36861104 -0.15679498 -0.060762346 0.15048477 0.1258494 -0.16734515 -0.3614822 0.2692069 -0.26295403 0.024661444 -0.074055545 -0.25506246 -0.1998385 0.32207415 0.15163699 -0.19246799 0.04031535 -0.42894545 -0.62168795 0.19917549 -0.114382386 0.11246857 -0.108208396 -0.23911457 -0.36008018 0.40197918 -0.369347 0.17848231 0.060515888 0.18351406 -0.313355 -0.45480165 0.054224107 0.15502107 -0.056458365 0.532178 0.06324638 0.033894356 -0.4046799 0.60049117 0.046179987 0.0955969 0.18057935 -0.22325265 -0.15516153 0.22374928
问 0.28378844 -0.10341071 -0.055876356 0.105065726 0.20711663 -0.46294942 0.35725206 -0.39226732 0.17528288 0.55864245 -0.06910178 -0.37010133 -0.5182832 -0.05240209 0.074767716 0.4007792 -0.7605216 0.35607946 0.09795105 -0.13982543 0.23652376 0.09813658 0.23032282 0.40659848 -0.0803177 0.111181736 -0.056776874 -0.2377858 -0.1538538 0.120189264 0.18612504 0.19681177 0.20408697 -0.21970573 0.036508206 -0.35631007 -0.19732372 -0.19850683 0.15072341 -0.29262358 -0.10742701 0.025188707 0.14733928 0.084096186 0.1557874 -0.10777582 0.09878069 -0.78178024 0.44995388 0.28878748
知 0.0021681378 0.15728822 0.059860773 -0.07613724 -0.110914454 0.23583275 -0.22132188 -0.32563454 0.13459525 -0.046458308 -0.12990099 -0.37335986 0.15631376 0.036022577 0.27129775 -0.14461632 -0.087039955 0.45747364 0.32913572 -0.16606373 -0.32394204 0.030530946 -0.0010921962 0.39082238 0.069498025 -0.15009888 0.1499348 -0.38976145 0.20614538 0.47539148 -0.10328163 -0.1340156 -0.23631522 0.34841204 -0.21761724 -0.22618625 -0.26027516 0.09144077 0.19408649 0.46004584 -0.43612668 0.14090803 0.09775397 -0.2820121 0.015178603 -0.03337472 -0.37202463 -0.41551992 -0.30718398 -0.037126105
何 -0.44753695 -0.21975203 -0.063584864 -0.17412238 -0.13436188 -0.12611958 -0.31454512 -0.3962144 -0.18447906 -0.025580794 0.09036859 -0.2775296 0.42132437 0.50800127 -0.43137115 -0.13382524 -0.071866326 0.10184756 -0.008970498 -0.25241458 -0.14426738 0.35447484 -0.07716772 0.23494421 0.061243735 0.08593292 0.08586516 -0.50610346 0.10035814 0.030436719 -0.13011305 0.042063896 -0.15364882 -0.2141247 0.16225787 0.105869845 0.06151714 0.12313201 -0.35850948 -0.2743933 -0.2640309 -0.038296003 -0.15457651 0.37924972 0.41989106 0.091377966 0.20764135 -0.7348195 -0.2595047 0.44590423
吾 -0.44849518 0.06549516 -0.054031014 -0.2832223 -0.41321626 0.15149681 -0.21752954 0.010886655 -0.27305952 -0.2404227 0.04352194 0.3396039 0.36063588 -0.20061077 0.13183458 -0.13774963 0.2571947 0.13874872 0.4709888 0.023879172 0.18801428 -0.1612552 -0.16283792 -0.22448689 0.048893884 -0.0075104125 -0.37403575 0.0649598 0.1857483 0.31058985 -0.31554708 0.42623445 0.18266764 0.30373445 0.48164567 -0.34822538 0.14675811 0.25577506 -0.24277402 0.30363032 0.1834162 0.065827765 0.12353899 0.09045029 0.23739249 -0.12623028 0.20457946 -0.44117925 0.20559824 0.15423948
仁 0.16526546 -0.0050478103 0.17022362 0.2210018 -0.03017775 -0.49779767 0.16377811 -0.3484885 0.101597294 0.28576145 -0.11859098 -0.08286162 0.27814013 -0.58473456 0.005271586 -0.20406005 -0.2250988 0.5498518 -0.053335845 0.051806197 -0.19021092 0.04748022 0.12203828 -0.12552366 0.2547856 0.35263905 -0.050925598 -0.34900388 0.046369392 0.4218178 -0.3283306 0.35671893 0.23854859 0.37864187 -0.06521342 -0.10903237 0.18045506 -0.060731944 0.47408527 0.081736796 0.024127495 0.2722369 0.18317083 -0.029243082 -0.21467946 -0.15752159 -0.12132705 -0.18021935 -0.116092876 0.22351906
夫 0.10664558 -0.13803226 -0.2022754 0.13791996 -0.18418746 0.32513455 -0.21808882 0.37987185 -0.18142109 -0.088697106 0.13717665 -0.10915779 0.25502136 0.015888013 -0.34216455 -0.06008876 -0.19062077 0.18166783 0.16330644 -0.37049207 0.37611514 0.010639493 -0.21252969 0.165387 0.2897713 0.4592157 -0.590565 -0.11662419 0.112249084 -0.2630696 -0.03563993 -0.31689242 -0.17833106 0.11291135 -0.18900248 -0.25506222 0.2920691 0.051882133 -0.09175496 -0.008834494 0.2214202 0.11802453 0.34431523 0.07676468 -0.21657102 -0.0046568485 -0.2453606 -0.65663624 -0.27458385 -0.119984955
、 0.18178304 0.18297315 0.42495215 0.0946166 -0.20465451 -0.20286487 -0.21223259 0.3570937 0.022879042 0.26631904 0.36186838 0.37504578 -0.33402464 0.19694659 -0.3644112 -0.08869953 -0.1779158 -0.15894774 0.42955545 0.29819828 -0.083824135 -0.07476482 -0.15054667 0.30939713 -0.7041334 -0.43598768 0.050864432 -0.41042185 -0.54717994 -0.16458556 0.121693484 0.72931015 -0.4224353 -0.463255 -0.0995336 -0.95651263 0.20078053 0.070796534 0.28291193 -0.30838746 0.2741272 -0.5014272 0.19373696 0.2667066 -0.29538733 -0.32883373 -0.22483404 -0.1108598 -0.27569178 0.07866959
道 -0.007967992 -0.33970526 -0.50124663 -0.030160895 0.32688895 -0.0009222916 0.3474138 -0.37831402 0.09392 -0.04874134 -0.00970378 0.05744052 0.22240627 0.0058863503 0.060312703 0.2210672 -0.046120193 0.38193288 -0.28390282 -0.12990244 -0.27509087 -0.04791822 -0.1365967 0.1347758 0.33039907 -0.11467709 -0.23789069 -0.160822 0.39643034 -0.30509704 0.4426624 0.44872853 0.12052127 0.07273101 -0.15868795 -0.18453488 0.10841516 0.17356049 -0.27431723 0.1401102 0.14610292 -0.15546505 -0.37528366 -0.49277106 -0.0920326 -0.33073735 -0.35810348 -0.19804817 0.08568075 -0.18401107
焉 -0.004746802 -0.44866675 0.4489859 -0.10444205 -0.2836272 0.34828556 -0.017635304 -0.1397086 0.4343807 0.27735445 -0.0417214 -0.44415045 0.020425875 -0.30423316 0.125947 -0.20771186 0.5659642 -0.16790166 -0.09970999 0.14076759 0.10622265 -0.22615986 0.4918414 -0.35422617 0.19838285 -0.35369635 -0.21292967 -0.3004932 0.119908504 -0.268855 -0.038100064 0.0842507 0.09529644 0.32639882 -0.19722137 -0.13350946 0.11482981 -0.38916278 -0.0690034 -0.14247414 -0.37949613 -0.15941678 -0.37512058 -0.17564307 -0.0053113005 0.35298932 0.08914963 -0.80412453 0.10088306 -0.21075465
行 0.45714292 -0.19542924 -0.11979495 -0.6809103 -0.030116996 -0.16225792 0.26981223 -0.5125806 0.37754336 -0.25018516 0.06440351 -0.579947 0.023722375 -0.78439075 0.35345557 0.3862106 -0.38166344 0.6056398 0.26792955 -0.21419731 0.36258456 -0.43039155 -0.4483176 -0.14760065 0.19107184 0.2696144 0.49815813 -0.03325529 -0.05992937 -0.39372388 -0.03501748 -0.017070893 0.29735494 0.2372231 0.38147494 -0.380658 0.14537393 -0.375444 0.02937852 0.005164043 -0.11824312 0.01477789 -0.096057095 -0.0001345023 -0.510793 0.33012617 -0.1345412 0.3859869 -0.2334304 -0.0429392
谓 0.3101349 -0.25418 0.54726565 -0.12743294 -0.094915085 -0.22722858 -0.42655897 -0.27218592 0.36980578 -0.095975675 0.5582377 -0.012380036 -0.08299208 -0.38009202 -0.10209442 0.19024925 -0.04026484 0.45560926 0.3232615 -0.1531121 -0.21603838 0.15163548 -0.24446408 0.401256 -0.19434725 -0.38894993 -0.14974491 -0.40377817 -0.19150773 0.048763026 0.8244164 -0.53752905 -0.5047022 0.34470025 0.052285768 0.09271487 0.34483185 -0.45872617 -0.25862995 0.43361726 -0.07822666 -0.39083505 -0.186375 0.25014398 0.15408173 -0.15525278 0.5427868 -0.50000924 -0.38628066 -0.054571807
必 -0.21918455 -0.17805581 0.396799 0.20038155 0.27726546 -0.24627024 -0.42320764 -0.56746364 -0.121201605 -0.3845132 -0.40539327 -0.103160575 0.58555937 -0.123678386 -0.27911568 -0.097836085 -0.17058422 -0.38910735 -0.21521555 0.052436188 -0.17693278 0.37164217 -0.2954508 0.11017514 0.5610866 -0.12626565 0.55279255 0.07827481 -0.086066484 -0.54465836 0.17463052 0.44163346 -0.08415918 -0.13645253 0.08476754 -0.43484053 0.25149947 -0.42647785 -0.43112954 0.048500724 0.1690466 -0.27219194 0.29255375 0.4890314 0.0027812922 -0.32256818 0.40366226 0.13934644 0.10464744 -0.66073346
礼 0.08477448 -0.3341265 0.023515113 0.15757707 -0.1781681 0.27935952 0.23311524 -0.025791846 0.56831044 0.5212087 -0.03883665 -0.043888133 0.8719146 -0.25801855 0.035593912 0.0677587 -0.106930405 0.040885538 0.32863712 -0.120016694 0.08043585 -0.08832873 0.07181829 -0.26561615 -0.45261362 -0.32304302 -0.090745226 0.06111771 -0.12821762 -0.13786125 0.22624466 0.10982576 0.11272524 -0.52523136 0.3573255 -0.2676079 0.13303337 0.85458624 -0.07499782 0.29127732 -0.03938359 0.13239235 0.19993204 -0.05591826 -0.09253909 -0.65131336 -0.5706384 0.10843753 -0.029641274 0.22532408
孔 0.01820745 -0.20946218 -0.00046726948 0.24005894 -0.72527605 -0.22928399 -0.053208042 -0.25888038 0.48529536 -0.19785362 -0.60267746 0.21098614 -0.14491604 -1.2266937 0.6037469 0.5757726 -0.25596812 0.34576657 0.5503154 0.38585123 -0.017218564 -0.2856159 0.17700078 0.112230346 0.43465477 0.035531085 0.17638148 -0.022787105 -0.20401229 -0.04585698 0.22359858 -0.21702376 -0.16857076 -0.2079185 -0.62761647 -0.3895038 -0.1164726 0.23215136 -0.5509684 -0.11591385 -0.23548524 0.2516122 -0.085506976 0.3794302 0.12700565 0.3632529 0.43062627 -0.7040904 -0.42192182 -0.08829492
斯 -0.5581007 -0.1640031 0.014126149 -0.060339443 0.045411047 0.035779357 -0.26073286 -0.3593805 0.59171534 0.123600245 -0.47723207 -0.08858118 0.38234288 -0.34081724 -0.5873861 0.062831566 -0.2296427 0.09538726 -0.3459615 -0.26826394 0.074805565 -0.23143964 0.3418715 -0.25938722 -0.29517913 -0.17222887 -0.23622149 -0.28932047 -0.017092947 -0.36426765 -0.13390592 -0.28294694 0.33487582 0.13618742 0.42249617 -0.27998704 0.37560853 -0.119918734 0.26537797 0.19156148 0.63282806 0.55603 0.18074447 -0.3160553 0.05916591 0.15796699 0.5300888 -0.1553455 -0.122137584 -0.118347466
三 0.06227084 0.35115248 0.10439067 0.5414139 0.1125347 0.2527005 0.18834022 -0.4902984 -0.08528595 -0.47997436 -0.6070461 0.3284481 -0.0250279 -0.2600189 0.0066784867 -0.50116795 -0.13159598 0.35839072 -0.33120722 -0.046875756 0.60477257 0.57751495 0.24160977 -0.123044856 -0.0120620215 0.17701545 0.2881302 -0.21663322 0.22155419 -0.11414173 -0.2381758 0.4853545 -0.16705677 0.12209882 -0.35845834 -0.4620097 -0.26397738 -0.12114676 0.08392318 -0.02721731 0.25997084 -0.5993197 -0.059856046 -0.21855238 -0.18972866 -0.05202414 -0.22852564 -0.2384944 -0.4543411 0.7481308
能 -0.42738587 -0.22122678 0.11783714 0.30336624 -0.08459802 -0.069468156 0.003997728 -0.11499647 0.46515 0.25742126 -0.00013053368 0.09413799 0.41362676 -0.08332141 0.09191662 0.21548867 -0.017078266 -0.4426146 0.264829 0.22917521 0.037103303 -0.10325898 0.06463525 -0.1723769 0.012324767 0.39829284 0.06568653 0.09555597 -0.2608748 0.08738731 0.13888475 -0.060899183 -0.46466416 0.2638507 -0.14322045 -0.18288955 0.2700318 0.34516925 0.070991635 0.26893455 -0.37361255 0.18769011 -0.06615531 0.38216913 -0.19868802 0.2614498 -0.36542886 -0.508963 0.02168248 -0.025818726
见 0.019826038 0.17421421 0.010463956 -0.24687026 -0.40005368 -0.23433246 -0.0028301694 0.1109644 -0.5124538 -0.2600188 -0.03924688 -0.13522671 0.12858738 -0.60391796 0.119093634 -0.11557915 -0.3276566 -0.43971267 0.043379437 -0.40339947 0.41228133 0.29133072 0.32575396 -0.44761616 0.41806233 0.7589491 -0.41008997 -0.08368689 -0.05839856 0.31269637 -0.016115183 -0.40346208 -0.32853156 0.298298 -0.46735486 -0.6127092 0.45016772 -0.07146107 -0.028455548 -0.35226426 -0.1496082 0.50367117 0.03255559 -0.29249856 0.30417696 0.06864242 0.18643032 -0.028838657 -0.3066487 -0.043605123
学 -0.13201582 0.6832938 0.08555997 0.2503612 -0.06542647 0.18122879 0.032711413 -0.3834686 0.306055 0.17658432 -0.1924686 0.13319182 0.306852 -0.099989034 0.9020523 -0.27757192 0.10289085 0.19872028 -0.4742974 -0.08393673 -0.1351593 0.4294372 0.26718974 0.4784505 0.15309262 -0.1358635 0.15988347 0.30039373 -0.55828077 -0.2915765 0.04182517 0.06519457 -0.017948655 0.28260797 0.5840487 -0.39882013 0.18161781 0.5111342 -0.19701505 0.11598114 -0.1616633 0.1287745 -0.42680815 0.09064135 0.17625104 0.3951575 0.19325186 -0.33067572 -0.6153259 -0.023746453
事 -0.04090952 -0.04666331 0.08173352 0.08785931 0.6431794 0.031793058 0.7405083 -0.03237511 -0.52248174 0.41400507 -0.08198144 -0.17002733 0.33667266 -0.13960338 -0.21724218 0.19129153 -0.3298412 -0.3059956 0.06589793 0.25504044 0.034643006 -0.036950532 -0.29300702 0.2283006 0.48192003 -0.55669224 -0.31244954 0.17537719 0.068174236 0.0663904 0.52090746 0.00037747907 -0.0865275 -0.41709834 0.22109912 -0.51335377 0.2827862 0.10748846 -0.15679032 0.052077986 -0.3794419 0.08165133 -0.39251 -0.48367694 -0.21806681 0.35191306 -0.12176832 -0.16936646 -0.25881487 0.16037653
是 0.11058788 0.12812993 -0.10238067 0.00031092195 0.13323787 0.40242165 0.5786168 -0.05625371 0.09961877 -0.7272168 -0.41160026 -0.030078258 0.38558134 -0.33557463 0.023913318 0.20175022 0.09495753 -0.17077778 -0.3615061 -0.062077567 0.647145 -0.57891923 0.110938214 0.35493538 -0.239318 -0.20066802 0.15151976 0.17332599 0.021790665 -0.0806791 -0.06428756 -0.04114777 -0.341508 0.30659893 -0.23868388 -0.15759876 -0.5169453 0.06557007 0.21062407 -0.055364255 -0.059309393 0.4490123 -0.08220432 0.36546457 -0.084511854 0.22922392 0.41389367 -0.66940993 -0.30476707 0.26747257
哉 -0.46201894 -0.045653693 0.273965 -0.6462977 0.36670136 -0.06562112 0.14579144 -0.009660759 0.40682974 0.2534163 -0.20937134 0.05611392 -0.07411516 0.04223416 -0.07629357 -0.10887096 -0.072257556 0.34128243 0.5638733 -0.2090185 0.40001136 -0.10108163 -0.17459098 0.19452895 0.5197569 -0.4179479 -0.26449102 0.000720962 -0.36022466 0.33136287 -0.6341109 0.16468811 -0.5411711 0.20252287 -0.45385504 -0.15836816 -0.029461296 0.2686038 -0.38435555 -0.22069478 0.22003315 0.23743156 -0.36847603 0.15188771 0.2549529 -0.3713104 0.0019185503 -0.7162627 -0.20369229 0.32906422
闻 -0.03135292 0.2542654 -0.029767921 0.112959 0.3746676 0.2927919 0.117061354 -0.3985448 -0.05073604 -0.18498969 0.24354596 -0.63876617 -0.2890819 -0.69074243 0.38673222 -0.21522681 -0.41099685 -0.16091937 0.57450217 -0.07540079 -0.123961546 0.17685072 0.13158074 0.0037472458 -0.106758 0.1493237 -0.5808438 0.32629645 0.2256338 -0.21767096 -0.45063892 -0.2543205 -0.38200375 -0.09332692 0.50422055 -0.6566058 -0.18970543 0.015681205 -0.23479857 0.23676716 0.4174822 0.3341823 -0.41522807 0.16587484 0.17626533 -0.12227556 0.1982711 -0.07273818 -0.58807474 0.26899448
未 -0.34698865 0.12068554 0.15936396 0.09124066 -0.18991853 -0.2795299 -0.37507272 -1.0148051 0.22534677 -0.46386766 -0.21090467 0.42062253 -0.14758837 -0.44414812 0.06574028 0.19770421 -0.13737558 0.416266 0.1896798 0.45074564 0.1881762 -0.23869374 0.09249022 -0.027102806 0.5844219 0.39917284 0.012672474 -0.2448672 0.1987625 0.14627606 0.19088118 -0.10409673 0.35525128 0.23814711 0.28263927 -0.56381327 0.15521204 0.44593567 0.025806185 0.10719961 -0.050842375 -0.0015658339 -0.29628235 -0.5070815 -0.13483359 -0.025651999 -0.026491363 -0.11787484 0.33789098 0.14340879
公 -0.1566885 0.26292008 -0.099391684 0.033798542 -0.42759237 -0.38374662 -0.55016565 -0.16241546 -0.14521065 0.061235193 0.09985665 0.06701433 -0.17500639 -0.39840984 -0.28315115 0.4542961 -0.5965234 -0.05028791 0.3264485 -0.07416691 -0.32224324 -0.11245574 0.22899328 -0.07476089 0.06457211 -0.11701297 0.1090544 -0.22946094 -0.5495931 -0.27992272 0.4204325 -0.19415763 0.20644769 -1.051141 -0.6057247 -0.5231927 -0.7661786 -0.44250473 0.36824232 -0.465342 -0.069362774 -0.11282909 0.1428075 -0.019326016 0.06780197 -0.44948906 0.15915267 -0.50626504 0.12883891 -0.3371073
好 -0.40246114 -0.0008339517 0.3777643 -0.21931103 0.14408788 -0.35030755 0.05273132 -0.44017738 0.34966737 -0.0027665119 0.29785356 0.48026547 0.6596241 -0.40942663 0.3942695 -0.34513488 0.3046799 0.06884028 -0.19051847 0.50951904 0.012818151 0.18877062 -0.20683244 -0.45581207 0.81902814 -0.41160133 -0.69229764 -0.0076818196 0.41561964 -0.037829623 0.43268815 -0.11742287 0.096476585 0.28160733 0.4773289 -0.45831677 0.23217876 0.34717914 0.3184083 -0.046157397 -0.18485406 0.30746686 0.13541237 0.1304362 0.8054934 -0.02886279 -0.22484745 -0.20856194 -0.6219047 -0.5496736
我 -0.31923434 -0.44555578 0.31247595 -0.39150015 0.24980237 -0.06042538 -0.20726816 -0.14145492 -0.1266384 -0.21593146 -0.097349465 0.453543 0.5451395 0.23967633 -0.68137646 -0.26360986 -0.37588117 0.0117787765 0.48668113 0.09319141 0.3759032 -0.31181306 0.15559223 -0.1784711 -0.26340386 0.4290891 -0.53494024 0.112511076 0.22992449 0.047313955 0.14517576 0.32076037 0.26351446 -0.32573077 -0.0040103244 0.2619509 -0.49821973 0.2745946 -0.39019123 -0.08489496 0.063723765 0.05535484 -0.29601607 -0.15535438 0.5143803 0.09693644 -0.23041017 -0.61276317 0.30596057 -0.25136378
路 -0.120236196 -0.32008535 -0.5421081 -0.060711116 -0.3898631 -0.2619643 -0.056604184 0.29616594 0.39420605 0.052397944 -0.2961194 -0.06584533 0.23348697 -0.36302972 0.35969773 0.2532084 -0.79778975 0.42044544 0.10202838 0.90329504 0.92205364 -0.19974583 0.089000426 -0.09432586 0.18246436 0.3856741 0.14931363 0.1848492 0.09336295 -0.2596077 -0.1714072 0.28030914 0.13562557 0.092193276 -0.34511414 -0.19798513 0.15645729 -0.36653483 0.31611082 -0.6726526 -0.22750258 0.058211245 -0.040467147 0.05202392 -0.48910895 -0.1371135 0.34799728 -0.67564934 0.18399164 -0.17865714
在 0.8177312 0.078185044 -0.2049427 -0.16214432 0.7433183 0.4447552 -0.049188532 -0.10490104 -0.16566467 -0.012522585 -0.1968334 -0.120001115 0.085780546 -0.6549611 -0.047094043 0.16074008 0.057013124 -0.5352331 0.3399915 0.3260353 -0.387472 -0.40050098 -0.6801253 0.3549967 -0.22353706 0.03901651 -0.11720393 0.022214783 0.33703506 -0.46802485 0.22914077 -0.20857717 -0.73770165 -0.10327232 0.3563462 -0.55997705 -0.13376318 -0.3502428 0.15448505 -0.4774549 0.054038864 0.31232715 -0.001013996 -0.37968373 -0.2813258 0.2620548 -0.22648078 -0.2877948 -0.69890887 -0.3324081
已 -0.2198933 -0.6147459 -0.13233112 -0.29390427 0.07420635 0.10232955 -0.7824121 -0.109532036 0.447252 -0.046481516 0.31127757 -0.2430705 0.32728878 -0.5304281 0.33011654 -0.38252562 -0.41149166 0.6985441 0.0068113697 -0.36838865 -0.5015606 0.47980934 0.03551964 0.5707372 -0.20590618 -0.18275362 0.31588128 0.0023184565 -0.282091 -0.3967372 -0.21519065 0.061582595 0.3946681 0.51423025 -0.11233455 -0.17154321 0.03409518 -0.28201327 0.5336561 -0.07853129 0.39986858 -0.03727689 -0.50293714 -0.18122442 0.41709122 0.49631366 0.26956603 0.092652045 -0.42065254 0.0909051
得 -0.3931536 -0.5557189 -0.1436259 -0.07399753 -0.13811366 -0.14559412 0.15375735 -0.38078323 0.25695843 0.010171515 0.34234515 -0.24353674 0.34237313 -0.3172679 -0.16673501 0.027471852 -0.7414861 0.063647635 -0.09769776 0.13713405 -0.25141764 0.05462298 -0.5119258 0.18157774 0.31406194 0.011849393 0.57212913 -0.14388058 0.31443927 -0.18030491 -0.02881464 0.21469502 -0.40842205 0.4927028 0.45436206 -0.4364992 0.40454298 0.017207215 0.1457427 -0.4983444 -0.11212441 0.0091282725 0.35451528 -0.59100014 0.08896065 -0.053780325 -0.18238398 0.20822869 -0.1856816 0.15874064
所 -0.43543753 0.091317356 0.5795368 -0.68279344 0.20668305 0.75897354 -0.29004318 -0.16120425 0.5637611 0.406108 -0.1295932 0.08221603 0.5093623 -0.29813462 0.07876005 0.15468557 -0.07557142 -0.090654835 0.3406253 0.16319513 -0.21012793 -0.39395136 0.12407122 0.23786515 -0.1410072 -0.22481564 -0.078345776 0.22489324 0.40232617 -0.11673528 -0.037968215 0.056126013 -0.08607854 0.5107602 -0.1129219 -0.07286257 0.09567258 -0.010740345 -0.021306785 0.08120394 -0.13883364 0.046050407 -0.37432978 -0.041896373 -0.08753498 0.3004764 -0.17531028 -0.0909429 -0.20764211 0.4072227
民 0.14114244 0.06204496 -0.11194528 0.05995249 0.41254753 -0.2729037 -0.23208481 -0.22354147 0.3365604 -0.07920013 0.3249134 0.39226916 0.4202967 0.93249094 0.6199789 0.25066763 -0.0045565874 0.32168984 0.32188034 0.06266814 -0.21093023 -0.34771168 0.20115103 0.4519856 -0.33384025 -0.080148034 -0.47696823 0.40776274 -0.10524697 -0.3747636 -0.048162993 0.97107863 -0.14306036 0.29783648 -0.031369496 -0.13882521 0.43511078 0.0056785936 0.28897887 0.2683805 0.13973929 0.65771735 0.15098943 -0.2025905 -0.62397444 0.032373972 -0.270235 -0.36570546 -0.26020145 -0.41657466
小 -0.16985805 0.5714536 0.2767101 -0.34835583 -0.36289576 -0.24361113 0.48951083 -0.18239763 0.0943479 -0.5431601 -0.10192487 -0.15309104 -0.46861896 0.4097118 -0.05385461 0.43619195 0.2084455 -0.4713938 0.30012155 -0.3711434 0.054253533 0.19888283 0.048339676 -0.07447405 0.45372057 -0.17182897 -0.6681523 0.09247853 0.07493827 0.10385967 0.74453396 0.08613581 0.043845557 0.7753704 0.45550025 -0.833843 0.011587792 -0.050515752 -0.40832904 0.31443104 -0.07108137 0.09124896 0.074828066 0.17820123 0.054357685 0.08744795 -0.20502314 -0.530835 -0.30525842 -0.40142232
天 -0.04086882 0.2739955 0.7981376 -0.41654536 0.06520661 -0.06541654 0.04725542 -0.47833684 0.30119565 -0.7937641 -0.47834247 0.093629025 0.022154605 -0.14441974 0.033693857 0.30236927 -0.04100191 -0.07428465 -0.05058924 -0.2762363 0.047163486 -0.3243134 -0.39633754 -0.24555214 -0.18579529 0.39583138 0.13250396 -0.35982934 -0.24762858 0.16867667 -0.23329777 0.30480263 -0.24966791 -0.22351453 -0.101073205 0.09942873 -0.36264262 -0.7036145 -0.8189053 0.6688584 0.7417188 0.043259844 0.1617554 -0.6536171 -0.15760528 0.21766612 -0.52138263 -0.72244793 -0.1531288 -0.13193516
乐 0.0010300395 -0.18128403 0.025777817 0.060934138 -0.64556867 0.30421114 -0.061340775 -0.37357527 0.44795695 -0.39565474 -0.2477072 0.45726198 0.37452096 -0.3498937 -0.17316027 -0.59078187 -0.27998182 -0.11898735 0.08019264 0.33638707 0.01811264 0.10925093 -0.1291904 0.21799614 -0.05971401 0.38148704 0.0006053824 0.6184773 -0.09871125 -0.08941284 -0.60241437 -0.07623596 -0.20920438 -0.44420865 -0.16928999 -0.46025196 0.48515865 0.4709617 0.093615964 0.37407103 -0.0978229 -0.64393944 0.21372065 -0.45801544 0.02174431 -0.5972797 -0.48673216 -0.3959293 0.15218069 0.24051873
邦 -0.03406131 -0.2562954 0.025124397 -0.081471294 0.14500321 -0.2175825 0.8327935 0.037501067 0.076603815 0.22266878 0.36749986 -0.097732164 0.081771515 -0.52041 -0.32765868 -0.16614872 -0.1429671 0.058649186 0.52347976 -0.3924655 0.5214939 0.42910677 0.41423088 -0.33161747 -0.105632395 0.23170163 0.33876067 -0.6478724 0.30740318 -0.70168245 -0.05586906 0.07144442 -0.39311475 -0.413747 0.42613465 -0.27054247 -0.10845568 -0.17492683 -0.09497243 0.6235953 0.36440128 0.5639806 -0.2553659 -0.32176435 -0.29823697 -0.4622955 0.045102376 -0.21871655 0.2991466 -0.107114606
亦 -0.30826887 -0.25058416 -0.5683354 -0.29466555 -0.12521245 0.10893685 0.095125504 0.15371676 0.37221217 -0.6747299 -0.56242764 0.5524095 0.4477097 0.008737104 0.10051967 -0.19807726 -0.18888748 -0.37897152 -0.032284297 -0.13932046 -0.16517757 -0.12553363 0.2882025 -0.6910146 -0.3616075 -0.6041499 0.3143269 0.7159889 -0.27441782 0.16311787 0.015769148 -0.33368087 0.0041330233 0.10076938 -0.8677932 -0.24075384 0.012286075 -0.3416188 -0.4633886 0.49083555 0.13019659 -0.13096115 0.19682522 -0.28542015 0.0124873435 0.10924724 0.093943104 -0.80419785 -0.25748703 0.48722708
使 0.46602735 0.5457718 0.22853318 -0.13325617 0.09667062 0.101224594 0.22415084 0.08201642 0.5815385 -0.4403565 -0.344106 -0.049810052 0.34912893 0.069581375 0.12255209 -0.51306945 -0.3197056 0.28234342 0.5466226 0.3441394 0.055625144 0.83852893 -0.12783279 0.33311215 0.07399654 -0.08845308 -0.19308177 0.1502332 0.47540358 0.13623126 0.4947136 0.22231925 -0.21992695 0.29022685 -0.32804775 -0.21492408 0.054894485 -0.2456058 0.54036105 0.09240632 0.10340245 -0.14123188 0.11521411 0.5328249 -0.6644618 -0.5393341 0.27902701 -0.1335401 -0.49745375 -0.25804606
大 0.058437474 -0.45717534 0.21357454 -0.3129492 -0.10841132 0.26509067 0.27899915 0.12697072 -0.45823428 -0.28884584 0.18844076 -0.11798119 0.434299 -0.06427462 -0.07873365 -0.4653065 0.112662114 0.54762083 0.5958802 -0.2776594 -0.5145274 0.33422062 -0.30017233 -0.2701792 -0.15223494 0.19479018 -0.36756715 0.44444236 0.0029943157 -0.274945 -0.0058603776 0.42340684 0.32930353 0.14618869 -0.6209722 -0.17838041 -0.22330202 0.129786 0.33694834 0.16916989 -0.100417584 -0.060040396 0.13537149 -0.20411128 -0.0666596 -0.008045933 -0.22710456 -0.22442964 -0.32720348 0.078644186
下 0.4151468 0.21587577 0.5005795 -0.10411073 -0.032005023 0.33894324 -0.31491908 -0.1881335 0.30622366 0.17326093 -0.09477502 -0.14217657 0.38230798 0.24009115 0.071424976 0.22341168 -0.1659833 -0.18438548 -0.07807956 -1.3751787 -0.04528083 -0.35911846 -0.5363224 0.2922765 -0.44458947 0.63742626 0.04947775 -0.30695474 0.9178703 0.5757761 0.085178606 0.87047493 -0.13333672 -0.4318709 -0.3101928 0.036699265 -0.3568752 -0.019659987 -0.19191943 0.18625087 0.53500104 0.5088255 -0.29669988 -0.16368346 -0.8237543 0.30501112 0.64452356 -0.25196517 -0.6133563 -0.3029579
贡 -0.15374777 -0.4024962 0.5111208 0.0032170308 -0.019311646 0.5961059 -0.20012721 0.1439099 -1.0550121 -0.00760101 -0.5101057 -0.0051082987 -0.07961495 -0.4956748 -0.092095196 0.20423786 -0.20368904 0.63834274 -0.74160814 -0.26352954 0.16565591 0.3712716 0.19292802 0.39655006 -0.08763646 -0.27927932 -0.51836604 -0.2648068 -0.5837215 -0.17066348 -0.3728031 -0.03644823 -0.26409307 -0.7853787 0.31938192 -0.551158 0.35749123 -0.075001396 0.20433444 -0.26265508 -0.17863856 -0.18674085 0.06497642 0.22527994 -0.2779006 -0.37074795 0.34753045 -1.3434856 -0.29895148 0.1802812
欲 0.5892942 -0.46377024 -0.32825536 -0.48065972 -0.32860494 0.41280282 -0.29098752 -0.28938493 0.24378574 0.8932602 -0.26612505 -0.027981104 0.21264164 -0.147757 0.20441756 0.07689061 -0.40966982 -0.19514945 -0.003831587 0.86787426 -0.37935933 -0.22281581 -0.2621475 -0.29193902 0.34219286 1.2153124 -0.29227892 0.32507175 0.24168713 0.13799655 -0.19733083 -0.07299873 -0.25431395 0.3583972 -0.24587493 -0.28865653 0.3772935 -0.60438734 0.0737433 -0.17620395 -0.25904587 0.5277498 -0.20108135 -0.08844242 -0.3023785 -0.23557208 -0.15820518 -0.27127844 -0.30822366 0.006411948
诸 -0.41000542 -0.7136878 -0.21408306 -0.47961742 -0.5184836 -0.163546 0.3543398 -0.50367916 -0.34998587 0.09144214 -0.15059914 -0.3984216 -0.6733522 -0.047245458 -0.46467176 -0.3966626 0.11349342 0.53593916 -0.0026998192 0.1777794 0.37652856 -0.08392616 -0.02470769 -0.15686782 0.6370407 0.628359 -0.18239227 0.14521988 0.06717404 -0.19772045 0.29860142 -0.23192579 -0.36915442 -0.43396914 -0.11955748 -0.90486217 0.0033229983 -0.063012905 -0.025834952 -0.13895673 0.62067676 -0.33091602 0.08792839 -0.32351962 0.45631623 0.14165561 -0.3844963 -0.3687397 -0.32412708 0.098513424
从 -0.24106978 -0.146576 0.012160292 0.25093198 -0.18200643 0.04997682 -0.1342608 -0.013876145 -0.004813279 -0.4115631 -0.43911582 -0.02435199 0.56152964 -0.1087344 0.4642737 -0.2217621 -0.50643945 -0.1622979 0.56204706 -0.76787364 -0.65339553 -0.48970777 -0.009007098 0.4583881 0.57857764 0.74203527 -0.12238025 -0.2147318 0.16638604 0.24062812 0.3675099 -0.0074276906 -0.24399294 -0.13122286 -0.34533417 -0.14787804 0.2625852 0.283867 -0.171067 -0.0982604 -0.12780644 -0.06912591 -0.2538636 0.06535253 0.381996 -0.08622609 0.23902893 -0.13573954 0.0050172424 0.14765616
文 -0.27776676 0.15670633 -0.3621077 0.6072292 -0.60594803 0.25866413 0.22740899 -0.27812174 0.20234309 -0.1102229 0.07823823 0.08987061 0.045957617 -0.063223116 -0.24574617 -0.07733942 -0.78176004 0.5220041 0.12610884 -0.7548889 -0.448703 -0.24486046 -0.31197155 0.21990019 -0.35248086 0.57090324 -0.17937016 -0.078335606 -0.4192676 0.036731493 0.43855178 0.42753208 -0.16695756 -0.18607989 0.13050254 -0.081345975 -0.65941197 0.25380248 0.4072192 0.3989182 -0.37344396 -0.72657984 -0.3878915 0.35847646 1.0216299 -0.01362757 -0.5798159 -0.28462917 0.27739573 -0.015269883
政 0.49734908 -0.48717391 0.0129223345 0.046822514 0.103920504 -0.5312763 -0.14143701 0.02304209 -0.4536447 0.22332157 -0.14813666 0.11601492 0.63930225 -0.07575343 0.025987307 0.067010984 -0.5167187 0.5282291 0.40979904 -0.41469005 0.03454153 -0.29523528 0.39284316 -0.5255856 0.1371029 0.18153606 0.319942 0.34403285 -0.17216794 -0.04347429 -0.16528814 0.50920004 0.29994285 0.008535293 -0.5190289 0.32892504 0.070268415 -0.39017224 0.34185874 0.45080587 -0.32778493 0.590598 -0.87760544 0.8647911 0.10337486 -0.012795635 -0.14271414 -0.3228573 -0.45149034 0.23358914
食 0.049237352 0.37309235 -0.47489944 0.027980333 0.17982987 0.07098473 -0.987307 -0.39580348 0.21984573 -0.78351593 0.088457115 0.042648498 0.008217122 -0.4377863 0.9721542 -0.09090917 -0.60588 -0.8556951 -0.75848514 -0.17771325 -0.20862485 0.2373478 0.6263463 -0.56346124 0.15316899 -0.04278866 0.63618726 0.34038126 -0.05636693 -0.5561027 -0.13193908 1.1198546 0.58876604 -0.008308316 -0.43790808 -0.6538324 0.06543747 -0.10796549 0.36008468 0.38645184 0.43073836 0.5192662 0.2128034 -0.040768262 -0.21626888 -0.20250008 -0.066467665 -0.008565349 0.09407584 0.36176828
善 0.17021234 0.3528909 0.0995959 -0.054149393 -0.8340602 -0.6247109 -0.17116055 0.67824674 -0.021554578 0.05249163 0.61333954 0.004757246 0.2905926 -0.26935935 0.021597913 -0.1695383 0.031860724 -0.17503363 -0.16589361 -0.13280906 0.29480052 -0.72877455 0.32110804 0.08684308 0.26384658 0.21334668 -0.2248823 0.2696865 0.5980561 0.13940467 0.27801752 0.51711935 -0.18322861 0.12249604 -0.05608197 -0.18964602 0.13816965 0.38610157 0.27170622 -0.2766962 0.30035388 0.3257744 -0.11640237 0.052333526 -0.098718055 0.0207792 -0.3666981 -0.29604417 -0.67299104 0.19106162
后 0.028393488 -0.07795864 0.69175464 -0.24848713 -0.5548093 -0.22904558 0.53389084 -0.07219723 -0.0909699 0.34429893 0.030216329 -0.42641905 -0.15155886 0.08545813 -0.337957 -0.22734782 -0.360949 0.23356025 -0.51127243 -0.6127712 0.16138023 0.6363181 -0.45875067 0.030672053 -0.018200379 -0.35340345 0.51364934 0.53024393 0.3501415 0.5184996 -0.18454097 0.4675076 -0.05973101 0.30424017 0.04005683 -0.4921554 0.5922015 0.35767868 0.09178845 0.47170502 -0.8193369 0.4319413 0.27216008 -0.17487587 0.28124332 -0.24834804 -0.12843889 -0.48667026 -0.4138107 -0.42724955
德 -0.36127904 -0.617835 0.2856845 -0.09162865 0.11155402 -0.4139477 0.13116796 -0.4795998 -0.45413 -0.45229092 0.1295567 0.121161036 0.14199834 0.07925926 -0.42474225 0.6097743 0.25579596 0.22431296 -0.20503145 0.21174677 0.39868435 -0.30486548 0.35326624 -0.5211764 0.082536414 -0.7626576 -0.18164575 0.049122464 -0.2091285 -0.19640376 -0.4963147 -0.20701495 0.13001731 -0.13542983 0.042091217 -0.30683178 0.2414334 -0.8046492 0.45746097 -0.056974277 -0.11442616 0.21150512 -0.38054562 0.1330735 -0.40807995 0.13861641 -0.18662201 -0.48535898 -0.51694477 -0.23632969
求 -0.17381805 -0.67859507 0.058902875 -1.1018955 -0.42402467 0.38311997 -0.218864 0.032545883 -0.66913664 -0.35314262 0.2981718 -0.57598686 0.36089328 -0.1841955 -0.032365326 0.4881485 -0.18676881 0.092973694 0.34654132 -0.0458942 -0.13949469 0.32466432 0.6542849 0.19809799 0.7011179 -0.16557954 0.116813846 -0.0664459 -0.02107396 -0.13664542 -0.21914515 -0.40678534 0.32679734 -0.15462725 0.36750323 -0.44486234 -0.20131198 0.41295168 0.7390909 -0.12900929 -0.006889749 -0.04164691 -0.4621433 -0.023091467 -0.20504224 0.14536496 -0.29146358 -0.29318982 -0.3839215 -0.28239995
对 -0.5797515 0.43833342 -0.3580179 -0.43620226 0.35262975 -0.35491252 -0.44270077 0.75314724 -0.2808397 0.49615303 -0.23496851 -0.29231083 0.9576042 -0.13360204 0.23136261 0.36864945 -0.37843204 0.22173364 0.7333844 0.015258232 -0.081843816 0.122030795 0.5124955 0.18686011 0.6158126 0.17151225 0.18484198 -0.06705564 0.29650694 0.29424986 -0.42123163 -0.299404 -0.37370434 -0.18274777 0.29657382 -0.09551499 -0.29335195 -0.021487905 -0.73056126 -0.36905053 -0.34731963 -0.4906446 0.15857023 0.025928956 0.17269701 -0.19615044 0.112577066 -0.9330347 -0.68657416 0.6638131
恶 0.30678162 -0.6829378 0.59230655 -0.138726 0.06017258 0.13916582 -0.07782103 -0.20670393 0.35368556 -0.37520415 0.96560603 -0.3681346 0.6899853 0.054982223 0.47857863 -0.41824257 0.24114618 -0.16397801 -0.29264507 0.7349352 0.02027819 0.076810315 0.3443857 -0.485682 0.9256613 0.25833318 -0.018276226 -0.3092609 -0.04636342 -0.34053457 0.09699132 0.51039934 -0.20891345 0.07370247 -0.62760276 -0.24765605 -0.20373082 -0.08312214 0.13031241 0.34134695 0.42829707 -0.03644886 0.25096253 0.28796378 -0.7457914 -0.32448852 0.15781638 -0.14659421 -0.34518874 -0.61848134
信 -0.24128532 -0.108570956 -0.12872596 -0.13126387 0.22613882 -0.37401468 0.38293692 0.10205293 -0.47176826 0.33910495 0.21644786 0.12426661 0.58573925 -0.49819002 0.83081293 0.25797617 -0.20294853 -0.07486878 -0.29670876 -0.4895244 0.10338371 0.09971023 -0.138666 -0.4717577 -0.35846448 -0.18905774 0.23889123 0.7842387 0.4920839 -0.1232278 -0.20668207 0.59246653 -0.11994821 0.20472953 0.18353492 -0.34029406 0.5608599 0.31669593 0.17309792 -0.15879576 -0.38079053 0.13710096 -0.6015 -0.8512046 0.064069666 -0.07575798 0.07565056 -0.4194911 -0.107097946 -0.21447578
死 -0.057319365 0.15827407 0.6163523 -0.1547044 -0.5393167 0.2683495 0.4327313 -0.075616434 0.48104617 0.6121161 0.10236902 0.038047645 -0.16892797 0.7302152 -0.26959276 -0.6385567 -0.54984516 -0.047840472 0.12530121 0.16850394 -0.05225884 -0.24190831 -0.5732721 0.112164386 0.46271703 0.16658011 -0.16679092 0.023544714 0.03621961 0.50787836 0.040228076 0.7103046 -0.07053767 0.48577255 -0.030549668 -0.07338992 0.13901983 -0.18650793 0.26276207 0.13954382 -0.4425907 0.28674078 0.05930643 -0.828281 -0.26102456 -0.24303 0.30401623 -0.63348377 -0.109052524 0.022199724
然 -0.4527183 -0.11526164 0.44853532 -0.33113834 -0.2654399 0.12787665 0.46929753 -0.33664358 -0.05217417 -0.034756433 0.21906483 0.2664992 -0.11119456 -0.015533658 -0.15919036 -0.35333037 -0.4473382 0.031365983 -0.4451892 -0.08784226 0.16143823 -0.3076798 -1.0389067 -0.51043266 0.1581161 -0.449294 -0.54035234 -0.045181323 0.017764796 -0.24432376 -0.6871824 0.41200855 -0.31884745 -0.19625221 -0.37042508 -0.05489861 -0.09509473 0.41720355 -0.06203252 -0.104728915 -0.41537088 0.45010144 0.04120533 -0.7443613 0.21358886 -0.66475964 -0.18543325 -0.98567075 0.1401881 -0.054221913
《 -0.56797355 0.21856014 0.5751341 0.072429754 0.0008396598 0.5059872 -0.65657693 -0.049562655 0.80578935 0.35867372 0.4055228 -0.4560953 0.06655598 -0.37067208 0.08637476 -0.22240804 -0.4353333 -0.12206239 0.2959614 -0.38169923 -0.2892364 0.41213176 0.15287104 0.8515071 -0.6468412 0.024836762 0.21889219 0.4651836 0.10079988 0.33879152 -0.7018114 -0.012312886 0.117172614 -0.4602213 0.07059417 -0.78060377 -0.06880322 0.027587142 -0.5449558 0.5466267 0.49963087 -0.69808203 -0.22150342 -0.16224816 -0.015390591 -0.34808552 0.32457832 -0.43536994 -0.0035314108 0.26506802
》 -0.34958848 0.30600035 0.21506593 0.3636102 0.45765352 0.3284508 -0.67576015 -0.60893095 0.80064523 0.6206303 0.114549935 -0.7163006 0.47509181 -0.374344 0.07038153 0.22021464 0.20350407 0.045055177 0.34805003 0.24259363 0.3908092 0.1306494 -0.41248086 0.4710435 -0.574605 -0.4525048 -0.3676828 0.7659785 0.0031935512 -0.5200461 -0.154635 0.20365416 0.18567996 -0.08766168 -0.27553737 -0.3917781 0.48639503 0.24740689 -0.23925965 0.012835487 0.4667838 -0.8024074 -0.26108488 -0.14223418 0.023746507 -0.32996207 0.20994104 -0.5343733 -0.30795777 1.0227671
由 -0.45714113 -0.20000528 -0.16864885 -0.5685893 -0.3734495 -0.049015142 -0.51808095 0.1895454 -0.22214597 -0.19429748 0.01907723 -0.37293637 0.3098453 -0.34832215 0.18872559 -0.1610048 -0.013889287 0.3507477 0.66075075 0.20061988 0.21532209 0.25534138 -0.59576446 0.240706 0.113459334 0.09912678 0.57288605 -0.8691704 0.13057832 0.33062863 -0.11988462 -0.11169173 -0.120188974 -0.15301222 0.24409029 -0.31503645 -0.3110851 0.22364384 0.76751494 0.16095936 -0.31084144 0.47129658 -0.06732987 0.5093908 -0.21497017 -0.3532156 -0.093646385 -0.50779307 -0.37289554 -0.122177124
仲 0.333792 -0.07289327 -0.067555696 0.0048486777 -0.97184026 -0.15462156 -0.47289085 -0.26520413 0.08378176 0.5548624 0.24449746 -0.47323138 -0.11681294 0.065870345 -0.2720833 0.052313693 -0.15760653 0.70600706 0.56788397 0.18374707 0.3387218 -0.08622679 -0.0029238202 -0.11520075 -0.49103802 -0.2065573 -0.25556117 0.15360656 0.1258524 0.047127344 -0.11581461 0.16019589 0.21777725 -0.11179799 -0.5275888 -0.60971326 -0.6473548 0.74576205 0.2937213 -0.2827618 -0.54096895 0.29471233 -0.5006582 -0.19258873 -0.82652336 -0.6180262 0.21839911 -0.6771316 0.44642586 0.20382279
非 0.013544308 0.18424156 -0.07601191 -0.10643886 0.2545348 0.029734896 0.68201935 -0.47618842 -0.014238955 -0.12864882 -0.14564517 -0.60716265 0.19919491 -0.27341843 -0.038619325 -0.0129561825 -0.24505068 0.30993974 -0.032204457 0.5101725 -0.7718565 -0.36277777 0.3290965 0.03766263 0.3002087 -0.18913351 -0.27824044 -0.9246926 -0.4200982 -0.08087457 -0.20207927 -0.62879145 0.06966615 -0.13103868 0.022963408 -0.7320897 0.11549156 0.8865111 -0.284409 0.706125 0.63517296 -0.1568389 -0.03561837 0.28746393 -0.025653694 0.44688463 -0.40238824 -0.4420402 0.31901821 -0.052699257
出 0.81122065 0.09252924 0.11716682 -0.3319027 -0.723424 0.07297899 -0.3591436 -0.47402167 0.38736546 -0.5523931 0.4862874 -0.2740312 -0.9249505 -0.34768987 0.26853037 -0.11556067 -0.27115852 0.36097422 0.45291063 -0.21536317 0.22873347 0.16091895 -0.041408487 0.04631524 -0.22765173 0.7396328 0.15844889 0.07434019 -0.23878552 -0.028306963 0.15258582 0.14041755 0.16663308 -0.18618748 -0.25012422 -0.8195497 0.03257716 -0.022673959 0.2785153 0.0695122 0.24371901 -0.5217094 0.2509412 -0.36707366 0.6060058 0.3123541 0.06616462 -0.20979513 0.40200767 -0.3426031
过 -0.24448545 0.12828 -0.39286742 -0.5231954 -0.12090713 -0.22229646 -0.123241104 0.06666343 -0.05102668 -0.06288663 -0.3310257 -0.16250865 0.617175 -0.13972516 0.4177624 -0.1995434 -0.12627156 0.17271815 -0.050604865 0.16509019 -0.36791465 0.10343282 -0.055251826 0.37842506 -0.06536856 0.33843717 0.24942228 -0.32682222 -0.22259168 -0.3911753 -0.19557838 0.23123507 -0.5990877 0.120230265 -0.25665253 0.057120908 -0.37256402 -0.8985861 0.006964283 -0.078184105 -0.25451878 -0.34006834 -0.31886923 -0.29226732 0.20623568 0.19774066 -0.054982096 -0.3136117 0.029667446 -0.86342096
一 -0.31035104 0.049413025 -0.0736563 -0.09861784 -0.16422173 0.41565758 -0.029298196 -0.98754585 -0.09365892 -0.38807532 -0.85290295 -0.82739085 -0.041745983 0.048744567 0.15002038 -0.1669074 0.039446082 0.16734378 0.059664853 -0.33855313 0.21811229 -0.04619074 0.07340927 -0.19466436 -0.31697947 -0.23600148 0.6607372 -0.54431653 -0.40939662 -0.11936033 0.30382273 0.31949148 -0.6285846 -0.23066643 0.055526506 -0.60574055 -0.22270288 0.15837184 -0.5575807 0.3619734 -0.3322197 -1.3451247 0.12110777 0.13595776 -0.11557672 0.10952499 0.314173 -0.08878371 0.26436403 -0.07098653
虽 -0.10974805 0.0072681103 0.038397685 0.22886911 0.72993463 -0.1384447 -0.1204613 0.020694543 -0.3003698 0.092528865 0.04229895 0.40587482 0.7284265 -0.0095239775 -0.12874393 0.6059513 0.14841674 -0.6351117 0.5890074 0.09912797 -0.2838277 -0.32054684 -0.4125078 -0.78292537 0.0687005 -0.16451684 0.70222557 -0.61039597 0.44999063 -0.8681514 0.07666535 0.41153806 -0.15731382 0.20475946 -0.002398997 -0.39674565 0.4369325 0.30513287 0.1700992 -0.08708058 -0.40259963 0.21099146 0.236017 -0.1320459 0.016074667 0.1729285 -0.07480254 -0.68796384 0.44899055 -0.086735845
足 0.5159673 0.28220496 -0.6819055 -0.19523731 0.35028395 -0.3433222 -0.3261551 0.018018778 0.25877148 -0.6189707 -0.6865361 -0.04553459 1.0272826 0.52846754 -0.047184262 -0.18750603 -0.30250248 0.20903784 0.6296074 0.18005794 0.5264648 0.05064921 0.28681108 -0.25031558 -0.7420562 -0.33868358 0.014642912 -0.15155508 -0.26227063 0.010442822 -0.26252216 0.05036319 -0.25765103 0.5311147 0.07605107 -0.19532304 0.29039922 -0.08382457 0.5732555 0.18069185 0.41870734 -0.39938146 0.12057323 0.15180191 -0.29472 0.8917827 -0.90003717 -0.5321116 -0.06133423 0.34494796
居 0.033954255 0.2601578 -0.05007483 0.16195104 -0.20170073 0.05983432 0.0021662747 -0.79456663 -0.06946444 0.21757933 0.43610087 0.38354814 -0.13648374 0.21782658 0.5207694 -0.105500765 -0.46707222 -0.1586902 -0.015383868 0.44062138 0.21561332 -0.74644864 0.41797766 -0.48738298 0.24473612 -0.17190932 0.13871275 -0.16528602 -0.107469045 -0.31809753 0.5703768 0.45894054 0.051116623 0.2904075 0.14767651 -0.6728573 -0.44725278 0.42308113 0.484176 -0.032528903 0.3329044 -0.15497509 -0.3389586 -0.10931645 -0.5186013 -0.4870121 0.6554258 0.10186613 0.14438033 1.0525893
尔 -0.49946746 0.22482517 0.4471988 -0.65888995 0.2530437 0.7960573 0.013813112 -0.5728332 0.23251107 -0.1404731 0.3756867 -0.5837342 0.06421597 -0.5332185 -0.699635 0.81190854 0.1060072 0.05213976 0.26908824 -0.2570179 -0.2565534 -0.77432925 0.015416812 0.095770635 0.25317475 0.04879245 -0.11154122 -0.5460211 0.09198041 -0.630063 0.8082445 -0.34388742 0.19899504 0.3357033 0.17309625 -0.09823534 -0.6258914 0.30276185 -0.68218035 -0.0067927307 0.12607063 0.0047092624 0.026102306 -0.22539459 0.48816183 0.16811113 0.25146246 -0.27040294 -0.123540655 0.71094716
夏 -0.4186757 -0.57969916 -0.87819505 0.17144874 -0.16558902 -0.12569231 -0.3690445 -0.020191984 0.34357715 -0.45678672 0.22690605 0.53529155 -0.30917418 -0.16618364 0.10921153 0.41840115 -0.23464759 0.7050459 0.31513584 0.57680094 -0.5467929 -0.43208808 -0.037954558 0.21110515 -0.023696832 -0.20200966 -0.0614455 1.1103361 -0.61371833 -0.6928625 0.32076192 0.20721593 -0.42115232 -0.18066177 0.22725853 -0.31878227 0.43169773 0.052170105 0.019501435 0.23084053 -0.23294415 -0.002159944 -0.065452725 -0.48245624 0.1713436 -0.36261076 0.69298154 -1.0475091 0.11875001 0.2908709
父 -0.61654377 0.35471722 0.14542317 -0.97061306 0.6195317 -0.092463724 1.2245003 0.36023587 -0.16358939 -0.10903842 -0.1329627 0.52170783 0.6391403 0.03699613 -0.7725926 0.23835088 -0.47438303 -0.11396883 -0.22458938 0.23746212 0.1780749 0.69355994 -0.7341276 0.21170637 -0.61375546 0.108662866 0.10675379 0.34507847 -0.20486598 -0.004168496 0.37499404 0.19005294 -0.08025669 -0.54335177 0.47532564 -0.33246964 -0.18662289 0.02078465 0.47413078 0.035598382 0.36172247 0.5605023 -0.08460852 0.19205038 0.031771135 -0.6998659 0.14722942 -0.37579054 0.017044945 0.5464815
及 -0.094765775 -0.39671445 0.3242561 -0.5156217 -0.14183809 0.10835877 0.28245646 -0.11643778 0.46234146 -0.44833323 0.11437007 0.02097825 0.6155757 0.003393191 0.43311995 -0.8910252 -0.32227248 0.17559932 -0.16651069 0.13477784 -0.0040664137 0.65016913 -0.73586583 -0.18484327 0.35954866 -0.017300323 0.20447476 0.8655765 -0.12180947 -0.0236037 0.35541725 -0.3735551 0.118430495 0.38023597 0.8276847 -0.10874826 -0.38738927 -0.2450733 0.2153432 0.5735409 0.44437677 -0.07010043 -0.18253921 0.25063536 0.13241339 0.12606739 -0.54937774 -0.4732011 -0.13173237 0.3374761
己 -0.4775185 0.283292 0.1863709 -0.36631316 -0.8332462 0.7256508 -0.37995875 -0.5711472 -0.10157965 -0.058908757 0.085121654 0.19126816 0.50783926 0.6982981 0.70041484 -0.25386193 0.31265795 0.4656246 0.2769478 0.515669 -0.21062106 -0.52386284 0.41465032 0.2849335 0.110230245 -0.12117908 0.12829506 -0.6939563 -0.1273727 0.083810784 -0.063550815 0.042060744 0.021162935 0.28502613 0.40026215 -0.6668522 0.19619717 0.1939379 0.39219657 0.11246452 -0.3365885 -0.33101904 0.13950515 -0.6583872 -0.24281427 -0.59508723 0.59887195 -0.39576238 -0.07218679 0.028200094
予 -0.76310366 -0.26200467 0.9498487 0.3499214 0.17486683 0.033612374 0.33616012 -0.743859 -0.34592843 -0.1796778 -0.19541413 -0.35833424 0.1568208 0.42011124 0.015504642 0.5125874 -0.33507103 0.45214397 -0.31096426 -0.1254133 -0.07004908 -0.436007 -0.8665982 -0.33835495 -0.5062268 -0.1804975 0.5257366 -0.22891058 0.049125675 0.02824984 -0.5108535 0.26323494 -0.49134016 0.04691302 0.2559828 -0.07651768 0.15196517 -0.20579532 0.11035057 0.70761126 0.52717733 -0.23794928 -0.6938193 -0.18787503 0.13662456 0.24232206 -0.44296134 -0.33911407 -0.5459318 0.6127467
色 0.3824694 0.28492573 0.25936005 0.09540978 -0.17924885 0.025437173 -0.15097617 -0.023802364 0.06426915 -0.19146399 0.17646503 0.23815344 0.20223933 -0.32134047 0.034118492 0.3056114 -0.34151143 -0.19175611 -0.18768032 0.023887195 0.023398308 0.09024366 -0.21679665 0.34421223 -0.4849519 0.7761073 0.2593494 -0.6093449 -0.7708193 0.08005104 -0.3204034 0.17106862 -0.8408324 0.30988556 -0.1264174 -0.38021648 0.72093123 -0.77584475 0.5688644 0.0091011515 0.06349367 -0.01984094 0.13634591 0.48184952 0.35677144 0.49787983 0.035694953 -0.08855096 0.121742785 -0.22605471
友 0.6452636 -0.068078466 0.21982138 -0.4020272 -0.03050123 -0.011093031 -0.2756345 0.09507447 -0.4394111 0.4787988 -0.75661474 0.56791323 0.7443537 0.07653734 -0.08657126 0.5127371 -0.5541722 -0.2521321 0.5853378 0.04885212 0.5687403 -0.4095624 -0.4993152 -0.4719874 -0.15874505 0.32030693 0.10332272 0.66901445 0.1406033 0.30088362 0.28934026 0.15941443 -0.6439033 -0.040109716 0.14405861 -0.35991824 0.54646796 -0.4253828 0.58172244 -0.116085045 1.10668 -0.5562936 -0.27349883 0.03201572 0.5425617 -0.44231093 0.4635701 -0.026072722 0.16192065 0.08673718
成 0.72450596 -0.55253035 0.22327897 0.5934144 -0.2670409 0.01307692 0.062915 -0.46903765 -0.47837344 0.24135473 0.121199444 0.8403372 0.30199486 -0.3274527 -0.48636854 0.061241966 -0.35969085 -0.051977906 -0.28522855 0.66705763 -0.13287652 -0.155715 0.27863216 0.4605965 0.77252764 -0.12889701 0.15623654 -0.046140965 -0.0137023665 0.36628214 0.802465 0.14494784 -0.22986703 0.4413135 -0.24070439 -0.5360759 -0.11255683 0.42182028 0.11556672 0.07517745 -0.042992346 -0.3519076 0.26098508 -0.35577577 -0.5160276 0.026815807 0.057878423 -0.16211215 -0.2287161 -0.12196583
远 0.4267748 -0.97244024 0.3854388 -0.074238144 0.5314234 0.0047069523 -0.17629875 -0.41733164 1.0996844 -0.14167182 0.1915346 0.211964 0.48747897 -0.309945 -0.038312424 0.083346054 -0.08788396 0.020863159 -0.1662359 -0.034650497 -0.095675215 0.13319086 0.25600785 0.39390305 0.41276252 -0.24958913 -0.84421605 0.31809112 -0.6020074 -0.41121623 -0.17243582 0.5507303 -0.30766362 0.13621773 0.57627904 0.14306258 -0.11162641 -0.37455374 -0.011800526 -0.012849953 -0.018238772 0.57850176 0.43512657 -0.08281711 -0.090228975 0.63885814 0.15944481 -0.5300747 0.14643331 0.11553592
上 0.37721574 0.425229 0.31382254 0.016530892 0.7821973 -0.08026244 -0.35650808 -0.3225704 -0.39207092 0.24743943 -0.04768398 -0.08484958 0.7044454 -0.023135034 0.44590905 -0.042764325 -0.6024042 0.14386033 0.15524097 0.061677985 0.084601775 -0.21998435 -0.008270211 0.64689124 0.5448402 0.3563484 0.17189263 0.3654687 -0.14969233 0.21826206 -0.05829749 -0.061127823 0.33532956 -0.39278165 0.022477798 -0.08203832 0.034916937 0.008277152 -0.5286253 0.8296698 0.10364569 0.7642835 -0.13456981 -0.286863 0.26683128 -0.067694604 -0.100012876 0.14009275 -0.3891544 -0.04138707
立 0.057612535 0.1586249 -0.07736574 -0.7006414 0.12244556 0.1296379 -0.23383863 -0.51929307 0.7506769 0.21645622 0.24954851 -0.30776095 0.45485812 0.41059577 1.0958873 0.31791115 -1.0559901 -0.38570118 0.2923528 -0.40434518 -0.060787443 -0.44550914 0.16164508 0.0769849 -0.07059972 0.53443027 -0.48123613 -0.38974038 0.29976264 0.0913701 -0.118193686 -0.30612975 -0.4298301 0.19106975 0.22939329 -0.2911057 0.6342019 0.639205 0.11696704 -0.40844977 0.056707732 0.024525125 0.09297018 -0.3455893 -0.34931472 0.59972 0.81430787 0.30382416 -0.56677055 0.30435553
今 -0.7900354 0.20561841 -0.559331 0.13837063 0.2291914 -0.22332679 0.09927715 -0.19171295 -0.35680908 0.1346814 0.083328545 0.47736323 0.48884907 -0.17207009 0.83106863 0.1788972 -0.07315179 0.033049185 0.040575553 -0.5263535 -0.31657586 0.1264142 -0.54727966 0.43908826 0.20869434 -0.11221362 0.25651237 0.16985564 -0.042658612 0.1378766 0.20247719 0.011292082 -0.095177956 -0.0082716895 -0.54637957 -0.41354975 -0.5013383 0.29801053 0.768003 0.048506696 0.29165635 0.28069022 -0.10236255 -0.17363386 0.93076146 -0.5612205 0.21319266 -0.8136206 0.16632947 -0.84659666
张 -0.2515788 0.40060267 0.11041042 0.43370414 0.02003312 -0.65930414 -0.39112845 -0.28203687 -0.097445555 0.6493555 -0.43785647 0.2591421 -0.05991375 -0.18378 0.24496481 0.43885002 -0.041930877 0.804486 0.276463 0.3154919 -0.4365226 0.38096836 0.08528636 0.13212186 -0.36040452 -0.32000297 -0.25311232 0.085531086 -0.17400245 -0.14384553 0.5112427 -0.057321947 -0.7809158 -0.60574025 0.22758669 -0.3018406 -0.0045715906 0.20951867 -0.06449751 0.247429 1.0579928 -0.18713789 -0.26474336 0.37355787 -0.06445162 0.20338534 0.753239 -1.1796016 -0.1119882 0.5788336
中 0.43819445 0.5934129 0.43268114 -0.25866988 -0.08230058 0.13237134 0.45611128 -0.012433157 -0.29317284 0.82693535 0.24026746 0.050897274 0.28265506 -0.08278609 0.6058329 0.31747413 -0.08305602 -0.0274474 0.07158857 0.17460243 -0.6508167 0.55985785 -0.2515356 -0.0050745807 0.14999269 0.28335395 -0.57277644 0.4793732 0.7278876 -0.23038155 -0.26723936 0.26166493 0.026406385 0.03245224 -0.49666283 -0.5895856 -0.14618689 -0.45156938 0.050655 0.2078986 1.0380949 0.29785815 -0.51847565 -0.19963229 0.08131015 0.40581918 0.18240982 -0.39479336 0.39580578 0.17894658
季 -0.16239299 0.2534785 -0.3657311 0.64441234 -0.5538718 -0.38573593 0.24843192 -0.11061837 0.24437565 -0.21863216 0.4332233 0.0075779613 0.12239971 -0.04605453 -0.09350698 -0.30627885 -0.62862 0.7848973 0.3230474 0.099518195 0.0022009015 0.13913779 -0.5610216 -0.14269853 0.33628207 0.23201235 0.007804211 0.23183566 -0.5782943 -0.5146998 -0.19539967 0.8857123 0.45311448 -0.34612787 -0.33254218 -0.1891653 -0.19229496 -0.17416407 0.15505527 -0.35452414 -0.14158514 -0.17579472 -0.051991876 0.34001583 -0.1477378 0.10945169 0.22145118 -0.3208009 -0.33763686 -0.2181616
臣 -0.34633708 -0.10282314 0.10200321 -0.2609657 -0.53372395 0.33097905 0.25871977 -0.25460404 0.16525596 -0.30248988 -0.27459803 -0.3958284 0.72200936 0.16727655 -1.173582 0.15493007 -0.58044904 -0.2016999 -0.12189357 0.1129161 0.09035308 0.5621127 0.08577186 0.72045374 -0.48238552 -0.16492346 -0.44162625 0.9296965 -0.15294465 0.60629964 -0.031311236 0.9714202 -0.37868956 0.16437602 -0.3833147 0.008302903 0.5745481 -0.11499937 -0.4322913 0.66211265 0.43883452 -0.04719508 0.06326475 -0.1127094 -0.4617404 0.80185574 -0.14978607 0.016291982 -0.72908974 0.018685596
贤 -0.5234688 0.33779466 0.10837546 0.03628121 -1.0823399 -0.22223863 0.13814692 0.42395556 -0.46085256 -0.7706827 0.12419751 -0.6116642 0.087746955 0.022569448 0.355969 -0.56516504 0.5041813 0.27414027 0.12732197 0.31917885 -0.22390682 0.22291285 -0.39834723 0.6529624 -0.47759616 0.72456443 0.29983163 -0.024174705 0.16127908 0.30945128 0.3991844 0.44804323 -0.6807318 -0.10208735 -0.17788965 -0.49545944 0.009787507 -0.11125768 -0.012394047 -0.12684953 0.01702041 -0.26164863 -0.099295974 0.013423189 0.6999919 0.12876073 0.18638204 -0.7908366 -0.032261744 0.75864977
思 0.43554205 -0.18462275 -0.11687303 -1.0564467 -0.56444967 0.1352161 0.19345777 0.3646094 0.5718056 0.12954511 -0.14075044 0.069605775 0.48134193 -0.39787447 -0.23423046 0.1395539 -0.2234004 -0.08811799 0.41309497 -0.47475708 -0.105981156 0.35233593 -0.07231421 0.07880016 0.33572844 0.35206816 0.5807067 0.34695226 0.033810772 -0.7364179 -0.6540159 -0.29489544 0.022423917 0.11418153 1.013031 -0.39347485 -0.15853937 -0.46215677 0.029864212 -0.83117735 -0.037356965 -0.13881736 -0.7950192 -0.5506127 0.24681395 0.36855257 -0.0639786 -0.645383 0.66102296 0.24182181
齐 0.46238387 -0.3783291 -0.29702675 -0.60545284 0.059569977 -0.416233 -0.34915882 -0.47122347 -0.67031556 -0.26013508 0.26277488 0.39603648 0.22505574 -0.48743227 0.06957141 0.0406483 -0.47382474 0.17985512 0.5895505 0.20281054 -0.46759802 -0.015371226 1.1123328 0.42074046 0.26764128 0.05733278 -0.1208621 -0.3790304 -0.6431734 -0.7746339 -0.17364395 0.6024053 -0.3383848 -0.39668941 0.12827879 -0.6559115 -0.29590324 0.90592915 0.20519134 -0.24052186 0.60028714 -0.37875447 0.16206637 0.14685404 0.2838151 -0.042605694 0.7764105 0.14101695 0.44096157 -0.04787998
义 -0.28550807 -0.32188484 -0.16802832 0.19001034 -0.34640384 -0.114176735 0.7473362 -0.06561573 -0.13076481 -0.061632816 -0.16178352 0.21175173 0.5710168 -0.6991906 -0.1481732 0.44898632 0.18818559 0.11172096 0.23805182 0.33802342 -0.04984229 0.37355566 -0.40845436 0.2434952 0.190771 -0.33351624 0.47767892 -0.11670062 0.26405266 -0.7455167 1.1559116 -0.17107324 0.5311703 0.4958233 0.32774094 -0.44594756 0.10303665 -0.018039498 0.85197836 0.40425417 -0.28005034 -0.011379348 0.12984163 -0.26146483 0.101401605 0.10216961 -0.35712594 -0.3457531 -0.2661448 -0.5266965
正 0.64367115 -0.4487471 -0.01825956 -0.16190338 0.05763708 0.20090756 -0.12420724 0.008160793 -0.15052055 0.1614471 0.27496636 -0.9504627 0.6718379 -0.3486814 0.52958256 -0.24316162 -0.5451276 -0.060021088 -0.28084904 0.83095056 -0.09499076 -0.33254126 0.025558654 -0.03580997 0.33571407 -0.6406269 1.2335651 0.09063189 -0.7124921 0.16533484 0.007358149 0.20927352 0.42674184 0.10757398 -0.19135955 -0.5541173 0.48531237 -0.29236183 0.20569621 -0.1730734 0.4918316 -0.48146474 -0.40159974 -0.11440144 0.850923 -0.2682525 -0.10622477 -0.027820535 0.56044054 0.53867424
命 0.29253086 -0.04077921 -0.17869654 -0.039008547 0.8089008 0.03734475 -0.24514319 -0.4913691 0.12632303 -0.75231117 0.13666363 -0.21985887 0.30117685 0.1356417 -0.28810012 0.22387877 -0.16553731 0.72543496 -0.48058435 0.4097638 -0.33204424 0.6032169 -0.15531296 -0.42762524 0.06965316 -0.13575329 -0.6443781 0.11967327 -0.060290243 -0.03285577 -0.26484913 0.7105655 0.08472964 0.54232943 -1.0691682 0.13136941 0.16315795 0.09682507 0.26051906 -0.065387204 0.52941287 -0.21213053 -0.6535153 -0.4984292 -0.4332694 1.0562577 0.0024451525 -0.07133477 -0.64494926 -0.6390413
曾 0.09442119 -0.28866068 0.005034256 -0.16680819 0.05953923 -0.8089525 -0.12592734 -0.053295102 -0.019367319 -0.2942706 -0.05862766 -0.11138608 -0.4283137 -0.040979367 -0.25605187 0.20095976 -0.6980858 0.3601332 -0.56307423 -0.14323317 0.533462 0.47377017 -0.26805153 -0.034013215 -0.5566995 0.12904157 -0.11290886 -0.41346267 -0.1172202 0.14672127 -0.23033074 -0.11652196 0.056055278 -0.16528356 -0.30031863 -0.17937805 0.64697695 -0.20690371 -0.11325372 -0.23925947 0.019724786 -0.07288604 -0.48438558 -0.09918291 0.0144745335 0.24763252 0.2865229 -1.14233 -0.12808022 -0.7517591
伯 0.98482674 0.26384613 -0.6193991 0.055973962 -0.10683692 -0.75259435 -0.6754419 0.23039268 -0.27447897 0.012407832 0.36454153 -0.8557331 -0.24809834 -0.49570188 0.57387364 -0.058652077 -0.017742345 0.91454077 0.23442219 -0.33101818 -0.12654448 0.29383036 -0.53552383 0.103502974 -0.117730975 -0.54018795 -0.3471529 -0.18789859 -0.08013355 -0.46190223 0.59124964 0.7180895 0.6953927 -0.1506906 -1.2135538 -0.4763399 0.6266761 -0.42939794 0.41151705 -0.28260964 -0.19594365 -0.18898743 -0.29985029 0.050001245 -0.18773265 -0.5490653 0.6911333 -0.4303488 -0.30163535 0.3047269
门 0.042052116 0.23799197 -0.46253777 -0.14131291 -0.48265734 -0.84866667 0.071839824 0.0013386284 0.770854 0.25324312 0.15924345 -0.33287376 -0.23386486 0.8124433 -0.38352782 1.0202466 -0.17269155 0.34275645 0.32199645 0.4946833 -0.2818213 0.22775179 -0.024866622 -0.303043 0.17426601 -0.5373111 -0.0055874353 0.5618052 0.38831633 0.3594708 0.89414716 0.18862893 -0.11477387 -0.1318008 -0.20463917 -0.38732374 -0.34897268 -0.4383565 0.25024065 0.14092633 0.051431216 0.6514505 -0.20598476 -1.1666187 0.32030463 0.2481304 0.19428617 -0.5204987 -0.38012138 0.4891536
敢 0.086977586 -0.17758496 0.5335327 0.45470244 -0.7934628 -0.21573897 -0.2592505 0.49335092 0.06581739 0.24543034 -0.3741901 -0.42284897 0.55636764 0.4086773 0.7688967 -0.31359917 -0.5227954 0.2639829 0.012958605 -0.18858224 -0.9699666 -0.67541623 -0.25162405 0.4195641 0.4409424 -0.5595176 0.11433352 0.04603492 0.13943028 -0.17504957 0.1631885 0.676824 -0.41890803 -0.073112495 0.5214513 -0.039940868 0.06153495 0.32790875 0.21592326 0.04440288 0.1379139 0.27347186 0.25495276 -0.67598075 -0.090494804 0.77437574 -0.058992136 -1.2547938 0.3912338 -0.10220796
犹 -0.7234648 0.11526612 -0.35508734 -0.6201227 -1.0085919 0.75129634 -0.51131064 -0.45200434 -0.33828905 0.45019352 -0.30615026 -0.6643303 0.6776415 0.40294173 -0.7026506 -0.37038895 -0.25114813 0.26041785 -0.058796197 0.123435125 0.3629652 0.28262544 0.042193007 0.11742851 -0.54820055 0.736159 -0.19873154 0.33971 -0.13874905 -0.51739705 -0.038799036 -0.7273443 0.08279917 -0.084419705 -0.02257856 -0.5109253 -0.1522281 0.05666046 0.37419447 -0.057176303 0.36251602 0.048244074 -0.5119314 0.22882926 -0.6405063 0.4140589 -0.57803714 -0.51764804 0.5920103 0.19000505
生 -0.97366214 -0.42798507 0.105046414 -0.16283967 -0.30505982 0.4688462 0.20021282 -1.0783205 0.008395587 0.40126657 -0.24313465 -0.08552898 -0.5303894 0.15631497 -0.033675116 -0.26126105 -0.19305046 0.21444178 -0.31080204 -0.0586639 -0.14682652 0.3131247 -0.6936205 -1.1066346 0.062395457 -0.6589112 0.31325147 -0.9495825 0.010839948 -0.6830603 -0.02956638 -0.025478138 0.24474454 -0.006590342 -0.71664715 -0.61254734 0.39996415 0.051489133 0.2860333 -0.59695554 -0.17022087 0.12067028 -0.7317103 0.2200697 0.20195073 0.6058184 0.22939767 -0.21248792 -0.4057646 -0.0012449437
日 0.09723906 0.30528358 0.10767517 -0.21635276 0.5736573 0.21014649 -0.52444714 -0.50959694 0.43161628 -0.014821084 0.4958527 -0.64185506 0.80881286 0.20983936 -0.062041584 0.52333313 -0.48941955 0.16864067 0.04222981 0.04899327 1.0848275 -0.04066566 -0.44097733 0.3470614 -0.07207194 -0.1289625 0.36067843 -0.2143556 0.6892805 -0.2795518 0.0174686 0.5376827 -0.6471582 0.7842533 0.35162184 -0.49304405 0.09347547 0.39384654 -0.20984082 0.13998334 -0.05085212 -0.1707123 0.23561153 0.31106085 -0.63258296 -0.34349394 0.30411896 0.47366467 1.1712432 0.48131916
敬 -0.12690482 -0.03122662 -0.3570431 -0.006350119 -0.11283439 0.03128544 0.11037286 -0.19325368 -0.19021966 0.7796303 0.3292272 0.5348935 0.8616465 0.28774613 0.14672223 1.2238028 -0.22323097 -0.2007776 0.08387524 0.40426984 0.43632707 -0.06072287 0.20607227 0.39717463 -0.05250481 -0.47497368 0.071176715 0.6623953 0.9781158 0.07514435 -0.033412658 0.8665792 0.49788487 -0.13036074 0.6371219 -0.523693 -0.14414181 0.14206526 0.91223776 -0.6419657 -0.3308339 0.19161549 -0.6713393 0.24495797 -0.03866639 1.096106 -0.4970616 -0.15525062 -0.08397574 0.43286008
难 -0.059672378 -0.93140393 -0.15501015 -0.54978555 -0.12438341 -1.0888336 0.17449066 -0.48851097 0.49453846 0.340692 -0.03808892 -0.8952903 0.11495458 -0.34391263 -0.7509346 0.5210651 0.67935157 0.10375068 -0.6768607 -0.009098395 0.27128 0.5927611 -0.15634526 0.76800096 -0.22825953 0.38908464 -0.6177666 -0.1480656 0.65576357 -0.06752294 0.4261781 0.14905028 0.1576295 0.7656956 -0.48030877 -0.20372239 0.7452672 0.31646398 0.25602075 0.51091284 -0.31399688 -0.124039575 -0.28544277 0.14819229 -0.98378915 0.6354126 0.10209521 -0.5095336 0.3051269 0.46286413
直 0.16639088 -0.116292745 0.8299017 -0.28868884 -0.6054028 -0.13960925 -0.29223266 -0.55058825 -0.30819002 0.2748457 -0.20873772 0.9424127 0.13293687 0.12435387 0.60514396 0.5829147 0.13814071 0.2002338 1.1529678 -0.6703824 0.3253293 0.3256377 0.07376889 -0.14382127 0.07003061 0.67732173 1.0862134 -0.13087066 -0.55316895 0.8530905 0.2619008 -0.22321673 -0.83925426 -0.6369024 0.9824659 -0.50351787 0.04739568 -0.1023327 0.0906082 0.34294352 0.4573278 0.34701806 -0.84796315 0.5386242 0.41450685 0.025797533 0.044229027 -0.18065858 -0.16087687 -0.16344392
丧 -0.09648609 -0.633558 -0.6809877 -0.7672159 -0.25751042 -0.4061831 0.3785455 -0.3769128 0.48803765 -0.06426965 -0.518411 -0.30734366 -0.049347874 0.33738384 -0.09437138 -0.09226725 -0.6741401 -0.42807114 -0.34853005 -0.4949681 0.045046166 -0.23274237 -0.29706165 0.17690739 0.4750921 0.23132625 0.5746727 -0.45361546 -0.29950494 -0.18631956 -0.14229539 0.5733681 -0.20754811 -0.3050872 0.26301306 -0.08914513 0.08713912 -0.7316855 0.13313681 0.19184639 0.67967033 0.39854854 0.04558626 -0.4153083 -0.3088067 -0.26527825 -0.09636715 -0.27716896 -0.33156052 0.65463996
说 0.46969062 -0.15734385 -0.06263305 -0.09669039 -0.043747168 0.23466802 1.1740407 0.093001455 0.49160543 0.074342415 0.1719521 -0.09655863 0.320768 0.059480187 -0.22063929 -0.39244777 -0.5642098 0.44101593 -0.39247018 0.16964585 -0.52711576 0.052273948 0.37452587 0.45917386 0.1918317 0.6566287 -0.2933715 0.314607 0.9672911 0.16920935 0.4483274 0.46740726 0.20946606 -0.3258227 0.83788794 -0.39241007 0.14588515 0.39460102 0.28899884 1.0811533 -0.11919263 -0.35187915 -0.11343838 0.35964036 -0.0174924 1.2103322 -0.43747154 -0.41752744 -0.35322884 0.9215522
自 -0.1885539 0.45729986 0.39718297 0.6722433 -0.6766984 0.20959564 -0.51232797 0.06787624 -0.18169773 -0.06877724 -0.8740045 -0.28484336 -0.30706713 -0.046237025 0.37521917 0.09099655 -0.49212208 0.08526592 0.017849196 -0.39990103 0.4596276 -0.5701231 0.29777306 -0.6345198 -0.38831046 0.2266213 0.9934395 -0.16982742 -0.14115079 -0.14143677 0.006496072 0.7041042 -1.1155155 -0.509783 0.43796062 -0.29213452 1.139193 -0.48472044 0.5704782 -0.26540166 0.2725508 1.5531391 0.07695356 -0.22342998 -0.44542646 0.50508976 -0.014836962 -0.3698733 -0.48617998 0.3750366
用 0.7148023 -0.26126713 0.6066179 -0.28191495 -0.01506117 -0.53255546 0.4561139 -0.5715769 -0.54779834 0.8642295 -0.34000057 0.0227036 0.19223309 0.25400496 0.056925684 -0.20023687 -0.33910865 0.7309971 -0.20541249 0.32836103 -0.47471252 -0.3767974 1.1143178 0.13250001 0.02599358 0.2397713 -0.521817 -0.7187206 -0.027426893 -0.19507878 -0.55885124 0.40045768 -0.15287325 0.004692354 -0.065598466 -0.255813 -0.2277606 0.49477205 -0.28141862 0.029881025 -0.13503547 -0.08040123 0.40642413 -0.0838104 0.4711583 0.27507928 -0.62285423 -0.6522832 0.33895454 0.03155953
周 0.15137534 0.61393124 0.10583768 0.374164 0.30860537 -0.53531337 -0.41809586 0.11916605 -0.4338066 -0.3232199 -0.35542813 -0.15360449 0.1463796 -0.6313119 -0.6637591 0.20696153 0.17413272 -0.68195 -0.14213435 -0.4372111 0.013751782 0.70996183 0.45650038 -0.74191314 -0.3042099 -1.1686666 -0.043226343 0.52119756 -0.363543 0.2413645 0.35759497 0.09279975 0.20216678 0.27291295 0.1777916 -0.6340787 0.09585164 0.017289378 0.14427038 0.41982952 0.021011777 0.016291099 -0.3656013 0.08864993 -0.40681157 -0.40715143 0.6425528 -0.5905052 -0.16201888 0.39299685
颜 -0.2106928 0.17831135 0.62124544 0.319538 -0.1809592 0.38308564 0.3959036 0.12857866 0.8978793 0.16865246 0.13334304 -0.12993164 0.49084046 -0.17544593 -0.47729865 -0.9194087 -0.5732447 0.1444487 -0.12833598 0.44586593 0.5848523 0.33721152 -0.06713661 0.2106155 -0.4414638 0.3338661 0.4541696 -0.22576892 -0.5167972 -0.48077983 0.19854571 0.58925277 -0.7045147 0.1950875 0.4870109 0.67003113 0.25412723 -0.3729281 0.11721787 -0.5247872 -0.3149649 0.68354243 -0.38463384 -0.5409756 0.5169521 -0.41307893 0.39758927 -1.0220928 0.096378796 -0.47967932
年 -0.051932618 -0.2630767 0.19106814 -0.13005769 0.63553405 0.43940765 0.4809424 0.16409683 0.7064442 -0.8802714 -0.3697075 -0.14424287 0.18767492 0.2651326 0.113649234 0.20314829 -0.017611478 0.5003813 0.24401008 -0.33818284 0.04272381 0.576546 0.2698332 0.058173552 -0.5346655 -0.12997526 0.10102377 0.62814206 0.7720936 0.32123965 -0.05986482 0.35827252 -0.62673545 -0.5597905 -0.112345204 -0.4538332 -0.21038184 -0.79865116 0.053183682 0.572567 -0.26442593 -0.38711157 0.13075948 0.32995203 -0.43079582 0.38662347 -0.29553768 -0.36312738 -0.27862602 0.3862619
告 -0.04001483 -0.115837276 -0.38748115 0.3702402 -0.23822516 0.045530353 -0.10687871 -0.1744247 0.558603 0.40052313 -0.078134604 0.002425883 0.013598227 0.68651354 -0.06312861 1.0135124 -1.4670988 0.8273553 -0.35942087 0.09754219 0.47269124 -0.62154025 0.65900767 0.10562034 -0.27678066 0.22415704 -0.40719807 0.8734517 0.63672847 0.36397046 -0.31923044 0.40974012 -0.17901249 -0.017822092 0.10262354 -0.8421637 -0.14674225 -0.75218195 -0.019933168 0.111344755 -0.2147876 -0.013200835 0.0015246597 -0.10125365 1.2459102 -0.8658605 -0.0039285747 0.44196123 -0.20596159 -0.29467747
十 -0.32045767 0.680461 -0.0019400739 -1.0833013 0.016001325 -0.29827148 -0.5494324 -0.59882146 0.27890456 0.2696275 0.35198417 0.5577497 0.10230109 -0.29867274 -0.30411416 0.96536463 -0.03869291 0.68274903 -0.18341605 -0.6337873 -0.19038264 0.4397672 0.014028637 -0.10539917 -0.45949465 -0.23910573 -0.6779758 -0.22733352 0.43626562 0.07971646 0.060003437 0.38200748 -0.3011373 -0.29507264 0.06837737 -0.6392885 -0.11475862 0.3692635 0.24787648 0.19556166 0.083630905 -0.6733741 -0.25376365 -0.2923719 -0.6854596 -0.20133431 -0.20153137 0.4265965 -0.17861874 0.050398797
怨 -0.19428156 -0.096424215 0.77221286 0.14029872 -0.43852463 0.38979465 0.6785994 0.12949872 -0.35952997 0.5582104 0.9929429 -0.4453736 0.39974642 -0.3714253 -0.5902974 0.8617199 -0.5129991 0.7056698 0.14097613 0.29767627 -0.19618818 0.34076467 0.09698348 -0.077036425 -0.09008658 -0.14089936 0.039519187 0.07698687 -0.13522904 -0.5358913 0.37373453 -0.20700645 -0.78619117 -0.25813812 0.14612105 -0.2953149 0.111916654 -0.64440984 0.40229538 0.67714775 0.28788635 -0.37728342 -0.032160606 -0.6044138 0.17638275 -0.21929938 -0.88798183 0.10919425 -0.20626257 0.92288387
达 -0.66362214 -0.022056377 0.4522055 -0.4773493 -0.15938857 0.27413204 0.15273543 -0.60956955 -0.046692003 0.40084016 -0.2675324 -0.5764826 0.18143973 -0.7503645 1.1954745 -0.4614709 -0.39479753 0.855975 0.41056597 0.15100673 -0.2490231 -0.028178662 1.0019047 0.8243505 0.19457744 -0.13169917 -0.8801199 -0.07245128 0.5426348 -0.08324283 -0.27703708 0.36983284 -0.20835066 -0.6531844 -0.17509446 -0.23974533 -0.10806089 -0.44393143 -0.14773263 -0.35722724 0.35409087 0.9874249 -0.5702336 0.12465165 0.8325827 -0.29103506 0.049663976 0.11235336 0.30664456 -0.1859843
孝 -0.49166417 -0.089441836 0.52113485 0.7257001 0.44671208 -0.42811033 -0.08382629 0.19040725 0.0030668103 0.6948638 0.041309115 -0.31316882 0.6159142 0.17956537 0.28830087 -0.26081172 0.37788787 0.3109179 0.26494622 -0.046845183 0.51939297 0.3250617 0.16789094 -0.012291134 0.28611434 -0.095555626 0.03409454 0.0041809734 -0.3524349 -0.20447874 0.93998444 -0.043518554 0.38971156 -0.33247334 0.116849124 -0.0047975164 -0.16089857 -0.55661166 0.18041301 0.38301578 -0.330982 0.1647269 -0.120201886 0.17644273 0.38648456 0.24690178 0.89656717 -1.0379775 0.11721523 0.2288073
弟 0.22117844 0.048958473 -0.16778167 0.34381202 0.44301048 0.6423928 0.16771899 0.29455882 0.4339591 -0.02519335 -0.35961363 -0.31137955 0.3657971 0.13744919 -0.0054873354 0.12877014 -0.37235153 0.63317364 0.4496213 0.44922936 0.3890588 0.46571678 0.72223204 -0.5124151 0.24589808 0.22010997 -0.14311358 0.7587807 0.046842374 -0.3455516 0.99465126 0.206848 0.28643677 -0.2394584 0.03963935 -0.3959706 -0.26906312 -0.23097645 0.02076793 -0.38222808 -0.2777968 0.48932934 -0.85143155 0.6103437 0.8572534 0.75736606 0.2345773 -0.23801634 0.12055605 -0.4635281
至 -0.464002 -0.20522434 0.2677114 0.5257239 0.16451675 -0.11650735 0.086299345 -0.66228193 -0.3163289 -0.028986864 0.27588123 0.34497315 0.7076717 -0.8686282 0.10366021 -0.11869567 -0.37493306 -0.18116626 -0.038747054 -0.4703659 -0.27240023 -0.3346995 -0.6303701 0.33954597 0.5436968 -1.2099121 -0.0926893 -0.7793242 -0.28634104 -0.08012943 0.1315601 0.42633745 0.13433237 0.24712788 -0.15019219 -0.22023878 -0.23445377 -0.6148448 -0.26128697 0.50203544 -0.25513703 0.27971512 0.17903359 -0.11614504 -0.12400361 -0.34419128 0.12678708 0.022355821 0.25483721 0.58716345
先 -0.4113033 0.25151765 -0.28963548 -0.05186807 0.8268267 -0.6123151 0.082725294 0.023363201 0.3767463 0.16049737 -0.22503896 -0.2635389 0.05707499 1.0701559 -0.04506142 -0.7220789 -0.0006829278 -0.34154963 0.33827788 -0.023868585 0.13020876 0.05243726 -0.5580085 -0.7157577 -0.114920646 0.29479864 0.080860004 -0.18080916 -0.14592953 -0.8610421 -0.22262235 0.06340873 0.2382243 0.0057326243 0.6400277 -0.28081962 0.33024272 0.15065539 -0.016031196 0.24214183 0.27044111 0.45552576 -0.928746 -0.56436497 0.17553051 0.18709731 0.7863769 -1.1314828 0.5436782 0.41417602
师 0.5413038 -0.27567098 -0.17598534 0.63093174 -0.011273762 -0.37415364 -0.32124376 -0.08158881 -0.91050625 -0.44248757 0.35302535 0.20501745 0.032342013 -0.34023887 -0.24028267 -1.0791485 -0.2932667 0.6523708 0.066625625 -0.5741409 0.7775949 -0.6285068 0.30901203 0.13710424 0.029309314 -0.3211818 0.42992538 0.41922158 0.033259243 0.122286946 0.6228926 -0.1895188 0.0010346093 -0.74035114 -0.40637964 -0.45104697 0.055053826 -0.17771149 0.105901375 -0.24882141 0.0723539 0.13670546 -0.8810191 0.28740275 0.09514473 -0.40916935 0.39942873 -0.30247995 -0.49795446 0.07061996
女 -0.4350201 -0.017638478 -0.21404536 0.056968614 0.25263554 0.24104182 0.31884238 0.193477 -0.6794987 0.37670985 0.6399514 -0.94247997 -0.09458295 -0.11070041 0.4087777 -0.13922523 0.14370374 0.39311987 0.45891023 -0.24520724 0.6279528 0.16735716 0.037814587 -0.18830696 -0.09226181 -0.067480676 0.14636762 -0.081995025 -0.32015228 0.66306937 -0.22089934 -0.07946468 0.31152207 -0.2073766 -0.120012455 -0.45747918 -0.112836294 0.40419832 0.35159063 0.09937926 0.06453141 -0.026939517 0.07445004 -0.5168696 0.17608516 -0.5577154 -0.10287989 -0.9315041 -0.65173775 0.09269974
多 -0.10322958 0.0903132 -0.6819578 0.007995261 0.08627716 0.66928715 -0.1509264 -0.057929516 -0.26107356 -0.07502106 -0.57891715 -0.7257894 0.82492507 -0.5696973 0.13929969 -0.094549716 0.33530742 -0.4711984 -0.14763224 0.59189886 0.5457419 0.21268001 -0.58743864 -0.20555165 0.10117784 0.073850624 -0.07326587 0.6009003 -0.7379636 0.97213453 0.4396478 0.31031916 0.32505924 -0.18918416 0.3640376 -0.2637979 0.73592937 0.1340239 0.11843122 -0.005445735 0.16490996 -0.047181603 -0.35471508 -0.27472812 -0.3728263 0.013373399 0.0791912 -0.44630912 0.36995852 0.768325
忠 -0.32775754 -0.68630457 0.14350481 -0.29242176 -0.13914259 -0.89720654 0.65890926 -0.036254138 -0.35421264 0.18156399 0.062964424 0.2470283 0.47877094 -0.6463649 0.16376409 0.28045824 -0.33456147 0.52878004 -0.58378816 0.050725013 0.5298538 -0.30104962 -0.1108275 0.7903143 0.12643075 0.3052885 0.4898051 0.65455806 0.63597995 -1.2364019 -0.07590557 -0.15119766 -0.17841327 0.08257118 0.09477131 -0.44672486 1.2245318 0.27501196 -0.26772615 0.32241496 -0.38119254 -0.63850886 -0.86386436 -0.87386405 -0.19535968 -0.08035384 0.08921644 -0.36329567 -0.34576583 -0.2928878
四 0.34855 -0.027620222 -0.080761865 -0.34434876 -0.5275428 -0.0016618058 0.6629029 -0.23779239 0.98812646 -0.041693356 0.7221288 0.748808 0.41859177 -0.3863103 0.19526766 0.29774117 -0.6208825 -0.08956153 -0.95741165 -0.45054623 -0.28887647 0.6720933 0.53446245 -0.027648067 -0.35305834 -0.27192414 -0.79728115 -0.3429802 -1.2485809 -0.61011225 0.070447795 0.3515681 -0.48909348 0.13936879 -0.44512737 0.24297094 0.999442 0.61886054 -0.6126563 0.04346466 -0.21359241 0.44778812 0.01648642 -0.040979758 0.29213464 0.10657902 0.0030638624 -0.19652319 -0.18920496 -0.21199338
疾 -0.044078846 -0.28667802 0.03192126 0.038038608 -0.05899518 -0.048673652 -0.1856245 0.08256863 -0.22780694 -0.46576503 -0.14845441 0.652557 0.39901686 -0.52996874 -0.070263036 0.6231075 -0.3502855 0.16375369 -0.80944633 0.6097057 0.8728238 0.08343645 -0.38834152 -0.25662583 0.4425069 -0.49321622 -0.0358704 -0.66545916 -0.23282775 -0.13547875 0.27251118 0.85158116 0.35676745 -0.14651753 -0.2206755 0.19961469 -0.5049063 -0.9945374 -0.23209108 0.7826821 -0.39448804 0.23967066 -0.6765411 -0.11381733 0.48262435 0.43886074 -0.392261 0.008067149 -0.6493206 0.22685146
服 0.56446904 -0.87083817 0.19295785 0.51390827 -1.0251632 0.04419513 0.0037653763 -0.15181035 0.52874166 0.960142 0.03496518 0.4074212 0.34261206 0.604759 -0.18489213 -0.4685161 -0.3197359 0.374616 0.016399184 -0.23928492 0.17315872 0.61823606 0.90279824 -0.09123745 0.24431944 -0.23754612 -0.3499076 -0.14665878 0.52574193 -0.2656682 1.2717303 0.5175487 -0.13874091 -0.116441816 -0.47288173 -0.63312984 0.2535792 0.42161247 -0.13399953 0.05522376 -0.1361189 -0.74437827 0.07547184 -0.08449608 0.13704146 0.78622544 -0.09499814 0.10535215 0.25093886 -0.61145574
氏 -0.075414024 0.118552186 -1.0819517 1.0266179 0.10720149 -0.14641385 0.3237312 0.012044449 0.35759684 -0.43016487 -0.023716075 -0.3586696 -0.26347083 -0.52759 -1.1811723 -0.193346 -0.26275674 0.7432505 0.88998085 -0.13648778 -0.185288 0.31919962 0.3178136 -0.11956725 -0.9577902 0.56497985 0.37863043 0.32701156 0.5161068 -0.038401067 0.3117099 0.57291204 0.29347712 -1.0309594 -0.4156509 -0.541665 -0.24239041 -0.1374552 -0.0046823323 0.55466884 0.11706032 -0.23833837 0.53233504 -0.7101091 0.35761267 -0.26281512 -0.033048216 -0.5426257 -0.43149328 0.151589
冉 0.039676398 0.15840374 -0.21669061 0.16650607 -0.9047766 0.20427926 0.13676043 0.51106375 0.44818407 0.0127467085 0.04278284 -0.21693999 -0.3227072 -0.38942045 -0.85959005 -0.6619769 -0.50545776 -0.24221526 0.15200907 -0.37475562 0.43621188 0.66736096 -0.011395316 0.29427618 -0.1291928 -0.07141859 -0.16248034 -0.72145104 0.9679845 0.33336905 0.113142416 -0.1771007 -0.07681227 -0.56502527 -0.42048508 -0.51998645 0.23138265 0.62910056 0.63015074 -0.5857186 0.17906916 -0.4132371 -1.145012 0.7360683 0.046634946 -0.3810451 0.4892498 -1.1277727 0.0072407634 -0.40204012
将 0.09415928 0.0008159196 -0.07583535 0.6600452 -0.4129986 0.53475606 0.67784303 0.15704355 0.9525536 0.15680273 -0.06508054 -0.7624494 0.16753128 -0.48005202 -0.11265618 0.40145195 0.12265049 -0.16460876 -0.35764122 -0.5795467 0.3263302 -0.024269018 -0.67849576 -0.23275235 0.19380158 0.53210396 0.21163727 0.09810726 -0.07019475 -0.10454774 0.16603433 -0.11836962 0.21840903 -0.41299117 -0.10982906 -0.28748766 0.27422148 0.047161072 0.06865256 0.0563248 0.53591985 -0.78619313 -0.618391 -0.34667355 0.44047537 0.19338557 0.35246593 -0.79376227 0.13461778 -0.9461743
士 0.17626004 -0.7361097 0.49149072 0.14260374 -0.032963 0.15037175 -0.2786354 -0.45914978 -0.024789391 -0.49175945 0.5736755 0.31728122 -0.60141635 -0.42001164 -0.07848636 -0.18749733 0.44747645 0.82305074 0.5854343 -0.38163415 -0.10949473 0.41588834 0.6602096 -0.6416892 0.016603945 0.075374335 -0.20331746 -0.44143707 1.0645854 -0.22279187 0.89041877 0.3764824 0.36429515 0.52571857 -0.1255964 -0.42687383 -0.51222765 -0.24937235 0.7874699 0.40884858 0.62481713 0.28234565 -0.6231346 0.25027725 0.24258594 0.013053735 -0.3336446 -0.7536609 0.26790512 0.19492899
丘 0.30502048 0.5728636 -0.68475026 -0.53911626 0.4428958 -0.38377023 -0.2438389 -0.43394697 0.46408522 -1.3268898 -0.20735301 -0.19835737 0.08164216 0.52218056 0.1931686 0.4853869 -0.037134238 0.9192184 0.039525818 -0.23284988 0.34089187 -0.25298083 0.6185375 -0.27472526 -0.17432705 0.61745083 0.37028557 0.61490387 -0.6438174 0.009523015 -0.39270023 -0.28928024 -0.08029512 0.38798517 0.60316926 -0.24182288 -0.3602826 0.11327055 -0.40271834 -0.428078 0.19833918 0.38630512 0.34062773 0.041861363 0.47653076 -0.12534258 -0.17962235 -1.251815 -0.76087594 -1.0771712
身 -0.32166573 -0.3006884 -0.13598853 0.6767625 0.53347313 -0.5761806 -0.20156494 -0.099877685 -0.018925983 0.609108 -0.21743225 0.05153373 0.68992865 0.28029406 -0.5905463 0.06398112 -0.4482593 -0.46556702 0.33653948 -0.26089525 0.3340889 -0.66153795 0.23287399 -0.83952045 0.077447705 -0.16982226 -0.23488562 0.32422248 0.44432917 -0.017066257 0.6414395 -0.07874651 0.080105655 0.48245683 -0.56507283 -0.81449825 0.5342352 -0.6744611 0.4872831 0.31619954 0.42520872 -0.008288615 0.10737869 0.012835784 0.54060835 -0.17738582 -0.23081501 -0.38718826 1.317649 0.222008
入 0.31907314 -0.07997266 -0.22740726 -0.06610061 0.05026069 -0.5433887 -0.120823406 -0.49339774 0.045553565 0.18632735 0.11702666 0.17451766 -0.15406395 -0.08110586 -0.5118649 0.7067276 -0.67143345 -0.025956292 0.20751615 -0.7255711 -0.56188864 1.0033071 0.14469291 -0.43015012 0.24725388 -0.7335266 -0.32786968 0.5226642 0.03277185 -0.2789972 0.24448177 0.40584028 0.2939983 -0.5920317 -0.48900983 -0.38342607 0.015991857 0.37936115 -0.04261458 0.15987948 0.18195216 0.25512648 -0.83563673 -0.9844205 -0.82190984 0.4093643 0.21770844 0.07707258 -0.6503577 -0.041040894
志 -0.09634053 -0.17841914 0.026084717 -0.13572186 0.38773105 -0.4720784 -0.26852235 -0.029200975 -0.28225952 -0.035528067 -0.075213686 0.030446257 0.007528252 -0.7371524 0.06440549 -0.21357755 -0.79835624 0.047725063 -0.39111134 -0.357744 1.1144383 -0.2024538 -0.12379461 0.88565904 -0.4889832 -0.714916 -0.057211086 -0.3409053 -0.09009075 0.6240734 0.18874963 0.093623996 -0.3438532 0.76294214 -0.52768093 -0.24146372 0.44762942 -0.64511144 0.025265478 -0.43965265 -1.5031378 0.14958262 -0.7547508 -0.40916884 0.29196352 -0.40813416 0.2478775 -0.47500476 0.7236834 -0.62093115
耻 1.0906297 -0.39118433 -0.52581257 0.3344901 0.6110319 -0.07737493 0.63425356 -0.5587384 0.8590748 0.1078908 0.30383724 -0.48082167 0.40198278 -0.5164426 0.1793993 -0.15766379 -0.20162424 -0.4366444 -0.83523107 0.40218067 0.34098724 -0.93787444 -0.24111155 0.4039355 -0.40878627 0.035826642 -0.073654465 -0.7989472 0.93006396 -0.20125128 0.64322156 0.5629228 -0.31244847 -0.2291426 0.5942599 -0.56256545 -0.07829905 -0.020751633 -0.41871777 0.20634486 0.123114765 0.37402943 -0.77167135 0.76100373 0.28929102 -0.14829135 0.438597 0.13453004 -0.47818592 -0.7963926
失 -0.4674677 0.17309895 0.10085115 -0.9974675 0.31121624 0.88711727 0.5871087 -0.37721932 0.9746282 -0.770807 0.4178443 0.19788456 0.36024055 -1.2345452 0.22936746 0.41459057 -0.10835317 0.00048699882 0.8325135 -0.60792893 -0.64036 0.01093625 -0.7138102 0.03164032 0.041061584 0.18620548 0.052784856 0.19870843 0.6664905 -0.6099552 0.26690596 0.67000335 0.14463101 1.2990588 0.5636394 -1.0333817 -1.0490873 0.3324815 0.63340485 -0.7000408 -0.38844517 0.10444388 0.08068927 0.26727998 -0.13238384 0.19140337 1.0219513 0.15123291 0.8904128 -0.06574798
安 0.08070979 0.30656236 -0.4605863 -0.39001408 0.76423424 -0.29399568 -0.35368463 -0.37617904 -1.052348 0.19945385 0.30658 0.7028035 1.0953186 0.3670645 0.049016777 0.48043418 -0.031116499 -0.08835864 0.12086471 0.12948199 -0.41953635 -0.13356316 0.37550074 -0.051805854 -0.36807686 -0.032471288 0.25568125 -0.6904818 -0.64308983 -0.049244422 -0.09859628 0.5169494 0.35501218 1.1398417 0.13333027 -0.01485608 -0.0888099 0.42397085 0.7288399 -0.3397488 -0.36545148 -0.21272978 0.729013 -0.74346566 -0.16576579 -0.42868283 -0.14293638 -0.9595968 -0.57025295 -0.29598922
富 0.022778966 -0.14445812 0.34712774 0.22193949 0.02669167 0.5324888 1.0112573 -0.45008782 0.22210565 0.1679472 0.22119725 -0.4806669 0.06140664 -0.5570129 -0.6418911 0.1830569 0.2076253 0.5053143 0.21379101 0.21650913 -0.54739875 0.059860516 0.39925358 0.057211395 -0.24715683 0.26202568 1.1187394 0.29298726 -0.3042541 0.45053163 0.30524278 0.5701445 -0.3899713 0.6246614 -0.502974 -0.27946416 0.6238472 -0.34856117 -0.5398776 0.064801976 -0.60959214 0.29060468 -0.35387433 -0.53611535 0.4797221 0.019576743 -0.5410967 -0.36219472 -0.45590323 0.7163843
赐 0.42359 1.010312 0.16605116 -0.692305 -0.72362804 0.42439032 -0.66965985 0.037810553 -0.118187584 -1.2100915 1.1315042 -0.28218803 0.14505301 -0.42261788 -0.11426539 0.24336058 -1.1385692 0.33249018 0.3549547 0.51264924 -1.0482258 0.3900484 -0.5658982 -0.23698376 1.0734763 -0.7967719 0.25748527 0.2907612 -0.40289465 0.19051741 -0.79670596 -0.07334974 -0.13273421 -0.31235003 -0.26707917 -0.7251654 -0.6007116 0.02160792 0.12436972 -0.31211472 0.5771143 0.25375196 0.105572894 0.374133 -0.25981194 -0.53016365 -0.027220344 -0.3106659 0.12543567 -0.404769
患 -1.0162969 -0.625727 -0.7303089 -1.0714135 -0.028857527 0.6294719 0.07499576 -0.1080889 0.11142374 0.47094455 0.49947783 0.37008476 0.17228018 -0.020688318 -0.25595817 0.4379927 -0.40517268 -0.012196637 -0.4246875 0.07712024 -0.010989789 -0.5326959 -0.37419492 -0.06984834 -0.6834128 0.5749059 0.34793246 0.10979031 0.38555244 0.2817076 0.28708923 0.7314621 0.74158525 0.20348996 0.25140804 -0.58661366 -0.38388503 -0.014702064 1.0290991 0.29818442 -0.3230236 0.24501696 -0.41821584 0.2748697 -0.0013646425 0.36552447 -0.33261228 -0.23602329 0.06117109 0.3170486
百 -0.21276039 0.5757038 0.45328495 -0.7903373 0.44672728 0.35639945 0.18483609 -0.19689965 0.21130292 0.49763933 0.6698615 -0.49363622 0.40305787 0.32455736 0.13580377 0.63516796 0.565356 -0.1587322 -0.54110163 0.35189313 -0.4896593 -0.0850275 0.6929847 -0.36092767 -0.85220176 -0.07074789 0.563387 0.8919697 -0.20821582 -0.7530733 -0.455037 0.80725163 0.19943331 0.8835895 -0.060106117 -0.31575483 -0.47678432 -0.35173354 0.068620525 0.3328685 -0.14942311 -0.88540447 -0.3464617 0.74429363 -0.24333782 -0.13536152 0.10493584 -0.44257239 -0.69732213 -0.26013035
回 -0.3010054 1.0946487 0.44870523 -0.047487583 -0.045584247 0.27526033 -0.33303642 -0.35302505 -0.714255 -0.044208717 0.40280715 0.5253334 0.93598425 -0.28244504 0.038813766 -0.473767 -0.82629544 0.6283691 -0.21398355 0.66203934 0.270117 -1.3228612 -0.37551725 -0.53925747 0.8312179 -0.90176654 0.644051 0.17710416 0.20432222 1.3423468 -0.9237379 0.0410019 -0.64698625 0.2786892 0.65710133 -0.09320218 -0.24273159 0.03417609 -0.527601 -0.3102406 0.022607109 0.19767825 -0.24991663 0.031171381 -0.05413355 -0.16300234 -0.36378583 -0.9117256 -0.07895688 -0.28284284
宰 -0.61157817 0.13691448 -0.60989064 -0.4076108 -0.027302014 0.4099339 0.37022966 -0.31767255 -0.19374031 0.31725475 -0.51572526 -0.40039912 0.8826766 0.79575247 -0.5253977 -0.08139324 -0.619337 0.7136036 0.8501867 -0.39283597 0.59312326 0.46080497 -0.13649473 0.23845759 0.28465617 0.47062203 -0.43200675 0.11193825 0.047414046 0.22458439 -0.11358525 0.07435281 0.54130274 -0.29831073 -0.58430636 0.024168286 -0.36807308 0.54364204 -0.21114224 -0.29005757 0.0573922 0.09113324 -0.13931334 0.3072809 0.23742746 0.48293322 0.613997 -0.61950845 -0.73938507 0.41835725
朝 0.8209812 0.29054964 -0.8650565 0.49741846 0.18191864 0.0007073126 -0.18851687 -0.28927654 0.3461176 -0.24206497 -0.29125184 -0.02401928 0.123625815 -0.23029597 0.57700956 0.88693905 -0.19227296 -0.1469798 -0.44316322 0.54704744 0.36297917 -0.6833731 0.7000564 0.0087588215 -0.31397203 0.79246795 0.4430472 0.32130948 -0.21176372 -0.064521044 0.13420892 -0.00075700646 -0.029625647 -0.59566784 -0.20335278 -0.39146104 -0.014350254 -0.35141918 -1.0210838 0.27333298 0.10553569 -0.4156692 -0.6129785 0.7867486 0.25266472 0.07472028 0.94466674 -0.21915017 -0.5427886 -0.13886963
莫 -0.82443064 -0.45226863 0.6436198 -0.730757 -0.05911084 -0.09789203 0.25441003 -0.27578786 -0.629905 -0.07668565 0.34883317 0.054835904 1.2518046 0.42270657 1.0432262 -0.17529263 -0.9482364 0.72485405 0.123658806 -0.04440184 -0.22411633 -0.4966326 -0.5842832 -0.015922057 -0.38643163 0.3130926 -0.09278484 -0.3237614 -0.51618624 0.57473963 -0.27628794 0.37854177 0.489196 0.23400156 0.06304683 -0.044553712 -0.91985834 -0.3317506 -0.13372354 0.74211925 -0.3786187 -0.50463367 -0.45260522 0.18573791 -0.22562939 -0.48896608 -0.5804627 0.19466512 -0.04964129 -0.15545693
若 -0.20336594 -0.031542934 -0.7962608 0.047334697 -0.19233668 0.93724734 -0.20901598 -0.059099097 -0.11526646 -0.29440865 -0.4691831 -0.16225842 0.39403245 -0.4628041 -0.31748122 -0.29575798 -0.57923496 0.47407117 0.19746898 -0.28187174 -0.11645771 -0.15319873 -0.7556976 -0.42129606 0.2643173 0.16036081 -0.6515405 -0.39508247 0.19139656 0.3345106 0.7268001 0.58039224 -0.6244183 0.8989788 -0.62811404 0.15640406 -0.38288146 -0.2422385 -0.26195914 -0.2968685 -0.6630435 0.37038666 -0.18622892 0.14138655 0.1404968 -0.7717183 -0.75150967 -0.38934138 0.28187448 0.41038132
云 0.27177775 -0.2816662 -0.25089827 0.38682255 0.3038653 0.1950609 -0.60604703 0.18993631 0.8392321 0.30862367 0.121599086 0.28059408 0.12401332 -0.29291558 0.13284111 -0.27027404 0.19225308 0.3451947 0.14479043 -1.0846843 -0.44797346 0.3206936 -0.44141576 0.034938037 0.4097336 0.26865712 0.24379319 0.009400814 -0.059630875 -0.7258988 -0.6324336 -0.36427325 -0.35811698 -0.46874195 -0.5950105 -0.20595863 0.75633705 0.6002331 -1.2505735 -0.37646022 0.2659471 -0.17554705 -0.78471726 0.2902305 0.7712918 -0.6730068 -0.39752403 -1.289277 -1.2335113 0.5074746
孙 -0.031241287 0.933347 -0.45567364 0.19562633 -0.31972152 0.22967626 -0.20485839 0.018211875 -0.47344697 0.35935482 -0.3654578 -0.69334936 0.21485567 -0.2956931 0.10103777 -0.5348378 -0.32483196 -0.0626708 0.57962996 -0.61440974 0.38611102 -0.0084626395 -0.32043546 -0.729884 0.21883707 -0.19131184 0.80660856 -0.10772786 -0.42472228 -0.38705313 1.2654166 0.3798321 0.09492614 -0.41297737 -0.2675939 -0.51083493 0.11262237 -0.2017354 0.24250598 0.3996591 -0.5915555 -0.13110785 -0.06491821 0.578789 -1.0338526 0.17655954 0.81378245 -0.1656098 -0.034720864 0.26611304
或 -0.04738563 -0.1503963 1.1918776 0.19630802 -0.50279766 0.15957607 -1.0391262 0.037124563 0.29006866 0.39747941 0.4812589 0.093651295 -0.02185889 0.015617351 -0.63584465 -0.14160334 -0.42885137 0.8775346 0.7198741 0.053040035 -0.3629271 -0.20540036 0.29013652 -0.12787303 0.13502522 0.3094986 -0.74325633 0.07021439 0.36548778 -0.74732035 -0.1523296 0.12201576 0.18328266 0.26358226 0.6163894 0.15276869 0.12485722 -0.45310903 0.10334874 -0.14447208 -0.45710054 0.9252332 -0.7125908 0.34911487 0.8741184 0.12233442 0.032112174 -0.88492364 0.07511863 -1.1174318
